-4.835148453712463379e-01,-2.077413499355316162e-01,-4.411029517650604248e-01,3.902714252471923828e-01,-2.558991312980651855e-01,4.570891261100769043e-01,-5.549853444099426270e-01,-4.833933711051940918e-01,-6.793714165687561035e-01,4.099318087100982666e-01
-2.119470089673995972e-01,-4.568245634436607361e-02,-8.060243725776672363e-01,-5.682903528213500977e-01,1.043665260076522827e-01,6.399878859519958496e-02,-1.515406370162963867e-01,-3.639952540397644043e-01,1.151510104537010193e-01,-7.149555683135986328e-01
5.022808536887168884e-02,-2.095035910606384277e-01,3.699483275413513184e-01,-5.583729222416877747e-02,1.198498532176017761e-01,-1.406533457338809967e-02,-2.520595490932464600e-01,-2.283153533935546875e-01,-1.703342050313949585e-01,-3.693411946296691895e-01
4.053306207060813904e-02,4.088093638420104980e-01,-4.082306921482086182e-01,-4.759131073951721191e-01,7.673010230064392090e-02,-1.335498541593551636e-01,-2.444517798721790314e-02,1.038384959101676941e-01,-6.544731855392456055e-01,-2.049589604139328003e-01
-1.230779439210891724e-01,-1.599352210760116577e-01,-7.880984246730804443e-02,-4.712649881839752197e-01,-6.347619891166687012e-01,6.261408329010009766e-02,1.701498180627822876e-01,-3.618177473545074463e-01,-9.825391322374343872e-02,2.527121454477310181e-02
-1.581084132194519043e-01,3.023270666599273682e-01,-3.692890107631683350e-01,-2.493191510438919067e-01,-2.199991792440414429e-01,2.110023200511932373e-01,-1.181612089276313782e-01,1.996036320924758911e-01,-1.101509705185890198e-01,-4.038585722446441650e-01
1.302414238452911377e-01,-1.141630262136459351e-01,-1.817723959684371948e-01,-1.275450587272644043e-01,-8.920049667358398438e-02,-1.591329574584960938e-01,2.337047159671783447e-01,-1.252411752939224243e-01,-3.445935621857643127e-02,3.957540914416313171e-02
5.657203122973442078e-02,-2.325800806283950806e-01,-2.805380225181579590e-01,-3.376210331916809082e-01,-6.487284898757934570e-01,1.646313220262527466e-01,-4.889528453350067139e-01,8.720497786998748779e-02,-1.701102703809738159e-01,1.176657062023878098e-02
-3.142599463462829590e-01,-6.330365538597106934e-01,-5.755503103137016296e-02,6.836205124855041504e-01,-2.781476378440856934e-01,2.164406031370162964e-01,-2.933350801467895508e-01,-2.971849441528320312e-01,-8.256403207778930664e-01,8.193113654851913452e-02
-9.345137514173984528e-03,-1.240081805735826492e-02,-3.649040460586547852e-01,-2.330546528100967407e-01,-8.136265724897384644e-02,-3.517297208309173584e-01,2.355600893497467041e-01,-8.377461135387420654e-02,-3.406918793916702271e-02,-4.196641743183135986e-01
-2.331142127513885498e-01,-8.783707022666931152e-02,3.344809229020029306e-04,1.442036032676696777e-01,-7.092596590518951416e-02,-3.022446632385253906e-01,-1.541710793972015381e-01,2.091973721981048584e-01,7.263454142957925797e-03,1.822833158075809479e-02
-8.905899524688720703e-02,1.848178505897521973e-01,3.786974772810935974e-02,-5.241418480873107910e-01,-1.721226237714290619e-02,-4.915942847728729248e-01,-2.337359189987182617e-01,1.444824039936065674e-01,-1.656776219606399536e-01,-7.043902277946472168e-01
-2.563124895095825195e-02,-1.955241151154041290e-02,2.059548944234848022e-01,-2.112598270177841187e-01,-9.872011095285415649e-02,-7.005021721124649048e-02,-4.766111075878143311e-02,2.513610199093818665e-02,-1.060151606798171997e-01,1.282251533120870590e-02
5.889054760336875916e-02,3.187828883528709412e-02,-7.838726043701171875e-03,-6.735375523567199707e-02,2.658917754888534546e-02,1.345113478600978851e-02,-2.313354425132274628e-02,-3.835422173142433167e-02,2.866824716329574585e-02,3.690529242157936096e-02
-4.849474728107452393e-01,-2.896963357925415039e-01,-1.325471550226211548e-01,1.683743298053741455e-01,-6.909999251365661621e-01,-6.964501142501831055e-01,-6.131754517555236816e-01,-4.761245101690292358e-02,2.375945299863815308e-01,1.228220108896493912e-02
-8.308099955320358276e-02,-2.615633606910705566e-01,1.840630918741226196e-01,-2.380105108022689819e-01,2.335176104679703712e-03,-1.125034391880035400e-01,1.291784495115280151e-01,-9.365742653608322144e-02,-3.417293429374694824e-01,-2.999495863914489746e-01
-2.097741663455963135e-01,1.921608857810497284e-02,1.746743470430374146e-01,-7.229054570198059082e-01,-1.577785611152648926e-01,-4.003457725048065186e-01,-1.735152453184127808e-01,4.569808393716812134e-02,1.819137334823608398e-01,-6.055359840393066406e-01
-1.133894249796867371e-01,2.218757942318916321e-02,-4.220707118511199951e-01,-5.010588169097900391e-01,-3.058093488216400146e-01,2.429776787757873535e-01,8.595930784940719604e-02,-5.272865295410156250e-01,8.769419044256210327e-02,-1.508607119321823120e-01
-1.961231231689453125e-01,-1.941380798816680908e-01,-1.686094105243682861e-01,-3.531986773014068604e-01,3.494426980614662170e-02,-1.634341925382614136e-01,-4.359450638294219971e-01,5.689700320363044739e-02,4.483418166637420654e-02,4.690639674663543701e-03
-7.450897693634033203e-01,-6.315024495124816895e-01,2.141415029764175415e-01,-3.776022493839263916e-01,4.046995341777801514e-01,-4.185548052191734314e-02,-1.260710693895816803e-02,-7.125651091337203979e-02,-7.966265678405761719e-01,-2.863611578941345215e-01
1.624979376792907715e-01,-7.460366487503051758e-01,-4.820912182331085205e-01,2.940714173018932343e-02,-1.422541737556457520e-01,-1.239541172981262207e-01,-4.450936615467071533e-01,-2.495531290769577026e-01,6.977649033069610596e-02,-1.235257163643836975e-01
-1.162344217300415039e-01,-2.198790460824966431e-01,-1.597255468368530273e-01,-7.409003376960754395e-02,3.999920785427093506e-01,-1.569931358098983765e-01,-3.338353037834167480e-01,-8.436731249094009399e-02,-5.122385025024414062e-01,3.009255826473236084e-01
-1.748730540275573730e-01,-1.253141611814498901e-01,-4.304482042789459229e-01,-7.424067258834838867e-01,-1.321218814700841904e-02,1.744117736816406250e-01,-9.819497913122177124e-02,-3.916520476341247559e-01,2.728199660778045654e-01,-1.439981460571289062e-01
-4.164754599332809448e-02,-1.239431090652942657e-02,-1.195989921689033508e-01,-1.633966863155364990e-01,2.773815989494323730e-01,-1.546357274055480957e-01,-2.963544614613056183e-02,-1.269232481718063354e-02,3.203988075256347656e-02,-1.942498385906219482e-01
-1.803844571113586426e-01,-1.504512280225753784e-01,2.527266740798950195e-01,1.990964859724044800e-01,-2.797886170446872711e-02,4.799243807792663574e-02,-6.344915628433227539e-01,-4.600042700767517090e-01,-8.851474523544311523e-01,9.166888892650604248e-02
-3.295611590147018433e-02,-4.408465325832366943e-01,-9.310492873191833496e-02,2.031656652688980103e-01,-4.707414805889129639e-01,-3.891979157924652100e-02,-1.786433756351470947e-01,-8.062350749969482422e-01,1.841300129890441895e-01,-2.698537111282348633e-01
3.623474389314651489e-02,-1.751090213656425476e-02,6.188262626528739929e-02,-4.087626934051513672e-02,8.897647261619567871e-02,1.407427489757537842e-01,-8.438380807638168335e-02,-2.020173668861389160e-01,7.701210677623748779e-02,5.571961868554353714e-03
3.708438202738761902e-02,8.853813260793685913e-02,9.894133359193801880e-02,-1.431158035993576050e-01,-1.131009683012962341e-01,-1.273221820592880249e-01,-2.346313744783401489e-02,-8.948283270001411438e-03,-1.189600601792335510e-01,-1.487782001495361328e-01
-1.065548360347747803e-01,-2.967292964458465576e-01,-2.713181078433990479e-01,-6.046977043151855469e-01,4.695114195346832275e-01,-5.251206755638122559e-01,4.767647981643676758e-01,1.344366967678070068e-01,-2.032002806663513184e-01,-7.481230497360229492e-01
-4.088176190853118896e-01,-3.223434984683990479e-01,-4.646824002265930176e-01,-2.038400471210479736e-01,-3.279300630092620850e-01,1.744049787521362305e-01,1.594553291797637939e-01,-8.024393022060394287e-02,-7.487304508686065674e-02,-7.441498339176177979e-02
-2.940980195999145508e-01,-1.825044453144073486e-01,4.620385169982910156e-01,-4.124539792537689209e-01,-2.121416479349136353e-01,9.873896092176437378e-02,1.028858721256256104e-01,-1.325188428163528442e-01,-1.048776656389236450e-01,-5.832719206809997559e-01
-4.175882637500762939e-01,-1.925052702426910400e-01,4.547931253910064697e-02,9.599895775318145752e-02,-7.197021245956420898e-01,-6.074242591857910156e-01,-4.620522260665893555e-01,1.706997305154800415e-01,-9.170468896627426147e-02,-4.041234776377677917e-02
-1.266539543867111206e-01,-6.283791363239288330e-02,-2.884955406188964844e-01,2.242984622716903687e-01,-8.428326994180679321e-02,-3.393829241394996643e-02,7.002439349889755249e-02,2.536240518093109131e-01,-1.941141635179519653e-01,-1.666554063558578491e-01
-2.664971053600311279e-01,-1.942586302757263184e-01,1.627202332019805908e-01,-1.992082595825195312e-01,-3.592959046363830566e-01,1.001335098408162594e-03,-7.578045874834060669e-02,1.153457164764404297e-01,-5.950847989879548550e-04,-9.637780487537384033e-03
4.620027914643287659e-02,-1.415366828441619873e-01,-1.590035296976566315e-02,-3.457922488451004028e-02,2.557252347469329834e-02,-8.156849443912506104e-02,5.087523907423019409e-02,-1.913940310478210449e-01,-8.688347786664962769e-02,-1.441690721549093723e-03
-2.398699373006820679e-01,-2.986545674502849579e-02,8.605489134788513184e-02,-3.195415437221527100e-01,-5.136863887310028076e-02,-2.072534561157226562e-01,4.186200499534606934e-01,-1.435139328241348267e-01,-6.728535294532775879e-01,-1.913916170597076416e-01
-3.736686408519744873e-01,-1.229177042841911316e-02,2.774081006646156311e-02,-3.412233591079711914e-01,2.229842692613601685e-01,-2.114953100681304932e-01,2.443476021289825439e-01,-1.650296151638031006e-01,-4.187850654125213623e-01,-3.495550155639648438e-01
1.216025128960609436e-01,9.425526112318038940e-02,-3.134578764438629150e-01,-7.041563093662261963e-02,-2.437381595373153687e-01,-3.555343747138977051e-01,2.034962922334671021e-01,1.476572453975677490e-01,-4.898095130920410156e-01,-3.074843585491180420e-01
-1.737645640969276428e-02,-3.738594353199005127e-01,3.416844084858894348e-02,2.755714356899261475e-01,-2.920583188533782959e-01,-5.723857134580612183e-02,-8.527982234954833984e-02,6.973752379417419434e-02,-6.168048381805419922e-01,-3.004404902458190918e-01
-3.845107927918434143e-02,-1.057806760072708130e-01,2.597428560256958008e-01,-2.585887722671031952e-02,-3.325463086366653442e-02,-9.924395382404327393e-02,-1.333592683076858521e-01,-1.245268210768699646e-01,-2.908606827259063721e-01,-1.221253722906112671e-01
-3.470521867275238037e-01,-2.148914383724331856e-03,-1.852600574493408203e-01,-4.263592362403869629e-01,1.646155416965484619e-01,1.116629466414451599e-01,-2.978687882423400879e-01,-5.091151106171309948e-04,-2.665885351598262787e-02,-1.548840850591659546e-01
2.128970772027969360e-01,-1.403053849935531616e-01,3.263641148805618286e-02,-2.131421864032745361e-01,-1.143229007720947266e-01,-1.756628602743148804e-01,2.184854447841644287e-01,-8.918254077434539795e-02,-3.739926815032958984e-01,-5.148822441697120667e-02
-2.654324769973754883e-01,-2.969610393047332764e-01,-6.378480046987533569e-02,3.561369478702545166e-01,-4.246521890163421631e-01,3.289493173360824585e-02,-1.287219077348709106e-01,-1.030904427170753479e-01,-1.288130600005388260e-02,-5.418142080307006836e-01
-8.570129424333572388e-02,-6.304066181182861328e-01,-1.423000395298004150e-01,-1.604069024324417114e-01,-5.407412648200988770e-01,-9.417627006769180298e-02,-2.220414951443672180e-02,-7.400826811790466309e-01,1.560683846473693848e-01,1.489833444356918335e-01
-4.094577133655548096e-01,7.884534448385238647e-02,-5.208528041839599609e-01,3.069826066493988037e-01,1.349815279245376587e-01,3.469718694686889648e-01,-4.598955512046813965e-01,-3.811327517032623291e-01,-6.197806596755981445e-01,2.978039681911468506e-01
-3.492476046085357666e-02,-5.515163391828536987e-02,-1.204501241445541382e-01,6.187018379569053650e-02,-3.331409096717834473e-01,4.074336886405944824e-01,-3.465805202722549438e-02,-3.281263634562492371e-02,-6.274660825729370117e-01,-5.874320492148399353e-02
-2.263988703489303589e-01,-2.894279919564723969e-02,1.450926214456558228e-01,-1.931011527776718140e-01,2.495793849229812622e-01,-1.682393997907638550e-01,-2.296969853341579437e-02,-2.550347745418548584e-01,-3.937954902648925781e-01,-5.196774005889892578e-01
-6.882652640342712402e-01,-4.345881640911102295e-01,-2.971865832805633545e-01,1.010591611266136169e-01,6.957823783159255981e-02,2.343513071537017822e-01,-7.439062595367431641e-01,-1.807519197463989258e-01,-7.842583656311035156e-01,3.333700597286224365e-01
-3.809003904461860657e-02,-1.750229299068450928e-01,8.945243060588836670e-02,1.561608761548995972e-01,-4.758866727352142334e-01,-4.712867438793182373e-01,8.540517650544643402e-03,3.253563120961189270e-02,-5.170177221298217773e-01,1.491836085915565491e-02
-1.101763825863599777e-02,-2.350847274065017700e-01,8.314385078847408295e-03,-3.287404179573059082e-01,2.685207501053810120e-02,1.048469021916389465e-01,-1.853387802839279175e-01,-1.148894801735877991e-01,2.280197888612747192e-01,-1.181290950626134872e-02
-3.562656231224536896e-03,-9.926886111497879028e-02,-3.978892266750335693e-01,-5.590525865554809570e-01,-1.761029288172721863e-02,1.413573175668716431e-01,-3.732212632894515991e-02,-3.775548338890075684e-01,2.580692768096923828e-01,-1.115361452102661133e-01
1.773764938116073608e-02,-2.493472546339035034e-01,-1.478006318211555481e-02,1.296797096729278564e-01,-2.760972976684570312e-01,-4.006464779376983643e-01,-1.680120527744293213e-01,2.819598317146301270e-01,-4.253894686698913574e-01,-8.434637784957885742e-01
1.261105984449386597e-01,-1.612603366374969482e-01,2.429260611534118652e-01,-4.175013303756713867e-01,-2.386338859796524048e-01,-1.445032060146331787e-01,3.075391948223114014e-01,-3.611508607864379883e-01,-3.251081407070159912e-01,-4.019682109355926514e-01
8.371292613446712494e-03,-2.701647877693176270e-01,-2.174218147993087769e-01,-4.417375624179840088e-01,6.263910979032516479e-02,9.830358903855085373e-04,-5.721473097801208496e-01,3.198445215821266174e-02,-4.307236969470977783e-01,1.069949567317962646e-01
3.388512730598449707e-01,9.556454420089721680e-02,1.385249793529510498e-01,-2.606343328952789307e-01,-2.062212675809860229e-02,-2.081218063831329346e-01,1.164317280054092407e-01,-9.191665798425674438e-02,-5.410268306732177734e-01,-2.540570497512817383e-01
-3.583061397075653076e-01,-1.766254305839538574e-01,9.733591228723526001e-02,7.943755388259887695e-02,-5.885839462280273438e-01,2.962445281445980072e-02,-4.631335139274597168e-01,2.045745998620986938e-01,-8.855991810560226440e-02,-8.506444096565246582e-01
-2.738909050822257996e-02,-2.258408069610595703e-01,-1.923021525144577026e-01,-4.801121950149536133e-01,1.441319435834884644e-01,-3.424205780029296875e-01,2.870613634586334229e-01,7.599371671676635742e-02,-3.017416894435882568e-01,-2.135558724403381348e-01
-3.057677745819091797e-01,-2.544459402561187744e-01,2.438244372606277466e-01,-2.113329470157623291e-01,-4.583301246166229248e-01,-1.849805116653442383e-01,4.081949293613433838e-01,-1.068396046757698059e-01,-1.328482180833816528e-01,-1.790767610073089600e-01
1.648563146591186523e-01,-4.951893389225006104e-01,-9.611161053180694580e-02,-5.871828794479370117e-01,-2.874489426612854004e-01,-2.734166383743286133e-01,2.049361914396286011e-01,-4.172711670398712158e-01,2.243870496749877930e-02,2.178405597805976868e-02
-2.091274410486221313e-01,4.167866334319114685e-02,2.870920300483703613e-01,-4.062033891677856445e-01,2.054865658283233643e-01,-1.278113871812820435e-01,7.292141765356063843e-02,-5.048767197877168655e-03,-3.560028672218322754e-01,-5.396367907524108887e-01
1.942788362503051758e-01,-8.752588182687759399e-02,-4.834478497505187988e-01,-2.868780195713043213e-01,-1.801633089780807495e-02,1.024518385529518127e-01,-3.089435994625091553e-01,1.301230639219284058e-01,-1.841895878314971924e-01,-1.464195549488067627e-01
1.769698709249496460e-01,-1.113784983754158020e-01,-1.002828404307365417e-01,-2.271228730678558350e-01,-1.273051798343658447e-01,-7.814230322837829590e-01,-1.607314348220825195e-01,-2.757865563035011292e-02,-4.441071301698684692e-02,-6.552179157733917236e-02
-6.856045126914978027e-02,7.792402524501085281e-03,-3.295302093029022217e-01,-4.141878802329301834e-03,-2.557213306427001953e-01,-5.612030625343322754e-02,4.348924160003662109e-01,-2.180953323841094971e-01,-2.348433583974838257e-01,-1.830379664897918701e-02
8.152244240045547485e-02,-2.056716233491897583e-01,-2.702229283750057220e-02,-1.137944012880325317e-01,-2.128444463014602661e-01,-1.170665025711059570e-01,-3.069539964199066162e-01,-5.822085142135620117e-01,-3.250516578555107117e-02,-1.756849288940429688e-01
-7.003263384103775024e-02,-1.253680586814880371e-01,-2.851907014846801758e-01,1.356697231531143188e-01,-2.032961994409561157e-01,-1.716977953910827637e-01,1.156761646270751953e-01,1.775271445512771606e-01,-2.401760071516036987e-01,-3.362423181533813477e-01
-1.908837705850601196e-01,-4.095609784126281738e-01,4.732131958007812500e-02,-3.965290784835815430e-01,-1.261069029569625854e-01,-2.201797515153884888e-01,-1.555214673280715942e-01,-2.150532454252243042e-01,3.020955324172973633e-01,2.980675399303436279e-01
2.329127043485641479e-01,-2.665826976299285889e-01,-2.692189216613769531e-01,-5.479923486709594727e-01,-3.124527037143707275e-01,1.389747112989425659e-01,1.333447843790054321e-01,-4.417816549539566040e-02,-1.246240362524986267e-01,-2.750170826911926270e-01
-3.130516707897186279e-01,-3.427928984165191650e-01,-2.587186098098754883e-01,-7.263268828392028809e-01,2.603062987327575684e-01,-4.417797923088073730e-01,-3.139925599098205566e-01,8.684153854846954346e-02,-1.063769340515136719e+00,2.484813779592514038e-01
-2.169531285762786865e-01,-3.845257759094238281e-01,1.982966065406799316e-01,-3.286550939083099365e-01,-4.337532445788383484e-02,8.212946355342864990e-02,1.969034820795059204e-01,-1.174099221825599670e-01,-2.632827758789062500e-01,-3.491528332233428955e-01
-1.184034571051597595e-01,-3.462013229727745056e-02,-8.185610920190811157e-02,-1.790278702974319458e-01,-4.112788140773773193e-01,-6.450208425521850586e-01,2.038604579865932465e-02,-3.254203200340270996e-01,-8.769600838422775269e-02,6.676086783409118652e-02
-3.724651783704757690e-02,-3.717049658298492432e-01,-1.116054281592369080e-01,-3.399763703346252441e-01,1.142023876309394836e-01,-3.692196905612945557e-01,2.780142426490783691e-02,-3.789399862289428711e-01,-6.750547289848327637e-01,2.570197880268096924e-01
-1.834551990032196045e-02,-1.922894716262817383e-01,1.128873750567436218e-01,3.963617607951164246e-02,-1.655706316232681274e-01,-3.807093575596809387e-02,-4.480706527829170227e-02,-1.931672543287277222e-02,4.750483855605125427e-02,8.583921939134597778e-02
2.571732997894287109e-01,-1.526895817369222641e-02,-1.258319169282913208e-01,-1.729956716299057007e-01,4.715050570666790009e-03,-3.489137291908264160e-01,-1.880496144294738770e-01,1.519824713468551636e-01,6.057798396795988083e-03,-1.059851422905921936e-01
2.472348324954509735e-02,1.852885335683822632e-01,3.014085069298744202e-02,1.155477315187454224e-01,-3.442326188087463379e-01,-1.255827695131301880e-01,1.244006454944610596e-01,-2.825775146484375000e-01,-2.179179638624191284e-01,-2.525169849395751953e-01
-2.418985217809677124e-01,-1.065074428915977478e-01,5.983082205057144165e-02,2.787785232067108154e-01,1.510673668235540390e-03,-1.793851703405380249e-01,-3.570930659770965576e-01,3.671854138374328613e-01,-5.256274938583374023e-01,-9.812621474266052246e-01
7.720429450273513794e-02,-4.915574789047241211e-01,5.902701988816261292e-03,-7.404729723930358887e-02,-3.669435679912567139e-01,-2.733017802238464355e-01,-4.572762846946716309e-01,2.115702927112579346e-01,5.344685539603233337e-02,-3.747785985469818115e-01
3.500380739569664001e-02,-1.511604338884353638e-01,-4.230085313320159912e-01,8.051992207765579224e-02,-3.499830067157745361e-01,1.200340464711189270e-01,1.654343754053115845e-01,-2.266349196434020996e-01,-4.166086390614509583e-02,-2.034448087215423584e-02
1.149883773177862167e-02,-3.881607204675674438e-02,-7.072769850492477417e-02,9.717288427054882050e-03,-3.885171562433242798e-02,-7.344508171081542969e-02,1.695637963712215424e-02,-4.450602084398269653e-02,5.819085612893104553e-02,2.166395448148250580e-02
-1.743422262370586395e-02,-1.334053277969360352e-01,-4.766355156898498535e-01,-2.819187752902507782e-02,7.124121487140655518e-02,-7.685993914492428303e-04,3.839066997170448303e-02,3.362815082073211670e-01,-1.880282759666442871e-01,-4.080345630645751953e-01
7.639701664447784424e-02,-4.014829099178314209e-01,-9.995374083518981934e-02,-3.087140992283821106e-02,-2.466298043727874756e-01,-3.396105766296386719e-02,-3.148525953292846680e-01,-1.514486074447631836e-01,-1.967941373586654663e-01,7.120641320943832397e-02
-2.473176270723342896e-01,1.794897019863128662e-01,-2.624265551567077637e-01,-2.608301937580108643e-01,-1.033727005124092102e-01,-6.457701325416564941e-01,6.442309916019439697e-02,1.424437016248703003e-01,-3.461910188198089600e-01,-1.659262180328369141e-01
-3.551556766033172607e-01,9.925644099712371826e-02,-3.132395148277282715e-01,-5.189550518989562988e-01,-2.095482647418975830e-01,-3.652444779872894287e-01,1.915427483618259430e-02,-5.238281562924385071e-02,3.022446334362030029e-01,-3.243995457887649536e-02
1.803386062383651733e-01,-8.617179393768310547e-01,1.092981696128845215e-01,-4.726589322090148926e-01,1.645628213882446289e-01,-3.789779841899871826e-01,-1.270058304071426392e-01,-5.873785018920898438e-01,-5.240811705589294434e-01,-3.211766481399536133e-01
-3.091752827167510986e-01,-5.227586030960083008e-01,-3.053700625896453857e-01,6.508872658014297485e-02,1.605602726340293884e-02,1.743303425610065460e-02,-3.265781402587890625e-01,-8.231091499328613281e-01,3.636949956417083740e-01,-2.223419770598411560e-02
-7.975815981626510620e-02,-4.367985129356384277e-01,-2.822335362434387207e-01,-9.882074594497680664e-02,1.420190483331680298e-01,-8.960455656051635742e-02,-2.121869027614593506e-01,-2.966164052486419678e-01,7.636518776416778564e-02,2.133412063121795654e-01
-1.163707673549652100e-02,1.372601836919784546e-02,7.760519534349441528e-02,-2.660581767559051514e-01,4.749423265457153320e-02,-3.970636427402496338e-02,-8.387012779712677002e-02,-1.915685087442398071e-01,-1.796722114086151123e-01,5.047602951526641846e-02
2.134676575660705566e-01,-6.604647040367126465e-01,-1.179161220788955688e-01,2.210074663162231445e-01,-3.148223459720611572e-01,1.229632496833801270e-01,1.534524653106927872e-02,-2.020647674798965454e-01,9.236434125341475010e-04,-2.951377332210540771e-01
-7.178174704313278198e-02,-8.491811901330947876e-02,-4.358808100223541260e-01,-7.767120599746704102e-01,1.512959152460098267e-01,-1.202873662114143372e-01,-4.620068073272705078e-01,1.657192409038543701e-01,-3.567596971988677979e-01,2.113242447376251221e-01
-6.836271882057189941e-01,-2.595525681972503662e-01,-2.702918350696563721e-01,-3.714248538017272949e-02,-6.117465496063232422e-01,1.845998764038085938e-01,9.543325752019882202e-02,-3.431168198585510254e-01,2.452744357287883759e-02,-3.525759577751159668e-01
-1.596204340457916260e-01,-1.090673431754112244e-01,2.117500156164169312e-01,-1.572702974081039429e-01,5.579335987567901611e-02,-1.313686221837997437e-01,-1.316144317388534546e-01,-1.567249745130538940e-01,7.840741425752639771e-02,-3.153197932988405228e-03
-1.990356594324111938e-01,7.976298779249191284e-02,-3.215365409851074219e-01,-1.655716747045516968e-01,1.877360343933105469e-01,7.977799326181411743e-02,-1.336372494697570801e-01,2.443756461143493652e-01,-2.186709791421890259e-01,-1.505121737718582153e-01
-3.587265014648437500e-01,-5.204534530639648438e-01,-3.678998053073883057e-01,4.930587410926818848e-01,-3.392245471477508545e-01,1.550691872835159302e-01,-1.476018577814102173e-01,1.655706204473972321e-02,-1.658728420734405518e-01,-2.433728575706481934e-01
-3.361832350492477417e-02,-2.031463198363780975e-02,4.622654616832733154e-02,-2.512055933475494385e-01,-2.329450547695159912e-01,-6.067932248115539551e-01,-6.589527130126953125e-01,-1.714344024658203125e-01,-3.268286585807800293e-01,9.718145430088043213e-02
-2.371433228254318237e-01,-8.077745139598846436e-02,-3.702893853187561035e-01,1.176977902650833130e-02,-3.271698951721191406e-01,-4.216792285442352295e-01,-3.076826035976409912e-01,-1.810485869646072388e-01,1.060039252042770386e-01,2.663048803806304932e-01
6.340003758668899536e-02,-2.977792620658874512e-01,7.643241435289382935e-02,-1.002252697944641113e-01,-2.952217161655426025e-01,-6.973481178283691406e-01,-3.714584410190582275e-01,-1.908391714096069336e-01,6.116193905472755432e-02,4.125267639756202698e-02
-1.320262104272842407e-01,-4.166597127914428711e-01,2.274867147207260132e-01,1.622346192598342896e-01,-6.914250850677490234e-01,-4.219826757907867432e-01,-1.272538304328918457e-01,3.542676270008087158e-01,-3.483686745166778564e-01,-2.011143863201141357e-01
1.672829091548919678e-01,-2.562261223793029785e-01,-2.792733609676361084e-01,5.353675782680511475e-02,-4.714471995830535889e-01,-1.058391407132148743e-01,-1.976408250629901886e-02,1.799824647605419159e-02,-2.211051434278488159e-01,-1.520585864782333374e-01
-2.879201173782348633e-01,5.268655717372894287e-02,-1.701947674155235291e-02,-4.831295907497406006e-01,-1.476008445024490356e-01,-3.327760398387908936e-01,-1.381635069847106934e-01,-3.959976136684417725e-02,1.732243746519088745e-01,-6.493545174598693848e-01
-1.381678581237792969e-01,1.757893860340118408e-01,-2.590916156768798828e-01,1.481657177209854126e-01,-2.677508890628814697e-01,-5.142552256584167480e-01,-6.435781717300415039e-02,1.976655796170234680e-02,-2.985940575599670410e-01,6.748397648334503174e-02
4.207240417599678040e-02,4.626872241497039795e-01,-1.854975968599319458e-01,-2.930878400802612305e-01,2.546148933470249176e-02,7.025991566479206085e-03,-1.040376126766204834e-01,-8.626472949981689453e-02,-1.979874521493911743e-01,-1.174431592226028442e-01
-3.454577922821044922e-01,-1.488259285688400269e-01,-6.664959192276000977e-01,-7.214946150779724121e-01,2.732000946998596191e-01,-3.342874944210052490e-01,-6.285290122032165527e-01,2.134486585855484009e-01,-6.452406644821166992e-01,3.302546739578247070e-01
1.082301437854766846e-01,-2.478488832712173462e-01,-4.777851700782775879e-02,-4.599317610263824463e-01,-3.327841758728027344e-01,-1.143405679613351822e-02,6.449550390243530273e-02,-1.063343361020088196e-01,-9.042219072580337524e-02,-6.434796378016471863e-03
-2.046147137880325317e-01,-2.170922607183456421e-02,-1.924791485071182251e-01,-4.680012464523315430e-01,9.615057148039340973e-03,-4.166974723339080811e-01,-1.298086792230606079e-01,1.242680922150611877e-01,-5.967117547988891602e-01,1.825456619262695312e-01
-3.940707147121429443e-01,-1.860788464546203613e-02,3.637549281120300293e-01,-4.010285437107086182e-01,-4.698356688022613525e-01,1.017246488481760025e-02,2.265266180038452148e-01,-7.638853043317794800e-02,-2.049522995948791504e-01,-4.103666841983795166e-01
-1.188915297389030457e-01,-1.200498417019844055e-01,-4.567706957459449768e-02,-1.115197837352752686e-01,-1.799506694078445435e-01,-8.619397878646850586e-01,-6.950129270553588867e-01,-1.098376438021659851e-01,-1.057058051228523254e-01,5.594118312001228333e-02
-1.990028470754623413e-02,-3.280709311366081238e-02,5.772602185606956482e-02,6.048060487955808640e-03,-1.532093435525894165e-02,-5.459601804614067078e-02,6.467545032501220703e-02,1.374573167413473129e-02,7.197073195129632950e-03,2.723640203475952148e-02
-1.034493222832679749e-01,2.103700861334800720e-02,-2.882378101348876953e-01,-3.176363110542297363e-01,-5.717313885688781738e-01,-1.396410465240478516e-01,1.608504205942153931e-01,-3.190035820007324219e-01,2.219861447811126709e-01,-2.433306574821472168e-01
-1.128687560558319092e-01,2.609627321362495422e-02,1.970031708478927612e-01,-2.160426378250122070e-01,-2.574314177036285400e-01,5.819572806358337402e-01,-4.303543269634246826e-02,-2.045664042234420776e-01,-4.632648825645446777e-01,-1.704942435026168823e-01
-2.495190314948558807e-02,-1.283907443284988403e-01,-2.074507772922515869e-01,-2.197749614715576172e-01,-5.520401895046234131e-02,-1.417132746428251266e-02,-2.122797220945358276e-01,2.494575381278991699e-01,-4.472554475069046021e-02,4.889545589685440063e-02
1.362543404102325439e-01,-5.613830089569091797e-01,3.926759958267211914e-02,-1.323890239000320435e-01,-7.935919165611267090e-01,-4.012986719608306885e-01,2.292523533105850220e-02,3.447981476783752441e-01,-3.965572118759155273e-01,-4.068357869982719421e-02
-3.932322263717651367e-01,1.529609113931655884e-01,-8.327856659889221191e-01,-6.998804807662963867e-01,-1.554968655109405518e-01,-1.921115964651107788e-01,-3.300555944442749023e-01,2.207998633384704590e-01,-4.569802880287170410e-01,1.712170392274856567e-01
-8.929181843996047974e-03,3.605881929397583008e-01,-1.953398287296295166e-01,7.237245794385671616e-03,-2.593321502208709717e-01,5.157705768942832947e-02,1.034942455589771271e-02,-2.638891935348510742e-01,-9.845567345619201660e-01,-2.834351360797882080e-01
1.741230636835098267e-01,2.040560171008110046e-02,-4.016835391521453857e-01,9.488370269536972046e-03,-1.945004165172576904e-01,-1.711746007204055786e-01,6.236892193555831909e-03,4.325300157070159912e-01,-1.641301512718200684e-01,-2.621759772300720215e-01
-1.246408820152282715e-01,-4.437907412648200989e-02,-2.508247792720794678e-01,1.709400266408920288e-01,2.147117406129837036e-01,-2.653035223484039307e-01,-1.101034209132194519e-01,-3.005794286727905273e-01,-2.562268972396850586e-01,1.926492750644683838e-01
3.531255200505256653e-02,7.389036566019058228e-02,-1.513120383024215698e-01,4.284674674272537231e-02,-6.590046733617782593e-02,6.700165569782257080e-02,-6.964908540248870850e-02,-1.232831478118896484e-01,5.366008728742599487e-02,-1.971961855888366699e-01
-3.120721876621246338e-01,-2.724446356296539307e-01,-9.100151062011718750e-02,4.431872665882110596e-01,-1.681266427040100098e-01,2.305734008550643921e-01,-4.311556220054626465e-01,-9.479849040508270264e-02,-4.428683519363403320e-01,6.478486955165863037e-02
-1.904009878635406494e-01,-9.149760007858276367e-02,-1.736222952604293823e-01,-8.312717080116271973e-01,8.247142285108566284e-02,-8.471564948558807373e-02,2.157498896121978760e-02,-2.488914132118225098e-01,-1.494440436363220215e-01,-1.215394400060176849e-02
-4.142796993255615234e-01,-9.886964410543441772e-02,-7.665717601776123047e-02,9.352741390466690063e-02,-3.528286814689636230e-01,5.575735867023468018e-02,-4.326787292957305908e-01,-3.982514739036560059e-01,-2.193652559071779251e-03,1.254476606845855713e-01
1.682740300893783569e-01,-4.848409071564674377e-02,-4.029393941164016724e-02,-7.599694728851318359e-01,-2.577162384986877441e-01,-5.358377099037170410e-01,-3.411186337471008301e-01,2.417765259742736816e-01,-5.001201629638671875e-01,2.181968241930007935e-01
-1.717741191387176514e-01,-1.756739467382431030e-01,1.514569967985153198e-01,-3.326102495193481445e-01,2.331280112266540527e-01,-3.218980133533477783e-01,-3.128071725368499756e-01,-8.367335423827171326e-03,-6.361799240112304688e-01,-6.151005029678344727e-01
3.635137677192687988e-01,-1.098071187734603882e-01,-6.935802847146987915e-02,-5.776760727167129517e-02,-1.015381366014480591e-01,-3.993057012557983398e-01,-2.956870757043361664e-02,1.036685556173324585e-01,7.688070181757211685e-03,-1.318855285644531250e-01
-2.112317830324172974e-01,-3.982377052307128906e-01,-3.157401382923126221e-01,3.019812703132629395e-01,-2.510259151458740234e-01,-6.015732139348983765e-02,-6.152710914611816406e-01,-2.613282799720764160e-01,-2.172147631645202637e-01,1.219358444213867188e-01
-4.427228495478630066e-02,-2.701135873794555664e-01,-5.090459585189819336e-01,1.521382927894592285e-01,2.880245260894298553e-02,-1.829382777214050293e-01,3.999212682247161865e-01,-2.617560327053070068e-01,-3.852053582668304443e-01,3.729688003659248352e-02
-5.246573090553283691e-01,1.887264251708984375e-01,8.302197605371475220e-02,-7.932687997817993164e-01,-2.911052405834197998e-01,-5.746888518333435059e-01,-1.574844121932983398e-01,-2.340229451656341553e-01,1.634280234575271606e-01,-1.388003110885620117e+00
-2.010591626167297363e-01,-1.357389837503433228e-01,3.054446280002593994e-01,-1.954309493303298950e-01,2.479218095541000366e-01,-1.271288655698299408e-02,-2.179134190082550049e-01,-1.951741576194763184e-01,6.952885072678327560e-03,-7.062296867370605469e-01
-4.331918656826019287e-01,-1.118930242955684662e-02,-7.958349585533142090e-01,1.863989830017089844e-01,-1.754798293113708496e-01,1.656458675861358643e-01,-1.882562190294265747e-01,-2.632560729980468750e-01,-5.272699594497680664e-01,1.412525326013565063e-01
-1.108289733529090881e-01,-7.765465974807739258e-02,4.170992225408554077e-02,-1.410394608974456787e-01,-2.737810015678405762e-01,-6.168460473418235779e-02,-1.141462922096252441e-01,1.626203358173370361e-01,2.453317493200302124e-02,-6.574638932943344116e-02
3.480588197708129883e-01,-1.773478388786315918e-01,1.578691601753234863e-01,1.712045073509216309e-02,-3.369238376617431641e-01,8.184354007244110107e-02,-3.649075031280517578e-01,-1.397978514432907104e-01,-5.900264978408813477e-01,-2.949019074440002441e-01
-1.566079705953598022e-01,2.779521644115447998e-01,3.344371914863586426e-02,-1.912828385829925537e-01,-3.760379850864410400e-01,-2.562521584331989288e-02,-7.708296179771423340e-01,-1.049430742859840393e-01,-5.279591679573059082e-01,-7.503118366003036499e-02
-2.981284856796264648e-01,-1.665268391370773315e-01,-2.818165346980094910e-02,-4.898397251963615417e-03,-9.385401010513305664e-02,-6.710796952247619629e-01,2.033144831657409668e-01,-6.781303137540817261e-02,-5.569797158241271973e-01,2.223410084843635559e-02
-3.963135480880737305e-01,-5.674441345036029816e-03,-2.370563801378011703e-03,-2.182039432227611542e-02,-1.046611443161964417e-01,-1.290919631719589233e-01,-3.362994790077209473e-01,9.988231956958770752e-02,-4.636365175247192383e-02,-1.886863857507705688e-01
-3.977637887001037598e-01,-6.399644911289215088e-02,-3.814308717846870422e-02,-3.130062296986579895e-02,-1.063240408897399902e+00,-6.743993163108825684e-01,-5.317246913909912109e-01,-6.850242614746093750e-02,-1.447029113769531250e-01,-5.068528279662132263e-02
-9.894368052482604980e-02,-9.826675802469253540e-02,-2.586815953254699707e-01,6.319459062069654465e-03,-4.824127852916717529e-01,4.185817088000476360e-04,1.203877702355384827e-01,-2.297335565090179443e-01,-5.701815336942672729e-02,-3.319153189659118652e-01
9.350987523794174194e-02,-5.806893482804298401e-02,-7.649396359920501709e-02,7.040567696094512939e-02,-5.093394964933395386e-02,-1.444308436475694180e-03,-5.377841368317604065e-02,-6.315374374389648438e-02,-2.110397443175315857e-02,-4.559258371591567993e-02
-5.413511022925376892e-02,-5.516227707266807556e-02,-9.237620979547500610e-02,5.340724587440490723e-01,-2.824704349040985107e-01,-1.984577067196369171e-02,6.849052850157022476e-03,-1.055862233042716980e-01,-2.165372371673583984e-01,-5.530816316604614258e-01
-2.526719272136688232e-01,1.940451264381408691e-01,-7.413021475076675415e-02,-2.852037250995635986e-01,3.529746830463409424e-01,-2.639849483966827393e-01,-9.657894819974899292e-02,4.107042681425809860e-03,-1.040162220597267151e-01,-2.676467299461364746e-01
2.406332455575466156e-02,3.931952416896820068e-01,-1.020775921642780304e-02,-1.211481839418411255e-01,-1.020672991871833801e-01,-5.199508368968963623e-02,1.927154487930238247e-03,-1.145155802369117737e-01,-2.387583106756210327e-01,1.683743596076965332e-01
-8.709185756742954254e-03,1.236842274665832520e-01,-3.715271502733230591e-02,-8.010506629943847656e-02,6.838385015726089478e-02,-2.236024662852287292e-02,-6.794217973947525024e-02,8.340403437614440918e-02,-3.104565441608428955e-01,3.091003000736236572e-02
-2.562897801399230957e-01,2.291406095027923584e-01,-3.295854330062866211e-01,-1.343023031949996948e-01,-1.293514221906661987e-01,-1.581988483667373657e-01,4.649212062358856201e-01,-1.147920861840248108e-01,-2.988580614328384399e-02,-4.505357518792152405e-02
2.340689748525619507e-01,3.013454377651214600e-03,-2.947033382952213287e-02,-2.337361574172973633e-01,-3.306190669536590576e-01,2.419914752244949341e-01,-5.837978050112724304e-02,-1.672152131795883179e-01,-1.462854593992233276e-01,-5.157981514930725098e-01
-2.634856998920440674e-01,-2.992572076618671417e-02,6.408537924289703369e-02,-2.610118985176086426e-01,1.432955265045166016e-01,-2.550307810306549072e-01,4.079917073249816895e-02,-5.272266268730163574e-01,1.458785831928253174e-01,-5.221700668334960938e-01
-2.626422047615051270e-01,6.788993626832962036e-02,-1.163438037037849426e-01,9.908492118120193481e-02,4.528207182884216309e-01,-2.954058349132537842e-01,5.795574188232421875e-02,-3.297749161720275879e-01,-4.281332790851593018e-01,-5.169345736503601074e-01
2.448432445526123047e-01,-4.438740201294422150e-03,-2.588993310928344727e-01,-3.376011177897453308e-02,4.525416716933250427e-02,-3.184488415718078613e-01,-3.131449595093727112e-02,5.747858434915542603e-02,-1.738806068897247314e-01,-2.796164453029632568e-01
3.521925583481788635e-02,4.065754711627960205e-01,-3.700429499149322510e-01,-8.874791860580444336e-02,-1.316719502210617065e-01,-3.790495991706848145e-01,3.151109516620635986e-01,-2.100083678960800171e-01,-7.780965566635131836e-01,-1.114930287003517151e-01
-5.932584404945373535e-02,-3.312333300709724426e-02,-3.356577455997467041e-01,-5.683018565177917480e-01,-3.033511638641357422e-01,-4.127069711685180664e-01,-1.206184253096580505e-01,2.784864604473114014e-01,3.558541238307952881e-01,-2.960713803768157959e-01
-2.067266851663589478e-01,-2.520862817764282227e-01,-1.221001744270324707e-01,4.107638001441955566e-01,-9.025052934885025024e-02,2.432171851396560669e-01,-2.075241059064865112e-01,-2.446991950273513794e-01,-2.028014063835144043e-01,-1.289662420749664307e-01
-4.567891657352447510e-01,1.106686815619468689e-01,2.224349416792392731e-02,2.952241152524948120e-02,2.803290784358978271e-01,-3.466897308826446533e-01,-2.464857995510101318e-01,-3.231051564216613770e-01,2.861702069640159607e-02,-4.803282618522644043e-01
-4.469236731529235840e-02,4.855847358703613281e-02,-4.193598870187997818e-03,-4.476303607225418091e-02,-5.664257705211639404e-02,-3.434535488486289978e-02,-1.309349574148654938e-02,-5.246687680482864380e-02,5.347248539328575134e-02,-5.336650088429450989e-02
-2.064009159803390503e-01,3.161223232746124268e-01,-2.758367955684661865e-01,-4.611124694347381592e-01,-7.537148892879486084e-02,-6.174952536821365356e-02,-1.810586750507354736e-01,7.617114484310150146e-02,-2.426965236663818359e-01,-6.744527071714401245e-02
-1.879172027111053467e-02,1.047067865729331970e-01,2.813269942998886108e-02,2.869448810815811157e-02,-8.326689898967742920e-02,3.214417397975921631e-02,4.923292249441146851e-02,9.473834186792373657e-02,-5.860915407538414001e-02,-9.913018904626369476e-03
-2.842989265918731689e-01,-4.149299860000610352e-01,-2.730418443679809570e-01,1.771420356817543507e-03,-5.116964131593704224e-02,6.910476833581924438e-02,-2.664854824542999268e-01,3.890415653586387634e-02,-2.670576870441436768e-01,9.165053814649581909e-02
-3.147973120212554932e-02,2.025874257087707520e-01,-1.751587092876434326e-01,-3.246189653873443604e-01,3.409361094236373901e-02,1.363724768161773682e-01,4.135457873344421387e-01,-1.042142659425735474e-01,-2.868667244911193848e-01,-2.688165605068206787e-01
1.878403010778129101e-03,-5.480975843966007233e-03,1.008681580424308777e-01,6.421672552824020386e-02,-7.347919163294136524e-04,-3.981923460960388184e-01,-2.171229571104049683e-01,-1.259919255971908569e-01,-8.891410380601882935e-02,-9.371089190244674683e-02
-1.827829331159591675e-02,6.751639842987060547e-01,-2.051358520984649658e-01,-1.157429814338684082e-01,-3.403715789318084717e-02,7.958921790122985840e-02,-1.114775240421295166e-01,-4.096016883850097656e-01,-1.829968392848968506e-01,-6.245569512248039246e-02
-3.097738921642303467e-01,-2.352093011140823364e-01,1.583384126424789429e-01,8.086116611957550049e-02,-2.302011698484420776e-01,-6.113659143447875977e-01,-2.197883129119873047e-01,-1.065951734781265259e-01,-4.405176639556884766e-02,2.157961018383502960e-02
-1.427771896123886108e-01,-1.928899288177490234e-01,1.197176873683929443e-01,2.055229097604751587e-01,2.665664553642272949e-01,-8.586103916168212891e-01,-5.329995751380920410e-01,-1.963263750076293945e-01,-2.473476827144622803e-01,-3.096818923950195312e-01
-4.497225880622863770e-01,-1.449272632598876953e-01,-2.591753304004669189e-01,3.052649199962615967e-01,-1.911043226718902588e-01,-6.925314068794250488e-01,-9.841971844434738159e-02,-6.210415363311767578e-01,2.981380224227905273e-01,4.106658324599266052e-02
-3.652587532997131348e-01,1.790709048509597778e-01,-4.318891763687133789e-01,2.234070152044296265e-01,2.516217157244682312e-02,2.537050247192382812e-01,-4.532010257244110107e-01,-5.749135017395019531e-01,-9.097674489021301270e-01,2.616939842700958252e-01
2.761462703347206116e-02,1.113978475332260132e-01,2.976609468460083008e-01,-3.767122924327850342e-01,-2.395709753036499023e-01,-1.665448024868965149e-02,-3.017681241035461426e-01,2.388600111007690430e-01,-6.266645193099975586e-01,-1.753389686346054077e-01
-2.978265583515167236e-01,-4.012286961078643799e-01,-1.017470806837081909e-01,-2.558819353580474854e-01,-5.917898938059806824e-02,-9.929390996694564819e-02,1.389788538217544556e-01,9.957676380872726440e-02,1.474554389715194702e-01,-5.450503230094909668e-01
-8.154800161719322205e-04,1.342550218105316162e-01,-2.207491546869277954e-03,-9.933870285749435425e-02,-1.210400611162185669e-01,1.494928747415542603e-01,-1.123712733387947083e-01,-3.980651032179594040e-03,-1.636603474617004395e-01,1.742732152342796326e-02
-4.270538985729217529e-01,-2.703177034854888916e-01,5.573393404483795166e-02,-6.562609672546386719e-01,-9.907120466232299805e-02,-6.245951652526855469e-01,2.624903023242950439e-01,2.237680107355117798e-01,-4.190575331449508667e-03,-2.326206304132938385e-02
-9.854868054389953613e-02,6.438647210597991943e-02,3.461983054876327515e-02,-1.693150997161865234e-01,3.623551428318023682e-01,-9.561346471309661865e-02,-9.704805910587310791e-02,-3.115113126114010811e-03,-3.106712698936462402e-01,3.652209788560867310e-02
-1.696671098470687866e-01,9.539759904146194458e-02,-8.897947072982788086e-01,-5.639640092849731445e-01,-2.086122781038284302e-01,5.020728334784507751e-02,1.598657816648483276e-01,-3.862433731555938721e-01,-2.847013473510742188e-01,1.033071875572204590e-01
-2.122422009706497192e-01,-6.751350313425064087e-02,-2.015242427587509155e-01,4.819193184375762939e-01,-4.971607923507690430e-01,-5.422481298446655273e-01,-7.255861908197402954e-02,-1.360502094030380249e-02,-1.159916818141937256e-01,1.900109350681304932e-01
1.062392517924308777e-01,-8.335934951901435852e-03,-1.026065275073051453e-01,-1.237769648432731628e-01,5.750737339258193970e-02,1.379388272762298584e-01,-2.384991496801376343e-01,3.056108653545379639e-01,-2.846644520759582520e-01,-4.548100531101226807e-01
-4.101320803165435791e-01,-9.031428396701812744e-02,-1.207244619727134705e-01,-2.854403257369995117e-01,7.808132469654083252e-02,-9.738658666610717773e-01,-7.556810975074768066e-01,-4.462274909019470215e-01,-1.052665933966636658e-01,1.139281094074249268e-01
-2.630023472011089325e-02,-4.128128662705421448e-02,-1.236631348729133606e-02,9.855701029300689697e-02,4.946154952049255371e-01,-3.152647614479064941e-01,1.264354772865772247e-02,1.127798035740852356e-01,-2.281450182199478149e-01,-5.518117547035217285e-01
-2.894696891307830811e-01,-4.401952326297760010e-01,-7.027690857648849487e-02,-2.656225562095642090e-01,-1.156706213951110840e-01,-3.544863164424896240e-01,4.619096592068672180e-02,-1.173376739025115967e-01,3.096674978733062744e-01,-8.693174272775650024e-02
1.367626804858446121e-02,-1.135847438126802444e-02,2.274819836020469666e-02,8.476130664348602295e-02,-5.459330603480339050e-02,-2.871942892670631409e-02,-2.054865472018718719e-02,8.968678861856460571e-02,3.668525069952011108e-02,-4.112731199711561203e-03
4.195950925350189209e-02,-7.735744863748550415e-02,1.100807487964630127e-01,-1.120567247271537781e-01,-2.246462367475032806e-02,1.249221432954072952e-02,-7.769368588924407959e-02,-8.488593995571136475e-02,-3.450836613774299622e-02,2.296251617372035980e-02
-1.139329299330711365e-01,-1.805774569511413574e-01,-3.469286262989044189e-01,-4.424604773521423340e-01,6.150376051664352417e-02,-1.859463900327682495e-01,2.773120403289794922e-01,-3.650162518024444580e-01,-5.060473680496215820e-01,1.190552562475204468e-01
-1.275536864995956421e-01,1.149034574627876282e-01,3.069077432155609131e-01,-2.060717642307281494e-01,3.590055927634239197e-02,-8.402030169963836670e-02,-1.126000508666038513e-01,1.471501886844635010e-01,-7.495617028325796127e-03,-3.727655708789825439e-01
-5.908570438623428345e-02,-9.841581434011459351e-02,-3.199121728539466858e-02,-4.421561211347579956e-02,-1.555946562439203262e-02,3.874344825744628906e-01,5.666114762425422668e-02,-1.606751792132854462e-02,-8.004081249237060547e-02,-1.162358745932579041e-01
-1.600075960159301758e-01,1.602956354618072510e-01,-3.911486268043518066e-01,-3.599087893962860107e-01,1.769646257162094116e-02,-1.222642734646797180e-01,-2.157317996025085449e-01,1.380116194486618042e-01,-4.629823267459869385e-01,3.535703569650650024e-02
1.801612824201583862e-01,-1.558223813772201538e-01,-1.747004985809326172e-01,-3.830613791942596436e-01,-2.319238036870956421e-01,-1.235613692551851273e-02,5.699845403432846069e-02,1.905411481857299805e-01,-4.723644852638244629e-01,-8.811668306589126587e-02
-1.219462379813194275e-01,-6.322339922189712524e-02,1.911125704646110535e-02,-2.279873639345169067e-01,4.221018776297569275e-02,-4.021093994379043579e-02,-4.958351701498031616e-02,-1.016454845666885376e-01,-2.835450321435928345e-02,2.343004643917083740e-01
-1.354344189167022705e-01,-6.527930498123168945e-02,7.298293709754943848e-02,-1.422297358512878418e-01,-3.081889450550079346e-01,-1.577962785959243774e-01,-1.752019226551055908e-01,3.034627437591552734e-01,-1.833770424127578735e-01,2.666224539279937744e-02
7.060562074184417725e-02,-3.080633282661437988e-01,-6.448669731616973877e-02,-4.621768295764923096e-01,-4.852239191532135010e-01,-4.294297397136688232e-01,-1.507289409637451172e-01,-3.559858500957489014e-01,3.074759840965270996e-01,-4.685139358043670654e-01
1.307956576347351074e-01,-6.851670145988464355e-02,2.491191774606704712e-02,-3.882023692131042480e-02,-5.379373207688331604e-02,-2.075923681259155273e-01,-1.316391825675964355e-01,-9.847024083137512207e-02,9.262458980083465576e-02,-1.104522272944450378e-01
-4.631887376308441162e-02,-2.528194896876811981e-02,6.553388386964797974e-02,-5.845810472965240479e-02,1.101236268877983093e-01,-2.686023898422718048e-02,-9.427690505981445312e-02,7.727818191051483154e-02,2.015051664784550667e-03,-1.107792034745216370e-01
-8.543863147497177124e-02,5.834315344691276550e-02,-7.482124567031860352e-01,2.928576804697513580e-02,-1.451621800661087036e-01,-3.305622562766075134e-02,-3.124448359012603760e-01,3.462187200784683228e-02,2.394287288188934326e-02,-3.866307437419891357e-02
-4.047086089849472046e-02,-7.053960859775543213e-02,-5.232310388237237930e-03,4.789142683148384094e-02,-6.607428938150405884e-02,3.429260803386569023e-03,-2.956273220479488373e-02,5.992143973708152771e-02,-7.599671836942434311e-03,-4.562317207455635071e-02
4.933962225914001465e-02,-4.312168955802917480e-01,-1.001669317483901978e-01,-1.696774661540985107e-01,-7.432556897401809692e-02,-1.798433810472488403e-01,5.027973651885986328e-02,-6.320028901100158691e-01,-3.431237116456031799e-02,-2.254727631807327271e-01
-1.934146508574485779e-02,3.517118049785494804e-03,-2.228907197713851929e-01,1.974278688430786133e-01,-3.394520282745361328e-02,6.540813297033309937e-02,-9.874403476715087891e-02,-1.292478740215301514e-01,1.219969615340232849e-02,-1.006450057029724121e-01
-5.026352405548095703e-01,-2.342007905244827271e-01,-1.863595396280288696e-01,1.288569569587707520e-01,-9.542583487927913666e-03,3.020418882369995117e-01,-4.241231381893157959e-01,-1.917635202407836914e-01,-6.347271800041198730e-01,1.043776199221611023e-01
-6.181658059358596802e-02,-1.100088804960250854e-01,-1.289227753877639771e-01,-9.072940796613693237e-02,-6.843813508749008179e-02,-1.135734394192695618e-01,-1.165023655630648136e-03,1.982394605875015259e-01,1.927650184370577335e-03,-7.236874103546142578e-02
-5.422395840287208557e-02,-1.111923307180404663e-01,-1.588439345359802246e-01,2.230755835771560669e-01,-1.984976232051849365e-01,-4.205533489584922791e-02,-8.003744482994079590e-02,-3.494223654270172119e-01,-3.555979430675506592e-01,3.840844333171844482e-01
-8.466617763042449951e-02,3.645285665988922119e-01,-1.309180557727813721e-01,-2.149920463562011719e-01,5.691584348678588867e-01,8.534040302038192749e-02,-1.691324263811111450e-01,-2.783346474170684814e-01,-4.075267538428306580e-02,-7.992631196975708008e-01
-4.648343324661254883e-01,-3.503231406211853027e-01,-2.657529711723327637e-01,2.276472449302673340e-01,-1.683551669120788574e-01,-6.360911130905151367e-01,-5.711287260055541992e-01,-1.598446965217590332e-01,-1.487626787275075912e-02,-1.178739815950393677e-01
-1.228071749210357666e-01,-2.283088117837905884e-01,-5.060667917132377625e-02,1.611587554216384888e-01,-4.061612188816070557e-01,-4.707934260368347168e-01,-1.361234933137893677e-01,4.470996260643005371e-01,-4.372741580009460449e-01,-4.079962074756622314e-01
-6.870264410972595215e-01,-1.078706830739974976e-01,-3.872904181480407715e-01,-1.465796772390604019e-02,-2.932130992412567139e-01,-1.059116795659065247e-01,-5.996720194816589355e-01,-4.447846710681915283e-01,4.095865190029144287e-01,1.033108681440353394e-01
2.632262110710144043e-01,1.426189206540584564e-02,-3.523212373256683350e-01,-2.135599106550216675e-01,-4.797947108745574951e-01,4.558154940605163574e-02,-1.074579656124114990e-01,2.470878809690475464e-01,-1.575951874256134033e-01,-2.914947271347045898e-01
-1.215170249342918396e-01,5.118005722761154175e-02,3.388464152812957764e-01,-2.707057595252990723e-01,-1.204776093363761902e-01,4.094412922859191895e-02,-2.152163386344909668e-01,-1.891784220933914185e-01,2.313206940889358521e-01,-1.247092038393020630e-01
-4.686857014894485474e-02,5.218965187668800354e-02,-1.562626063823699951e-01,-2.523559331893920898e-01,-1.667132377624511719e-01,6.924638152122497559e-02,-1.495894938707351685e-01,4.757339656352996826e-01,-1.809411793947219849e-01,-2.044549435377120972e-01
-7.361925840377807617e-01,-3.954787552356719971e-01,-5.396963357925415039e-01,-6.910055875778198242e-01,-1.070145964622497559e+00,6.865518689155578613e-01,3.075752854347229004e-01,-3.106038272380828857e-02,-5.880064889788627625e-02,-3.841232508420944214e-02
-1.230439618229866028e-01,1.858355849981307983e-01,-2.183294668793678284e-02,-2.108312696218490601e-01,-5.652777105569839478e-02,8.364927768707275391e-02,-1.400328129529953003e-01,4.706522449851036072e-02,3.608654811978340149e-02,1.844238862395286560e-02
-9.788954257965087891e-02,-2.863174974918365479e-01,-2.801469527184963226e-02,-2.561606466770172119e-01,-3.275772035121917725e-01,2.311968952417373657e-01,6.109454855322837830e-02,-1.242859289050102234e-01,8.516100049018859863e-02,6.800140440464019775e-02
2.397563122212886810e-02,-2.429249286651611328e-01,-8.069053292274475098e-01,-4.443247318267822266e-01,9.445522725582122803e-02,-9.113246202468872070e-02,-7.421751506626605988e-04,-3.031155765056610107e-01,-3.010182380676269531e-01,1.490957438945770264e-01
-2.904291152954101562e-01,-2.855855524539947510e-01,-5.956533551216125488e-02,-5.746449232101440430e-01,-3.364698588848114014e-01,-6.330834627151489258e-01,2.143222093582153320e-02,-5.479053854942321777e-01,4.432733654975891113e-01,-1.355073332786560059e+00
-1.811541169881820679e-01,-4.147173762321472168e-01,2.479922473430633545e-01,-3.315216600894927979e-01,-3.463445901870727539e-01,-1.407536119222640991e-01,-4.088616967201232910e-01,4.007531106472015381e-01,-4.405472576618194580e-01,-2.955898344516754150e-01
8.282471448183059692e-02,-5.287732481956481934e-01,-8.854491263628005981e-02,-2.981797605752944946e-02,-7.836366891860961914e-01,-2.299573421478271484e-01,-4.830937981605529785e-01,2.543503344058990479e-01,-1.643934398889541626e-01,2.303590998053550720e-03
-4.127709269523620605e-01,-6.253341436386108398e-01,-1.985616981983184814e-01,-4.929700493812561035e-01,2.076873369514942169e-02,-1.534298434853553772e-02,1.394471824169158936e-01,-5.668982267379760742e-01,1.711318343877792358e-01,-1.110181882977485657e-01
-2.978423237800598145e-01,-5.096620321273803711e-01,-3.291253149509429932e-01,-6.155186798423528671e-03,-1.153236851096153259e-01,-1.679910421371459961e-01,-3.964388370513916016e-01,-3.516715168952941895e-01,3.538711071014404297e-01,7.975074648857116699e-02
-1.048129424452781677e-01,-5.265145897865295410e-01,-9.958953596651554108e-03,-1.663280576467514038e-01,-1.156523898243904114e-01,3.214173018932342529e-03,1.398970484733581543e-01,-1.476135700941085815e-01,-3.037133216857910156e-01,-5.822330117225646973e-01
-1.511733531951904297e-01,-3.152976334095001221e-01,4.607814848423004150e-01,3.117282688617706299e-01,-5.415991544723510742e-01,-1.357740610837936401e-01,-2.054100632667541504e-01,4.564809426665306091e-02,-3.983138799667358398e-01,-3.863352835178375244e-01
-5.861589312553405762e-01,1.201193183660507202e-01,-1.961413919925689697e-01,3.217532038688659668e-01,4.123787879943847656e-01,-9.798266291618347168e-01,-2.494048178195953369e-01,-2.111533284187316895e-01,-1.746729761362075806e-01,-4.241910278797149658e-01
-2.619285285472869873e-01,2.978703081607818604e-01,-4.330419301986694336e-01,5.696418508887290955e-02,-2.513067126274108887e-01,3.515317738056182861e-01,2.734547555446624756e-01,-1.517653167247772217e-01,-3.852864503860473633e-01,-2.263339161872863770e-01
-3.950479328632354736e-01,-2.083686441183090210e-01,-5.450878664851188660e-02,6.455039978027343750e-02,1.710359454154968262e-01,7.028880715370178223e-02,-3.670290112495422363e-01,-2.664245367050170898e-01,-5.358943939208984375e-01,1.158361211419105530e-01
-1.406601369380950928e-01,7.574947178363800049e-02,-1.708011329174041748e-02,2.765260040760040283e-01,-2.338505834341049194e-01,-6.540002673864364624e-02,-2.902920544147491455e-02,7.390145212411880493e-02,-5.729753971099853516e-01,-1.029838025569915771e-01
-4.679044187068939209e-01,-3.083930909633636475e-01,-3.709221482276916504e-01,1.431497931480407715e-01,-1.633578538894653320e-01,-1.093662902712821960e-01,-1.685769669711589813e-02,-2.139608263969421387e-01,1.884423345327377319e-01,5.983912944793701172e-02
-4.881417453289031982e-01,-2.932292222976684570e-01,1.856585890054702759e-01,-1.525590866804122925e-01,1.184676587581634521e-01,-2.451509088277816772e-01,-1.743979156017303467e-01,-6.979439258575439453e-01,-6.309337019920349121e-01,4.595485031604766846e-01
-7.739728689193725586e-02,-2.202155441045761108e-01,1.520204544067382812e-01,1.997736245393753052e-01,-1.275691390037536621e-01,-1.055966764688491821e-01,2.172561138868331909e-01,-3.191443085670471191e-01,4.806968569755554199e-02,-2.229218930006027222e-01
-4.320690333843231201e-01,1.742406338453292847e-01,-1.859866380691528320e-01,-3.082961402833461761e-02,-1.497263461351394653e-01,-1.323099613189697266e+00,-1.292723417282104492e-01,1.461592316627502441e-02,-3.781841695308685303e-01,-4.779069721698760986e-01
-3.282459974288940430e-01,-2.403097003698348999e-01,2.482659649103879929e-03,-9.726123884320259094e-03,-1.688432544469833374e-01,-2.033220678567886353e-01,8.742654323577880859e-02,-2.456480860710144043e-01,1.370368301868438721e-01,-2.549976706504821777e-01
-5.128647089004516602e-01,4.113078117370605469e-02,-1.794474720954895020e-01,-1.111683845520019531e-01,-4.623110592365264893e-01,-2.048580199480056763e-01,-5.375428199768066406e-01,-1.456719487905502319e-01,2.415044456720352173e-01,-3.197026625275611877e-02
-2.434597760438919067e-01,-1.283034384250640869e-01,-4.851230978965759277e-02,4.603255167603492737e-02,-8.086253404617309570e-01,-3.375972807407379150e-01,-6.404904127120971680e-01,-5.255489051342010498e-02,-4.840106889605522156e-02,-1.208565756678581238e-02
-4.931992888450622559e-01,-6.165484786033630371e-01,-4.000064730644226074e-01,-6.190418004989624023e-01,8.580160886049270630e-02,-7.251765113323926926e-03,-4.675730764865875244e-01,-2.223474085330963135e-01,3.646462559700012207e-01,7.992905378341674805e-02
-2.384825646877288818e-01,-5.106382071971893311e-02,1.277257800102233887e-01,2.801024354994297028e-03,-2.284260988235473633e-01,-8.274026960134506226e-02,-3.610242158174514771e-02,-3.141068518161773682e-01,1.091820076107978821e-01,1.671376377344131470e-01
-2.808357775211334229e-02,-1.376997679471969604e-01,1.277168691158294678e-01,-3.369086980819702148e-01,-2.889007627964019775e-01,3.619377315044403076e-02,-2.127376943826675415e-01,-4.396384358406066895e-01,2.775334119796752930e-01,-5.522111654281616211e-01
-2.064431756734848022e-01,-2.256183885037899017e-02,3.730238974094390869e-01,2.376574575901031494e-01,-3.172303736209869385e-01,-4.035744667053222656e-01,1.766402572393417358e-01,-2.000983953475952148e-01,-3.990328907966613770e-01,-5.228655934333801270e-01
-3.707496449351310730e-03,-4.110122472047805786e-02,-2.265946269035339355e-01,2.772622108459472656e-01,9.321833401918411255e-02,-9.000285714864730835e-02,-1.187256053090095520e-01,-5.086173862218856812e-02,-2.746835537254810333e-02,-3.060222864151000977e-01
-8.492747694253921509e-02,3.160757124423980713e-01,-6.296682357788085938e-01,1.739692240953445435e-01,3.494026511907577515e-02,-2.104911953210830688e-01,-7.634719461202621460e-02,-3.857417032122612000e-02,-2.296636104583740234e-01,-2.772736847400665283e-01
1.017643045634031296e-02,1.054755523800849915e-01,-4.886985123157501221e-01,1.014590561389923096e-01,-4.873110651969909668e-01,4.720813035964965820e-02,6.239078193902969360e-02,-5.921710133552551270e-01,1.369038876146078110e-02,-3.186461925506591797e-01
-5.556228384375572205e-02,5.910692736506462097e-02,-3.330744430422782898e-02,4.585521761327981949e-03,-9.938807226717472076e-03,-6.177103519439697266e-02,-1.274359319359064102e-02,8.475250005722045898e-02,6.713299453258514404e-02,3.420341014862060547e-02
1.566834151744842529e-01,-9.528297185897827148e-02,-2.730026543140411377e-01,-3.521207869052886963e-01,-6.955182552337646484e-01,1.734648942947387695e-01,-2.365340478718280792e-02,3.708796799182891846e-01,-2.236616909503936768e-01,-2.901125550270080566e-01
-1.317057162523269653e-01,4.679608624428510666e-03,-1.655037552118301392e-01,-3.907895088195800781e-01,3.055115044116973877e-01,-2.459294945001602173e-01,1.056723371148109436e-01,-4.149922132492065430e-01,-5.353831052780151367e-01,-5.885868072509765625e-01
-9.214010834693908691e-02,-2.329136244952678680e-02,-1.453359723091125488e-01,-6.379910707473754883e-01,9.551529586315155029e-02,-1.130982115864753723e-01,-3.127541244029998779e-01,-4.685609601438045502e-03,-3.302277326583862305e-01,-9.892213158309459686e-03
1.956613659858703613e-01,-1.887907385826110840e-01,1.546508353203535080e-02,-4.174721240997314453e-02,-1.376992184668779373e-02,-5.924944952130317688e-02,3.231241926550865173e-02,-2.730805277824401855e-01,-5.833766609430313110e-02,-7.334276288747787476e-02
3.778085112571716309e-02,-2.582440972328186035e-01,3.069281876087188721e-01,-5.107137560844421387e-02,-5.517923235893249512e-01,-4.261784255504608154e-01,-4.349210858345031738e-01,7.790148258209228516e-02,-1.314359754323959351e-01,1.344961524009704590e-01
-3.144453763961791992e-01,1.595548093318939209e-01,-3.265337049961090088e-01,-2.519606947898864746e-01,4.015981033444404602e-02,-1.619578152894973755e-01,-4.982069730758666992e-01,1.141188144683837891e-01,-6.287200003862380981e-02,3.623088076710700989e-02
8.398778736591339111e-02,-8.509684354066848755e-02,-7.522059231996536255e-02,3.933868929743766785e-02,-9.711720794439315796e-02,1.241102931089699268e-03,-1.346958875656127930e-01,1.315033286809921265e-01,6.221734359860420227e-02,-1.018933951854705811e-01
-5.801289081573486328e-01,-4.148895144462585449e-01,-4.555223286151885986e-01,-2.067420929670333862e-01,3.344500903040170670e-03,6.884930282831192017e-02,-7.970974445343017578e-01,6.020664423704147339e-02,-2.510562539100646973e-01,6.645432859659194946e-02
-8.654264360666275024e-02,1.356967836618423462e-01,-7.311792671680450439e-02,-8.289649337530136108e-02,-9.566699713468551636e-02,-5.369715765118598938e-02,1.541459858417510986e-01,-1.042966395616531372e-01,-3.437919020652770996e-01,4.792959988117218018e-02
-3.223841190338134766e-01,4.832272604107856750e-02,-3.072197139263153076e-01,2.343024499714374542e-02,-1.027087792754173279e-01,1.494202464818954468e-01,-2.080565989017486572e-01,2.424975633621215820e-01,-1.162313222885131836e-01,-6.267123222351074219e-01
1.485108435153961182e-01,1.027063578367233276e-01,-2.690705358982086182e-01,1.948020905256271362e-01,-2.917846441268920898e-01,-2.248912155628204346e-01,-1.423100288957357407e-02,-2.146214246749877930e-01,-2.768910825252532959e-01,2.231013923883438110e-01
-1.674579530954360962e-01,7.288082689046859741e-02,-1.525274217128753662e-01,2.066607028245925903e-01,-5.246596410870552063e-02,-4.770372211933135986e-01,1.918654888868331909e-02,1.037939861416816711e-01,-1.904366314411163330e-01,-3.803336620330810547e-02
-5.458401516079902649e-02,2.437969744205474854e-01,-4.007748961448669434e-01,-4.731105268001556396e-01,1.475026905536651611e-01,3.006483316421508789e-01,-1.968230158090591431e-01,-2.653933167457580566e-01,3.688526153564453125e-02,-6.488882303237915039e-01
1.611582934856414795e-01,-1.326293945312500000e-01,2.732227146625518799e-01,-1.302998065948486328e-01,-3.710810542106628418e-01,-1.081763766705989838e-02,-5.407718196511268616e-02,3.152677789330482483e-02,-1.851262450218200684e-01,8.928236365318298340e-02
-3.808808028697967529e-01,-1.055062860250473022e-01,4.329681023955345154e-02,-7.737980224192142487e-03,1.364860534667968750e-01,-1.150496974587440491e-01,-2.799016237258911133e-01,-1.746313869953155518e-01,-3.033072948455810547e-01,3.517136871814727783e-01
-1.101918965578079224e-01,-1.226149871945381165e-01,1.890796720981597900e-01,-1.644763946533203125e-01,-2.947423756122589111e-01,-1.336545050144195557e-01,2.696418166160583496e-01,-8.076367527246475220e-02,-7.917527854442596436e-02,9.783785045146942139e-02
-3.434734046459197998e-01,-4.196175336837768555e-01,-1.945690512657165527e-01,-1.664409637451171875e-01,1.007338240742683411e-01,-4.567849934101104736e-01,3.258653283119201660e-01,-2.743194699287414551e-01,-5.162374377250671387e-01,2.819499969482421875e-01
-1.252534836530685425e-01,5.868740677833557129e-01,-3.965432643890380859e-01,-1.920873373746871948e-01,-2.726211585104465485e-02,2.680861353874206543e-01,-7.189056277275085449e-02,-2.429947704076766968e-01,-1.055311709642410278e-01,-1.948285996913909912e-01
2.238111943006515503e-01,-3.614628314971923828e-01,-8.699132204055786133e-01,-4.244655668735504150e-01,1.245055161416530609e-02,-4.184591472148895264e-01,3.857553750276565552e-02,-1.855707168579101562e-01,-3.087275326251983643e-01,4.371469095349311829e-02
-1.285445243120193481e-01,5.205886960029602051e-01,-2.407524287700653076e-01,-1.650013178586959839e-01,-1.794118806719779968e-02,-8.361593936569988728e-04,2.092324569821357727e-02,-9.976673126220703125e-02,-5.293006896972656250e-01,-1.635975539684295654e-01
8.623841404914855957e-02,-1.658903211355209351e-01,2.839003801345825195e-01,-8.739823848009109497e-02,-3.188660144805908203e-01,-6.286849826574325562e-02,-2.454645037651062012e-01,-1.161860749125480652e-01,1.075923442840576172e-02,-3.621428459882736206e-02
-2.131263315677642822e-01,-2.750799357891082764e-01,2.877691984176635742e-01,-2.108966410160064697e-01,1.079126968979835510e-01,-1.908352524042129517e-01,1.884532570838928223e-01,-3.913929313421249390e-02,-2.408245205879211426e-01,-7.869544029235839844e-01
-1.784465759992599487e-01,-1.575158238410949707e-01,-1.632949709892272949e-01,-4.432069659233093262e-01,1.439301669597625732e-01,5.955184251070022583e-02,-3.364068865776062012e-01,2.962887287139892578e-02,-6.216042637825012207e-01,1.353951841592788696e-01
2.368854358792304993e-03,-7.659593224525451660e-02,1.445005834102630615e-01,-1.392378509044647217e-01,3.874211385846138000e-02,-1.524647772312164307e-01,-2.843698859214782715e-01,3.054284490644931793e-03,-2.541022002696990967e-01,1.267393771559000015e-02
-1.833729445934295654e-01,-3.092076480388641357e-01,-5.292631387710571289e-01,2.630694210529327393e-01,-2.821765244007110596e-01,2.946517467498779297e-01,-8.841580897569656372e-02,-1.209665238857269287e-01,7.523259520530700684e-02,-5.070716142654418945e-01
-2.669910788536071777e-01,-5.964133739471435547e-01,1.330510377883911133e-01,-9.296189248561859131e-02,-1.969485729932785034e-01,1.862237006425857544e-01,4.567189514636993408e-02,-1.664116978645324707e-01,-1.239111423492431641e-01,-6.717129945755004883e-01
-1.534999608993530273e-01,-4.690248966217041016e-01,-3.670805990695953369e-01,-4.830034673213958740e-01,-6.894646883010864258e-01,7.523567974567413330e-02,3.057919442653656006e-01,-2.213180959224700928e-01,-4.486688226461410522e-02,1.495785415172576904e-01
-1.755009405314922333e-02,-2.501294910907745361e-01,-1.248765662312507629e-01,-3.384651541709899902e-01,4.155670702457427979e-01,-4.803649485111236572e-01,-1.702702194452285767e-01,-1.603704541921615601e-01,-5.352646708488464355e-01,2.190423011779785156e-01
-8.276458084583282471e-02,1.286954283714294434e-01,-1.093106716871261597e-01,-6.567389369010925293e-01,-1.162754744291305542e-02,-4.952288269996643066e-01,-1.405387818813323975e-01,-1.953877508640289307e-01,1.782550662755966187e-01,-3.718146085739135742e-01
1.994758993387222290e-01,-4.402863979339599609e-02,-8.439881354570388794e-02,-1.351376175880432129e-01,2.267947643995285034e-01,-1.409947276115417480e-01,-2.387531399726867676e-01,-1.431888788938522339e-01,8.718888275325298309e-03,-2.338508963584899902e-01
-6.494790911674499512e-01,-3.908784687519073486e-01,-4.667740464210510254e-01,1.414162367582321167e-01,1.724297851324081421e-01,5.000096745789051056e-03,-7.593076825141906738e-01,-2.253739982843399048e-01,-1.862710528075695038e-02,1.274895519018173218e-01
-4.389504343271255493e-02,1.272402256727218628e-01,-1.545407325029373169e-01,-1.830369830131530762e-01,7.235773652791976929e-02,-7.529796361923217773e-01,2.417443543672561646e-01,4.799509793519973755e-02,-5.439566373825073242e-01,-8.181378245353698730e-01
-5.012522935867309570e-01,2.464884147047996521e-02,-8.480589389801025391e-01,-5.102891921997070312e-01,-3.852723911404609680e-02,1.084062233567237854e-01,1.543044857680797577e-02,-1.186695024371147156e-01,-4.153228551149368286e-02,-1.523495167493820190e-01
-1.863592676818370819e-02,-8.722769469022750854e-02,5.712838098406791687e-02,6.827498227357864380e-02,-2.643815986812114716e-02,-4.822581633925437927e-02,-4.743690043687820435e-02,-9.671302139759063721e-02,-4.328286647796630859e-02,-8.048816025257110596e-02
-9.555013477802276611e-02,-2.617092430591583252e-01,-6.899923086166381836e-02,-5.254343524575233459e-02,4.092445969581604004e-02,-2.104059755802154541e-01,-1.723078340291976929e-01,8.558028936386108398e-02,-2.748654037714004517e-02,1.192483082413673401e-01
-3.648762824013829231e-03,-3.608476519584655762e-01,-5.404869914054870605e-01,-8.374881148338317871e-01,-2.615995332598686218e-02,1.644249856472015381e-01,3.435402363538742065e-02,-2.990362346172332764e-01,6.639839708805084229e-02,-8.064343780279159546e-02
-9.031283855438232422e-02,-1.578503847122192383e-01,-1.802134066820144653e-01,1.127663068473339081e-02,-1.365455836057662964e-01,2.762555181980133057e-01,1.802020668983459473e-01,-6.435129791498184204e-02,-1.680233627557754517e-01,-2.972539365291595459e-01
7.106306962668895721e-03,6.366527639329433441e-03,1.060921773314476013e-01,-3.802545070648193359e-01,-4.411271512508392334e-01,-4.920431375503540039e-01,-2.166998982429504395e-01,6.496693193912506104e-02,-2.581495046615600586e-01,-1.008190512657165527e-01
6.234654411673545837e-02,-4.564186558127403259e-02,-3.091626167297363281e-01,-4.052198491990566254e-03,1.877634227275848389e-01,-2.246978282928466797e-01,-9.291603416204452515e-02,2.407697141170501709e-01,-1.742702871561050415e-01,-1.007175445556640625e-01
-4.738793373107910156e-01,-2.691111266613006592e-01,2.437978684902191162e-01,3.413992822170257568e-01,-8.612237572669982910e-01,-2.025417387485504150e-01,-5.207630395889282227e-01,3.394705951213836670e-01,-4.038533270359039307e-01,-2.978779375553131104e-01
4.949530586600303650e-02,4.856915026903152466e-02,6.648865342140197754e-02,-7.582855410873889923e-03,-2.271804213523864746e-02,-4.866119101643562317e-02,-7.055526971817016602e-02,-6.586758047342300415e-02,-6.959231942892074585e-02,1.774084009230136871e-02
-7.501396536827087402e-02,-1.844152063131332397e-01,2.318016588687896729e-01,1.526728123426437378e-01,1.803380250930786133e-01,2.393837720155715942e-01,-4.797051548957824707e-01,-4.741330072283744812e-02,-6.514592170715332031e-01,-8.176977038383483887e-01
-5.924045667052268982e-02,-6.192360073328018188e-02,-1.114045977592468262e-01,-1.106318160891532898e-01,-9.229259565472602844e-03,-6.856612861156463623e-02,4.142436012625694275e-02,1.778435707092285156e-02,5.767907947301864624e-02,-3.051012568175792694e-02
1.789850145578384399e-01,-2.865539193153381348e-01,1.767731457948684692e-01,-1.130756586790084839e-01,-3.474500179290771484e-01,-7.488057762384414673e-02,3.719977289438247681e-02,1.500059664249420166e-02,-1.754047870635986328e-01,-2.721667289733886719e-01
-3.578855395317077637e-01,-4.057463705539703369e-01,-5.542314425110816956e-02,7.579753547906875610e-02,-3.352623060345649719e-02,6.845699995756149292e-02,2.243179976940155029e-01,-2.059200555086135864e-01,-2.737934589385986328e-01,-8.276843279600143433e-02
-2.196928113698959351e-01,-5.966124311089515686e-02,-3.755640685558319092e-01,-1.257688701152801514e-01,-3.779853284358978271e-01,3.031731024384498596e-02,4.047007858753204346e-01,-2.329467087984085083e-01,-4.089181125164031982e-01,1.593043804168701172e-01
-5.138184875249862671e-02,-5.422752723097801208e-02,-9.125648438930511475e-02,-2.513847127556800842e-02,-5.365756154060363770e-02,-5.214256420731544495e-02,4.106240719556808472e-02,1.569575220346450806e-01,1.698515936732292175e-02,-1.196057274937629700e-01
-7.793716341257095337e-02,-3.895417973399162292e-02,-1.831370294094085693e-01,-7.074736058712005615e-02,1.607803702354431152e-01,-2.912644445896148682e-01,2.879149913787841797e-01,-2.622289657592773438e-01,-4.168324470520019531e-01,1.108651235699653625e-01
-3.801475977525115013e-03,6.399699300527572632e-02,-7.912860065698623657e-02,-1.151213720440864563e-01,-5.324836373329162598e-01,-3.295368850231170654e-01,-2.668241560459136963e-01,2.417385950684547424e-02,-3.111412227153778076e-01,1.236953958868980408e-01
2.492535263299942017e-01,-4.486989676952362061e-01,-3.372400403022766113e-01,-2.013831287622451782e-01,-6.831576228141784668e-01,-1.405911799520254135e-02,-8.845467865467071533e-02,-3.771948814392089844e-01,-3.097006119787693024e-03,-1.017457544803619385e-01
-1.366761624813079834e-01,-2.507359087467193604e-01,-1.651088148355484009e-02,1.983625888824462891e-01,-4.000678062438964844e-01,1.978671997785568237e-01,-2.643276453018188477e-01,-7.846089452505111694e-02,-5.648181438446044922e-01,6.860841531306505203e-03
-4.926531389355659485e-02,-8.730480819940567017e-02,-1.451321840286254883e-01,-4.934551119804382324e-01,1.352066248655319214e-01,-2.820560634136199951e-01,-3.872028589248657227e-01,-2.305433899164199829e-01,3.850560784339904785e-01,-3.703082501888275146e-01
5.859114602208137512e-02,-1.345511823892593384e-01,-1.217095404863357544e-01,-3.325483202934265137e-01,9.701101481914520264e-02,4.808647185564041138e-02,-2.243618220090866089e-01,5.822975561022758484e-02,-2.716034352779388428e-01,1.027030348777770996e-01
1.304378211498260498e-01,-2.298335283994674683e-01,-2.538771927356719971e-01,-1.137817427515983582e-01,-7.358872890472412109e-02,-1.144732162356376648e-01,5.957603082060813904e-02,5.048066005110740662e-02,-2.627532184123992920e-01,-7.295314967632293701e-02
-7.267108559608459473e-02,5.787708163261413574e-01,-4.137936234474182129e-01,-4.278237819671630859e-01,5.624021291732788086e-01,-1.743317842483520508e-01,2.355777323246002197e-01,-4.097290933132171631e-01,-3.612361252307891846e-01,-7.492745518684387207e-01
-9.977586567401885986e-02,-5.110232904553413391e-02,-5.243985727429389954e-02,-6.088696122169494629e-01,-4.187433123588562012e-01,-3.335089981555938721e-01,3.163222968578338623e-02,1.015600189566612244e-02,3.213267922401428223e-01,-1.205345019698143005e-01
-8.883052319288253784e-02,-3.453705906867980957e-01,-1.945968717336654663e-01,-3.180571794509887695e-01,2.855181507766246796e-02,1.533899307250976562e-01,-1.580158174037933350e-01,1.581989377737045288e-01,-3.321443498134613037e-01,1.372576206922531128e-01
-2.582627534866333008e-01,1.358877420425415039e-01,2.749126553535461426e-01,-4.806083738803863525e-01,-1.430399566888809204e-01,-1.213100031018257141e-01,-6.714242696762084961e-02,-4.025468528270721436e-01,-2.962781488895416260e-01,1.797862052917480469e-01
-2.309790812432765961e-02,3.383463621139526367e-02,-1.168452086858451366e-03,1.642545014619827271e-01,-6.323599815368652344e-02,2.209661006927490234e-01,-6.531646102666854858e-02,-1.085100099444389343e-01,-1.329222172498703003e-01,-1.261239945888519287e-01
-2.001156099140644073e-02,-8.412230759859085083e-03,4.823059216141700745e-02,2.063247375190258026e-02,7.027156651020050049e-02,-6.977207213640213013e-02,4.138630256056785583e-02,5.228361487388610840e-02,3.312330320477485657e-02,3.575152158737182617e-02
-2.145587354898452759e-01,6.016683764755725861e-03,-5.327253937721252441e-01,-1.718383878469467163e-01,1.041029319167137146e-01,-2.503762543201446533e-01,4.602048397064208984e-01,-3.153037130832672119e-01,-2.732004821300506592e-01,-1.640282273292541504e-01
-1.386190354824066162e-01,-2.276363372802734375e-01,-7.776929140090942383e-01,-8.727278560400009155e-02,-1.785783767700195312e-01,2.753278426826000214e-02,-3.019793331623077393e-01,-4.179066717624664307e-01,1.739502847194671631e-01,5.473908782005310059e-02
-2.589174211025238037e-01,-5.161036849021911621e-01,-6.838764548301696777e-01,-4.023043811321258545e-01,5.053704231977462769e-02,-1.882738433778285980e-02,-1.792603731155395508e-02,-6.670184135437011719e-01,1.404710412025451660e-01,1.076487451791763306e-01
-1.919782608747482300e-01,-4.502526223659515381e-01,-4.376063346862792969e-01,-2.148296125233173370e-02,-1.148385256528854370e-01,-1.519681066274642944e-01,-9.004715681076049805e-01,-1.041599661111831665e-01,-1.293402612209320068e-01,-6.409277766942977905e-02
-9.190761297941207886e-02,-5.811123847961425781e-01,-6.873161066323518753e-03,-4.943433105945587158e-01,-1.292514353990554810e-01,-2.160054445266723633e-01,2.843201160430908203e-01,-4.695762991905212402e-01,1.925759464502334595e-01,-6.390190869569778442e-02
-1.031203150749206543e+00,4.315271601080894470e-02,-4.142749309539794922e-01,3.010825216770172119e-01,-6.682822853326797485e-02,2.253347635269165039e-01,-8.968543410301208496e-01,-6.564112305641174316e-01,-3.820917010307312012e-01,1.912164837121963501e-01
-3.093692064285278320e-01,-1.638454198837280273e-01,2.658527493476867676e-01,4.422282874584197998e-01,-5.277063250541687012e-01,-1.874709874391555786e-01,-2.204419970512390137e-01,2.842836976051330566e-01,-4.586474299430847168e-01,-8.485316038131713867e-01
2.155019342899322510e-02,-1.706531196832656860e-01,-2.432686239480972290e-01,-1.970829218626022339e-01,2.038611620664596558e-01,-2.484363466501235962e-01,-7.311970740556716919e-02,1.995549201965332031e-01,-5.982580184936523438e-01,-4.479188621044158936e-01
-1.733657419681549072e-01,1.655860543251037598e-01,1.574322879314422607e-01,1.904594013467431068e-03,-3.253872394561767578e-01,2.182528674602508545e-01,-1.751102656126022339e-01,-3.256193595007061958e-04,-2.498725801706314087e-01,-7.243591547012329102e-02
5.817804858088493347e-02,-1.252000033855438232e-01,1.801067590713500977e-02,-1.418725699186325073e-01,-3.477898538112640381e-01,-1.853651404380798340e-01,-2.182971499860286713e-02,-7.700792551040649414e-01,1.443348973989486694e-01,-2.229603379964828491e-01
-1.405102163553237915e-01,3.541144356131553650e-02,-1.847890615463256836e-01,2.787574753165245056e-02,2.993836104869842529e-01,7.691417820751667023e-03,-2.305430024862289429e-01,3.466677069664001465e-01,-5.491330623626708984e-01,-8.280489444732666016e-01
-5.615372210741043091e-02,4.182227253913879395e-01,2.465801835060119629e-01,-2.834222912788391113e-01,-1.610268652439117432e-01,-1.978126168251037598e-01,-2.369865030050277710e-01,-2.296442687511444092e-01,-3.726935684680938721e-01,-4.323633387684822083e-02
1.695127785205841064e-01,-4.252707362174987793e-01,-5.167462825775146484e-01,3.798181936144828796e-02,-3.096773922443389893e-01,-3.851065039634704590e-01,2.272674292325973511e-01,-4.804834723472595215e-01,-3.975504338741302490e-01,6.934861838817596436e-02
-2.746987156569957733e-02,-1.050331518054008484e-01,1.750812828540802002e-01,-3.298266604542732239e-02,2.071313187479972839e-02,-1.314806193113327026e-01,-1.613934338092803955e-01,2.499119751155376434e-02,-2.613210380077362061e-01,-6.296178698539733887e-02
-3.896847069263458252e-01,-5.245550870895385742e-01,-2.779991328716278076e-01,2.744023799896240234e-01,-6.662625074386596680e-01,-2.506738603115081787e-01,-1.618568599224090576e-01,1.332612335681915283e-01,-2.927358448505401611e-01,7.766467332839965820e-02
-5.547297373414039612e-02,3.840767443180084229e-01,-2.243234366178512573e-01,-3.516292199492454529e-02,7.351531386375427246e-01,-1.332247108221054077e-01,-7.673847675323486328e-02,-3.889474868774414062e-01,-4.153223335742950439e-01,-6.535266637802124023e-01
3.424960747361183167e-02,5.702074766159057617e-01,2.040202543139457703e-02,-1.057529821991920471e-01,-8.977854251861572266e-02,-3.951109945774078369e-01,-1.583456546068191528e-01,-2.409586608409881592e-01,-4.721189737319946289e-01,-2.501259744167327881e-01
-1.498362720012664795e-01,1.794432848691940308e-01,-4.268420338630676270e-01,1.641777753829956055e-01,-2.279883436858654022e-02,-2.162051945924758911e-01,1.461124164052307606e-03,2.844732105731964111e-01,-4.815374314785003662e-01,-1.794891208410263062e-01
5.036843568086624146e-02,4.131417721509933472e-02,4.422946870326995850e-01,-1.151765063405036926e-01,-2.099868655204772949e-01,-2.695951461791992188e-01,-2.809965610504150391e-01,-2.090399861335754395e-01,-3.827874362468719482e-01,2.098856270313262939e-01
-3.049082458019256592e-01,-2.615854442119598389e-01,2.841447107493877411e-02,-1.075407862663269043e-01,-9.108041971921920776e-02,1.622534692287445068e-01,-1.386410146951675415e-01,1.948632299900054932e-01,-4.348586797714233398e-01,-6.416601538658142090e-01
1.723174899816513062e-01,-4.196535348892211914e-01,5.757512524724006653e-03,-1.912369728088378906e-01,1.557714492082595825e-02,-1.235133484005928040e-01,1.057783365249633789e-01,-2.775039374828338623e-01,-1.336077898740768433e-01,-3.019978404045104980e-01
-3.395437449216842651e-02,9.591427445411682129e-02,-1.606306061148643494e-02,-4.682288467884063721e-01,-5.331494286656379700e-02,-2.299199551343917847e-01,-8.827560581266880035e-03,4.814190417528152466e-02,8.314376324415206909e-02,-3.672543466091156006e-01
2.947284877300262451e-01,-1.117115765810012817e-01,-5.140564441680908203e-01,-3.172170221805572510e-01,5.988041684031486511e-02,-2.389429062604904175e-01,-1.826705038547515869e-01,2.258205413818359375e-01,8.741211146116256714e-02,-3.616396188735961914e-01
-1.394647955894470215e-01,-2.623466541990637779e-03,-5.544803738594055176e-01,-6.267123222351074219e-01,-2.546775043010711670e-01,-3.700907826423645020e-01,2.295688688755035400e-01,-4.228985905647277832e-01,9.737501293420791626e-02,2.282187491655349731e-01
-2.888316810131072998e-01,-1.200405582785606384e-01,-1.725280433893203735e-01,-7.943487167358398438e-02,5.448249578475952148e-01,-5.756603479385375977e-01,-2.939909696578979492e-01,3.027431964874267578e-01,-2.243699729442596436e-01,-3.340575993061065674e-01
7.240326609462499619e-03,-4.342181086540222168e-01,-1.754757016897201538e-02,-1.002700068056583405e-02,-4.501812458038330078e-01,1.333193294703960419e-02,-1.575345396995544434e-01,-3.718845844268798828e-01,7.755016535520553589e-02,2.096984833478927612e-01
-4.092044010758399963e-02,-4.425063133239746094e-01,-5.226500034332275391e-01,-6.324878334999084473e-01,9.583764709532260895e-03,-4.631119221448898315e-02,5.818481091409921646e-03,-1.129954382777214050e-01,-2.410737983882427216e-02,-9.742454439401626587e-02
-1.134668961167335510e-01,1.520810574293136597e-01,-1.275284737348556519e-01,-5.533614158630371094e-01,8.600760996341705322e-02,-6.219349056482315063e-02,-3.420416116714477539e-01,4.682804644107818604e-02,-5.939373373985290527e-02,-2.193547040224075317e-01
3.252011239528656006e-01,7.137285917997360229e-02,1.829477250576019287e-01,-4.868753850460052490e-01,-2.255220562219619751e-01,-3.903926312923431396e-01,-4.156025499105453491e-02,7.053099572658538818e-02,-6.183384060859680176e-01,-3.754317164421081543e-01
-3.144862055778503418e-01,-2.366330474615097046e-01,-4.691236615180969238e-01,-1.488482654094696045e-01,-2.307756543159484863e-01,1.198092401027679443e-01,-9.405186027288436890e-02,2.115912288427352905e-01,-2.223554402589797974e-01,-9.139627963304519653e-02
2.116850949823856354e-02,2.235528081655502319e-02,-1.541261523962020874e-01,-3.088159253820776939e-03,-7.645088434219360352e-01,-6.396352052688598633e-01,1.055226549506187439e-01,-2.263908386230468750e-01,-2.531911479309201241e-03,-7.522310018539428711e-01
-3.518920540809631348e-01,-1.117135062813758850e-01,-2.824402749538421631e-01,-8.601405620574951172e-01,-3.917936086654663086e-01,9.900537133216857910e-02,7.999882847070693970e-02,-6.117819622159004211e-02,5.631127208471298218e-02,1.800609380006790161e-01
-1.555086076259613037e-01,-1.691556423902511597e-01,1.281135380268096924e-01,2.805949375033378601e-02,-2.909937202930450439e-01,5.694315582513809204e-02,-2.699660658836364746e-01,-2.607185840606689453e-01,1.391727179288864136e-01,-2.589237093925476074e-01
1.579579561948776245e-01,-1.919773668050765991e-01,1.747719794511795044e-01,-6.844320893287658691e-02,-1.875508278608322144e-01,-1.024429127573966980e-01,-4.012419581413269043e-01,-1.071982532739639282e-01,-6.022354215383529663e-02,-7.058522105216979980e-01
-3.224738538265228271e-01,-1.572245806455612183e-01,-6.946340948343276978e-02,-1.664550602436065674e-01,1.442906111478805542e-01,1.353408098220825195e-01,-3.022665381431579590e-01,2.839334905147552490e-01,-2.618451416492462158e-01,-3.370390832424163818e-02
4.392108321189880371e-01,-4.026504606008529663e-02,4.296679398976266384e-04,-4.371036887168884277e-01,-2.248718440532684326e-01,-1.735000759363174438e-01,-2.352952510118484497e-01,1.381464749574661255e-01,-4.739883244037628174e-01,-2.503199577331542969e-01
2.959897555410861969e-02,-2.167016267776489258e-01,-2.588455379009246826e-01,4.198513925075531006e-02,-4.244261384010314941e-01,4.029940068721771240e-02,7.320746034383773804e-02,-2.930572926998138428e-01,-8.765456825494766235e-02,-3.247490823268890381e-01
-2.246272936463356018e-02,-8.848643302917480469e-02,-4.776930063962936401e-02,3.152421489357948303e-02,-6.679243445396423340e-01,-8.241254836320877075e-03,-1.078364700078964233e-01,-7.795754075050354004e-01,-1.064014881849288940e-01,-2.453813701868057251e-01
-2.969186305999755859e-01,-3.235361278057098389e-01,-2.290010303258895874e-01,-1.556143313646316528e-01,-1.506229490041732788e-01,-2.756588160991668701e-01,-2.462509870529174805e-01,3.219701647758483887e-01,-7.275552749633789062e-01,5.687846988439559937e-02
1.569623053073883057e-01,-2.423640340566635132e-01,-3.648147359490394592e-02,-2.471639513969421387e-01,-1.779460161924362183e-01,-1.631011366844177246e-01,-3.483205139636993408e-01,1.662685871124267578e-01,-1.308356970548629761e-01,2.661131136119365692e-02
2.213561162352561951e-02,1.122845560312271118e-01,-5.337405949831008911e-02,-2.156414538621902466e-01,-1.232788488268852234e-01,-1.017149612307548523e-01,-1.373711377382278442e-01,1.022146940231323242e-01,-4.805606603622436523e-02,-2.302778214216232300e-01
2.071777284145355225e-01,-8.197422325611114502e-02,2.260081171989440918e-01,-1.880986839532852173e-01,-6.459933519363403320e-02,-4.303053319454193115e-01,-2.342706918716430664e-01,-2.830104343593120575e-02,-6.413982063531875610e-02,-5.246858298778533936e-02
3.413055539131164551e-01,-6.226141005754470825e-02,-7.371985167264938354e-02,-6.730049103498458862e-02,-8.155243704095482826e-04,-1.382019221782684326e-01,-2.340972870588302612e-01,1.320704631507396698e-02,-9.290909767150878906e-02,-9.369016438722610474e-02
-3.017164766788482666e-01,-2.958848774433135986e-01,-2.969812750816345215e-01,-1.415238529443740845e-02,-1.169890090823173523e-01,-6.693241745233535767e-02,-3.293462991714477539e-01,-1.099317669868469238e-01,2.521192133426666260e-01,4.257663711905479431e-02
-7.752100378274917603e-02,1.483625024557113647e-01,-5.596626922488212585e-02,-1.197741180658340454e-01,1.387700438499450684e-01,9.505351632833480835e-02,1.537289097905158997e-02,-3.138573467731475830e-01,6.284888088703155518e-02,-1.782189458608627319e-01
-2.021343111991882324e-01,-2.833253443241119385e-01,2.595307528972625732e-01,1.589818894863128662e-01,-3.166303932666778564e-01,2.753194570541381836e-01,-1.517053991556167603e-01,-1.279955804347991943e-01,-3.410883545875549316e-01,-1.609865128993988037e-01
-3.966985046863555908e-01,-5.043511986732482910e-01,1.197498217225074768e-01,-3.019790351390838623e-01,-2.183203399181365967e-01,-4.678992927074432373e-01,-1.329100579023361206e-01,3.219027817249298096e-01,1.508002132177352905e-01,-4.136129915714263916e-01
5.360605567693710327e-02,-5.688357949256896973e-01,-1.827000975608825684e-01,4.536465927958488464e-02,-3.015906810760498047e-01,-1.114339753985404968e-02,-5.671926140785217285e-01,-9.334897249937057495e-02,-2.368862926959991455e-02,1.686111390590667725e-01
-1.956049203872680664e-01,1.445827484130859375e-01,-2.391895800828933716e-01,2.543113231658935547e-01,3.747959136962890625e-01,-1.632522344589233398e-01,-1.098864004015922546e-01,-1.743237674236297607e-01,-4.212390780448913574e-01,-4.775703549385070801e-01
-4.587732553482055664e-01,3.864619433879852295e-01,-4.376195967197418213e-01,-2.492664605379104614e-01,-7.251838594675064087e-02,-9.018251299858093262e-02,5.013142228126525879e-01,-1.078616920858621597e-02,-3.272204697132110596e-01,-6.538750529289245605e-01
5.020182579755783081e-02,-2.415141761302947998e-01,8.403339982032775879e-02,1.059855520725250244e-01,-9.300422668457031250e-02,-1.386241316795349121e-01,9.829789400100708008e-02,-1.764515489339828491e-01,-8.277571201324462891e-02,-1.853751391172409058e-01
-2.245114892721176147e-01,-1.716348677873611450e-01,-3.160483539104461670e-01,8.583689481019973755e-02,1.846695244312286377e-01,9.948319941759109497e-02,-4.022523462772369385e-01,-3.324220776557922363e-01,1.014560237526893616e-01,9.127882868051528931e-02
1.936041265726089478e-01,2.863239049911499023e-01,-5.097821354866027832e-01,-1.768747717142105103e-01,-8.920875936746597290e-02,-5.068380236625671387e-01,1.137895286083221436e-01,1.016721352934837341e-01,-1.508730947971343994e-01,-1.669379174709320068e-01
-1.284722536802291870e-01,1.079051345586776733e-01,1.692092567682266235e-01,-1.126309484243392944e-01,1.389911118894815445e-02,-9.968505799770355225e-02,-2.582034170627593994e-01,-2.362359166145324707e-01,-5.552080273628234863e-01,7.777649164199829102e-02
-1.610685586929321289e-01,-1.676046252250671387e-01,-1.085666269063949585e-01,-4.821983166038990021e-03,9.871444106101989746e-02,-7.744076848030090332e-02,-8.147668838500976562e-02,1.244941577315330505e-01,-1.065773293375968933e-01,9.201741963624954224e-02
7.126604020595550537e-02,-4.139851331710815430e-01,7.336477190256118774e-02,-2.778032124042510986e-01,-3.905644118785858154e-01,-7.116666436195373535e-01,-3.961158543825149536e-02,-5.920885801315307617e-01,2.974547445774078369e-01,-6.897132992744445801e-01
1.964659094810485840e-01,-1.806420385837554932e-01,6.288403272628784180e-02,1.286846399307250977e-01,-4.763282537460327148e-01,-5.349943637847900391e-01,-3.602008521556854248e-01,-6.580982357263565063e-02,-3.789739906787872314e-01,2.988651394844055176e-02
-4.352644085884094238e-01,4.282087553292512894e-03,-1.205455958843231201e-01,-3.696945011615753174e-01,-1.697499603033065796e-01,-2.915019392967224121e-01,-6.591016054153442383e-01,-1.434215158224105835e-01,1.719835847616195679e-01,2.043939083814620972e-01
-2.737902998924255371e-01,2.440169304609298706e-01,-1.904495507478713989e-01,4.431330040097236633e-02,3.971022367477416992e-01,-6.210019588470458984e-01,-2.571362853050231934e-01,8.211009204387664795e-02,-3.155041858553886414e-02,-5.699849724769592285e-01
4.545775428414344788e-02,-3.003446459770202637e-01,6.245791912078857422e-02,1.850908100605010986e-01,-2.815340757369995117e-01,-3.762648701667785645e-01,3.703401982784271240e-01,-4.659885466098785400e-01,-1.136480085551738739e-02,-1.724764257669448853e-01
-1.973739415407180786e-01,-2.049039304256439209e-01,2.658323347568511963e-01,-4.324374198913574219e-01,2.406213134527206421e-01,-3.007526695728302002e-02,-2.687182426452636719e-01,1.684076040983200073e-01,-2.910566926002502441e-01,-2.612372636795043945e-01
2.024029754102230072e-02,-3.071440160274505615e-01,-9.164528921246528625e-03,1.547587066888809204e-01,-2.740528993308544159e-02,1.194121548905968666e-03,-4.845028743147850037e-03,-1.661128550767898560e-01,7.569518685340881348e-02,-1.346083879470825195e-01
1.926446110010147095e-01,-2.979730069637298584e-02,7.214395701885223389e-02,-1.175186261534690857e-01,-9.765855967998504639e-02,9.316326677799224854e-02,9.876749664545059204e-02,-2.537472248077392578e-01,-3.549798130989074707e-01,9.212525561451911926e-03
4.838879778981208801e-02,-5.602462589740753174e-02,-1.306123733520507812e-01,-8.030479773879051208e-03,-2.842915803194046021e-02,2.198363840579986572e-02,-1.158447787165641785e-01,-1.540616154670715332e-01,-2.380293980240821838e-02,1.028076857328414917e-01
1.989168822765350342e-01,-4.423986002802848816e-02,-5.630406141281127930e-01,-6.953084468841552734e-02,-1.002938300371170044e-01,-2.296930402517318726e-01,1.385338753461837769e-01,2.649945914745330811e-01,-6.231404542922973633e-01,-1.715156137943267822e-01
1.145690679550170898e-01,2.148085646331310272e-02,-8.304341882467269897e-02,4.887195304036140442e-02,-1.467831246554851532e-02,4.260239657014608383e-03,3.018127195537090302e-02,3.240143880248069763e-02,-3.264785930514335632e-02,6.611455231904983521e-02
-1.932041496038436890e-01,-4.147751629352569580e-02,-3.155007585883140564e-02,1.368419229984283447e-01,-4.529582262039184570e-01,4.204837977886199951e-01,-2.162137180566787720e-01,-1.994053088128566742e-02,-5.226187109947204590e-01,-7.845461368560791016e-02
-7.850680351257324219e-01,-6.488987207412719727e-01,-9.178367257118225098e-01,7.981298118829727173e-02,8.467590808868408203e-02,9.553693979978561401e-02,-9.083287119865417480e-01,-3.510243296623229980e-01,2.204455435276031494e-01,1.228865385055541992e-01
-1.167421638965606689e-01,2.577275037765502930e-01,-3.087926208972930908e-01,4.496588930487632751e-02,7.295974344015121460e-02,2.199728190898895264e-01,-1.448692977428436279e-01,8.910354226827621460e-02,-3.231532871723175049e-01,-1.196944862604141235e-01
-6.026600301265716553e-02,-1.027863547205924988e-01,-3.297797590494155884e-02,1.117662265896797180e-01,3.612973913550376892e-02,-1.037021353840827942e-01,3.589114546775817871e-02,-4.383852705359458923e-02,-1.323008723556995392e-02,-1.007811650633811951e-01
-7.454499602317810059e-02,-1.305279582738876343e-01,-2.711649984121322632e-02,-1.386181563138961792e-01,-3.403539583086967468e-02,-1.210184395313262939e-01,-3.799739852547645569e-02,-3.943649232387542725e-01,2.354351431131362915e-02,5.964364856481552124e-02
1.499204058200120926e-02,-5.679906606674194336e-01,-2.539756596088409424e-01,1.411047875881195068e-01,-4.000334739685058594e-01,6.657981872558593750e-02,-4.066876769065856934e-01,-5.494935512542724609e-01,6.567237526178359985e-02,-1.329497550614178181e-03
-1.752893626689910889e-01,2.075874507427215576e-01,2.664233446121215820e-01,-3.013372421264648438e-01,8.326805382966995239e-02,-1.793907731771469116e-01,-2.757578194141387939e-01,5.312237888574600220e-02,-2.176047712564468384e-01,-2.037038058042526245e-01
1.536405682563781738e-01,-3.337715193629264832e-02,-1.553158313035964966e-01,-8.195312321186065674e-02,7.013355195522308350e-02,-6.413534283638000488e-02,-5.094989668577909470e-03,9.759012609720230103e-03,-1.225167047232389450e-02,-5.781236663460731506e-02
-2.383291423320770264e-01,-3.221278786659240723e-01,2.912978827953338623e-01,-3.636658489704132080e-01,-4.880239367485046387e-01,-3.437966406345367432e-01,2.800763249397277832e-01,-3.781468272209167480e-01,2.847107648849487305e-01,-2.917078137397766113e-01
-4.606029093265533447e-01,-3.921639174222946167e-02,-6.808297038078308105e-01,-2.420064620673656464e-02,5.496218800544738770e-02,-2.213937193155288696e-01,-9.694342017173767090e-01,-8.227054774761199951e-02,-7.370960898697376251e-03,5.709426477551460266e-02
8.159441873431205750e-03,1.608559340238571167e-01,2.739845216274261475e-02,1.034869700670242310e-01,-5.184214562177658081e-02,1.196924448013305664e-01,-4.742248728871345520e-02,-7.979837805032730103e-02,-2.243272513151168823e-01,-3.130729496479034424e-02
1.288903504610061646e-02,-4.895105957984924316e-02,1.911791600286960602e-02,1.278370618820190430e-02,-2.015567850321531296e-03,-2.657771855592727661e-02,1.286672335118055344e-02,4.582189396023750305e-02,-1.003104522824287415e-01,-4.033370688557624817e-02
-5.917658209800720215e-01,-2.528328597545623779e-01,-5.861243605613708496e-02,1.198813840746879578e-01,-3.716881200671195984e-02,4.905604571104049683e-02,-5.271244645118713379e-01,-4.757067263126373291e-01,1.108485981822013855e-01,-1.160556301474571228e-01
-2.393041402101516724e-01,-1.656080335378646851e-01,-4.142106324434280396e-02,-1.053330823779106140e-01,-1.571365892887115479e-01,6.275635212659835815e-03,-1.020757853984832764e-01,7.327288389205932617e-02,-8.736072480678558350e-02,-9.310999512672424316e-01
2.350050061941146851e-01,-3.730351626873016357e-01,-5.456889271736145020e-01,6.738099735230207443e-03,-4.216385483741760254e-01,6.273252516984939575e-02,6.735970731824636459e-03,-2.847636044025421143e-01,-4.080406725406646729e-01,-1.400062590837478638e-01
-5.044813733547925949e-03,-3.845637897029519081e-03,3.079363703727722168e-01,-2.243327051401138306e-01,-5.976378917694091797e-03,8.751551806926727295e-02,9.008476883172988892e-02,-4.765546321868896484e-02,-2.014617472887039185e-01,-2.053827606141567230e-02
-1.850935071706771851e-01,1.765885949134826660e-01,-4.899331629276275635e-01,-7.748761773109436035e-02,4.241840168833732605e-02,-2.276171892881393433e-01,4.378605484962463379e-01,5.149346590042114258e-02,-1.915874034166336060e-01,-3.531018197536468506e-01
-2.323469519615173340e-01,-5.451343655586242676e-01,-2.240641862154006958e-01,-2.816034555435180664e-01,-2.982368171215057373e-01,-9.531989693641662598e-03,-4.437057077884674072e-01,-6.728913187980651855e-01,2.842983901500701904e-01,4.678906500339508057e-01
-4.791258573532104492e-01,-1.483818292617797852e-01,-2.705246508121490479e-01,-2.348963022232055664e-01,1.447130143642425537e-01,1.639599562622606754e-03,-2.741928994655609131e-01,1.868701726198196411e-01,-3.265673220157623291e-01,1.526128649711608887e-01
-1.716143079102039337e-02,-1.682088524103164673e-01,2.376522421836853027e-01,-2.190497219562530518e-01,9.055739641189575195e-02,-1.968228220939636230e-01,1.463581472635269165e-01,-1.083444282412528992e-01,-2.401901185512542725e-01,-4.266570135951042175e-02
-1.125170066952705383e-01,1.611952781677246094e-01,-2.078423649072647095e-01,-1.091797724366188049e-01,-1.273327320814132690e-01,-1.397174410521984100e-02,6.312867254018783569e-02,-1.162994727492332458e-01,-2.268908172845840454e-01,2.394707798957824707e-01
-1.830309033393859863e-01,-1.881571412086486816e-01,-1.929338127374649048e-01,2.163245230913162231e-01,7.380195311270654202e-04,8.861424028873443604e-02,-7.085905969142913818e-02,1.073218788951635361e-02,-2.821536362171173096e-01,1.511719673871994019e-01
2.540924213826656342e-02,-5.097585916519165039e-02,-6.655412912368774414e-02,3.853974863886833191e-02,-1.038755252957344055e-01,-2.813858352601528168e-02,-8.263903111219406128e-02,-1.586115360260009766e-02,4.897138103842735291e-02,5.339353159070014954e-02
1.147702187299728394e-01,3.868073225021362305e-01,-2.199760973453521729e-01,-6.568716764450073242e-01,2.213576287031173706e-01,2.176711559295654297e-01,-4.771242439746856689e-01,-6.012815237045288086e-01,-4.460976123809814453e-01,-5.304525494575500488e-01
-3.373568952083587646e-01,5.489182844758033752e-02,2.045460045337677002e-01,-2.591694295406341553e-01,-2.017790079116821289e-01,-2.116912007331848145e-01,-1.207293048501014709e-01,-8.447626978158950806e-02,3.329506516456604004e-02,-2.635115087032318115e-01
-1.207071095705032349e-01,-1.551586240530014038e-01,-3.479718863964080811e-01,-4.682322740554809570e-01,1.234250050038099289e-02,2.529674172401428223e-01,-1.826398521661758423e-01,-2.914681285619735718e-02,-1.672492176294326782e-02,-4.284320399165153503e-03
2.282735258340835571e-01,-3.600201010704040527e-01,-9.907717257738113403e-02,-1.781208366155624390e-01,-2.727324962615966797e-01,3.213305175304412842e-01,-3.153735026717185974e-02,-5.086819827556610107e-02,-2.818337976932525635e-01,-2.284970134496688843e-01
-2.141025364398956299e-01,1.393549442291259766e-01,-5.136367306113243103e-02,-3.294728398323059082e-01,1.238571032881736755e-01,-2.801735699176788330e-01,1.021577566862106323e-01,-3.177706301212310791e-01,-8.209893107414245605e-01,-1.538666337728500366e-01
6.535314023494720459e-02,-5.830060839653015137e-01,1.437979470938444138e-02,-1.541880816221237183e-01,-4.976836740970611572e-01,-3.317695260047912598e-01,-2.923696935176849365e-01,-1.270691603422164917e-01,3.311270475387573242e-02,4.862544685602188110e-02
2.403296679258346558e-01,1.888808012008666992e-01,-1.573201119899749756e-01,2.790979854762554169e-02,-1.089483946561813354e-01,-1.010039895772933960e-01,-1.773861199617385864e-01,-1.040538549423217773e-01,-7.168528437614440918e-02,-9.915276616811752319e-02
-8.502921462059020996e-01,-8.908068388700485229e-02,-3.772282302379608154e-01,3.924473002552986145e-02,4.400284087751060724e-04,-9.623736143112182617e-01,-3.184774518013000488e-01,-9.462450444698333740e-02,-1.193221062421798706e-01,-4.421124458312988281e-01
-3.024691939353942871e-01,-2.858010530471801758e-01,1.746679693460464478e-01,2.563614547252655029e-01,1.156612113118171692e-01,1.264011263847351074e-01,-3.048367500305175781e-01,-1.722855567932128906e-01,-2.821477353572845459e-01,-2.786042392253875732e-01
-2.998621165752410889e-01,1.291188299655914307e-01,-2.400660961866378784e-01,-4.864310622215270996e-01,-4.961898028850555420e-01,1.094265803694725037e-01,7.231409102678298950e-02,-3.240554332733154297e-01,-1.096431538462638855e-01,7.064998149871826172e-02
-2.199976146221160889e-01,-1.270197033882141113e-01,6.606067717075347900e-02,8.411604911088943481e-02,-5.521940588951110840e-01,1.453804969787597656e-01,-2.311764508485794067e-01,-1.366204172372817993e-01,-3.557748347520828247e-02,-3.221364915370941162e-01
1.862375587224960327e-01,-2.397372275590896606e-01,-2.292149811983108521e-01,-4.161415398120880127e-01,-1.146423146128654480e-01,-4.437047243118286133e-01,3.455551564693450928e-01,-2.082857489585876465e-01,-6.134052574634552002e-02,-1.620898582041263580e-02
-5.590574815869331360e-02,2.900244668126106262e-02,-9.380118548870086670e-02,1.012266948819160461e-01,-1.120303124189376831e-01,6.991572678089141846e-02,-1.453919261693954468e-01,-2.603014409542083740e-01,-3.468561917543411255e-02,-1.382951717823743820e-02
-2.938091158866882324e-01,-1.961904019117355347e-01,-3.722977042198181152e-01,-2.333378195762634277e-01,-1.347106546163558960e-01,6.417707800865173340e-01,-1.545905768871307373e-01,2.781381309032440186e-01,-2.688488364219665527e-01,-4.302383214235305786e-02
2.707904390990734100e-02,4.830832034349441528e-02,-3.733095526695251465e-01,-3.526399135589599609e-01,-5.381324291229248047e-01,1.685552895069122314e-01,-1.371786594390869141e-01,-6.777184605598449707e-01,1.599609553813934326e-01,2.201881408691406250e-01
