-3.827856108546257019e-02,-2.852225005626678467e-01,5.655440092086791992e-01,-2.081609666347503662e-01,-9.744079709053039551e-01,-9.624433703720569611e-03,-1.972980797290802002e-01,-1.624792516231536865e-01,-3.169897794723510742e-01,-1.038617610931396484e+00
-5.545364618301391602e-01,6.010241061449050903e-02,7.155565619468688965e-01,-3.464134335517883301e-01,-3.640310764312744141e-01,-2.896898367907851934e-04,-1.037085875868797302e-01,-4.424866735935211182e-01,-2.312677055597305298e-01,-4.745497107505798340e-01
-1.161153554916381836e+00,-1.146245956420898438e+00,-3.932856321334838867e-01,5.149697065353393555e-01,2.154110372066497803e-01,6.393792629241943359e-01,-1.084975957870483398e+00,-7.227178215980529785e-01,-8.658337593078613281e-01,5.365424156188964844e-01
-7.787140607833862305e-01,-8.596583604812622070e-01,-5.451353192329406738e-01,-2.686966657638549805e-01,-1.858164370059967041e-01,-6.936340928077697754e-01,2.103204429149627686e-01,-3.523069024085998535e-01,2.423607856035232544e-01,3.292784988880157471e-01
-6.031663417816162109e-01,-7.672117948532104492e-01,-1.505817919969558716e-01,-5.534726381301879883e-01,-1.369025230407714844e+00,3.039053380489349365e-01,5.927649736404418945e-01,-3.432196676731109619e-01,-3.076075315475463867e-01,9.052637964487075806e-02
7.372605055570602417e-02,-1.077588414773344994e-03,7.185748219490051270e-02,7.058890536427497864e-03,1.336775273084640503e-01,9.350187331438064575e-02,-8.738154917955398560e-02,-8.539010584354400635e-02,3.517195954918861389e-02,-1.478423327207565308e-01
-1.154601454734802246e+00,-8.778591752052307129e-01,-4.879369139671325684e-01,3.919666633009910583e-02,-1.143146514892578125e+00,5.004917383193969727e-01,5.630835294723510742e-01,-1.431113928556442261e-01,-3.114169090986251831e-02,-7.506084442138671875e-01
1.767085306346416473e-02,-1.094495411962270737e-02,-6.811989005655050278e-03,-9.268148243427276611e-02,-8.025270104408264160e-01,2.667014598846435547e-01,-2.586845755577087402e-01,-1.323420286178588867e+00,-9.629645943641662598e-01,-2.377646714448928833e-01
-1.098033636808395386e-01,-4.714524373412132263e-02,3.552969917654991150e-02,-1.610261574387550354e-02,-1.019451841711997986e-01,-4.029889777302742004e-02,1.359376609325408936e-01,3.140583634376525879e-01,7.570734014734625816e-04,-3.075840771198272705e-01
-9.951245188713073730e-01,1.749858260154724121e-01,5.915071815252304077e-02,-2.920130789279937744e-01,-9.694687724113464355e-01,1.004465892910957336e-01,-1.717748939990997314e-01,-5.891752839088439941e-01,1.551085710525512695e-01,-5.120394229888916016e-01
-4.448364973068237305e-01,3.285298943519592285e-01,-2.418213635683059692e-01,-6.527643203735351562e-01,2.197018414735794067e-01,1.810652315616607666e-01,-1.463210135698318481e-01,-5.950403213500976562e-01,-7.687236666679382324e-01,-6.129891872406005859e-01
1.930172927677631378e-02,-4.269300103187561035e-01,-1.275247037410736084e-01,1.441732347011566162e-01,2.240361720323562622e-01,-1.284186244010925293e-01,-2.450374141335487366e-02,1.507840901613235474e-01,1.031664237380027771e-01,-2.409762740135192871e-01
2.055763155221939087e-01,-2.775689959526062012e-01,-1.929057389497756958e-02,-2.332839965820312500e-01,-5.409932136535644531e-01,7.615999318659305573e-03,-7.159724235534667969e-01,-4.366865158081054688e-01,-1.157280683517456055e+00,1.587046384811401367e-01
-2.849707901477813721e-01,4.754455685615539551e-01,-5.322461128234863281e-01,-7.219719290733337402e-01,-7.229945063591003418e-02,2.350939512252807617e-01,-3.116951286792755127e-01,3.687717914581298828e-01,-1.026254892349243164e+00,8.448554575443267822e-02
-4.868098199367523193e-01,-1.191315799951553345e-02,4.326857030391693115e-01,-5.083816051483154297e-01,-5.935665369033813477e-01,-1.169181521981954575e-02,1.026807501912117004e-01,9.020764827728271484e-01,-7.143148183822631836e-01,-1.575644135475158691e+00
-6.716591864824295044e-02,-2.454908341169357300e-01,6.946570705622434616e-03,-8.326499164104461670e-02,-1.567518353462219238e+00,-1.841598153114318848e-01,-1.255931854248046875e+00,4.382064566016197205e-03,-2.454218417406082153e-01,-7.787513732910156250e-01
-6.835644841194152832e-01,-3.577455282211303711e-01,8.283008933067321777e-01,-9.899848103523254395e-01,1.642394959926605225e-01,1.077117994427680969e-01,1.913732737302780151e-01,-1.026280283927917480e+00,-6.633006930351257324e-01,-7.257702946662902832e-01
-1.895139664411544800e-01,8.311296999454498291e-02,-8.132348209619522095e-02,-1.337248086929321289e-01,-4.282352626323699951e-01,-4.301432967185974121e-01,-8.050208091735839844e-01,-4.519085586071014404e-01,-7.248062491416931152e-01,5.550798177719116211e-01
-4.536557495594024658e-01,3.734507858753204346e-01,-9.729943275451660156e-01,-8.229309320449829102e-01,-6.658597588539123535e-01,1.468252837657928467e-01,-2.578408420085906982e-01,-3.114702105522155762e-01,-2.018440067768096924e-01,1.957759708166122437e-01
-5.448244214057922363e-01,-4.152000546455383301e-01,3.777622580528259277e-01,-4.119116365909576416e-01,-1.248143240809440613e-01,1.696667969226837158e-01,1.095339730381965637e-01,-5.831040143966674805e-01,1.913083493709564209e-01,-6.634546518325805664e-01
-1.643838286399841309e-01,-4.505740106105804443e-02,-1.582858711481094360e-01,-1.356988102197647095e-01,-1.333527684211730957e+00,-6.875082254409790039e-01,-2.079594135284423828e-01,-4.233986139297485352e-01,-1.958378404378890991e-01,-1.726732701063156128e-01
5.044417828321456909e-02,-1.025377035140991211e+00,3.410777449607849121e-01,-6.153278946876525879e-01,-3.888393640518188477e-01,-2.476548105478286743e-01,-7.550885081291198730e-01,6.707500815391540527e-01,-1.005387067794799805e+00,-5.324947237968444824e-01
3.885882198810577393e-01,-6.719197630882263184e-01,5.999280884861946106e-02,-1.041561722755432129e+00,5.889261364936828613e-01,-4.274688065052032471e-01,-4.242472946643829346e-01,-7.403414696455001831e-02,-6.344770789146423340e-01,-4.775442779064178467e-01
-6.431518197059631348e-01,6.539648026227951050e-02,2.521779835224151611e-01,3.311152160167694092e-01,-5.541055202484130859e-01,-3.132044076919555664e-01,-3.560686111450195312e-01,-4.240852296352386475e-01,-6.986607313156127930e-01,-4.594291746616363525e-01
-6.996979713439941406e-01,-2.393445074558258057e-01,-2.893983423709869385e-01,9.035770595073699951e-02,3.826643154025077820e-02,-8.891013860702514648e-01,-9.628801345825195312e-01,-1.871389150619506836e-01,-8.966726064682006836e-02,1.145448610186576843e-01
-2.763167917728424072e-01,-2.898710370063781738e-01,5.261504277586936951e-02,1.729770004749298096e-02,2.532143890857696533e-01,-8.138829469680786133e-01,-2.870533168315887451e-01,-4.295395314693450928e-01,3.305268660187721252e-02,-6.827282309532165527e-01
-4.814826846122741699e-01,-8.131899237632751465e-01,-6.462695598602294922e-01,-6.733164787292480469e-01,-9.709988236427307129e-01,8.858386278152465820e-01,-2.532339990139007568e-01,-4.529819637537002563e-02,9.485215693712234497e-02,1.717408001422882080e-01
5.727379322052001953e-01,-2.967806756496429443e-01,-3.900883793830871582e-01,-6.291251182556152344e-01,-2.784258723258972168e-01,-1.837324053049087524e-01,-4.282767772674560547e-01,4.492010772228240967e-01,-7.333924770355224609e-01,-7.291918396949768066e-01
-4.599352926015853882e-02,-4.348476231098175049e-01,-4.551880359649658203e-01,-2.689916193485260010e-01,-2.145407199859619141e-01,-1.397836953401565552e-02,-1.138914227485656738e-01,-4.430170059204101562e-01,1.662646830081939697e-01,-9.244529530405998230e-03
-6.983091235160827637e-01,-3.829465210437774658e-01,1.290226280689239502e-01,1.053261309862136841e-01,-9.411778450012207031e-01,-7.850787639617919922e-01,-7.281050086021423340e-02,-6.634039282798767090e-01,5.149296522140502930e-01,7.226403057575225830e-02
-2.514972537755966187e-02,-8.113558888435363770e-01,3.144111037254333496e-01,-8.210465312004089355e-01,1.279558837413787842e-01,1.281822472810745239e-01,-7.220960259437561035e-01,-5.598264932632446289e-01,-3.823931515216827393e-01,-2.859035432338714600e-01
-1.305359154939651489e-01,-9.674305319786071777e-01,-1.261708021163940430e+00,-2.315608970820903778e-02,-5.986858606338500977e-01,2.610001266002655029e-01,2.347094416618347168e-01,-5.635410547256469727e-01,2.065911144018173218e-01,-1.490162909030914307e-01
-8.774750828742980957e-01,-3.004391789436340332e-01,-3.512994945049285889e-02,-2.514351159334182739e-02,-4.406370520591735840e-01,-1.072560697793960571e-01,-4.015023633837699890e-02,-7.517553120851516724e-02,-2.255597151815891266e-02,-1.122096776962280273e+00
-5.894554853439331055e-01,-7.200509309768676758e-02,2.140750288963317871e-01,-3.880740702152252197e-01,3.706994280219078064e-02,-1.053186416625976562e+00,3.815327584743499756e-01,9.338461607694625854e-02,-1.009334087371826172e+00,-1.217403769493103027e+00
-6.627811789512634277e-01,-6.338838934898376465e-01,-1.810753792524337769e-01,-4.731449484825134277e-01,1.046112999320030212e-01,-1.241532325744628906e+00,-5.130907297134399414e-01,-1.751451939344406128e-01,-2.430329322814941406e-01,1.368020772933959961e-01
-5.053470134735107422e-01,9.602513909339904785e-02,-3.857254981994628906e-01,-1.738253474235534668e+00,-8.471845835447311401e-02,-1.003937602043151855e+00,-3.421403467655181885e-01,-1.108288913965225220e-01,3.723770380020141602e-01,-8.821470737457275391e-01
-2.901811599731445312e-01,2.976191043853759766e-01,3.568693995475769043e-01,5.977978706359863281e-01,-3.216098546981811523e-01,-8.063455224037170410e-01,-1.971110850572586060e-01,-5.489276647567749023e-01,-8.546822071075439453e-01,-3.235181272029876709e-01
-8.717943429946899414e-01,-7.575489580631256104e-02,-1.258710864931344986e-02,-4.436957836151123047e-01,-6.871826201677322388e-02,-1.122080087661743164e+00,-6.370149254798889160e-01,-3.417744636535644531e-01,5.949698016047477722e-02,-1.949057728052139282e-02
2.438580393791198730e-01,-5.073280930519104004e-01,-5.044226348400115967e-02,-9.112848639488220215e-01,-6.864428520202636719e-01,-6.154307126998901367e-01,3.307121619582176208e-02,-5.594730973243713379e-01,5.748673081398010254e-01,-1.159340739250183105e+00
-8.086154460906982422e-01,7.590388506650924683e-02,3.590658605098724365e-01,-3.644554018974304199e-01,-9.785426259040832520e-01,-8.926246166229248047e-01,-6.409328579902648926e-01,-2.150927484035491943e-01,2.276888191699981689e-01,-2.046036005020141602e+00
4.081805795431137085e-02,5.154567211866378784e-02,-9.643782973289489746e-01,-7.001703977584838867e-02,1.175436601042747498e-01,-1.122070908546447754e+00,4.652356207370758057e-01,-4.962112903594970703e-01,-1.070291399955749512e+00,-9.076442718505859375e-01
7.753322124481201172e-01,3.059142231941223145e-01,5.942116975784301758e-01,-9.503930807113647461e-01,-4.345898330211639404e-01,-5.062032341957092285e-01,-3.833425939083099365e-01,-9.843976050615310669e-02,-1.433969616889953613e+00,-6.654501557350158691e-01
-2.910054922103881836e-01,-2.995742261409759521e-01,2.373168468475341797e-01,-1.141902565956115723e+00,-5.942400693893432617e-01,-6.861240267753601074e-01,-2.325531840324401855e-01,-4.986350834369659424e-01,6.836595535278320312e-01,-9.620754718780517578e-01
-7.192706316709518433e-02,-2.275207266211509705e-02,9.216789156198501587e-02,-1.149591729044914246e-01,-1.180123761296272278e-01,2.076551550999283791e-03,-1.079052016139030457e-01,1.939341276884078979e-01,1.081657186150550842e-01,4.250498861074447632e-02
-1.072883903980255127e-01,-7.439911961555480957e-01,-1.850628107786178589e-01,1.156893670558929443e-01,-7.596216797828674316e-01,-8.955187201499938965e-01,-4.355237483978271484e-01,-1.392685770988464355e-01,2.232239693403244019e-01,4.174405932426452637e-01
-3.062642216682434082e-01,3.767189085483551025e-01,2.777494788169860840e-01,5.005488172173500061e-02,-9.819956421852111816e-01,-3.484015166759490967e-01,-4.302431643009185791e-02,-6.335262209177017212e-02,-6.865588426589965820e-01,-1.538081645965576172e+00
-2.935579419136047363e-01,3.013399243354797363e-01,-4.480198919773101807e-01,-1.196407556533813477e+00,-3.038868010044097900e-01,-5.984957218170166016e-01,-3.990194201469421387e-01,2.255994379520416260e-01,-1.301828742027282715e+00,3.309893608093261719e-01
-5.217515230178833008e-01,-4.882906973361968994e-01,-8.006793260574340820e-01,2.281704843044281006e-01,3.794365227222442627e-01,-1.547429084777832031e+00,-4.389089345932006836e-01,-1.293289810419082642e-01,-2.458819299936294556e-01,3.628217428922653198e-02
-2.303578658029437065e-03,1.506138443946838379e-01,-6.251202225685119629e-01,-7.451021671295166016e-01,-5.622279047966003418e-01,9.903380274772644043e-01,1.958125084638595581e-01,-9.233757853507995605e-02,-9.775851368904113770e-01,-8.189883828163146973e-01
3.795945048332214355e-01,3.723083063960075378e-03,-2.144618630409240723e-01,-1.157622337341308594e+00,-4.630635082721710205e-01,-4.374783337116241455e-01,-3.938948214054107666e-01,-5.711984038352966309e-01,-1.364354342222213745e-01,-1.314827203750610352e-01
-7.481244802474975586e-01,-1.435841917991638184e-01,-1.538870692253112793e+00,-3.883171379566192627e-01,-5.108369514346122742e-02,3.701572120189666748e-01,-1.171610236167907715e+00,2.948848530650138855e-02,-3.555535674095153809e-01,5.157810449600219727e-01
-6.215155124664306641e-01,-2.397634238004684448e-01,-2.676098048686981201e-01,-1.074015647172927856e-01,-1.343898624181747437e-01,-5.202746987342834473e-01,-1.026315689086914062e+00,-2.742332406342029572e-02,-1.888808980584144592e-02,-3.899823725223541260e-01
-7.938991785049438477e-01,-4.076186716556549072e-01,2.748616635799407959e-01,-9.566557407379150391e-01,-4.272390007972717285e-01,-1.069239258766174316e+00,-3.645568192005157471e-01,2.692934572696685791e-01,4.735109210014343262e-01,-7.693375349044799805e-01
-5.724681913852691650e-02,-6.287732124328613281e-01,9.037704765796661377e-02,-2.608161605894565582e-02,-3.018031083047389984e-02,1.035978049039840698e-01,-6.747047305107116699e-01,-9.986782073974609375e-01,-1.060302928090095520e-01,-5.950133204460144043e-01
-6.633792519569396973e-01,-7.000499367713928223e-01,4.796005189418792725e-01,-4.184778034687042236e-01,2.526878416538238525e-01,-5.019634962081909180e-01,-1.093126982450485229e-01,-8.215075731277465820e-01,-1.177126526832580566e+00,-6.806378811597824097e-02
-7.242416143417358398e-01,1.711088418960571289e-01,-2.408040910959243774e-01,7.694253921508789062e-01,-3.933047503232955933e-02,-1.438451409339904785e+00,-5.148307085037231445e-01,-6.757183074951171875e-01,-8.014619350433349609e-01,1.023621633648872375e-01
2.116541415452957153e-01,-5.118525624275207520e-01,-5.294387787580490112e-02,-3.314676880836486816e-01,-2.844294905662536621e-01,-1.365567088127136230e+00,-7.514803409576416016e-01,1.087812781333923340e-01,-5.388519167900085449e-01,5.188907496631145477e-03
-5.021185278892517090e-01,-1.673609614372253418e-01,-4.275350272655487061e-01,-3.257094621658325195e-01,3.596658408641815186e-01,-3.381493389606475830e-01,-4.406022131443023682e-01,7.320143580436706543e-01,-4.763181209564208984e-01,-8.338875770568847656e-01
-2.492565810680389404e-01,-1.974813193082809448e-01,-2.235296815633773804e-01,-1.912722736597061157e-01,-4.761587381362915039e-01,-2.475700080394744873e-01,-5.289909243583679199e-01,-1.080406785011291504e+00,1.368820220232009888e-01,9.321117401123046875e-02
-6.700967550277709961e-01,-1.399284601211547852e-01,-4.278969764709472656e-02,2.821328938007354736e-01,-5.235269069671630859e-01,-7.283617742359638214e-03,1.994081214070320129e-02,-7.390390634536743164e-01,1.553374230861663818e-01,-1.052658081054687500e+00
-7.444148659706115723e-01,-2.350041866302490234e-01,3.696838915348052979e-01,-6.178457140922546387e-01,-3.711583018302917480e-01,-1.008381843566894531e-01,-8.818986415863037109e-01,-9.210852533578872681e-02,-1.391525268554687500e+00,-1.005556508898735046e-01
-8.573344945907592773e-01,-8.608620166778564453e-01,-2.727645337581634521e-01,1.996667981147766113e-01,-1.065445542335510254e+00,-6.451603770256042480e-01,-2.165310382843017578e-01,2.138321697711944580e-01,-6.851790100336074829e-02,-7.018014043569564819e-02
2.252501435577869415e-02,-9.188277125358581543e-01,4.000871181488037109e-01,-7.630704045295715332e-01,-3.579231798648834229e-01,-9.650403261184692383e-01,-2.599938809871673584e-01,-4.579849168658256531e-02,-6.760272383689880371e-01,9.651824831962585449e-02
-5.030341744422912598e-01,9.828408956527709961e-01,-3.145136535167694092e-01,1.685039997100830078e-01,1.789501160383224487e-01,-1.486736178398132324e+00,-1.903237551450729370e-01,-2.123101949691772461e-01,-7.247157096862792969e-01,-1.014074921607971191e+00
5.014981329441070557e-02,-2.731158435344696045e-01,-7.674536108970642090e-01,-6.348150968551635742e-01,2.536865770816802979e-01,2.098847180604934692e-01,2.029561996459960938e-02,-9.327628612518310547e-01,2.897793948650360107e-01,-6.128580570220947266e-01
-5.397062301635742188e-01,-4.115769863128662109e-01,-8.484179377555847168e-01,-7.166029214859008789e-01,4.987311065196990967e-01,3.683448731899261475e-01,-5.730664730072021484e-01,8.123120665550231934e-01,-5.217500925064086914e-01,-6.703696846961975098e-01
-4.298654198646545410e-02,-4.796951413154602051e-01,-3.985360264778137207e-01,7.983998209238052368e-02,-1.345810532569885254e+00,-1.061812266707420349e-01,-8.454863727092742920e-02,-1.570231676101684570e+00,-1.820753216743469238e-01,-6.706028580665588379e-01
-7.293962836265563965e-01,-3.102154433727264404e-01,-4.864318370819091797e-01,-1.293092846870422363e+00,-5.031685344874858856e-03,-1.234032511711120605e+00,1.978339403867721558e-01,5.131775140762329102e-01,-1.352851241827011108e-01,6.033302098512649536e-02
-7.557479143142700195e-01,-9.538496136665344238e-01,-4.258972406387329102e-01,4.585427045822143555e-02,4.385895654559135437e-02,-5.190899372100830078e-01,-4.226840734481811523e-01,4.188264906406402588e-02,-1.530727505683898926e+00,1.579896956682205200e-01
-5.351469516754150391e-01,7.707162201404571533e-02,-3.419336974620819092e-01,-1.218173652887344360e-01,2.944177687168121338e-01,-1.325085759162902832e+00,-5.634279251098632812e-01,-5.102614760398864746e-01,-4.056750237941741943e-01,-2.659319341182708740e-01
-6.125401854515075684e-01,4.240535199642181396e-01,-3.930544257164001465e-01,-6.670116782188415527e-01,5.130153894424438477e-01,3.230290710926055908e-01,-3.581068515777587891e-01,-2.232705056667327881e-01,-9.116719961166381836e-01,-7.392616868019104004e-01
5.348600745201110840e-01,-1.895705312490463257e-01,-6.020646095275878906e-01,-7.676461338996887207e-02,-5.105742216110229492e-01,2.212695330381393433e-01,-2.746930122375488281e-01,-4.049605429172515869e-01,-1.058640122413635254e+00,-1.661649048328399658e-01
3.439638763666152954e-02,-1.782860308885574341e-01,1.689929701387882233e-02,-8.531159758567810059e-01,-3.709359467029571533e-01,-1.049596309661865234e+00,1.249223127961158752e-01,-4.058258533477783203e-01,6.186997145414352417e-02,-1.398083329200744629e+00
-1.088613629341125488e+00,-4.403771460056304932e-01,-1.020945549011230469e+00,1.175291016697883606e-01,-2.416727095842361450e-01,-3.764438331127166748e-01,-7.762717604637145996e-01,2.389002144336700439e-01,2.986898720264434814e-01,2.938169986009597778e-02
3.511281013488769531e-01,-2.105066031217575073e-01,5.085366964340209961e-02,-9.230484962463378906e-01,-7.147267460823059082e-02,-1.013508200645446777e+00,-6.000992655754089355e-02,-1.690208613872528076e-01,-1.103166699409484863e+00,-1.969065219163894653e-01
1.796508282423019409e-01,-3.236987888813018799e-01,2.456225603818893433e-01,2.188933789730072021e-01,-7.402218580245971680e-01,4.498631507158279419e-02,-6.835802197456359863e-01,-5.021361708641052246e-01,-8.193544149398803711e-01,-5.823611617088317871e-01
-4.778956770896911621e-01,-3.340726792812347412e-01,-7.749787569046020508e-01,3.122596815228462219e-02,4.471583068370819092e-01,-8.429606556892395020e-01,-3.593214228749275208e-02,-1.002660989761352539e-01,-2.614022791385650635e-01,-7.760449051856994629e-01
-2.676917910575866699e-01,1.430490426719188690e-02,-1.174009084701538086e+00,7.006844878196716309e-01,-4.863241314888000488e-01,-4.944988191127777100e-01,6.251485645771026611e-02,1.776182800531387329e-01,-8.269461393356323242e-01,-8.950794339179992676e-01
1.835888475179672241e-01,-1.411907196044921875e+00,-6.250452995300292969e-01,-2.244211435317993164e-01,-3.221853971481323242e-01,2.012411653995513916e-01,1.902956962585449219e-01,-2.393553107976913452e-01,-7.491214871406555176e-01,2.330523356795310974e-02
-1.059590101242065430e+00,-1.844634711742401123e-01,-1.907931715250015259e-01,-7.835900783538818359e-02,-8.801548480987548828e-01,-3.160577416419982910e-01,-1.606878787279129028e-01,-1.070395588874816895e+00,1.735489219427108765e-01,3.406597971916198730e-01
-6.186655256897211075e-03,-4.535453319549560547e-01,-2.493362575769424438e-01,-3.043872714042663574e-01,-3.544148430228233337e-02,-1.450226545333862305e+00,-1.659652590751647949e+00,-1.413507908582687378e-01,-2.913935184478759766e-01,-9.099325537681579590e-02
-7.508773207664489746e-01,-9.642742276191711426e-01,-1.511818170547485352e-01,2.366616129875183105e-01,-4.563353359699249268e-01,-5.407350659370422363e-01,1.799911558628082275e-01,2.215002775192260742e-01,2.671394348144531250e-01,-8.996967673301696777e-01
-5.564990639686584473e-01,-5.570248961448669434e-01,1.735714524984359741e-01,-3.158422112464904785e-01,-1.214962363243103027e+00,-6.401617527008056641e-01,2.678993344306945801e-02,6.828311830759048462e-02,1.698425784707069397e-02,-5.087798461318016052e-02
-1.554710566997528076e-01,-3.527632951736450195e-01,2.389138787984848022e-01,6.523581743240356445e-01,-7.853949666023254395e-01,-4.424092769622802734e-01,-5.749493464827537537e-02,1.090330034494400024e-01,-8.073157668113708496e-01,-1.236631155014038086e+00
-5.751876831054687500e-01,2.945529520511627197e-01,2.715777754783630371e-01,3.223052015528082848e-03,-1.946867555379867554e-01,-6.940675973892211914e-01,5.533682703971862793e-01,-8.811226487159729004e-01,-1.230634689331054688e+00,-1.344593167304992676e-01
-2.473549842834472656e-01,8.003142476081848145e-02,-2.336317896842956543e-01,4.842758476734161377e-01,5.449087023735046387e-01,6.690607219934463501e-02,6.686061155050992966e-03,-1.701273769140243530e-01,-9.519096016883850098e-01,-1.102190732955932617e+00
1.516669541597366333e-01,4.948674514889717102e-02,-4.426805675029754639e-01,3.664572536945343018e-02,-1.244400620460510254e+00,-9.060309827327728271e-02,-1.549810469150543213e-01,-9.031367301940917969e-01,-6.198079511523246765e-02,-9.719595313072204590e-01
-4.365044534206390381e-01,-9.981949925422668457e-01,-6.163378059864044189e-02,-9.026213884353637695e-01,-1.091502886265516281e-02,2.082635462284088135e-01,1.463103145360946655e-01,-6.558868885040283203e-01,2.559818923473358154e-01,-2.867710590362548828e-01
1.017523050308227539e+00,-1.444573551416397095e-01,-4.946496784687042236e-01,-1.942857205867767334e-01,-2.587356567382812500e-01,-9.987934827804565430e-01,-4.118528962135314941e-01,-7.256807386875152588e-02,-4.273923113942146301e-02,-3.580518662929534912e-01
6.674203872680664062e-01,1.153030022978782654e-01,-4.775975048542022705e-01,-4.391868412494659424e-01,-5.363968014717102051e-01,-1.501467674970626831e-01,-2.822299003601074219e-01,7.992743253707885742e-01,-2.148149609565734863e-01,-8.466382622718811035e-01
-3.914521932601928711e-01,1.970739513635635376e-01,6.915194392204284668e-01,-1.322324275970458984e+00,-3.367128074169158936e-01,-7.850352525711059570e-01,-7.185365557670593262e-01,-2.825976908206939697e-01,-4.395684897899627686e-01,3.724640309810638428e-01
-7.402147352695465088e-02,-2.681865915656089783e-02,-3.583262562751770020e-01,3.069461584091186523e-01,7.733906805515289307e-02,3.302938640117645264e-01,-3.938856348395347595e-02,-1.869751065969467163e-01,-4.225028157234191895e-01,-9.704756736755371094e-02
-3.788612484931945801e-01,-2.541230022907257080e-01,5.948089808225631714e-02,-1.897733509540557861e-01,-1.014725193381309509e-01,-8.505808115005493164e-01,1.098323427140712738e-02,-4.554194584488868713e-02,-7.512043714523315430e-01,-1.062341928482055664e+00
-7.059396505355834961e-01,-5.188634991645812988e-01,-1.161723017692565918e+00,-1.646782159805297852e-01,-7.953684329986572266e-01,3.559525907039642334e-01,4.163714349269866943e-01,-2.603364586830139160e-01,-2.042857557535171509e-02,-5.328250527381896973e-01
-8.700720667839050293e-01,-1.116477131843566895e+00,-6.548249125480651855e-01,-4.274266362190246582e-01,2.991620600223541260e-01,-5.988589301705360413e-02,-1.570982456207275391e+00,3.231398761272430420e-02,-2.294827401638031006e-01,2.230180241167545319e-02
-9.582454562187194824e-01,-3.545887768268585205e-01,-4.768507778644561768e-01,-1.784987449645996094e-01,-3.109143674373626709e-01,2.252357953693717718e-04,-8.037422895431518555e-01,-6.531233787536621094e-01,6.210777163505554199e-01,-3.758722841739654541e-01
-3.694158494472503662e-01,-7.574198395013809204e-02,-7.068493217229843140e-02,-6.692578196525573730e-01,2.147643566131591797e-01,-8.283566683530807495e-02,-5.753135681152343750e-01,3.175162672996520996e-01,-8.548561334609985352e-01,2.474453300237655640e-01
3.610118925571441650e-01,-7.853853702545166016e-02,-1.585992574691772461e-01,-1.034715056419372559e+00,-1.090786099433898926e+00,-1.159273743629455566e+00,2.108419239521026611e-01,-5.155287981033325195e-01,1.827949285507202148e-01,-1.005937576293945312e+00
-3.161964416503906250e-01,-6.901631355285644531e-01,6.733029335737228394e-02,-4.701907038688659668e-01,-1.230259060859680176e+00,-2.321954444050788879e-02,-5.275144577026367188e-01,-4.402846992015838623e-01,8.844383060932159424e-02,-1.073517873883247375e-01
-6.331193447113037109e-01,9.973869472742080688e-02,1.322594135999679565e-01,-1.752942502498626709e-01,-3.090063333511352539e-01,3.081070184707641602e-01,-7.992585897445678711e-01,2.470931708812713623e-01,-9.201698899269104004e-01,2.264428138732910156e-01
-1.037553191184997559e+00,1.324640810489654541e-01,-1.574588418006896973e-01,-1.686558872461318970e-01,-9.030423164367675781e-01,-8.416420966386795044e-02,1.174921318888664246e-01,-3.812929987907409668e-01,-1.727276481688022614e-02,-7.622806727886199951e-02
5.991409346461296082e-02,-4.593079984188079834e-01,-1.230713725090026855e+00,-3.854840993881225586e-01,-2.253566384315490723e-01,-5.397811532020568848e-01,-6.960622072219848633e-01,-2.829419821500778198e-02,-7.720233798027038574e-01,-9.079521521925926208e-03
-2.237205766141414642e-02,4.975408315658569336e-01,-2.499131113290786743e-01,2.337553352117538452e-01,-7.448313236236572266e-01,1.636290550231933594e-01,-1.656276136636734009e-01,5.336425080895423889e-02,-1.419109582901000977e+00,-6.053226590156555176e-01
1.746285706758499146e-01,-1.026910066604614258e+00,-1.017304509878158569e-01,-4.906773939728736877e-02,-1.000581145286560059e+00,4.674559086561203003e-02,-6.035433411598205566e-01,-7.916150689125061035e-01,-6.748498417437076569e-03,-3.585832118988037109e-01
2.424506992101669312e-01,-1.756228953599929810e-01,-7.247848510742187500e-01,-8.596442341804504395e-01,5.634012818336486816e-01,-2.125708572566509247e-02,-2.996620833873748779e-01,6.992371678352355957e-01,-5.851249694824218750e-01,-5.089939832687377930e-01
-3.476266264915466309e-01,8.138337731361389160e-02,-7.107100486755371094e-01,-1.187013745307922363e+00,-1.062476515769958496e+00,-1.032046228647232056e-01,-1.257166825234889984e-02,-9.088603258132934570e-01,2.220179736614227295e-01,1.354329884052276611e-01
-3.059958517551422119e-01,-8.367536664009094238e-01,5.776427984237670898e-01,-5.865412577986717224e-02,1.682998985052108765e-02,-4.195637404918670654e-01,2.470037192106246948e-01,-4.619736671447753906e-01,-1.347755908966064453e+00,1.926932185888290405e-01
-6.411692500114440918e-01,1.691385805606842041e-01,-5.470073223114013672e-01,4.855302572250366211e-01,-8.449651598930358887e-01,-8.741515874862670898e-01,-1.240816563367843628e-01,7.048782110214233398e-01,-1.024748682975769043e+00,-6.866155266761779785e-01
-2.963760197162628174e-01,-2.482635229825973511e-01,-2.394154965877532959e-01,6.169220209121704102e-01,8.515262044966220856e-03,4.563038349151611328e-01,-4.643786847591400146e-01,1.519656777381896973e-01,-6.215683221817016602e-01,-7.740349769592285156e-01
-7.422267198562622070e-01,4.381231218576431274e-02,5.784191489219665527e-01,-1.053467154502868652e+00,-3.881411850452423096e-01,2.525370419025421143e-01,-2.228591144084930420e-01,-1.706531969830393791e-03,-3.920423686504364014e-01,-7.491484880447387695e-01
-9.337845444679260254e-01,-2.288540452718734741e-01,-8.375542759895324707e-01,4.321827292442321777e-01,-5.676553249359130859e-01,5.494600534439086914e-01,-3.030906319618225098e-01,-8.263357877731323242e-01,-5.449507236480712891e-01,-4.001438021659851074e-01
2.762410230934619904e-02,-1.087608337402343750e+00,-5.006234645843505859e-01,-2.652103900909423828e-01,-1.245471954345703125e+00,1.520196325145661831e-03,-1.430091261863708496e+00,3.237054944038391113e-01,-1.338997930288314819e-01,4.744372889399528503e-02
-6.545495986938476562e-01,-7.765448689460754395e-01,3.891376554965972900e-01,-5.407846570014953613e-01,2.355065383017063141e-02,-2.277406752109527588e-01,3.020933568477630615e-01,-4.676432013511657715e-01,-3.506752848625183105e-01,-1.410979390144348145e+00
-1.097940504550933838e-01,-6.607587933540344238e-01,-7.665709853172302246e-01,-9.206144511699676514e-02,-2.683371305465698242e-01,-6.309384107589721680e-01,-3.477370738983154297e-01,-4.601958394050598145e-01,-7.741752266883850098e-02,-2.394332587718963623e-01
-6.572560071945190430e-01,-9.997636824846267700e-02,-5.182145833969116211e-01,-5.135968327522277832e-01,4.256392419338226318e-01,1.245076134800910950e-01,-5.674316883087158203e-01,-4.086010158061981201e-02,4.151889085769653320e-01,-8.092736601829528809e-01
-7.734049558639526367e-01,3.211098015308380127e-01,-7.597987651824951172e-01,-1.488206624984741211e+00,4.924165457487106323e-02,-3.162171840667724609e-01,2.467531710863113403e-01,2.369216382503509521e-01,-6.323288679122924805e-01,-6.455312669277191162e-02
3.102551400661468506e-01,-4.905865192413330078e-01,6.761463284492492676e-01,-4.403984546661376953e-01,-1.169292330741882324e+00,-3.800003230571746826e-01,-7.514770030975341797e-01,2.972265146672725677e-02,-4.457830488681793213e-01,2.383526116609573364e-01
-9.549593329429626465e-01,-1.184388846158981323e-01,-7.369221448898315430e-01,-1.053669452667236328e+00,-6.409925818443298340e-01,3.652834296226501465e-01,2.363315671682357788e-01,-2.701240777969360352e-01,-2.396757900714874268e-01,1.690584979951381683e-02
-1.049193441867828369e-01,1.935048401355743408e-01,-6.855033040046691895e-01,-1.040559411048889160e+00,-9.465516805648803711e-01,2.833803296089172363e-01,-6.701985001564025879e-01,2.908852398395538330e-01,-5.033476352691650391e-01,5.719972774386405945e-02
-4.640200175344944000e-03,1.151972562074661255e-01,1.212828420102596283e-02,1.344093978404998779e-01,1.428728103637695312e-01,5.955829098820686340e-02,-1.550182700157165527e-01,-7.799465954303741455e-02,6.314000487327575684e-02,-1.443964391946792603e-01
3.984659314155578613e-01,-8.746200799942016602e-01,-1.231295764446258545e-01,-5.164197683334350586e-01,-5.789582133293151855e-01,-1.963878422975540161e-01,1.202132254838943481e-01,-4.167490005493164062e-01,-5.597174167633056641e-01,-7.940185070037841797e-01
1.023661345243453979e-01,2.326136082410812378e-02,1.090170741081237793e-01,-1.003893733024597168e+00,-7.128856778144836426e-01,-4.486701190471649170e-01,-1.154366731643676758e-01,-8.211188912391662598e-01,1.053066477179527283e-01,-5.734188556671142578e-01
-5.956669449806213379e-01,-6.829245686531066895e-01,-2.362289726734161377e-01,-3.581579029560089111e-01,4.680188894271850586e-01,-3.441517353057861328e-01,-5.312690734863281250e-01,8.281696587800979614e-02,-1.231548190116882324e+00,3.428542017936706543e-01
-9.457826614379882812e-03,-6.946291923522949219e-01,-2.519795596599578857e-01,-2.726859450340270996e-01,-4.469393938779830933e-02,-3.996355831623077393e-01,-1.554449349641799927e-01,-9.486891031265258789e-01,-1.098032593727111816e-01,-1.197726875543594360e-01
-3.137624561786651611e-01,-2.413362860679626465e-01,-3.603996634483337402e-01,4.373373687267303467e-01,-8.649223446846008301e-01,-3.884437680244445801e-02,-2.923144996166229248e-01,-7.339711189270019531e-01,-3.253117203712463379e-01,-2.266825288534164429e-01
-1.028181195259094238e+00,-6.022676229476928711e-01,-5.747053027153015137e-01,-1.315492838621139526e-01,2.760937511920928955e-01,3.316025733947753906e-01,-8.608003258705139160e-01,-5.106106400489807129e-01,-1.284987449645996094e+00,2.767671942710876465e-01
7.036203891038894653e-02,-4.416708350181579590e-01,-3.216114640235900879e-02,-3.042489588260650635e-01,-3.756015002727508545e-01,-5.358553491532802582e-03,-4.230568930506706238e-02,-1.074235200881958008e+00,3.985731862485408783e-03,-7.489226460456848145e-01
4.214462637901306152e-02,-8.429844379425048828e-01,1.528323888778686523e-01,-9.886165708303451538e-02,-1.058824539184570312e+00,-8.545917272567749023e-01,-8.069887757301330566e-01,-3.809929788112640381e-01,1.886420696973800659e-02,5.269505456089973450e-02
-5.425701737403869629e-01,-9.495652467012405396e-02,-2.436303645372390747e-01,-5.132096409797668457e-01,5.202043429017066956e-02,-1.973562389612197876e-01,4.410062730312347412e-02,-9.082879424095153809e-01,3.410418927669525146e-01,-2.755784802138805389e-02
-2.845091931521892548e-02,5.491859093308448792e-02,-1.387224793434143066e-01,-1.718248873949050903e-01,-6.024941429495811462e-02,-1.110608726739883423e-01,-2.986386418342590332e-03,2.732788212597370148e-02,1.426143199205398560e-01,9.978552907705307007e-02
-4.805725812911987305e-01,-4.200822412967681885e-01,1.350333988666534424e-01,-9.068261384963989258e-01,-8.447988331317901611e-02,-1.098429322242736816e+00,5.196772813796997070e-01,1.421899646520614624e-01,-7.298243641853332520e-01,5.498418584465980530e-02
6.900607049465179443e-02,-1.633221954107284546e-01,-5.412803590297698975e-02,-7.454216480255126953e-01,-4.905942380428314209e-01,-7.965057492256164551e-01,-5.489292740821838379e-01,-4.864894747734069824e-01,8.299950510263442993e-02,2.281791269779205322e-01
-6.116799712181091309e-01,-3.619138300418853760e-01,-1.374395012855529785e+00,3.551374673843383789e-01,-6.254829764366149902e-01,4.916621744632720947e-01,-6.138326525688171387e-01,-7.847338318824768066e-01,-3.043731674551963806e-02,3.399736285209655762e-01
-8.735905885696411133e-01,-6.898391842842102051e-01,-7.908947467803955078e-01,-1.030481234192848206e-02,-5.611668899655342102e-02,-5.294956266880035400e-02,-1.013776183128356934e+00,-8.525148630142211914e-01,2.098973691463470459e-01,-2.774552814662456512e-02
-2.194819599390029907e-01,-9.668052196502685547e-01,-4.943222999572753906e-01,-2.094937115907669067e-01,-3.236133158206939697e-01,8.382527828216552734e-01,4.489491879940032959e-01,-4.379582107067108154e-01,-6.955412030220031738e-01,-2.023757100105285645e-01
-7.265074849128723145e-01,-5.535211563110351562e-01,-4.659793078899383545e-01,-8.775863647460937500e-01,-1.563512086868286133e+00,9.663011431694030762e-01,-3.272744417190551758e-01,4.507754147052764893e-01,-4.107655584812164307e-01,-4.142474830150604248e-01
2.013453394174575806e-01,-2.239531129598617554e-01,7.057575583457946777e-01,-7.768384218215942383e-01,-4.513616859912872314e-01,-4.710247814655303955e-01,-4.073719680309295654e-01,-4.226848110556602478e-02,-3.150920569896697998e-01,-1.623461395502090454e-01
-3.707947432994842529e-01,3.965985476970672607e-01,-4.093123078346252441e-01,-1.748864650726318359e-01,3.354256153106689453e-01,-9.104930758476257324e-01,-6.203147768974304199e-01,-7.012226581573486328e-01,-5.146545916795730591e-02,-1.219965696334838867e+00
-4.736991524696350098e-01,-4.540344476699829102e-01,-8.071666359901428223e-01,-7.049207687377929688e-01,-1.326823353767395020e+00,8.532112240791320801e-01,-3.395988047122955322e-01,1.676557511091232300e-01,-1.283354908227920532e-01,-8.450611680746078491e-02
-6.010247468948364258e-01,1.674655228853225708e-01,3.605451583862304688e-01,5.551701188087463379e-01,-3.345628380775451660e-01,-9.466760158538818359e-01,-4.720670580863952637e-01,-1.082098111510276794e-01,-8.259180784225463867e-01,-4.777062237262725830e-01
1.482445299625396729e-01,-1.949558556079864502e-01,-3.211359977722167969e-01,8.172171562910079956e-02,-7.265053987503051758e-01,1.678959876298904419e-01,-4.851755797863006592e-01,-8.809749484062194824e-01,-1.379590034484863281e+00,6.667559593915939331e-02
-3.381339609622955322e-01,-1.284916102886199951e-01,2.174348235130310059e-01,-7.661082148551940918e-01,5.997255071997642517e-02,-1.110426187515258789e+00,-9.553897976875305176e-01,-1.638873815536499023e-01,-4.083673954010009766e-01,1.944552958011627197e-01
-3.899097740650177002e-01,5.089087486267089844e-01,-1.099541544914245605e+00,-5.119711160659790039e-01,-9.006207436323165894e-02,-2.848072350025177002e-01,3.384447693824768066e-01,-5.380949378013610840e-01,-9.557808041572570801e-01,-1.156676888465881348e+00
-5.775790214538574219e-01,4.915962368249893188e-02,-1.418599486351013184e-01,-4.259533882141113281e-01,1.617392301559448242e-01,-3.394562005996704102e-01,-5.368949174880981445e-01,-3.953698873519897461e-01,3.608692884445190430e-01,-1.484157919883728027e+00
-7.025693356990814209e-02,3.619137033820152283e-02,-2.115319110453128815e-02,-7.686297893524169922e-01,2.730472385883331299e-01,-4.815809428691864014e-01,-8.269355893135070801e-01,-3.507235944271087646e-01,-4.023346304893493652e-01,4.804497063159942627e-01
-5.435790419578552246e-01,1.503342837095260620e-01,-9.332340359687805176e-01,-9.444243907928466797e-01,-3.255257010459899902e-01,-6.488402485847473145e-01,1.769284904003143311e-01,2.865616083145141602e-01,-1.104599356651306152e+00,5.596179366111755371e-01
-1.321925967931747437e-01,-1.081844925880432129e+00,1.613587737083435059e-01,-6.716040521860122681e-02,-6.433076858520507812e-01,-5.389088392257690430e-01,-1.372711807489395142e-01,-7.659628391265869141e-01,9.907890856266021729e-02,1.759461611509323120e-01
-9.145193696022033691e-01,-1.046936511993408203e-01,3.900125622749328613e-01,4.626229405403137207e-02,-6.828747391700744629e-01,-3.903915882110595703e-01,-7.520445585250854492e-01,3.215021193027496338e-01,-2.426878660917282104e-01,-1.561372280120849609e+00
-3.258263468742370605e-01,-3.315139412879943848e-01,2.770555913448333740e-01,-9.864848852157592773e-01,2.863391637802124023e-01,-8.532707095146179199e-01,-2.856405675411224365e-01,-6.548745036125183105e-01,-9.951778650283813477e-01,-2.472715266048908234e-02
-2.493664771318435669e-01,-9.179555177688598633e-01,-9.402832016348838806e-03,-4.878507554531097412e-01,-1.237322986125946045e-01,-1.817046701908111572e-01,1.289142817258834839e-01,-1.211884975433349609e+00,2.144309878349304199e-01,-3.104447722434997559e-01
-1.929031312465667725e-01,-2.618080675601959229e-01,7.160601615905761719e-01,-1.339651644229888916e-01,-3.973318934440612793e-01,3.230095207691192627e-01,-2.890260517597198486e-01,-2.280893772840499878e-01,-9.672641009092330933e-02,-7.920074462890625000e-01
1.140671819448471069e-01,-1.075010895729064941e-01,4.504851996898651123e-02,-4.408638179302215576e-02,2.559688501060009003e-02,-1.167008802294731140e-01,-7.181164808571338654e-03,-2.289171069860458374e-01,1.031198799610137939e-01,6.004342809319496155e-02
-2.377086132764816284e-01,-3.445613682270050049e-01,-9.264575242996215820e-01,-3.127482831478118896e-01,1.082820966839790344e-01,-2.991880476474761963e-01,-9.011839032173156738e-01,8.521988242864608765e-02,-4.682795703411102295e-02,1.720420271158218384e-01
-1.629148721694946289e-01,1.006644368171691895e-01,1.938743442296981812e-01,1.229168847203254700e-01,-7.121773064136505127e-02,-8.993340730667114258e-01,-2.964225411415100098e-01,-4.592408239841461182e-01,-1.636277735233306885e-01,-1.125542640686035156e+00
-1.838581264019012451e-01,-8.411976695060729980e-01,-1.144681096076965332e+00,-1.087537288665771484e+00,-7.635055482387542725e-02,8.761232346296310425e-02,1.082820668816566467e-01,-9.002351164817810059e-01,-1.451593637466430664e-01,9.020568430423736572e-02
-1.223565544933080673e-02,-8.426463007926940918e-01,-1.997270286083221436e-01,-1.239662289619445801e+00,3.474255204200744629e-01,8.900323510169982910e-02,1.453982442617416382e-01,-7.536507248878479004e-01,-7.203393429517745972e-02,-5.846678614616394043e-01
-6.590360999107360840e-01,9.311331808567047119e-02,4.326623678207397461e-01,-5.391517281532287598e-01,-4.095374606549739838e-04,-4.560975134372711182e-01,-7.277275323867797852e-01,-1.011986732482910156e+00,-2.674385607242584229e-01,-1.274800896644592285e+00
7.969222962856292725e-02,-5.320207476615905762e-01,-3.884424865245819092e-01,-2.616828083992004395e-01,-1.326477169990539551e+00,-4.580024257302284241e-02,-1.419609934091567993e-01,-4.032953679561614990e-01,3.840006189420819283e-03,-1.292829513549804688e-01
-3.788942098617553711e-01,3.149031102657318115e-02,-5.229840278625488281e-01,7.022588253021240234e-01,-3.774236440658569336e-01,-4.742744565010070801e-01,-3.313085734844207764e-01,-5.933343768119812012e-01,-7.054961919784545898e-01,5.585173368453979492e-01
-5.541934967041015625e-01,2.158699333667755127e-01,3.591132462024688721e-01,-1.686852425336837769e-01,-1.368149995803833008e+00,-2.476678341627120972e-01,-5.087503790855407715e-01,5.223355293273925781e-01,-9.874340295791625977e-01,-6.500128507614135742e-01
-1.913931965827941895e-01,9.113632440567016602e-01,1.558144986629486084e-01,-1.310676932334899902e+00,-2.940491139888763428e-01,-6.333423256874084473e-01,1.605793684720993042e-01,-4.876779615879058838e-01,-1.298337429761886597e-01,-5.881952643394470215e-01
1.694465428590774536e-01,-7.546600699424743652e-01,-6.941524147987365723e-02,1.998698338866233826e-02,-7.468075752258300781e-01,2.035243511199951172e-01,-7.640780210494995117e-01,-9.136103391647338867e-01,1.566798388957977295e-01,-3.582525551319122314e-01
-5.432842969894409180e-01,4.441441893577575684e-01,-6.585444211959838867e-01,2.001297175884246826e-01,9.423594474792480469e-01,-9.632210135459899902e-01,-2.888259887695312500e-01,-1.016109213232994080e-01,-4.626743197441101074e-01,-9.372939467430114746e-01
-2.951639592647552490e-01,4.889557957649230957e-01,-1.632658839225769043e-01,-9.873217344284057617e-01,4.806546270847320557e-01,-3.561289012432098389e-01,-1.340270340442657471e-01,-2.712970785796642303e-02,-9.503437280654907227e-01,-6.714171171188354492e-01
-2.306172251701354980e-01,-1.610172688961029053e-01,1.078605875372886658e-01,-8.396600484848022461e-01,4.591010510921478271e-01,-1.226861834526062012e+00,-2.303997129201889038e-01,1.530245691537857056e-01,-6.010484695434570312e-01,-1.052017882466316223e-01
-4.301578924059867859e-02,-3.990195691585540771e-01,-2.888747453689575195e-01,4.890299439430236816e-01,-4.754797518253326416e-01,-2.133979350328445435e-01,-3.294264376163482666e-01,-5.481337308883666992e-01,-5.000513792037963867e-01,5.614297389984130859e-01
1.340585350990295410e-01,-7.216668128967285156e-01,-5.345671772956848145e-01,2.689477503299713135e-01,-7.671777009963989258e-01,2.693168222904205322e-01,-3.600624799728393555e-01,-1.183719277381896973e+00,1.712277680635452271e-01,-1.928941309452056885e-01
-2.006644010543823242e-02,7.330065220594406128e-02,-9.350381442345678806e-04,-1.281924992799758911e-01,-1.420216411352157593e-01,-1.213272884488105774e-01,5.546815320849418640e-02,-1.028342470526695251e-01,-7.391949743032455444e-02,-3.698088973760604858e-02
3.701702654361724854e-01,-7.561205625534057617e-01,-3.336366415023803711e-01,-2.156086117029190063e-01,-1.148968815803527832e+00,-6.558776497840881348e-01,-4.166365265846252441e-01,-7.009872049093246460e-02,7.807392627000808716e-02,2.525552809238433838e-01
-2.647877931594848633e-01,-2.267069667577743530e-01,-1.170535534620285034e-01,5.436705350875854492e-01,-5.961067676544189453e-01,-8.158624172210693359e-01,5.002974271774291992e-01,-3.331398963928222656e-02,-4.722713828086853027e-01,-7.755562663078308105e-01
-1.790309548377990723e-01,-5.807185769081115723e-01,-4.170466661453247070e-01,-5.321656465530395508e-01,-5.510125756263732910e-01,1.777132302522659302e-01,4.456580616533756256e-03,-8.876398205757141113e-01,3.879816830158233643e-01,-7.051378954201936722e-03
6.091253757476806641e-01,-8.467730879783630371e-01,-5.408608913421630859e-01,-8.401788473129272461e-01,-1.046281218528747559e+00,-4.217684566974639893e-01,9.742203354835510254e-02,-4.099950790405273438e-01,-5.508307218551635742e-01,2.416970282793045044e-01
-4.374946057796478271e-01,-1.118825554847717285e+00,-1.223181635141372681e-01,1.129031851887702942e-01,-1.316598773002624512e+00,1.833065599203109741e-02,5.560324192047119141e-01,-1.411949843168258667e-01,-4.136356413364410400e-01,-1.237168312072753906e+00
-3.366301655769348145e-01,-1.019924044609069824e+00,-2.984708547592163086e-01,-7.959977388381958008e-01,4.744381308555603027e-01,-3.893761038780212402e-01,-2.125100940465927124e-01,-1.408257007598876953e+00,-2.030328065156936646e-01,-9.954793751239776611e-02
-3.570094704627990723e-01,-2.107270509004592896e-01,-7.447057366371154785e-01,-1.400498986244201660e+00,3.895906805992126465e-01,1.563792824745178223e-01,-2.604607343673706055e-01,1.180005967617034912e-01,-3.471225202083587646e-01,-2.874957323074340820e-01
-5.013928413391113281e-01,-3.320995569229125977e-01,-2.475176006555557251e-01,-4.957771599292755127e-01,-3.411780297756195068e-01,9.783191084861755371e-01,-2.161847501993179321e-01,-2.306806296110153198e-01,-7.251924872398376465e-01,3.263910710811614990e-01
-7.737808227539062500e-01,-4.979713559150695801e-01,-7.647458314895629883e-01,-3.840100765228271484e-01,7.027969509363174438e-02,3.934360295534133911e-02,-8.107305169105529785e-01,-4.289150536060333252e-01,2.510191798210144043e-01,9.402105957269668579e-02
9.497277438640594482e-02,-3.515954017639160156e-01,5.160964727401733398e-01,-8.573153018951416016e-01,-5.141456723213195801e-01,-3.736629486083984375e-01,6.560392975807189941e-01,-7.939103841781616211e-01,-1.642351299524307251e-01,-3.526657521724700928e-01
-4.628163874149322510e-01,1.527032116428017616e-03,-5.377528071403503418e-01,-1.171194434165954590e+00,-1.415676902979612350e-02,2.890182137489318848e-01,6.371843162924051285e-03,-1.039786338806152344e+00,-1.504932492971420288e-01,-1.638262718915939331e-01
-6.751140952110290527e-01,-4.161003232002258301e-01,5.272086858749389648e-01,5.735448002815246582e-01,4.240081459283828735e-02,-1.788400411605834961e-01,-7.509636282920837402e-01,3.586128056049346924e-01,-6.952344775199890137e-01,-3.860758543014526367e-01
-7.466750741004943848e-01,-9.204044342041015625e-01,2.174357771873474121e-01,-4.915383160114288330e-01,-9.545257091522216797e-01,3.680702745914459229e-01,3.014475405216217041e-01,-6.961386650800704956e-02,1.393583863973617554e-01,1.587110944092273712e-02
-2.212218642234802246e-01,6.756370663642883301e-01,-7.162253856658935547e-01,-1.910190284252166748e-01,1.297797709703445435e-01,-1.747987270355224609e-01,-5.153446197509765625e-01,-5.959039330482482910e-01,-6.178082227706909180e-01,5.573394894599914551e-01
8.899386227130889893e-02,-5.012226104736328125e-01,2.716247439384460449e-01,2.208055406808853149e-01,-1.223963618278503418e+00,-8.933965563774108887e-01,3.901253938674926758e-01,-9.028480052947998047e-01,-2.183740139007568359e-01,-6.538613233715295792e-03
-3.204172849655151367e-01,-6.366789340972900391e-01,-9.857808351516723633e-01,1.505362987518310547e-01,1.661982736550271511e-03,5.381840094923973083e-02,-5.617455840110778809e-01,-1.016624450683593750e+00,-9.570869058370590210e-02,2.789528965950012207e-01
-5.269812420010566711e-02,-2.866415083408355713e-01,6.277734041213989258e-01,-1.445588469505310059e-01,-1.549271643161773682e-01,-1.285900082439184189e-02,-2.193874865770339966e-01,-2.999232411384582520e-01,-1.682296514511108398e+00,-5.695981532335281372e-02
-6.090419292449951172e-01,-2.755397558212280273e-02,-5.892789363861083984e-01,-1.514132261276245117e+00,1.047419682145118713e-01,-1.246546879410743713e-01,2.592858076095581055e-01,-4.489400088787078857e-01,3.413823619484901428e-02,-6.749254465103149414e-01
-4.181129932403564453e-01,-5.180984139442443848e-01,1.407524347305297852e-01,1.454451233148574829e-01,-2.520039081573486328e-01,-6.651224493980407715e-01,-9.132540225982666016e-02,-1.140769839286804199e+00,-4.337325692176818848e-01,3.502804636955261230e-01
-5.612913370132446289e-01,-3.398015201091766357e-01,-3.950899243354797363e-01,-4.525306820869445801e-01,-1.497018784284591675e-01,-8.919990658760070801e-01,6.480407714843750000e-01,4.451421499252319336e-01,-7.814602851867675781e-01,-5.046565830707550049e-02
-8.127877861261367798e-02,-7.345088124275207520e-01,-1.764657497406005859e-01,2.781627178192138672e-01,-9.697901606559753418e-01,1.610775291919708252e-01,-8.078951835632324219e-01,2.709124386310577393e-01,-1.131438016891479492e+00,-2.027505189180374146e-01
-1.249316260218620300e-01,9.183679521083831787e-02,-9.971756935119628906e-01,8.090552687644958496e-01,-1.954299509525299072e-01,-6.452160477638244629e-01,5.449545569717884064e-03,3.081797361373901367e-01,-1.082482099533081055e+00,-1.110379457473754883e+00
-4.396587312221527100e-01,-4.548873603343963623e-01,-4.754855930805206299e-01,-7.718116044998168945e-01,-1.275105118751525879e+00,1.829602420330047607e-01,-1.183016970753669739e-01,3.310107290744781494e-01,1.489110887050628662e-01,-4.192930180579423904e-03
-2.982619106769561768e-01,-4.693021476268768311e-01,-6.286854743957519531e-01,5.804130434989929199e-02,-8.240042328834533691e-01,-4.565996229648590088e-01,-3.171710064634680748e-03,3.240166008472442627e-01,-5.238791704177856445e-01,3.543948531150817871e-01
-7.062980532646179199e-01,1.968800574541091919e-01,-7.980338335037231445e-01,-1.325518369674682617e+00,-1.295934468507766724e-01,7.535392045974731445e-02,-6.170142292976379395e-01,-1.681575737893581390e-02,6.702230125665664673e-02,-4.406874179840087891e-01
-4.038376361131668091e-02,6.229827404022216797e-01,6.432091593742370605e-01,-8.109036684036254883e-01,-3.669052720069885254e-01,-6.194635629653930664e-01,9.633785486221313477e-02,-6.081424951553344727e-01,-1.109971404075622559e+00,-3.065260648727416992e-01
-1.596565842628479004e-01,1.042951047420501709e-01,-6.062021851539611816e-01,-6.560406684875488281e-01,8.765522390604019165e-02,-4.339543581008911133e-01,-8.390081524848937988e-01,-3.261815011501312256e-01,-1.220735669136047363e+00,7.630383968353271484e-01
9.487449377775192261e-02,-2.035788893699645996e-01,-8.000360727310180664e-01,-1.087509393692016602e+00,-2.896759212017059326e-01,1.457641273736953735e-01,-4.948496222496032715e-01,-7.245607674121856689e-02,1.976881474256515503e-01,-5.383333563804626465e-01
-4.686095416545867920e-01,-1.015256524085998535e+00,-1.364267338067293167e-02,1.930087804794311523e-02,-7.595320343971252441e-01,-1.036082282662391663e-01,-1.015094876289367676e+00,-4.602882564067840576e-01,2.706646025180816650e-01,-1.178499683737754822e-02
-3.299122750759124756e-01,-1.147361174225807190e-01,-2.604118585586547852e-01,-8.093753457069396973e-02,3.328323364257812500e-01,-8.227951824665069580e-02,6.396818161010742188e-02,7.478421926498413086e-01,3.642540425062179565e-03,-7.217448353767395020e-01
-2.767467796802520752e-01,-4.808324947953224182e-02,-3.210036754608154297e-01,-4.678712189197540283e-01,-4.988977313041687012e-01,-5.004084110260009766e-01,-2.499929219484329224e-01,3.856693208217620850e-01,-4.738850295543670654e-01,-6.901934742927551270e-03
-3.190935254096984863e-01,2.334922999143600464e-01,-5.948749780654907227e-01,-1.010148763656616211e+00,3.340722024440765381e-01,2.690404057502746582e-01,-4.125842452049255371e-01,2.687137424945831299e-01,-6.729569435119628906e-01,4.253741819411516190e-03
-2.766665257513523102e-02,-3.687765598297119141e-01,2.968997657299041748e-01,1.495573110878467560e-02,-5.503942370414733887e-01,-8.193439841270446777e-01,-3.630458116531372070e-01,-4.606638848781585693e-01,1.024423390626907349e-01,-4.683715105056762695e-01
2.356739491224288940e-01,9.643566012382507324e-01,-1.379746437072753906e+00,-5.722491741180419922e-01,-2.447889447212219238e-01,-2.837689518928527832e-01,3.361613154411315918e-01,5.329044070094823837e-04,-5.162425637245178223e-01,-4.351748824119567871e-01
5.538815855979919434e-01,-2.072632014751434326e-01,1.627785861492156982e-01,-5.287247300148010254e-01,-6.325701475143432617e-01,-1.429706066846847534e-01,3.153173923492431641e-01,-9.794691801071166992e-01,-8.228543400764465332e-01,-3.705652952194213867e-01
8.763293176889419556e-02,-2.613541483879089355e-01,2.718639373779296875e-01,-3.517321646213531494e-01,-5.328237414360046387e-01,-8.171486258506774902e-01,-8.537422120571136475e-02,2.660803794860839844e-01,-5.483725070953369141e-01,-1.361660361289978027e+00
-7.622407078742980957e-01,-6.292480230331420898e-01,-8.337547183036804199e-01,1.426536887884140015e-01,1.687849014997482300e-01,2.604811787605285645e-01,-1.185255765914916992e+00,-7.554197218269109726e-03,-6.989653706550598145e-01,-2.051555365324020386e-02
-2.969118952751159668e-01,-3.965437412261962891e-01,3.620946779847145081e-02,-1.231154680252075195e+00,1.130922883749008179e-01,3.845990598201751709e-01,-2.027558237314224243e-01,-1.433528512716293335e-01,-7.083066701889038086e-01,-7.363507747650146484e-01
-1.542302966117858887e-01,-1.302896346896886826e-02,-5.851376652717590332e-01,-6.254731416702270508e-01,7.289036512374877930e-01,-3.661635518074035645e-01,2.976490855216979980e-01,-2.846015095710754395e-01,-4.922422766685485840e-01,-1.260404586791992188e+00
-2.315105199813842773e-01,-6.102953553199768066e-01,1.725105643272399902e-01,-2.154379151761531830e-02,3.513884842395782471e-01,-4.176569581031799316e-01,-2.150086313486099243e-01,-1.059764862060546875e+00,-1.080090761184692383e+00,-7.707983851432800293e-01
-9.658408164978027344e-01,3.903736770153045654e-01,-1.518928259611129761e-01,-1.612309217453002930e-01,-2.819038629531860352e-01,4.220097064971923828e-01,-9.344836473464965820e-01,-2.610047906637191772e-02,-1.105397224426269531e+00,1.340017616748809814e-01
-2.193621546030044556e-01,6.815893203020095825e-02,4.266999661922454834e-01,-2.460948824882507324e-01,-2.976204454898834229e-01,1.188609153032302856e-01,-5.599310398101806641e-01,-8.084096312522888184e-01,-3.013111352920532227e-01,5.135611295700073242e-01
-4.912830889225006104e-01,-1.744926422834396362e-01,-2.528158128261566162e-01,8.467762172222137451e-02,-1.226424217224121094e+00,-5.804667621850967407e-02,-1.074244022369384766e+00,-3.904369100928306580e-02,-2.482927739620208740e-01,-3.645671308040618896e-01
2.073402106761932373e-01,-4.311575889587402344e-01,-1.438705563545227051e+00,-1.602620333433151245e-01,-3.822259604930877686e-01,-4.523515403270721436e-01,-1.340297758579254150e-01,-4.007652401924133301e-01,-8.438685536384582520e-01,1.100295707583427429e-01
-4.716387093067169189e-01,-8.365130424499511719e-02,-1.397923707962036133e+00,1.204905137419700623e-01,-5.321526527404785156e-01,-7.671575248241424561e-02,-1.868490874767303467e-01,-5.468568801879882812e-01,4.928160309791564941e-01,-1.651015579700469971e-01
2.539294362068176270e-01,-4.163978993892669678e-01,-1.056410193443298340e+00,1.930378228425979614e-01,4.882222414016723633e-02,-6.443073153495788574e-01,2.925627231597900391e-01,-8.222226053476333618e-02,-5.362995266914367676e-01,-1.098696947097778320e+00
-1.328521370887756348e-01,-1.498355120420455933e-01,-1.421020150184631348e+00,-5.539247989654541016e-01,-1.442022919654846191e-01,1.943869888782501221e-01,-2.732991278171539307e-01,-1.000560283660888672e+00,-3.246384561061859131e-01,2.467326670885086060e-01
-8.548648357391357422e-01,-5.633954405784606934e-01,7.530138492584228516e-01,3.150826394557952881e-01,-8.645021915435791016e-01,4.664251580834388733e-02,-8.794394731521606445e-01,7.604098320007324219e-01,-7.160373330116271973e-01,-1.323178768157958984e+00
-6.089526787400245667e-02,4.950792491436004639e-01,-5.491794943809509277e-01,-1.251237869262695312e+00,-2.493078820407390594e-02,-2.457954138517379761e-01,-2.834675908088684082e-01,-4.654874503612518311e-01,-7.283119559288024902e-01,-1.432413607835769653e-01
-5.034813880920410156e-01,5.988799333572387695e-01,-3.459051251411437988e-02,-3.902917206287384033e-01,-5.649704337120056152e-01,-1.274128407239913940e-01,-3.124574720859527588e-01,5.474734306335449219e-01,-4.248202145099639893e-01,-2.348495125770568848e-01
-3.480236232280731201e-01,-3.836231306195259094e-02,-5.287389159202575684e-01,8.281786739826202393e-02,-5.866608619689941406e-01,-3.739022016525268555e-01,-4.036063849925994873e-01,-6.394491195678710938e-01,-6.434591412544250488e-01,5.540670752525329590e-01
-7.139274477958679199e-01,-1.071708440780639648e+00,-6.328837871551513672e-01,5.911540389060974121e-01,-2.198757231235504150e-01,3.013352453708648682e-01,-8.416037559509277344e-01,-3.693732023239135742e-01,-1.264031529426574707e+00,5.032874941825866699e-01
-7.885271310806274414e-01,-5.271979793906211853e-02,1.162259280681610107e-01,-8.072162866592407227e-01,-3.544229567050933838e-01,-8.165989518165588379e-01,1.159929260611534119e-01,-9.073905646800994873e-02,2.121312078088521957e-03,-8.088130950927734375e-01
3.718243166804313660e-02,1.545025706291198730e-01,4.127881489694118500e-03,-5.592715144157409668e-01,9.203953146934509277e-01,2.283811867237091064e-01,-4.294891655445098877e-01,-2.106046229600906372e-01,-1.309964060783386230e-01,-1.542721986770629883e+00
-1.093887448310852051e+00,-2.474564611911773682e-01,-2.128725200891494751e-01,-4.436180293560028076e-01,3.120689094066619873e-01,5.659914016723632812e-02,-1.057628512382507324e+00,-3.331329226493835449e-01,2.215337455272674561e-01,-3.773675858974456787e-02
-6.396239250898361206e-02,-8.220161795616149902e-01,-1.080435961484909058e-01,-7.438920736312866211e-01,3.351797759532928467e-01,-3.214153647422790527e-01,2.365104407072067261e-01,-5.004937052726745605e-01,-3.902343213558197021e-01,-8.094792366027832031e-01
6.613324396312236786e-03,9.782618880271911621e-01,-4.799387156963348389e-01,-8.852429986000061035e-01,7.093932032585144043e-01,-3.948715627193450928e-01,3.066957741975784302e-02,-8.337296247482299805e-01,-6.404302716255187988e-01,-1.368928670883178711e+00
-1.718678623437881470e-01,-6.364199519157409668e-01,-7.260793820023536682e-03,3.562491238117218018e-01,-8.978694677352905273e-01,-7.814660072326660156e-01,-9.639570713043212891e-01,4.653939604759216309e-01,-8.916304111480712891e-01,-9.506212472915649414e-01
3.596844971179962158e-01,-3.111322820186614990e-01,-4.991945028305053711e-01,-6.139571070671081543e-01,-2.589348554611206055e-01,-9.841146469116210938e-01,-3.183838129043579102e-01,-4.466944634914398193e-01,1.778778284788131714e-01,5.677140504121780396e-02
-1.338784843683242798e-01,-8.316842317581176758e-01,-5.979760289192199707e-01,1.850932277739048004e-02,-8.977194428443908691e-01,3.779629468917846680e-01,-1.702077835798263550e-01,3.187603652477264404e-01,-2.512349374592304230e-02,-8.229266405105590820e-01
6.804042309522628784e-02,-2.791258096694946289e-01,-1.341127514839172363e+00,-9.231259226799011230e-01,8.405761420726776123e-02,3.765979781746864319e-02,2.310646921396255493e-01,-1.597025990486145020e-01,-8.853369355201721191e-01,-6.899105310440063477e-01
-4.718839526176452637e-01,-6.389366835355758667e-02,-7.482426166534423828e-01,-8.450365662574768066e-01,4.537759423255920410e-01,-7.410860061645507812e-01,-4.831813648343086243e-02,1.070317476987838745e-01,-1.195255517959594727e+00,5.488069653511047363e-01
-3.875814080238342285e-01,5.446349978446960449e-01,-2.629735274240374565e-03,-1.105199933052062988e+00,-2.051930725574493408e-01,-3.014164865016937256e-01,-6.863853335380554199e-01,2.697663009166717529e-01,-3.635617196559906006e-01,-2.963771820068359375e-01
-2.424428910017013550e-01,-5.269955396652221680e-01,-1.367847919464111328e+00,-3.833415508270263672e-01,-1.298943310976028442e-01,-1.538140177726745605e-01,-4.802835583686828613e-01,-4.234899580478668213e-02,6.147268693894147873e-03,8.549246191978454590e-02
-6.926591992378234863e-01,-1.758810132741928101e-01,-9.136334657669067383e-01,1.667663902044296265e-01,-3.974767029285430908e-02,-2.568135559558868408e-01,-9.284210205078125000e-01,-4.346280694007873535e-01,7.692615687847137451e-02,-5.308000370860099792e-02
-3.809224665164947510e-01,-1.129588559269905090e-01,-1.118279933929443359e+00,-5.631272792816162109e-01,7.063399069011211395e-03,4.765263795852661133e-01,4.834496676921844482e-01,3.201017081737518311e-01,-9.433363080024719238e-01,-1.156708478927612305e+00
-8.210960030555725098e-02,-7.351133823394775391e-01,-1.242787204682826996e-02,1.558814346790313721e-01,-9.385557770729064941e-01,3.208904266357421875e-01,-1.277409791946411133e+00,-5.029404163360595703e-01,-2.593391835689544678e-01,-2.810149788856506348e-01
-5.066689252853393555e-01,-6.257994174957275391e-01,-4.921246469020843506e-01,7.292796969413757324e-01,-2.449264973402023315e-01,-9.372086524963378906e-01,4.461801052093505859e-01,3.714341223239898682e-01,7.786579430103302002e-02,-3.007813394069671631e-01
-4.322750866413116455e-01,-2.672403454780578613e-01,-6.799959540367126465e-01,-1.508919335901737213e-02,2.689231336116790771e-01,-4.218789637088775635e-01,-1.343165803700685501e-02,-8.937557339668273926e-01,-2.609430253505706787e-01,1.840448528528213501e-01
-1.591863334178924561e-01,-2.419282048940658569e-01,-3.001852333545684814e-01,-2.687841281294822693e-02,3.712454810738563538e-02,-1.347549408674240112e-01,6.772575974464416504e-01,-1.896065771579742432e-01,-2.374768406152725220e-01,-8.500124216079711914e-01
-9.519194364547729492e-01,-2.793436124920845032e-02,-2.316090464591979980e-01,-1.423536539077758789e-01,-2.066991478204727173e-01,-3.483144342899322510e-01,-1.022292375564575195e+00,-6.934227943420410156e-01,9.524531662464141846e-02,1.663646474480628967e-02
-5.375465750694274902e-02,-1.843802779912948608e-01,1.280475854873657227e-01,-1.723417080938816071e-02,-1.779028587043285370e-02,-2.101811170578002930e-01,-9.611616283655166626e-02,-9.932567924261093140e-02,-2.770770490169525146e-01,3.068380653858184814e-01
-1.471657603979110718e-01,-8.801290392875671387e-02,-1.768034100532531738e-01,-9.201175570487976074e-01,6.476620584726333618e-02,-1.395894140005111694e-01,-8.050538301467895508e-01,-3.127204179763793945e-01,4.824513792991638184e-01,-9.360116124153137207e-01
-6.332366466522216797e-01,-2.770494222640991211e-01,-6.867182999849319458e-02,4.622890949249267578e-01,-1.910099238157272339e-01,-1.718357205390930176e-01,-2.616511881351470947e-01,8.694950342178344727e-01,-4.591300785541534424e-01,-1.092491149902343750e+00
-1.353935897350311279e-01,-7.663252204656600952e-02,-9.289035946130752563e-02,2.481198608875274658e-01,-6.066018342971801758e-01,5.328492075204849243e-02,-2.977921366691589355e-01,2.977588176727294922e-01,-1.369045853614807129e+00,-7.757279276847839355e-01
-6.174477934837341309e-01,7.920051924884319305e-03,-1.118634819984436035e+00,2.007469534873962402e-01,-5.422017574310302734e-01,3.313685059547424316e-01,-6.992264986038208008e-01,-3.082977533340454102e-01,8.314204961061477661e-02,-3.297733962535858154e-01
-7.720076441764831543e-01,-3.873142004013061523e-01,-6.961845606565475464e-02,3.986376523971557617e-01,-9.569109082221984863e-01,-8.641178607940673828e-01,-6.815103292465209961e-01,-6.757835745811462402e-01,-3.566071018576622009e-02,-1.427138894796371460e-01
1.169364750385284424e-01,-4.570650458335876465e-01,2.234160602092742920e-01,1.118839383125305176e-01,-2.362057566642761230e-01,-1.874791622161865234e+00,-5.563055872917175293e-01,-1.070681065320968628e-01,-3.403179347515106201e-01,-1.375157982110977173e-01
6.727479398250579834e-02,-2.534151077270507812e-01,-1.107441186904907227e+00,-1.019512534141540527e+00,4.177975356578826904e-01,-2.447090856730937958e-02,-1.386287510395050049e-01,4.755321517586708069e-02,-8.341305255889892578e-01,1.032280251383781433e-01
-2.813403606414794922e-01,-7.144247889518737793e-01,-5.733143091201782227e-01,-6.634665727615356445e-01,-1.126862525939941406e+00,3.823318481445312500e-01,6.286399960517883301e-01,-7.209516316652297974e-02,-8.036246299743652344e-01,1.131916269659996033e-01
-7.566926479339599609e-01,-7.474977970123291016e-01,-8.594180457293987274e-03,-8.934401720762252808e-02,5.293972790241241455e-02,-4.752764403820037842e-01,-1.555068604648113251e-02,-1.158338189125061035e+00,-3.671976923942565918e-01,1.888989359140396118e-01
-6.076670885086059570e-01,-1.354534476995468140e-01,2.137504965066909790e-01,-5.274069905281066895e-01,-6.028775572776794434e-01,-9.753477573394775391e-01,-3.532099723815917969e-01,-7.181249856948852539e-01,1.653425246477127075e-01,1.166479568928480148e-02
-1.707936227321624756e-01,-4.746321439743041992e-01,-3.445220589637756348e-01,-1.547924757003784180e+00,1.419397145509719849e-01,-4.021062254905700684e-01,-1.759946495294570923e-01,-1.084832698106765747e-01,-3.587456047534942627e-02,2.625349462032318115e-01
-5.025968551635742188e-01,-4.824711084365844727e-01,3.714934885501861572e-01,-4.172627627849578857e-02,-7.288719415664672852e-01,-3.145321905612945557e-01,-7.804275155067443848e-01,5.092067122459411621e-01,8.756159804761409760e-03,-1.035253167152404785e+00
-2.382456958293914795e-01,-4.621921777725219727e-01,-2.839209735393524170e-01,-1.114446759223937988e+00,1.329533103853464127e-02,3.024573624134063721e-01,-2.187760770320892334e-01,-5.427048206329345703e-01,2.951441407203674316e-01,-1.251337409019470215e+00
-2.466372847557067871e-01,-3.821234405040740967e-01,-1.320556759834289551e+00,-2.457954287528991699e-01,-5.825590491294860840e-01,6.459093093872070312e-02,-2.373255342245101929e-01,-4.344291985034942627e-01,9.059588611125946045e-02,8.603348582983016968e-02
-6.707658767700195312e-01,5.563882365822792053e-02,-7.384676933288574219e-01,-6.209282577037811279e-02,8.435443788766860962e-02,2.092316895723342896e-01,-1.217846274375915527e-01,-1.032165288925170898e+00,-3.859909996390342712e-02,-6.816925406455993652e-01
2.622319459915161133e-01,-4.823841750621795654e-01,-1.330429315567016602e-01,-7.605839967727661133e-01,-1.519486308097839355e-01,-9.739683866500854492e-01,-3.016399219632148743e-02,2.664560973644256592e-01,-7.592433691024780273e-01,-5.278382077813148499e-02
