4.571511596441268921e-02,-2.563474178314208984e-01,1.023155227303504944e-01,1.312718540430068970e-02,-5.259964466094970703e-01,-8.038236945867538452e-02,-1.859371662139892578e-01,3.433312177658081055e-01,-3.951523303985595703e-01,2.570563368499279022e-02
-2.708926796913146973e-01,-7.929528504610061646e-02,-2.479274570941925049e-02,3.186637163162231445e-01,-2.503986358642578125e-01,-5.935519933700561523e-01,3.848225176334381104e-01,-4.295412003993988037e-01,-3.128623366355895996e-01,1.698218137025833130e-01
-1.359391212463378906e-01,4.409380257129669189e-01,-5.821067690849304199e-01,-4.283773601055145264e-01,-8.074186742305755615e-02,2.327991090714931488e-02,-1.950727105140686035e-01,2.806169092655181885e-01,-4.682101011276245117e-01,-3.665778934955596924e-01
-3.755313158035278320e-01,3.393543064594268799e-01,-3.105154037475585938e-01,1.639369875192642212e-01,-4.510852992534637451e-01,-5.233513712882995605e-01,-2.798588573932647705e-01,-2.259577214717864990e-01,1.323251519352197647e-02,1.681134402751922607e-01
-2.831845879554748535e-01,-4.815808236598968506e-01,2.247015535831451416e-01,-4.856177866458892822e-01,-6.942184269428253174e-02,-3.285195231437683105e-01,8.298267424106597900e-02,4.757142812013626099e-02,-1.500384788960218430e-02,-3.726792335510253906e-02
-1.250948011875152588e-01,3.412165939807891846e-01,-7.377352565526962280e-02,1.102922335267066956e-01,-9.825112670660018921e-02,-6.935886144638061523e-01,-4.187292456626892090e-01,-2.768658995628356934e-01,6.752696633338928223e-02,-7.790443897247314453e-01
-1.479983031749725342e-01,1.942359842360019684e-02,2.405136637389659882e-02,-1.043178066611289978e-01,-2.077964246273040771e-01,6.535657495260238647e-02,-2.272891849279403687e-01,2.098658084869384766e-01,4.249374568462371826e-02,-1.489799022674560547e-01
-1.724916398525238037e-01,-3.587705194950103760e-01,-1.297920346260070801e-01,-4.956824481487274170e-01,3.600792884826660156e-01,-5.849545598030090332e-01,-3.413271307945251465e-01,-1.384051442146301270e-01,-3.034627437591552734e-01,3.664219081401824951e-01
-7.083179354667663574e-01,1.137055531144142151e-01,6.303311586380004883e-01,-8.147425055503845215e-01,-2.271259427070617676e-01,-2.471466362476348877e-01,-2.874712049961090088e-01,-1.017162919044494629e+00,-5.523430109024047852e-01,1.645440608263015747e-01
-7.493390887975692749e-02,-1.119886785745620728e-01,-1.582087427377700806e-01,-2.326389253139495850e-01,-3.623485192656517029e-02,6.993891298770904541e-02,-1.565687656402587891e-01,-3.234700262546539307e-01,8.678335696458816528e-02,3.124910295009613037e-01
-3.173489272594451904e-01,-9.097702801227569580e-02,-5.893863439559936523e-01,-4.996594786643981934e-01,-5.003217458724975586e-01,5.903282761573791504e-01,4.775558710098266602e-01,-6.633325219154357910e-01,-2.917401492595672607e-01,-2.119197845458984375e-01
-4.282709658145904541e-01,-3.271903097629547119e-01,1.280710250139236450e-01,-4.063081443309783936e-01,-8.158808946609497070e-01,-1.400953531265258789e-02,2.809461653232574463e-01,-4.874974489212036133e-01,1.244354322552680969e-01,-6.190132498741149902e-01
1.549442261457443237e-01,1.816710382699966431e-01,-1.894725114107131958e-01,2.131970971822738647e-01,-2.939416766166687012e-01,3.451934158802032471e-01,-1.664775460958480835e-01,-9.365423768758773804e-02,-6.353386044502258301e-01,-4.909416735172271729e-01
-1.436616033315658569e-01,1.190900579094886780e-01,2.246588766574859619e-01,9.038256108760833740e-02,-5.762304067611694336e-01,-4.995607733726501465e-01,2.060867398977279663e-01,2.256750017404556274e-01,-6.936957836151123047e-01,-5.632898807525634766e-01
1.123649999499320984e-01,-3.892239034175872803e-01,-2.711779773235321045e-01,-1.482378244400024414e-01,-5.340724587440490723e-01,-7.216653823852539062e-01,-5.343328714370727539e-01,-1.328539997339248657e-01,-5.182548165321350098e-01,4.320447444915771484e-01
-4.199046194553375244e-01,1.443468332290649414e-01,3.115180432796478271e-01,-1.657658368349075317e-01,-7.904348373413085938e-01,-6.776981353759765625e-01,-5.440295934677124023e-01,-8.105982095003128052e-02,-6.458402425050735474e-02,-1.552897453308105469e+00
-5.443770885467529297e-01,-2.942491881549358368e-02,-7.491019964218139648e-01,-6.572628617286682129e-01,-3.098467178642749786e-02,-6.135296225547790527e-01,-7.974743843078613281e-01,-4.602110385894775391e-02,-3.744399249553680420e-01,3.890155255794525146e-01
-2.405165731906890869e-01,-3.215511888265609741e-02,-3.776019513607025146e-01,-8.930583596229553223e-01,1.032875180244445801e-01,-1.551907360553741455e-01,1.810529232025146484e-01,-5.204034447669982910e-01,4.568991810083389282e-02,1.371188312768936157e-01
-1.449692249298095703e-01,1.227305978536605835e-01,1.024278476834297180e-01,-6.987123936414718628e-02,9.912692010402679443e-03,2.114226482808589935e-02,-7.369927316904067993e-02,-8.045572042465209961e-02,1.778659038245677948e-02,5.718721821904182434e-02
-8.631702512502670288e-02,-4.687596857547760010e-02,8.588688075542449951e-02,5.725747346878051758e-02,-8.364097028970718384e-02,-3.603927791118621826e-02,-9.988334774971008301e-02,9.925273060798645020e-02,-2.831606566905975342e-02,-1.144810989499092102e-01
-2.294862121343612671e-01,1.263161897659301758e-01,2.198137342929840088e-01,1.430592834949493408e-01,-2.792645692825317383e-01,-3.084756135940551758e-01,3.096343763172626495e-02,4.131224751472473145e-01,-9.755277037620544434e-01,-8.102120161056518555e-01
-4.044087231159210205e-01,-4.267363846302032471e-01,3.690755665302276611e-01,5.031565427780151367e-01,-3.814118504524230957e-01,-3.030986189842224121e-01,-4.139376580715179443e-01,1.986591219902038574e-01,-7.785795331001281738e-01,-9.435763955116271973e-01
-1.098047971725463867e+00,-5.134320855140686035e-01,-4.608162641525268555e-01,-4.831399321556091309e-01,2.038766741752624512e-01,-3.455015271902084351e-02,-7.056419849395751953e-01,4.516244400292634964e-03,4.558851718902587891e-01,8.419119566679000854e-02
1.964295953512191772e-01,-2.942927181720733643e-01,-4.778784140944480896e-02,-6.422013640403747559e-01,-8.902443945407867432e-02,-1.073991656303405762e+00,-8.549190163612365723e-01,2.350695617496967316e-02,-5.077474117279052734e-01,2.237867861986160278e-01
-5.684890225529670715e-02,-8.745967745780944824e-01,-1.185597553849220276e-01,-1.076165214180946350e-01,-3.056587185710668564e-03,-6.615040451288223267e-02,-8.172526210546493530e-02,-6.708510518074035645e-01,-6.481983661651611328e-01,-8.386477231979370117e-01
-3.954468667507171631e-01,-1.733001619577407837e-01,-4.100483953952789307e-01,-6.508820056915283203e-01,-3.462459743022918701e-01,5.694732666015625000e-01,5.452395677566528320e-01,-1.541683822870254517e-01,-6.458930373191833496e-01,-8.106946945190429688e-02
1.570021957159042358e-01,-3.556787967681884766e-01,1.793696284294128418e-01,-3.642055392265319824e-01,-1.557056009769439697e-01,-3.372895419597625732e-01,-9.989793598651885986e-02,-4.206086397171020508e-01,-5.464563891291618347e-02,-5.842870473861694336e-01
-4.517686069011688232e-01,-5.000822544097900391e-01,-2.050919681787490845e-01,-2.189415991306304932e-01,-3.085466325283050537e-01,5.881419777870178223e-01,1.283866912126541138e-01,1.391647476702928543e-02,-2.553251013159751892e-02,-1.727612316608428955e-01
1.398649066686630249e-01,-2.800397574901580811e-01,-1.747428923845291138e-01,1.553485989570617676e-01,-3.156944811344146729e-01,-1.524976044893264771e-01,-1.178315207362174988e-01,-5.929592251777648926e-01,-1.472908109426498413e-01,-4.426032900810241699e-01
-6.642220616340637207e-01,-7.416677474975585938e-01,-3.625055551528930664e-01,-3.779622167348861694e-02,-1.343055218458175659e-01,-1.091332197189331055e+00,-8.901388645172119141e-01,-2.748687267303466797e-01,2.850065231323242188e-01,7.302778959274291992e-02
-7.081863284111022949e-01,-8.157916665077209473e-01,-6.411216855049133301e-01,-8.408803343772888184e-01,-1.337034583091735840e+00,4.849315881729125977e-01,4.724886715412139893e-01,-3.786740303039550781e-01,2.038369886577129364e-02,5.570568609982728958e-03
1.137136444449424744e-01,2.281958609819412231e-01,3.029027953743934631e-02,-3.111619353294372559e-01,1.029762253165245056e-01,-5.890403985977172852e-01,1.592626213096082211e-03,-3.101011812686920166e-01,-4.424068629741668701e-01,5.531494319438934326e-02
-2.364513874053955078e-01,-3.563723564147949219e-01,4.219941198825836182e-01,-4.988054931163787842e-01,-4.793711006641387939e-02,-2.712313458323478699e-02,9.748103469610214233e-02,-3.532341122627258301e-02,-2.481061667203903198e-01,-5.965546369552612305e-01
-6.403241753578186035e-01,-5.419965386390686035e-01,-3.903723359107971191e-01,3.963073194026947021e-01,1.104715168476104736e-01,2.228671908378601074e-01,-3.123084306716918945e-01,-6.140747666358947754e-01,-8.799822330474853516e-01,4.879507422447204590e-01
-6.876407265663146973e-01,8.066273480653762817e-02,-2.783837318420410156e-01,-1.175272688269615173e-01,-1.541698127985000610e-01,-3.964518010616302490e-02,2.207017093896865845e-01,-5.727663636207580566e-01,4.479652270674705505e-02,-4.761662706732749939e-02
2.655495405197143555e-01,-1.957536041736602783e-01,-3.065632581710815430e-01,9.307039529085159302e-02,-6.130876392126083374e-02,-4.814941436052322388e-02,6.051087379455566406e-02,-1.103478074073791504e-01,-2.627588249742984772e-02,-1.849402040243148804e-01
-2.769675105810165405e-02,-5.933418869972229004e-02,3.482896462082862854e-02,-2.588439360260963440e-02,-5.691458657383918762e-02,3.604875504970550537e-02,-1.108508929610252380e-02,1.108321398496627808e-01,-2.298324368894100189e-02,-8.055756241083145142e-02
-9.038907289505004883e-01,-4.784423708915710449e-01,-4.590438008308410645e-01,2.321467846632003784e-01,-3.262390196323394775e-01,-4.455761015415191650e-01,-1.411097496747970581e-01,2.339690029621124268e-01,1.853889673948287964e-01,-2.208613157272338867e-01
-1.516266465187072754e-01,2.926172614097595215e-01,-5.515207648277282715e-01,-2.801602482795715332e-01,2.598053514957427979e-01,-5.417114496231079102e-01,-2.179096341133117676e-01,-2.338152080774307251e-01,-3.264765739440917969e-01,2.285924851894378662e-01
-3.481157496571540833e-02,-5.226820707321166992e-01,-7.661862671375274658e-02,-4.851992130279541016e-01,1.676792800426483154e-01,-2.911598682403564453e-01,-1.722983270883560181e-01,-1.189885735511779785e+00,-2.326873540878295898e-01,-1.443388313055038452e-01
-5.837632417678833008e-01,-2.202957272529602051e-01,-6.314793229103088379e-01,1.002257764339447021e-01,-1.561700105667114258e-01,2.505604624748229980e-01,-6.716344952583312988e-01,-9.034332036972045898e-01,1.642538905143737793e-01,1.850822567939758301e-01
2.019877731800079346e-01,-5.665224194526672363e-01,-8.954843878746032715e-01,-1.797074452042579651e-02,-1.722087115049362183e-01,-4.789109230041503906e-01,1.930009126663208008e-01,-4.100986719131469727e-01,-4.335735440254211426e-01,-2.604209780693054199e-01
-7.881351560354232788e-02,5.233939886093139648e-01,1.531593203544616699e-01,-4.205014705657958984e-01,-2.272498309612274170e-01,-5.122399330139160156e-02,-3.032726645469665527e-01,6.166926026344299316e-02,-5.982543230056762695e-01,-6.326106190681457520e-02
-7.644390463829040527e-01,-3.823711872100830078e-01,-5.162743330001831055e-01,-1.236928582191467285e+00,3.503102436661720276e-02,-1.836959272623062134e-01,-3.990985751152038574e-01,1.452955752611160278e-01,-8.425185084342956543e-01,2.607674896717071533e-01
-1.267755031585693359e-01,4.143698215484619141e-01,-4.754333198070526123e-01,-5.658712983131408691e-01,5.664862394332885742e-01,-1.428059935569763184e-01,6.754537820816040039e-01,-5.692052245140075684e-01,-8.222189545631408691e-01,-8.588095307350158691e-01
7.148962467908859253e-03,2.270777821540832520e-01,-2.734907269477844238e-01,-6.250872015953063965e-01,-7.734981775283813477e-01,-1.194953471422195435e-01,-3.900599777698516846e-01,-1.349887698888778687e-01,-3.044619858264923096e-01,-5.605546757578849792e-02
-4.055241048336029053e-01,-1.368184685707092285e-01,-1.085359826683998108e-01,3.109314739704132080e-01,-3.687427043914794922e-01,3.026739954948425293e-01,-5.082386136054992676e-01,-5.402841567993164062e-01,-4.320732653141021729e-01,-2.731073088943958282e-02
3.407129943370819092e-01,1.576344817876815796e-01,-4.082247018814086914e-01,-1.501594781875610352e-01,-2.127300798892974854e-01,-3.422597646713256836e-01,7.919466495513916016e-02,3.483924567699432373e-01,-6.112599968910217285e-01,-7.074741125106811523e-01
-1.421268284320831299e-01,1.707928627729415894e-01,-2.502583861351013184e-01,4.382748901844024658e-01,-3.673617839813232422e-01,-4.754616916179656982e-01,2.006370276212692261e-01,-3.401370346546173096e-01,-6.080057024955749512e-01,-3.856481015682220459e-01
-4.334564507007598877e-01,-3.088055253028869629e-01,3.442009091377258301e-01,-1.640584021806716919e-01,1.689172983169555664e-01,-1.695067584514617920e-01,-3.476362526416778564e-01,5.058926343917846680e-02,-5.896681547164916992e-01,4.964863881468772888e-02
-6.855447292327880859e-01,-3.791654109954833984e-01,5.354971885681152344e-01,1.427080482244491577e-01,-1.157092928886413574e+00,1.406833529472351074e-01,-5.965792536735534668e-01,5.509523749351501465e-01,-6.878008246421813965e-01,-4.507860243320465088e-01
-6.552587747573852539e-01,-5.314419269561767578e-01,-2.537886500358581543e-01,-3.784468164667487144e-03,5.986669566482305527e-03,-1.207798272371292114e-01,-5.316404700279235840e-01,-7.353668808937072754e-01,4.681124687194824219e-01,-1.257856041193008423e-01
-4.143221378326416016e-01,-4.702921584248542786e-02,4.162058234214782715e-01,-6.607881784439086914e-01,-4.496734440326690674e-01,-2.597397565841674805e-01,-4.742514491081237793e-01,5.651604756712913513e-02,3.022472560405731201e-01,-9.675301313400268555e-01
-7.214683573693037033e-04,-5.180762708187103271e-02,-1.643688976764678955e-01,9.383734315633773804e-02,-3.605919480323791504e-01,-1.269942671060562134e-01,8.744560182094573975e-02,2.427591532468795776e-01,2.538654394447803497e-02,-2.344758659601211548e-01
4.545724391937255859e-01,-3.556343019008636475e-01,7.401294261217117310e-02,-2.234292030334472656e-01,-2.950873076915740967e-01,-6.197057366371154785e-01,1.337253153324127197e-01,-6.982731819152832031e-02,-1.579136401414871216e-01,-6.550273299217224121e-02
-6.662194151431322098e-03,-1.718374043703079224e-01,2.014617472887039185e-01,3.675247728824615479e-01,-1.556759774684906006e-01,-4.645828604698181152e-01,-2.230424433946609497e-01,1.057502627372741699e-01,-2.815249748528003693e-02,-2.324170023202896118e-01
1.212424933910369873e-01,-3.548944890499114990e-01,-1.414083130657672882e-02,-5.666787177324295044e-02,-3.937481939792633057e-01,-2.433991134166717529e-01,-9.061052650213241577e-02,-1.023705720901489258e+00,-3.693540394306182861e-01,-3.266022205352783203e-01
-3.909188508987426758e-01,-2.338849455118179321e-01,2.253313362598419189e-01,-2.184082567691802979e-01,-4.663250744342803955e-01,9.928781539201736450e-02,6.396922469139099121e-02,2.640510499477386475e-01,-3.015132546424865723e-01,-6.761841177940368652e-01
-3.257802724838256836e-01,3.869479000568389893e-01,-2.355651259422302246e-01,-8.802832961082458496e-01,3.286771774291992188e-01,-8.043568581342697144e-03,-2.493849247694015503e-01,-3.821850121021270752e-01,-3.461364209651947021e-01,-8.915360569953918457e-01
-3.516705930233001709e-01,-1.330150514841079712e-01,-1.119319275021553040e-01,-3.874064981937408447e-01,-2.924094200134277344e-01,7.186004519462585449e-02,-7.126458734273910522e-02,-1.927177757024765015e-01,2.124431878328323364e-01,1.143626570701599121e-01
-1.133723706007003784e-01,2.736328244209289551e-01,1.905874013900756836e-01,-1.045546650886535645e+00,-1.591103523969650269e-01,-3.875818848609924316e-01,-3.224044740200042725e-01,-6.063745617866516113e-01,-4.828214347362518311e-01,2.537747621536254883e-01
7.093348354101181030e-02,-6.860529780387878418e-01,-1.140364781022071838e-01,-6.702668033540248871e-03,-6.974859833717346191e-01,-2.983121015131473541e-02,-6.122374534606933594e-01,-2.387179061770439148e-02,-1.597443819046020508e-01,-2.421767115592956543e-01
-1.171335220336914062e+00,-2.920697331428527832e-01,-2.162125110626220703e-01,-1.219878196716308594e-01,1.095217391848564148e-01,-2.107030600309371948e-01,-8.419849276542663574e-01,-7.017123699188232422e-01,3.517303466796875000e-01,-9.666866064071655273e-02
1.311838477849960327e-01,-2.728729546070098877e-01,2.513286173343658447e-01,-2.228319793939590454e-01,-1.712314337491989136e-01,-1.769458055496215820e-01,-1.978241205215454102e-01,1.009346358478069305e-02,-2.849729955196380615e-01,1.178935170173645020e-01
-3.379134237766265869e-01,-2.855012416839599609e-01,-3.352966010570526123e-01,-5.201190114021301270e-01,-8.939318060874938965e-01,4.069459736347198486e-01,2.481415867805480957e-01,2.591654062271118164e-01,-3.001629412174224854e-01,-1.184659376740455627e-01
-4.480825066566467285e-01,-4.827956669032573700e-03,-6.713437438011169434e-01,2.316869646310806274e-01,4.399493336677551270e-01,-1.176082253456115723e+00,-2.861718833446502686e-01,-2.546252012252807617e-01,-5.968349575996398926e-01,-8.540236353874206543e-01
-2.724323570728302002e-01,-8.903198689222335815e-02,5.278416350483894348e-02,7.461300492286682129e-02,2.931617498397827148e-01,-1.060576438903808594e-01,-1.260645687580108643e-01,1.818174272775650024e-01,-3.628622740507125854e-02,-3.470194637775421143e-01
-1.597940772771835327e-01,-6.416758298873901367e-01,1.162398755550384521e-01,-6.840533018112182617e-01,1.994322389364242554e-01,-2.648906111717224121e-01,-5.111296176910400391e-01,1.861861497163772583e-01,-1.190750598907470703e+00,2.289733886718750000e-01
-2.477840185165405273e-01,-5.879423618316650391e-01,-2.833385206758975983e-02,-8.010742664337158203e-01,7.638706564903259277e-01,2.777138352394104004e-01,9.519886225461959839e-02,-2.537947595119476318e-01,-7.912873476743698120e-02,-5.862842202186584473e-01
6.032897159457206726e-02,3.777267877012491226e-03,-6.101504340767860413e-02,-6.533763557672500610e-02,-2.362212352454662323e-02,1.172522082924842834e-01,3.767316788434982300e-02,-1.813756301999092102e-02,-5.710917338728904724e-02,-3.831182047724723816e-02
2.830467559397220612e-02,-5.872220993041992188e-01,2.157131582498550415e-01,2.331737875938415527e-01,-4.222940206527709961e-01,-7.900720834732055664e-01,2.250340282917022705e-01,-2.638421952724456787e-02,-7.785153985023498535e-01,-1.677245646715164185e-02
-9.246234595775604248e-02,-7.282155100256204605e-03,-1.565307378768920898e-01,4.121012389659881592e-01,-2.972542643547058105e-01,-9.493682384490966797e-01,-6.982716917991638184e-02,2.484939694404602051e-01,5.262926220893859863e-03,-6.330120563507080078e-01
7.543762773275375366e-02,-2.704981565475463867e-01,-6.055447459220886230e-01,-2.891760170459747314e-01,-4.158442616462707520e-01,-1.119678933173418045e-02,-2.728331685066223145e-01,2.247013747692108154e-01,-5.256585478782653809e-01,2.923124730587005615e-01
-3.920370936393737793e-01,-2.038627862930297852e-01,-3.236261308193206787e-01,-3.381114602088928223e-01,-9.010419249534606934e-01,6.906356811523437500e-01,-1.974748224020004272e-01,1.606137454509735107e-01,-5.019485354423522949e-01,-5.672775208950042725e-02
6.011912226676940918e-02,-9.690181165933609009e-02,-5.133874341845512390e-02,5.211297050118446350e-02,5.576083436608314514e-02,-7.105445116758346558e-02,-2.360333688557147980e-02,2.668667212128639221e-02,4.305873438715934753e-02,-4.661131650209426880e-02
2.051779534667730331e-03,-1.717104949057102203e-02,5.160040855407714844e-01,1.024480015039443970e-01,-3.777885138988494873e-01,-4.986795186996459961e-01,-3.191435635089874268e-01,-2.720125019550323486e-01,4.799024201929569244e-03,1.590785570442676544e-02
-3.941485285758972168e-01,-2.655548453330993652e-01,1.644544601440429688e-01,-1.623441725969314575e-01,5.254757031798362732e-02,-2.936654090881347656e-01,8.890911936759948730e-02,-6.326304674148559570e-01,-3.046336174011230469e-01,3.546447455883026123e-01
-2.603325843811035156e-01,5.313727259635925293e-02,3.437466025352478027e-01,6.047275662422180176e-01,-2.320836931467056274e-01,-9.003968238830566406e-01,-4.755982756614685059e-01,-7.117480039596557617e-01,-4.420773386955261230e-01,-2.904443442821502686e-01
-5.231310129165649414e-01,2.818587608635425568e-02,1.767111271619796753e-01,-1.491106152534484863e-01,3.674094751477241516e-02,-6.986091732978820801e-01,-1.515539139509201050e-01,-7.941306233406066895e-01,-8.460710197687149048e-02,-4.688963592052459717e-01
-9.509404003620147705e-02,7.608009874820709229e-02,-2.402913272380828857e-01,-1.102826595306396484e-01,-6.463087797164916992e-01,4.169647097587585449e-01,-5.334844067692756653e-02,3.350053727626800537e-01,-3.997580707073211670e-01,-1.647715270519256592e-01
1.854943335056304932e-01,-7.143204808235168457e-01,-4.555706307291984558e-02,-1.266033053398132324e-01,-4.445262849330902100e-01,-6.887103319168090820e-01,-2.693323791027069092e-01,-1.643436402082443237e-02,1.139755696058273315e-01,7.507232949137687683e-03
-2.999090217053890228e-02,-4.503639638423919678e-01,5.151809379458427429e-02,-5.976539850234985352e-01,-4.566305875778198242e-02,1.992813497781753540e-02,-3.420781195163726807e-01,-2.006939947605133057e-01,-9.845716506242752075e-02,3.274161219596862793e-01
-1.398988813161849976e-01,1.023731566965579987e-02,-1.246963813900947571e-01,5.270302295684814453e-02,3.712055087089538574e-01,-7.431671768426895142e-02,-2.081731148064136505e-02,5.679218769073486328e-01,-3.137691915035247803e-01,-4.060500860214233398e-01
4.434885084629058838e-02,-3.455959558486938477e-01,3.150424957275390625e-01,4.111242592334747314e-01,-1.733348220586776733e-01,-1.595935523509979248e-01,-3.873278498649597168e-01,-1.402862071990966797e-01,-5.215441584587097168e-01,-3.083021640777587891e-01
-3.157868981361389160e-02,6.236459687352180481e-02,-2.659631706774234772e-02,-1.069119572639465332e-01,-1.680317223072052002e-01,1.038979813456535339e-01,-3.209718689322471619e-02,-1.972480565309524536e-01,-1.748072057962417603e-01,1.211760714650154114e-01
-7.971144914627075195e-01,-4.461959004402160645e-01,9.960222989320755005e-02,-5.638852715492248535e-01,6.683781743049621582e-01,2.589759789407253265e-02,4.676792770624160767e-02,-2.331917434930801392e-01,-7.887627482414245605e-01,-2.349539548158645630e-01
-2.535461485385894775e-01,-2.816725075244903564e-01,-5.784650146961212158e-02,-8.207551836967468262e-01,-8.034475892782211304e-02,-3.274478614330291748e-01,-7.240348309278488159e-02,-5.734543800354003906e-01,2.779185175895690918e-01,-9.971703290939331055e-01
-6.672329902648925781e-01,3.416130542755126953e-01,-2.630349695682525635e-01,2.223139405250549316e-01,-8.532151579856872559e-02,-1.595989167690277100e-01,-3.713588714599609375e-01,2.133398503065109253e-01,-4.724308550357818604e-01,-5.743257403373718262e-01
-5.718400478363037109e-01,-6.609627604484558105e-01,-2.119643092155456543e-01,-3.813517093658447266e-01,-1.514425724744796753e-01,2.555459439754486084e-01,4.018753767013549805e-02,2.208171412348747253e-02,1.826817840337753296e-01,-2.436240389943122864e-02
1.233401522040367126e-01,1.250508874654769897e-01,2.503117620944976807e-01,3.779079532250761986e-03,-2.530595660209655762e-01,-6.384601593017578125e-01,-5.163794159889221191e-01,-1.922479569911956787e-01,-6.266769170761108398e-01,-1.140334010124206543e-01
-5.865031853318214417e-02,-9.896379709243774414e-02,-5.640650540590286255e-02,4.594112187623977661e-02,-1.747224330902099609e-01,9.087377786636352539e-02,-7.260643690824508667e-02,5.233380571007728577e-02,4.574731364846229553e-02,1.923740655183792114e-02
-5.394959449768066406e-01,-9.345281124114990234e-01,-5.187586545944213867e-01,6.643123030662536621e-01,-3.858019411563873291e-01,1.888441145420074463e-01,-4.332586228847503662e-01,-6.401021480560302734e-01,-7.567896246910095215e-01,6.845018267631530762e-01
-6.501291692256927490e-02,8.037889748811721802e-02,-1.144965440034866333e-01,-5.113628506660461426e-01,-3.575012087821960449e-01,-5.709384679794311523e-01,2.422073036432266235e-01,-7.770731300115585327e-02,-1.171914767473936081e-02,-5.547394752502441406e-01
-3.924834430217742920e-01,3.237456828355789185e-02,2.370384186506271362e-01,-6.265240311622619629e-01,-4.075215756893157959e-01,-4.807563722133636475e-01,4.210391938686370850e-01,-3.241614103317260742e-01,-3.544413149356842041e-01,-4.690145552158355713e-01
-2.430761009454727173e-01,7.169236540794372559e-01,-5.240183696150779724e-02,-1.221202090382575989e-01,-1.407939493656158447e-01,3.371065258979797363e-01,-1.556150913238525391e-01,-5.548309683799743652e-01,-4.346783459186553955e-01,-8.715330809354782104e-02
-2.008993774652481079e-01,-6.128738075494766235e-02,-6.516749262809753418e-01,-4.033652842044830322e-01,-2.602417469024658203e-01,1.635603308677673340e-01,-2.758528292179107666e-01,-6.625528335571289062e-01,-4.567353427410125732e-02,5.000978112220764160e-01
-3.470477163791656494e-01,-3.807379603385925293e-01,-2.280382663011550903e-01,5.460705757141113281e-01,-7.812640070915222168e-02,-6.719133853912353516e-01,-3.255431354045867920e-01,-1.679987460374832153e-01,1.763680726289749146e-01,-3.168151080608367920e-01
-3.750113248825073242e-01,-9.149605780839920044e-02,-5.298480987548828125e-01,-5.328731536865234375e-01,-5.056343078613281250e-01,2.971725165843963623e-01,6.511963605880737305e-01,2.723605930805206299e-01,-7.572720050811767578e-01,-5.010927915573120117e-01
5.309457182884216309e-01,-7.431772351264953613e-02,-1.439994126558303833e-01,-3.139277994632720947e-01,-3.899251222610473633e-01,8.495812118053436279e-02,-2.723374068737030029e-01,3.217799067497253418e-01,-4.853583276271820068e-01,-8.654292225837707520e-01
1.266093254089355469e-01,-2.175709009170532227e-01,-1.018718123435974121e+00,-6.957511901855468750e-01,2.443574965000152588e-01,-1.615312695503234863e-02,-1.850214973092079163e-02,-4.011550247669219971e-01,-4.718211889266967773e-01,-7.464632391929626465e-02
-3.078749775886535645e-01,-2.805482447147369385e-01,-2.363211363554000854e-01,8.426979184150695801e-02,-4.760986566543579102e-01,-4.452526867389678955e-01,-1.573524028062820435e-01,2.607955932617187500e-01,-7.183470129966735840e-01,1.425483226776123047e-01
4.541325196623802185e-02,-8.272187784314155579e-03,8.150473237037658691e-02,-5.181900039315223694e-02,-6.104018166661262512e-02,1.413822267204523087e-02,-4.950519651174545288e-02,-9.971781820058822632e-02,7.712083309888839722e-02,-4.907795786857604980e-02
-1.080366000533103943e-01,-6.189371347427368164e-01,-2.266018092632293701e-01,-3.662692904472351074e-01,-1.384171247482299805e+00,2.016829103231430054e-01,-7.670402526855468750e-01,2.668959498405456543e-01,-1.766947805881500244e-01,-2.954121492803096771e-02
-5.043715834617614746e-01,-8.494035005569458008e-01,-5.303262472152709961e-01,2.251676321029663086e-01,-5.152778625488281250e-01,2.575632333755493164e-01,-1.266042049974203110e-02,3.700893521308898926e-01,1.336286664009094238e-01,-5.127065777778625488e-01
1.458216756582260132e-01,-7.355999350547790527e-01,-6.228582262992858887e-01,-7.419923786073923111e-03,-5.391664505004882812e-01,-3.783910572528839111e-01,-1.205279771238565445e-02,-5.165538787841796875e-01,3.104149401187896729e-01,1.124519016593694687e-02
-4.787212610244750977e-01,-1.093678697943687439e-01,1.703058928251266479e-01,-4.449058771133422852e-01,-5.656572580337524414e-01,7.007170468568801880e-02,2.198208719491958618e-01,-5.719657540321350098e-01,9.250321984291076660e-02,-4.571584463119506836e-01
-2.437381595373153687e-01,-4.447745382785797119e-01,-1.104869097471237183e-01,-3.164040390402078629e-03,-1.109506607055664062e+00,-7.992115020751953125e-01,-3.424565792083740234e-01,2.294127792119979858e-01,-9.033040143549442291e-03,1.597517281770706177e-01
3.996341526508331299e-01,-8.353955298662185669e-02,-2.854533493518829346e-01,-1.313256025314331055e-01,-2.437945455312728882e-01,1.436851918697357178e-01,-2.408856153488159180e-01,-1.181852743029594421e-01,-4.370941966772079468e-02,-2.518458962440490723e-01
1.444308757781982422e-01,-1.447475701570510864e-01,1.104579120874404907e-01,5.231736227869987488e-02,-5.461012721061706543e-01,-8.543983697891235352e-01,-6.779140830039978027e-01,-1.940973848104476929e-01,-6.403189152479171753e-02,-1.177511960268020630e-01
-3.437141776084899902e-01,-3.158416748046875000e-01,-5.798488110303878784e-02,1.282569020986557007e-02,-3.820730447769165039e-01,-1.285991311073303223e+00,-9.847474098205566406e-01,-3.686295449733734131e-01,2.348926812410354614e-01,3.181244712322950363e-03
-1.405635029077529907e-01,3.509720042347908020e-02,-2.155555188655853271e-01,-1.230299174785614014e-01,-2.480006031692028046e-02,8.027049899101257324e-02,-2.727921903133392334e-01,-1.724828332662582397e-01,-5.205012559890747070e-01,1.242843791842460632e-01
-4.082706868648529053e-01,4.171863943338394165e-02,-3.954093456268310547e-01,-1.054806709289550781e+00,-9.434310719370841980e-03,-1.926529109477996826e-01,-5.471639633178710938e-01,7.174728065729141235e-02,-8.060079813003540039e-02,-1.696440577507019043e-02
-4.514413326978683472e-02,7.179693579673767090e-01,-5.483191609382629395e-01,-1.877824664115905762e-01,-7.795562595129013062e-02,3.050561845302581787e-01,-2.875319421291351318e-01,-5.176886320114135742e-01,-3.070434741675853729e-02,-1.407820731401443481e-01
1.776586659252643585e-02,-6.991858128458261490e-03,3.187168017029762268e-02,-2.123837321996688843e-01,-2.310646772384643555e-01,4.121829569339752197e-01,5.922731012105941772e-02,1.689278334379196167e-01,-3.482730090618133545e-01,-8.456726074218750000e-01
5.390759706497192383e-01,-6.159724667668342590e-02,-2.610268592834472656e-01,-8.642506599426269531e-01,5.379799753427505493e-02,-1.758817136287689209e-01,-4.667917191982269287e-01,1.991691887378692627e-01,-6.221406459808349609e-01,-3.862151205539703369e-01
8.407607674598693848e-02,4.710007905960083008e-01,-1.420922875404357910e-01,-3.071366436779499054e-02,-3.474449813365936279e-01,-1.577877812087535858e-02,-5.900430083274841309e-01,-2.388796582818031311e-02,-1.452695965766906738e+00,-1.821009069681167603e-01
-5.665442943572998047e-01,-4.302590191364288330e-01,-1.970670223236083984e-01,-1.936419308185577393e-01,-7.955897450447082520e-01,-2.169356867671012878e-02,-1.090362593531608582e-01,-1.603996604681015015e-01,1.551916748285293579e-01,5.058528110384941101e-02
-6.402785778045654297e-01,-6.045448184013366699e-01,-3.859836459159851074e-01,4.033055007457733154e-01,-2.097349464893341064e-01,2.351752072572708130e-01,-6.296441555023193359e-01,-7.413404583930969238e-01,-8.026036024093627930e-01,4.818752408027648926e-01
-2.552947700023651123e-01,-9.676387906074523926e-02,-1.706670671701431274e-01,-3.752661943435668945e-01,-8.826662302017211914e-01,-4.999183863401412964e-02,-1.543347686529159546e-01,-3.508272171020507812e-01,2.287940382957458496e-01,4.621272385120391846e-01
4.157329499721527100e-01,-4.134740531444549561e-01,-2.629361450672149658e-01,-9.380255341529846191e-01,-1.288641691207885742e-01,-3.762679696083068848e-01,-1.043523311614990234e+00,-1.219867691397666931e-01,-5.616611242294311523e-01,4.750427231192588806e-02
-1.347330361604690552e-01,-1.006480306386947632e-01,-7.685052603483200073e-02,-1.534823328256607056e-01,-1.184924244880676270e+00,-8.963205814361572266e-01,-8.395817875862121582e-01,-7.926779240369796753e-02,-2.248960882425308228e-01,-3.867507353425025940e-02
1.745049357414245605e-01,-4.492247998714447021e-01,-3.793981373310089111e-01,1.038929969072341919e-01,-2.881086468696594238e-01,1.374728679656982422e-01,-8.810314536094665527e-02,-3.626272678375244141e-01,-2.363777458667755127e-01,-1.457233726978302002e-01
-1.399795413017272949e-01,-2.675166428089141846e-01,-7.679237127304077148e-01,-8.719035983085632324e-01,-1.683793962001800537e-01,-2.535847574472427368e-02,4.044277667999267578e-01,-2.032266408205032349e-01,-7.583197951316833496e-01,2.685007872059941292e-03
-6.129315495491027832e-01,-1.434977054595947266e-01,-6.599881649017333984e-01,-4.750999212265014648e-01,-3.418355882167816162e-01,2.880422472953796387e-01,2.677659988403320312e-01,-5.886349081993103027e-01,2.764062583446502686e-01,-1.093937531113624573e-01
-4.557609558105468750e-01,-8.167056739330291748e-02,-2.638312280178070068e-01,9.677201509475708008e-02,4.408922046422958374e-02,-4.079894125461578369e-01,-3.224650025367736816e-01,-1.938673555850982666e-01,2.388243526220321655e-01,2.097785323858261108e-01
-1.818345487117767334e-01,-6.559465080499649048e-02,1.225952506065368652e-01,1.565846800804138184e-01,-1.036567211151123047e+00,-7.443804144859313965e-01,-1.780668050050735474e-01,2.861157953739166260e-01,-4.200289249420166016e-01,-4.710619151592254639e-01
7.851866632699966431e-02,-5.405327305197715759e-03,3.416609391570091248e-02,-1.777213066816329956e-02,-5.348028987646102905e-02,-1.328650861978530884e-02,-2.195968106389045715e-02,-5.427674949169158936e-02,8.992351591587066650e-03,6.299075484275817871e-02
-4.149712026119232178e-01,5.744720697402954102e-01,-3.889175951480865479e-01,-2.846888899803161621e-01,8.698017150163650513e-02,5.975820124149322510e-02,-4.985491037368774414e-01,-1.144877299666404724e-01,-9.167776256799697876e-02,-4.906933307647705078e-01
-1.112795341759920120e-02,5.882334895431995392e-03,-1.337503492832183838e-01,-3.371390998363494873e-01,2.948366105556488037e-01,-3.021779060363769531e-01,-3.608433008193969727e-01,2.108116298913955688e-01,-7.779307663440704346e-02,1.912895590066909790e-01
-5.701436400413513184e-01,-1.222581863403320312e-01,-5.513080358505249023e-01,-8.211935758590698242e-01,3.088894188404083252e-01,2.530240714550018311e-01,-2.788352072238922119e-01,1.559082716703414917e-01,1.967498809099197388e-01,-7.001219391822814941e-01
-3.656421303749084473e-01,4.710651934146881104e-02,4.971058070659637451e-01,-1.886950582265853882e-01,-1.708099246025085449e-01,-2.581193745136260986e-01,2.138262540102005005e-01,-1.380787938833236694e-01,-6.571337580680847168e-01,-1.798569113016128540e-01
-2.480658888816833496e-01,-1.161506772041320801e-01,2.728934884071350098e-01,5.411671996116638184e-01,2.539568245410919189e-01,-9.249114245176315308e-02,-4.401934146881103516e-01,-3.891092538833618164e-02,-6.344442367553710938e-01,-6.519212126731872559e-01
4.825903102755546570e-02,-2.781367003917694092e-01,-4.079383984208106995e-02,-3.249329626560211182e-01,-4.389918744564056396e-01,-2.752970159053802490e-01,3.401471301913261414e-02,-4.593252837657928467e-01,4.656770527362823486e-01,-1.181421708315610886e-02
-7.552434802055358887e-01,-1.016133427619934082e+00,-4.148677885532379150e-01,3.097529709339141846e-01,-8.378488570451736450e-02,-1.787126362323760986e-01,-6.647352576255798340e-01,1.120376437902450562e-01,-3.220613896846771240e-01,1.195123568177223206e-01
2.834513187408447266e-01,3.618979752063751221e-01,-5.004963278770446777e-01,2.597507787868380547e-03,-1.741194128990173340e-01,-8.287114091217517853e-03,-8.121373504400253296e-02,-3.181262910366058350e-01,-2.598642110824584961e-01,-2.351595759391784668e-01
-2.237363755702972412e-01,4.912415146827697754e-01,-2.129726558923721313e-01,-9.505953192710876465e-01,2.687294781208038330e-01,-4.205440580844879150e-01,5.304734408855438232e-02,-1.072697490453720093e-01,-1.572768688201904297e-01,-9.374537467956542969e-01
-7.864103913307189941e-01,6.132835149765014648e-01,-5.237511396408081055e-01,-7.408991456031799316e-01,-2.043758928775787354e-01,1.943622678518295288e-01,3.300904631614685059e-01,7.907024025917053223e-02,-3.826157748699188232e-01,-6.544053554534912109e-01
-3.908973038196563721e-01,1.286739297211170197e-02,5.599708557128906250e-01,-1.155668720602989197e-01,-7.345223426818847656e-01,-2.297834157943725586e-01,3.221900463104248047e-01,-8.588243722915649414e-01,-6.252986192703247070e-01,3.807516992092132568e-01
-5.993860363960266113e-01,-2.421821355819702148e-01,-1.434157609939575195e+00,-2.025050073862075806e-01,7.284212112426757812e-02,-1.437979936599731445e-01,-6.789908409118652344e-01,1.147098764777183533e-01,-3.357541561126708984e-01,3.663942962884902954e-02
8.184223622083663940e-02,-2.613339126110076904e-01,-3.278941512107849121e-01,3.034343123435974121e-01,-7.326475977897644043e-01,1.282897293567657471e-01,-1.163755953311920166e-01,-1.780255287885665894e-01,-6.687754392623901367e-01,-3.282026350498199463e-01
7.100293785333633423e-02,-2.327081412076950073e-01,-7.943789362907409668e-01,9.438280016183853149e-02,-2.739748954772949219e-01,-9.251536428928375244e-02,1.351483166217803955e-01,-1.927693933248519897e-01,-4.021805524826049805e-01,-3.238470852375030518e-01
-2.510887384414672852e-01,-1.288133710622787476e-01,-6.467958092689514160e-01,-2.137571945786476135e-02,-5.669474005699157715e-01,-1.914540678262710571e-01,-5.604025125503540039e-01,-9.725462198257446289e-01,2.801651954650878906e-01,5.238475799560546875e-01
-1.740371063351631165e-02,-5.477060079574584961e-01,-2.258577793836593628e-01,-1.697165705263614655e-02,-1.928771585226058960e-01,-1.990304887294769287e-01,-6.707978844642639160e-01,-1.543166786432266235e-01,1.344822645187377930e-01,-1.095195040106773376e-01
-2.258900925517082214e-02,-8.138568997383117676e-01,-6.810880899429321289e-01,8.875706046819686890e-02,-8.805884048342704773e-03,-4.567677155137062073e-02,-2.513762116432189941e-01,-7.309706807136535645e-01,1.317012012004852295e-01,-3.076519817113876343e-02
-5.907937288284301758e-01,-5.069795623421669006e-02,-7.197195887565612793e-01,-5.367527157068252563e-02,1.217958405613899231e-01,-3.418646156787872314e-01,-7.349881529808044434e-01,1.315710134804248810e-03,-1.641538552939891815e-02,1.520791202783584595e-01
4.932594671845436096e-02,8.712787181138992310e-02,-8.166470378637313843e-02,8.354356884956359863e-02,-2.779251150786876678e-02,-7.955939322710037231e-02,8.054941147565841675e-02,-6.431522965431213379e-02,9.067513048648834229e-03,-8.354130201041698456e-03
-4.542433917522430420e-01,-4.545559287071228027e-01,2.706898450851440430e-01,3.907235264778137207e-01,-4.035436511039733887e-01,4.263581037521362305e-01,-3.536196947097778320e-01,-2.215240150690078735e-01,-3.996607959270477295e-01,-3.932748138904571533e-01
-6.986740976572036743e-02,-2.102535814046859741e-01,3.171975910663604736e-02,-4.028238356113433838e-01,2.231886684894561768e-01,-5.272068977355957031e-01,-6.443981826305389404e-02,2.071402966976165771e-01,-3.650594353675842285e-01,8.634267747402191162e-02
-6.101789418607950211e-03,5.140528827905654907e-02,8.097778074443340302e-03,5.644562840461730957e-02,-2.918188273906707764e-02,-4.330577328801155090e-02,-1.012628749012947083e-01,-1.083738729357719421e-01,7.551342248916625977e-02,-8.822979778051376343e-02
-9.247850626707077026e-02,9.443133473396301270e-01,-3.134248554706573486e-01,-6.072652935981750488e-01,-6.203565746545791626e-03,-2.634499669075012207e-01,-8.439312875270843506e-02,-3.082931637763977051e-01,-6.205233931541442871e-01,-2.003017067909240723e-01
-2.135110050439834595e-01,-1.414274722337722778e-01,-7.537087202072143555e-01,-6.751369833946228027e-01,1.247956082224845886e-01,-1.086029689759016037e-02,-5.894953608512878418e-01,-2.502892613410949707e-01,1.966990679502487183e-01,4.361771419644355774e-02
2.488215863704681396e-01,-1.542915403842926025e-01,2.317599505186080933e-01,-1.305158495903015137e+00,1.389967799186706543e-01,-7.083172798156738281e-01,-6.813405752182006836e-01,9.196960926055908203e-02,-4.569662511348724365e-01,3.827543929219245911e-02
1.303832530975341797e-01,3.317834734916687012e-01,7.608703523874282837e-02,2.023872137069702148e-01,-4.295211434364318848e-01,-4.845853745937347412e-01,-1.846749484539031982e-01,-3.748158514499664307e-01,-5.346573591232299805e-01,4.598616808652877808e-02
-8.602619171142578125e-02,3.026412799954414368e-02,-1.881152763962745667e-02,-1.061762198805809021e-01,-5.223822221159934998e-02,-1.350642591714859009e-01,-1.758765429258346558e-01,2.129879891872406006e-01,1.443191990256309509e-02,-9.618923068046569824e-03
-2.749766111373901367e-01,4.346759617328643799e-01,-3.218210935592651367e-01,9.253443032503128052e-02,8.303788900375366211e-01,-2.517420053482055664e-01,-1.520153731107711792e-01,-3.771557211875915527e-01,-3.332960903644561768e-01,-7.957729697227478027e-01
-1.492383927106857300e-01,-7.776881754398345947e-02,1.934857368469238281e-01,-1.681189537048339844e-01,-4.442032426595687866e-02,-2.008208632469177246e-02,-2.504967749118804932e-01,5.041683837771415710e-02,8.429721742868423462e-02,-1.828719079494476318e-01
-7.405764460563659668e-01,-3.642760515213012695e-01,2.277941107749938965e-01,6.723805516958236694e-02,-6.051812171936035156e-01,3.280871808528900146e-01,2.778449654579162598e-01,-2.020468413829803467e-01,-1.408612728118896484e-02,-5.515189766883850098e-01
-9.689984470605850220e-02,-3.449288308620452881e-01,1.547989994287490845e-01,-5.501720905303955078e-01,2.196372449398040771e-01,1.242638844996690750e-02,-4.442662000656127930e-02,-4.484210908412933350e-01,-1.890130788087844849e-01,-3.722253739833831787e-01
-1.269561946392059326e-01,-9.985556453466415405e-02,-4.516711831092834473e-01,-2.767117619514465332e-01,-2.209444902837276459e-02,-4.414109513163566589e-03,1.989364624023437500e-01,-1.039976626634597778e-01,-6.409723758697509766e-01,2.243693545460700989e-02
-3.564831241965293884e-02,1.351266913115978241e-02,2.082080580294132233e-02,1.298367828130722046e-01,7.407934218645095825e-02,-7.070694118738174438e-02,3.172725811600685120e-02,-4.247219767421483994e-04,5.875217542052268982e-02,8.547746390104293823e-02
7.269203662872314453e-02,-2.277894690632820129e-02,2.106298804283142090e-01,-2.045770138502120972e-01,-9.844408184289932251e-02,4.024129211902618408e-01,-7.503209710121154785e-01,-4.421195983886718750e-01,-6.863501071929931641e-01,-2.422781288623809814e-01
-3.662450015544891357e-01,-3.748184740543365479e-01,-5.875608325004577637e-01,-6.112096309661865234e-01,-5.946531146764755249e-02,-2.037659138441085815e-01,-5.306811928749084473e-01,2.550342381000518799e-01,1.965538561344146729e-01,-3.315335372462868690e-03
-5.548928976058959961e-01,-2.998250424861907959e-01,2.981713712215423584e-01,-6.162862181663513184e-01,2.533001005649566650e-01,-5.688900351524353027e-01,-3.019545078277587891e-01,-3.065713942050933838e-01,-1.091265797615051270e+00,2.025510817766189575e-01
-7.221005856990814209e-02,-1.872665286064147949e-01,-7.603152990341186523e-01,-3.992883954197168350e-03,2.236396539956331253e-03,-1.919838339090347290e-01,-1.281534321606159210e-02,2.058654725551605225e-01,-7.155935764312744141e-01,2.721436023712158203e-01
-5.599156022071838379e-01,-2.559628486633300781e-01,-3.250508904457092285e-01,-4.468650519847869873e-01,2.117198109626770020e-01,1.423486024141311646e-01,-4.738104045391082764e-01,3.063814640045166016e-01,-4.782041013240814209e-01,1.181580573320388794e-01
-5.825152620673179626e-02,1.439566463232040405e-01,8.637046813964843750e-02,9.382305294275283813e-02,-7.759035378694534302e-02,-8.335879445075988770e-02,-1.278278976678848267e-01,-1.854433268308639526e-01,2.283459994941949844e-03,-5.832058936357498169e-02
-2.792914211750030518e-01,-2.774173021316528320e-01,-2.433301061391830444e-01,-5.880736708641052246e-01,6.230352446436882019e-02,-1.831330806016921997e-01,-1.624243110418319702e-01,-5.937432870268821716e-02,4.448154568672180176e-01,-2.565576434135437012e-01
-3.775315284729003906e-01,5.462746322154998779e-02,1.998628377914428711e-01,1.508380025625228882e-01,-4.546533524990081787e-01,-3.912730515003204346e-01,-3.659134507179260254e-01,4.441878497600555420e-01,-6.571235656738281250e-01,-1.197983145713806152e+00
-1.396041363477706909e-01,-3.042793571949005127e-01,-1.939194947481155396e-01,-3.298214673995971680e-01,8.307989686727523804e-02,-7.738944888114929199e-02,-6.122098565101623535e-01,-1.308892965316772461e-01,1.940444707870483398e-01,2.635660953819751740e-02
-8.093284368515014648e-01,1.087810844182968140e-01,3.014284372329711914e-01,-9.677645564079284668e-02,-9.741225838661193848e-01,-2.002756297588348389e-01,-2.135046720504760742e-01,-1.848526448011398315e-01,-2.501485943794250488e-01,-7.953578829765319824e-01
-5.319212079048156738e-01,-4.867202043533325195e-01,-2.003918141126632690e-01,3.275831043720245361e-01,-8.957816362380981445e-01,-5.778134986758232117e-02,-5.738722681999206543e-01,1.655171811580657959e-01,-3.811166584491729736e-01,-3.969464004039764404e-01
-9.587003290653228760e-02,-3.965150564908981323e-02,1.974043995141983032e-01,-2.524668909609317780e-02,-1.162737533450126648e-01,3.153355419635772705e-01,-3.087827861309051514e-01,2.869300842285156250e-01,-2.963064014911651611e-01,-3.392179906368255615e-01
2.362262904644012451e-01,-1.048239991068840027e-01,-3.425744920969009399e-02,-4.878848791122436523e-01,-1.144223287701606750e-01,5.538800358772277832e-01,-8.095899224281311035e-02,-5.681251361966133118e-02,-3.027227520942687988e-01,-4.010594785213470459e-01
1.130357235670089722e-01,9.295659139752388000e-03,-4.776277765631675720e-02,-1.239420697093009949e-01,2.279514446854591370e-02,4.603467509150505066e-02,-1.057563796639442444e-01,8.752092719078063965e-02,-5.826071277260780334e-02,1.795817725360393524e-02
-2.062291055917739868e-01,-3.340099453926086426e-01,-1.388328820466995239e-01,-2.735167741775512695e-01,5.454036593437194824e-02,-3.763527274131774902e-01,3.108763508498668671e-02,-8.555096983909606934e-01,-5.755085125565528870e-02,-1.415749073028564453e+00
3.116843057796359062e-03,-4.217709302902221680e-01,-8.713969588279724121e-01,1.912171393632888794e-01,-6.640570163726806641e-01,2.846397757530212402e-01,1.736370474100112915e-02,-1.053262472152709961e+00,-6.798458844423294067e-02,-1.984844803810119629e-01
-1.454676091670989990e-01,3.029825389385223389e-01,-3.368820250034332275e-01,5.521255731582641602e-01,-4.286516010761260986e-01,1.365000456571578979e-01,-3.528346121311187744e-01,-6.343758106231689453e-01,-6.683918833732604980e-01,1.160203814506530762e-01
-3.227681517601013184e-01,-3.140936493873596191e-01,-3.559412658214569092e-01,7.404711097478866577e-02,5.935101583600044250e-02,-6.757509708404541016e-01,1.168810948729515076e-01,2.697568535804748535e-01,-1.969631314277648926e-01,-9.609670192003250122e-02
-2.390075922012329102e-01,-2.192356884479522705e-01,-1.716345995664596558e-01,-1.122766286134719849e-01,-2.670466303825378418e-01,-3.009697794914245605e-01,-3.308039009571075439e-01,7.090097069740295410e-01,-6.778838038444519043e-01,-3.938502967357635498e-01
-2.098907679319381714e-01,3.955674171447753906e-01,8.421356976032257080e-02,-1.349457055330276489e-01,4.135326743125915527e-01,-8.891765028238296509e-02,-4.287410974502563477e-01,-6.331524252891540527e-01,-6.763853430747985840e-01,-3.319367766380310059e-01
-1.980388164520263672e-02,-6.560060381889343262e-01,9.709097445011138916e-02,-3.415402173995971680e-01,-1.058073282241821289e+00,-4.592077434062957764e-01,-1.847725659608840942e-01,-3.797588944435119629e-01,3.037258423864841461e-02,6.508906483650207520e-01
-7.252209633588790894e-02,-3.355031013488769531e-01,-2.436447292566299438e-01,3.345501720905303955e-01,-4.947826266288757324e-02,9.839083999395370483e-02,-3.519436120986938477e-01,-5.759341120719909668e-01,-3.823304772377014160e-01,3.060163855552673340e-01
-4.259241819381713867e-01,-2.908997535705566406e-01,1.501747518777847290e-01,-3.664374053478240967e-01,2.786967158317565918e-02,-1.365594148635864258e+00,-1.087875723838806152e+00,-3.587893545627593994e-01,-1.780579388141632080e-01,1.912659406661987305e-02
-2.023337185382843018e-01,1.256266087293624878e-01,-6.348146200180053711e-01,-1.868048757314682007e-01,2.431680113077163696e-01,-1.084098815917968750e+00,-5.266347527503967285e-02,-3.539426028728485107e-01,-7.639800906181335449e-01,-3.378251194953918457e-01
-5.605893582105636597e-02,1.710685342550277710e-01,-6.964919567108154297e-01,-6.547546386718750000e-02,4.034512341022491455e-01,-4.050383567810058594e-01,-1.013985797762870789e-01,-1.100215986371040344e-01,-1.084964632987976074e+00,2.989378571510314941e-01
-1.342457681894302368e-01,-2.066264450550079346e-01,-2.617000639438629150e-01,-7.782976627349853516e-01,-6.150886416435241699e-01,6.563648581504821777e-02,2.507771551609039307e-01,-3.120274841785430908e-01,4.947872087359428406e-02,-2.249301522970199585e-01
-4.156806170940399170e-01,1.038753166794776917e-01,3.288860917091369629e-01,-4.543084204196929932e-01,-3.015031218528747559e-01,1.102224290370941162e-01,-1.891252994537353516e-01,-7.832895964384078979e-02,9.523645788431167603e-02,-5.918282642960548401e-02
-5.524421855807304382e-02,-8.474218100309371948e-02,4.136306047439575195e-01,-1.388437002897262573e-01,-6.707638502120971680e-01,-2.018936425447463989e-01,-1.745524108409881592e-01,3.034330308437347412e-01,-2.053571492433547974e-01,-1.495788395404815674e-01
2.785711288452148438e-01,-4.004417657852172852e-01,-4.984217286109924316e-01,-6.116737127304077148e-01,-6.458338499069213867e-01,-5.433062911033630371e-01,-1.202912554144859314e-01,-2.651592195034027100e-01,1.575396656990051270e-01,-2.937793135643005371e-01
-2.476732283830642700e-01,4.135185107588768005e-02,-4.190429151058197021e-01,-7.171571254730224609e-01,2.869318425655364990e-01,-4.931807145476341248e-02,-4.811544716358184814e-01,-3.137900829315185547e-01,-7.687892913818359375e-01,3.101374208927154541e-01
-2.394780069589614868e-01,1.672895252704620361e-01,8.334459364414215088e-02,-2.504204027354717255e-02,-2.690229117870330811e-01,9.594679623842239380e-02,-1.497641801834106445e-01,-5.935761332511901855e-01,-1.271937601268291473e-02,-2.189212888479232788e-01
-9.094773530960083008e-01,-1.008241847157478333e-01,1.392571181058883667e-01,2.951925992965698242e-01,-7.057668566703796387e-01,-2.214647084474563599e-02,-5.722310543060302734e-01,-3.464999496936798096e-01,-1.429996639490127563e-01,-5.051022768020629883e-01
-1.565223187208175659e-01,-5.102635920047760010e-02,-2.755794525146484375e-01,4.513379558920860291e-02,4.007162526249885559e-02,-3.591400682926177979e-01,-2.789789736270904541e-01,-2.196381092071533203e-01,1.759685575962066650e-02,-6.930236518383026123e-02
-5.445318222045898438e-01,-5.791875123977661133e-01,2.742445170879364014e-01,1.517053097486495972e-01,-1.014031529426574707e+00,-4.062037449330091476e-03,-9.506412148475646973e-01,1.809720993041992188e-01,-5.307537913322448730e-01,-8.722755908966064453e-01
9.261929988861083984e-02,-6.189400330185890198e-02,6.904581934213638306e-02,6.575579196214675903e-02,-4.432001337409019470e-02,-1.055985409766435623e-02,-8.508083969354629517e-02,-4.195671528577804565e-02,-1.237792521715164185e-02,-8.851390331983566284e-02
-3.323096334934234619e-01,-2.444545626640319824e-01,-2.565290927886962891e-01,-3.605002462863922119e-01,1.836838275194168091e-01,-1.628826111555099487e-01,-2.702299654483795166e-01,6.495095491409301758e-01,-8.096548169851303101e-02,-5.607375502586364746e-01
-1.271620765328407288e-02,-2.970202565193176270e-01,-6.302413344383239746e-01,1.923142075538635254e-01,1.554534137248992920e-01,-4.899747073650360107e-01,-4.176030755043029785e-01,-6.580573320388793945e-01,1.859031766653060913e-01,1.521723270416259766e-01
-9.583645313978195190e-02,9.135519713163375854e-02,-1.796126812696456909e-01,-1.256557404994964600e-01,-2.161859124898910522e-01,-2.991351783275604248e-01,-2.242847532033920288e-02,7.997368574142456055e-01,-1.843309998512268066e-01,-5.370534658432006836e-01
3.623449504375457764e-01,-2.200479358434677124e-01,-7.641052603721618652e-01,-3.741706013679504395e-01,-8.412003517150878906e-02,-6.872830390930175781e-01,1.726731657981872559e-01,4.621561989188194275e-02,-2.560316920280456543e-01,-5.011684894561767578e-01
-4.015763103961944580e-02,2.634243071079254150e-01,-2.826829850673675537e-01,-2.131429165601730347e-01,-4.198959097266197205e-02,1.526200473308563232e-01,-2.108896225690841675e-01,-1.875704377889633179e-01,-1.587083488702774048e-01,2.080704867839813232e-01
-2.806855440139770508e-01,-4.053012132644653320e-01,-9.709365665912628174e-02,-1.909683644771575928e-01,1.631021052598953247e-01,-1.928424388170242310e-01,-1.442428082227706909e-01,-6.915271878242492676e-01,4.418867528438568115e-01,-3.506803810596466064e-01
4.204125329852104187e-02,-3.455357253551483154e-01,-8.850606530904769897e-02,2.859571576118469238e-01,-4.345031678676605225e-01,4.558471962809562683e-02,-1.685609966516494751e-01,-2.549461722373962402e-01,-7.075388431549072266e-01,-6.260687112808227539e-01
-3.850254118442535400e-01,-4.232800900936126709e-01,-6.005816459655761719e-01,-5.183556675910949707e-01,1.067477464675903320e-01,-3.658206760883331299e-02,1.872031204402446747e-02,-5.503211021423339844e-01,1.236814931035041809e-01,1.769125759601593018e-01
4.754072427749633789e-02,-5.221663713455200195e-01,2.771233022212982178e-01,-3.065369464457035065e-02,-6.091536879539489746e-01,7.127018272876739502e-02,-6.551948785781860352e-01,-1.398965716361999512e-01,-8.384041786193847656e-01,3.493456244468688965e-01
-1.508653163909912109e-01,7.950495183467864990e-02,-1.859181672334671021e-01,-3.886735811829566956e-02,1.333102732896804810e-01,-2.265827059745788574e-01,-3.711547255516052246e-01,-5.613533034920692444e-02,2.065776102244853973e-02,3.291977345943450928e-01
-8.770511746406555176e-01,-2.010139636695384979e-02,4.079817533493041992e-01,-4.663933515548706055e-01,-4.001491367816925049e-01,2.471216768026351929e-01,-4.691754281520843506e-01,3.197237253189086914e-01,-4.904695451259613037e-01,-9.648069143295288086e-01
-6.099117994308471680e-01,-4.821664094924926758e-01,-2.366385310888290405e-01,-4.732507169246673584e-01,-2.738015651702880859e-01,-1.043756723403930664e+00,2.771165370941162109e-01,1.103276908397674561e-01,3.531740307807922363e-01,-8.614085614681243896e-02
9.989628195762634277e-02,-1.404895931482315063e-01,-1.410087347030639648e-01,-7.785820960998535156e-01,-4.589653313159942627e-01,-4.736696779727935791e-01,-4.361618682742118835e-02,-1.346692442893981934e-01,4.882278442382812500e-01,-1.231011748313903809e+00
-2.023970633745193481e-01,-2.185122519731521606e-01,-6.128966808319091797e-01,-8.739590644836425781e-01,-3.524656295776367188e-01,-2.460454553365707397e-01,3.462280929088592529e-01,-4.540494680404663086e-01,4.893311113119125366e-02,6.714551150798797607e-02
-7.706084251403808594e-01,-6.185271143913269043e-01,-7.896149754524230957e-01,-1.810616441071033478e-02,-3.585821986198425293e-01,4.121097922325134277e-01,9.943399578332901001e-02,3.310098499059677124e-02,-8.138357102870941162e-02,-1.263127774000167847e-01
1.344162672758102417e-01,-3.480257093906402588e-01,3.339792788028717041e-01,-3.822729587554931641e-01,-1.229480281472206116e-01,-5.591661110520362854e-02,1.268110871315002441e-01,-3.431291282176971436e-01,-2.645119726657867432e-01,-1.256882846355438232e-01
-4.612917304039001465e-01,-6.667416542768478394e-02,4.279535263776779175e-02,9.405462443828582764e-02,-9.227327704429626465e-01,-3.986996114253997803e-01,-3.349224627017974854e-01,1.683632433414459229e-01,-2.504900991916656494e-01,-4.997454285621643066e-01
-4.472053144127130508e-03,1.926859319210052490e-01,-3.092367947101593018e-01,-2.101124823093414307e-01,-1.877132058143615723e-01,6.843169033527374268e-02,-3.306142687797546387e-01,-1.889312863349914551e-01,1.978507786989212036e-01,-1.649563610553741455e-01
1.773347109556198120e-01,-7.945125980768352747e-05,-2.125139683485031128e-01,-4.079732894897460938e-01,-1.758124679327011108e-01,-4.642886519432067871e-01,2.093676626682281494e-01,-1.814436912536621094e-01,-3.892951309680938721e-01,6.248934566974639893e-02
-1.699600368738174438e-01,1.561436951160430908e-01,-1.780800074338912964e-01,-7.514525204896926880e-02,-1.235471442341804504e-01,-2.426180839538574219e-01,-1.962469518184661865e-01,1.197853907942771912e-01,1.139630004763603210e-02,-1.764009892940521240e-01
1.506329327821731567e-01,-3.206685483455657959e-01,-4.313897192478179932e-01,-4.820303618907928467e-01,-7.633019089698791504e-01,-5.233072489500045776e-02,-4.370763003826141357e-01,2.383894845843315125e-02,1.797157824039459229e-01,-7.201634347438812256e-02
-4.772253632545471191e-01,-4.646022021770477295e-01,-1.086963772773742676e+00,-1.493913680315017700e-02,4.692550301551818848e-01,-1.880047172307968140e-01,-4.538651406764984131e-01,1.089812070131301880e-01,-8.646581172943115234e-01,4.301912486553192139e-01
-2.363457977771759033e-01,-1.582263261079788208e-01,-3.509978353977203369e-01,-3.791943788528442383e-01,-8.082581162452697754e-01,2.590195536613464355e-01,6.929010897874832153e-02,1.792154759168624878e-01,1.686657369136810303e-01,-3.184162378311157227e-01
-3.220105171203613281e-01,3.192231804132461548e-02,-6.177441775798797607e-02,-7.681756019592285156e-01,-2.788984775543212891e-01,-1.942324042320251465e-01,3.903050720691680908e-02,-1.074698716402053833e-01,8.064599335193634033e-02,-4.860139787197113037e-01
4.974490031599998474e-02,-2.388617396354675293e-01,4.126658141613006592e-01,-5.312173962593078613e-01,3.015815019607543945e-01,-9.105919003486633301e-01,-3.868033885955810547e-01,-1.757139861583709717e-01,-5.845932960510253906e-01,-3.858265280723571777e-01
-3.653558194637298584e-01,-2.311960309743881226e-01,-1.605221480131149292e-01,2.949136495590209961e-01,2.066788077354431152e-01,7.205839455127716064e-02,-3.829703032970428467e-01,-2.783965170383453369e-01,-2.666428685188293457e-01,-1.462890505790710449e-01
5.202413536608219147e-03,-1.695157214999198914e-02,3.092001080513000488e-01,-6.982907056808471680e-01,-1.009184345602989197e-01,1.128463000059127808e-01,-2.475634515285491943e-01,-3.547364771366119385e-01,-6.624245047569274902e-01,-3.309523165225982666e-01
5.591286346316337585e-02,-1.627271026372909546e-01,-2.620367407798767090e-01,-9.567170590162277222e-02,-6.352195143699645996e-01,1.550225168466567993e-01,7.529489696025848389e-02,2.021900415420532227e-01,8.749182336032390594e-03,-4.444609880447387695e-01
-3.523431718349456787e-01,1.139981150627136230e-01,-1.883724927902221680e-01,1.824771761894226074e-01,-1.583665795624256134e-02,5.555822253227233887e-01,-1.592334359884262085e-01,-2.799511253833770752e-01,-2.269732803106307983e-01,-1.494864821434020996e-01
-6.963841617107391357e-02,-1.668301671743392944e-01,5.476495623588562012e-02,-1.630898565053939819e-01,3.181169331073760986e-01,3.259386867284774780e-02,-7.178127765655517578e-01,2.317084819078445435e-01,-4.231082797050476074e-01,-2.047654092311859131e-01
-5.325791239738464355e-01,-6.530104875564575195e-01,-9.928147196769714355e-01,-4.105154275894165039e-01,1.896360516548156738e-01,-3.366386592388153076e-01,-4.347209930419921875e-01,3.203307986259460449e-01,-9.907263517379760742e-01,2.713023126125335693e-01
-4.995599687099456787e-01,-2.329011410474777222e-01,-3.184804618358612061e-01,-4.787595570087432861e-01,3.452489525079727173e-02,6.170327067375183105e-01,2.556808888912200928e-01,-3.953232371713966131e-04,-5.709246397018432617e-01,-1.567040681838989258e-01
-3.642772436141967773e-01,2.071939706802368164e-01,-3.558299839496612549e-01,5.097609758377075195e-02,6.431873887777328491e-02,-7.868648320436477661e-02,-1.698964685201644897e-01,3.471854031085968018e-01,-4.548807442188262939e-01,-5.932985544204711914e-01
-8.715046942234039307e-02,3.399515450000762939e-01,-1.345289945602416992e-01,1.366502940654754639e-01,9.493865817785263062e-02,-6.408232450485229492e-02,-7.265770435333251953e-02,-3.867236375808715820e-01,-8.508499711751937866e-02,-3.687528073787689209e-01
-1.791468560695648193e-01,-8.577217161655426025e-02,-6.129865050315856934e-01,4.657213091850280762e-01,-2.620831727981567383e-01,4.490996897220611572e-01,-2.984608411788940430e-01,-2.574090659618377686e-01,-9.418999552726745605e-01,-1.904755830764770508e-01
-3.770810365676879883e-02,-8.542298525571823120e-02,3.349449858069419861e-02,5.242028459906578064e-02,-2.809938788414001465e-02,-6.767762452363967896e-02,-6.718385033309459686e-03,-9.028150141239166260e-02,-3.242154419422149658e-02,-9.503752738237380981e-02
-7.946123182773590088e-02,1.144792232662439346e-02,1.598796099424362183e-01,-8.699402809143066406e-01,-3.869471326470375061e-02,-3.919769227504730225e-01,-2.950439751148223877e-01,6.502159684896469116e-02,-7.252668142318725586e-01,-2.594289481639862061e-01
-9.666109085083007812e-02,-7.938258647918701172e-01,-4.674774110317230225e-01,8.726941049098968506e-02,-7.046198248863220215e-01,-1.698099523782730103e-01,-5.683942437171936035e-01,-4.227372407913208008e-01,2.007024139165878296e-01,1.782622933387756348e-01
-3.987124860286712646e-01,-5.101693794131278992e-02,-3.090998530387878418e-01,-1.743590086698532104e-01,-3.872388303279876709e-01,-1.162622645497322083e-01,-7.382758706808090210e-02,-1.660472154617309570e-01,2.652769722044467926e-02,-9.274008274078369141e-01
-9.466150775551795959e-03,-1.997458934783935547e-02,1.363067179918289185e-01,-5.095850825309753418e-01,-2.332471162080764771e-01,-4.799736738204956055e-01,-1.489335596561431885e-01,4.798131287097930908e-01,-3.699315190315246582e-01,-6.988621354103088379e-01
-3.981181383132934570e-01,-2.021919786930084229e-01,-9.736853241920471191e-01,-1.878946460783481598e-02,-4.719350039958953857e-01,4.559265673160552979e-01,-1.742921322584152222e-01,-3.147036731243133545e-01,1.221251338720321655e-01,-3.151274621486663818e-01
4.517709612846374512e-01,-2.153081446886062622e-01,-3.596849367022514343e-02,-5.197657942771911621e-01,-4.580138623714447021e-01,-2.657326161861419678e-01,-3.899938762187957764e-01,-5.543926358222961426e-01,5.014131665229797363e-01,-3.808909356594085693e-01
-5.098516941070556641e-01,-4.334928467869758606e-03,1.811969727277755737e-01,-4.559857249259948730e-01,-1.450624465942382812e-01,-3.926760852336883545e-01,2.787136137485504150e-01,-6.576343774795532227e-01,-3.478767722845077515e-02,2.504352033138275146e-01
-5.094860866665840149e-02,-5.942370295524597168e-01,-5.591957569122314453e-01,1.019013524055480957e-01,-3.511077761650085449e-01,1.147691756486892700e-01,-3.083757460117340088e-01,-1.519822329282760620e-01,1.666171401739120483e-01,-1.586969345808029175e-01
-3.342792093753814697e-01,-3.756688907742500305e-02,-9.679707884788513184e-02,-7.759028673171997070e-01,-4.870789945125579834e-01,3.473048806190490723e-01,-9.385510534048080444e-02,-1.516501698642969131e-02,-4.621180593967437744e-01,2.574074268341064453e-01
-2.738365828990936279e-01,-1.061734557151794434e-01,-8.271715044975280762e-02,-1.405635178089141846e-01,-3.339600861072540283e-01,-6.178575158119201660e-01,-1.004436016082763672e+00,-3.580568730831146240e-02,-1.373577564954757690e-01,-3.175913691520690918e-01
2.436553686857223511e-02,-3.569360971450805664e-01,4.460267350077629089e-02,-1.285486505366861820e-03,-1.501047730445861816e+00,-1.236470788717269897e-01,-1.467392891645431519e-01,-8.914127945899963379e-01,1.655232743360102177e-03,-7.380347251892089844e-01
-5.230332016944885254e-01,-9.100031107664108276e-02,1.366544663906097412e-01,-3.555065691471099854e-01,1.419934928417205811e-01,-1.664884835481643677e-01,-2.603570520877838135e-01,-1.236549317836761475e-01,3.600964248180389404e-01,-1.055270791053771973e+00
-9.320841729640960693e-02,-3.449123501777648926e-01,-4.665815234184265137e-01,-4.716467261314392090e-01,5.696722269058227539e-01,-2.859881520271301270e-01,-2.329344004392623901e-01,3.395565748214721680e-01,-5.814781785011291504e-01,-9.465969800949096680e-01
1.714179813861846924e-01,-1.949604302644729614e-01,1.507904827594757080e-01,3.532055020332336426e-02,-4.472823739051818848e-01,-3.217070996761322021e-01,1.249620020389556885e-01,-9.277381300926208496e-01,-3.776384592056274414e-01,-4.430029988288879395e-01
2.335976958274841309e-01,-2.933002412319183350e-01,2.158695906400680542e-01,-6.851733922958374023e-01,-2.764066159725189209e-01,-4.191575646400451660e-01,1.543439626693725586e-01,-3.754695951938629150e-01,7.214718312025070190e-02,-1.984585672616958618e-01
2.467400282621383667e-01,6.160001456737518311e-02,-2.821703255176544189e-01,-3.343213498592376709e-01,-4.761529713869094849e-02,3.393296003341674805e-01,-1.839890331029891968e-01,5.731004476547241211e-01,-5.497863888740539551e-01,-5.379870533943176270e-01
-6.148069500923156738e-01,-2.992174327373504639e-01,1.728735119104385376e-01,-1.593749821186065674e-01,-1.229107826948165894e-01,1.652106344699859619e-01,5.661028251051902771e-02,-3.208245933055877686e-01,-7.046037167310714722e-02,-8.159519433975219727e-01
-3.439748287200927734e-01,-1.265750229358673096e-01,6.626298278570175171e-02,-5.966790318489074707e-01,-5.525792837142944336e-01,-5.105667710304260254e-01,2.101743221282958984e-01,-3.947580456733703613e-01,2.475946098566055298e-01,-5.309932231903076172e-01
-8.207073062658309937e-02,9.307145327329635620e-02,9.368838369846343994e-02,-8.656777739524841309e-01,-5.245869159698486328e-01,-5.594220161437988281e-01,-1.026867702603340149e-01,-4.629472792148590088e-01,4.415048658847808838e-01,-4.590030312538146973e-01
7.544703781604766846e-02,-4.927137792110443115e-01,-8.172287344932556152e-01,-9.948722124099731445e-01,1.225009486079216003e-01,-8.602481335401535034e-02,9.927175194025039673e-02,-3.946160078048706055e-01,-3.787206709384918213e-01,1.037784013897180557e-02
-1.678171008825302124e-01,-2.481982111930847168e-01,1.221251934766769409e-01,3.834992647171020508e-01,-2.292281985282897949e-01,3.050865530967712402e-01,-4.421368837356567383e-01,-4.691377282142639160e-01,4.521561786532402039e-02,-3.904919624328613281e-01
1.313303261995315552e-01,-4.187858998775482178e-01,9.087592363357543945e-02,-1.019430980086326599e-01,-5.954542160034179688e-01,8.793234825134277344e-02,9.522505849599838257e-02,-1.214966654777526855e+00,1.051332987844944000e-02,-5.455188155174255371e-01
5.715273320674896240e-02,1.206433773040771484e-01,4.991665482521057129e-01,-7.713690996170043945e-01,-4.709085524082183838e-01,-9.081824123859405518e-02,-5.135935544967651367e-01,5.310290306806564331e-02,-1.081751346588134766e+00,-1.201500222086906433e-01
-3.736067712306976318e-01,-6.123015284538269043e-01,2.364337295293807983e-01,3.907381296157836914e-01,-4.766257405281066895e-01,2.147137820720672607e-01,-8.472749590873718262e-01,1.093460321426391602e-01,-5.137978196144104004e-01,-5.905900001525878906e-01
1.196210458874702454e-01,-1.232014149427413940e-01,-4.057557880878448486e-01,-1.265431791543960571e-01,-2.292116433382034302e-01,6.111528724431991577e-02,4.977271556854248047e-01,-2.033287286758422852e-01,-6.962016224861145020e-01,-1.894706189632415771e-01
1.189559698104858398e-02,-9.308750033378601074e-01,-1.081507280468940735e-01,-2.224135249853134155e-01,-8.086224198341369629e-01,-1.929254978895187378e-01,-2.124847918748855591e-01,-7.070878744125366211e-01,6.078707426786422729e-02,-1.783010549843311310e-02
7.171822339296340942e-02,-5.324106290936470032e-02,-9.317083656787872314e-02,1.037703305482864380e-01,3.584596887230873108e-02,1.266709994524717331e-02,-4.479957744479179382e-02,-1.460394710302352905e-01,4.020584002137184143e-02,-2.198322489857673645e-02
-3.695729374885559082e-01,2.067700028419494629e-01,-3.752081096172332764e-01,-2.689660787582397461e-01,-2.975427806377410889e-01,1.581709980964660645e-01,-1.101752892136573792e-01,-5.219217538833618164e-01,1.334333717823028564e-01,-3.056088685989379883e-01
-3.244150578975677490e-01,-1.785890161991119385e-01,4.420343637466430664e-01,-8.255109190940856934e-02,-4.258273839950561523e-01,2.114504575729370117e-01,-5.411412119865417480e-01,-5.305238068103790283e-02,-7.316027283668518066e-01,-4.884290695190429688e-01
-1.291331648826599121e-01,1.950206309556961060e-01,-1.015818476676940918e+00,-3.854148983955383301e-01,5.287376418709754944e-02,2.492904514074325562e-01,-4.274625182151794434e-01,8.424805849790573120e-02,-7.319628596305847168e-01,7.909256964921951294e-02
3.188916668295860291e-02,3.293392956256866455e-01,-1.788308173418045044e-01,-4.314753115177154541e-01,-3.072646446526050568e-02,2.677909433841705322e-01,1.106675490736961365e-01,-2.149496674537658691e-01,-3.495571315288543701e-01,-4.680311083793640137e-01
-1.154592707753181458e-01,3.971176221966743469e-02,-3.581317961215972900e-01,-4.058407843112945557e-01,-6.236092373728752136e-02,-3.459684848785400391e-01,-2.718567848205566406e-01,-3.365318775177001953e-01,-8.410093188285827637e-01,7.304629087448120117e-01
-1.692028939723968506e-01,-5.497826337814331055e-01,7.710397243499755859e-02,1.479197060689330101e-03,-1.062685012817382812e+00,-4.663489162921905518e-01,-7.411311864852905273e-01,8.511863648891448975e-03,-7.613103389739990234e-01,3.844421207904815674e-01
-1.963489055633544922e-01,4.460331499576568604e-01,-6.932096481323242188e-01,-5.020145177841186523e-01,-2.879982292652130127e-01,5.831335783004760742e-01,-6.499717384576797485e-02,-4.697332382202148438e-01,1.028086896985769272e-02,-1.676954180002212524e-01
-3.211996853351593018e-01,2.907048538327217102e-02,-1.468924432992935181e-01,5.485671758651733398e-01,-6.700218915939331055e-01,3.056387305259704590e-01,-5.073206424713134766e-01,6.954815238714218140e-02,-9.501427412033081055e-01,-1.576124876737594604e-02
-5.772852301597595215e-01,-5.338428020477294922e-01,-8.637909293174743652e-01,-4.813359975814819336e-01,-6.920620203018188477e-01,4.603954255580902100e-01,-6.119723320007324219e-01,2.397054135799407959e-01,8.194012194871902466e-02,1.429011225700378418e-01
-2.441125959157943726e-01,2.398348972201347351e-02,-1.979526877403259277e-01,-4.778973460197448730e-01,-6.658502668142318726e-02,-1.452515572309494019e-01,4.246657341718673706e-02,-4.399129152297973633e-01,1.088322401046752930e-01,-2.218417227268218994e-01
-2.991741597652435303e-01,4.009647369384765625e-01,8.116798847913742065e-02,-4.037885963916778564e-01,-5.965423583984375000e-01,2.499196678400039673e-01,-1.399501115083694458e-01,-1.598121225833892822e-01,-7.475701570510864258e-01,-4.295011758804321289e-01
3.818414360284805298e-02,-4.390095770359039307e-01,-1.929690539836883545e-01,-9.564198255538940430e-01,-5.401300191879272461e-01,-2.772099524736404419e-02,2.880650162696838379e-01,-6.434038877487182617e-01,2.369766533374786377e-01,-3.758126869797706604e-02
-3.486118912696838379e-01,-3.045213520526885986e-01,-2.328359521925449371e-02,9.574665129184722900e-02,-5.078226327896118164e-01,1.855396926403045654e-01,-5.036431550979614258e-01,-1.468063294887542725e-01,-3.887027204036712646e-01,3.673020601272583008e-01
-8.836027979850769043e-02,5.655011907219886780e-02,-2.537029981613159180e-01,2.571443915367126465e-01,8.099147677421569824e-02,-2.990665137767791748e-01,1.809606701135635376e-01,7.575203198939561844e-03,-6.644954681396484375e-01,-1.350837498903274536e-01
-1.489785015583038330e-01,-2.681164443492889404e-01,-1.892270147800445557e-01,-3.678838908672332764e-01,1.162303388118743896e-01,-6.794716119766235352e-01,3.389979153871536255e-02,8.545866608619689941e-02,-5.664308667182922363e-01,5.029670149087905884e-02
-4.720977321267127991e-02,6.461808085441589355e-02,5.753877013921737671e-02,-6.277720332145690918e-01,1.545698642730712891e-01,8.615530095994472504e-03,-5.782293677330017090e-01,-3.375989794731140137e-01,-3.493546247482299805e-01,-2.629605233669281006e-01
-2.901734113693237305e-01,-8.865957856178283691e-01,-1.344781368970870972e-01,1.673735231161117554e-01,-9.329903870820999146e-02,-5.662989616394042969e-02,-2.377858571708202362e-02,-1.238942891359329224e-01,-1.846633851528167725e-01,-5.767999887466430664e-01
-3.857993185520172119e-01,-2.334793061017990112e-01,-2.533041127026081085e-02,2.839581668376922607e-01,-4.957793653011322021e-01,-2.645738720893859863e-01,-2.738261222839355469e-01,3.405241668224334717e-01,-5.563059821724891663e-03,-7.795017957687377930e-01
-4.168945550918579102e-01,3.199470341205596924e-01,-6.363945007324218750e-01,-5.601575374603271484e-01,1.273663341999053955e-01,2.120633274316787720e-01,-3.638862967491149902e-01,-2.537634372711181641e-01,1.449146270751953125e-01,-3.176584243774414062e-01
4.294324219226837158e-01,-5.687231943011283875e-02,-1.892511844635009766e-01,-8.080302923917770386e-02,-1.227817833423614502e-01,-8.640331029891967773e-01,-4.257027804851531982e-01,9.579642117023468018e-02,-3.425951898097991943e-01,1.936889812350273132e-02
-2.666958868503570557e-01,2.689613401889801025e-01,-9.048693627119064331e-02,-2.847210168838500977e-01,1.389794051647186279e-01,3.599804937839508057e-01,-1.180798709392547607e-01,-3.764020204544067383e-01,-4.534333646297454834e-01,-1.229299306869506836e-01
-4.519260227680206299e-01,-2.003660649061203003e-01,-4.178989306092262268e-02,-4.083556532859802246e-01,1.571435332298278809e-01,-4.338303506374359131e-01,-4.401776790618896484e-01,2.285847365856170654e-01,-4.197493791580200195e-01,3.465089201927185059e-01
8.230976015329360962e-02,-1.986455172300338745e-01,-8.270204067230224609e-01,-1.270613372325897217e-01,9.276020340621471405e-03,-1.525251865386962891e-01,-1.276197731494903564e-01,-2.866780161857604980e-01,-1.104816675186157227e+00,2.517329994589090347e-03
-1.353326588869094849e-01,-5.919667482376098633e-01,2.745755612850189209e-01,-4.233578965067863464e-02,-4.536838829517364502e-01,-4.979586303234100342e-01,3.004548251628875732e-01,9.435282647609710693e-02,-3.569383919239044189e-01,-2.213939428329467773e-01
-1.162083223462104797e-01,-7.551141828298568726e-02,-8.634461760520935059e-01,-6.454994678497314453e-01,1.468212902545928955e-01,-2.904099225997924805e-01,-8.389420509338378906e-01,-4.509887993335723877e-01,-1.238087415695190430e-01,-1.257487982511520386e-01
2.776217833161354065e-02,-5.211510136723518372e-02,4.544329270720481873e-02,-8.254937827587127686e-02,5.823843553662300110e-02,-2.753345482051372528e-02,-8.678697049617767334e-02,-1.030236035585403442e-01,3.533438593149185181e-02,3.783571720123291016e-02
-3.413332700729370117e-01,-1.802584230899810791e-01,7.135869935154914856e-03,1.152588725090026855e-01,-2.540001273155212402e-01,1.469218730926513672e-01,-7.673804759979248047e-01,-5.119401216506958008e-01,-2.702496945858001709e-02,-2.508673667907714844e-01
-5.020354986190795898e-01,-4.378278851509094238e-01,-5.785267949104309082e-01,-7.747288346290588379e-01,-8.822489380836486816e-01,2.215508520603179932e-01,2.523329555988311768e-01,6.859299540519714355e-02,-1.835233271121978760e-01,1.774608492851257324e-01
-1.631534248590469360e-01,-1.119262501597404480e-01,-6.095942258834838867e-01,-3.081965148448944092e-01,-4.190961718559265137e-01,4.128328561782836914e-01,-1.466586440801620483e-01,-2.940677106380462646e-01,1.595709659159183502e-02,-6.202294304966926575e-02
-8.696171045303344727e-01,1.137479618191719055e-01,-2.244203686714172363e-01,3.445720970630645752e-01,-3.633078038692474365e-01,3.441280424594879150e-01,-1.088906764984130859e+00,-5.782652497291564941e-01,-7.611050605773925781e-01,3.657929003238677979e-01
-1.810192316770553589e-01,-5.283640027046203613e-01,1.321154087781906128e-01,-2.876327335834503174e-01,3.620822727680206299e-01,-3.323741257190704346e-01,1.749221831560134888e-01,3.401458635926246643e-02,-3.186694085597991943e-01,-9.062515497207641602e-01
-5.319971963763237000e-02,2.098390758037567139e-01,-7.995445132255554199e-01,-4.969134032726287842e-01,-5.223293304443359375e-01,2.718162238597869873e-01,-8.267559111118316650e-02,-2.742976546287536621e-01,-1.125977635383605957e-01,-2.156023085117340088e-01
-3.598188757896423340e-01,1.364139467477798462e-02,5.546631291508674622e-02,-1.012405872344970703e+00,-4.466259479522705078e-02,-6.840351819992065430e-01,2.746054204180836678e-03,-1.189253553748130798e-01,4.497984424233436584e-02,-9.642052054405212402e-01
-4.593346416950225830e-01,-1.026799976825714111e-01,-4.854420423507690430e-01,-7.252501845359802246e-01,2.022238448262214661e-02,-8.852399587631225586e-01,1.940068602561950684e-01,2.565767168998718262e-01,-2.529911994934082031e-01,1.085548624396324158e-01
-1.426098793745040894e-01,4.594852924346923828e-01,-2.429575622081756592e-01,-1.376336365938186646e-01,-1.921262592077255249e-01,-9.417192637920379639e-02,1.993755102157592773e-01,1.971303299069404602e-02,-5.989406108856201172e-01,-1.290047317743301392e-01
-8.688292503356933594e-01,-1.995565891265869141e-01,-3.061428666114807129e-01,-1.916777715086936951e-02,-3.988341391086578369e-01,-5.877205729484558105e-01,-3.612971901893615723e-01,2.274047583341598511e-01,-1.034819707274436951e-01,-1.168644666671752930e+00
-2.631822228431701660e-01,-1.459687352180480957e-01,-2.266377657651901245e-01,-5.847259163856506348e-01,-6.427278518676757812e-01,7.849404215812683105e-01,-2.929838560521602631e-02,-1.884665638208389282e-01,-4.980948567390441895e-01,1.383015662431716919e-01
-2.823393642902374268e-01,-3.302733004093170166e-01,1.041081026196479797e-01,-6.842884421348571777e-01,1.229561567306518555e-01,-4.137991368770599365e-01,1.994700878858566284e-01,-4.892276525497436523e-01,-1.117766380310058594e+00,2.148927301168441772e-01
-3.262120485305786133e-01,3.430942893028259277e-01,2.427534759044647217e-02,-5.026259422302246094e-01,-2.569825053215026855e-01,-2.717786133289337158e-01,-7.056243717670440674e-02,2.161912471055984497e-01,-5.110818743705749512e-01,-1.007392048835754395e+00
6.712645292282104492e-02,-1.358140558004379272e-01,-1.548481285572052002e-01,-2.784475088119506836e-01,-2.851125001907348633e-01,-8.735100179910659790e-02,-1.424793303012847900e-01,-9.646680355072021484e-01,-2.529236376285552979e-01,-1.303001761436462402e+00
-3.441027700901031494e-01,-3.440531492233276367e-01,2.443444281816482544e-01,5.286114811897277832e-01,-5.259505510330200195e-01,-7.451884746551513672e-01,-6.248591542243957520e-01,3.413809537887573242e-01,-1.590216159820556641e-01,-7.554455995559692383e-01
1.672793179750442505e-02,2.588881738483905792e-02,-1.307504922151565552e-01,-2.706915140151977539e-01,-1.832810975611209869e-02,-5.638598650693893433e-02,1.900772601366043091e-01,1.964903324842453003e-01,-2.604347765445709229e-01,-1.973714679479598999e-01
-7.414229214191436768e-02,-4.432130977511405945e-02,-2.172041237354278564e-01,-1.032568737864494324e-01,-1.705309958197176456e-03,9.397736936807632446e-02,-2.046142518520355225e-01,5.263738632202148438e-01,-1.367380917072296143e-01,-2.262218743562698364e-01
3.312755525112152100e-01,-7.339385747909545898e-01,1.404535621404647827e-01,-2.377339638769626617e-02,-6.947453618049621582e-01,-6.564845889806747437e-02,-4.281529784202575684e-01,-4.227859675884246826e-01,-1.895185112953186035e-01,-4.947502911090850830e-01
-2.760470509529113770e-01,-3.405119478702545166e-02,-1.644812226295471191e-01,-3.723487630486488342e-02,-9.387639164924621582e-02,2.295683920383453369e-01,1.511000655591487885e-02,-1.567357182502746582e-01,-6.027059629559516907e-02,-1.150379925966262817e-01
-1.395941674709320068e-01,6.020228266716003418e-01,-3.727943599224090576e-01,-8.462265729904174805e-01,-2.981341779232025146e-01,-6.812728047370910645e-01,-2.932058274745941162e-01,1.546121835708618164e-01,2.526466846466064453e-01,-4.649612903594970703e-01
-1.727694123983383179e-01,3.971277177333831787e-02,-2.563501596450805664e-01,-2.351837158203125000e-01,1.709049344062805176e-01,1.052679196000099182e-01,-2.646986842155456543e-01,2.456988990306854248e-01,-4.589367657899856567e-02,-3.629705905914306641e-01
-1.653937101364135742e-01,-5.091857537627220154e-02,2.014214098453521729e-01,-5.989021062850952148e-01,-1.128434985876083374e-01,-4.435509145259857178e-01,-3.029664456844329834e-01,-2.174486219882965088e-01,4.224029183387756348e-01,-1.058632612228393555e+00
3.114162012934684753e-02,-1.096184134483337402e+00,-7.850907742977142334e-02,-7.613601088523864746e-01,-1.645663678646087646e-01,-3.773603737354278564e-01,1.073792725801467896e-01,-5.599846243858337402e-01,3.845503330230712891e-01,-2.487566024065017700e-01
-3.150154948234558105e-01,-5.147013664245605469e-01,-2.963789179921150208e-02,-3.370984196662902832e-01,-2.658199667930603027e-01,-1.114103868603706360e-01,6.317908167839050293e-01,-7.325886934995651245e-02,-4.047385156154632568e-01,1.047458574175834656e-01
-4.680340886116027832e-01,7.230124901980161667e-03,-2.708828747272491455e-01,1.336049884557723999e-01,7.240096330642700195e-01,-6.622527241706848145e-01,-2.900140173733234406e-02,4.835358262062072754e-01,-3.960531353950500488e-01,-1.037039518356323242e+00
-4.615415036678314209e-01,-3.988509252667427063e-02,-5.477969646453857422e-01,-1.524151712656021118e-01,1.704448312520980835e-01,5.177734494209289551e-01,-7.158423066139221191e-01,-3.502922952175140381e-01,-5.006152391433715820e-01,5.666791275143623352e-02
-2.727072238922119141e-01,-4.599392116069793701e-01,5.096875429153442383e-01,-4.055256843566894531e-01,-1.559974253177642822e-01,-1.515908092260360718e-01,4.439344704151153564e-01,-5.226247310638427734e-01,-6.423127651214599609e-01,-2.403111755847930908e-01
-8.129547536373138428e-02,-2.281822413206100464e-01,2.635562717914581299e-01,-2.003268003463745117e-01,-1.009996086359024048e-01,-9.230229854583740234e-01,-6.034561991691589355e-01,1.236520707607269287e-01,-4.508739411830902100e-01,-3.885586261749267578e-01
8.194738626480102539e-02,-1.378847807645797729e-01,-5.140242353081703186e-02,1.233139485120773315e-01,-1.755887269973754883e-01,-1.821022480726242065e-01,1.038603186607360840e-01,-4.618711769580841064e-02,1.473609954118728638e-01,-1.130519434809684753e-01
-3.539252877235412598e-01,-3.279651105403900146e-01,-6.550741940736770630e-02,-2.465338557958602905e-01,-7.464609742164611816e-01,-4.925061017274856567e-02,-4.738533794879913330e-01,-2.801275625824928284e-02,8.806604146957397461e-02,3.900382295250892639e-02
9.622585028409957886e-02,-1.321163773536682129e-01,-2.694863267242908478e-02,-2.192126587033271790e-02,-7.413986325263977051e-01,1.028223559260368347e-01,-7.704548835754394531e-01,-6.556549072265625000e-01,-6.008694767951965332e-01,-1.159856170415878296e-01
2.496533244848251343e-01,-6.529464125633239746e-01,-1.884618103504180908e-01,2.375660687685012817e-01,-6.919220685958862305e-01,-4.186065122485160828e-02,-3.529893159866333008e-01,-7.303936481475830078e-01,-6.856565177440643311e-02,-2.614924907684326172e-01
-2.886262238025665283e-01,1.528153121471405029e-01,-8.126946091651916504e-01,-1.168159544467926025e-01,6.515385508537292480e-01,1.403633356094360352e-01,-1.435150057077407837e-01,-1.163270100951194763e-01,-1.444538831710815430e-01,-6.408448219299316406e-01
-7.815091013908386230e-01,-4.225295782089233398e-01,-4.700688123703002930e-01,1.480383127927780151e-01,-4.917687773704528809e-01,1.376442909240722656e-01,1.391368657350540161e-01,-7.595088481903076172e-01,4.288597404956817627e-01,-4.609672427177429199e-01
-5.468201637268066406e-01,4.172922372817993164e-01,-4.061627388000488281e-01,6.020458787679672241e-02,1.297997534275054932e-01,-9.456897974014282227e-01,2.214946001768112183e-01,-2.746282219886779785e-01,-6.454359292984008789e-01,-1.964544057846069336e-01
-3.251518011093139648e-01,1.621410399675369263e-01,-1.967526972293853760e-01,-2.450952827930450439e-01,-3.725584447383880615e-01,-1.585393905639648438e+00,1.457329094409942627e-01,-2.922149933874607086e-02,-6.948944330215454102e-01,-2.834968566894531250e-01
-3.156849369406700134e-02,-1.054802164435386658e-01,-1.085126399993896484e+00,-2.863601595163345337e-02,-4.923909008502960205e-01,2.519692778587341309e-01,1.517355293035507202e-01,3.473634123802185059e-01,-8.195502161979675293e-01,-4.883609116077423096e-01
1.933331601321697235e-02,-4.499264359474182129e-01,-9.137265086174011230e-01,1.472891420125961304e-01,-6.482357978820800781e-01,2.579513490200042725e-01,1.303930431604385376e-01,-4.417223036289215088e-01,-4.546936750411987305e-01,-7.482415437698364258e-01
1.342707127332687378e-01,8.537467569112777710e-02,-1.821191757917404175e-01,-2.868832945823669434e-01,2.646345645189285278e-02,-6.110463663935661316e-02,8.733698725700378418e-02,2.993019223213195801e-01,-5.984309688210487366e-02,1.334700454026460648e-02
-1.525011658668518066e-01,-2.972392737865447998e-01,-5.167865157127380371e-01,-6.918317079544067383e-01,1.340926736593246460e-01,-1.314639952033758163e-02,-2.122974954545497894e-02,2.014852613210678101e-01,-3.354499638080596924e-01,1.589494645595550537e-01
-1.682067364454269409e-01,8.066425919532775879e-01,-7.444933652877807617e-01,-2.138838469982147217e-01,3.436011373996734619e-01,-4.257535338401794434e-01,-3.417710363864898682e-01,-2.128151208162307739e-01,-1.172361001372337341e-01,-4.092317819595336914e-01
-2.583667635917663574e-01,-1.156021654605865479e-01,-8.418079465627670288e-02,-3.892111778259277344e-01,-1.717982739210128784e-01,-3.720658272504806519e-02,2.428479641675949097e-01,-2.215085923671722412e-01,9.932605922222137451e-02,7.637625932693481445e-02
-8.464568108320236206e-02,-5.502756834030151367e-01,-1.882608532905578613e-01,-1.872656643390655518e-01,-3.728508204221725464e-02,-2.140635997056961060e-01,-3.653267323970794678e-01,-2.510877847671508789e-01,-1.079194545745849609e-01,-1.806674748659133911e-01
1.224910765886306763e-01,-7.899613380432128906e-01,2.603551000356674194e-02,-5.945534110069274902e-01,-6.494810581207275391e-01,-8.011870980262756348e-01,2.215851992368698120e-01,-4.345155656337738037e-01,-7.410366088151931763e-02,-1.307056397199630737e-01
-8.885504603385925293e-01,-2.892949283123016357e-01,-7.724472880363464355e-01,-1.643702387809753418e-01,1.129663065075874329e-01,7.826778292655944824e-02,-8.015611767768859863e-01,-6.298336982727050781e-01,2.681452035903930664e-01,-6.381221115589141846e-02
-1.376525759696960449e-01,2.566498219966888428e-01,-2.582847476005554199e-01,-4.172382056713104248e-01,2.052496969699859619e-01,-6.257303059101104736e-02,-1.973213553428649902e-01,3.483195900917053223e-01,-1.895113736391067505e-01,-2.376696914434432983e-01
-2.708199024200439453e-01,-3.184250593185424805e-01,-2.318464219570159912e-01,-1.465643942356109619e-01,-1.164989024400711060e-01,-1.346316039562225342e-01,1.081601232290267944e-01,-6.539016962051391602e-02,2.556543350219726562e-01,-3.291151225566864014e-01
-2.867575921118259430e-02,1.487642675638198853e-01,-5.200331807136535645e-01,9.642937779426574707e-02,-2.605640888214111328e-02,4.919183552265167236e-01,-1.758951395750045776e-01,-9.114416688680648804e-02,-6.258221268653869629e-01,-5.404075980186462402e-01
-5.569978952407836914e-01,1.742794364690780640e-02,1.539049111306667328e-02,-3.465237319469451904e-01,-7.328171133995056152e-01,1.886714436113834381e-02,-2.977649867534637451e-01,-1.261661201715469360e-01,-2.126611173152923584e-01,-1.142437458038330078e+00
-3.536767661571502686e-01,2.762934565544128418e-01,-1.362027376890182495e-01,-3.869354426860809326e-01,-5.649496912956237793e-01,-3.644274473190307617e-01,8.842380046844482422e-01,-5.130236744880676270e-01,-3.735209405422210693e-01,-3.831276297569274902e-01
4.725486505776643753e-03,-1.547135710716247559e-01,-2.963922321796417236e-01,-2.841479182243347168e-01,-1.768521964550018311e-01,-6.477479338645935059e-01,3.722371757030487061e-01,-1.067781969904899597e-01,8.016713708639144897e-02,-8.019304275512695312e-02
-3.875615000724792480e-01,-7.902897894382476807e-02,-2.085084319114685059e-01,-6.409828066825866699e-01,8.548629557481035590e-05,2.546963095664978027e-01,-1.418940275907516479e-01,-7.676008343696594238e-02,-4.400205239653587341e-02,-6.934736371040344238e-01
4.215085208415985107e-01,-4.219551682472229004e-01,4.214026331901550293e-01,7.349825650453567505e-02,-2.086159884929656982e-01,-3.030059337615966797e-01,-5.645600557327270508e-01,-3.132014721632003784e-02,-9.971212148666381836e-01,-1.339350789785385132e-01
-3.561852872371673584e-01,1.185312494635581970e-01,-1.267345100641250610e-01,-1.323033124208450317e-01,-4.614104032516479492e-01,-9.447976946830749512e-02,-3.783403038978576660e-01,-6.610078215599060059e-01,1.167154908180236816e-01,1.939390450716018677e-01
-1.512142419815063477e-01,-8.082358539104461670e-02,-1.138026356697082520e+00,2.701894044876098633e-01,-6.728111505508422852e-01,1.909812092781066895e-01,-4.835213720798492432e-01,-1.965785771608352661e-01,6.410282850265502930e-02,-5.104758143424987793e-01
-4.597301185131072998e-01,5.391318351030349731e-02,-5.832743644714355469e-01,-8.462071418762207031e-01,3.319084048271179199e-01,3.791388571262359619e-01,-2.989601902663707733e-02,-1.965660452842712402e-01,-4.211967289447784424e-01,-8.513208031654357910e-01
8.292201906442642212e-02,3.254623413085937500e-01,-8.155022859573364258e-01,-4.424794912338256836e-01,1.768135428428649902e-01,-2.385619580745697021e-01,3.277687430381774902e-01,-4.390541613101959229e-01,-3.812117278575897217e-01,4.005147144198417664e-03
-2.712363004684448242e-01,-1.788994371891021729e-01,-3.061395254917442799e-04,-7.508791685104370117e-01,3.476775288581848145e-01,-1.170852854847908020e-01,-4.057341814041137695e-01,3.666402995586395264e-01,-2.221352458000183105e-01,-5.170452594757080078e-01
2.276389896869659424e-01,-5.299696922302246094e-01,2.472183853387832642e-01,-1.749923676252365112e-01,-5.105912089347839355e-01,-7.928287982940673828e-01,2.166554629802703857e-01,-6.841767579317092896e-02,-4.436186850070953369e-01,-6.703432202339172363e-01
3.222168087959289551e-01,-5.217289179563522339e-02,-4.823783636093139648e-01,-2.257394641637802124e-01,-1.975591480731964111e-01,-8.279783725738525391e-01,1.327479332685470581e-01,-7.004206627607345581e-02,-3.690673708915710449e-01,-1.513513028621673584e-01
-1.951274424791336060e-01,-8.176686614751815796e-02,-1.631503403186798096e-01,1.110916957259178162e-01,-1.110192298889160156e+00,-1.996672302484512329e-01,-2.825568616390228271e-01,-3.698570132255554199e-01,9.163399040699005127e-02,-2.311454266309738159e-01
-1.136091798543930054e-01,-4.889382719993591309e-01,-4.398683458566665649e-02,3.057651221752166748e-01,-2.125394791364669800e-01,7.401590049266815186e-02,-1.018600985407829285e-01,5.090305805206298828e-01,-6.170699596405029297e-01,-2.755138576030731201e-01
-9.487530589103698730e-01,-3.962274491786956787e-01,-8.204247951507568359e-01,1.496570408344268799e-01,3.338919878005981445e-01,9.938369691371917725e-02,-9.498441815376281738e-01,-6.810091137886047363e-01,2.008096873760223389e-01,1.589857935905456543e-01
-2.786891758441925049e-01,8.977660536766052246e-02,-3.719802498817443848e-01,1.337331533432006836e-01,-5.912753939628601074e-01,-2.776191011071205139e-02,-2.124042958021163940e-01,-5.899241566658020020e-01,2.389925569295883179e-01,-2.944681346416473389e-01
-2.275794893503189087e-01,2.152777612209320068e-01,3.727142885327339172e-02,-1.109008789062500000e+00,-5.814291834831237793e-01,-6.633350253105163574e-01,-1.464648544788360596e-01,-3.897361457347869873e-01,1.301027238368988037e-01,-3.486095070838928223e-01
-4.783763587474822998e-01,-2.439685910940170288e-01,-5.229535102844238281e-01,2.031302601099014282e-01,-8.687742352485656738e-01,-7.309870719909667969e-01,-2.792353034019470215e-01,2.682060301303863525e-01,-5.486407876014709473e-01,-4.291481152176856995e-02
-3.925713896751403809e-01,-2.817918360233306885e-01,5.443707108497619629e-02,-3.849906325340270996e-01,-3.103031814098358154e-01,-1.291736513376235962e-01,4.053775221109390259e-02,5.032423138618469238e-01,-1.231946572661399841e-01,-4.500966668128967285e-01
-2.167058736085891724e-01,5.670676827430725098e-01,3.089950680732727051e-01,-5.585831999778747559e-01,-4.326869919896125793e-02,-3.511993587017059326e-01,-7.763063162565231323e-02,-2.802572548389434814e-01,-5.626370906829833984e-01,-3.994638919830322266e-01
-3.297650218009948730e-01,8.618723601102828979e-03,1.244095116853713989e-01,6.153687089681625366e-02,-3.422075808048248291e-01,7.238293439149856567e-02,-1.973188221454620361e-01,-9.561614394187927246e-01,9.912156313657760620e-02,-3.898753523826599121e-01
-8.077696710824966431e-02,-3.803778588771820068e-01,2.358962595462799072e-01,-3.109665215015411377e-01,7.157834619283676147e-02,-2.829227447509765625e-01,2.270574867725372314e-01,-3.179218173027038574e-01,-3.054640293121337891e-01,-1.338089704513549805e+00
4.683821648359298706e-02,-6.954304873943328857e-02,-6.284899264574050903e-02,-9.286939166486263275e-03,1.791299879550933838e-02,-7.860058546066284180e-02,-1.083740964531898499e-02,3.717271611094474792e-02,2.073074132204055786e-02,-6.940004229545593262e-02
-4.421470165252685547e-01,-1.997060030698776245e-01,-1.006201505661010742e+00,2.470709234476089478e-01,5.022282153367996216e-02,-5.619346350431442261e-02,-6.390398740768432617e-01,-2.102244347333908081e-01,-6.808459162712097168e-01,1.862274259328842163e-01
-5.806892514228820801e-01,-1.143766716122627258e-01,-4.425441846251487732e-02,2.139129638671875000e-01,-5.734546184539794922e-01,5.008851289749145508e-01,-3.796711564064025879e-01,-4.497474730014801025e-01,-9.553606510162353516e-01,1.847047656774520874e-01
-3.795926272869110107e-01,-3.903527557849884033e-01,-3.445476293563842773e-01,1.494307368993759155e-01,-4.370747208595275879e-01,5.473057627677917480e-01,-1.443311125040054321e-01,-1.932859718799591064e-01,-1.789183914661407471e-01,1.342368721961975098e-01
-3.413041532039642334e-01,1.980613619089126587e-01,-7.277865409851074219e-01,1.567291617393493652e-01,8.468157052993774414e-02,-2.017687112092971802e-01,9.130858629941940308e-02,-5.237142443656921387e-01,-5.775509476661682129e-01,-1.020653963088989258e+00
8.093872666358947754e-02,6.374485790729522705e-02,-3.290745988488197327e-02,8.101535588502883911e-02,5.458433553576469421e-02,-4.268169030547142029e-02,-5.567242205142974854e-02,2.444855682551860809e-02,4.989561811089515686e-02,-2.153782360255718231e-02
-6.673770546913146973e-01,-5.446615815162658691e-01,-3.931008577346801758e-01,-8.057115674018859863e-01,1.063040569424629211e-01,-1.091398522257804871e-01,-3.050251901149749756e-01,4.230834543704986572e-01,-8.277508020401000977e-01,1.210787519812583923e-01
1.281082779169082642e-01,-6.463180780410766602e-01,-3.083620667457580566e-01,2.808075547218322754e-01,-7.273823022842407227e-01,2.359067946672439575e-01,-4.147494435310363770e-01,2.710533142089843750e-01,-4.073706865310668945e-01,-5.508880615234375000e-01
1.945514418184757233e-02,-8.263956010341644287e-02,-8.506450057029724121e-02,-7.609351724386215210e-02,7.353745400905609131e-02,-2.627412043511867523e-02,-8.902193605899810791e-02,-1.039822921156883240e-01,-3.009270131587982178e-02,-1.372969746589660645e-01
-2.394618466496467590e-03,-1.667150110006332397e-01,-3.650143444538116455e-01,-1.543502956628799438e-01,-2.868174314498901367e-01,-5.870349705219268799e-02,-4.651469290256500244e-01,1.203544661402702332e-01,-2.221507877111434937e-01,1.898174285888671875e-01
-8.427222818136215210e-02,-2.540460526943206787e-01,3.805679455399513245e-02,-3.813524842262268066e-01,-5.524709820747375488e-01,1.464827507734298706e-01,3.224191442131996155e-02,-4.210886061191558838e-01,1.964372247457504272e-01,-1.135715618729591370e-01
-4.289925694465637207e-01,-4.347999095916748047e-01,2.838919460773468018e-01,-9.045845270156860352e-02,-3.702400624752044678e-01,-8.769413083791732788e-02,4.910985827445983887e-01,-1.009601280093193054e-01,-1.167849004268646240e-01,-5.971934199333190918e-01
-3.590631186962127686e-01,-1.925047039985656738e-01,-9.533798694610595703e-02,-7.207912951707839966e-02,-1.605701595544815063e-01,-1.035302951931953430e-01,-4.624763727188110352e-01,-5.904670953750610352e-01,5.636169314384460449e-01,1.776245608925819397e-02
-5.428905040025711060e-02,-3.335556685924530029e-01,-5.676985904574394226e-02,-4.989721775054931641e-01,-9.175792336463928223e-01,2.103569060564041138e-01,-3.729723393917083740e-01,2.055657953023910522e-01,-5.753732323646545410e-01,1.547628641128540039e-01
-2.253959923982620239e-01,-2.663908600807189941e-01,-6.640370190143585205e-02,-9.681867957115173340e-01,-1.380377709865570068e-01,-5.223398208618164062e-01,-1.841173470020294189e-01,-3.309535682201385498e-01,5.193164944648742676e-01,-1.436282157897949219e+00
-2.411271333694458008e-01,5.158396959304809570e-01,-7.304066419601440430e-01,-2.432421892881393433e-01,-2.498931437730789185e-01,4.036653041839599609e-01,2.174969995394349098e-03,6.141617894172668457e-03,-5.605316758155822754e-01,-5.483146309852600098e-01
-1.526059489697217941e-02,-6.061105132102966309e-01,6.111424416303634644e-03,-5.898286402225494385e-02,-4.993360042572021484e-01,-3.631179630756378174e-01,-1.117391660809516907e-01,-5.794615149497985840e-01,1.456974893808364868e-01,2.176909893751144409e-02
-1.574480556882917881e-03,1.178069710731506348e-01,6.257601082324981689e-02,-1.537041664123535156e-01,4.011980891227722168e-01,-1.111197024583816528e-01,-6.747460365295410156e-02,-6.963828802108764648e-01,-3.110315799713134766e-01,-7.054421901702880859e-01
2.853334546089172363e-01,-3.516768515110015869e-01,1.970696896314620972e-01,-1.118149384856224060e-01,-2.526580691337585449e-01,-3.661079108715057373e-01,-2.071294486522674561e-01,-2.904994785785675049e-01,-1.688133776187896729e-01,-3.425785899162292480e-01
1.351839154958724976e-01,-1.149518489837646484e+00,-1.593846231698989868e-01,-6.208717226982116699e-01,7.953683845698833466e-03,8.729808032512664795e-02,1.051234602928161621e-01,-4.513204395771026611e-01,2.490053027868270874e-01,-3.959894180297851562e-01
-5.959910899400711060e-02,-1.017458319664001465e+00,-1.421493142843246460e-01,-8.809499144554138184e-01,-1.403403468430042267e-02,-3.266975283622741699e-01,-1.425617374479770660e-02,-7.018514275550842285e-01,3.246304113417863846e-03,-3.249259293079376221e-02
-3.413791060447692871e-01,-5.006902813911437988e-01,-5.724866390228271484e-01,-7.536838203668594360e-02,9.715016186237335205e-02,-9.965311735868453979e-02,-9.786407947540283203e-01,-1.550022512674331665e-03,-4.901032522320747375e-02,4.216950910631567240e-04
-4.078072309494018555e-01,-7.485412359237670898e-01,-3.976382613182067871e-01,-1.615139991044998169e-01,1.123671792447566986e-02,3.988919556140899658e-01,-1.402288824319839478e-01,-4.438830316066741943e-01,3.820919692516326904e-01,-4.595362544059753418e-01
-6.817457675933837891e-01,-1.544303894042968750e-01,-3.381345793604850769e-02,-1.741080582141876221e-01,6.193329393863677979e-02,1.460388004779815674e-01,-9.378652572631835938e-01,-7.556728124618530273e-01,-8.112595081329345703e-01,1.315780133008956909e-01
-3.080803155899047852e-02,4.731016159057617188e-01,-1.453523188829421997e-01,-1.351392716169357300e-01,-1.630081236362457275e-01,1.430268865078687668e-02,4.222200810909271240e-02,-8.058157563209533691e-02,-3.490413725376129150e-01,1.105855312198400497e-02
-3.572430312633514404e-01,-7.869766652584075928e-02,-2.917400896549224854e-01,2.408879697322845459e-01,-9.279979020357131958e-02,-3.914371132850646973e-01,6.231913343071937561e-02,-6.965066492557525635e-02,-3.185866773128509521e-01,-2.379363328218460083e-01
-4.606836736202239990e-01,-1.383929401636123657e-01,3.667390346527099609e-01,-4.345371723175048828e-01,-2.528623938560485840e-01,5.858340263366699219e-01,-1.263918429613113403e-01,-4.072350561618804932e-01,-9.148466587066650391e-01,-2.160518169403076172e-01
2.493027411401271820e-02,-2.353045195341110229e-01,-2.212097197771072388e-01,-6.680610775947570801e-02,-1.632460393011569977e-02,-4.349802136421203613e-01,2.569480100646615028e-03,-2.374796569347381592e-01,-7.699866890907287598e-01,-4.634385555982589722e-02
-4.064957797527313232e-01,-4.516867697238922119e-01,-1.460964530706405640e-01,-6.028055548667907715e-01,2.961922883987426758e-01,-2.372157424688339233e-01,-1.712701320648193359e-01,3.563783168792724609e-01,1.913897246122360229e-01,-3.221202790737152100e-01
-7.948781549930572510e-02,-4.747331142425537109e-01,-3.068574070930480957e-01,-3.949410095810890198e-02,-6.865196228027343750e-01,2.922067642211914062e-01,-1.139797940850257874e-01,-3.067342638969421387e-01,5.826203152537345886e-02,2.081625461578369141e-01
-8.481317758560180664e-01,-3.322988152503967285e-01,-5.425271019339561462e-02,1.609307825565338135e-01,-6.154181957244873047e-01,-3.502571582794189453e-01,2.708132565021514893e-02,-6.736728549003601074e-01,2.863124608993530273e-01,1.857481449842453003e-01
8.703914470970630646e-03,-1.648514717817306519e-01,3.126212358474731445e-01,-3.188904821872711182e-01,-6.209431886672973633e-01,-1.701487004756927490e-01,2.551154494285583496e-01,2.131484746932983398e-01,-9.124149382114410400e-02,-3.025875985622406006e-01
-1.714026480913162231e-01,5.315017104148864746e-01,-1.234688684344291687e-01,1.372646242380142212e-01,-3.902474185451865196e-03,-8.896218538284301758e-01,-4.287941753864288330e-01,-1.830560155212879181e-02,-3.173256516456604004e-01,-3.142387270927429199e-01
4.151673018932342529e-01,1.362173706293106079e-01,3.227849602699279785e-01,-4.937509298324584961e-01,-9.284610301256179810e-02,-1.809847950935363770e-01,-1.399769783020019531e-01,-3.896782696247100830e-01,-1.103332638740539551e+00,-3.784034550189971924e-01
-3.063118159770965576e-01,-5.366948246955871582e-01,1.054157987236976624e-01,-8.990835547447204590e-01,2.581709623336791992e-01,-4.551792889833450317e-02,-2.139471471309661865e-01,9.158660471439361572e-02,1.568794995546340942e-01,-6.700307130813598633e-01
