1.489113830029964447e-02,2.847123332321643829e-02,2.820950746536254883e-02,-0.000000000000000000e+00,3.313704207539558411e-02,-0.000000000000000000e+00,-0.000000000000000000e+00,-0.000000000000000000e+00,-0.000000000000000000e+00,5.327442660927772522e-02,-0.000000000000000000e+00,1.776055432856082916e-02,-0.000000000000000000e+00,1.025754027068614960e-02,1.523907668888568878e-02,-0.000000000000000000e+00,-0.000000000000000000e+00,-0.000000000000000000e+00,6.176281347870826721e-02,4.380905628204345703e-02,6.191182509064674377e-02,3.595671802759170532e-02,-0.000000000000000000e+00,1.957963965833187103e-02,-0.000000000000000000e+00,3.842271119356155396e-02,3.081720694899559021e-02,2.683440688997507095e-03,-0.000000000000000000e+00,-0.000000000000000000e+00,-0.000000000000000000e+00,1.115209702402353287e-02,-0.000000000000000000e+00,5.536329373717308044e-02,2.583993598818778992e-02,1.148144248872995377e-02,4.970972239971160889e-02,-0.000000000000000000e+00,1.032593892887234688e-03,-0.000000000000000000e+00,-0.000000000000000000e+00,-0.000000000000000000e+00,4.551986232399940491e-02,1.825939491391181946e-02,-0.000000000000000000e+00,1.042690966278314590e-02,4.856684803962707520e-02,-0.000000000000000000e+00,4.342494532465934753e-02,-0.000000000000000000e+00,-0.000000000000000000e+00,3.600893914699554443e-02,-0.000000000000000000e+00,6.173619627952575684e-02,-0.000000000000000000e+00,1.887484919279813766e-03,6.534208077937364578e-03,1.620949059724807739e-02,-0.000000000000000000e+00,-0.000000000000000000e+00,-0.000000000000000000e+00,-0.000000000000000000e+00,2.553382702171802521e-02,-0.000000000000000000e+00,-0.000000000000000000e+00,3.595198690891265869e-02,5.845799297094345093e-02,-0.000000000000000000e+00,8.801911026239395142e-04,-0.000000000000000000e+00,3.673351556062698364e-02,-0.000000000000000000e+00,-0.000000000000000000e+00,-0.000000000000000000e+00,-0.000000000000000000e+00,4.471566528081893921e-02,-0.000000000000000000e+00,3.368755057454109192e-02,-0.000000000000000000e+00,6.342569738626480103e-02,-0.000000000000000000e+00,-0.000000000000000000e+00,-0.000000000000000000e+00,-0.000000000000000000e+00,3.042678348720073700e-02,2.381193265318870544e-02,3.664558986201882362e-03,6.358747184276580811e-02,-0.000000000000000000e+00,3.339236602187156677e-02,4.918015748262405396e-02,-0.000000000000000000e+00,2.683842927217483521e-02,-0.000000000000000000e+00,3.379977121949195862e-02,6.524837575852870941e-03,5.865006893873214722e-02,-0.000000000000000000e+00,6.137384846806526184e-02,1.393114775419235229e-02,5.265514925122261047e-02,-0.000000000000000000e+00,-0.000000000000000000e+00,-0.000000000000000000e+00,6.376011762768030167e-03,-0.000000000000000000e+00,-0.000000000000000000e+00,-0.000000000000000000e+00,-0.000000000000000000e+00,2.073272131383419037e-02,9.069557301700115204e-03,-0.000000000000000000e+00,3.409384936094284058e-02,-0.000000000000000000e+00,1.224681362509727478e-02,-0.000000000000000000e+00,-0.000000000000000000e+00,3.784021362662315369e-02,2.232041954994201660e-02,-0.000000000000000000e+00,6.314288824796676636e-03,-0.000000000000000000e+00,1.740407384932041168e-02,-0.000000000000000000e+00,-0.000000000000000000e+00,4.142803326249122620e-02,-0.000000000000000000e+00,-0.000000000000000000e+00
-0.000000000000000000e+00,4.497908800840377808e-02,2.697256160899996758e-03,-0.000000000000000000e+00,5.381920933723449707e-02,3.890960291028022766e-02,1.792917214334011078e-02,-0.000000000000000000e+00,5.353683978319168091e-02,-0.000000000000000000e+00,-0.000000000000000000e+00,-0.000000000000000000e+00,-0.000000000000000000e+00,-0.000000000000000000e+00,-0.000000000000000000e+00,-0.000000000000000000e+00,5.942237749695777893e-02,-0.000000000000000000e+00,-0.000000000000000000e+00,6.196639314293861389e-02,9.372301399707794189e-03,5.464747920632362366e-02,-0.000000000000000000e+00,1.509771589189767838e-02,2.602967806160449982e-02,-0.000000000000000000e+00,3.856912255287170410e-02,-0.000000000000000000e+00,-0.000000000000000000e+00,-0.000000000000000000e+00,-0.000000000000000000e+00,1.357949525117874146e-02,5.443708226084709167e-02,-0.000000000000000000e+00,6.189167872071266174e-02,-0.000000000000000000e+00,-0.000000000000000000e+00,4.287364706397056580e-02,1.270134001970291138e-03,1.722616329789161682e-02,-0.000000000000000000e+00,3.566597029566764832e-02,-0.000000000000000000e+00,-0.000000000000000000e+00,2.315457165241241455e-02,3.830465301871299744e-02,4.681748896837234497e-02,4.085412621498107910e-02,-0.000000000000000000e+00,3.392725810408592224e-02,-0.000000000000000000e+00,-0.000000000000000000e+00,3.224537894129753113e-02,-0.000000000000000000e+00,-0.000000000000000000e+00,-0.000000000000000000e+00,2.754186093807220459e-02,3.249891102313995361e-02,1.551025360822677612e-02,1.403393596410751343e-02,-0.000000000000000000e+00,5.320265144109725952e-02,-0.000000000000000000e+00,5.861185863614082336e-02,2.662485465407371521e-02,-0.000000000000000000e+00,-0.000000000000000000e+00,4.307568073272705078e-02,4.416912049055099487e-02,-0.000000000000000000e+00,-0.000000000000000000e+00,2.149931527674198151e-02,-0.000000000000000000e+00,-0.000000000000000000e+00,-0.000000000000000000e+00,-0.000000000000000000e+00,-0.000000000000000000e+00,7.345984689891338348e-03,-0.000000000000000000e+00,-0.000000000000000000e+00,-0.000000000000000000e+00,3.828377276659011841e-02,-0.000000000000000000e+00,-0.000000000000000000e+00,-0.000000000000000000e+00,-0.000000000000000000e+00,-0.000000000000000000e+00,1.010212115943431854e-03,-0.000000000000000000e+00,-0.000000000000000000e+00,3.881746530532836914e-02,-0.000000000000000000e+00,-0.000000000000000000e+00,3.739370405673980713e-02,9.838108904659748077e-03,4.917302727699279785e-02,-0.000000000000000000e+00,-0.000000000000000000e+00,-0.000000000000000000e+00,-0.000000000000000000e+00,1.888084039092063904e-02,4.750627651810646057e-02,-0.000000000000000000e+00,3.433260321617126465e-02,-0.000000000000000000e+00,1.283644046634435654e-02,1.589076220989227295e-02,1.985753327608108521e-02,-0.000000000000000000e+00,-0.000000000000000000e+00,-0.000000000000000000e+00,-0.000000000000000000e+00,-0.000000000000000000e+00,4.517249390482902527e-02,7.279760204255580902e-03,-0.000000000000000000e+00,-0.000000000000000000e+00,-0.000000000000000000e+00,5.992412939667701721e-02,-0.000000000000000000e+00,-0.000000000000000000e+00,9.895431809127330780e-03,-0.000000000000000000e+00,-0.000000000000000000e+00,-0.000000000000000000e+00,1.596062630414962769e-02,-0.000000000000000000e+00,-0.000000000000000000e+00
-0.000000000000000000e+00,-0.000000000000000000e+00,3.364099562168121338e-02,-0.000000000000000000e+00,5.053942650556564331e-02,2.229209244251251221e-02,1.133723463863134384e-02,3.826991841197013855e-02,5.405115708708763123e-02,3.499822691082954407e-02,4.083613306283950806e-02,-0.000000000000000000e+00,3.003364056348800659e-02,3.222649171948432922e-02,5.516747385263442993e-02,6.093967333436012268e-02,-0.000000000000000000e+00,4.811478778719902039e-02,-0.000000000000000000e+00,-0.000000000000000000e+00,8.744514547288417816e-03,3.579235449433326721e-02,-0.000000000000000000e+00,3.628113493323326111e-02,4.547218605875968933e-02,-0.000000000000000000e+00,1.649547182023525238e-02,3.846833854913711548e-02,-0.000000000000000000e+00,-0.000000000000000000e+00,-0.000000000000000000e+00,1.000860054045915604e-02,-0.000000000000000000e+00,-0.000000000000000000e+00,-0.000000000000000000e+00,1.714657805860042572e-02,-0.000000000000000000e+00,2.246376872062683105e-02,5.364138633012771606e-02,1.637659594416618347e-02,1.261036843061447144e-03,4.321574792265892029e-02,5.209417268633842468e-02,2.988275885581970215e-02,1.127720111981034279e-03,5.245501920580863953e-02,-0.000000000000000000e+00,4.377476125955581665e-02,3.459314117208123207e-03,-0.000000000000000000e+00,-0.000000000000000000e+00,5.555335432291030884e-02,-0.000000000000000000e+00,2.165004797279834747e-02,-0.000000000000000000e+00,1.510426215827465057e-02,-0.000000000000000000e+00,-0.000000000000000000e+00,-0.000000000000000000e+00,-0.000000000000000000e+00,-0.000000000000000000e+00,4.671525210142135620e-02,-0.000000000000000000e+00,-0.000000000000000000e+00,4.115068167448043823e-02,-0.000000000000000000e+00,2.990964427590370178e-02,-0.000000000000000000e+00,-0.000000000000000000e+00,-0.000000000000000000e+00,-0.000000000000000000e+00,2.797772875055670738e-03,-0.000000000000000000e+00,3.495328128337860107e-02,-0.000000000000000000e+00,-0.000000000000000000e+00,5.442124977707862854e-02,-0.000000000000000000e+00,4.707610234618186951e-02,3.055281005799770355e-02,-0.000000000000000000e+00,-0.000000000000000000e+00,-0.000000000000000000e+00,1.143713714554905891e-03,-0.000000000000000000e+00,4.356475174427032471e-02,-0.000000000000000000e+00,-0.000000000000000000e+00,3.999075666069984436e-02,3.117380663752555847e-02,6.257242709398269653e-02,-0.000000000000000000e+00,6.162448972463607788e-02,-0.000000000000000000e+00,5.312139634042978287e-03,-0.000000000000000000e+00,-0.000000000000000000e+00,3.522395715117454529e-02,-0.000000000000000000e+00,4.337271302938461304e-02,2.420011721551418304e-02,1.731264404952526093e-02,3.259685263037681580e-02,8.369139395654201508e-04,-0.000000000000000000e+00,4.120099171996116638e-02,-0.000000000000000000e+00,-0.000000000000000000e+00,5.471779406070709229e-02,-0.000000000000000000e+00,2.740027010440826416e-02,4.384060204029083252e-02,-0.000000000000000000e+00,-0.000000000000000000e+00,3.363199159502983093e-02,-0.000000000000000000e+00,1.376528386026620865e-02,-0.000000000000000000e+00,-0.000000000000000000e+00,-0.000000000000000000e+00,-0.000000000000000000e+00,6.007490307092666626e-02,4.494776576757431030e-02,-0.000000000000000000e+00,2.880924567580223083e-02,3.043736331164836884e-02,-0.000000000000000000e+00,-0.000000000000000000e+00
1.613148488104343414e-02,-0.000000000000000000e+00,-0.000000000000000000e+00,-0.000000000000000000e+00,1.691800914704799652e-02,-0.000000000000000000e+00,-0.000000000000000000e+00,2.841830439865589142e-02,-0.000000000000000000e+00,2.775509655475616455e-02,-0.000000000000000000e+00,4.943899437785148621e-02,6.143642961978912354e-02,3.989215195178985596e-02,-0.000000000000000000e+00,-0.000000000000000000e+00,-0.000000000000000000e+00,3.326397389173507690e-02,5.787060409784317017e-02,-0.000000000000000000e+00,3.391375765204429626e-02,4.619041457772254944e-02,-0.000000000000000000e+00,-0.000000000000000000e+00,-0.000000000000000000e+00,4.445452988147735596e-02,4.796899110078811646e-02,2.719340380281209946e-03,1.967459358274936676e-02,-0.000000000000000000e+00,-0.000000000000000000e+00,5.706781521439552307e-02,-0.000000000000000000e+00,2.420342341065406799e-02,-0.000000000000000000e+00,-0.000000000000000000e+00,9.607809595763683319e-03,3.395509347319602966e-02,4.031645879149436951e-02,-0.000000000000000000e+00,5.751451477408409119e-02,-0.000000000000000000e+00,-0.000000000000000000e+00,5.575243756175041199e-02,4.152318462729454041e-02,2.334228949621319771e-03,1.163600571453571320e-02,-0.000000000000000000e+00,3.785029053688049316e-02,8.528540842235088348e-03,3.615625202655792236e-02,1.837253011763095856e-02,4.512123763561248779e-02,1.436410471796989441e-02,-0.000000000000000000e+00,-0.000000000000000000e+00,5.006780847907066345e-02,5.383592098951339722e-03,-0.000000000000000000e+00,6.281811743974685669e-02,6.287634372711181641e-02,2.665607631206512451e-02,-0.000000000000000000e+00,-0.000000000000000000e+00,3.774457052350044250e-02,1.090340875089168549e-02,3.264804929494857788e-02,2.846082486212253571e-02,-0.000000000000000000e+00,2.028231322765350342e-02,4.655456170439720154e-02,5.693466961383819580e-02,5.052009131759405136e-03,-0.000000000000000000e+00,6.104130297899246216e-02,-0.000000000000000000e+00,-0.000000000000000000e+00,-0.000000000000000000e+00,2.802603133022785187e-02,2.485243603587150574e-04,-0.000000000000000000e+00,1.765522174537181854e-02,5.346791446208953857e-02,-0.000000000000000000e+00,-0.000000000000000000e+00,3.535652905702590942e-02,3.749418631196022034e-02,1.968040131032466888e-02,4.771630838513374329e-02,4.444336891174316406e-02,-0.000000000000000000e+00,-0.000000000000000000e+00,-0.000000000000000000e+00,-0.000000000000000000e+00,5.449900776147842407e-02,-0.000000000000000000e+00,6.134730949997901917e-02,-0.000000000000000000e+00,-0.000000000000000000e+00,4.346865415573120117e-02,3.545363992452621460e-02,-0.000000000000000000e+00,-0.000000000000000000e+00,5.339409783482551575e-02,-0.000000000000000000e+00,-0.000000000000000000e+00,-0.000000000000000000e+00,-0.000000000000000000e+00,-0.000000000000000000e+00,6.211839243769645691e-02,8.741647936403751373e-03,-0.000000000000000000e+00,2.961160428822040558e-02,3.444569185376167297e-02,-0.000000000000000000e+00,4.907026141881942749e-02,4.516799375414848328e-02,-0.000000000000000000e+00,-0.000000000000000000e+00,-0.000000000000000000e+00,6.370405107736587524e-02,6.262003630399703979e-02,-0.000000000000000000e+00,-0.000000000000000000e+00,4.306530579924583435e-02,-0.000000000000000000e+00,3.823125734925270081e-02,5.704716593027114868e-02
1.932592503726482391e-02,-0.000000000000000000e+00,-0.000000000000000000e+00,-0.000000000000000000e+00,5.167774856090545654e-02,-0.000000000000000000e+00,-0.000000000000000000e+00,6.206836551427841187e-03,4.665680695325136185e-03,1.045239064842462540e-02,5.329805612564086914e-02,3.094424493610858917e-02,5.394307896494865417e-02,1.917393319308757782e-02,3.987679257988929749e-03,-0.000000000000000000e+00,1.305272337049245834e-02,3.970868885517120361e-03,6.200132146477699280e-02,-0.000000000000000000e+00,-0.000000000000000000e+00,-0.000000000000000000e+00,-0.000000000000000000e+00,-0.000000000000000000e+00,5.565727502107620239e-02,4.070310667157173157e-02,-0.000000000000000000e+00,5.953263491392135620e-02,-0.000000000000000000e+00,-0.000000000000000000e+00,-0.000000000000000000e+00,-0.000000000000000000e+00,8.170769549906253815e-03,-0.000000000000000000e+00,-0.000000000000000000e+00,2.989668212831020355e-02,-0.000000000000000000e+00,3.894688934087753296e-02,-0.000000000000000000e+00,-0.000000000000000000e+00,-0.000000000000000000e+00,-0.000000000000000000e+00,-0.000000000000000000e+00,3.041253797709941864e-02,-0.000000000000000000e+00,1.687652803957462311e-02,-0.000000000000000000e+00,2.960353903472423553e-02,-0.000000000000000000e+00,-0.000000000000000000e+00,-0.000000000000000000e+00,-0.000000000000000000e+00,3.114781714975833893e-02,1.966173574328422546e-02,4.172077029943466187e-02,-0.000000000000000000e+00,2.108731120824813843e-02,-0.000000000000000000e+00,3.668211400508880615e-02,-0.000000000000000000e+00,-0.000000000000000000e+00,-0.000000000000000000e+00,2.131526730954647064e-02,3.908711299300193787e-02,-0.000000000000000000e+00,-0.000000000000000000e+00,4.551852494478225708e-02,-0.000000000000000000e+00,1.996604166924953461e-02,2.578994072973728180e-02,-0.000000000000000000e+00,5.910810828208923340e-02,-0.000000000000000000e+00,7.340769283473491669e-03,2.221038099378347397e-03,-0.000000000000000000e+00,5.256513133645057678e-02,-0.000000000000000000e+00,2.538407221436500549e-02,-0.000000000000000000e+00,-0.000000000000000000e+00,-0.000000000000000000e+00,-0.000000000000000000e+00,1.038011256605386734e-02,1.770981587469577789e-02,-0.000000000000000000e+00,-0.000000000000000000e+00,-0.000000000000000000e+00,1.326000783592462540e-02,6.535576656460762024e-03,3.818640112876892090e-02,1.672648079693317413e-02,-0.000000000000000000e+00,4.169756546616554260e-02,5.953133478760719299e-02,5.739706754684448242e-02,-0.000000000000000000e+00,3.739168867468833923e-02,2.827052772045135498e-02,3.639311343431472778e-02,-0.000000000000000000e+00,4.600451141595840454e-02,4.086321219801902771e-02,3.733763098716735840e-02,2.835784293711185455e-02,-0.000000000000000000e+00,5.790685117244720459e-02,-0.000000000000000000e+00,-0.000000000000000000e+00,1.252952683717012405e-02,3.655175864696502686e-02,-0.000000000000000000e+00,9.221331216394901276e-03,5.300886929035186768e-02,-0.000000000000000000e+00,2.884146571159362793e-02,-0.000000000000000000e+00,5.495498329401016235e-02,6.295645982027053833e-02,-0.000000000000000000e+00,-0.000000000000000000e+00,-0.000000000000000000e+00,9.747835807502269745e-03,3.280831128358840942e-02,-0.000000000000000000e+00,2.980305440723896027e-02,-0.000000000000000000e+00,-0.000000000000000000e+00
7.309705484658479691e-03,-0.000000000000000000e+00,-0.000000000000000000e+00,1.329926308244466782e-02,-0.000000000000000000e+00,4.456883668899536133e-02,-0.000000000000000000e+00,-0.000000000000000000e+00,4.493559151887893677e-02,4.894728213548660278e-02,3.937785699963569641e-02,-0.000000000000000000e+00,-0.000000000000000000e+00,-0.000000000000000000e+00,6.297917664051055908e-02,-0.000000000000000000e+00,1.972460374236106873e-02,3.263453254476189613e-03,-0.000000000000000000e+00,-0.000000000000000000e+00,8.480913937091827393e-03,7.894412614405155182e-03,4.107495397329330444e-02,4.930872470140457153e-02,3.658819943666458130e-02,-0.000000000000000000e+00,-0.000000000000000000e+00,-0.000000000000000000e+00,-0.000000000000000000e+00,6.317818909883499146e-02,-0.000000000000000000e+00,-0.000000000000000000e+00,-0.000000000000000000e+00,1.911029405891895294e-02,1.621540432097390294e-04,-0.000000000000000000e+00,-0.000000000000000000e+00,4.011101275682449341e-02,-0.000000000000000000e+00,7.132286205887794495e-03,-0.000000000000000000e+00,1.159754209220409393e-02,-0.000000000000000000e+00,-0.000000000000000000e+00,-0.000000000000000000e+00,-0.000000000000000000e+00,-0.000000000000000000e+00,2.902101166546344757e-02,-0.000000000000000000e+00,1.010966859757900238e-02,2.034505084156990051e-02,-0.000000000000000000e+00,3.889444470405578613e-02,-0.000000000000000000e+00,-0.000000000000000000e+00,-0.000000000000000000e+00,1.885704882442951202e-02,-0.000000000000000000e+00,-0.000000000000000000e+00,-0.000000000000000000e+00,-0.000000000000000000e+00,1.534393429756164551e-02,1.498437765985727310e-02,2.455106377601623535e-02,1.949735172092914581e-02,4.989297129213809967e-03,-0.000000000000000000e+00,-0.000000000000000000e+00,-0.000000000000000000e+00,-0.000000000000000000e+00,-0.000000000000000000e+00,-0.000000000000000000e+00,-0.000000000000000000e+00,-0.000000000000000000e+00,3.970766812562942505e-02,-0.000000000000000000e+00,3.037837706506252289e-02,-0.000000000000000000e+00,4.710876941680908203e-02,5.354863777756690979e-02,2.293653041124343872e-02,-0.000000000000000000e+00,-0.000000000000000000e+00,4.201559349894523621e-02,2.037129364907741547e-02,-0.000000000000000000e+00,3.574501723051071167e-02,-0.000000000000000000e+00,-0.000000000000000000e+00,4.435461759567260742e-02,-0.000000000000000000e+00,9.171268902719020844e-03,3.399625420570373535e-02,1.272333320230245590e-02,6.740452721714973450e-03,-0.000000000000000000e+00,1.918873563408851624e-02,1.921610534191131592e-02,2.502760663628578186e-02,-0.000000000000000000e+00,4.144120588898658752e-02,-0.000000000000000000e+00,1.435079518705606461e-02,5.287395045161247253e-02,5.043290182948112488e-02,-0.000000000000000000e+00,5.501152202486991882e-02,2.973299706354737282e-03,3.336819633841514587e-02,6.337109208106994629e-02,-0.000000000000000000e+00,3.431329131126403809e-02,1.351908780634403229e-02,-0.000000000000000000e+00,-0.000000000000000000e+00,-0.000000000000000000e+00,-0.000000000000000000e+00,-0.000000000000000000e+00,4.854572564363479614e-02,3.521135076880455017e-03,4.845781996846199036e-02,-0.000000000000000000e+00,-0.000000000000000000e+00,-0.000000000000000000e+00,6.143012642860412598e-02,1.908691041171550751e-02,1.376729551702737808e-02,6.219366565346717834e-02
-0.000000000000000000e+00,5.611608177423477173e-02,5.930800456553697586e-03,2.364235185086727142e-02,4.165781661868095398e-02,-0.000000000000000000e+00,6.008376553654670715e-02,5.731087550520896912e-02,3.565303981304168701e-02,6.245141383260488510e-03,4.085559025406837463e-02,3.339987248182296753e-02,5.716111138463020325e-02,-0.000000000000000000e+00,-0.000000000000000000e+00,-0.000000000000000000e+00,-0.000000000000000000e+00,1.815999113023281097e-02,-0.000000000000000000e+00,9.489223361015319824e-03,-0.000000000000000000e+00,-0.000000000000000000e+00,5.190322920680046082e-02,4.412297159433364868e-02,-0.000000000000000000e+00,-0.000000000000000000e+00,6.305102258920669556e-02,5.954414233565330505e-02,4.211134091019630432e-02,-0.000000000000000000e+00,-0.000000000000000000e+00,-0.000000000000000000e+00,-0.000000000000000000e+00,5.168959125876426697e-02,4.800001531839370728e-02,6.169107183814048767e-02,6.849652156233787537e-03,2.570129698142409325e-03,5.019749701023101807e-02,-0.000000000000000000e+00,-0.000000000000000000e+00,4.457914084196090698e-02,3.871110454201698303e-02,-0.000000000000000000e+00,1.679951883852481842e-02,-0.000000000000000000e+00,3.168678842484951019e-03,-0.000000000000000000e+00,4.867132380604743958e-02,-0.000000000000000000e+00,5.064849555492401123e-02,6.044636666774749756e-02,1.058225426822900772e-02,-0.000000000000000000e+00,-0.000000000000000000e+00,-0.000000000000000000e+00,-0.000000000000000000e+00,-0.000000000000000000e+00,-0.000000000000000000e+00,2.357907965779304504e-02,-0.000000000000000000e+00,-0.000000000000000000e+00,-0.000000000000000000e+00,-0.000000000000000000e+00,1.199418492615222931e-02,-0.000000000000000000e+00,-0.000000000000000000e+00,-0.000000000000000000e+00,2.654322795569896698e-02,-0.000000000000000000e+00,-0.000000000000000000e+00,-0.000000000000000000e+00,5.227922461926937103e-03,2.183595485985279083e-02,4.391632229089736938e-02,-0.000000000000000000e+00,5.794205144047737122e-02,1.365149673074483871e-02,-0.000000000000000000e+00,1.191728562116622925e-02,2.498763427138328552e-02,4.381901398301124573e-02,1.473496202379465103e-02,-0.000000000000000000e+00,-0.000000000000000000e+00,1.523131504654884338e-02,-0.000000000000000000e+00,-0.000000000000000000e+00,2.992074936628341675e-02,-0.000000000000000000e+00,-0.000000000000000000e+00,-0.000000000000000000e+00,-0.000000000000000000e+00,6.298209726810455322e-02,-0.000000000000000000e+00,4.910721629858016968e-02,3.242142871022224426e-02,7.467595860362052917e-03,2.511574327945709229e-02,-0.000000000000000000e+00,2.643441595137119293e-02,2.461638860404491425e-02,5.911975726485252380e-02,-0.000000000000000000e+00,-0.000000000000000000e+00,-0.000000000000000000e+00,-0.000000000000000000e+00,-0.000000000000000000e+00,1.782376691699028015e-02,3.120809793472290039e-02,-0.000000000000000000e+00,-0.000000000000000000e+00,-0.000000000000000000e+00,4.245048761367797852e-02,-0.000000000000000000e+00,-0.000000000000000000e+00,-0.000000000000000000e+00,2.894995734095573425e-02,3.423395752906799316e-02,-0.000000000000000000e+00,9.330520406365394592e-03,-0.000000000000000000e+00,-0.000000000000000000e+00,2.177182026207447052e-02,-0.000000000000000000e+00,2.924959547817707062e-02,2.858554758131504059e-02,-0.000000000000000000e+00
-0.000000000000000000e+00,-0.000000000000000000e+00,3.128338232636451721e-02,-0.000000000000000000e+00,-0.000000000000000000e+00,-0.000000000000000000e+00,-0.000000000000000000e+00,3.317920118570327759e-02,6.363223493099212646e-02,-0.000000000000000000e+00,2.181684225797653198e-02,-0.000000000000000000e+00,9.665947407484054565e-03,-0.000000000000000000e+00,5.733660608530044556e-02,2.163918502628803253e-02,1.859671622514724731e-02,4.391341656446456909e-02,-0.000000000000000000e+00,5.945939570665359497e-02,1.239078119397163391e-03,-0.000000000000000000e+00,-0.000000000000000000e+00,5.669802427291870117e-02,4.163459688425064087e-02,-0.000000000000000000e+00,-0.000000000000000000e+00,2.858325373381376266e-03,5.870756506919860840e-02,-0.000000000000000000e+00,5.423115566372871399e-02,-0.000000000000000000e+00,-0.000000000000000000e+00,-0.000000000000000000e+00,-0.000000000000000000e+00,4.953517764806747437e-02,5.841236095875501633e-03,2.426392957568168640e-02,5.462405085563659668e-02,1.969147101044654846e-02,5.353735014796257019e-02,1.164116803556680679e-02,2.956143021583557129e-02,-0.000000000000000000e+00,9.797391248866915703e-04,-0.000000000000000000e+00,6.117018312215805054e-02,7.692959159612655640e-03,-0.000000000000000000e+00,6.233623251318931580e-02,1.707405969500541687e-02,-0.000000000000000000e+00,3.994496539235115051e-02,-0.000000000000000000e+00,-0.000000000000000000e+00,6.271400302648544312e-02,9.809064678847789764e-03,-0.000000000000000000e+00,4.272237792611122131e-02,4.652215167880058289e-02,-0.000000000000000000e+00,5.446367338299751282e-02,4.771501198410987854e-02,5.087185651063919067e-02,-0.000000000000000000e+00,4.032115265727043152e-02,-0.000000000000000000e+00,-0.000000000000000000e+00,-0.000000000000000000e+00,-0.000000000000000000e+00,1.499867415986955166e-03,-0.000000000000000000e+00,-0.000000000000000000e+00,1.213563885539770126e-02,3.475607605651021004e-03,-0.000000000000000000e+00,4.328420758247375488e-02,-0.000000000000000000e+00,4.306014999747276306e-02,-0.000000000000000000e+00,-0.000000000000000000e+00,4.085848107933998108e-02,-0.000000000000000000e+00,-0.000000000000000000e+00,-0.000000000000000000e+00,5.513737443834543228e-03,-0.000000000000000000e+00,-0.000000000000000000e+00,4.831036925315856934e-02,-0.000000000000000000e+00,-0.000000000000000000e+00,-0.000000000000000000e+00,-0.000000000000000000e+00,-0.000000000000000000e+00,-0.000000000000000000e+00,-0.000000000000000000e+00,-0.000000000000000000e+00,-0.000000000000000000e+00,-0.000000000000000000e+00,-0.000000000000000000e+00,-0.000000000000000000e+00,-0.000000000000000000e+00,5.319791845977306366e-03,3.317207098007202148e-02,3.795174509286880493e-02,5.803493782877922058e-02,3.642910346388816833e-02,-0.000000000000000000e+00,5.697700381278991699e-02,-0.000000000000000000e+00,5.342033877968788147e-02,-0.000000000000000000e+00,5.911383032798767090e-02,3.958585858345031738e-02,2.092888765037059784e-02,-0.000000000000000000e+00,-0.000000000000000000e+00,4.903142154216766357e-02,1.922300318256020546e-03,4.542145133018493652e-02,-0.000000000000000000e+00,3.525167703628540039e-02,5.404839292168617249e-02,-0.000000000000000000e+00,8.779794006841257215e-05,-0.000000000000000000e+00,-0.000000000000000000e+00,-0.000000000000000000e+00
-0.000000000000000000e+00,5.599821731448173523e-02,-0.000000000000000000e+00,-0.000000000000000000e+00,5.732266977429389954e-02,2.738698944449424744e-02,-0.000000000000000000e+00,4.712177440524101257e-02,3.466111049056053162e-02,-0.000000000000000000e+00,-0.000000000000000000e+00,4.284603148698806763e-02,-0.000000000000000000e+00,2.272739075124263763e-02,4.662731289863586426e-02,-0.000000000000000000e+00,-0.000000000000000000e+00,5.677558854222297668e-02,-0.000000000000000000e+00,-0.000000000000000000e+00,4.946320131421089172e-02,4.506662487983703613e-02,-0.000000000000000000e+00,-0.000000000000000000e+00,1.265161763876676559e-02,3.559740632772445679e-02,-0.000000000000000000e+00,-0.000000000000000000e+00,1.390781998634338379e-02,-0.000000000000000000e+00,-0.000000000000000000e+00,-0.000000000000000000e+00,4.368949681520462036e-02,1.404874771833419800e-02,6.377356499433517456e-02,3.934758529067039490e-02,-0.000000000000000000e+00,-0.000000000000000000e+00,6.122830882668495178e-02,1.777128316462039948e-02,4.407613724470138550e-02,-0.000000000000000000e+00,-0.000000000000000000e+00,-0.000000000000000000e+00,-0.000000000000000000e+00,5.934738367795944214e-02,-0.000000000000000000e+00,-0.000000000000000000e+00,-0.000000000000000000e+00,-0.000000000000000000e+00,7.231499999761581421e-03,2.817886881530284882e-02,1.481985114514827728e-02,5.794730782508850098e-02,-0.000000000000000000e+00,1.626023463904857635e-02,-0.000000000000000000e+00,-0.000000000000000000e+00,-0.000000000000000000e+00,-0.000000000000000000e+00,-0.000000000000000000e+00,4.454053938388824463e-02,3.220421075820922852e-02,5.939316004514694214e-02,-0.000000000000000000e+00,2.365341223776340485e-02,-0.000000000000000000e+00,-0.000000000000000000e+00,-0.000000000000000000e+00,9.993767598643898964e-04,-0.000000000000000000e+00,2.779019623994827271e-02,-0.000000000000000000e+00,4.710385575890541077e-02,-0.000000000000000000e+00,8.738433010876178741e-03,-0.000000000000000000e+00,-0.000000000000000000e+00,-0.000000000000000000e+00,2.287739515304565430e-02,-0.000000000000000000e+00,-0.000000000000000000e+00,1.448617689311504364e-02,-0.000000000000000000e+00,2.439265698194503784e-02,5.120729655027389526e-02,3.407113254070281982e-02,2.090441249310970306e-02,6.906971335411071777e-03,-0.000000000000000000e+00,4.541516304016113281e-02,-0.000000000000000000e+00,1.517341285943984985e-02,-0.000000000000000000e+00,-0.000000000000000000e+00,-0.000000000000000000e+00,8.225520723499357700e-04,-0.000000000000000000e+00,-0.000000000000000000e+00,-0.000000000000000000e+00,-0.000000000000000000e+00,5.408838391304016113e-02,7.529055234044790268e-03,1.159141864627599716e-02,-0.000000000000000000e+00,-0.000000000000000000e+00,6.920740008354187012e-03,4.098112508654594421e-02,-0.000000000000000000e+00,2.692801505327224731e-02,4.346656054258346558e-02,4.358534142374992371e-02,6.207006424665451050e-02,-0.000000000000000000e+00,2.301337197422981262e-02,4.703533649444580078e-02,-0.000000000000000000e+00,-0.000000000000000000e+00,2.908587455749511719e-02,2.144016139209270477e-02,-0.000000000000000000e+00,1.033648755401372910e-02,3.300135955214500427e-02,2.051106467843055725e-02,-0.000000000000000000e+00,-0.000000000000000000e+00,-0.000000000000000000e+00,-0.000000000000000000e+00
-0.000000000000000000e+00,1.181001681834459305e-02,2.736717648804187775e-02,5.618894845247268677e-02,-0.000000000000000000e+00,-0.000000000000000000e+00,5.821825936436653137e-02,2.379634976387023926e-02,-0.000000000000000000e+00,-0.000000000000000000e+00,2.107893116772174835e-03,6.287958472967147827e-02,5.996960029006004333e-02,1.711611822247505188e-02,8.357035927474498749e-03,6.060633435845375061e-02,3.339152410626411438e-02,8.017543703317642212e-03,-0.000000000000000000e+00,1.419834885746240616e-02,-0.000000000000000000e+00,-0.000000000000000000e+00,4.238282889127731323e-02,-0.000000000000000000e+00,-0.000000000000000000e+00,4.590070620179176331e-02,-0.000000000000000000e+00,5.139215290546417236e-02,3.590558841824531555e-02,3.157671540975570679e-02,1.453623361885547638e-02,-0.000000000000000000e+00,-0.000000000000000000e+00,1.611085049808025360e-02,-0.000000000000000000e+00,-0.000000000000000000e+00,-0.000000000000000000e+00,-0.000000000000000000e+00,6.225850060582160950e-02,-0.000000000000000000e+00,-0.000000000000000000e+00,2.215242385864257812e-02,-0.000000000000000000e+00,1.620422676205635071e-02,-0.000000000000000000e+00,2.945790067315101624e-02,5.337229464203119278e-03,-0.000000000000000000e+00,1.372982095927000046e-02,5.159048736095428467e-02,1.594626344740390778e-02,3.877954185009002686e-02,-0.000000000000000000e+00,3.752585500478744507e-02,-0.000000000000000000e+00,4.883109033107757568e-02,7.317436859011650085e-03,2.959691733121871948e-02,2.037309668958187103e-02,-0.000000000000000000e+00,-0.000000000000000000e+00,2.251739986240863800e-02,-0.000000000000000000e+00,-0.000000000000000000e+00,-0.000000000000000000e+00,-0.000000000000000000e+00,-0.000000000000000000e+00,4.146981984376907349e-02,-0.000000000000000000e+00,-0.000000000000000000e+00,2.993116155266761780e-02,1.621368713676929474e-02,-0.000000000000000000e+00,-0.000000000000000000e+00,5.788361653685569763e-02,-0.000000000000000000e+00,2.843369171023368835e-02,1.539653912186622620e-02,1.735439151525497437e-02,-0.000000000000000000e+00,5.869316309690475464e-02,-0.000000000000000000e+00,5.490773543715476990e-02,-0.000000000000000000e+00,-0.000000000000000000e+00,-0.000000000000000000e+00,4.622412845492362976e-02,-0.000000000000000000e+00,-0.000000000000000000e+00,3.805556520819664001e-02,7.981438189744949341e-03,6.676346529275178909e-03,-0.000000000000000000e+00,-0.000000000000000000e+00,4.805282130837440491e-02,-0.000000000000000000e+00,1.327538513578474522e-03,-0.000000000000000000e+00,-0.000000000000000000e+00,-0.000000000000000000e+00,3.119240328669548035e-02,3.114665858447551727e-03,4.659350495785474777e-03,1.353406812995672226e-03,2.266115508973598480e-02,6.224178150296211243e-02,6.287562102079391479e-02,-0.000000000000000000e+00,-0.000000000000000000e+00,3.707690909504890442e-02,-0.000000000000000000e+00,-0.000000000000000000e+00,-0.000000000000000000e+00,-0.000000000000000000e+00,-0.000000000000000000e+00,1.373850554227828979e-02,2.559121884405612946e-02,5.501256324350833893e-03,5.946556106209754944e-02,6.082592159509658813e-02,2.360374853014945984e-02,1.284511643461883068e-03,-0.000000000000000000e+00,-0.000000000000000000e+00,-0.000000000000000000e+00,3.111701831221580505e-02,5.194025859236717224e-02,-0.000000000000000000e+00
4.624181613326072693e-02,-0.000000000000000000e+00,-0.000000000000000000e+00,5.113254114985466003e-02,2.541644498705863953e-02,5.308560654520988464e-02,-0.000000000000000000e+00,-0.000000000000000000e+00,-0.000000000000000000e+00,1.931011490523815155e-02,-0.000000000000000000e+00,2.739124465733766556e-03,2.138584852218627930e-02,8.600684814155101776e-04,1.204067189246416092e-02,-0.000000000000000000e+00,-0.000000000000000000e+00,4.917495325207710266e-02,-0.000000000000000000e+00,-0.000000000000000000e+00,-0.000000000000000000e+00,2.622465789318084717e-02,-0.000000000000000000e+00,1.454135589301586151e-02,4.279640503227710724e-03,3.656565770506858826e-02,3.879607841372489929e-02,5.048960447311401367e-02,8.105798042379319668e-04,4.364286363124847412e-02,-0.000000000000000000e+00,1.961764879524707794e-02,-0.000000000000000000e+00,-0.000000000000000000e+00,5.924455448985099792e-02,1.744557730853557587e-02,5.386646836996078491e-03,-0.000000000000000000e+00,5.760818719863891602e-02,2.761599980294704437e-02,4.015605896711349487e-02,2.723421715199947357e-02,-0.000000000000000000e+00,-0.000000000000000000e+00,3.957070782780647278e-02,-0.000000000000000000e+00,2.782367914915084839e-02,1.948934979736804962e-02,-0.000000000000000000e+00,4.663228616118431091e-02,-0.000000000000000000e+00,6.093475036323070526e-03,-0.000000000000000000e+00,5.237874388694763184e-02,-0.000000000000000000e+00,6.254689395427703857e-02,-0.000000000000000000e+00,8.721699006855487823e-03,-0.000000000000000000e+00,-0.000000000000000000e+00,5.595206096768379211e-02,-0.000000000000000000e+00,4.500151425600051880e-02,5.680315196514129639e-03,-0.000000000000000000e+00,1.936601707711815834e-03,1.590701937675476074e-02,4.141421616077423096e-02,-0.000000000000000000e+00,-0.000000000000000000e+00,4.732202365994453430e-02,-0.000000000000000000e+00,3.387087956070899963e-03,-0.000000000000000000e+00,-0.000000000000000000e+00,3.547122329473495483e-02,3.382059559226036072e-02,-0.000000000000000000e+00,-0.000000000000000000e+00,1.938556134700775146e-02,-0.000000000000000000e+00,2.442840114235877991e-02,-0.000000000000000000e+00,5.593546479940414429e-02,-0.000000000000000000e+00,1.303699240088462830e-02,5.664605647325515747e-02,6.095241382718086243e-02,2.860612235963344574e-02,-0.000000000000000000e+00,1.416466402588412166e-04,3.360025212168693542e-02,-0.000000000000000000e+00,-0.000000000000000000e+00,-0.000000000000000000e+00,-0.000000000000000000e+00,4.973945394158363342e-02,-0.000000000000000000e+00,6.032835692167282104e-03,-0.000000000000000000e+00,-0.000000000000000000e+00,2.733631990849971771e-03,-0.000000000000000000e+00,2.185467816889286041e-02,2.682989463210105896e-02,-0.000000000000000000e+00,-0.000000000000000000e+00,3.555920347571372986e-02,6.135033443570137024e-02,-0.000000000000000000e+00,3.168979287147521973e-02,6.528656464070081711e-03,8.482272736728191376e-03,3.002834878861904144e-02,5.115982145071029663e-02,-0.000000000000000000e+00,-0.000000000000000000e+00,-0.000000000000000000e+00,-0.000000000000000000e+00,2.613102085888385773e-02,-0.000000000000000000e+00,-0.000000000000000000e+00,1.896020956337451935e-02,-0.000000000000000000e+00,1.356919761747121811e-03,-0.000000000000000000e+00,1.902747899293899536e-02,-0.000000000000000000e+00
3.887201845645904541e-02,-0.000000000000000000e+00,4.087556526064872742e-02,-0.000000000000000000e+00,-0.000000000000000000e+00,-0.000000000000000000e+00,4.930024594068527222e-02,3.064336627721786499e-02,4.808583483099937439e-02,5.970305949449539185e-02,4.568546637892723083e-02,6.010683625936508179e-02,-0.000000000000000000e+00,-0.000000000000000000e+00,5.475755780935287476e-02,-0.000000000000000000e+00,-0.000000000000000000e+00,-0.000000000000000000e+00,-0.000000000000000000e+00,-0.000000000000000000e+00,3.756403923034667969e-02,-0.000000000000000000e+00,-0.000000000000000000e+00,-0.000000000000000000e+00,-0.000000000000000000e+00,-0.000000000000000000e+00,-0.000000000000000000e+00,-0.000000000000000000e+00,2.231112122535705566e-02,1.727866008877754211e-03,-0.000000000000000000e+00,-0.000000000000000000e+00,-0.000000000000000000e+00,-0.000000000000000000e+00,2.985605597496032715e-02,-0.000000000000000000e+00,6.214532256126403809e-02,1.513817068189382553e-02,3.449556976556777954e-02,2.059709839522838593e-02,2.722687646746635437e-02,-0.000000000000000000e+00,5.543224886059761047e-02,-0.000000000000000000e+00,3.052607178688049316e-02,-0.000000000000000000e+00,-0.000000000000000000e+00,2.695361338555812836e-02,2.585890330374240875e-02,5.631770938634872437e-02,5.566183850169181824e-02,-0.000000000000000000e+00,5.479170754551887512e-02,3.730878233909606934e-02,2.314875647425651550e-02,-0.000000000000000000e+00,5.287417396903038025e-02,-0.000000000000000000e+00,-0.000000000000000000e+00,-0.000000000000000000e+00,3.339676931500434875e-02,-0.000000000000000000e+00,-0.000000000000000000e+00,-0.000000000000000000e+00,-0.000000000000000000e+00,-0.000000000000000000e+00,1.914461329579353333e-02,1.538930833339691162e-02,-0.000000000000000000e+00,2.434906736016273499e-02,-0.000000000000000000e+00,5.810149386525154114e-02,-0.000000000000000000e+00,-0.000000000000000000e+00,2.042355947196483612e-02,-0.000000000000000000e+00,2.945171296596527100e-02,4.332758486270904541e-02,6.349493563175201416e-02,3.882921114563941956e-02,3.229802846908569336e-02,-0.000000000000000000e+00,-0.000000000000000000e+00,5.636887997388839722e-02,6.094511970877647400e-02,2.051473362371325493e-03,-0.000000000000000000e+00,5.729929730296134949e-02,2.424471266567707062e-02,-0.000000000000000000e+00,-0.000000000000000000e+00,-0.000000000000000000e+00,4.660585522651672363e-02,6.292364746332168579e-02,5.300539359450340271e-02,4.914449900388717651e-02,-0.000000000000000000e+00,-0.000000000000000000e+00,-0.000000000000000000e+00,-0.000000000000000000e+00,-0.000000000000000000e+00,-0.000000000000000000e+00,3.392747417092323303e-02,-0.000000000000000000e+00,-0.000000000000000000e+00,6.028096005320549011e-02,-0.000000000000000000e+00,-0.000000000000000000e+00,5.709211155772209167e-02,3.018855862319469452e-02,2.652535028755664825e-02,-0.000000000000000000e+00,4.975679516792297363e-02,-0.000000000000000000e+00,-0.000000000000000000e+00,3.711847960948944092e-02,-0.000000000000000000e+00,-0.000000000000000000e+00,-0.000000000000000000e+00,-0.000000000000000000e+00,-0.000000000000000000e+00,-0.000000000000000000e+00,-0.000000000000000000e+00,-0.000000000000000000e+00,5.487623065710067749e-02,-0.000000000000000000e+00,2.088968540192581713e-05,1.611151918768882751e-02
3.283908218145370483e-02,1.047132158760177845e-08,4.459991032490506768e-05,5.598913505673408508e-02,2.295962069183588028e-03,-0.000000000000000000e+00,1.110546663403511047e-02,3.335607796907424927e-02,1.436952967196702957e-03,4.712989553809165955e-02,1.296229008585214615e-02,2.255547093227505684e-03,5.622157454490661621e-02,-0.000000000000000000e+00,5.911176558583974838e-04,5.031833052635192871e-02,5.899640545248985291e-02,4.039838537573814392e-02,3.355191648006439209e-02,1.437451131641864777e-02,4.948051646351814270e-02,4.792997241020202637e-02,5.918261408805847168e-02,3.245975676691159606e-05,-0.000000000000000000e+00,-0.000000000000000000e+00,-0.000000000000000000e+00,6.104150786995887756e-02,1.535623148083686829e-02,1.509068626910448074e-02,2.408445812761783600e-03,9.710261365398764610e-04,2.614944241940975189e-02,5.909284576773643494e-02,-0.000000000000000000e+00,6.397019092219125014e-08,3.534559905529022217e-02,6.523368507623672485e-02,3.589274228943395428e-07,6.103926571086049080e-04,5.931151008553570136e-06,5.840429803356528282e-04,7.793200893502216786e-06,1.734017569106072187e-04,2.572022192180156708e-02,1.042398798745125532e-04,2.450285013765096664e-03,6.353419274091720581e-02,5.416951701045036316e-02,4.437007755041122437e-02,2.875484339892864227e-02,4.014722257852554321e-02,2.414546208456158638e-03,1.027807502396171913e-05,1.975135412067174911e-03,2.473172266036272049e-03,2.544726710766553879e-03,4.956544935703277588e-02,1.810107642086222768e-04,5.838530228174931835e-07,1.906698010861873627e-02,4.164766892790794373e-02,9.726121788844466209e-04,8.208055049180984497e-03,9.311638393683097092e-08,2.755668945610523224e-03,9.724316441861446947e-06,2.069078152999281883e-03,4.485665634274482727e-02,1.721562072634696960e-02,-0.000000000000000000e+00,2.612757869064807892e-02,4.136592894792556763e-02,1.818797923624515533e-02,1.128293006331659853e-04,4.427131898410152644e-06,1.200937571610438681e-08,3.178831189870834351e-02,6.608772091567516327e-03,2.112971618771553040e-03,1.485632266849279404e-02,5.454445257782936096e-02,3.413768857717514038e-02,2.598042041063308716e-02,9.321200661361217499e-03,2.117730909958481789e-03,2.139465697109699249e-02,2.819347901095170528e-05,1.809184253215789795e-02,1.506646350026130676e-02,1.208010944537818432e-03,5.890978500247001648e-02,4.568390548229217529e-02,5.938437208533287048e-02,3.805790096521377563e-03,1.762482104822993279e-03,9.666483849287033081e-03,5.972961708903312683e-02,2.409174015838289051e-08,2.615063916891813278e-03,2.260846644639968872e-02,1.603429764509201050e-02,1.025216770358383656e-03,3.897330537438392639e-02,6.041513383388519287e-02,-0.000000000000000000e+00,4.438519317773170769e-05,2.063850872218608856e-02,2.298807352781295776e-02,1.190265920013189316e-02,8.487861603498458862e-03,1.890099234879016876e-02,5.841382488824820030e-08,5.399752780795097351e-02,1.403824775479733944e-03,3.347794339060783386e-02,1.118997315643355250e-04,-0.000000000000000000e+00,3.636935353279113770e-02,5.042843520641326904e-02,1.577927730977535248e-02,4.614426568150520325e-02,7.771066739223897457e-04,7.316821138374507427e-04,1.261926663573831320e-04,2.194830030202865601e-02,-0.000000000000000000e+00,-0.000000000000000000e+00
2.841010768861451652e-07,2.262022604782032431e-07,4.268791526556015015e-04,4.054851084947586060e-02,4.518948495388031006e-03,4.326719790697097778e-02,1.404278577865625266e-06,7.023782003670930862e-03,2.901513595134019852e-03,3.256000578403472900e-03,7.205023616552352905e-02,4.724371712654829025e-03,4.138081520795822144e-02,-0.000000000000000000e+00,1.263658865354955196e-03,5.123687535524368286e-02,1.036100911733228713e-05,6.509093940258026123e-02,5.752822756767272949e-02,1.793702691793441772e-02,-0.000000000000000000e+00,5.623677372932434082e-02,1.645522570470348001e-04,6.879041029606014490e-05,-0.000000000000000000e+00,1.347835734486579895e-02,2.169785089790821075e-02,2.806382067501544952e-02,4.250394180417060852e-02,-0.000000000000000000e+00,5.089969187974929810e-02,4.290739819407463074e-02,4.049790278077125549e-02,4.574531689286231995e-02,-0.000000000000000000e+00,1.381449919790611602e-06,1.681753019511234015e-05,7.141190581023693085e-03,7.747556082904338837e-06,2.371307462453842163e-02,1.570338569581508636e-02,1.441830536350607872e-03,1.768573747540358454e-05,3.391976654529571533e-02,6.150240451097488403e-02,7.261488935910165310e-04,2.206504903733730316e-02,6.112677976489067078e-03,5.954978519184805918e-07,1.562962075695395470e-03,5.436849221587181091e-02,4.508633166551589966e-02,4.021943360567092896e-02,2.122415571648161858e-05,4.225039854645729065e-03,2.317963168025016785e-02,2.008775621652603149e-02,1.303803628616151400e-06,1.529629621654748917e-02,1.260819954040925950e-05,5.869371761946240440e-07,1.290552783757448196e-02,1.498763915151357651e-02,2.564007788896560669e-02,2.011262722589890473e-06,5.448841955512762070e-03,2.306612441316246986e-05,4.283358901739120483e-02,2.185344328609062359e-06,6.746494676917791367e-03,4.797251522541046143e-02,2.814595121890306473e-03,2.990850771311670542e-04,5.943509191274642944e-02,3.303062915802001953e-02,3.298209607601165771e-02,3.134561330080032349e-02,1.335424749413505197e-04,4.073293134570121765e-02,4.100728407502174377e-02,-0.000000000000000000e+00,3.103299252688884735e-02,1.091979816555976868e-02,-0.000000000000000000e+00,4.740770440548658371e-03,4.396672360599040985e-03,8.055714890360832214e-03,4.848612844944000244e-02,-0.000000000000000000e+00,1.147334478446282446e-04,2.529164077714085579e-03,2.015535021200776100e-03,2.568190172314643860e-02,1.072602625936269760e-02,1.418017409741878510e-02,5.988184735178947449e-02,2.570435218513011932e-02,5.522536486387252808e-02,6.616605911403894424e-03,5.445863120257854462e-03,7.560163736343383789e-03,6.856116000562906265e-03,2.633113879710435867e-03,7.256698329001665115e-03,1.892865111585706472e-04,-0.000000000000000000e+00,9.614022565074265003e-05,5.416063964366912842e-02,3.803395852446556091e-02,4.542662203311920166e-02,2.470668405294418335e-02,4.105841368436813354e-02,1.261420152331993449e-06,-0.000000000000000000e+00,4.742510989308357239e-02,5.332434177398681641e-02,-0.000000000000000000e+00,-0.000000000000000000e+00,3.553358465433120728e-02,2.436588708576437057e-08,3.144610906019806862e-03,6.431312300264835358e-03,1.594374887645244598e-03,1.557524432428181171e-03,2.747118705883622169e-04,1.497106950409943238e-05,-0.000000000000000000e+00,-0.000000000000000000e+00
4.824808638659305871e-05,5.750290304422378540e-02,3.665348049253225327e-04,1.276483852416276932e-02,2.218718640506267548e-02,5.513125658035278320e-02,-0.000000000000000000e+00,4.749508661916479468e-05,-0.000000000000000000e+00,5.809168145060539246e-02,1.104253530502319336e-02,-0.000000000000000000e+00,3.065322153270244598e-02,3.404397889971733093e-02,-0.000000000000000000e+00,3.543750196695327759e-02,1.040611509233713150e-02,-0.000000000000000000e+00,-0.000000000000000000e+00,3.979946300387382507e-02,4.050092684337869287e-06,2.445432745190601054e-09,3.650365769863128662e-02,6.072338670492172241e-02,3.545723110437393188e-02,6.358384853228926659e-04,6.225860561244189739e-04,6.102482974529266357e-02,5.010383902117609978e-04,2.970062951135332696e-06,4.417839273810386658e-02,-0.000000000000000000e+00,1.072921918421343435e-06,2.527619471948128194e-05,-0.000000000000000000e+00,6.057578502804972231e-06,4.695636034011840820e-02,3.049975726753473282e-03,7.233447860926389694e-03,3.378523886203765869e-02,4.219106957316398621e-02,2.084351581288501620e-04,1.942298695212230086e-04,3.374289721250534058e-02,3.274663537740707397e-02,3.554289042949676514e-02,-0.000000000000000000e+00,2.951619401574134827e-02,6.037631258368492126e-02,3.640894719865173101e-04,5.472277989611029625e-04,-0.000000000000000000e+00,-0.000000000000000000e+00,2.535925596021115780e-04,5.497454851865768433e-02,-0.000000000000000000e+00,3.537324257194995880e-03,4.818966984748840332e-02,3.409454599022865295e-02,5.568816885352134705e-02,5.480127781629562378e-02,4.294097889214754105e-04,-0.000000000000000000e+00,1.806529238820075989e-02,4.951415210962295532e-02,6.087291985750198364e-02,4.588856827467679977e-04,1.098787652153987437e-05,5.169768701307475567e-04,2.961714006960391998e-02,3.997159656137228012e-03,4.226955398917198181e-02,-0.000000000000000000e+00,-0.000000000000000000e+00,3.647217527031898499e-02,-0.000000000000000000e+00,1.138145089498721063e-04,2.001754728553351015e-05,-0.000000000000000000e+00,3.911306709051132202e-02,6.693171453662216663e-04,2.046941808657720685e-04,2.892161346971988678e-02,7.600506251037586480e-07,-0.000000000000000000e+00,-0.000000000000000000e+00,4.059927014168351889e-04,2.714249712880700827e-04,-0.000000000000000000e+00,6.067587062716484070e-02,-0.000000000000000000e+00,2.402427780907601118e-04,3.952597326133400202e-04,-0.000000000000000000e+00,3.246348205721005797e-05,1.073943349183537066e-04,3.418024562051868998e-06,3.576437756419181824e-02,5.202992952035856433e-07,2.292321808636188507e-02,6.296736747026443481e-02,2.495101094245910645e-02,3.430952131748199463e-02,-0.000000000000000000e+00,-0.000000000000000000e+00,6.323000043630599976e-02,-0.000000000000000000e+00,2.343658270547166467e-04,1.319213770329952240e-03,4.547356365947052836e-05,5.177412554621696472e-02,5.114530399441719055e-02,1.142653543502092361e-02,2.195988345192745328e-04,-0.000000000000000000e+00,1.588959060609340668e-02,-0.000000000000000000e+00,-0.000000000000000000e+00,-0.000000000000000000e+00,3.769559953070711344e-06,4.949451610445976257e-02,2.932374365627765656e-02,3.264264389872550964e-02,-0.000000000000000000e+00,7.187256301222078037e-07,2.102179132634773850e-04,8.435868221567943692e-05,2.481832517275961436e-08
3.965214826166629791e-03,8.966714631242211908e-06,1.535220690129790455e-05,4.221129417419433594e-02,2.356798574328422546e-02,6.599741642077106007e-09,-0.000000000000000000e+00,1.235814765095710754e-02,-0.000000000000000000e+00,3.233092650771141052e-02,1.569177232596530303e-09,4.148995131254196167e-02,3.741399439149972750e-07,-0.000000000000000000e+00,4.968923702836036682e-02,2.546390146017074585e-02,2.310944364580791444e-05,2.313225157558917999e-02,-0.000000000000000000e+00,1.468045957153663039e-05,4.279536753892898560e-02,1.019077253139322181e-10,5.525247380137443542e-02,8.923290297389030457e-03,1.105619128793478012e-03,7.240965496748685837e-04,9.209831245243549347e-03,1.113513235395657830e-06,2.107508225890342146e-05,5.140522494912147522e-02,2.353357376705389470e-05,5.350404605269432068e-02,2.435245923697948456e-02,1.052600396178604569e-06,1.143221464008092880e-02,4.249671846628189087e-02,-0.000000000000000000e+00,5.063883494585752487e-03,2.382237836718559265e-02,4.816273599863052368e-02,7.953627573442645371e-06,3.083470650017261505e-02,1.702317222952842712e-02,3.997325897216796875e-02,2.910453804361168295e-05,5.115623027086257935e-02,-0.000000000000000000e+00,3.237072378396987915e-02,1.734072156978072599e-07,1.525520747236441821e-05,2.304114423168357462e-05,3.279797732830047607e-02,-0.000000000000000000e+00,6.176528334617614746e-02,3.235259652137756348e-02,-0.000000000000000000e+00,3.447386376365102478e-08,3.582301316782832146e-03,5.073575266578700393e-07,4.254716714058304206e-06,5.421921238303184509e-02,1.803579289116896689e-05,9.251364506781101227e-03,3.940181434154510498e-02,4.443639516830444336e-02,-0.000000000000000000e+00,1.928255733218975365e-05,4.601734131574630737e-02,8.877010084688663483e-03,5.276159754430409521e-06,-0.000000000000000000e+00,4.503831639885902405e-02,-0.000000000000000000e+00,4.326113034039735794e-03,3.588521622077678330e-07,-0.000000000000000000e+00,4.743862518807873130e-06,8.339702048942854162e-07,4.427317529916763306e-02,-0.000000000000000000e+00,5.998609215021133423e-02,8.539759619452524930e-06,1.529501378536224365e-02,3.166950435229409777e-08,2.886909060180187225e-02,4.961634799838066101e-02,1.697204424999654293e-05,2.547695674002170563e-02,5.830881372094154358e-02,-0.000000000000000000e+00,2.621021121740341187e-02,4.590511694550514221e-02,1.656612039369065315e-05,3.524727001786231995e-02,1.352291292278096080e-06,2.695643343031406403e-02,1.424149331796797924e-07,4.015726223587989807e-02,2.167941559605424118e-08,-0.000000000000000000e+00,4.491545951168518513e-06,-0.000000000000000000e+00,2.074549411190673709e-05,-0.000000000000000000e+00,-0.000000000000000000e+00,1.641498133540153503e-02,-0.000000000000000000e+00,9.761541150510311127e-06,1.896086246233608108e-06,1.894727120088646188e-06,8.273373168776743114e-06,5.662449449300765991e-02,2.353780902922153473e-02,9.160738954960834235e-06,3.437726199626922607e-02,4.034863820834289072e-07,4.627312719821929932e-02,5.148419365286827087e-02,-0.000000000000000000e+00,1.570143979279237101e-07,3.937983140349388123e-02,5.817251279950141907e-03,3.116423264145851135e-02,5.374864116311073303e-02,2.435882017016410828e-02,8.764724952925462276e-06,3.516297056194161996e-06,3.299568593502044678e-02
-0.000000000000000000e+00,1.473473012447357178e-02,-0.000000000000000000e+00,-0.000000000000000000e+00,2.225630730390548706e-02,-0.000000000000000000e+00,5.581495910882949829e-02,6.029269099235534668e-02,-0.000000000000000000e+00,6.060892343521118164e-02,-0.000000000000000000e+00,-0.000000000000000000e+00,2.505357563495635986e-02,3.732282668352127075e-02,1.778092794120311737e-02,-0.000000000000000000e+00,-0.000000000000000000e+00,-0.000000000000000000e+00,-0.000000000000000000e+00,-0.000000000000000000e+00,2.013378590345382690e-02,-0.000000000000000000e+00,6.240312755107879639e-02,-0.000000000000000000e+00,-0.000000000000000000e+00,-0.000000000000000000e+00,2.154273539781570435e-02,5.192276835441589355e-02,-0.000000000000000000e+00,-0.000000000000000000e+00,9.429506026208400726e-04,1.901064068078994751e-02,5.463178083300590515e-02,-0.000000000000000000e+00,3.492916747927665710e-02,6.245170254260301590e-03,3.717038407921791077e-02,1.929466798901557922e-02,-0.000000000000000000e+00,7.289051078259944916e-03,1.387818437069654465e-02,6.024710461497306824e-02,1.503786910325288773e-02,3.387622535228729248e-02,-0.000000000000000000e+00,3.692200034856796265e-02,3.770212456583976746e-02,2.842764835804700851e-03,1.090981718152761459e-02,9.049594518728554249e-04,-0.000000000000000000e+00,3.476823121309280396e-02,-0.000000000000000000e+00,-0.000000000000000000e+00,-0.000000000000000000e+00,5.796568468213081360e-02,-0.000000000000000000e+00,-0.000000000000000000e+00,8.676264435052871704e-03,-0.000000000000000000e+00,3.232248872518539429e-02,4.436033964157104492e-02,-0.000000000000000000e+00,4.638744518160820007e-02,4.418052267283201218e-03,1.417832076549530029e-02,-0.000000000000000000e+00,6.049155443906784058e-02,-0.000000000000000000e+00,2.361172810196876526e-02,5.182513035833835602e-03,-0.000000000000000000e+00,-0.000000000000000000e+00,-0.000000000000000000e+00,1.262302231043577194e-02,3.272426500916481018e-02,-0.000000000000000000e+00,-0.000000000000000000e+00,9.247413836419582367e-03,-0.000000000000000000e+00,1.738199591636657715e-02,4.112289845943450928e-02,4.608647525310516357e-02,-0.000000000000000000e+00,-0.000000000000000000e+00,6.516544381156563759e-04,-0.000000000000000000e+00,-0.000000000000000000e+00,-0.000000000000000000e+00,-0.000000000000000000e+00,-0.000000000000000000e+00,9.535961784422397614e-03,5.522506311535835266e-02,-0.000000000000000000e+00,-0.000000000000000000e+00,-0.000000000000000000e+00,1.046578586101531982e-02,2.514404058456420898e-02,-0.000000000000000000e+00,2.936500124633312225e-02,-0.000000000000000000e+00,5.985227599740028381e-02,-0.000000000000000000e+00,4.427284374833106995e-02,-0.000000000000000000e+00,-0.000000000000000000e+00,-0.000000000000000000e+00,-0.000000000000000000e+00,-0.000000000000000000e+00,2.925062738358974457e-02,-0.000000000000000000e+00,1.734900102019309998e-02,-0.000000000000000000e+00,-0.000000000000000000e+00,3.411941975355148315e-02,-0.000000000000000000e+00,5.478490889072418213e-02,-0.000000000000000000e+00,8.377240970730781555e-03,6.406078464351594448e-04,3.999995067715644836e-02,1.719719171524047852e-02,-0.000000000000000000e+00,1.962870545685291290e-02,-0.000000000000000000e+00,-0.000000000000000000e+00,-0.000000000000000000e+00,1.448840647935867310e-02
-0.000000000000000000e+00,1.119196240324527025e-04,-0.000000000000000000e+00,1.937096752226352692e-02,-0.000000000000000000e+00,-0.000000000000000000e+00,2.929470874369144440e-02,1.615920662879943848e-02,-0.000000000000000000e+00,-0.000000000000000000e+00,5.752911791205406189e-02,1.860986463725566864e-02,-0.000000000000000000e+00,1.110532507300376892e-02,-0.000000000000000000e+00,1.185493636876344681e-02,3.620469197630882263e-02,-0.000000000000000000e+00,4.907448962330818176e-02,-0.000000000000000000e+00,1.111051067709922791e-02,-0.000000000000000000e+00,4.465135559439659119e-02,5.364397913217544556e-02,3.302972018718719482e-02,-0.000000000000000000e+00,-0.000000000000000000e+00,3.117792122066020966e-02,-0.000000000000000000e+00,4.422961547970771790e-02,6.612839642912149429e-03,-0.000000000000000000e+00,5.876640602946281433e-02,4.575847089290618896e-02,5.714591220021247864e-02,2.315808087587356567e-02,4.420275986194610596e-02,-0.000000000000000000e+00,-0.000000000000000000e+00,4.896353930234909058e-02,-0.000000000000000000e+00,-0.000000000000000000e+00,-0.000000000000000000e+00,-0.000000000000000000e+00,-0.000000000000000000e+00,6.208506226539611816e-02,5.650368705391883850e-02,2.692044246941804886e-03,6.219149380922317505e-02,-0.000000000000000000e+00,-0.000000000000000000e+00,5.386701226234436035e-02,3.303015977144241333e-02,5.167750641703605652e-02,1.481412351131439209e-02,3.453638404607772827e-02,3.344761952757835388e-02,-0.000000000000000000e+00,-0.000000000000000000e+00,5.435030907392501831e-02,1.315542776137590408e-02,3.690078854560852051e-02,2.969361655414104462e-02,-0.000000000000000000e+00,4.268969874829053879e-03,-0.000000000000000000e+00,4.611821472644805908e-02,5.157354101538658142e-02,6.704967236146330833e-04,-0.000000000000000000e+00,3.749140724539756775e-02,-0.000000000000000000e+00,4.168586805462837219e-02,-0.000000000000000000e+00,5.357008427381515503e-02,2.791320905089378357e-02,-0.000000000000000000e+00,-0.000000000000000000e+00,5.058457609266042709e-04,-0.000000000000000000e+00,-0.000000000000000000e+00,-0.000000000000000000e+00,2.798269689083099365e-02,-0.000000000000000000e+00,-0.000000000000000000e+00,-0.000000000000000000e+00,-0.000000000000000000e+00,-0.000000000000000000e+00,6.830314174294471741e-03,5.743363499641418457e-02,-0.000000000000000000e+00,-0.000000000000000000e+00,-0.000000000000000000e+00,-0.000000000000000000e+00,-0.000000000000000000e+00,2.026596292853355408e-02,-0.000000000000000000e+00,5.083689466118812561e-02,-0.000000000000000000e+00,-0.000000000000000000e+00,-0.000000000000000000e+00,5.950606893748044968e-03,-0.000000000000000000e+00,-0.000000000000000000e+00,-0.000000000000000000e+00,-0.000000000000000000e+00,-0.000000000000000000e+00,1.856328104622662067e-03,2.536732889711856842e-02,8.050491102039813995e-03,5.281167849898338318e-02,2.675961889326572418e-02,1.080249715596437454e-02,-0.000000000000000000e+00,-0.000000000000000000e+00,-0.000000000000000000e+00,-0.000000000000000000e+00,-0.000000000000000000e+00,1.385316252708435059e-02,4.858476296067237854e-02,-0.000000000000000000e+00,-0.000000000000000000e+00,3.123676031827926636e-02,-0.000000000000000000e+00,-0.000000000000000000e+00,-0.000000000000000000e+00,-0.000000000000000000e+00,6.277827173471450806e-02
-0.000000000000000000e+00,-0.000000000000000000e+00,-0.000000000000000000e+00,5.455767363309860229e-02,-0.000000000000000000e+00,-0.000000000000000000e+00,2.356253750622272491e-02,-0.000000000000000000e+00,7.317979820072650909e-03,4.292771592736244202e-02,-0.000000000000000000e+00,-0.000000000000000000e+00,-0.000000000000000000e+00,-0.000000000000000000e+00,6.699767545796930790e-04,1.634028181433677673e-02,-0.000000000000000000e+00,8.800714276731014252e-03,1.868460327386856079e-02,-0.000000000000000000e+00,-0.000000000000000000e+00,4.892911016941070557e-02,5.787854269146919250e-02,-0.000000000000000000e+00,1.690154150128364563e-02,-0.000000000000000000e+00,5.494128167629241943e-02,-0.000000000000000000e+00,6.439647171646356583e-03,-0.000000000000000000e+00,-0.000000000000000000e+00,-0.000000000000000000e+00,-0.000000000000000000e+00,-0.000000000000000000e+00,-0.000000000000000000e+00,-0.000000000000000000e+00,-0.000000000000000000e+00,-0.000000000000000000e+00,-0.000000000000000000e+00,-0.000000000000000000e+00,1.866929046809673309e-02,-0.000000000000000000e+00,-0.000000000000000000e+00,2.622708864510059357e-02,2.416130155324935913e-02,4.817475378513336182e-02,-0.000000000000000000e+00,6.345986574888229370e-02,4.419603385031223297e-03,5.442089214920997620e-02,2.274541743099689484e-02,2.591887302696704865e-02,1.819867873564362526e-03,-0.000000000000000000e+00,4.805707186460494995e-02,-0.000000000000000000e+00,-0.000000000000000000e+00,3.402884304523468018e-02,4.687325283885002136e-02,-0.000000000000000000e+00,2.328067831695079803e-02,-0.000000000000000000e+00,4.074902459979057312e-02,1.735695055685937405e-03,-0.000000000000000000e+00,-0.000000000000000000e+00,-0.000000000000000000e+00,3.078490681946277618e-02,5.964018777012825012e-02,3.443100675940513611e-02,-0.000000000000000000e+00,-0.000000000000000000e+00,-0.000000000000000000e+00,5.308540165424346924e-02,5.984888225793838501e-02,-0.000000000000000000e+00,1.316901016980409622e-02,-0.000000000000000000e+00,-0.000000000000000000e+00,4.038828611373901367e-02,-0.000000000000000000e+00,3.231950476765632629e-02,3.509928658604621887e-02,3.467557951807975769e-02,-0.000000000000000000e+00,6.237627193331718445e-02,6.212435662746429443e-02,-0.000000000000000000e+00,8.418815210461616516e-03,1.460686884820461273e-02,9.823714382946491241e-03,-0.000000000000000000e+00,-0.000000000000000000e+00,4.969181865453720093e-02,1.031789230182766914e-03,1.635972782969474792e-02,-0.000000000000000000e+00,-0.000000000000000000e+00,-0.000000000000000000e+00,-0.000000000000000000e+00,1.372120156884193420e-02,2.230666577816009521e-02,-0.000000000000000000e+00,9.137997985817492008e-04,-0.000000000000000000e+00,4.102485254406929016e-02,5.152493715286254883e-02,-0.000000000000000000e+00,-0.000000000000000000e+00,-0.000000000000000000e+00,-0.000000000000000000e+00,8.955051191151142120e-03,-0.000000000000000000e+00,1.868784055113792419e-02,5.928108096122741699e-02,2.622313238680362701e-02,5.961183086037635803e-02,-0.000000000000000000e+00,2.477544546127319336e-02,5.474835261702537537e-02,-0.000000000000000000e+00,1.303231436759233475e-02,-0.000000000000000000e+00,-0.000000000000000000e+00,-0.000000000000000000e+00,4.605679586529731750e-02,5.869085341691970825e-02,5.704038217663764954e-02
9.501334279775619507e-03,8.072800934314727783e-03,5.688154697418212891e-02,-0.000000000000000000e+00,-0.000000000000000000e+00,-0.000000000000000000e+00,-0.000000000000000000e+00,-0.000000000000000000e+00,-0.000000000000000000e+00,7.993397302925586700e-03,6.711774505674839020e-03,4.286979511380195618e-02,-0.000000000000000000e+00,-0.000000000000000000e+00,-0.000000000000000000e+00,-0.000000000000000000e+00,-0.000000000000000000e+00,4.701150581240653992e-02,-0.000000000000000000e+00,2.431931160390377045e-02,3.829583153128623962e-02,5.741129443049430847e-02,-0.000000000000000000e+00,6.300442665815353394e-02,-0.000000000000000000e+00,2.570912428200244904e-02,-0.000000000000000000e+00,-0.000000000000000000e+00,2.201020531356334686e-02,-0.000000000000000000e+00,-0.000000000000000000e+00,6.038015708327293396e-02,3.866617800667881966e-03,4.268820956349372864e-02,-0.000000000000000000e+00,1.595770753920078278e-02,-0.000000000000000000e+00,-0.000000000000000000e+00,-0.000000000000000000e+00,4.564728960394859314e-02,-0.000000000000000000e+00,1.096953917294740677e-02,-0.000000000000000000e+00,4.262017458677291870e-02,4.552667215466499329e-02,-0.000000000000000000e+00,4.181429371237754822e-02,-0.000000000000000000e+00,-0.000000000000000000e+00,3.804111108183860779e-02,-0.000000000000000000e+00,4.054270312190055847e-02,-0.000000000000000000e+00,2.923207730054855347e-02,-0.000000000000000000e+00,1.201301719993352890e-02,4.552723839879035950e-02,-0.000000000000000000e+00,-0.000000000000000000e+00,-0.000000000000000000e+00,5.052047222852706909e-02,3.058590181171894073e-02,1.648217625916004181e-02,-0.000000000000000000e+00,2.127999439835548401e-02,-0.000000000000000000e+00,-0.000000000000000000e+00,1.937993243336677551e-02,-0.000000000000000000e+00,-0.000000000000000000e+00,-0.000000000000000000e+00,2.574594505131244659e-02,5.571519583463668823e-02,-0.000000000000000000e+00,6.078761070966720581e-02,-0.000000000000000000e+00,-0.000000000000000000e+00,2.499829046428203583e-02,-0.000000000000000000e+00,5.647745355963706970e-02,1.209471095353364944e-02,-0.000000000000000000e+00,-0.000000000000000000e+00,-0.000000000000000000e+00,5.843855440616607666e-02,-0.000000000000000000e+00,1.838828204199671745e-03,-0.000000000000000000e+00,-0.000000000000000000e+00,-0.000000000000000000e+00,-0.000000000000000000e+00,-0.000000000000000000e+00,-0.000000000000000000e+00,-0.000000000000000000e+00,1.268676365725696087e-03,2.725045755505561829e-02,5.015904456377029419e-02,-0.000000000000000000e+00,-0.000000000000000000e+00,2.074783667922019958e-02,-0.000000000000000000e+00,-0.000000000000000000e+00,-0.000000000000000000e+00,1.531107071787118912e-02,-0.000000000000000000e+00,-0.000000000000000000e+00,-0.000000000000000000e+00,4.677189141511917114e-02,-0.000000000000000000e+00,-0.000000000000000000e+00,2.581451833248138428e-02,1.384855061769485474e-02,4.698101431131362915e-02,1.417399942874908447e-02,3.562685102224349976e-02,4.922799021005630493e-02,-0.000000000000000000e+00,5.493810027837753296e-02,5.494820326566696167e-02,-0.000000000000000000e+00,4.099930822849273682e-02,2.631714008748531342e-02,-0.000000000000000000e+00,1.143602933734655380e-02,-0.000000000000000000e+00,5.078397318720817566e-02,4.914236813783645630e-02,-0.000000000000000000e+00
-0.000000000000000000e+00,-0.000000000000000000e+00,4.638534039258956909e-02,5.854238942265510559e-02,1.810259651392698288e-03,-0.000000000000000000e+00,1.046144589781761169e-02,6.138399615883827209e-02,4.231042042374610901e-02,3.458532691001892090e-02,2.667190320789813995e-02,-0.000000000000000000e+00,-0.000000000000000000e+00,3.492840006947517395e-02,3.336926922202110291e-02,-0.000000000000000000e+00,-0.000000000000000000e+00,3.510155156254768372e-02,4.236974567174911499e-02,-0.000000000000000000e+00,5.871080607175827026e-02,5.556078627705574036e-02,3.002725169062614441e-02,6.154497619718313217e-03,-0.000000000000000000e+00,6.179259624332189560e-03,3.989629447460174561e-02,1.384840905666351318e-02,-0.000000000000000000e+00,5.169702693819999695e-02,-0.000000000000000000e+00,-0.000000000000000000e+00,1.799664832651615143e-02,2.068958617746829987e-02,-0.000000000000000000e+00,-0.000000000000000000e+00,5.295857414603233337e-02,2.197771519422531128e-02,5.791884660720825195e-02,5.563746020197868347e-02,3.877196833491325378e-02,3.060498833656311035e-02,1.578205265104770660e-02,-0.000000000000000000e+00,-0.000000000000000000e+00,-0.000000000000000000e+00,6.330268085002899170e-02,1.933945156633853912e-02,2.317549660801887512e-02,2.610645955428481102e-03,2.011672034859657288e-02,4.052322357892990112e-03,-0.000000000000000000e+00,3.677495196461677551e-02,8.485403843224048615e-03,5.785370618104934692e-02,-0.000000000000000000e+00,-0.000000000000000000e+00,4.723206162452697754e-02,-0.000000000000000000e+00,5.324819684028625488e-02,-0.000000000000000000e+00,7.476262748241424561e-03,6.162951141595840454e-02,1.138755027204751968e-02,4.063139483332633972e-02,4.381173849105834961e-02,2.267910540103912354e-02,1.621805131435394287e-02,5.730677396059036255e-02,6.072065792977809906e-03,2.170738019049167633e-02,-0.000000000000000000e+00,-0.000000000000000000e+00,-0.000000000000000000e+00,-0.000000000000000000e+00,-0.000000000000000000e+00,-0.000000000000000000e+00,2.555993758141994476e-02,-0.000000000000000000e+00,9.536517783999443054e-03,2.745382674038410187e-02,5.488405004143714905e-02,-0.000000000000000000e+00,2.792785875499248505e-02,-0.000000000000000000e+00,1.763195171952247620e-02,-0.000000000000000000e+00,6.349516659975051880e-02,-0.000000000000000000e+00,-0.000000000000000000e+00,4.472501948475837708e-02,-0.000000000000000000e+00,-0.000000000000000000e+00,4.577193036675453186e-02,3.260957077145576477e-02,1.107141561806201935e-02,1.723904907703399658e-02,-0.000000000000000000e+00,2.273137122392654419e-02,-0.000000000000000000e+00,3.422999009490013123e-02,1.748523674905300140e-03,-0.000000000000000000e+00,1.785427890717983246e-02,-0.000000000000000000e+00,3.275155648589134216e-02,-0.000000000000000000e+00,5.083082988858222961e-02,5.404304340481758118e-02,-0.000000000000000000e+00,-0.000000000000000000e+00,-0.000000000000000000e+00,-0.000000000000000000e+00,-0.000000000000000000e+00,5.701205879449844360e-02,-0.000000000000000000e+00,3.173648938536643982e-02,3.973720595240592957e-02,5.481715872883796692e-02,-0.000000000000000000e+00,5.436344444751739502e-02,3.731456527020782232e-04,-0.000000000000000000e+00,-0.000000000000000000e+00,4.795372113585472107e-02,-0.000000000000000000e+00,-0.000000000000000000e+00
-0.000000000000000000e+00,2.957057207822799683e-02,-0.000000000000000000e+00,3.569665178656578064e-02,5.877139046788215637e-02,-0.000000000000000000e+00,-0.000000000000000000e+00,4.966702777892351151e-03,-0.000000000000000000e+00,-0.000000000000000000e+00,2.663484029471874237e-02,6.105617061257362366e-02,4.451656714081764221e-02,-0.000000000000000000e+00,3.416595607995986938e-02,2.029236033558845520e-02,5.533192679286003113e-02,-0.000000000000000000e+00,-0.000000000000000000e+00,3.715714812278747559e-02,7.800258696079254150e-03,-0.000000000000000000e+00,5.016962811350822449e-02,-0.000000000000000000e+00,2.419220842421054840e-02,9.642700664699077606e-03,-0.000000000000000000e+00,-0.000000000000000000e+00,6.204709038138389587e-02,-0.000000000000000000e+00,4.790282249450683594e-02,-0.000000000000000000e+00,5.096244439482688904e-02,4.327386990189552307e-02,3.545866534113883972e-02,-0.000000000000000000e+00,-0.000000000000000000e+00,-0.000000000000000000e+00,5.207752808928489685e-02,-0.000000000000000000e+00,-0.000000000000000000e+00,-0.000000000000000000e+00,3.529460728168487549e-02,-0.000000000000000000e+00,7.771637290716171265e-03,-0.000000000000000000e+00,2.278664708137512207e-02,2.101876586675643921e-02,2.702612988650798798e-02,-0.000000000000000000e+00,-0.000000000000000000e+00,-0.000000000000000000e+00,-0.000000000000000000e+00,2.390423789620399475e-03,1.823296333895996213e-04,2.433998510241508484e-02,-0.000000000000000000e+00,-0.000000000000000000e+00,-0.000000000000000000e+00,3.948277607560157776e-02,-0.000000000000000000e+00,-0.000000000000000000e+00,-0.000000000000000000e+00,-0.000000000000000000e+00,1.392320543527603149e-02,-0.000000000000000000e+00,-0.000000000000000000e+00,5.082270503044128418e-02,-0.000000000000000000e+00,-0.000000000000000000e+00,-0.000000000000000000e+00,-0.000000000000000000e+00,-0.000000000000000000e+00,6.248249858617782593e-02,3.009742684662342072e-02,-0.000000000000000000e+00,-0.000000000000000000e+00,2.945138700306415558e-02,-0.000000000000000000e+00,3.818767890334129333e-02,-0.000000000000000000e+00,-0.000000000000000000e+00,1.273343898355960846e-02,-0.000000000000000000e+00,2.804899215698242188e-02,1.144480798393487930e-02,2.835378237068653107e-02,-0.000000000000000000e+00,-0.000000000000000000e+00,2.769833803176879883e-02,-0.000000000000000000e+00,4.182624444365501404e-02,-0.000000000000000000e+00,-0.000000000000000000e+00,-0.000000000000000000e+00,6.681038998067378998e-03,-0.000000000000000000e+00,2.543680928647518158e-02,-0.000000000000000000e+00,-0.000000000000000000e+00,4.867976531386375427e-02,-0.000000000000000000e+00,-0.000000000000000000e+00,-0.000000000000000000e+00,1.227120868861675262e-02,-0.000000000000000000e+00,2.689539454877376556e-02,-0.000000000000000000e+00,5.703761801123619080e-02,-0.000000000000000000e+00,-0.000000000000000000e+00,5.748554319143295288e-02,9.019296616315841675e-03,3.229350969195365906e-02,5.372305866330862045e-03,-0.000000000000000000e+00,-0.000000000000000000e+00,3.355975821614265442e-02,3.220693208277225494e-03,-0.000000000000000000e+00,-0.000000000000000000e+00,-0.000000000000000000e+00,3.690147027373313904e-02,8.946657180786132812e-03,-0.000000000000000000e+00,1.180200255475938320e-03,3.415398672223091125e-02,6.131155416369438171e-03
5.680577829480171204e-02,1.076470222324132919e-02,4.160742461681365967e-02,2.749738842248916626e-02,5.276213586330413818e-02,3.255225718021392822e-02,3.183154761791229248e-02,-0.000000000000000000e+00,1.305075455456972122e-02,4.751539230346679688e-02,1.464096084237098694e-02,-0.000000000000000000e+00,3.045813180506229401e-02,2.609980106353759766e-02,5.122619494795799255e-02,1.968260854482650757e-02,-0.000000000000000000e+00,5.628391355276107788e-02,1.251976471394300461e-02,-0.000000000000000000e+00,-0.000000000000000000e+00,3.160966560244560242e-02,3.729560179635882378e-03,1.594829373061656952e-02,9.552608244121074677e-03,3.607285395264625549e-02,-0.000000000000000000e+00,-0.000000000000000000e+00,4.480315372347831726e-03,6.391045171767473221e-03,2.455804310739040375e-02,1.036331406794488430e-03,3.512568771839141846e-02,1.663150265812873840e-02,-0.000000000000000000e+00,3.175408020615577698e-02,-0.000000000000000000e+00,3.002372384071350098e-02,5.309380963444709778e-02,-0.000000000000000000e+00,4.284843057394027710e-02,-0.000000000000000000e+00,8.629690855741500854e-03,-0.000000000000000000e+00,4.662830010056495667e-02,-0.000000000000000000e+00,1.846280135214328766e-02,3.124535828828811646e-02,2.978951297700405121e-02,-0.000000000000000000e+00,3.317084908485412598e-02,-0.000000000000000000e+00,2.679165080189704895e-02,4.451645910739898682e-02,-0.000000000000000000e+00,1.911554299294948578e-02,-0.000000000000000000e+00,4.074095562100410461e-02,5.108521133661270142e-02,-0.000000000000000000e+00,1.607353240251541138e-02,3.134314715862274170e-02,-0.000000000000000000e+00,4.008465260267257690e-02,-0.000000000000000000e+00,-0.000000000000000000e+00,3.156522288918495178e-02,4.051061347126960754e-02,1.549121551215648651e-02,-0.000000000000000000e+00,-0.000000000000000000e+00,2.356667444109916687e-02,-0.000000000000000000e+00,-0.000000000000000000e+00,1.011779438704252243e-02,-0.000000000000000000e+00,4.106721282005310059e-02,3.044060058891773224e-02,2.849680837243795395e-03,2.744465135037899017e-03,-0.000000000000000000e+00,-0.000000000000000000e+00,7.345859427005052567e-03,-0.000000000000000000e+00,1.834899745881557465e-02,-0.000000000000000000e+00,2.672431804239749908e-02,4.002759233117103577e-02,-0.000000000000000000e+00,-0.000000000000000000e+00,-0.000000000000000000e+00,-0.000000000000000000e+00,-0.000000000000000000e+00,-0.000000000000000000e+00,3.501708805561065674e-02,-0.000000000000000000e+00,-0.000000000000000000e+00,-0.000000000000000000e+00,-0.000000000000000000e+00,-0.000000000000000000e+00,1.884407922625541687e-02,4.301687330007553101e-02,5.215109512209892273e-02,-0.000000000000000000e+00,3.362539410591125488e-02,-0.000000000000000000e+00,-0.000000000000000000e+00,3.353990614414215088e-04,1.707158796489238739e-02,-0.000000000000000000e+00,-0.000000000000000000e+00,-0.000000000000000000e+00,-0.000000000000000000e+00,-0.000000000000000000e+00,-0.000000000000000000e+00,-0.000000000000000000e+00,-0.000000000000000000e+00,5.776711553335189819e-02,1.325660664588212967e-02,4.557211883366107941e-03,-0.000000000000000000e+00,3.698763623833656311e-02,4.767270386219024658e-02,4.386261850595474243e-02,4.568662028759717941e-03,-0.000000000000000000e+00,1.716524548828601837e-02,-0.000000000000000000e+00
3.807043656706809998e-02,-0.000000000000000000e+00,5.399589613080024719e-02,6.300359219312667847e-02,3.874971717596054077e-02,1.085471594706177711e-03,3.342891484498977661e-02,3.223170712590217590e-02,5.694326013326644897e-02,-0.000000000000000000e+00,-0.000000000000000000e+00,-0.000000000000000000e+00,5.219494178891181946e-02,-0.000000000000000000e+00,-0.000000000000000000e+00,6.297088414430618286e-02,-0.000000000000000000e+00,3.318696469068527222e-02,-0.000000000000000000e+00,-0.000000000000000000e+00,-0.000000000000000000e+00,-0.000000000000000000e+00,-0.000000000000000000e+00,-0.000000000000000000e+00,-0.000000000000000000e+00,4.002536833286285400e-02,1.618470065295696259e-02,-0.000000000000000000e+00,5.622428283095359802e-02,-0.000000000000000000e+00,-0.000000000000000000e+00,-0.000000000000000000e+00,-0.000000000000000000e+00,1.023067720234394073e-02,-0.000000000000000000e+00,9.386599995195865631e-03,4.127611964941024780e-02,-0.000000000000000000e+00,-0.000000000000000000e+00,-0.000000000000000000e+00,1.335026696324348450e-02,-0.000000000000000000e+00,-0.000000000000000000e+00,3.309363499283790588e-02,-0.000000000000000000e+00,-0.000000000000000000e+00,-0.000000000000000000e+00,-0.000000000000000000e+00,3.339548781514167786e-02,6.076921522617340088e-02,2.500582486391067505e-03,3.565455973148345947e-02,5.859317258000373840e-02,1.269860658794641495e-02,5.832167714834213257e-02,-0.000000000000000000e+00,5.268731620162725449e-03,2.233599807368591428e-04,2.458095364272594452e-02,-0.000000000000000000e+00,-0.000000000000000000e+00,-0.000000000000000000e+00,3.250762075185775757e-02,-0.000000000000000000e+00,-0.000000000000000000e+00,5.128956958651542664e-02,-0.000000000000000000e+00,5.178913101553916931e-02,5.179309472441673279e-02,-0.000000000000000000e+00,-0.000000000000000000e+00,-0.000000000000000000e+00,4.282606765627861023e-02,2.058415301144123077e-02,-0.000000000000000000e+00,-0.000000000000000000e+00,1.941481232643127441e-02,-0.000000000000000000e+00,3.686208277940750122e-02,-0.000000000000000000e+00,1.182509958744049072e-02,2.018405497074127197e-02,2.108357101678848267e-02,5.767235998064279556e-04,2.527088858187198639e-02,3.485387563705444336e-02,-0.000000000000000000e+00,-0.000000000000000000e+00,4.189540073275566101e-02,-0.000000000000000000e+00,-0.000000000000000000e+00,-0.000000000000000000e+00,-0.000000000000000000e+00,9.110019542276859283e-03,5.943537130951881409e-02,-0.000000000000000000e+00,1.054611289873719215e-03,5.924155190587043762e-02,8.595677092671394348e-03,-0.000000000000000000e+00,-0.000000000000000000e+00,-0.000000000000000000e+00,-0.000000000000000000e+00,-0.000000000000000000e+00,-0.000000000000000000e+00,-0.000000000000000000e+00,4.291031882166862488e-02,2.760830521583557129e-02,5.899195000529289246e-02,3.347862139344215393e-02,7.346199359744787216e-03,4.979453235864639282e-02,5.198245868086814880e-02,-0.000000000000000000e+00,3.583793714642524719e-02,-0.000000000000000000e+00,1.309779006987810135e-02,-0.000000000000000000e+00,5.879542231559753418e-02,-0.000000000000000000e+00,-0.000000000000000000e+00,-0.000000000000000000e+00,-0.000000000000000000e+00,-0.000000000000000000e+00,4.908420890569686890e-02,4.306309297680854797e-02,-0.000000000000000000e+00,-0.000000000000000000e+00
2.610940672457218170e-02,-0.000000000000000000e+00,-0.000000000000000000e+00,5.614563450217247009e-02,6.238886341452598572e-02,5.893287807703018188e-02,5.496286228299140930e-02,-0.000000000000000000e+00,-0.000000000000000000e+00,-0.000000000000000000e+00,-0.000000000000000000e+00,4.186097905039787292e-02,-0.000000000000000000e+00,-0.000000000000000000e+00,5.277605354785919189e-02,-0.000000000000000000e+00,-0.000000000000000000e+00,5.453972890973091125e-02,-0.000000000000000000e+00,1.444825716316699982e-02,2.631144225597381592e-02,-0.000000000000000000e+00,-0.000000000000000000e+00,-0.000000000000000000e+00,1.498878840357065201e-02,5.502446368336677551e-02,3.288673236966133118e-02,4.090504720807075500e-02,-0.000000000000000000e+00,-0.000000000000000000e+00,-0.000000000000000000e+00,-0.000000000000000000e+00,5.464236810803413391e-02,4.919357970356941223e-02,-0.000000000000000000e+00,-0.000000000000000000e+00,-0.000000000000000000e+00,2.594221010804176331e-02,-0.000000000000000000e+00,3.000740334391593933e-02,3.798515349626541138e-02,-0.000000000000000000e+00,2.565962262451648712e-02,1.340768672525882721e-02,4.767515882849693298e-02,9.508080438536126167e-06,-0.000000000000000000e+00,-0.000000000000000000e+00,3.350314870476722717e-02,-0.000000000000000000e+00,4.204031452536582947e-02,-0.000000000000000000e+00,7.501695770770311356e-03,-0.000000000000000000e+00,-0.000000000000000000e+00,2.393882162868976593e-02,-0.000000000000000000e+00,5.544429272413253784e-02,-0.000000000000000000e+00,5.361948534846305847e-02,2.664927951991558075e-02,-0.000000000000000000e+00,-0.000000000000000000e+00,-0.000000000000000000e+00,1.043388154357671738e-02,3.358051925897598267e-02,-0.000000000000000000e+00,5.485211685299873352e-02,4.944384470582008362e-02,-0.000000000000000000e+00,2.775966189801692963e-02,2.662816829979419708e-02,-0.000000000000000000e+00,3.751502186059951782e-02,-0.000000000000000000e+00,3.054367750883102417e-02,-0.000000000000000000e+00,4.756962135434150696e-02,-0.000000000000000000e+00,1.935089752078056335e-02,7.957932539284229279e-03,4.532781615853309631e-02,1.209425856359302998e-03,3.628635406494140625e-02,5.885856971144676208e-02,2.061164937913417816e-02,1.983562298119068146e-02,9.473158977925777435e-03,-0.000000000000000000e+00,-0.000000000000000000e+00,1.710714027285575867e-02,-0.000000000000000000e+00,-0.000000000000000000e+00,-0.000000000000000000e+00,-0.000000000000000000e+00,-0.000000000000000000e+00,3.024474158883094788e-02,-0.000000000000000000e+00,-0.000000000000000000e+00,1.118666119873523712e-02,3.946604207158088684e-02,5.885041132569313049e-02,-0.000000000000000000e+00,4.837569966912269592e-02,3.333364799618721008e-02,-0.000000000000000000e+00,-0.000000000000000000e+00,-0.000000000000000000e+00,5.404535308480262756e-02,-0.000000000000000000e+00,-0.000000000000000000e+00,2.465301565825939178e-02,-0.000000000000000000e+00,5.599014833569526672e-02,-0.000000000000000000e+00,1.076340209692716599e-02,-0.000000000000000000e+00,6.228242442011833191e-02,-0.000000000000000000e+00,-0.000000000000000000e+00,-0.000000000000000000e+00,4.572059586644172668e-02,1.010760106146335602e-02,-0.000000000000000000e+00,-0.000000000000000000e+00,3.092520870268344879e-02,-0.000000000000000000e+00,8.303281851112842560e-03
5.046354141086339951e-03,-0.000000000000000000e+00,2.877405658364295959e-02,2.569211460649967194e-02,8.330535143613815308e-03,-0.000000000000000000e+00,-0.000000000000000000e+00,-0.000000000000000000e+00,-0.000000000000000000e+00,-0.000000000000000000e+00,4.284726828336715698e-02,-0.000000000000000000e+00,-0.000000000000000000e+00,2.444055862724781036e-02,-0.000000000000000000e+00,4.842025414109230042e-02,-0.000000000000000000e+00,3.467883542180061340e-02,2.745307050645351410e-02,-0.000000000000000000e+00,-0.000000000000000000e+00,-0.000000000000000000e+00,1.242616400122642517e-02,4.003641009330749512e-02,1.953617110848426819e-02,2.129956521093845367e-02,4.438693821430206299e-02,3.876843303442001343e-02,-0.000000000000000000e+00,2.404260635375976562e-02,-0.000000000000000000e+00,-0.000000000000000000e+00,3.964389860630035400e-02,1.287716720253229141e-02,-0.000000000000000000e+00,4.564169049263000488e-02,4.511904902756214142e-03,-0.000000000000000000e+00,5.509261414408683777e-02,-0.000000000000000000e+00,-0.000000000000000000e+00,-0.000000000000000000e+00,5.915378779172897339e-02,4.333942383527755737e-02,2.394876908510923386e-03,-0.000000000000000000e+00,-0.000000000000000000e+00,-0.000000000000000000e+00,-0.000000000000000000e+00,-0.000000000000000000e+00,3.422519192099571228e-02,4.322244785726070404e-03,1.051821652799844742e-02,2.898477576673030853e-02,3.544962266460061073e-03,-0.000000000000000000e+00,3.076329641044139862e-02,3.438400104641914368e-02,-0.000000000000000000e+00,5.393950268626213074e-02,-0.000000000000000000e+00,-0.000000000000000000e+00,-0.000000000000000000e+00,-0.000000000000000000e+00,5.941748991608619690e-02,5.052873119711875916e-02,5.745383724570274353e-02,9.450474753975868225e-03,5.317281559109687805e-02,-0.000000000000000000e+00,-0.000000000000000000e+00,3.662897273898124695e-02,-0.000000000000000000e+00,-0.000000000000000000e+00,-0.000000000000000000e+00,6.602703593671321869e-03,5.333494767546653748e-02,-0.000000000000000000e+00,-0.000000000000000000e+00,2.876479364931583405e-02,-0.000000000000000000e+00,-0.000000000000000000e+00,-0.000000000000000000e+00,-0.000000000000000000e+00,6.293612718582153320e-02,5.166418850421905518e-02,6.158440187573432922e-02,1.055188593454658985e-03,2.091304399073123932e-02,5.716801434755325317e-02,5.628978088498115540e-02,3.916561603546142578e-02,2.643272466957569122e-02,1.544500980526208878e-02,1.520501077175140381e-02,-0.000000000000000000e+00,-0.000000000000000000e+00,-0.000000000000000000e+00,1.944809593260288239e-02,6.515810266137123108e-03,2.492731064558029175e-02,3.948877006769180298e-02,2.002254873514175415e-02,2.791769243776798248e-02,4.214488342404365540e-02,-0.000000000000000000e+00,1.795716956257820129e-02,1.099795941263437271e-02,2.053803391754627228e-02,-0.000000000000000000e+00,3.514094278216362000e-03,3.540712594985961914e-02,-0.000000000000000000e+00,-0.000000000000000000e+00,-0.000000000000000000e+00,3.394689038395881653e-02,1.053700782358646393e-02,-0.000000000000000000e+00,-0.000000000000000000e+00,-0.000000000000000000e+00,-0.000000000000000000e+00,5.254526063799858093e-02,3.686280921101570129e-02,5.484880506992340088e-02,5.257705971598625183e-02,1.577395386993885040e-02,-0.000000000000000000e+00,-0.000000000000000000e+00
-0.000000000000000000e+00,-0.000000000000000000e+00,-0.000000000000000000e+00,8.417936041951179504e-04,4.344408214092254639e-02,-0.000000000000000000e+00,3.046357072889804840e-02,5.261906422674655914e-03,-0.000000000000000000e+00,5.462795495986938477e-02,-0.000000000000000000e+00,4.336519539356231689e-02,6.014643609523773193e-02,5.026019364595413208e-02,1.202456280589103699e-02,5.978045612573623657e-02,-0.000000000000000000e+00,2.436559833586215973e-02,5.365421529859304428e-03,3.880204865708947182e-03,2.353970194235444069e-03,-0.000000000000000000e+00,5.914086848497390747e-02,3.003922477364540100e-02,-0.000000000000000000e+00,3.235917538404464722e-02,-0.000000000000000000e+00,2.280512452125549316e-02,2.613626979291439056e-02,2.044970914721488953e-02,-0.000000000000000000e+00,4.799653589725494385e-02,4.319555126130580902e-03,3.417818620800971985e-02,1.542278192937374115e-02,3.567071259021759033e-02,3.996924683451652527e-02,-0.000000000000000000e+00,2.368600107729434967e-02,1.202710089273750782e-03,-0.000000000000000000e+00,3.428688272833824158e-02,5.306064710021018982e-02,5.025476217269897461e-02,2.245775237679481506e-02,-0.000000000000000000e+00,-0.000000000000000000e+00,1.057746727019548416e-02,-0.000000000000000000e+00,-0.000000000000000000e+00,-0.000000000000000000e+00,5.077643692493438721e-02,6.146140769124031067e-02,5.832834541797637939e-02,-0.000000000000000000e+00,-0.000000000000000000e+00,5.427915975451469421e-02,1.928729563951492310e-02,-0.000000000000000000e+00,5.140316113829612732e-02,-0.000000000000000000e+00,1.372268307022750378e-03,-0.000000000000000000e+00,6.068567559123039246e-02,5.667852610349655151e-02,2.777622640132904053e-02,5.298199877142906189e-02,-0.000000000000000000e+00,-0.000000000000000000e+00,3.347397781908512115e-03,-0.000000000000000000e+00,3.087028115987777710e-02,3.047634847462177277e-02,2.652171440422534943e-02,6.902915774844586849e-04,2.106057852506637573e-02,2.887060120701789856e-02,5.766166839748620987e-03,-0.000000000000000000e+00,2.471661567687988281e-02,-0.000000000000000000e+00,5.210063979029655457e-02,-0.000000000000000000e+00,-0.000000000000000000e+00,6.095031648874282837e-02,-0.000000000000000000e+00,1.503481902182102203e-02,-0.000000000000000000e+00,-0.000000000000000000e+00,3.286266699433326721e-02,-0.000000000000000000e+00,-0.000000000000000000e+00,4.964976385235786438e-02,4.958754777908325195e-02,-0.000000000000000000e+00,3.688636794686317444e-02,2.034717611968517303e-02,5.339007824659347534e-02,1.874581165611743927e-02,-0.000000000000000000e+00,-0.000000000000000000e+00,4.256224259734153748e-02,4.333359748125076294e-02,9.255579672753810883e-03,1.243612635880708694e-02,-0.000000000000000000e+00,4.265040531754493713e-02,-0.000000000000000000e+00,5.060237646102905273e-02,1.623344048857688904e-02,2.566320635378360748e-02,-0.000000000000000000e+00,-0.000000000000000000e+00,4.210145026445388794e-02,-0.000000000000000000e+00,6.094574928283691406e-02,3.118364885449409485e-02,-0.000000000000000000e+00,-0.000000000000000000e+00,-0.000000000000000000e+00,-0.000000000000000000e+00,-0.000000000000000000e+00,-0.000000000000000000e+00,-0.000000000000000000e+00,-0.000000000000000000e+00,-0.000000000000000000e+00,-0.000000000000000000e+00,5.771407741121947765e-04
2.251308597624301910e-02,3.665043786168098450e-02,2.069321274757385254e-02,-0.000000000000000000e+00,5.720532033592462540e-03,-0.000000000000000000e+00,1.310380641371011734e-02,5.482189729809761047e-02,-0.000000000000000000e+00,-0.000000000000000000e+00,-0.000000000000000000e+00,-0.000000000000000000e+00,-0.000000000000000000e+00,-0.000000000000000000e+00,1.993534155189990997e-02,-0.000000000000000000e+00,-0.000000000000000000e+00,-0.000000000000000000e+00,-0.000000000000000000e+00,4.592522978782653809e-02,4.166184365749359131e-02,2.029241807758808136e-02,5.204381048679351807e-02,-0.000000000000000000e+00,-0.000000000000000000e+00,1.768054254353046417e-02,5.891582369804382324e-02,-0.000000000000000000e+00,4.548086225986480713e-02,4.871359094977378845e-02,-0.000000000000000000e+00,-0.000000000000000000e+00,-0.000000000000000000e+00,1.036555320024490356e-02,4.823968559503555298e-02,4.628571495413780212e-02,2.980767935514450073e-02,8.291824720799922943e-03,3.192298114299774170e-03,-0.000000000000000000e+00,2.078869752585887909e-02,4.969965294003486633e-02,5.855194479227066040e-02,5.300457403063774109e-02,-0.000000000000000000e+00,3.164706751704216003e-02,-0.000000000000000000e+00,1.284847129136323929e-02,5.086668953299522400e-02,3.807220235466957092e-02,-0.000000000000000000e+00,-0.000000000000000000e+00,5.594157800078392029e-02,-0.000000000000000000e+00,5.010718852281570435e-02,-0.000000000000000000e+00,-0.000000000000000000e+00,-0.000000000000000000e+00,5.234751105308532715e-02,-0.000000000000000000e+00,-0.000000000000000000e+00,5.469074472784996033e-02,4.816887900233268738e-02,5.218453332781791687e-02,-0.000000000000000000e+00,1.460715290158987045e-02,2.029933035373687744e-02,-0.000000000000000000e+00,4.855351522564888000e-02,5.232455953955650330e-02,1.922629959881305695e-02,2.688917703926563263e-02,3.279956802725791931e-02,-0.000000000000000000e+00,3.728851675987243652e-02,5.433459207415580750e-02,-0.000000000000000000e+00,-0.000000000000000000e+00,-0.000000000000000000e+00,2.724841004237532616e-03,-0.000000000000000000e+00,6.167731713503599167e-03,2.546818694099783897e-03,1.801597140729427338e-02,-0.000000000000000000e+00,-0.000000000000000000e+00,-0.000000000000000000e+00,-0.000000000000000000e+00,2.377296332269906998e-03,6.148692220449447632e-02,4.230944812297821045e-02,-0.000000000000000000e+00,5.037665367126464844e-02,-0.000000000000000000e+00,-0.000000000000000000e+00,-0.000000000000000000e+00,-0.000000000000000000e+00,4.837799817323684692e-03,-0.000000000000000000e+00,-0.000000000000000000e+00,-0.000000000000000000e+00,4.422610998153686523e-02,-0.000000000000000000e+00,-0.000000000000000000e+00,-0.000000000000000000e+00,6.059832870960235596e-02,4.836935177445411682e-02,-0.000000000000000000e+00,5.020901560783386230e-02,6.030907854437828064e-02,3.062440454959869385e-02,6.290189176797866821e-02,5.988115817308425903e-02,2.392173558473587036e-02,-0.000000000000000000e+00,5.174582824110984802e-02,-0.000000000000000000e+00,2.389496937394142151e-02,-0.000000000000000000e+00,-0.000000000000000000e+00,2.970783039927482605e-02,-0.000000000000000000e+00,1.131748408079147339e-02,4.291994124650955200e-02,-0.000000000000000000e+00,-0.000000000000000000e+00,-0.000000000000000000e+00,-0.000000000000000000e+00
-0.000000000000000000e+00,-0.000000000000000000e+00,-0.000000000000000000e+00,-0.000000000000000000e+00,5.280189216136932373e-03,-0.000000000000000000e+00,3.331561014056205750e-02,-0.000000000000000000e+00,-0.000000000000000000e+00,2.247725985944271088e-02,2.891514450311660767e-02,-0.000000000000000000e+00,6.317880749702453613e-02,-0.000000000000000000e+00,-0.000000000000000000e+00,-0.000000000000000000e+00,-0.000000000000000000e+00,2.632240392267704010e-02,4.282414168119430542e-02,-0.000000000000000000e+00,4.800815880298614502e-02,-0.000000000000000000e+00,5.101867020130157471e-02,1.205954886972904205e-02,5.744506604969501495e-03,5.988265946507453918e-02,-0.000000000000000000e+00,-0.000000000000000000e+00,-0.000000000000000000e+00,3.025181032717227936e-02,6.123652309179306030e-02,2.527548186480998993e-02,4.729501437395811081e-03,-0.000000000000000000e+00,-0.000000000000000000e+00,1.764227636158466339e-02,-0.000000000000000000e+00,-0.000000000000000000e+00,-0.000000000000000000e+00,3.290088847279548645e-02,3.145968914031982422e-02,-0.000000000000000000e+00,5.241328105330467224e-02,3.716846555471420288e-02,2.833346277475357056e-02,3.169110510498285294e-03,-0.000000000000000000e+00,-0.000000000000000000e+00,-0.000000000000000000e+00,-0.000000000000000000e+00,2.643502689898014069e-02,2.118033124133944511e-03,5.810124799609184265e-02,-0.000000000000000000e+00,2.551380917429924011e-02,2.090441249310970306e-02,-0.000000000000000000e+00,-0.000000000000000000e+00,-0.000000000000000000e+00,-0.000000000000000000e+00,4.163841530680656433e-02,5.757521837949752808e-02,4.455056414008140564e-02,-0.000000000000000000e+00,3.247718140482902527e-02,5.194618925452232361e-02,-0.000000000000000000e+00,-0.000000000000000000e+00,-0.000000000000000000e+00,5.925017222762107849e-02,-0.000000000000000000e+00,2.764815092086791992e-02,3.306978195905685425e-02,9.959969669580459595e-03,-0.000000000000000000e+00,6.365787982940673828e-02,-0.000000000000000000e+00,3.816061094403266907e-02,5.115379765629768372e-02,4.164852946996688843e-02,5.702700931578874588e-03,-0.000000000000000000e+00,4.541718214750289917e-02,-0.000000000000000000e+00,-0.000000000000000000e+00,1.758411526679992676e-03,-0.000000000000000000e+00,9.796837344765663147e-03,2.244560979306697845e-02,-0.000000000000000000e+00,3.899979591369628906e-02,-0.000000000000000000e+00,-0.000000000000000000e+00,-0.000000000000000000e+00,-0.000000000000000000e+00,3.859844058752059937e-02,-0.000000000000000000e+00,-0.000000000000000000e+00,3.340411186218261719e-02,7.192817982286214828e-03,-0.000000000000000000e+00,2.448076941072940826e-02,4.829448461532592773e-02,-0.000000000000000000e+00,-0.000000000000000000e+00,3.642674768343567848e-03,-0.000000000000000000e+00,3.919362649321556091e-02,5.418862029910087585e-02,2.420523390173912048e-02,1.429839991033077240e-02,-0.000000000000000000e+00,-0.000000000000000000e+00,-0.000000000000000000e+00,5.166256427764892578e-02,1.700806547887623310e-03,5.400504171848297119e-02,-0.000000000000000000e+00,-0.000000000000000000e+00,-0.000000000000000000e+00,4.034715518355369568e-02,3.368093445897102356e-02,-0.000000000000000000e+00,3.489143028855323792e-02,-0.000000000000000000e+00,-0.000000000000000000e+00,2.613198198378086090e-02,-0.000000000000000000e+00
-0.000000000000000000e+00,3.983771428465843201e-02,-0.000000000000000000e+00,-0.000000000000000000e+00,5.167322978377342224e-02,2.319528721272945404e-02,8.226680220104753971e-04,6.071192771196365356e-02,-0.000000000000000000e+00,6.374557316303253174e-02,5.453030765056610107e-02,-0.000000000000000000e+00,1.340955402702093124e-02,-0.000000000000000000e+00,-0.000000000000000000e+00,-0.000000000000000000e+00,5.694468319416046143e-02,5.494629964232444763e-02,-0.000000000000000000e+00,-0.000000000000000000e+00,-0.000000000000000000e+00,-0.000000000000000000e+00,-0.000000000000000000e+00,-0.000000000000000000e+00,-0.000000000000000000e+00,-0.000000000000000000e+00,4.093505442142486572e-02,-0.000000000000000000e+00,6.297824531793594360e-02,7.447580806910991669e-03,1.748050004243850708e-02,-0.000000000000000000e+00,-0.000000000000000000e+00,-0.000000000000000000e+00,2.808607369661331177e-02,-0.000000000000000000e+00,1.653960719704627991e-02,-0.000000000000000000e+00,-0.000000000000000000e+00,3.074129857122898102e-02,-0.000000000000000000e+00,6.342308223247528076e-02,-0.000000000000000000e+00,-0.000000000000000000e+00,-0.000000000000000000e+00,2.940116822719573975e-02,3.043955191969871521e-02,4.311784729361534119e-02,5.924113094806671143e-02,2.541879191994667053e-02,-0.000000000000000000e+00,-0.000000000000000000e+00,-0.000000000000000000e+00,-0.000000000000000000e+00,3.835684061050415039e-02,1.474277675151824951e-02,3.332467377185821533e-02,-0.000000000000000000e+00,-0.000000000000000000e+00,-0.000000000000000000e+00,2.537519612815231085e-04,-0.000000000000000000e+00,-0.000000000000000000e+00,6.441599689424037933e-03,-0.000000000000000000e+00,-0.000000000000000000e+00,3.683195635676383972e-02,-0.000000000000000000e+00,-0.000000000000000000e+00,-0.000000000000000000e+00,-0.000000000000000000e+00,-0.000000000000000000e+00,-0.000000000000000000e+00,2.996159903705120087e-02,6.033752113580703735e-02,1.462716050446033478e-02,-0.000000000000000000e+00,-0.000000000000000000e+00,3.572109341621398926e-02,-0.000000000000000000e+00,6.161643564701080322e-02,-0.000000000000000000e+00,-0.000000000000000000e+00,2.711832523345947266e-02,-0.000000000000000000e+00,3.777729347348213196e-02,1.209791097790002823e-02,1.181256884592585266e-04,-0.000000000000000000e+00,5.761165916919708252e-02,3.630235791206359863e-02,-0.000000000000000000e+00,-0.000000000000000000e+00,2.704726718366146088e-02,5.852693691849708557e-02,-0.000000000000000000e+00,-0.000000000000000000e+00,-0.000000000000000000e+00,4.470517858862876892e-02,3.723022714257240295e-02,2.285766974091529846e-02,6.379754096269607544e-02,-0.000000000000000000e+00,-0.000000000000000000e+00,5.950043350458145142e-02,3.605443611741065979e-02,5.708715319633483887e-02,-0.000000000000000000e+00,-0.000000000000000000e+00,-0.000000000000000000e+00,-0.000000000000000000e+00,4.243198037147521973e-02,-0.000000000000000000e+00,5.300812050700187683e-02,5.771667882800102234e-02,-0.000000000000000000e+00,5.986139178276062012e-02,-0.000000000000000000e+00,-0.000000000000000000e+00,2.653253637254238129e-02,-0.000000000000000000e+00,-0.000000000000000000e+00,3.437154367566108704e-02,-0.000000000000000000e+00,-0.000000000000000000e+00,1.039905659854412079e-02,-0.000000000000000000e+00,2.605829946696758270e-02
