-0.000000000000000000e+00,-0.000000000000000000e+00,5.211437121033668518e-03,4.786012577824294567e-04,8.610854274593293667e-04,-0.000000000000000000e+00,7.306120824068784714e-03,-0.000000000000000000e+00,4.167325096204876900e-04,-0.000000000000000000e+00,7.265509571880102158e-03,-0.000000000000000000e+00,-0.000000000000000000e+00,-0.000000000000000000e+00,6.476474809460341930e-04,4.988985601812601089e-03,-0.000000000000000000e+00,5.856746574863791466e-04,4.233577288687229156e-03,6.012120749801397324e-03,-0.000000000000000000e+00,3.997828345745801926e-03,1.235023839399218559e-03,3.574447939172387123e-03,7.740390952676534653e-03,-0.000000000000000000e+00,6.417615804821252823e-04,-0.000000000000000000e+00,4.109837580472230911e-03,2.267552539706230164e-03,5.844473838806152344e-03,-0.000000000000000000e+00
1.924628973938524723e-03,6.972281262278556824e-03,2.304008230566978455e-03,3.979068249464035034e-03,-0.000000000000000000e+00,3.023396711796522141e-03,-0.000000000000000000e+00,-0.000000000000000000e+00,6.710540968924760818e-03,6.786778103560209274e-03,6.591231562197208405e-03,1.515012350864708424e-03,3.918359987437725067e-03,4.597691819071769714e-03,6.894782185554504395e-03,1.347907353192567825e-03,1.705853617750108242e-03,6.358645390719175339e-03,4.963499493896961212e-03,2.661786507815122604e-03,1.948054763488471508e-03,7.440545596182346344e-03,1.574723049998283386e-03,-0.000000000000000000e+00,-0.000000000000000000e+00,-0.000000000000000000e+00,-0.000000000000000000e+00,3.458821913227438927e-03,6.391175091266632080e-03,4.091396462172269821e-03,5.312973167747259140e-03,4.533841740339994431e-03
-0.000000000000000000e+00,-0.000000000000000000e+00,4.040627274662256241e-03,-0.000000000000000000e+00,-0.000000000000000000e+00,-0.000000000000000000e+00,-0.000000000000000000e+00,1.571759930811822414e-03,1.106983749195933342e-03,-0.000000000000000000e+00,3.142421599477529526e-03,1.609101658686995506e-03,5.294086411595344543e-03,-0.000000000000000000e+00,-0.000000000000000000e+00,2.188020618632435799e-03,-0.000000000000000000e+00,-0.000000000000000000e+00,-0.000000000000000000e+00,5.503958091139793396e-03,-0.000000000000000000e+00,6.433863309212028980e-04,1.909166108816862106e-03,4.074619151651859283e-03,3.169011091813445091e-03,2.743421820923686028e-03,-0.000000000000000000e+00,3.860932192765176296e-04,5.336029571481049061e-04,-0.000000000000000000e+00,3.110334509983658791e-03,-0.000000000000000000e+00
-0.000000000000000000e+00,-0.000000000000000000e+00,-0.000000000000000000e+00,5.262786988168954849e-03,-0.000000000000000000e+00,3.299267962574958801e-03,5.634311819449067116e-04,3.335395129397511482e-03,-0.000000000000000000e+00,2.417529234662652016e-03,2.092332346364855766e-03,4.946364089846611023e-03,3.744736546650528908e-03,7.006534840911626816e-03,-0.000000000000000000e+00,7.693173829466104507e-03,-0.000000000000000000e+00,-0.000000000000000000e+00,8.399231592193245888e-04,-0.000000000000000000e+00,-0.000000000000000000e+00,-0.000000000000000000e+00,-0.000000000000000000e+00,4.943542880937457085e-04,-0.000000000000000000e+00,5.227675195783376694e-03,1.434395904652774334e-03,-0.000000000000000000e+00,-0.000000000000000000e+00,-0.000000000000000000e+00,3.904115874320268631e-03,8.592607337050139904e-04
5.341413430869579315e-03,4.828596021980047226e-03,-0.000000000000000000e+00,7.214902900159358978e-03,5.789967253804206848e-03,6.127733737230300903e-03,-0.000000000000000000e+00,-0.000000000000000000e+00,3.068939317017793655e-03,-0.000000000000000000e+00,3.896720474585890770e-03,-0.000000000000000000e+00,2.955089090391993523e-03,-0.000000000000000000e+00,-0.000000000000000000e+00,7.655118126422166824e-03,2.140657044947147369e-03,-0.000000000000000000e+00,-0.000000000000000000e+00,6.710780318826436996e-03,3.509351052343845367e-03,5.440406501293182373e-03,-0.000000000000000000e+00,6.266786251217126846e-03,-0.000000000000000000e+00,1.637887791730463505e-03,-0.000000000000000000e+00,-0.000000000000000000e+00,3.421305445954203606e-03,7.777359802275896072e-03,5.004173610359430313e-03,5.536137614399194717e-03
3.639657981693744659e-03,3.227384295314550400e-03,-0.000000000000000000e+00,7.359472103416919708e-03,4.664657637476921082e-03,-0.000000000000000000e+00,2.008755691349506378e-03,-0.000000000000000000e+00,2.853682963177561760e-03,-0.000000000000000000e+00,-0.000000000000000000e+00,-0.000000000000000000e+00,7.744333706796169281e-04,-0.000000000000000000e+00,-0.000000000000000000e+00,5.175858736038208008e-03,-0.000000000000000000e+00,5.889794323593378067e-03,6.015476770699024200e-03,9.186929091811180115e-04,7.329302839934825897e-03,-0.000000000000000000e+00,-0.000000000000000000e+00,-0.000000000000000000e+00,5.360380746424198151e-03,7.164878188632428646e-04,5.341351788956671953e-05,2.501572482287883759e-03,4.807768855243921280e-03,-0.000000000000000000e+00,1.009479979984462261e-03,2.077867742627859116e-03
-0.000000000000000000e+00,-0.000000000000000000e+00,-0.000000000000000000e+00,7.248655310831964016e-04,4.446691367775201797e-03,9.979347232729196548e-04,2.797679917421191931e-04,-0.000000000000000000e+00,-0.000000000000000000e+00,-0.000000000000000000e+00,7.398884743452072144e-03,3.653828054666519165e-03,5.152269732207059860e-03,3.779435297474265099e-03,7.308724801987409592e-03,-0.000000000000000000e+00,4.424142185598611832e-03,-0.000000000000000000e+00,3.000066382810473442e-03,-0.000000000000000000e+00,2.931590424850583076e-04,-0.000000000000000000e+00,-0.000000000000000000e+00,5.373149644583463669e-03,-0.000000000000000000e+00,2.162965945899486542e-03,1.471737516112625599e-03,2.985572791658341885e-04,7.511609233915805817e-03,-0.000000000000000000e+00,3.743764245882630348e-03,-0.000000000000000000e+00
5.914182867854833603e-03,2.829684177413582802e-03,-0.000000000000000000e+00,1.957480097189545631e-03,1.279081334359943867e-03,-0.000000000000000000e+00,-0.000000000000000000e+00,-0.000000000000000000e+00,-0.000000000000000000e+00,2.724937628954648972e-03,6.987129803746938705e-03,-0.000000000000000000e+00,2.692979294806718826e-03,-0.000000000000000000e+00,2.090537309413775802e-04,3.426878945901989937e-03,6.188180297613143921e-03,3.478049300611019135e-03,2.517965389415621758e-03,7.222208194434642792e-03,2.219863235950469971e-03,1.467734575271606445e-03,-0.000000000000000000e+00,-0.000000000000000000e+00,-0.000000000000000000e+00,2.039192710071802139e-03,-0.000000000000000000e+00,-0.000000000000000000e+00,3.219574457034468651e-03,7.244180422276258469e-03,5.967306438833475113e-03,-0.000000000000000000e+00
-0.000000000000000000e+00,-0.000000000000000000e+00,7.036957424134016037e-03,-0.000000000000000000e+00,-0.000000000000000000e+00,-0.000000000000000000e+00,6.548289675265550613e-04,4.524634568952023983e-04,-0.000000000000000000e+00,-0.000000000000000000e+00,2.777424873784184456e-03,-0.000000000000000000e+00,7.512245792895555496e-03,-0.000000000000000000e+00,-0.000000000000000000e+00,-0.000000000000000000e+00,-0.000000000000000000e+00,5.154926329851150513e-03,2.012953162193298340e-03,4.689345136284828186e-03,-0.000000000000000000e+00,1.394896302372217178e-03,-0.000000000000000000e+00,2.707993146032094955e-03,3.202449064701795578e-03,-0.000000000000000000e+00,3.880428150296211243e-03,7.480260683223605156e-04,5.906567908823490143e-03,-0.000000000000000000e+00,-0.000000000000000000e+00,5.846259184181690216e-03
-0.000000000000000000e+00,1.555495546199381351e-04,-0.000000000000000000e+00,6.569993216544389725e-03,-0.000000000000000000e+00,-0.000000000000000000e+00,-0.000000000000000000e+00,-0.000000000000000000e+00,4.085127729922533035e-03,-0.000000000000000000e+00,5.611728411167860031e-03,-0.000000000000000000e+00,1.528395841887686402e-05,-0.000000000000000000e+00,-0.000000000000000000e+00,1.229261397384107113e-03,1.994289457798004150e-03,1.308568054810166359e-03,1.273174420930445194e-03,-0.000000000000000000e+00,7.452117279171943665e-04,-0.000000000000000000e+00,5.930996034294366837e-03,7.300156634300947189e-03,-0.000000000000000000e+00,2.708352403715252876e-03,5.414539482444524765e-03,-0.000000000000000000e+00,5.345892161130905151e-03,7.137290667742490768e-03,4.822302726097404957e-04,-0.000000000000000000e+00
5.700310226529836655e-03,1.055419328622519970e-03,-0.000000000000000000e+00,5.003993399441242218e-03,6.716661155223846436e-03,-0.000000000000000000e+00,-0.000000000000000000e+00,-0.000000000000000000e+00,-0.000000000000000000e+00,-0.000000000000000000e+00,1.159998864750377834e-04,1.666849129833281040e-03,-0.000000000000000000e+00,-0.000000000000000000e+00,2.011326607316732407e-03,6.213533226400613785e-03,5.366577766835689545e-03,4.426455590873956680e-03,-0.000000000000000000e+00,-0.000000000000000000e+00,-0.000000000000000000e+00,-0.000000000000000000e+00,3.836345858871936798e-03,-0.000000000000000000e+00,3.183092223480343819e-03,3.095860360190272331e-03,6.425166968256235123e-03,-0.000000000000000000e+00,-0.000000000000000000e+00,5.412377417087554932e-03,-0.000000000000000000e+00,-0.000000000000000000e+00
-0.000000000000000000e+00,3.640013281255960464e-03,2.121595665812492371e-03,7.629739586263895035e-03,-0.000000000000000000e+00,-0.000000000000000000e+00,4.906263202428817749e-03,2.399314427748322487e-03,6.441426929086446762e-03,1.739227795042097569e-03,1.792303519323468208e-03,-0.000000000000000000e+00,6.264911964535713196e-03,-0.000000000000000000e+00,-0.000000000000000000e+00,2.021060790866613388e-03,1.818920369260013103e-03,-0.000000000000000000e+00,3.445972921326756477e-03,1.089574070647358894e-03,-0.000000000000000000e+00,7.488616742193698883e-03,4.797232802957296371e-03,-0.000000000000000000e+00,6.712654721923172474e-04,7.594769354909658432e-03,3.029776969924569130e-03,-0.000000000000000000e+00,-0.000000000000000000e+00,3.120699198916554451e-03,-0.000000000000000000e+00,8.746207458898425102e-05
2.435825066640973091e-03,3.836799412965774536e-03,1.305437979937096316e-09,1.044019125401973724e-03,-0.000000000000000000e+00,-0.000000000000000000e+00,1.299731017256888777e-10,1.202449318952858448e-03,3.801298387173801530e-09,1.347851552591095015e-10,1.957051455974578857e-03,1.574910618364810944e-02,-0.000000000000000000e+00,1.807057764381170273e-03,1.074570976197719574e-02,-0.000000000000000000e+00,2.690991323106572963e-06,7.700152695178985596e-03,1.960207155207172036e-04,-0.000000000000000000e+00,4.303427878767251968e-03,1.040718611329793930e-02,3.173579461872577667e-03,1.088642049580812454e-02,5.577880423516035080e-03,8.449076674878597260e-03,3.320383257232606411e-04,1.080124523156200667e-08,1.796992705749289598e-07,9.647914703236892819e-05,5.464784335345029831e-03,5.684167845174670219e-04
2.742065582424402237e-03,3.162889275699853897e-03,2.819746214299811982e-08,-0.000000000000000000e+00,-0.000000000000000000e+00,-0.000000000000000000e+00,2.807424070994102294e-09,7.077811169438064098e-04,8.210781032857994433e-08,2.911359597845830649e-09,6.240200251340866089e-03,3.485121950507164001e-02,-0.000000000000000000e+00,3.912266343832015991e-03,2.226756513118743896e-02,-0.000000000000000000e+00,4.026562441140413284e-03,7.392416708171367645e-03,6.459098076447844505e-04,-0.000000000000000000e+00,3.325192723423242569e-03,5.682977847754955292e-03,7.677164394408464432e-03,1.463334076106548309e-02,1.775078289210796356e-02,7.126884534955024719e-03,8.344444722752086818e-06,2.333070199256326305e-07,3.881521934090415016e-06,2.124513994203880429e-04,-0.000000000000000000e+00,1.240209909155964851e-03
2.377005439484491944e-04,-0.000000000000000000e+00,6.390945054590702057e-03,-0.000000000000000000e+00,5.340711795724928379e-04,2.894726058002561331e-04,3.099210094660520554e-03,1.953778264578431845e-04,3.130518598482012749e-04,3.369024780113250017e-04,1.918734284117817879e-03,1.455676043406128883e-03,-0.000000000000000000e+00,-0.000000000000000000e+00,-0.000000000000000000e+00,4.483862780034542084e-03,1.451940741389989853e-03,8.553831721656024456e-04,3.399925190024077892e-04,-0.000000000000000000e+00,5.569050088524818420e-03,5.631288513541221619e-03,2.893306955229490995e-04,5.534365307539701462e-03,-0.000000000000000000e+00,7.582048056065104902e-06,7.937008515000343323e-03,2.324084052816033363e-03,7.054326706565916538e-04,2.071963535854592919e-06,-0.000000000000000000e+00,7.323655765503644943e-03
6.666235625743865967e-03,-0.000000000000000000e+00,5.333803594112396240e-03,-0.000000000000000000e+00,6.128728389739990234e-03,5.605191923677921295e-03,7.520452141761779785e-03,9.098856935452204198e-06,2.492394298315048218e-03,1.787839573808014393e-05,2.455547451972961426e-03,1.077690045349299908e-03,1.367978868074715137e-03,8.563344599679112434e-04,3.945888951420783997e-03,4.198820330202579498e-03,2.423661044304026291e-06,6.633159238845109940e-03,1.915949906106106937e-05,4.507115227170288563e-04,1.203245119540952146e-05,9.283500839956104755e-04,3.971880301833152771e-03,4.064366221427917480e-03,3.321865340694785118e-03,1.654863735893741250e-04,1.425389746145810932e-05,7.404183968901634216e-03,5.077861715108156204e-03,6.533858831971883774e-03,-0.000000000000000000e+00,-0.000000000000000000e+00
-0.000000000000000000e+00,2.471592160873115063e-04,1.154517522081732750e-03,-0.000000000000000000e+00,6.298398599028587341e-03,-0.000000000000000000e+00,6.592315156012773514e-03,-0.000000000000000000e+00,2.897524042055010796e-03,-0.000000000000000000e+00,-0.000000000000000000e+00,6.835016887634992599e-03,-0.000000000000000000e+00,4.889393225312232971e-03,1.350593171082437038e-03,-0.000000000000000000e+00,-0.000000000000000000e+00,-0.000000000000000000e+00,-0.000000000000000000e+00,7.003976497799158096e-03,-0.000000000000000000e+00,-0.000000000000000000e+00,6.882288493216037750e-03,-0.000000000000000000e+00,-0.000000000000000000e+00,-0.000000000000000000e+00,-0.000000000000000000e+00,3.821316640824079514e-03,-0.000000000000000000e+00,-0.000000000000000000e+00,2.983892336487770081e-03,7.140480447560548782e-03
5.854772403836250305e-03,-0.000000000000000000e+00,-0.000000000000000000e+00,3.264828119426965714e-03,7.309748325496912003e-03,3.110584802925586700e-03,-0.000000000000000000e+00,4.362993349786847830e-04,-0.000000000000000000e+00,-0.000000000000000000e+00,5.036956164985895157e-03,-0.000000000000000000e+00,1.794918905943632126e-03,6.032306235283613205e-03,7.288862485438585281e-03,-0.000000000000000000e+00,-0.000000000000000000e+00,2.471063053235411644e-03,4.469384148251265287e-04,-0.000000000000000000e+00,6.134306546300649643e-03,-0.000000000000000000e+00,-0.000000000000000000e+00,-0.000000000000000000e+00,-0.000000000000000000e+00,5.858719814568758011e-03,-0.000000000000000000e+00,2.229294274002313614e-03,4.955222830176353455e-03,-0.000000000000000000e+00,5.000856705009937286e-03,7.306180195882916451e-04
-0.000000000000000000e+00,-0.000000000000000000e+00,-0.000000000000000000e+00,5.188338458538055420e-03,-0.000000000000000000e+00,-0.000000000000000000e+00,-0.000000000000000000e+00,6.206619553267955780e-03,-0.000000000000000000e+00,7.022693753242492676e-03,-0.000000000000000000e+00,2.481944393366575241e-03,2.731107175350189209e-03,-0.000000000000000000e+00,8.609975338913500309e-04,-0.000000000000000000e+00,-0.000000000000000000e+00,-0.000000000000000000e+00,8.614710532128810883e-04,-0.000000000000000000e+00,-0.000000000000000000e+00,-0.000000000000000000e+00,-0.000000000000000000e+00,-0.000000000000000000e+00,1.922765630297362804e-03,2.882136031985282898e-03,5.822305101901292801e-03,-0.000000000000000000e+00,1.348315388895571232e-03,5.465285852551460266e-03,-0.000000000000000000e+00,3.954092608182691038e-05
5.083082709461450577e-03,-0.000000000000000000e+00,7.434835657477378845e-03,-0.000000000000000000e+00,7.593692862428724766e-04,-0.000000000000000000e+00,-0.000000000000000000e+00,-0.000000000000000000e+00,1.131463330239057541e-03,3.568614134564995766e-03,-0.000000000000000000e+00,7.558259181678295135e-03,-0.000000000000000000e+00,-0.000000000000000000e+00,-0.000000000000000000e+00,-0.000000000000000000e+00,2.104573650285601616e-03,-0.000000000000000000e+00,7.389848120510578156e-03,2.880721585825085640e-03,2.664940431714057922e-03,-0.000000000000000000e+00,-0.000000000000000000e+00,5.366218276321887970e-03,2.388884779065847397e-03,-0.000000000000000000e+00,5.719508510082960129e-03,-0.000000000000000000e+00,-0.000000000000000000e+00,3.812274197116494179e-03,2.083843719447031617e-04,-0.000000000000000000e+00
-0.000000000000000000e+00,-0.000000000000000000e+00,2.660693135112524033e-03,4.600179381668567657e-03,5.903972312808036804e-03,-0.000000000000000000e+00,-0.000000000000000000e+00,-0.000000000000000000e+00,-0.000000000000000000e+00,-0.000000000000000000e+00,-0.000000000000000000e+00,-0.000000000000000000e+00,6.735936738550662994e-03,-0.000000000000000000e+00,4.255071748048067093e-03,8.718632161617279053e-04,-0.000000000000000000e+00,4.862035159021615982e-03,4.281603731215000153e-03,-0.000000000000000000e+00,-0.000000000000000000e+00,6.285455077886581421e-03,6.443018210120499134e-04,5.437873187474906445e-04,-0.000000000000000000e+00,-0.000000000000000000e+00,1.740413252264261246e-03,-0.000000000000000000e+00,5.922613199800252914e-03,5.328746978193521500e-03,2.066199667751789093e-03,2.746835816651582718e-03
6.975182332098484039e-03,1.078762114048004150e-03,-0.000000000000000000e+00,-0.000000000000000000e+00,-0.000000000000000000e+00,-0.000000000000000000e+00,-0.000000000000000000e+00,3.258307697251439095e-03,3.629053477197885513e-03,-0.000000000000000000e+00,1.848473621066659689e-04,3.199954982846975327e-03,6.561226909980177879e-04,5.223124288022518158e-03,-0.000000000000000000e+00,2.002503490075469017e-03,-0.000000000000000000e+00,-0.000000000000000000e+00,2.685277024284005165e-03,5.139497108757495880e-03,-0.000000000000000000e+00,-0.000000000000000000e+00,-0.000000000000000000e+00,2.532135229557752609e-03,5.866819061338901520e-03,4.610459654941223562e-05,-0.000000000000000000e+00,1.092237187549471855e-03,-0.000000000000000000e+00,1.757516060024499893e-03,1.860115793533623219e-03,-0.000000000000000000e+00
2.871707314625382423e-03,7.645779754966497421e-03,5.928905680775642395e-03,-0.000000000000000000e+00,6.488305516541004181e-03,1.938722445629537106e-03,-0.000000000000000000e+00,-0.000000000000000000e+00,-0.000000000000000000e+00,4.241391550749540329e-03,6.355050951242446899e-03,-0.000000000000000000e+00,-0.000000000000000000e+00,3.526858519762754440e-03,6.590369623154401779e-03,9.894164977595210075e-04,-0.000000000000000000e+00,4.306975752115249634e-04,-0.000000000000000000e+00,-0.000000000000000000e+00,7.092353887856006622e-03,-0.000000000000000000e+00,3.846972482278943062e-03,3.499200567603111267e-03,3.460992826148867607e-03,-0.000000000000000000e+00,-0.000000000000000000e+00,-0.000000000000000000e+00,6.677829194813966751e-03,-0.000000000000000000e+00,7.393539417535066605e-03,5.664723459631204605e-03
-0.000000000000000000e+00,3.771887859329581261e-03,-0.000000000000000000e+00,1.230078283697366714e-03,-0.000000000000000000e+00,7.517939433455467224e-03,3.838608507066965103e-03,-0.000000000000000000e+00,-0.000000000000000000e+00,-0.000000000000000000e+00,-0.000000000000000000e+00,1.936237909831106663e-03,6.819525733590126038e-03,4.981410689651966095e-03,1.379557419568300247e-03,4.845922347158193588e-03,-0.000000000000000000e+00,2.534831874072551727e-03,-0.000000000000000000e+00,-0.000000000000000000e+00,-0.000000000000000000e+00,2.730870386585593224e-03,3.054243046790361404e-03,-0.000000000000000000e+00,-0.000000000000000000e+00,2.693564631044864655e-03,-0.000000000000000000e+00,4.196134395897388458e-03,5.279376637190580368e-03,-0.000000000000000000e+00,-0.000000000000000000e+00,-0.000000000000000000e+00
4.550465848296880722e-03,3.219010075554251671e-03,4.904096480458974838e-03,-0.000000000000000000e+00,1.762078842148184776e-03,6.080396007746458054e-03,4.410222638398408890e-03,3.016689326614141464e-03,3.673439496196806431e-04,-0.000000000000000000e+00,5.821479950100183487e-03,7.206066045910120010e-03,1.345387077890336514e-03,3.355709137395024300e-03,2.480156952515244484e-03,-0.000000000000000000e+00,-0.000000000000000000e+00,5.395878688432276249e-04,5.062459968030452728e-03,4.888799041509628296e-03,-0.000000000000000000e+00,-0.000000000000000000e+00,-0.000000000000000000e+00,3.340721377753652632e-05,6.662013009190559387e-03,6.575814448297023773e-03,2.796768210828304291e-03,5.173185374587774277e-03,-0.000000000000000000e+00,-0.000000000000000000e+00,1.007831655442714691e-03,6.615256424993276596e-03
-0.000000000000000000e+00,2.630544186104089022e-04,-0.000000000000000000e+00,-0.000000000000000000e+00,3.496646240819245577e-04,3.601694770622998476e-04,-0.000000000000000000e+00,6.100978236645460129e-03,2.937783254310488701e-03,6.228149402886629105e-03,-0.000000000000000000e+00,3.235723823308944702e-03,4.924443084746599197e-03,2.655592747032642365e-03,-0.000000000000000000e+00,6.739947944879531860e-03,-0.000000000000000000e+00,-0.000000000000000000e+00,4.676375538110733032e-04,6.986504886299371719e-03,-0.000000000000000000e+00,5.485592409968376160e-03,4.164474084973335266e-03,3.905178280547261238e-03,-0.000000000000000000e+00,-0.000000000000000000e+00,-0.000000000000000000e+00,-0.000000000000000000e+00,-0.000000000000000000e+00,7.686474127694964409e-04,4.610095173120498657e-03,2.093254355713725090e-03
-0.000000000000000000e+00,2.028717426583170891e-03,-0.000000000000000000e+00,-0.000000000000000000e+00,6.072172429412603378e-03,-0.000000000000000000e+00,-0.000000000000000000e+00,2.174834255129098892e-03,-0.000000000000000000e+00,-0.000000000000000000e+00,-0.000000000000000000e+00,-0.000000000000000000e+00,5.814276635646820068e-03,-0.000000000000000000e+00,-0.000000000000000000e+00,-0.000000000000000000e+00,2.148985862731933594e-03,-0.000000000000000000e+00,3.351289778947830200e-03,-0.000000000000000000e+00,-0.000000000000000000e+00,-0.000000000000000000e+00,3.010040847584605217e-03,3.600118914619088173e-03,-0.000000000000000000e+00,4.182555712759494781e-03,5.502838175743818283e-03,-0.000000000000000000e+00,-0.000000000000000000e+00,6.950228009372949600e-03,-0.000000000000000000e+00,-0.000000000000000000e+00
5.746535491198301315e-03,5.167898721992969513e-03,8.414707845076918602e-04,-0.000000000000000000e+00,6.033786106854677200e-03,-0.000000000000000000e+00,-0.000000000000000000e+00,2.869063289836049080e-03,1.080691930837929249e-03,-0.000000000000000000e+00,2.441828371956944466e-03,2.807933837175369263e-03,4.912363365292549133e-03,-0.000000000000000000e+00,3.767265938222408295e-03,6.422819569706916809e-03,6.825543008744716644e-03,-0.000000000000000000e+00,-0.000000000000000000e+00,3.096346976235508919e-03,-0.000000000000000000e+00,-0.000000000000000000e+00,-0.000000000000000000e+00,8.477289229631423950e-04,-0.000000000000000000e+00,6.418961565941572189e-03,-0.000000000000000000e+00,2.798245986923575401e-05,1.052401959896087646e-03,-0.000000000000000000e+00,-0.000000000000000000e+00,-0.000000000000000000e+00
4.420100245624780655e-03,-0.000000000000000000e+00,5.259566009044647217e-03,6.927714683115482330e-03,4.411598201841115952e-03,-0.000000000000000000e+00,-0.000000000000000000e+00,-0.000000000000000000e+00,-0.000000000000000000e+00,3.706106508616358042e-05,-0.000000000000000000e+00,1.121087698265910149e-03,7.602551020681858063e-03,6.911287549883127213e-03,-0.000000000000000000e+00,-0.000000000000000000e+00,1.855856389738619328e-03,-0.000000000000000000e+00,-0.000000000000000000e+00,-0.000000000000000000e+00,-0.000000000000000000e+00,7.213536300696432590e-04,2.680360339581966400e-03,2.274911093991249800e-04,4.505250137299299240e-03,-0.000000000000000000e+00,-0.000000000000000000e+00,4.813544917851686478e-03,4.690293688327074051e-03,-0.000000000000000000e+00,-0.000000000000000000e+00,4.914199002087116241e-03
-0.000000000000000000e+00,-0.000000000000000000e+00,5.115092732012271881e-03,5.013493821024894714e-03,3.723827423527836800e-03,1.007471699267625809e-03,6.716196890920400620e-03,-0.000000000000000000e+00,-0.000000000000000000e+00,-0.000000000000000000e+00,3.710970049723982811e-03,5.925575271248817444e-03,-0.000000000000000000e+00,-0.000000000000000000e+00,-0.000000000000000000e+00,3.698565065860748291e-03,2.069357549771666527e-03,9.614611044526100159e-04,5.201576277613639832e-03,5.503877997398376465e-03,2.704641781747341156e-03,3.193091601133346558e-03,7.718273438513278961e-03,3.263398539274930954e-04,2.701344899833202362e-03,3.913903143256902695e-03,6.052053999155759811e-03,5.671505350619554520e-03,-0.000000000000000000e+00,5.193668883293867111e-03,-0.000000000000000000e+00,2.613644348457455635e-03
-0.000000000000000000e+00,2.618722850456833839e-03,5.220896564424037933e-03,7.234692107886075974e-03,2.188515849411487579e-03,-0.000000000000000000e+00,-0.000000000000000000e+00,-0.000000000000000000e+00,-0.000000000000000000e+00,-0.000000000000000000e+00,-0.000000000000000000e+00,-0.000000000000000000e+00,-0.000000000000000000e+00,-0.000000000000000000e+00,1.444261288270354271e-03,7.103391457349061966e-03,-0.000000000000000000e+00,4.499766509979963303e-03,-0.000000000000000000e+00,3.440681612119078636e-03,3.869616193696856499e-03,-0.000000000000000000e+00,4.025453745271079242e-05,-0.000000000000000000e+00,-0.000000000000000000e+00,7.046543061733245850e-03,4.687542386818677187e-04,-0.000000000000000000e+00,-0.000000000000000000e+00,4.022857639938592911e-03,1.271464279852807522e-03,6.028200150467455387e-04
3.039532108232378960e-03,-0.000000000000000000e+00,5.310004111379384995e-03,-0.000000000000000000e+00,1.913510495796799660e-03,-0.000000000000000000e+00,-0.000000000000000000e+00,2.167729660868644714e-03,6.588418968021869659e-03,2.551297657191753387e-03,-0.000000000000000000e+00,5.913431756198406219e-03,6.850441452115774155e-03,8.838185458444058895e-04,-0.000000000000000000e+00,-0.000000000000000000e+00,-0.000000000000000000e+00,7.664968259632587433e-03,-0.000000000000000000e+00,-0.000000000000000000e+00,-0.000000000000000000e+00,-0.000000000000000000e+00,1.655533327721059322e-03,7.259717676788568497e-03,1.236619893461465836e-03,-0.000000000000000000e+00,-0.000000000000000000e+00,-0.000000000000000000e+00,-0.000000000000000000e+00,-0.000000000000000000e+00,1.265628961846232414e-03,3.282229648903012276e-03
1.132601988501846790e-03,5.499689723365008831e-04,-0.000000000000000000e+00,4.610302070662264384e-11,-0.000000000000000000e+00,4.637399688363075256e-03,-0.000000000000000000e+00,3.627887926995754242e-03,-0.000000000000000000e+00,-0.000000000000000000e+00,-0.000000000000000000e+00,6.579319015145301819e-03,3.671686630696058273e-03,3.374134423211216927e-03,2.602623542770743370e-03,7.714732550084590912e-03,-0.000000000000000000e+00,7.262338418513536453e-03,-0.000000000000000000e+00,-0.000000000000000000e+00,-0.000000000000000000e+00,6.156691815704107285e-03,2.390652298345230520e-05,4.491392523050308228e-03,2.428375046292785555e-05,-0.000000000000000000e+00,7.039214018732309341e-03,6.800046656280755997e-03,-0.000000000000000000e+00,-0.000000000000000000e+00,-0.000000000000000000e+00,-0.000000000000000000e+00
7.307036314159631729e-03,4.612475167959928513e-03,-0.000000000000000000e+00,2.835556642821757123e-06,4.387407097965478897e-04,8.106956956908106804e-04,4.323265980929136276e-03,8.093824726529419422e-05,-0.000000000000000000e+00,3.407927462831139565e-03,-0.000000000000000000e+00,1.008018199354410172e-02,1.342279138043522835e-03,4.247927106916904449e-03,2.257435349747538567e-03,-0.000000000000000000e+00,6.078638602048158646e-03,2.988327760249376297e-04,6.370708579197525978e-04,-0.000000000000000000e+00,-0.000000000000000000e+00,3.024373669177293777e-03,9.257952682673931122e-03,1.325720688328146935e-03,7.964883479871787131e-06,5.824776832014322281e-03,3.268487635068595409e-04,5.071951309219002724e-04,-0.000000000000000000e+00,2.663846680661663413e-05,1.863485435023903847e-03,4.354320932179689407e-03
2.337654004804790020e-04,3.461634367704391479e-02,-0.000000000000000000e+00,2.924520813394337893e-04,3.891396149992942810e-02,-0.000000000000000000e+00,1.044479291886091232e-02,7.833666168153285980e-03,-0.000000000000000000e+00,-0.000000000000000000e+00,7.188067771494388580e-03,1.661790311336517334e-01,5.182839157846785838e-10,1.763209328055381775e-02,1.304491013288497925e-01,-0.000000000000000000e+00,-0.000000000000000000e+00,2.060282602906227112e-02,5.740515887737274170e-02,4.150063432462047786e-06,4.207131452858448029e-03,9.717315435409545898e-02,1.090657636523246765e-01,9.257408231496810913e-02,1.410531403962522745e-04,4.376548528671264648e-02,1.001691631972789764e-02,4.623344913125038147e-02,1.225106916535878554e-05,8.464425802230834961e-03,-0.000000000000000000e+00,1.038350310409441590e-04
3.321453114040195942e-04,6.071948260068893433e-02,-0.000000000000000000e+00,7.168048177845776081e-04,6.838643550872802734e-02,-0.000000000000000000e+00,2.695498242974281311e-02,1.100852526724338531e-02,-0.000000000000000000e+00,-0.000000000000000000e+00,-0.000000000000000000e+00,2.336409986019134521e-01,-0.000000000000000000e+00,3.232472017407417297e-02,1.924618482589721680e-01,-0.000000000000000000e+00,-0.000000000000000000e+00,3.472721204161643982e-02,8.948706090450286865e-02,-0.000000000000000000e+00,1.457318430766463280e-04,1.576402634382247925e-01,1.621758490800857544e-01,1.491975784301757812e-01,2.232218394055962563e-04,6.432201713323593140e-02,2.203551307320594788e-02,8.170711994171142578e-02,1.334548232989618555e-05,5.128616932779550552e-03,-0.000000000000000000e+00,1.362684706691652536e-04
8.612679084762930870e-05,6.805376708507537842e-02,-0.000000000000000000e+00,1.948446006281301379e-04,5.998992919921875000e-02,7.953948806971311569e-05,2.059337683022022247e-02,1.131133269518613815e-02,1.226382446475327015e-04,2.286120870849117637e-04,8.757301839068531990e-05,2.117644697427749634e-01,-0.000000000000000000e+00,3.195619955658912659e-02,1.781352758407592773e-01,-0.000000000000000000e+00,-0.000000000000000000e+00,2.194195985794067383e-02,8.476482331752777100e-02,-0.000000000000000000e+00,1.676890184171497822e-03,1.368868649005889893e-01,1.513411253690719604e-01,1.415022611618041992e-01,1.991965109482407570e-03,4.628519341349601746e-02,2.130790986120700836e-02,7.635641098022460938e-02,-0.000000000000000000e+00,7.103037089109420776e-03,-0.000000000000000000e+00,-0.000000000000000000e+00
3.024525722139514983e-05,3.053195029497146606e-02,6.082559411879628897e-05,5.970906568109057844e-05,1.343970745801925659e-02,1.342623436357825994e-04,2.035066019743680954e-03,3.805259257205761969e-05,1.482731022406369448e-04,2.727941900957375765e-04,-0.000000000000000000e+00,1.893135309219360352e-01,-0.000000000000000000e+00,2.075424976646900177e-02,1.372602581977844238e-01,-0.000000000000000000e+00,7.616256425535539165e-06,3.282198309898376465e-02,2.129332348704338074e-02,-0.000000000000000000e+00,1.579626114107668400e-04,6.688507646322250366e-02,7.499694079160690308e-02,9.425457566976547241e-02,2.398884296417236328e-02,2.149811573326587677e-02,1.456274557858705521e-02,2.395289763808250427e-02,-0.000000000000000000e+00,4.145862534642219543e-03,-0.000000000000000000e+00,-0.000000000000000000e+00
-0.000000000000000000e+00,1.820812933146953583e-02,-0.000000000000000000e+00,1.834976274039945565e-06,1.799238147214055061e-03,7.831324182916432619e-05,2.449926432745996863e-05,2.433850022498518229e-05,9.840097482083365321e-05,2.075850497931241989e-04,-0.000000000000000000e+00,2.260661870241165161e-01,-0.000000000000000000e+00,2.407461777329444885e-02,1.666758060455322266e-01,-0.000000000000000000e+00,1.216825447045266628e-03,7.093299180269241333e-02,4.741042212117463350e-04,-0.000000000000000000e+00,1.687378098722547293e-04,5.413232371211051941e-02,5.118082836270332336e-02,1.087669134140014648e-01,7.868535071611404419e-02,2.022661268711090088e-02,1.097590476274490356e-02,1.245226711034774780e-02,1.457049307873603539e-07,5.866709630936384201e-03,-0.000000000000000000e+00,8.331260760314762592e-04
-0.000000000000000000e+00,7.422622758895158768e-03,-0.000000000000000000e+00,3.219018504023551941e-02,8.628439391031861305e-04,-0.000000000000000000e+00,3.599421307444572449e-02,1.356464810669422150e-02,5.624427925795316696e-03,-0.000000000000000000e+00,-0.000000000000000000e+00,2.345276325941085815e-01,-0.000000000000000000e+00,1.606211066246032715e-02,2.224912494421005249e-01,-0.000000000000000000e+00,3.577840747311711311e-03,7.709585130214691162e-02,2.087728679180145264e-02,-0.000000000000000000e+00,3.476394712924957275e-02,4.801066964864730835e-02,6.301557645201683044e-03,9.416442364454269409e-02,4.535758122801780701e-02,1.626442745327949524e-02,3.345722332596778870e-02,1.172661082819104195e-03,-0.000000000000000000e+00,3.091324819251894951e-03,-0.000000000000000000e+00,-0.000000000000000000e+00
-0.000000000000000000e+00,8.912383578717708588e-03,-0.000000000000000000e+00,4.482172429561614990e-02,1.932104700244963169e-03,-0.000000000000000000e+00,5.697179585695266724e-02,2.256048470735549927e-02,1.182487141340970993e-02,-0.000000000000000000e+00,-0.000000000000000000e+00,3.594399392604827881e-01,-0.000000000000000000e+00,2.446088194847106934e-02,3.366732895374298096e-01,-0.000000000000000000e+00,3.555943490937352180e-03,7.601988315582275391e-02,6.737416982650756836e-02,-0.000000000000000000e+00,2.048082835972309113e-02,1.113122329115867615e-01,6.608844548463821411e-02,1.467152982950210571e-01,3.848061338067054749e-02,1.379249431192874908e-02,6.601570546627044678e-02,2.580039668828248978e-03,-0.000000000000000000e+00,1.003895653411746025e-03,-0.000000000000000000e+00,-0.000000000000000000e+00
-0.000000000000000000e+00,1.504205912351608276e-02,5.687664379365742207e-04,2.215858735144138336e-02,8.954977383837103844e-04,1.095369341783225536e-03,3.478331863880157471e-02,2.871661633253097534e-02,5.844112951308488846e-03,1.047660131007432938e-03,-0.000000000000000000e+00,2.660858631134033203e-01,2.645872996254183818e-07,1.106008980423212051e-02,2.229067087173461914e-01,4.967149579897522926e-04,3.271761536598205566e-02,2.756419777870178223e-02,2.289954945445060730e-02,2.862044202629476786e-04,2.974707260727882385e-02,3.286567702889442444e-02,2.942999452352523804e-02,8.185233175754547119e-02,5.340506881475448608e-02,3.652358645922504365e-05,1.725567691028118134e-02,1.237221411429345608e-03,1.906758116092532873e-04,2.536448591854423285e-04,4.271891084499657154e-04,1.010358333587646484e-03
2.405722043476998806e-04,1.508774887770414352e-02,1.806544512510299683e-02,-0.000000000000000000e+00,7.427626987919211388e-04,7.816712558269500732e-02,7.171153556555509567e-04,3.397008776664733887e-02,1.095882151275873184e-02,5.057063419371843338e-03,1.592047326266765594e-02,3.621490672230720520e-02,2.185818011639639735e-04,4.953294410370290279e-05,1.881713978946208954e-04,8.067569695413112640e-03,1.089992672204971313e-01,7.849060784792527556e-05,2.228999743238091469e-03,4.874504636973142624e-03,8.674030750989913940e-02,1.663913019001483917e-02,1.246413448825478554e-03,1.106034687836654484e-04,1.475382782518863678e-02,-0.000000000000000000e+00,2.856979146599769592e-03,4.068052396178245544e-02,6.160750240087509155e-02,-0.000000000000000000e+00,9.014196693897247314e-03,4.474086686968803406e-03
1.076633459888398647e-03,1.834864262491464615e-03,2.277572173625230789e-03,2.955521829426288605e-02,3.741515334695577621e-03,3.478844417259097099e-03,9.246946871280670166e-02,1.161977276206016541e-01,8.112620562314987183e-02,5.936486180871725082e-03,1.781638566171750426e-04,1.753312498331069946e-01,3.410124336369335651e-04,4.501417424762621522e-05,1.409363895654678345e-01,3.141819324810057878e-04,1.416684836149215698e-01,7.783374167047441006e-05,9.379202127456665039e-02,-0.000000000000000000e+00,1.671233177185058594e-01,1.909487396478652954e-01,5.026010423898696899e-02,5.854296311736106873e-02,6.060475716367363930e-04,2.303126268088817596e-02,7.635616511106491089e-02,9.486752003431320190e-02,8.912335033528506756e-04,-0.000000000000000000e+00,-0.000000000000000000e+00,1.912995503516867757e-04
7.309279171749949455e-04,2.680651610717177391e-03,1.635912922210991383e-03,6.509112566709518433e-02,8.526664227247238159e-02,2.431220375001430511e-03,1.449990868568420410e-01,7.863999158143997192e-02,1.950756162405014038e-01,1.000074595212936401e-01,-0.000000000000000000e+00,1.190402358770370483e-01,1.437618338968604803e-04,4.993944094167090952e-05,7.829616218805313110e-02,1.380225148750469089e-04,2.050961554050445557e-01,1.805378124117851257e-04,2.468753904104232788e-01,-0.000000000000000000e+00,1.703085154294967651e-01,1.416717469692230225e-01,1.629908382892608643e-01,-0.000000000000000000e+00,1.937203487614169717e-04,1.637906953692436218e-02,1.225148960947990417e-01,2.289466187357902527e-02,-0.000000000000000000e+00,-0.000000000000000000e+00,-0.000000000000000000e+00,1.082986000255914405e-05
7.270032801898196340e-05,5.183951463550329208e-03,3.749957832042127848e-04,6.549561023712158203e-02,2.812214428558945656e-03,5.591718945652246475e-04,7.825972884893417358e-02,2.069037966430187225e-02,7.772483676671981812e-02,7.009903434664011002e-03,4.499788337852805853e-05,1.816578358411788940e-01,-0.000000000000000000e+00,3.065993369091302156e-04,1.568410694599151611e-01,-0.000000000000000000e+00,3.103330917656421661e-02,4.965675622224807739e-02,1.140782684087753296e-01,2.365087084399419837e-06,5.573656782507896423e-02,8.350133895874023438e-02,5.745842307806015015e-02,1.582740456797182560e-03,3.231393930036574602e-04,1.981620909646153450e-03,8.468900620937347412e-02,1.644843490794301033e-03,1.484255972172832116e-05,1.018770417431369424e-04,-0.000000000000000000e+00,1.037312249536626041e-04
-0.000000000000000000e+00,1.550967572256922722e-03,-0.000000000000000000e+00,5.446042399853467941e-03,-0.000000000000000000e+00,-0.000000000000000000e+00,-0.000000000000000000e+00,-0.000000000000000000e+00,-0.000000000000000000e+00,-0.000000000000000000e+00,4.008350369986146688e-04,1.621918529272079468e-01,-0.000000000000000000e+00,2.114900574088096619e-02,9.048402309417724609e-02,-0.000000000000000000e+00,-0.000000000000000000e+00,5.721697956323623657e-02,-0.000000000000000000e+00,2.028495873673819005e-05,2.079575060633942485e-04,2.470242232084274292e-02,4.115397855639457703e-02,5.687291920185089111e-02,7.600939273834228516e-02,-0.000000000000000000e+00,2.914652600884437561e-02,1.705971919000148773e-02,1.317466812906786799e-04,2.093419752782210708e-04,-0.000000000000000000e+00,7.166556082665920258e-03
-0.000000000000000000e+00,5.233831470832228661e-04,-0.000000000000000000e+00,3.509713569656014442e-03,-0.000000000000000000e+00,-0.000000000000000000e+00,-0.000000000000000000e+00,-0.000000000000000000e+00,-0.000000000000000000e+00,-0.000000000000000000e+00,1.766564964782446623e-04,2.133333683013916016e-01,-0.000000000000000000e+00,1.316251792013645172e-02,1.395766288042068481e-01,-0.000000000000000000e+00,-0.000000000000000000e+00,4.109709337353706360e-02,6.810867344029247761e-04,9.722167305881157517e-06,-0.000000000000000000e+00,3.394868597388267517e-02,8.696236461400985718e-02,5.344359949231147766e-02,7.710064202547073364e-02,3.409653436392545700e-03,4.472509771585464478e-02,4.525751248002052307e-02,6.107645458541810513e-05,7.141125388443470001e-03,-0.000000000000000000e+00,3.925347991753369570e-04
-0.000000000000000000e+00,2.546432660892605782e-03,-0.000000000000000000e+00,8.068494498729705811e-03,1.720301806926727295e-03,-0.000000000000000000e+00,2.679795958101749420e-03,-0.000000000000000000e+00,-0.000000000000000000e+00,-0.000000000000000000e+00,-0.000000000000000000e+00,2.000924944877624512e-01,-0.000000000000000000e+00,1.592873223125934601e-02,1.416054666042327881e-01,-0.000000000000000000e+00,-0.000000000000000000e+00,3.786073625087738037e-02,1.149402372539043427e-02,-0.000000000000000000e+00,-0.000000000000000000e+00,4.342527687549591064e-02,8.798660337924957275e-02,6.514190137386322021e-02,4.631913080811500549e-02,1.995566673576831818e-02,3.089497052133083344e-02,2.862642146646976471e-02,-0.000000000000000000e+00,2.337973099201917648e-03,-0.000000000000000000e+00,-0.000000000000000000e+00
4.310491029173135757e-03,9.530522511340677738e-04,-0.000000000000000000e+00,6.466075312346220016e-03,2.660919912159442902e-02,-0.000000000000000000e+00,5.438728723675012589e-03,6.511761806905269623e-03,-0.000000000000000000e+00,-0.000000000000000000e+00,2.499575748515781015e-05,1.353351026773452759e-01,-0.000000000000000000e+00,1.683507114648818970e-02,1.088305264711380005e-01,-0.000000000000000000e+00,-0.000000000000000000e+00,2.933748811483383179e-02,3.738858923316001892e-02,2.023942033702041954e-05,-0.000000000000000000e+00,7.931683957576751709e-02,8.068098127841949463e-02,8.074999600648880005e-02,2.841110108420252800e-03,3.764929994940757751e-02,3.617763146758079529e-02,3.402350097894668579e-02,-0.000000000000000000e+00,6.833136081695556641e-03,-0.000000000000000000e+00,1.293903478654101491e-04
1.936056861495671910e-07,1.223050523549318314e-02,-0.000000000000000000e+00,8.619761094450950623e-03,5.878094956278800964e-02,-0.000000000000000000e+00,2.101567201316356659e-02,7.639785762876272202e-03,-0.000000000000000000e+00,-0.000000000000000000e+00,7.228279173432383686e-06,1.788006275892257690e-01,-0.000000000000000000e+00,1.912443526089191437e-02,1.593394279479980469e-01,-0.000000000000000000e+00,-0.000000000000000000e+00,2.433441020548343658e-02,7.789224386215209961e-02,-0.000000000000000000e+00,-0.000000000000000000e+00,1.259174644947052002e-01,1.297914385795593262e-01,1.249326616525650024e-01,1.358176450594328344e-05,3.964730352163314819e-02,3.952805325388908386e-02,7.142716646194458008e-02,-0.000000000000000000e+00,8.928715251386165619e-03,-0.000000000000000000e+00,1.012473694572690874e-05
9.702836978249251842e-04,1.351682562381029129e-02,-0.000000000000000000e+00,5.129484459757804871e-03,3.389273956418037415e-02,-0.000000000000000000e+00,6.533585023134946823e-03,2.880466636270284653e-03,1.078242203220725060e-03,1.771178649505600333e-04,1.387910742778331041e-05,1.077004745602607727e-01,-0.000000000000000000e+00,1.379358395934104919e-02,8.866627514362335205e-02,-0.000000000000000000e+00,-0.000000000000000000e+00,1.035458873957395554e-02,4.282413050532341003e-02,-0.000000000000000000e+00,2.194945001974701881e-03,7.111719995737075806e-02,7.765278965234756470e-02,6.789405643939971924e-02,-0.000000000000000000e+00,1.119118090718984604e-02,8.246853947639465332e-03,3.648080304265022278e-02,-0.000000000000000000e+00,9.773715864866971970e-04,-0.000000000000000000e+00,-0.000000000000000000e+00
-0.000000000000000000e+00,-0.000000000000000000e+00,5.375437438488006592e-03,-0.000000000000000000e+00,-0.000000000000000000e+00,-0.000000000000000000e+00,-0.000000000000000000e+00,3.276079194620251656e-03,-0.000000000000000000e+00,-0.000000000000000000e+00,2.649113070219755173e-03,-0.000000000000000000e+00,-0.000000000000000000e+00,6.606125272810459137e-03,-0.000000000000000000e+00,-0.000000000000000000e+00,-0.000000000000000000e+00,4.101910628378391266e-03,-0.000000000000000000e+00,1.489377347752451897e-03,-0.000000000000000000e+00,5.575966089963912964e-03,1.473120879381895065e-03,-0.000000000000000000e+00,1.246785162948071957e-03,2.076080068945884705e-03,2.663944847881793976e-03,-0.000000000000000000e+00,7.609223015606403351e-03,-0.000000000000000000e+00,-0.000000000000000000e+00,2.789955586194992065e-03
-0.000000000000000000e+00,-0.000000000000000000e+00,-0.000000000000000000e+00,2.737656701356172562e-03,3.190849965903908014e-04,6.341874599456787109e-03,-0.000000000000000000e+00,6.176020950078964233e-03,3.685575211420655251e-03,5.946585442870855331e-03,-0.000000000000000000e+00,5.235912743955850601e-03,-0.000000000000000000e+00,-0.000000000000000000e+00,-0.000000000000000000e+00,-0.000000000000000000e+00,-0.000000000000000000e+00,-0.000000000000000000e+00,-0.000000000000000000e+00,-0.000000000000000000e+00,-0.000000000000000000e+00,-0.000000000000000000e+00,4.971550777554512024e-03,6.791105959564447403e-03,-0.000000000000000000e+00,2.033561002463102341e-03,-0.000000000000000000e+00,6.816626992076635361e-03,-0.000000000000000000e+00,-0.000000000000000000e+00,-0.000000000000000000e+00,6.822798750363290310e-04
-0.000000000000000000e+00,-0.000000000000000000e+00,3.579438431188464165e-03,2.557468600571155548e-03,-0.000000000000000000e+00,3.297590417787432671e-03,-0.000000000000000000e+00,-0.000000000000000000e+00,4.159388132393360138e-03,2.653558272868394852e-03,5.512744188308715820e-03,2.892923541367053986e-03,3.678241046145558357e-03,4.049163311719894409e-03,4.030752461403608322e-03,-0.000000000000000000e+00,3.785602282732725143e-03,2.789118327200412750e-03,-0.000000000000000000e+00,-0.000000000000000000e+00,1.810934278182685375e-03,3.874397836625576019e-03,-0.000000000000000000e+00,-0.000000000000000000e+00,2.016994170844554901e-03,-0.000000000000000000e+00,-0.000000000000000000e+00,-0.000000000000000000e+00,-0.000000000000000000e+00,-0.000000000000000000e+00,2.683276077732443810e-03,7.141775917261838913e-03
-0.000000000000000000e+00,3.255308838561177254e-03,-0.000000000000000000e+00,1.336991088464856148e-03,2.087407745420932770e-03,-0.000000000000000000e+00,-0.000000000000000000e+00,7.017880678176879883e-03,-0.000000000000000000e+00,6.666657514870166779e-03,-0.000000000000000000e+00,1.153741497546434402e-03,9.140417678281664848e-04,5.064388737082481384e-03,-0.000000000000000000e+00,-0.000000000000000000e+00,6.172775756567716599e-03,2.475364366546273232e-03,-0.000000000000000000e+00,4.343069624155759811e-03,7.543308660387992859e-03,4.210675600916147232e-03,-0.000000000000000000e+00,3.782802494242787361e-03,1.304136239923536777e-03,-0.000000000000000000e+00,-0.000000000000000000e+00,3.624335862696170807e-03,-0.000000000000000000e+00,-0.000000000000000000e+00,-0.000000000000000000e+00,-0.000000000000000000e+00
-0.000000000000000000e+00,-0.000000000000000000e+00,-0.000000000000000000e+00,8.344192756339907646e-04,-0.000000000000000000e+00,3.242001170292496681e-03,-0.000000000000000000e+00,1.512105460278689861e-03,-0.000000000000000000e+00,-0.000000000000000000e+00,-0.000000000000000000e+00,-0.000000000000000000e+00,-0.000000000000000000e+00,1.711594988591969013e-03,4.982484970241785049e-03,1.460110535845160484e-03,-0.000000000000000000e+00,-0.000000000000000000e+00,1.801109523512423038e-03,-0.000000000000000000e+00,-0.000000000000000000e+00,4.766927566379308701e-03,7.682084571570158005e-03,7.770671974867582321e-03,-0.000000000000000000e+00,1.564013771712779999e-03,2.174205379560589790e-03,4.317466635257005692e-03,2.308876020833849907e-03,3.646911587566137314e-03,1.067448174580931664e-03,-0.000000000000000000e+00
-0.000000000000000000e+00,4.757337737828493118e-03,1.864936639321967959e-04,-0.000000000000000000e+00,-0.000000000000000000e+00,-0.000000000000000000e+00,7.272307295352220535e-03,9.438483393751084805e-04,-0.000000000000000000e+00,5.067544989287853241e-04,-0.000000000000000000e+00,-0.000000000000000000e+00,-0.000000000000000000e+00,-0.000000000000000000e+00,-0.000000000000000000e+00,6.040459848009049892e-04,-0.000000000000000000e+00,2.498344052582979202e-03,-0.000000000000000000e+00,-0.000000000000000000e+00,-0.000000000000000000e+00,-0.000000000000000000e+00,2.162153134122490883e-03,6.128160282969474792e-03,-0.000000000000000000e+00,4.247535485774278641e-03,5.876204464584589005e-03,6.138797383755445480e-03,-0.000000000000000000e+00,5.904562771320343018e-03,7.366368081420660019e-03,1.805372303351759911e-03
5.715817678719758987e-03,8.091956260614097118e-04,6.011557299643754959e-03,-0.000000000000000000e+00,7.439513690769672394e-03,5.605487152934074402e-03,-0.000000000000000000e+00,4.060981329530477524e-03,2.103938022628426552e-03,-0.000000000000000000e+00,4.035410471260547638e-03,2.807305718306452036e-04,-0.000000000000000000e+00,2.210459904745221138e-03,2.455523826938588172e-05,2.672980073839426041e-03,6.401096936315298080e-03,7.680262569920159876e-06,6.634749752265634015e-06,2.928469562903046608e-03,3.810395719483494759e-03,2.269444848934654146e-05,2.307162358192726970e-04,6.265244912356138229e-03,7.934992936498019844e-06,3.204181324690580368e-03,5.844459403306245804e-03,3.948893572669476271e-04,3.923998015409324580e-09,-0.000000000000000000e+00,-0.000000000000000000e+00,3.778393704578775214e-07
-0.000000000000000000e+00,1.851781377126826555e-07,-0.000000000000000000e+00,2.061318233609199524e-02,6.957659497857093811e-03,-0.000000000000000000e+00,2.593219839036464691e-02,1.805871538817882538e-02,2.339332737028598785e-02,-0.000000000000000000e+00,-0.000000000000000000e+00,1.335795596241950989e-02,-0.000000000000000000e+00,-0.000000000000000000e+00,2.891676872968673706e-02,-0.000000000000000000e+00,1.403302513062953949e-02,-0.000000000000000000e+00,2.883835695683956146e-02,-0.000000000000000000e+00,5.540550220757722855e-03,5.094528896734118462e-04,4.086758941411972046e-03,5.953733343631029129e-03,2.845297422027215362e-05,5.433198530226945877e-03,9.109780192375183105e-03,1.710810647637117654e-05,1.337529766942679998e-07,3.003534860908985138e-03,6.570809637196362019e-05,2.213098741776775569e-05
3.394602099433541298e-03,6.874411832541227341e-03,-0.000000000000000000e+00,5.688705481588840485e-03,1.880519675978575833e-06,-0.000000000000000000e+00,7.362941745668649673e-03,6.616633385419845581e-03,5.890286061912775040e-03,-0.000000000000000000e+00,4.685454070568084717e-03,1.450018584728240967e-02,-0.000000000000000000e+00,7.277878466993570328e-03,1.648719236254692078e-02,2.983331913128495216e-03,4.721627105027437210e-03,4.080294165760278702e-03,6.150771863758563995e-03,-0.000000000000000000e+00,6.004428956657648087e-03,8.422601968050003052e-03,3.517133393415861065e-07,6.456270348280668259e-03,3.240842779632657766e-04,2.121425466611981392e-03,3.454540157690644264e-03,2.263688884340808727e-06,-0.000000000000000000e+00,-0.000000000000000000e+00,-0.000000000000000000e+00,3.429612115724012256e-05
1.334886405857105274e-06,5.155958933755755424e-04,-0.000000000000000000e+00,5.517323967069387436e-03,1.637982553802430630e-03,7.136178901419043541e-04,7.463587098754942417e-05,-0.000000000000000000e+00,1.892770524136722088e-04,8.180440636351704597e-05,5.001476965844631195e-03,1.485026441514492035e-02,3.153988160192966461e-03,8.178265998139977455e-04,8.875763975083827972e-03,-0.000000000000000000e+00,1.180872786790132523e-03,1.959231216460466385e-03,9.915513917803764343e-03,-0.000000000000000000e+00,4.462266340851783752e-03,1.187187153846025467e-02,7.637063972651958466e-03,1.040198467671871185e-02,5.683315917849540710e-03,7.194082252681255341e-03,5.067822989076375961e-03,9.241056628525257111e-03,-0.000000000000000000e+00,7.541352417320013046e-03,2.902051201090216637e-04,1.501822498539695516e-05
1.016568148770602420e-05,2.249363437294960022e-02,-0.000000000000000000e+00,1.201667885197821306e-07,4.007450491189956665e-02,-0.000000000000000000e+00,-0.000000000000000000e+00,-0.000000000000000000e+00,-0.000000000000000000e+00,3.657329070847481489e-04,1.092651245926390402e-06,1.935952603816986084e-01,-0.000000000000000000e+00,2.649726159870624542e-02,1.314256638288497925e-01,-0.000000000000000000e+00,-0.000000000000000000e+00,2.464816905558109283e-02,3.460588678717613220e-02,4.723244273918680847e-06,2.771515239530231156e-09,1.039637103676795959e-01,1.286705285310745239e-01,9.936063736677169800e-02,2.024272643029689789e-02,4.196922481060028076e-02,2.218609116971492767e-02,6.658606231212615967e-02,1.633704778214450926e-05,1.086283475160598755e-02,-0.000000000000000000e+00,1.402155903633683920e-04
-0.000000000000000000e+00,8.446124196052551270e-02,-0.000000000000000000e+00,2.854501071851700544e-04,9.781533479690551758e-02,-0.000000000000000000e+00,1.957691647112369537e-02,5.413251928985118866e-03,-0.000000000000000000e+00,-0.000000000000000000e+00,-0.000000000000000000e+00,4.389565289020538330e-01,-0.000000000000000000e+00,4.934386536478996277e-02,3.483524620532989502e-01,-0.000000000000000000e+00,4.137230105698108673e-03,8.645735681056976318e-02,1.370711326599121094e-01,-0.000000000000000000e+00,1.132349204272031784e-02,2.396494150161743164e-01,2.737216651439666748e-01,2.493918389081954956e-01,6.805760203860700130e-04,1.048178151249885559e-01,4.166835173964500427e-02,1.407734900712966919e-01,1.121144850912969559e-05,2.618524804711341858e-02,-0.000000000000000000e+00,2.403774706181138754e-04
-0.000000000000000000e+00,6.951941549777984619e-02,-0.000000000000000000e+00,1.722343498840928078e-03,1.340668350458145142e-01,-0.000000000000000000e+00,2.210153825581073761e-02,2.383940620347857475e-03,-0.000000000000000000e+00,6.633544689975678921e-04,-0.000000000000000000e+00,5.089430212974548340e-01,-0.000000000000000000e+00,5.053528770804405212e-02,3.667333126068115234e-01,-0.000000000000000000e+00,3.650750441011041403e-04,6.339415162801742554e-02,1.776856034994125366e-01,6.463442048243450699e-08,8.990053087472915649e-03,2.747223675251007080e-01,3.859506547451019287e-01,2.422354668378829956e-01,1.254233717918395996e-02,8.068014681339263916e-02,5.073796585202217102e-02,1.642328798770904541e-01,1.020420895656570792e-04,1.288356184959411621e-01,-0.000000000000000000e+00,2.111897571012377739e-03
3.772929543629288673e-03,1.429294818080961704e-03,-0.000000000000000000e+00,3.181896754540503025e-04,2.033134698867797852e-01,-0.000000000000000000e+00,3.804294764995574951e-02,5.266351159662008286e-03,5.986620113253593445e-02,1.224620789289474487e-01,9.075475099962204695e-05,4.328435063362121582e-01,-0.000000000000000000e+00,4.362383042462170124e-04,1.915658414363861084e-01,2.992630761582404375e-04,6.157875992357730865e-03,2.942117676138877869e-02,2.380807548761367798e-01,2.793474038753629429e-07,1.281280256807804108e-02,2.301939129829406738e-01,5.150814056396484375e-01,7.074968516826629639e-02,4.260625690221786499e-03,1.013363972306251526e-01,7.040354609489440918e-02,2.540142834186553955e-01,2.473661443218588829e-04,2.610512077808380127e-01,-0.000000000000000000e+00,3.279177937656641006e-03
8.144004270434379578e-03,1.853419234976172447e-06,3.034021756320726126e-05,1.871327549451962113e-04,1.755449771881103516e-01,3.933938569389283657e-04,2.714590169489383698e-02,6.498300936073064804e-04,1.553246402181684971e-03,9.446833282709121704e-02,2.044634660705924034e-03,7.802990078926086426e-01,-0.000000000000000000e+00,2.110213739797472954e-03,3.572331368923187256e-01,2.794844796881079674e-03,1.931485719978809357e-02,8.974439650774002075e-02,2.685351073741912842e-01,7.451100714206404518e-08,7.424771040678024292e-02,3.359682857990264893e-01,6.422716379165649414e-01,2.575157582759857178e-01,4.621592164039611816e-02,2.217651903629302979e-01,8.975419402122497559e-02,3.613222837448120117e-01,4.652656207326799631e-05,2.166990488767623901e-01,-0.000000000000000000e+00,2.233327832072973251e-03
1.851836033165454865e-02,3.298714989796280861e-03,-0.000000000000000000e+00,6.916483398526906967e-03,1.434521228075027466e-01,9.159766486845910549e-04,3.815820964518934488e-04,5.104526504874229431e-02,8.546410244889557362e-04,1.389966309070587158e-01,2.569813048467040062e-03,8.802000880241394043e-01,5.031955661252140999e-04,2.885821741074323654e-03,3.272808194160461426e-01,1.799438963644206524e-03,1.247703582048416138e-01,1.020088493824005127e-01,2.356220781803131104e-01,3.985772991654812358e-07,1.980391591787338257e-01,4.066027104854583740e-01,6.582261919975280762e-01,2.669813930988311768e-01,1.186091080307960510e-01,1.549645513296127319e-01,4.891248419880867004e-02,3.475648164749145508e-01,1.281293748434109148e-06,3.599703777581453323e-03,-0.000000000000000000e+00,8.148705092025920749e-06
6.334949284791946411e-02,8.877466316334903240e-04,-0.000000000000000000e+00,3.250427776947617531e-03,1.215643659234046936e-01,2.037806622684001923e-02,2.099638368235900998e-04,1.400878429412841797e-01,5.107595119625329971e-03,2.022518962621688843e-01,5.086052697151899338e-04,8.609496951103210449e-01,4.357361700385808945e-03,1.407025032676756382e-03,1.580727696418762207e-01,-0.000000000000000000e+00,4.949345886707305908e-01,7.697948813438415527e-02,1.762425899505615234e-01,-0.000000000000000000e+00,4.072133898735046387e-01,4.365079700946807861e-01,7.229385375976562500e-01,2.511378824710845947e-01,7.270225137472152710e-02,2.096437811851501465e-01,6.262465566396713257e-02,4.971388280391693115e-01,2.366645075380802155e-02,6.778220646083354950e-03,-0.000000000000000000e+00,2.125629180227406323e-06
3.464095294475555420e-02,2.250278135761618614e-03,1.853929948993027210e-03,-0.000000000000000000e+00,1.253777649253606796e-02,1.250237524509429932e-01,4.105261992663145065e-03,3.436571955680847168e-01,1.170025579631328583e-02,1.724233478307723999e-02,-0.000000000000000000e+00,7.087784409523010254e-01,3.943215683102607727e-02,4.977086791768670082e-04,8.815801143646240234e-02,-0.000000000000000000e+00,7.557327151298522949e-01,3.233811876270920038e-04,2.055489830672740936e-02,-0.000000000000000000e+00,5.454159379005432129e-01,3.354538083076477051e-01,5.226069688796997070e-01,2.327591031789779663e-01,1.915128380060195923e-01,3.937138244509696960e-02,1.626203954219818115e-02,5.938258767127990723e-01,1.851883977651596069e-01,1.297656819224357605e-02,-0.000000000000000000e+00,6.584152579307556152e-04
1.692366786301136017e-03,1.826029736548662186e-03,3.993567544966936111e-03,3.117193773505277932e-05,1.258305553346872330e-02,2.290738001465797424e-02,1.167707145214080811e-03,2.873595058917999268e-01,7.222569547593593597e-03,1.377642061561346054e-02,1.980486959218978882e-01,8.449707627296447754e-01,5.772545933723449707e-02,4.408233508002012968e-04,1.484298408031463623e-01,-0.000000000000000000e+00,7.310941219329833984e-01,5.057068192400038242e-04,1.652595400810241699e-02,-0.000000000000000000e+00,4.844654500484466553e-01,2.394782453775405884e-01,4.810993373394012451e-01,3.176794350147247314e-01,3.792102038860321045e-01,-0.000000000000000000e+00,5.270106252282857895e-03,6.174702644348144531e-01,4.122148752212524414e-01,8.058237843215465546e-03,4.386939690448343754e-04,2.576823113486170769e-03
8.052168413996696472e-04,1.321758143603801727e-03,7.271626032888889313e-03,2.822316600941121578e-04,1.351814437657594681e-02,2.022790014743804932e-01,1.070077414624392986e-03,3.484512865543365479e-01,4.246950149536132812e-03,7.875881157815456390e-03,1.708379983901977539e-01,5.913783907890319824e-01,9.288792312145233154e-02,5.238134763203561306e-04,1.106293406337499619e-02,3.767537418752908707e-03,4.290972948074340820e-01,3.322359872981905937e-03,1.191864814609289169e-02,1.787596265785396099e-03,4.324104785919189453e-01,2.724128365516662598e-01,4.679097533226013184e-01,1.247633621096611023e-01,2.904578149318695068e-01,-0.000000000000000000e+00,2.553085237741470337e-02,7.554698586463928223e-01,5.602242946624755859e-01,5.145533941686153412e-03,3.551285248249769211e-03,7.848627865314483643e-03
2.873779158107936382e-05,3.737654071301221848e-03,5.372369196265935898e-03,1.157479477114975452e-03,2.005490958690643311e-01,1.642686724662780762e-01,6.258853245526552200e-04,3.025641441345214844e-01,3.566659754142165184e-03,8.780510164797306061e-03,1.804799889214336872e-03,6.930496692657470703e-01,2.889092825353145599e-02,2.400743076577782631e-03,2.032845318317413330e-01,2.970154862850904465e-03,2.340347021818161011e-01,7.660326547920703888e-03,2.145465016365051270e-01,5.765903741121292114e-03,4.196816980838775635e-01,3.665037155151367188e-01,5.513212084770202637e-01,4.498355835676193237e-02,6.059391051530838013e-02,-0.000000000000000000e+00,9.306850284337997437e-02,6.812853217124938965e-01,6.549946665763854980e-01,2.850159537047147751e-03,1.376925734803080559e-03,7.328271865844726562e-03
-0.000000000000000000e+00,3.378351917490363121e-03,3.651479491963982582e-03,1.152197131887078285e-03,3.268848955631256104e-01,1.300160679966211319e-02,-0.000000000000000000e+00,2.049532383680343628e-01,2.856745384633541107e-03,7.338469731621444225e-05,1.905606477521359921e-03,5.901163220405578613e-01,5.754258111119270325e-02,5.357295740395784378e-03,2.820040285587310791e-01,1.825999701395630836e-03,8.006367087364196777e-02,3.989377617835998535e-02,1.471790671348571777e-01,6.472899019718170166e-02,6.235769763588905334e-02,1.098354533314704895e-01,4.200790822505950928e-01,2.436858788132667542e-02,2.587013840675354004e-01,-0.000000000000000000e+00,2.966608665883541107e-02,3.292551636695861816e-01,3.597140014171600342e-01,9.156253188848495483e-03,8.985413238406181335e-03,1.325005572289228439e-02
-0.000000000000000000e+00,2.815118758007884026e-03,-0.000000000000000000e+00,2.166395634412765503e-02,4.241318106651306152e-01,8.433600515127182007e-02,7.723981980234384537e-04,9.425441175699234009e-02,3.684936789795756340e-03,-0.000000000000000000e+00,2.553830621764063835e-03,6.195777058601379395e-01,1.513398628638640275e-09,2.836696617305278778e-02,4.328328073024749756e-01,-0.000000000000000000e+00,1.944513805210590363e-02,2.188985794782638550e-02,1.770941615104675293e-01,5.120597034692764282e-02,1.439300365746021271e-02,1.180424615740776062e-01,3.444878458976745605e-01,6.829521059989929199e-02,1.970501095056533813e-01,8.040375541895627975e-04,2.919785678386688232e-02,1.518333405256271362e-01,2.107895165681838989e-01,2.918127691373229027e-03,9.517713449895381927e-03,3.505059983581304550e-03
-0.000000000000000000e+00,7.923698285594582558e-05,-0.000000000000000000e+00,8.369709365069866180e-03,1.993454843759536743e-01,4.568699374794960022e-02,-0.000000000000000000e+00,4.992937669157981873e-03,-0.000000000000000000e+00,-0.000000000000000000e+00,1.499108620919287205e-03,7.866079807281494141e-01,9.635861031711101532e-03,1.231151632964611053e-03,6.351737380027770996e-01,-0.000000000000000000e+00,-0.000000000000000000e+00,7.733623497188091278e-03,1.646521240472793579e-01,1.530874893069267273e-02,5.979253351688385010e-02,3.031980097293853760e-01,2.101293057203292847e-01,5.975653603672981262e-02,1.841344982385635376e-01,1.036983951926231384e-01,9.456007927656173706e-02,1.209951415657997131e-01,1.330119967460632324e-01,2.383289299905300140e-02,1.079127425327897072e-03,3.700232831761240959e-03
-0.000000000000000000e+00,5.804390530101954937e-04,-0.000000000000000000e+00,9.962598793208599091e-03,7.585776597261428833e-02,4.028601106256246567e-03,-0.000000000000000000e+00,1.337704015895724297e-03,-0.000000000000000000e+00,-0.000000000000000000e+00,7.717442233115434647e-03,5.494246482849121094e-01,2.523820730857551098e-04,5.320488661527633667e-02,3.533366024494171143e-01,-0.000000000000000000e+00,-0.000000000000000000e+00,5.941253155469894409e-02,1.728594861924648285e-02,1.984579255804419518e-03,1.265774364583194256e-03,2.607746422290802002e-01,2.016056180000305176e-01,2.003849595785140991e-01,1.668873131275177002e-01,5.786576867103576660e-02,1.342735290527343750e-01,1.108271926641464233e-01,8.066508919000625610e-02,-0.000000000000000000e+00,-0.000000000000000000e+00,3.320663003250956535e-03
-0.000000000000000000e+00,3.624374512583017349e-03,2.929746115114539862e-04,1.750775240361690521e-02,1.991941593587398529e-02,1.992283621802926064e-03,-0.000000000000000000e+00,-0.000000000000000000e+00,1.183491665869951248e-03,3.095209132879972458e-03,3.664092218969017267e-04,4.754990637302398682e-01,2.144189784303307533e-03,5.208824947476387024e-02,2.414115071296691895e-01,-0.000000000000000000e+00,2.371373353525996208e-03,7.671485841274261475e-02,6.263149529695510864e-02,2.391943999100476503e-04,-0.000000000000000000e+00,2.437305599451065063e-01,2.698570489883422852e-01,1.165472716093063354e-01,1.473825126886367798e-01,4.558790847659111023e-02,1.716812402009963989e-01,1.159723028540611267e-01,2.130731195211410522e-02,3.145623207092285156e-02,-0.000000000000000000e+00,1.344228512607514858e-03
-0.000000000000000000e+00,1.747231371700763702e-02,-0.000000000000000000e+00,1.125251688063144684e-02,4.942000284790992737e-02,-0.000000000000000000e+00,-0.000000000000000000e+00,-0.000000000000000000e+00,-0.000000000000000000e+00,-0.000000000000000000e+00,1.144669804489240050e-04,4.655307531356811523e-01,1.862714416347444057e-03,4.514381662011146545e-02,3.075429201126098633e-01,-0.000000000000000000e+00,8.587626507505774498e-04,1.036732643842697144e-01,6.451934576034545898e-02,-0.000000000000000000e+00,-0.000000000000000000e+00,2.593364417552947998e-01,2.203302681446075439e-01,2.201566547155380249e-01,8.799846470355987549e-02,5.639974400401115417e-02,1.367413103580474854e-01,1.036797314882278442e-01,8.180753211490809917e-04,1.491591334342956543e-03,-0.000000000000000000e+00,2.002555876970291138e-03
-0.000000000000000000e+00,2.363269403576850891e-02,-0.000000000000000000e+00,3.741949563845992088e-03,5.611930042505264282e-02,-0.000000000000000000e+00,-0.000000000000000000e+00,-0.000000000000000000e+00,-0.000000000000000000e+00,1.239884924143552780e-02,9.678153437562286854e-04,2.584953606128692627e-01,-0.000000000000000000e+00,2.075702510774135590e-02,1.709182411432266235e-01,-0.000000000000000000e+00,6.017808802425861359e-03,2.340376749634742737e-02,1.003142595291137695e-01,-0.000000000000000000e+00,-0.000000000000000000e+00,1.908883005380630493e-01,1.838832348585128784e-01,1.196750551462173462e-01,3.206181572750210762e-03,5.334172397851943970e-02,8.543767035007476807e-02,9.560184180736541748e-02,-0.000000000000000000e+00,1.945232856087386608e-03,-0.000000000000000000e+00,4.352782270871102810e-04
1.423596218228340149e-02,2.966332203868660145e-06,1.793216913938522339e-02,6.190031417645514011e-04,2.280193753540515900e-02,1.619120314717292786e-02,1.402196194976568222e-02,-0.000000000000000000e+00,4.008825868368148804e-02,6.423584371805191040e-02,5.207788781262934208e-04,6.336948834359645844e-03,-0.000000000000000000e+00,1.145772752352058887e-03,9.014024399220943451e-04,-0.000000000000000000e+00,1.096072979271411896e-02,3.890032414346933365e-03,6.513642519712448120e-02,-0.000000000000000000e+00,1.571708731353282928e-02,6.342948973178863525e-02,8.410894870758056641e-02,1.887536491267383099e-03,3.028860082849860191e-03,4.693700745701789856e-02,2.367897331714630127e-02,6.459491699934005737e-02,1.206337939947843552e-02,1.245200447738170624e-02,-0.000000000000000000e+00,1.978686312213540077e-03
1.450871396809816360e-02,2.238861497971811332e-06,1.968194544315338135e-02,4.863568174187093973e-04,2.209305949509143829e-02,2.901248447597026825e-02,1.500325743108987808e-02,1.309322658926248550e-02,3.111734613776206970e-02,5.396067723631858826e-02,-0.000000000000000000e+00,1.134485955844866112e-05,-0.000000000000000000e+00,-0.000000000000000000e+00,6.926193691469961777e-06,8.147108601406216621e-04,7.734066457487642765e-04,2.380218575126491487e-06,4.397576674818992615e-02,-0.000000000000000000e+00,1.378352940082550049e-02,1.631674915552139282e-02,2.437900006771087646e-02,3.155296553813968785e-06,-0.000000000000000000e+00,3.848685324192047119e-02,2.821924397721886635e-03,2.207565307617187500e-02,2.708544209599494934e-02,4.483100783545523882e-04,-0.000000000000000000e+00,-0.000000000000000000e+00
1.082979375496506691e-03,-0.000000000000000000e+00,-0.000000000000000000e+00,-0.000000000000000000e+00,-0.000000000000000000e+00,-0.000000000000000000e+00,7.342132739722728729e-03,5.992812220938503742e-04,9.534927085041999817e-04,6.562430877238512039e-03,-0.000000000000000000e+00,4.898025654256343842e-03,4.236178938299417496e-03,6.364746484905481339e-03,3.666574368253350258e-03,3.853971837088465691e-03,-0.000000000000000000e+00,3.377181477844715118e-03,5.133310798555612564e-03,6.472840905189514160e-03,4.938363563269376755e-03,-0.000000000000000000e+00,-0.000000000000000000e+00,7.775387261062860489e-03,3.642215626314282417e-03,-0.000000000000000000e+00,3.981677349656820297e-03,7.374374195933341980e-03,1.241478137671947479e-03,6.696685217320919037e-03,-0.000000000000000000e+00,6.330841686576604843e-03
6.072039250284433365e-03,7.011092267930507660e-03,-0.000000000000000000e+00,-0.000000000000000000e+00,1.302880933508276939e-03,4.196099471300840378e-03,6.603681016713380814e-03,5.673227831721305847e-03,-0.000000000000000000e+00,6.082077976316213608e-03,-0.000000000000000000e+00,-0.000000000000000000e+00,4.406797233968973160e-03,2.924211090430617332e-03,3.711571451276540756e-03,5.051434971392154694e-03,-0.000000000000000000e+00,3.293014131486415863e-03,6.229761522263288498e-03,-0.000000000000000000e+00,3.173985518515110016e-03,5.040776450186967850e-04,-0.000000000000000000e+00,-0.000000000000000000e+00,6.941772997379302979e-03,-0.000000000000000000e+00,-0.000000000000000000e+00,1.270156935788691044e-04,6.444449536502361298e-03,7.301045116037130356e-03,7.401731330901384354e-03,3.289023181423544884e-03
-0.000000000000000000e+00,4.506173077970743179e-03,5.844981409609317780e-03,-0.000000000000000000e+00,-0.000000000000000000e+00,6.628873525187373161e-04,-0.000000000000000000e+00,-0.000000000000000000e+00,2.427517465548589826e-04,-0.000000000000000000e+00,8.196549606509506702e-04,5.468120332807302475e-03,-0.000000000000000000e+00,-0.000000000000000000e+00,5.056437570601701736e-03,-0.000000000000000000e+00,6.161515600979328156e-03,-0.000000000000000000e+00,6.315681617707014084e-03,2.943640109151601791e-03,5.456975195556879044e-03,5.721734371036291122e-03,6.056969985365867615e-03,-0.000000000000000000e+00,-0.000000000000000000e+00,6.721582030877470970e-04,2.966541564092040062e-03,-0.000000000000000000e+00,9.302417165599763393e-04,-0.000000000000000000e+00,-0.000000000000000000e+00,-0.000000000000000000e+00
-0.000000000000000000e+00,7.585759740322828293e-03,-0.000000000000000000e+00,4.098338540643453598e-03,6.164817605167627335e-03,-0.000000000000000000e+00,5.817806348204612732e-03,-0.000000000000000000e+00,-0.000000000000000000e+00,1.488225534558296204e-03,-0.000000000000000000e+00,-0.000000000000000000e+00,6.508169230073690414e-03,-0.000000000000000000e+00,5.801131483167409897e-03,5.528779234737157822e-03,2.717924304306507111e-03,5.159977357834577560e-03,-0.000000000000000000e+00,2.395440125837922096e-03,-0.000000000000000000e+00,-0.000000000000000000e+00,2.365903928875923157e-03,3.201701911166310310e-04,-0.000000000000000000e+00,-0.000000000000000000e+00,-0.000000000000000000e+00,6.108029745519161224e-03,-0.000000000000000000e+00,3.218895988538861275e-03,-0.000000000000000000e+00,-0.000000000000000000e+00
1.466267975047230721e-03,-0.000000000000000000e+00,1.518838922493159771e-03,-0.000000000000000000e+00,9.910772787407040596e-04,1.207689661532640457e-02,-0.000000000000000000e+00,1.046665012836456299e-02,3.512774071623425698e-08,2.107167205167570501e-07,2.179589122533798218e-02,3.291862640253384598e-07,-0.000000000000000000e+00,1.774073694832623005e-03,-0.000000000000000000e+00,4.204159602522850037e-03,5.756497848778963089e-03,1.419212730979779735e-05,3.156496575229539303e-07,-0.000000000000000000e+00,1.739892363548278809e-02,8.730771020054817200e-03,2.880022123008529888e-07,9.413576684892177582e-03,1.964973961321447860e-07,9.903136640787124634e-03,7.000096607953310013e-03,6.544106639921665192e-03,1.984312012791633606e-02,4.518125820140994620e-07,-0.000000000000000000e+00,1.129022297874371361e-08
-0.000000000000000000e+00,1.045790966600179672e-03,-0.000000000000000000e+00,4.250969737768173218e-02,6.644756998866796494e-03,1.624474389245733619e-04,4.897347837686538696e-02,4.422633722424507141e-02,5.155386775732040405e-02,-0.000000000000000000e+00,5.016683135181665421e-03,3.367983922362327576e-02,-0.000000000000000000e+00,-0.000000000000000000e+00,6.100066751241683960e-02,-0.000000000000000000e+00,3.175941482186317444e-02,2.160406620532739908e-05,5.266072601079940796e-02,1.696452382020652294e-04,1.745191588997840881e-02,1.080821454524993896e-02,3.493172989692538977e-04,9.562519378960132599e-03,1.587875012774020433e-04,1.646008528769016266e-02,2.157468535006046295e-02,1.573018089402467012e-04,1.381687470711767673e-04,5.828472319990396500e-03,1.773438270902261138e-04,-0.000000000000000000e+00
-0.000000000000000000e+00,2.021137066185474396e-02,-0.000000000000000000e+00,4.937507957220077515e-02,5.188543349504470825e-02,1.275386288762092590e-02,7.454116257576970384e-07,6.721795350313186646e-02,6.475906957348342985e-07,-0.000000000000000000e+00,7.191515010163129773e-07,3.263891115784645081e-02,-0.000000000000000000e+00,4.582232941174879670e-05,1.251555234193801880e-01,2.001179524313556612e-07,-0.000000000000000000e+00,9.547022171318531036e-03,2.828048728406429291e-02,1.282834820449352264e-02,-0.000000000000000000e+00,4.502288997173309326e-03,-0.000000000000000000e+00,4.452433064579963684e-02,2.321880077943205833e-03,-0.000000000000000000e+00,8.593207923013324034e-08,-0.000000000000000000e+00,7.708905730396509171e-03,5.696646124124526978e-02,4.215095192193984985e-02,4.826657532248646021e-04
1.074051707983016968e-01,5.726357176899909973e-02,-0.000000000000000000e+00,1.778763905167579651e-02,2.171577885746955872e-02,1.242995634675025940e-02,1.964468538062646985e-06,2.262700349092483521e-02,1.706636680864903610e-06,9.926214069128036499e-02,1.478109601885080338e-02,1.498670130968093872e-01,1.195531617850065231e-02,1.137025654315948486e-01,1.318205427378416061e-02,9.694658964872360229e-02,3.795776865445077419e-04,2.510797418653964996e-02,6.614249059566645883e-07,-0.000000000000000000e+00,-0.000000000000000000e+00,-0.000000000000000000e+00,5.257586389780044556e-02,1.646586209535598755e-01,5.755500867962837219e-02,6.938777118921279907e-02,2.264326042222819524e-07,-0.000000000000000000e+00,-0.000000000000000000e+00,-0.000000000000000000e+00,4.654236818169010803e-07,3.618640592321753502e-03
7.149460166692733765e-02,9.121542423963546753e-02,-0.000000000000000000e+00,2.000248245894908905e-02,9.557824581861495972e-02,3.353218780830502510e-03,1.967920070455875248e-06,4.100103862583637238e-03,1.718671796879789326e-06,9.510220587253570557e-02,2.148869633674621582e-02,2.893581390380859375e-01,1.905594393610954285e-02,1.295671463012695312e-01,1.071306094527244568e-01,4.505381919443607330e-03,3.539756289683282375e-04,4.760143905878067017e-02,5.337722226977348328e-02,-0.000000000000000000e+00,1.738364829861893668e-08,9.278313070535659790e-02,2.476669400930404663e-01,2.681837081909179688e-01,9.722391143441200256e-03,1.679673045873641968e-01,7.711708545684814453e-03,7.654464244842529297e-02,-0.000000000000000000e+00,1.174115226604044437e-03,4.654239660339953844e-07,1.993058249354362488e-03
1.070151403546333313e-01,1.333810836076736450e-01,8.154032826723778271e-08,6.330199074000120163e-03,1.642272025346755981e-01,6.319476291537284851e-03,9.023532925311883446e-07,1.808639243245124817e-02,6.041042070137336850e-06,1.660717278718948364e-01,1.238123979419469833e-02,6.419317126274108887e-01,2.340981969609856606e-03,1.346413940191268921e-01,2.727295160293579102e-01,1.885454850025780615e-07,1.519426936283707619e-03,8.623974770307540894e-02,1.634035557508468628e-01,-0.000000000000000000e+00,6.883674068376421928e-04,2.358682602643966675e-01,4.695456922054290771e-01,4.261919856071472168e-01,4.613002529367804527e-04,2.788301408290863037e-01,1.447938266210258007e-04,1.413225382566452026e-01,-0.000000000000000000e+00,1.335181146860122681e-01,1.673531215828916174e-07,-0.000000000000000000e+00
1.532465219497680664e-01,2.972551286220550537e-01,-0.000000000000000000e+00,2.001664834097027779e-03,3.582179248332977295e-01,6.306790746748447418e-03,7.591287430841475725e-05,1.799050718545913696e-01,8.181863813661038876e-04,3.220077753067016602e-01,6.707375869154930115e-03,7.911879420280456543e-01,-0.000000000000000000e+00,7.725197821855545044e-02,4.032394587993621826e-01,-0.000000000000000000e+00,4.246278200298547745e-03,1.031640022993087769e-01,4.370027482509613037e-01,1.851697959409648320e-07,2.223957516252994537e-02,4.204563200473785400e-01,6.053041219711303711e-01,5.253992676734924316e-01,2.875695936381816864e-03,2.483967840671539307e-01,7.080581784248352051e-02,1.554875075817108154e-01,9.244905641025980003e-07,4.723035395145416260e-01,-0.000000000000000000e+00,7.787259164615534246e-06
2.264973940327763557e-03,1.370272338390350342e-01,1.471657888032495975e-03,-0.000000000000000000e+00,4.387432336807250977e-01,5.211786832660436630e-03,5.220752209424972534e-02,2.006677240133285522e-01,2.333281189203262329e-02,2.575701177120208740e-01,-0.000000000000000000e+00,4.579354524612426758e-01,2.157994545996189117e-03,8.203188599509303458e-07,1.385291814804077148e-01,2.688584383577108383e-03,2.282216772437095642e-02,1.736052483320236206e-01,5.047835111618041992e-01,1.913273299578577280e-04,5.127928685396909714e-03,4.488200247287750244e-01,6.788208484649658203e-01,3.287081718444824219e-01,2.980255987495183945e-03,4.060344696044921875e-01,1.871293783187866211e-01,3.417134284973144531e-01,3.623302618507295847e-04,8.205337524414062500e-01,2.011093311011791229e-03,3.751924727112054825e-03
6.272346712648868561e-03,3.124731825664639473e-03,4.819678142666816711e-03,-0.000000000000000000e+00,3.282066285610198975e-01,1.350503508001565933e-02,6.360604893416166306e-03,1.801790744066238403e-01,6.114378571510314941e-03,3.071814775466918945e-01,-0.000000000000000000e+00,5.977782607078552246e-01,7.169397082179784775e-03,3.429070347920060158e-03,1.314684450626373291e-01,1.277859508991241455e-02,8.985049091279506683e-03,2.808579802513122559e-01,4.925678968429565430e-01,3.586877835914492607e-03,5.684421584010124207e-02,3.551375865936279297e-01,6.372476220130920410e-01,2.281150668859481812e-01,4.580950364470481873e-03,4.737237393856048584e-01,1.620133966207504272e-01,1.386214345693588257e-01,3.954410785809159279e-04,8.613182902336120605e-01,7.965882308781147003e-03,7.099654991179704666e-03
3.275733441114425659e-02,9.817983955144882202e-03,2.489222912117838860e-03,5.452984478324651718e-03,2.308957427740097046e-01,4.599522333592176437e-03,1.379392016679048538e-02,3.262673020362854004e-01,1.680534705519676208e-02,6.122179031372070312e-01,2.384336898103356361e-03,9.597170352935791016e-01,8.616659790277481079e-03,6.076904386281967163e-02,2.422954738140106201e-01,2.092151939868927002e-01,3.044377565383911133e-01,5.183050632476806641e-01,7.512992620468139648e-01,2.990040928125381470e-03,7.680062949657440186e-02,1.043039336800575256e-01,8.009758591651916504e-01,2.672216892242431641e-01,1.352234631776809692e-01,2.812888026237487793e-01,3.471738696098327637e-01,1.550520118325948715e-02,2.318573184311389923e-03,4.449033737182617188e-01,1.116659678518772125e-02,9.220002219080924988e-03
3.076643310487270355e-02,2.346403338015079498e-02,-0.000000000000000000e+00,4.618409555405378342e-03,3.913654685020446777e-01,1.523910015821456909e-01,2.040180563926696777e-02,6.265931725502014160e-01,3.296531364321708679e-02,6.916581392288208008e-01,4.703267477452754974e-03,6.205101013183593750e-01,6.585851311683654785e-03,6.381177809089422226e-03,3.624977767467498779e-01,1.272817794233560562e-02,6.739954948425292969e-01,2.164427936077117920e-01,7.602166533470153809e-01,1.787169137969613075e-03,4.245039522647857666e-01,1.438048630952835083e-01,4.566276967525482178e-01,7.465496063232421875e-01,2.688585547730326653e-03,3.519096374511718750e-01,2.017165273427963257e-01,5.267087742686271667e-02,5.481172818690538406e-03,3.211725950241088867e-01,3.888027509674429893e-03,4.718436684925109148e-06
9.389462880790233612e-03,5.326982121914625168e-03,2.219498128397390246e-05,4.564376082271337509e-03,4.020330011844635010e-01,8.243527263402938843e-02,1.851221732795238495e-02,2.797220349311828613e-01,3.141681104898452759e-02,3.567520380020141602e-01,4.184793680906295776e-03,8.699899911880493164e-01,6.023573689162731171e-03,1.311490684747695923e-02,9.759837985038757324e-01,5.264915060251951218e-03,9.062550067901611328e-01,2.200018018484115601e-01,1.007684707641601562e+00,-0.000000000000000000e+00,3.752249181270599365e-01,1.193109005689620972e-01,7.726012468338012695e-01,5.853939652442932129e-01,1.329966168850660324e-02,3.360953032970428467e-01,5.329067111015319824e-01,3.062775433063507080e-01,2.306589633226394653e-01,3.279535844922065735e-02,-0.000000000000000000e+00,1.901000156067311764e-03
5.945451557636260986e-03,3.061719005927443504e-03,7.239323895191773772e-05,2.631588838994503021e-03,2.274376451969146729e-01,3.179412707686424255e-02,1.547278277575969696e-02,1.040907502174377441e-01,2.645172178745269775e-02,5.909043550491333008e-01,1.738757640123367310e-02,7.269563078880310059e-01,1.094130147248506546e-02,1.178526133298873901e-02,7.639178633689880371e-01,4.479291383177042007e-03,1.503040432929992676e+00,2.325208857655525208e-02,7.600001692771911621e-01,3.142699832096695900e-03,4.831786267459392548e-03,1.011686120182275772e-02,4.179655313491821289e-01,2.542432844638824463e-01,1.045370381325483322e-02,3.533020019531250000e-01,2.827284932136535645e-01,2.819994837045669556e-02,2.439847588539123535e-01,2.292149513959884644e-02,5.567170213907957077e-03,2.313327975571155548e-03
1.126424642279744148e-03,1.542143989354372025e-03,1.260317512787878513e-04,1.777650439180433750e-03,4.032702445983886719e-01,2.015826851129531860e-01,1.140252500772476196e-02,1.453189551830291748e-01,1.928495615720748901e-02,2.761549949645996094e-01,1.717601865530014038e-01,5.525511503219604492e-01,4.379395022988319397e-02,1.208571158349514008e-02,8.590338826179504395e-01,-0.000000000000000000e+00,1.370486140251159668e+00,1.907617598772048950e-02,7.136272192001342773e-01,1.446501631289720535e-02,1.518992893397808075e-02,1.347429491579532623e-02,7.291236519813537598e-01,1.975016295909881592e-01,6.492573022842407227e-02,7.481017149984836578e-03,1.188051849603652954e-01,6.974290311336517334e-02,2.370791882276535034e-01,2.504897676408290863e-02,2.342695929110050201e-02,4.055405501276254654e-03
-0.000000000000000000e+00,2.043852582573890686e-03,1.276566064916551113e-03,1.811491674743592739e-03,2.158735096454620361e-01,1.398052275180816650e-01,5.439449101686477661e-03,1.802562922239303589e-01,1.953292079269886017e-02,2.352917753159999847e-02,1.624999344348907471e-01,6.008664965629577637e-01,1.234064325690269470e-01,3.719741944223642349e-03,5.720029473304748535e-01,2.765634562820196152e-04,1.272106051445007324e+00,9.072829969227313995e-03,2.816899716854095459e-01,1.516896020621061325e-02,1.157945487648248672e-02,2.092572301626205444e-02,2.608648538589477539e-01,2.394754290580749512e-01,2.142310440540313721e-01,5.292965564876794815e-03,1.367478966712951660e-01,1.175555065274238586e-01,3.065142035484313965e-01,2.248296327888965607e-02,1.632328703999519348e-02,9.864521212875843048e-03
6.016940460540354252e-04,-0.000000000000000000e+00,3.352685831487178802e-03,2.904860302805900574e-03,6.811684370040893555e-02,9.982942789793014526e-02,1.046542916446924210e-02,2.773849964141845703e-01,2.482873015105724335e-02,5.543344188481569290e-03,7.619260810315608978e-03,4.435919225215911865e-01,3.707002848386764526e-03,2.685932675376534462e-03,2.922863066196441650e-01,3.190279239788651466e-03,1.119057416915893555e+00,8.593426086008548737e-03,1.338657140731811523e-01,1.635016500949859619e-02,9.796632081270217896e-02,2.211862802505493164e-02,2.248967736959457397e-01,2.751916274428367615e-02,8.353942632675170898e-02,4.928555805236101151e-03,2.317935526371002197e-01,2.322823368012905121e-02,1.985493302345275879e-01,3.014463372528553009e-02,2.050011977553367615e-02,6.356147117912769318e-03
3.725047921761870384e-03,1.285245642066001892e-03,4.984399769455194473e-03,5.407924298197031021e-03,5.138980746269226074e-01,2.826315462589263916e-01,-0.000000000000000000e+00,2.587576806545257568e-01,-0.000000000000000000e+00,9.693910367786884308e-03,1.128809619694948196e-02,6.225033998489379883e-01,9.191907197237014771e-02,2.007114738225936890e-01,7.083664536476135254e-01,3.067269222810864449e-03,5.659306049346923828e-01,6.545305252075195312e-03,1.457960810512304306e-02,1.131945699453353882e-01,-0.000000000000000000e+00,4.130909219384193420e-03,4.562028944492340088e-01,2.267620116472244263e-01,2.051757425069808960e-01,4.885405767709016800e-03,7.459969818592071533e-02,1.176815293729305267e-02,1.292391568422317505e-01,2.315551228821277618e-02,2.566418051719665527e-02,1.578313112258911133e-02
5.651457235217094421e-03,1.060396432876586914e-03,5.347908940166234970e-03,4.563095048069953918e-03,2.318604886531829834e-01,2.364789545536041260e-01,-0.000000000000000000e+00,3.273571729660034180e-01,-0.000000000000000000e+00,1.140129938721656799e-02,6.149336695671081543e-03,7.631899118423461914e-01,3.917379379272460938e-01,3.737326338887214661e-02,5.745799541473388672e-01,3.697995096445083618e-03,4.380666315555572510e-01,3.662261646240949631e-03,1.221677195280790329e-02,8.751659095287322998e-02,-0.000000000000000000e+00,3.858237061649560928e-03,2.962120771408081055e-01,4.477725550532341003e-02,7.583740949630737305e-01,1.367174834012985229e-02,6.649039220064878464e-03,1.116700842976570129e-01,1.459254771471023560e-01,3.711115419864654541e-01,1.421180926263332367e-02,1.721201650798320770e-02
4.360918421298265457e-03,1.137954881414771080e-03,6.525102537125349045e-03,5.855661816895008087e-03,1.811012774705886841e-01,1.708067506551742554e-01,-0.000000000000000000e+00,4.385434985160827637e-01,-0.000000000000000000e+00,2.049276381731033325e-01,2.419312950223684311e-03,7.104885578155517578e-01,2.361307591199874878e-01,8.080878108739852905e-02,4.948250353336334229e-01,1.094244644045829773e-01,5.216672420501708984e-01,7.055884227156639099e-03,4.106267541646957397e-02,1.965190097689628601e-02,-0.000000000000000000e+00,1.814154442399740219e-03,8.963233232498168945e-02,3.808461427688598633e-01,3.131576478481292725e-01,8.234529942274093628e-02,9.674342349171638489e-03,4.419385921210050583e-03,1.558258235454559326e-01,6.701799035072326660e-01,1.226584799587726593e-02,1.305211335420608521e-02
2.988609485328197479e-03,-0.000000000000000000e+00,9.581240010447800159e-04,5.117878317832946777e-02,4.510797858238220215e-01,1.796536743640899658e-01,4.872774752584518865e-07,2.434283643960952759e-01,4.611708573065698147e-05,3.906887024641036987e-03,8.148301276378333569e-04,5.926963686943054199e-01,5.941709503531455994e-03,1.097065806388854980e-01,7.274119853973388672e-01,1.102657872252166271e-03,6.165889091789722443e-03,2.274384163320064545e-02,1.409746333956718445e-02,1.193758025765419006e-01,3.112461854470893741e-05,1.098197768442332745e-03,2.966572344303131104e-01,2.382551431655883789e-01,3.257535398006439209e-01,1.649352372623980045e-03,4.853115230798721313e-02,2.903047762811183929e-02,1.852508932352066040e-01,5.768183469772338867e-01,1.659532822668552399e-02,4.949036519974470139e-03
4.710356879513710737e-04,3.014948917552828789e-03,9.093105472857132554e-05,4.005331546068191528e-02,2.163306325674057007e-01,9.350528009235858917e-03,-0.000000000000000000e+00,1.301367674022912979e-02,-0.000000000000000000e+00,3.113951301202178001e-03,4.795302520506083965e-04,4.010192453861236572e-01,-0.000000000000000000e+00,7.468477636575698853e-02,4.796254336833953857e-01,-0.000000000000000000e+00,2.887713490054011345e-03,2.191673517227172852e-01,1.102514285594224930e-02,3.069528341293334961e-01,-0.000000000000000000e+00,1.103668194264173508e-02,3.408108949661254883e-01,9.160214662551879883e-02,3.223112821578979492e-01,2.612045966088771820e-03,1.766759753227233887e-01,8.548741042613983154e-02,5.115751177072525024e-02,3.406071066856384277e-01,1.386550907045602798e-02,1.334652211517095566e-02
-0.000000000000000000e+00,5.443607922643423080e-03,1.043382566422224045e-03,1.576475426554679871e-02,1.029591541737318039e-02,7.493205834180116653e-03,-0.000000000000000000e+00,1.184897962957620621e-02,-0.000000000000000000e+00,3.429080592468380928e-03,1.415880979038774967e-03,4.531700909137725830e-01,-0.000000000000000000e+00,8.063383400440216064e-02,3.684865236282348633e-01,7.336817798204720020e-04,-0.000000000000000000e+00,3.421764969825744629e-01,9.980694390833377838e-03,1.045325770974159241e-01,-0.000000000000000000e+00,9.484641253948211670e-03,3.027218282222747803e-01,2.198860496282577515e-01,2.967314720153808594e-01,4.973769653588533401e-03,2.635719478130340576e-01,9.296956658363342285e-02,2.111965045332908630e-02,1.550958864390850067e-02,9.836261160671710968e-03,4.420481249690055847e-02
1.339240185416201712e-08,5.431538820266723633e-02,1.723813911667093635e-04,7.554153446108102798e-03,4.797865450382232666e-02,9.150141850113868713e-03,-0.000000000000000000e+00,3.939383476972579956e-02,-0.000000000000000000e+00,3.042573109269142151e-03,1.210113638080656528e-03,8.398071676492691040e-02,1.123672177527623717e-07,5.982527000014670193e-06,2.317772656679153442e-01,2.394006344275112497e-07,-0.000000000000000000e+00,7.925830781459808350e-02,1.054376512765884399e-01,7.097526453435420990e-03,-0.000000000000000000e+00,3.834183095023036003e-03,8.145142346620559692e-02,1.043594256043434143e-02,6.006401777267456055e-02,3.929549455642700195e-02,5.391561985015869141e-02,3.333664685487747192e-02,5.019016563892364502e-02,2.881820201873779297e-01,9.258606471121311188e-03,3.675831016153097153e-03
7.719258428551256657e-05,2.605213921924587339e-06,7.682517636567354202e-03,5.773704871535301208e-02,7.606148719787597656e-02,5.348288267850875854e-02,-0.000000000000000000e+00,2.714035846292972565e-02,2.700217068195343018e-02,8.488403260707855225e-02,4.647137538995593786e-04,9.107130579650402069e-03,-0.000000000000000000e+00,-0.000000000000000000e+00,3.011756576597690582e-02,-0.000000000000000000e+00,-0.000000000000000000e+00,6.964568048715591431e-03,1.142947673797607422e-01,1.997330598533153534e-02,6.916986603755503893e-05,7.252589566633105278e-04,6.421779748052358627e-03,2.750580606516450644e-04,5.348029546439647675e-03,5.654731392860412598e-02,4.201018717139959335e-03,5.035651382058858871e-03,7.373979687690734863e-02,7.751043140888214111e-02,2.933838963508605957e-02,3.469948656857013702e-03
-0.000000000000000000e+00,5.340112373232841492e-03,1.486479159211739898e-04,1.186001114547252655e-02,4.184823483228683472e-03,-0.000000000000000000e+00,-0.000000000000000000e+00,1.636035158298909664e-03,-0.000000000000000000e+00,8.412931114435195923e-03,1.054165652021765709e-03,4.666046425700187683e-02,-0.000000000000000000e+00,-0.000000000000000000e+00,6.153208762407302856e-02,-0.000000000000000000e+00,-0.000000000000000000e+00,4.907023161649703979e-02,3.496749326586723328e-02,-0.000000000000000000e+00,-0.000000000000000000e+00,1.582174375653266907e-02,2.633217722177505493e-02,-0.000000000000000000e+00,5.213212594389915466e-02,3.578322473913431168e-03,9.400213137269020081e-03,1.417453121393918991e-02,7.011516951024532318e-03,3.871148452162742615e-02,-0.000000000000000000e+00,2.132987044751644135e-02
5.410635378211736679e-03,1.468003029003739357e-03,-0.000000000000000000e+00,-0.000000000000000000e+00,-0.000000000000000000e+00,6.444355007261037827e-03,7.726708892732858658e-03,-0.000000000000000000e+00,2.113429596647620201e-03,-0.000000000000000000e+00,-0.000000000000000000e+00,-0.000000000000000000e+00,-0.000000000000000000e+00,6.334300618618726730e-03,-0.000000000000000000e+00,3.533274633809924126e-03,5.286129657179117203e-03,-0.000000000000000000e+00,-0.000000000000000000e+00,-0.000000000000000000e+00,5.802626255899667740e-03,3.762608161196112633e-03,3.117606975138187408e-03,-0.000000000000000000e+00,2.088531153276562691e-03,-0.000000000000000000e+00,-0.000000000000000000e+00,2.491864608600735664e-03,-0.000000000000000000e+00,-0.000000000000000000e+00,-0.000000000000000000e+00,4.049872513860464096e-03
8.161089499481022358e-04,-0.000000000000000000e+00,-0.000000000000000000e+00,-0.000000000000000000e+00,-0.000000000000000000e+00,-0.000000000000000000e+00,-0.000000000000000000e+00,7.186194416135549545e-03,-0.000000000000000000e+00,-0.000000000000000000e+00,4.691247595474123955e-04,-0.000000000000000000e+00,3.579743206501007080e-03,-0.000000000000000000e+00,3.523287596181035042e-03,2.318373182788491249e-03,-0.000000000000000000e+00,1.976401777938008308e-03,1.266749226488173008e-03,5.759487859904766083e-03,-0.000000000000000000e+00,-0.000000000000000000e+00,6.706269457936286926e-03,-0.000000000000000000e+00,-0.000000000000000000e+00,5.406846757978200912e-03,-0.000000000000000000e+00,-0.000000000000000000e+00,-0.000000000000000000e+00,-0.000000000000000000e+00,-0.000000000000000000e+00,-0.000000000000000000e+00
2.534383675083518028e-04,8.983733096101786941e-06,6.055062171071767807e-03,4.971771966665983200e-03,2.992632062159827910e-07,2.397230673523154110e-06,-0.000000000000000000e+00,1.111361385142117797e-07,-0.000000000000000000e+00,4.844623152166604996e-03,7.350299507379531860e-03,1.770967355696484447e-04,4.233829211443662643e-03,1.003456691250903532e-05,6.524857133626937866e-03,4.346580681158229709e-05,4.870298784226179123e-03,-0.000000000000000000e+00,-0.000000000000000000e+00,1.742200809530913830e-03,2.244655661343131214e-07,2.500616246834397316e-03,2.576476428657770157e-03,4.631294868886470795e-03,1.502123581076375558e-07,3.788519417867064476e-03,-0.000000000000000000e+00,3.182047978043556213e-03,2.867399714887142181e-03,4.673156887292861938e-03,6.827006582170724869e-03,7.517909921261889394e-07
1.452959608286619186e-02,6.109221838414669037e-03,5.992609076201915741e-03,1.712350604066159576e-05,-0.000000000000000000e+00,2.152542769908905029e-02,7.224025466712191701e-05,3.186869993805885315e-02,1.114547285396838561e-05,6.350481417030096054e-03,4.549583047628402710e-02,2.491520535841118544e-05,3.170411800965666771e-03,7.329778600251302123e-05,1.636581509956158698e-05,1.147894654422998428e-02,2.049087174236774445e-02,5.995453102514147758e-05,-0.000000000000000000e+00,6.975259748287498951e-05,3.975208476185798645e-02,2.016559243202209473e-02,-0.000000000000000000e+00,3.556316345930099487e-02,1.225333744514500722e-05,1.285944692790508270e-02,1.737996208248659968e-04,1.971789821982383728e-02,4.561341926455497742e-02,-0.000000000000000000e+00,2.591569682408589870e-05,9.824116204981692135e-06
5.235877633094787598e-02,4.983514174818992615e-02,2.727597253397107124e-03,-0.000000000000000000e+00,6.618826184421777725e-03,1.815510913729667664e-02,-0.000000000000000000e+00,1.946646906435489655e-02,-0.000000000000000000e+00,3.416090458631515503e-02,1.352956518530845642e-02,6.049022777006030083e-04,7.360457675531506538e-04,1.007046923041343689e-02,1.242186408489942551e-03,3.627324849367141724e-02,9.758170694112777710e-03,2.982194473588606343e-06,3.056396599276922643e-05,2.964168670587241650e-04,1.542322803288698196e-02,2.468867751304060221e-04,-0.000000000000000000e+00,4.650263488292694092e-02,-0.000000000000000000e+00,3.051176480948925018e-02,-0.000000000000000000e+00,-0.000000000000000000e+00,1.670175231993198395e-02,8.056653663516044617e-03,3.332551568746566772e-03,-0.000000000000000000e+00
9.541080892086029053e-02,8.290157653391361237e-03,2.261545509099960327e-03,6.675723795979138231e-08,1.900632778415456414e-04,1.073956955224275589e-02,1.901364521472714841e-05,1.254292903468012810e-03,4.962122147844638675e-06,4.963791742920875549e-02,2.959578530862927437e-03,1.336931437253952026e-01,9.162040427327156067e-03,8.372645080089569092e-02,1.311892992816865444e-03,1.392623335123062134e-01,-0.000000000000000000e+00,9.176771342754364014e-02,2.203427429776638746e-04,1.272839028388261795e-03,5.578232230618596077e-04,2.303660847246646881e-03,2.611801587045192719e-02,1.867628097534179688e-01,1.303779780864715576e-01,5.089884251356124878e-02,3.143834322690963745e-02,4.201316274702548981e-03,4.725298378616571426e-03,-0.000000000000000000e+00,1.483379048295319080e-03,5.920881405472755432e-02
1.748412996530532837e-01,2.663715742528438568e-03,1.566697284579277039e-02,1.255462877452373505e-02,-0.000000000000000000e+00,2.871833369135856628e-02,4.790513230545911938e-06,4.171836003661155701e-02,2.737005161179695278e-05,1.968230605125427246e-01,7.562128454446792603e-02,2.048340141773223877e-01,1.290067750960588455e-02,1.542826890945434570e-01,4.270086151336727198e-07,2.003877609968185425e-01,2.660492555150995031e-06,4.764160141348838806e-02,1.726460504869464785e-05,2.302056876942515373e-03,5.260574198473477736e-08,7.721153087913990021e-03,1.684102118015289307e-01,4.788039624691009521e-01,1.903019100427627563e-01,3.294877111911773682e-01,1.015606612781994045e-04,6.408578157424926758e-02,1.004330534487962723e-02,1.874727429822087288e-03,2.688917331397533417e-03,6.296183913946151733e-02
1.308708488941192627e-01,3.498190315440297127e-03,2.784409327432513237e-03,6.167523562908172607e-03,1.783928647637367249e-02,7.748600840568542480e-02,2.799930734909139574e-05,9.653499349951744080e-03,5.136063788086175919e-03,3.329185247421264648e-01,7.122032810002565384e-03,2.537889182567596436e-01,4.806878976523876190e-03,4.520203173160552979e-02,9.494014084339141846e-03,1.823498494923114777e-02,3.111301688477396965e-03,4.612943157553672791e-02,1.355394273996353149e-01,4.234863910824060440e-03,6.293263286352157593e-02,2.486262917518615723e-01,5.163740515708923340e-01,3.249772191047668457e-01,6.993514951318502426e-03,4.968299567699432373e-01,1.021290868520736694e-01,2.334065735340118408e-01,8.022871799767017365e-03,1.534770280122756958e-01,6.763774901628494263e-03,6.491143722087144852e-03
3.535409644246101379e-02,7.722533494234085083e-02,2.154321875423192978e-03,1.930007361806929111e-03,1.055316347628831863e-02,8.437661826610565186e-02,8.713179267942905426e-04,9.498006664216518402e-03,2.017759019508957863e-03,1.946860998868942261e-01,2.996885450556874275e-03,7.668464630842208862e-02,1.839115284383296967e-03,4.568214528262615204e-03,1.314374059438705444e-02,3.093233108520507812e-01,9.723314084112644196e-03,1.191273704171180725e-01,8.416091650724411011e-02,1.655700267292559147e-03,1.155827660113573074e-02,1.780569180846214294e-02,1.831775903701782227e-01,3.502640724182128906e-01,2.030680328607559204e-02,3.269382119178771973e-01,5.162749905139207840e-03,8.602382615208625793e-03,2.547970274463295937e-03,4.662914276123046875e-01,2.391220256686210632e-02,2.253976650536060333e-03
1.625626906752586365e-02,9.874281287193298340e-02,5.881829420104622841e-04,1.160413841716945171e-03,5.127029726281762123e-04,1.362185110338032246e-03,5.164728034287691116e-03,5.715717561542987823e-03,6.236650515347719193e-03,1.263899356126785278e-01,3.232945920899510384e-03,2.481625378131866455e-01,1.109320321120321751e-03,8.251336216926574707e-02,3.565595252439379692e-03,3.608519434928894043e-01,1.787259429693222046e-02,2.823709845542907715e-01,1.165797840803861618e-02,7.620943710207939148e-03,9.140540845692157745e-03,1.951040923595428467e-01,6.296574473381042480e-01,8.349093794822692871e-01,1.436534617096185684e-02,4.714940190315246582e-01,5.222545471042394638e-03,1.741327941417694092e-01,1.135657168924808502e-02,3.698270916938781738e-01,7.911258144304156303e-04,3.141191788017749786e-03
2.714215952437371016e-04,2.890832424163818359e-01,9.290469810366630554e-03,1.807630760595202446e-03,2.761032083071768284e-04,8.874840568751096725e-04,1.576414331793785095e-02,1.376964501105248928e-04,2.997195161879062653e-02,1.732325553894042969e-02,1.175706391222774982e-03,1.411355659365653992e-02,4.177974071353673935e-03,3.105121199041604996e-03,1.126679498702287674e-02,2.649584114551544189e-01,2.469962090253829956e-02,3.238629996776580811e-01,4.955093562602996826e-02,1.519731990993022919e-02,2.643983252346515656e-02,2.461986392736434937e-01,8.575275540351867676e-01,4.612405598163604736e-01,7.832688279449939728e-03,3.345307707786560059e-01,2.553355880081653595e-02,2.789765000343322754e-01,8.511281572282314301e-03,1.099230051040649414e+00,8.264396339654922485e-03,9.085192345082759857e-03
7.247237954288721085e-04,6.336433291435241699e-01,1.030679605901241302e-02,1.387519296258687973e-03,7.430973346345126629e-05,1.656150212511420250e-03,2.018279582262039185e-02,3.327384125441312790e-03,3.474345058202743530e-02,5.263445526361465454e-02,4.752061329782009125e-03,2.951758541166782379e-02,8.281719870865345001e-03,2.546280324459075928e-01,6.570493336766958237e-03,4.822174608707427979e-01,2.625804394483566284e-02,5.607355833053588867e-01,2.328676916658878326e-02,1.817685365676879883e-02,4.292227700352668762e-02,9.895877540111541748e-02,6.922034025192260742e-01,1.120023488998413086e+00,1.450297832489013672e-01,4.314114749431610107e-01,1.861115172505378723e-02,1.602397561073303223e-01,1.103152986615896225e-02,7.795881628990173340e-01,1.260558702051639557e-02,1.677531003952026367e-02
