-1.825297623872756958e-02,1.624468900263309479e-02,1.088125072419643402e-02,1.030119042843580246e-02,2.606738731265068054e-02,-1.037953048944473267e-02,1.653471961617469788e-02,-1.468145381659269333e-02,-1.289201527833938599e-02,-8.675446733832359314e-03,8.999191224575042725e-03,4.482775926589965820e-03,-3.525809152051806450e-04,-2.308778837323188782e-02,-3.746581729501485825e-03,1.358402706682682037e-02
1.483187079429626465e-02,-8.142288774251937866e-03,2.485664375126361847e-02,-3.623785218223929405e-03,-1.645873486995697021e-02,8.128842338919639587e-03,-2.478216029703617096e-02,1.966516673564910889e-02,1.129068061709403992e-02,1.578332623466849327e-03,1.417913287878036499e-02,7.095700595527887344e-03,2.483353950083255768e-02,3.134769853204488754e-03,1.330771856009960175e-02,-1.924804970622062683e-02
8.579954504966735840e-03,9.118719957768917084e-03,-2.233644761145114899e-02,-1.518407370895147324e-02,-1.180281513370573521e-03,-1.160699990577995777e-03,-2.094670757651329041e-02,1.281991600990295410e-02,2.407619543373584747e-02,2.969181630760431290e-03,1.933565549552440643e-02,1.370072131976485252e-03,-2.283718809485435486e-02,1.205595544888637960e-04,1.654455065727233887e-02,8.448566659353673458e-04
-9.329398162662982941e-03,1.522716972976922989e-02,2.422448247671127319e-02,8.840266615152359009e-03,-1.833092048764228821e-02,-1.281769946217536926e-03,-2.228659391403198242e-02,-2.593570947647094727e-02,-7.870481349527835846e-03,-8.262922987341880798e-03,1.223073713481426239e-02,-1.676774397492408752e-02,4.241090733557939529e-03,-1.000919844955205917e-03,-2.594991028308868408e-02,-1.512084808200597763e-02
2.321244403719902039e-02,2.192686870694160461e-02,2.356598339974880219e-02,9.734891355037689209e-03,-7.974606007337570190e-03,1.646449556574225426e-03,-9.882336482405662537e-03,1.037625316530466080e-02,1.578050293028354645e-02,1.830594381317496300e-03,-1.987703144550323486e-02,1.214922964572906494e-02,-1.326745562255382538e-02,-2.493443898856639862e-02,1.664256118237972260e-02,-2.452665381133556366e-02
-6.890309974551200867e-03,2.010237984359264374e-02,5.147315096110105515e-03,-3.325377358123660088e-03,-1.088514085859060287e-02,-2.312579937279224396e-02,-3.857375355437397957e-03,1.652069576084613800e-02,-1.887891441583633423e-02,-4.296595230698585510e-03,1.423112861812114716e-02,-4.201512318104505539e-03,-1.542596612125635147e-02,1.801729761064052582e-02,-5.135677754878997803e-03,1.044754032045602798e-02
-7.557641249150037766e-03,-1.119132805615663528e-02,9.372118860483169556e-03,1.427253521978855133e-02,-1.089715119451284409e-02,2.901269821450114250e-03,5.235772579908370972e-03,-4.924432374536991119e-03,-1.450311858206987381e-02,-2.413311600685119629e-02,-1.459970232099294662e-02,8.358553983271121979e-03,1.012431830167770386e-02,8.398358710110187531e-03,1.892615854740142822e-02,1.320285722613334656e-02
4.850616678595542908e-03,-2.156186476349830627e-02,1.668377965688705444e-02,-8.015549741685390472e-03,1.713790185749530792e-02,-3.444952424615621567e-03,-2.531542442739009857e-02,1.169066876173019409e-03,2.401383221149444580e-02,-2.184587903320789337e-02,1.195288728922605515e-02,1.625362969934940338e-02,2.304182946681976318e-02,-7.244751788675785065e-03,3.730089636519551277e-03,-9.933518012985587120e-04
1.870871707797050476e-02,1.740668527781963348e-02,1.905334368348121643e-02,1.803039014339447021e-02,2.335545141249895096e-03,-5.142785608768463135e-03,7.219532271847128868e-04,2.778033725917339325e-03,-1.243265438824892044e-02,-1.665910892188549042e-02,-1.787827163934707642e-02,-1.429234538227319717e-02,2.359141595661640167e-02,2.066997997462749481e-02,-2.608153969049453735e-02,-7.181255612522363663e-03
7.835081778466701508e-03,-3.619777271524071693e-03,1.192045491188764572e-02,2.011986263096332550e-02,-6.308854091912508011e-03,1.372062973678112030e-02,-1.303655933588743210e-02,4.297117237001657486e-03,-8.860267698764801025e-03,2.281053550541400909e-02,2.513424865901470184e-02,-8.279656991362571716e-03,-2.256447821855545044e-02,8.374136523343622684e-04,-1.091042067855596542e-02,1.872836425900459290e-02
3.651312552392482758e-03,-8.999390527606010437e-03,5.128852557390928268e-03,-1.237928308546543121e-02,-2.229688316583633423e-02,1.906218193471431732e-02,-6.405154243111610413e-03,-1.920638419687747955e-02,2.008545957505702972e-02,1.144504640251398087e-02,8.524647913873195648e-03,-1.440831832587718964e-02,2.045358344912528992e-02,4.954319447278976440e-03,1.722441613674163818e-02,1.690325327217578888e-02
-1.065566483885049820e-02,-9.394217282533645630e-03,1.045438647270202637e-02,1.151228323578834534e-02,-1.343426946550607681e-02,-1.804107334464788437e-03,6.547841243445873260e-03,-1.419872138649225235e-02,-6.815867032855749130e-03,-1.372118107974529266e-02,-3.584298072382807732e-03,6.691918708384037018e-03,2.278146333992481232e-02,1.539670117199420929e-02,-3.944072406738996506e-03,-2.007583342492580414e-02
3.688294440507888794e-03,-7.402544841170310974e-03,8.335207588970661163e-03,-3.379637142643332481e-03,-1.941164210438728333e-02,3.554299240931868553e-03,-1.440371386706829071e-02,1.285351347178220749e-02,7.481321692466735840e-03,7.932565174996852875e-03,2.134205028414726257e-02,3.200743347406387329e-02,-2.127970941364765167e-02,-1.800806447863578796e-02,1.466740667819976807e-02,1.331828441470861435e-02
4.039484262466430664e-02,3.813268616795539856e-03,1.563937403261661530e-02,1.936127990484237671e-02,-6.011919118463993073e-03,-3.778047114610671997e-02,3.310110885649919510e-03,-2.429734356701374054e-02,-1.330243889242410660e-02,2.434296347200870514e-02,-2.372960373759269714e-02,1.441821362823247910e-02,1.343192812055349350e-02,2.757116593420505524e-02,-7.140190340578556061e-03,1.632491126656532288e-02
1.229092944413423538e-02,2.129704505205154419e-02,-1.947092590853571892e-03,-2.137679979205131531e-02,2.206365577876567841e-03,-1.700291968882083893e-02,-2.449982799589633942e-02,2.151999063789844513e-02,1.666958630084991455e-02,1.789106614887714386e-02,-9.931175038218498230e-03,2.176102437078952789e-02,1.543363742530345917e-02,8.274056017398834229e-03,2.062126528471708298e-03,-2.031977660953998566e-02
2.832560567185282707e-03,-1.796152815222740173e-02,1.343011204153299332e-02,1.682211831212043762e-02,1.442440319806337357e-02,1.646192744374275208e-02,-2.340232720598578453e-03,2.000428549945354462e-02,-3.538212738931179047e-03,2.004863135516643524e-02,1.956881396472454071e-02,-9.818864986300468445e-03,9.622139856219291687e-03,8.456789888441562653e-03,2.362660504877567291e-02,5.699916528101311997e-06
-2.051792666316032410e-02,1.066140923649072647e-02,2.895298413932323456e-03,-9.717252105474472046e-03,-9.223271161317825317e-03,-2.381093241274356842e-02,-2.078012377023696899e-02,9.174962528049945831e-03,-3.799109719693660736e-03,1.931460201740264893e-02,-1.169184129685163498e-02,5.453886929899454117e-03,-1.066230982542037964e-02,2.197645418345928192e-02,1.528791896998882294e-02,2.224158681929111481e-02
-9.507371112704277039e-03,-1.451136544346809387e-02,-9.220708161592483521e-03,6.777578033506870270e-03,1.763298548758029938e-02,2.392843365669250488e-02,-5.996036808937788010e-03,1.874517835676670074e-02,1.000632066279649734e-02,8.397154510021209717e-03,1.128006819635629654e-02,1.557151693850755692e-02,-7.578047923743724823e-03,-1.940296776592731476e-02,-2.520396001636981964e-02,-9.750673547387123108e-03
2.547069685533642769e-03,-6.824599113315343857e-03,3.424955997616052628e-03,-2.382737025618553162e-02,-1.608035713434219360e-02,6.020045373588800430e-03,-2.241264330223202705e-03,-4.034732934087514877e-03,-1.155801769345998764e-02,-2.414585091173648834e-02,-5.561223253607749939e-03,-1.077879033982753754e-02,-1.591570489108562469e-02,3.783132182434201241e-03,-1.001195143908262253e-02,-1.151526905596256256e-02
-8.032266050577163696e-03,-1.995336823165416718e-02,-7.742358371615409851e-03,5.598107818514108658e-03,-3.802962601184844971e-03,1.396893244236707687e-02,8.135760203003883362e-03,-2.384182997047901154e-02,2.029183693230152130e-02,-2.353188768029212952e-02,7.349346298724412918e-03,-1.965701952576637268e-02,-8.598935790359973907e-03,2.002084255218505859e-02,-2.484436333179473877e-02,1.943471468985080719e-02
-2.036482281982898712e-02,6.664584390819072723e-03,-1.348229311406612396e-02,-2.604415081441402435e-02,1.494667492806911469e-02,1.645847223699092865e-02,-2.219553478062152863e-02,-7.935719564557075500e-03,1.111020427197217941e-02,5.913717206567525864e-03,-3.494551638141274452e-03,1.474115159362554550e-02,6.679619196802377701e-03,1.382365543395280838e-02,-2.444571815431118011e-02,2.485540322959423065e-02
-2.672510687261819839e-03,-1.706892624497413635e-02,-2.670735819265246391e-03,-4.656118340790271759e-03,-9.275253862142562866e-03,2.330768294632434845e-02,-9.150238707661628723e-03,-1.088185049593448639e-02,1.102560199797153473e-03,-3.513486823067069054e-03,2.216398157179355621e-02,1.448076870292425156e-02,2.353167906403541565e-02,9.295144118368625641e-03,1.849437691271305084e-02,1.216759625822305679e-02
1.660497160628437996e-03,-2.466669864952564240e-02,-1.161945424973964691e-02,-4.552918020635843277e-03,1.390355266630649567e-02,2.012336626648902893e-02,-2.562198089435696602e-03,1.396509073674678802e-02,-1.910346373915672302e-02,-2.365533448755741119e-02,1.007748302072286606e-03,-2.834317041561007500e-03,-2.395788207650184631e-03,-2.492622844874858856e-02,-1.270277146250009537e-02,2.156509645283222198e-02
7.190533448010683060e-03,2.263137698173522949e-02,-1.765639148652553558e-02,-3.889233339577913284e-04,1.399715989828109741e-02,4.838853608816862106e-03,6.083072163164615631e-03,-2.237340435385704041e-02,1.878706924617290497e-02,-1.027674134820699692e-02,-2.291200868785381317e-02,-7.467394229024648666e-03,-2.272695489227771759e-02,8.386988192796707153e-03,-1.186836417764425278e-02,1.910347607918083668e-03
6.244922522455453873e-03,8.946866728365421295e-03,-2.557062730193138123e-02,5.998405627906322479e-03,-1.590427942574024200e-02,-3.320780815556645393e-03,1.742099411785602570e-02,2.606524713337421417e-02,1.178132719360291958e-03,-1.178820803761482239e-02,1.679060235619544983e-02,1.456182822585105896e-02,-1.887178048491477966e-02,-1.056653819978237152e-02,1.026743091642856598e-02,4.005906172096729279e-03
2.465908415615558624e-03,-8.415576070547103882e-03,-1.899053528904914856e-02,2.273725718259811401e-02,1.630683988332748413e-02,1.500610169023275375e-02,1.976519450545310974e-02,-1.898059621453285217e-02,-7.162220776081085205e-03,-1.556293014436960220e-02,1.367333997040987015e-02,6.546779535710811615e-03,1.017698436044156551e-03,1.775321736931800842e-02,1.295142062008380890e-02,5.258542019873857498e-03
-1.527370139956474304e-02,-6.019716383889317513e-04,1.900740899145603180e-02,-1.720242947340011597e-02,5.761015228927135468e-03,-2.072037756443023682e-02,2.242161519825458527e-02,2.438509650528430939e-02,7.034647278487682343e-03,-1.916886307299137115e-02,3.060771850869059563e-03,2.141173556447029114e-02,1.551019493490457535e-02,1.157324854284524918e-02,-7.096266839653253555e-03,2.588746370747685432e-03
-4.850801546126604080e-03,2.594784460961818695e-02,6.252151448279619217e-03,1.917609199881553650e-02,-3.334552748128771782e-03,7.718956330791115761e-04,-9.031430818140506744e-03,-9.013971313834190369e-03,7.161024957895278931e-03,-1.790152862668037415e-02,-3.748561022803187370e-03,1.313503459095954895e-02,1.387636829167604446e-02,-1.946986466646194458e-02,-1.924555050209164619e-03,7.850274443626403809e-03
-1.442624162882566452e-02,-2.546858415007591248e-02,-1.355504244565963745e-02,1.471736840903759003e-02,-1.313136890530586243e-03,2.254841662943363190e-02,-2.639966551214456558e-03,-2.524461224675178528e-02,9.867143817245960236e-03,-2.342597022652626038e-02,-2.710301661863923073e-03,-8.537360467016696930e-03,7.783834007568657398e-04,1.167440786957740784e-02,2.282800152897834778e-02,3.646465251222252846e-03
9.096288122236728668e-03,8.898813277482986450e-03,-2.234637923538684845e-02,1.906466204673051834e-03,4.018148873001337051e-03,7.800995837897062302e-03,-1.724114641547203064e-02,-2.556356601417064667e-02,1.449125073850154877e-02,-1.172636263072490692e-02,2.457845397293567657e-02,6.023811176419258118e-03,1.487031579017639160e-02,-1.242813537828624249e-03,-2.349814586341381073e-02,1.053787302225828171e-02
-6.899983622133731842e-03,-2.588160336017608643e-03,-2.485118061304092407e-02,-5.856732837855815887e-03,2.397400699555873871e-02,2.000558935105800629e-02,-4.095894400961697102e-04,1.568586449138820171e-03,1.916303113102912903e-02,1.756444387137889862e-02,-2.079232782125473022e-02,-1.124948263168334961e-02,1.366551406681537628e-02,-9.283702238462865353e-04,2.515355683863162994e-02,-8.731373585760593414e-03
1.671176962554454803e-02,1.676991209387779236e-02,1.174467708915472031e-02,-1.302062068134546280e-02,-2.291630487889051437e-03,6.545688491314649582e-03,1.086974632926285267e-03,-1.127740647643804550e-02,-2.167823351919651031e-02,1.899855025112628937e-02,-8.009091950953006744e-03,1.647488586604595184e-02,1.487565040588378906e-02,-6.097323726862668991e-03,-1.485807006247341633e-03,4.625629168003797531e-03
1.352271996438503265e-02,-2.256241254508495331e-02,-1.836399547755718231e-02,-2.600095979869365692e-02,6.801178678870201111e-03,1.863546483218669891e-02,1.674462109804153442e-02,-1.435436401516199112e-02,-5.401919595897197723e-03,1.128122210502624512e-02,-1.467690989375114441e-02,1.547499839216470718e-02,8.774342946708202362e-03,-2.540829405188560486e-02,2.242277376353740692e-02,-1.713908836245536804e-02
2.427752315998077393e-02,-2.310555893927812576e-03,-1.254809647798538208e-02,2.556637860834598541e-02,-1.543269027024507523e-02,-6.437743082642555237e-03,2.255920134484767914e-02,2.046689856797456741e-03,1.995464973151683807e-02,-1.219593640416860580e-02,-1.505674235522747040e-02,-2.051880396902561188e-02,2.122340910136699677e-02,-3.476669313386082649e-03,-2.576404716819524765e-03,4.847448319196701050e-03
1.379519514739513397e-02,5.501972511410713196e-02,5.757115781307220459e-02,7.637982070446014404e-02,-1.291486900299787521e-02,-7.569402456283569336e-02,-2.796697802841663361e-02,1.941455155611038208e-02,-7.500395178794860840e-02,9.829323738813400269e-03,2.306785434484481812e-02,-2.901565283536911011e-02,4.795529320836067200e-02,-2.171726524829864502e-02,-3.855814784765243530e-02,8.676461875438690186e-03
2.089583314955234528e-02,8.669251203536987305e-02,8.541247993707656860e-02,4.829652234911918640e-02,1.877766288816928864e-02,-8.983556181192398071e-02,-2.016003243625164032e-02,5.330823361873626709e-03,-9.932173788547515869e-02,-1.237775478512048721e-02,-1.091252267360687256e-02,-3.332627192139625549e-02,9.681685268878936768e-02,-2.548090182244777679e-03,-8.257957547903060913e-02,1.300195325165987015e-02
1.487039402127265930e-02,7.795333862304687500e-02,6.407660990953445435e-02,2.210729755461215973e-02,-1.384465117007493973e-02,-3.298026323318481445e-02,-3.973712027072906494e-02,1.508908253163099289e-02,-5.786441639065742493e-02,-2.385108917951583862e-02,-6.512319203466176987e-03,-4.649068228900432587e-03,4.114234820008277893e-02,1.090494636446237564e-02,-1.067984756082296371e-02,-3.116426244378089905e-02
5.132422968745231628e-02,7.311896234750747681e-02,4.299503937363624573e-02,6.388742476701736450e-02,2.627403102815151215e-02,-3.620668128132820129e-02,-3.341345489025115967e-02,2.427977882325649261e-02,-7.838974893093109131e-02,-2.826261334121227264e-02,-2.371054515242576599e-02,-3.735076263546943665e-02,5.568771809339523315e-02,7.916338741779327393e-03,-3.664470091462135315e-02,-1.294977515935897827e-01
8.447866141796112061e-02,8.824999630451202393e-02,9.017719328403472900e-02,8.429387211799621582e-02,2.419739263132214546e-03,-6.103067472577095032e-02,-2.844533883035182953e-02,1.478525623679161072e-02,-9.231749176979064941e-02,-2.692953869700431824e-02,1.433347724378108978e-02,-2.727313898503780365e-02,4.041200876235961914e-02,-2.911252155900001526e-02,-3.257137909531593323e-02,-9.117238968610763550e-02
5.988812074065208435e-02,6.712605059146881104e-02,6.855513155460357666e-02,6.252065300941467285e-02,-1.471589319407939911e-02,-6.859712302684783936e-02,-2.860894612967967987e-02,-2.207536995410919189e-02,-5.341637507081031799e-02,-1.512164995074272156e-02,-4.307347815483808517e-03,1.907395385205745697e-02,6.802319735288619995e-02,2.208176441490650177e-02,-1.718237809836864471e-02,-7.554508745670318604e-02
1.207278817892074585e-01,1.467280238866806030e-01,9.220153093338012695e-02,6.512928009033203125e-02,2.264085598289966583e-02,-1.293619722127914429e-01,-2.806318178772926331e-02,2.511594817042350769e-02,-9.854819625616073608e-02,-2.458951994776725769e-02,4.151480738073587418e-03,1.976381242275238037e-02,1.102820411324501038e-01,-2.131057716906070709e-02,-4.260043054819107056e-02,-6.586313992738723755e-02
1.260780692100524902e-01,8.342380076646804810e-02,7.264538109302520752e-02,1.294022891670465469e-02,-6.991333793848752975e-03,-7.570078223943710327e-02,1.486744266003370285e-02,-1.118365325964987278e-04,-6.008066982030868530e-02,-1.415684819221496582e-02,9.976633824408054352e-03,-1.325951539911329746e-03,1.081836968660354614e-01,5.189097486436367035e-03,-2.325459569692611694e-02,-5.381477251648902893e-02
8.956652134656906128e-02,-7.274806499481201172e-02,-4.998565092682838440e-02,-1.952847465872764587e-02,2.718104794621467590e-02,-5.245292186737060547e-02,8.949559926986694336e-02,-2.921581640839576721e-02,-5.487176240421831608e-04,1.525891199707984924e-02,1.643426530063152313e-02,1.162913069128990173e-02,1.418440490961074829e-01,-4.223082587122917175e-02,6.282228231430053711e-02,-3.526109829545021057e-02
-4.119569063186645508e-02,1.094390973448753357e-01,-7.161915302276611328e-02,-1.145502366125583649e-02,1.735765399644151330e-04,-2.171206176280975342e-01,-7.757566124200820923e-02,-5.237210914492607117e-02,-5.075424537062644958e-02,3.367646038532257080e-02,5.679935961961746216e-02,2.185678184032440186e-01,1.419665962457656860e-01,4.007374495267868042e-02,3.614073991775512695e-02,6.001483649015426636e-02
-2.664221227169036865e-01,2.326599657535552979e-01,-9.346861392259597778e-02,2.465309202671051025e-02,-1.480967854149639606e-03,-1.372085362672805786e-01,-1.275324523448944092e-01,8.351923897862434387e-03,-2.980214543640613556e-02,1.262525003403425217e-02,5.476759746670722961e-02,1.651578247547149658e-01,9.918358922004699707e-02,7.196502387523651123e-02,-5.199998244643211365e-02,2.396577894687652588e-01
-6.174618750810623169e-02,1.826135218143463135e-01,-3.513622656464576721e-02,6.960989441722631454e-03,-1.304286438971757889e-02,-9.082900732755661011e-02,-3.319616243243217468e-02,2.018698491156101227e-03,1.499786600470542908e-02,-1.528118830174207687e-02,1.457521878182888031e-02,5.263871327042579651e-02,9.278899431228637695e-02,1.408147905021905899e-02,-5.451919883489608765e-02,4.742074757814407349e-02
4.614018648862838745e-02,7.123999297618865967e-02,4.620793834328651428e-02,1.842613331973552704e-02,9.827252477407455444e-03,-1.900482363998889923e-02,-1.755562797188758850e-02,-4.764078184962272644e-03,-5.693745985627174377e-02,-3.950957581400871277e-02,2.279448881745338440e-02,-2.243237802758812904e-03,1.304989214986562729e-02,4.091383516788482666e-02,-2.092544548213481903e-02,-5.827869847416877747e-02
3.768940642476081848e-02,8.630550652742385864e-02,6.404378265142440796e-02,1.299787685275077820e-02,1.993480511009693146e-02,-8.276952058076858521e-02,7.550434675067663193e-03,5.249266978353261948e-03,-9.073030203580856323e-02,2.157184295356273651e-03,3.477421775460243225e-02,6.453336775302886963e-02,2.572549507021903992e-03,3.032577410340309143e-02,-1.252205111086368561e-04,-8.806399255990982056e-02
3.096498176455497742e-02,3.486959263682365417e-02,2.901078946888446808e-02,4.728164151310920715e-02,1.686708815395832062e-02,-3.166757151484489441e-02,-2.448961883783340454e-02,9.136290289461612701e-03,-6.930277496576309204e-02,1.216428074985742569e-02,-1.309888996183872223e-02,2.341897599399089813e-02,1.093125529587268829e-02,3.936249390244483948e-02,-6.413999013602733612e-03,-5.359672382473945618e-02
2.743684127926826477e-02,4.992933198809623718e-02,-4.351358860731124878e-03,1.770184002816677094e-02,-1.818804256618022919e-02,-4.604051262140274048e-02,-1.483437325805425644e-02,2.632380463182926178e-02,-5.187628418207168579e-02,-4.873917996883392334e-02,1.347172539681196213e-02,-3.006979357451200485e-03,-6.239719688892364502e-03,2.792290970683097839e-02,-2.931512892246246338e-02,-2.964105829596519470e-02
-3.733346005901694298e-03,2.023859508335590363e-02,-9.167667478322982788e-03,1.288069877773523331e-02,-4.445010796189308167e-03,-5.984801333397626877e-03,-1.999570429325103760e-02,7.760546170175075531e-03,-3.672774508595466614e-02,-5.606067925691604614e-02,8.630872704088687897e-03,3.532480821013450623e-02,-1.107339281588792801e-02,3.811136994045227766e-04,1.339865755289793015e-02,1.553389336913824081e-02
-3.390273079276084900e-03,1.608072407543659210e-02,1.356382295489311218e-02,2.168251015245914459e-02,1.585846208035945892e-02,1.389941200613975525e-02,5.786466412246227264e-03,7.730621844530105591e-03,4.492986481636762619e-03,-3.603791818022727966e-02,8.123654872179031372e-03,-8.877747692167758942e-03,-1.034681778401136398e-02,2.782227657735347748e-02,-6.457055453211069107e-03,-5.194033961743116379e-03
-2.477614209055900574e-03,2.048669382929801941e-02,-2.648590132594108582e-03,1.930307038128376007e-02,-1.319949980825185776e-02,1.648093387484550476e-02,-2.465947531163692474e-02,1.174915302544832230e-02,-2.375334501266479492e-03,-2.033888734877109528e-02,1.488472428172826767e-02,-1.464610267430543900e-02,1.886838674545288086e-02,-1.116066612303256989e-02,2.301914431154727936e-02,-6.520309019833803177e-03
-1.185734197497367859e-02,-1.929242722690105438e-02,-2.559467032551765442e-02,1.956924982368946075e-02,-1.070061791688203812e-02,-1.912828348577022552e-02,1.785647124052047729e-02,2.022915892302989960e-02,1.208461448550224304e-02,-2.022682689130306244e-02,1.925237127579748631e-03,1.640287227928638458e-02,6.338664330542087555e-03,4.116184078156948090e-03,-2.147836424410343170e-02,1.631546393036842346e-02
-1.838371157646179199e-02,-1.879228651523590088e-02,4.378270823508501053e-03,-1.933640986680984497e-02,2.290608827024698257e-03,2.324325218796730042e-02,2.321414090692996979e-02,1.724907010793685913e-02,3.600013675168156624e-03,2.261582203209400177e-02,-1.019748114049434662e-02,-5.649599712342023849e-03,-4.872336285188794136e-04,-1.576684974133968353e-02,1.906713284552097321e-02,-1.533635891973972321e-02
1.314835716038942337e-02,-2.297064848244190216e-02,1.141254138201475143e-02,1.701611559838056564e-03,-5.216012243181467056e-03,8.433052338659763336e-03,1.929078623652458191e-02,2.261726930737495422e-02,-1.071930490434169769e-02,5.291171371936798096e-03,1.174960564821958542e-02,-5.424877628684043884e-03,3.359557362273335457e-03,-8.920861408114433289e-03,6.031214725226163864e-03,2.505400404334068298e-02
2.110869809985160828e-02,5.497287493199110031e-03,-1.949023082852363586e-02,7.505813613533973694e-03,-1.476273685693740845e-02,-1.747760549187660217e-02,1.468116044998168945e-02,2.073164656758308411e-02,-1.817248016595840454e-02,1.485334709286689758e-02,-1.442893967032432556e-02,1.645027287304401398e-02,-1.728127151727676392e-02,1.535844802856445312e-02,1.992826350033283234e-02,-1.118181459605693817e-02
1.505584176629781723e-02,-1.451229304075241089e-02,-4.103353712707757950e-03,-2.439480042085051537e-03,1.859435066580772400e-02,-1.683862134814262390e-02,1.408082153648138046e-02,2.506864815950393677e-02,-8.291535079479217529e-03,5.359938833862543106e-03,-2.488665468990802765e-02,2.302423864603042603e-02,-1.331003010272979736e-02,-5.300580523908138275e-03,1.962807029485702515e-03,2.305188775062561035e-02
2.716304920613765717e-02,7.544583640992641449e-04,1.855631358921527863e-02,-2.187321893870830536e-02,-1.239663921296596527e-03,8.623674511909484863e-03,-1.254828274250030518e-02,2.262030728161334991e-02,-2.270897850394248962e-02,-3.955526917707175016e-04,-1.440672390162944794e-02,-1.845764741301536560e-02,-1.951223239302635193e-03,2.027582563459873199e-02,-2.331462875008583069e-02,-1.242324057966470718e-02
1.835191436111927032e-02,-8.054479956626892090e-03,-8.833512663841247559e-03,9.320006356574594975e-04,1.798372343182563782e-02,-2.431271597743034363e-02,-2.324706874787807465e-02,-1.421908661723136902e-02,2.052044123411178589e-02,2.102893218398094177e-02,-4.987464286386966705e-03,-3.005523700267076492e-03,1.942062191665172577e-02,1.044761296361684799e-02,2.432154864072799683e-02,-1.458078995347023010e-02
2.563073299825191498e-02,-1.646953821182250977e-02,3.265984123572707176e-03,-6.204830133356153965e-04,8.312423713505268097e-03,2.245014905929565430e-02,5.745153874158859253e-03,-5.454793106764554977e-03,1.668722555041313171e-02,-2.065378427505493164e-02,-4.181748256087303162e-03,-1.548608019948005676e-02,4.002468660473823547e-03,1.737853325903415680e-02,1.437319815158843994e-02,-1.705199596472084522e-03
1.913446933031082153e-02,8.723272942006587982e-03,-4.208547063171863556e-03,-1.609426364302635193e-02,-1.635765470564365387e-02,9.911237284541130066e-03,3.903445554897189140e-03,2.042410708963871002e-02,1.816352456808090210e-02,-2.176337316632270813e-02,4.821447189897298813e-03,-1.341279316693544388e-02,-2.211394719779491425e-02,1.200299616903066635e-02,-2.310065925121307373e-02,1.694230921566486359e-02
2.529904991388320923e-02,6.385883688926696777e-02,2.505991421639919281e-02,3.939044848084449768e-02,-1.607002504169940948e-02,-1.015892438590526581e-02,-3.008336760103702545e-02,1.419884711503982544e-02,-5.886159464716911316e-02,1.854677498340606689e-02,2.328050322830677032e-03,-2.357398532330989838e-02,5.944180116057395935e-02,-1.486477907747030258e-02,-4.267189186066389084e-03,-2.664906671270728111e-03
4.586781561374664307e-02,1.513718068599700928e-01,1.207995116710662842e-01,6.543429195880889893e-02,-1.795120653696358204e-03,-1.195789054036140442e-01,-1.221412718296051025e-01,2.009363099932670593e-02,-1.777365356683731079e-01,-4.186649993062019348e-02,-3.059477312490344048e-03,2.745712175965309143e-02,1.044134125113487244e-01,2.409860305488109589e-02,-1.220995485782623291e-01,-5.211893469095230103e-02
8.344060927629470825e-02,1.685680896043777466e-01,1.659683585166931152e-01,6.803709268569946289e-02,-2.919752849265933037e-03,-1.076784506440162659e-01,-1.228213235735893250e-01,-4.403081163763999939e-02,-2.495375573635101318e-01,-2.517884038388729095e-02,1.785948500037193298e-02,1.135203912854194641e-01,1.028262227773666382e-01,1.250629127025604248e-01,-9.868890792131423950e-02,-2.491599321365356445e-02
9.450281038880348206e-03,1.064801141619682312e-01,1.507354974746704102e-01,3.361942013725638390e-03,-7.237423956394195557e-02,8.200122416019439697e-02,-7.643291354179382324e-02,-3.123356774449348450e-02,-2.776485085487365723e-01,-3.330967575311660767e-02,4.618226364254951477e-02,1.903636008501052856e-01,-4.303036630153656006e-02,1.582111120223999023e-01,-9.776919335126876831e-02,-5.260868743062019348e-02
2.071433700621128082e-02,1.907905489206314087e-01,1.979324370622634888e-01,6.329702585935592651e-02,-1.587232574820518494e-02,1.694056093692779541e-01,-1.092625781893730164e-01,-1.682209409773349762e-02,-2.721706926822662354e-01,-1.256333887577056885e-01,-2.358970232307910919e-02,2.629561722278594971e-01,-3.139543905854225159e-02,2.234877049922943115e-01,-1.164358332753181458e-01,-1.407730728387832642e-01
-1.473274081945419312e-02,2.934446632862091064e-01,2.557002604007720947e-01,7.008346170186996460e-02,3.062696941196918488e-02,1.252875775098800659e-01,-6.647068262100219727e-02,1.534839719533920288e-02,-2.604646086692810059e-01,-1.628663390874862671e-01,-3.532483801245689392e-02,2.039980143308639526e-01,8.692813664674758911e-02,2.921804785728454590e-01,-8.022768050432205200e-02,-1.742247492074966431e-01
1.392469555139541626e-01,2.565682530403137207e-01,2.696311771869659424e-01,-5.055091157555580139e-02,2.150333486497402191e-03,1.544629484415054321e-01,-1.164702028036117554e-01,-1.808807253837585449e-02,-3.054182231426239014e-01,-1.566393673419952393e-01,-1.071755886077880859e-01,2.544402182102203369e-01,5.756835453212261200e-03,3.686404526233673096e-01,-1.123863235116004944e-01,6.692167371511459351e-02
2.733098343014717102e-02,1.930383741855621338e-01,2.315006107091903687e-01,4.664652794599533081e-02,-2.917923778295516968e-02,1.761646419763565063e-01,-6.446713954210281372e-02,-1.691125780344009399e-01,-3.780589699745178223e-01,-1.274776309728622437e-01,-1.061485498212277889e-03,3.346045315265655518e-01,1.915117949247360229e-01,2.732145786285400391e-01,-1.349653899669647217e-01,1.092178514227271080e-03
-8.774410933256149292e-02,2.165238372981548309e-02,3.226373493671417236e-01,1.506126578897237778e-02,1.595774292945861816e-01,3.475936129689216614e-02,-8.006989210844039917e-02,-2.335701137781143188e-01,-3.319394886493682861e-01,-1.727032661437988281e-01,8.542113006114959717e-02,4.264337122440338135e-01,3.197376430034637451e-01,1.682745218276977539e-01,1.891219988465309143e-02,2.981413155794143677e-02
2.764410339295864105e-02,1.038400083780288696e-01,3.682914972305297852e-01,-1.626378484070301056e-02,2.262015938758850098e-01,4.433748126029968262e-02,-1.758535504341125488e-01,-3.314318656921386719e-01,-4.044117331504821777e-01,-1.119294762611389160e-01,1.184454858303070068e-01,5.127609372138977051e-01,3.926140069961547852e-01,5.923233460634946823e-03,1.165690794587135315e-01,-4.385249316692352295e-02
-4.233702272176742554e-02,2.327013462781906128e-01,2.439053803682327271e-01,-1.146837919950485229e-01,1.818220913410186768e-01,-3.234656155109405518e-02,-8.956442028284072876e-02,-2.762638330459594727e-01,-4.535014927387237549e-01,-2.341541200876235962e-01,3.169061839580535889e-01,4.799902439117431641e-01,5.497978329658508301e-01,-2.649652538821101189e-03,1.848495453596115112e-01,-1.360792219638824463e-01
4.926607757806777954e-02,3.490834236145019531e-01,3.069613873958587646e-01,-5.369874835014343262e-02,1.789442263543605804e-02,9.050907194614410400e-02,-3.004679456353187561e-02,2.351661212742328644e-02,-3.427681922912597656e-01,-1.930530518293380737e-01,3.849179148674011230e-01,2.641201615333557129e-01,2.622855007648468018e-01,8.623199164867401123e-02,5.086825415492057800e-02,-1.370673626661300659e-01
2.330981045961380005e-01,3.130548298358917236e-01,1.845136731863021851e-01,-9.390959888696670532e-02,4.340008646249771118e-02,5.196863785386085510e-02,-1.141516957432031631e-02,3.380116075277328491e-02,-1.240560188889503479e-01,-1.823237687349319458e-01,3.611028492450714111e-01,8.197272568941116333e-02,1.213360056281089783e-01,3.106605075299739838e-02,-1.526480168104171753e-02,-2.160687297582626343e-01
4.114801585674285889e-01,3.125381469726562500e-01,1.895795166492462158e-01,-9.608522057533264160e-02,2.295251190662384033e-02,-1.223719343543052673e-01,-3.124001808464527130e-02,1.131790727376937866e-01,-2.937679886817932129e-01,-1.457102447748184204e-01,1.366881281137466431e-01,9.276580810546875000e-02,1.032437160611152649e-01,-3.093993663787841797e-02,-1.690257936716079712e-01,-3.290802538394927979e-01
3.414991497993469238e-01,2.357044368982315063e-01,2.136422991752624512e-01,-6.845328211784362793e-02,2.241087518632411957e-02,-2.156399190425872803e-02,2.196955122053623199e-02,9.074283763766288757e-03,-2.426277697086334229e-01,-4.370703548192977905e-02,7.777429372072219849e-02,7.359527796506881714e-02,7.716756314039230347e-02,-2.859905548393726349e-02,-1.169574335217475891e-01,-2.447037100791931152e-01
1.576127409934997559e-01,1.774238198995590210e-01,1.729964017868041992e-01,-5.396851897239685059e-02,-6.827210891060531139e-04,-4.612115770578384399e-02,-3.499995917081832886e-02,-3.664853423833847046e-02,-2.892692983150482178e-01,-7.349967956542968750e-02,9.566619992256164551e-02,1.207941100001335144e-01,9.469036012887954712e-03,-2.458206750452518463e-02,-1.065100729465484619e-01,-8.931917697191238403e-02
1.467579454183578491e-01,1.577594727277755737e-01,1.305119842290878296e-01,-3.572313860058784485e-02,-2.860516251530498266e-04,-1.017100438475608826e-01,-5.624394863843917847e-02,-8.116531185805797577e-03,-2.174772620201110840e-01,-1.130296364426612854e-01,4.825568571686744690e-02,1.082595810294151306e-01,3.453313186764717102e-02,-4.703402984887361526e-03,-6.655746698379516602e-02,-5.164112150669097900e-02
-8.201137825381010771e-05,1.005733236670494080e-01,4.887137189507484436e-02,-1.138595771044492722e-02,1.580726914107799530e-02,-8.619709312915802002e-02,-9.463246166706085205e-02,2.928413636982440948e-02,-9.410918503999710083e-02,-6.490513682365417480e-02,8.188578486442565918e-02,1.063981279730796814e-01,4.259523376822471619e-02,1.307393307797610760e-03,-5.482275784015655518e-02,-4.733541607856750488e-02
-2.192293293774127960e-02,-5.249517410993576050e-02,-3.208632022142410278e-02,2.621843852102756500e-02,-1.571189612150192261e-02,3.685138374567031860e-02,-5.149628221988677979e-02,9.620948694646358490e-03,5.248896777629852295e-03,-1.480950391851365566e-03,3.959752991795539856e-02,7.099752873182296753e-02,-4.563496448099613190e-03,1.564553380012512207e-02,-1.437030080705881119e-02,4.558604676276445389e-03
6.591534707695245743e-03,-5.842221155762672424e-02,-3.397174924612045288e-02,1.902492158114910126e-02,2.567895535321440548e-05,8.030968159437179565e-02,-2.103832364082336426e-02,1.345671340823173523e-02,3.201960772275924683e-02,-2.133648097515106201e-02,3.406918793916702271e-02,3.222855925559997559e-02,-2.096054516732692719e-02,-2.452068217098712921e-02,-1.924844807945191860e-03,3.820948675274848938e-02
-4.268440417945384979e-03,1.395339518785476685e-02,5.652236752212047577e-03,1.257668528705835342e-02,6.596864201128482819e-03,2.048239856958389282e-02,1.661060750484466553e-02,1.026942208409309387e-02,1.365823019295930862e-02,-5.699871107935905457e-04,-1.879672333598136902e-02,1.184714492410421371e-02,-1.829563756473362446e-03,2.369549684226512909e-02,-2.265748381614685059e-02,1.149859651923179626e-02
-8.180095814168453217e-03,-1.369567867368459702e-02,1.186506263911724091e-02,8.279307745397090912e-03,-2.091191336512565613e-02,2.460493892431259155e-02,-2.390171959996223450e-02,1.865514181554317474e-02,1.429320313036441803e-02,-2.530450560152530670e-02,-1.570683717727661133e-02,1.814595609903335571e-02,2.028771676123142242e-02,-2.148171328008174896e-02,-8.518605493009090424e-03,-6.906846072524785995e-03
5.818360950797796249e-03,-1.980726607143878937e-02,-1.555259060114622116e-02,-1.872401684522628784e-02,-1.844419911503791809e-02,-2.527715265750885010e-02,7.109637372195720673e-04,1.392680872231721878e-02,-2.302921935915946960e-02,-6.052205935702659190e-05,-2.007033908739686012e-03,-7.485637441277503967e-03,2.290894091129302979e-02,-1.299912575632333755e-02,1.006264239549636841e-02,1.016570441424846649e-02
-9.420773945748806000e-03,6.276383996009826660e-03,1.653430238366127014e-02,-8.482576347887516022e-03,-1.756106130778789520e-02,-1.582887396216392517e-02,-2.492569619789719582e-03,-3.345473902300000191e-03,9.242636151611804962e-03,-3.603245830163359642e-03,4.568721167743206024e-03,-2.556698862463235855e-03,1.644725352525711060e-02,8.858428336679935455e-03,-2.502436190843582153e-02,1.519002020359039307e-02
-2.013194374740123749e-02,1.255612913519144058e-02,-1.751478388905525208e-02,-2.546305768191814423e-02,8.870034478604793549e-03,1.359468977898359299e-02,-1.601622998714447021e-02,-8.208163082599639893e-03,1.259206328541040421e-02,9.872889146208763123e-03,7.586556021124124527e-03,2.665743231773376465e-02,-1.750544831156730652e-02,1.762077026069164276e-02,4.244289826601743698e-03,2.155125141143798828e-02
2.136385627090930939e-02,1.443076133728027344e-02,4.138861317187547684e-03,-2.774531021714210510e-02,1.454998366534709930e-02,7.234658114612102509e-03,-1.441809698008000851e-03,2.609106339514255524e-02,1.626968942582607269e-02,-1.190500892698764801e-02,2.800466306507587433e-02,-7.610100321471691132e-03,4.185102880001068115e-03,-1.131018996238708496e-02,-2.584107406437397003e-02,9.884282015264034271e-03
2.283071354031562805e-02,5.638081952929496765e-02,2.334740012884140015e-03,1.371152605861425400e-02,1.594276912510395050e-02,1.968711428344249725e-02,-9.174398332834243774e-02,1.979426108300685883e-02,-4.775155708193778992e-02,1.751139946281909943e-02,3.704433096572756767e-03,-2.276439405977725983e-02,-5.108830984681844711e-03,2.601613849401473999e-02,-3.101765364408493042e-02,-5.639935284852981567e-02
1.684021763503551483e-02,5.404892563819885254e-02,8.937073498964309692e-02,-8.205507695674896240e-02,8.368340134620666504e-02,-2.277062647044658661e-02,-5.744259804487228394e-02,8.035870641469955444e-02,-6.621780991554260254e-02,-5.009292811155319214e-02,-6.067522242665290833e-02,3.982730209827423096e-02,4.901740327477455139e-02,4.899986088275909424e-02,-4.958808794617652893e-02,-3.583921119570732117e-02
2.499897405505180359e-02,8.412899076938629150e-02,1.935228854417800903e-01,-2.551981247961521149e-03,1.029188707470893860e-01,-1.307946294546127319e-01,-6.353768706321716309e-02,9.636052697896957397e-02,-6.210648268461227417e-02,2.627687528729438782e-03,-1.062500104308128357e-01,-2.275173924863338470e-02,1.047942489385604858e-01,-2.399602532386779785e-02,-4.810348525643348694e-02,1.584575697779655457e-02
2.392249414697289467e-03,2.794739305973052979e-01,3.310820162296295166e-01,5.762402713298797607e-02,6.765137612819671631e-02,-1.610117554664611816e-01,-2.315667420625686646e-01,5.392156541347503662e-02,-3.401813209056854248e-01,-1.161173284053802490e-01,-1.197156757116317749e-01,8.165194094181060791e-02,1.494683176279067993e-01,7.779466360807418823e-02,-1.977741718292236328e-01,1.445451378822326660e-01
-1.965990662574768066e-02,3.815470635890960693e-01,4.886420369148254395e-01,-1.327093690633773804e-01,4.146405681967735291e-02,-2.148123681545257568e-01,-2.806601524353027344e-01,4.504818096756935120e-02,-4.804058670997619629e-01,-1.928139775991439819e-01,-7.833871245384216309e-02,2.943021357059478760e-01,2.060018181800842285e-01,2.947871088981628418e-01,-3.344124257564544678e-01,9.730788320302963257e-02
-1.487198173999786377e-01,2.973857820034027100e-01,2.878134250640869141e-01,-2.292672246694564819e-01,1.239289417862892151e-01,-4.113683104515075684e-02,-3.866526782512664795e-01,2.102281004190444946e-01,-4.334402382373809814e-01,-1.478017866611480713e-01,-4.266843572258949280e-02,4.053898453712463379e-01,3.142952322959899902e-01,2.005655467510223389e-01,-2.129830569028854370e-01,1.396392136812210083e-01
-2.521700225770473480e-02,4.108192920684814453e-01,3.340745568275451660e-01,1.900040507316589355e-01,-6.201090663671493530e-02,6.188246607780456543e-02,-2.455261647701263428e-01,1.788734272122383118e-02,-1.547600626945495605e-01,-2.403958737850189209e-01,-4.185069352388381958e-02,4.465151429176330566e-01,9.570397436618804932e-02,7.435972988605499268e-02,-3.274601995944976807e-01,3.619028031826019287e-01
-2.748591266572475433e-02,7.316242456436157227e-01,4.722770452499389648e-01,5.107001662254333496e-01,-4.649447649717330933e-02,1.352795958518981934e-01,-1.271354109048843384e-01,-3.440240770578384399e-02,-1.677504181861877441e-01,-4.456478357315063477e-01,-1.931882202625274658e-01,3.459592759609222412e-01,1.090265512466430664e-01,2.114030420780181885e-01,-4.059612154960632324e-01,5.248510837554931641e-01
-1.637614965438842773e-01,2.511013746261596680e-01,4.358483254909515381e-01,4.605925679206848145e-01,2.664284706115722656e-01,-1.248389706015586853e-01,-3.211240768432617188e-01,-5.587986484169960022e-02,-2.154438197612762451e-01,-4.997621178627014160e-01,1.038454007357358932e-02,3.697934448719024658e-01,4.525392353534698486e-01,3.545593321323394775e-01,6.578537076711654663e-02,3.563725054264068604e-01
-3.324123919010162354e-01,7.653980255126953125e-01,3.813472986221313477e-01,4.103359580039978027e-01,2.800601422786712646e-01,-4.189006686210632324e-01,-1.884544342756271362e-01,-2.488745450973510742e-01,-4.218477904796600342e-01,-7.688379287719726562e-01,1.728336066007614136e-01,4.581477642059326172e-01,1.078349232673645020e+00,3.496164381504058838e-01,-8.956474810838699341e-02,5.693379640579223633e-01
-8.054065704345703125e-02,5.798475146293640137e-01,2.853015065193176270e-01,1.291843950748443604e-01,2.115261256694793701e-01,-1.269316673278808594e-01,2.466293126344680786e-01,-1.535226851701736450e-01,-6.999988853931427002e-02,-8.104121685028076172e-01,1.420761495828628540e-01,1.433809846639633179e-01,1.067428350448608398e+00,5.882705748081207275e-02,1.562111917883157730e-02,4.113250076770782471e-01
-5.326044932007789612e-02,4.085615277290344238e-01,2.654040753841400146e-01,-4.617434740066528320e-02,1.882370114326477051e-01,1.773401647806167603e-01,1.787485331296920776e-01,-6.985841691493988037e-02,-3.406351208686828613e-01,-4.604513049125671387e-01,6.299242377281188965e-01,2.440613210201263428e-01,7.962545156478881836e-01,5.230270326137542725e-02,2.767703831195831299e-01,1.780712157487869263e-01
-1.910050772130489349e-02,4.877329468727111816e-01,3.198622465133666992e-01,-3.534965217113494873e-01,2.231176197528839111e-01,-2.505245804786682129e-01,3.007191419601440430e-01,-1.028450652956962585e-01,-1.038914993405342102e-01,-4.898735880851745605e-01,6.445666551589965820e-01,2.596276998519897461e-01,7.441593408584594727e-01,-7.380379736423492432e-02,3.505373299121856689e-01,1.394382268190383911e-01
-1.268318621441721916e-03,7.518965005874633789e-01,4.194458127021789551e-01,-4.535721838474273682e-01,8.131234906613826752e-03,7.991633028723299503e-04,5.603872537612915039e-01,-2.786535024642944336e-01,3.195011317729949951e-01,-6.325321197509765625e-01,5.918416976928710938e-01,2.509787380695343018e-01,3.194431662559509277e-01,1.512641310691833496e-01,2.312911599874496460e-01,1.180823519825935364e-01
2.239155769348144531e-01,4.372263848781585693e-01,2.120452076196670532e-01,-4.454227983951568604e-01,-7.130563259124755859e-02,1.499135792255401611e-02,4.400903880596160889e-01,-2.176257669925689697e-01,4.160252213478088379e-01,-3.089784979820251465e-01,7.739782929420471191e-01,3.142114356160163879e-02,3.337851539254188538e-02,8.962525427341461182e-02,5.926496982574462891e-01,-1.600345224142074585e-01
2.193397432565689087e-01,5.087427496910095215e-01,3.040248751640319824e-01,-3.751139640808105469e-01,-6.131466850638389587e-02,3.562659621238708496e-01,2.186972647905349731e-01,-7.562015205621719360e-02,8.522455394268035889e-02,-2.702184319496154785e-01,6.954991817474365234e-01,2.943463921546936035e-01,-2.405413389205932617e-01,-2.524138242006301880e-02,2.996584214270114899e-02,-1.432320028543472290e-01
1.655016094446182251e-01,1.563480198383331299e-01,3.240240812301635742e-01,-2.277683615684509277e-01,4.256315901875495911e-02,-1.906623840332031250e-01,1.324168443679809570e-01,-3.738228604197502136e-02,1.648093014955520630e-01,-1.622260361909866333e-01,2.098101526498794556e-01,2.318738996982574463e-01,1.284207254648208618e-01,-2.687524259090423584e-01,2.680937945842742920e-01,-9.712527692317962646e-02
1.729147434234619141e-01,3.003343939781188965e-01,2.547325491905212402e-01,-7.474008202552795410e-02,-3.258657082915306091e-02,9.533419273793697357e-03,-8.953807502985000610e-02,-2.636759579181671143e-01,-1.761723905801773071e-01,1.447296291589736938e-01,3.770096600055694580e-01,2.091539055109024048e-01,1.679211854934692383e-01,-1.897449940443038940e-01,-9.639453887939453125e-02,-2.284608483314514160e-01
7.615040242671966553e-02,2.627415359020233154e-01,2.630705535411834717e-01,-2.092041261494159698e-02,-1.955921798944473267e-01,1.243653818964958191e-01,-1.150899827480316162e-01,-2.687871158123016357e-01,-3.297237753868103027e-01,1.330026686191558838e-01,3.071411550045013428e-01,2.326772511005401611e-01,-2.319942414760589600e-02,-7.867398113012313843e-02,-2.963360846042633057e-01,-4.547731578350067139e-02
2.277461141347885132e-01,3.818930089473724365e-01,2.856517732143402100e-01,-3.227784065529704094e-03,-2.426197081804275513e-01,-1.786364465951919556e-01,-1.185832545161247253e-01,-6.621841341257095337e-02,-3.477952182292938232e-01,8.814298361539840698e-02,7.857975363731384277e-02,1.655728667974472046e-01,6.730627734214067459e-03,-7.119102030992507935e-02,-1.846503168344497681e-01,-6.874546408653259277e-02
1.252952069044113159e-01,1.660486310720443726e-01,5.923064425587654114e-02,-1.693190820515155792e-02,-1.112613901495933533e-01,2.873055823147296906e-02,-3.276086598634719849e-02,4.925898462533950806e-02,-9.838847815990447998e-02,-9.295121580362319946e-02,5.034925043582916260e-02,1.859886497259140015e-01,4.669241607189178467e-02,-1.795382983982563019e-02,-1.156609132885932922e-01,-6.744367629289627075e-02
-5.561935156583786011e-02,-9.828915446996688843e-02,-1.014622598886489868e-01,-5.575601477175951004e-03,-2.917662262916564941e-02,9.106606990098953247e-02,-3.755093738436698914e-02,-2.749894559383392334e-02,7.205778360366821289e-02,-2.879388071596622467e-02,6.529162824153900146e-02,1.390294916927814484e-02,-2.360786683857440948e-02,-6.705612409859895706e-03,-5.444530397653579712e-02,1.455214433372020721e-02
3.699574992060661316e-02,2.017189748585224152e-03,3.665588097646832466e-03,2.068611606955528259e-02,-1.422430039383471012e-03,5.679993703961372375e-02,-3.150671347975730896e-02,-3.435571910813450813e-03,1.991300284862518311e-02,-3.819558396935462952e-02,6.524628400802612305e-02,-6.110388413071632385e-02,-2.534783259034156799e-02,1.805504783987998962e-02,-3.238037973642349243e-02,1.594422757625579834e-02
8.450608002021908760e-04,9.429051540791988373e-03,4.580408800393342972e-03,2.462204173207283020e-02,2.151329629123210907e-02,-9.167008101940155029e-03,6.771363317966461182e-03,2.562331780791282654e-02,-1.164578087627887726e-02,2.547172456979751587e-02,1.874637673608958721e-04,2.591262757778167725e-02,2.371284179389476776e-02,1.771454699337482452e-02,1.267133280634880066e-02,-1.988720707595348358e-02
2.134903520345687866e-02,-6.898817140609025955e-03,2.454288490116596222e-02,9.599964134395122528e-03,1.125042699277400970e-02,1.926629245281219482e-02,6.006680428981781006e-03,1.817173510789871216e-02,-1.081764139235019684e-02,2.277773618698120117e-02,1.959115639328956604e-02,-2.081779390573501587e-02,-1.997974514961242676e-02,-2.590301260352134705e-02,6.698920857161283493e-03,-2.536603622138500214e-02
-3.903531935065984726e-03,-2.821665024384856224e-03,-3.159899497404694557e-03,-8.122653700411319733e-03,-1.935340277850627899e-02,1.310185622423887253e-02,1.256086211651563644e-02,8.054869249463081360e-03,1.131356507539749146e-02,8.498342358507215977e-04,-8.098014630377292633e-03,-4.916664678603410721e-03,4.950335714966058731e-03,-1.540668960660696030e-02,1.427638577297329903e-03,4.402464721351861954e-03
5.533438175916671753e-03,-6.487128790467977524e-03,2.365947701036930084e-02,-1.033992040902376175e-02,2.507736161351203918e-02,-2.595978416502475739e-02,6.672278791666030884e-02,-3.443602100014686584e-02,5.273674614727497101e-03,1.866434700787067413e-02,-5.092836543917655945e-02,-1.704344991594552994e-03,6.707136984914541245e-03,8.823850192129611969e-03,3.111597150564193726e-02,5.958119407296180725e-02
-2.478079404681921005e-03,2.015951462090015411e-02,1.255138311535120010e-02,-1.209929212927818298e-02,1.837329193949699402e-02,-7.583208382129669189e-03,8.345907554030418396e-03,1.308356132358312607e-02,3.997158631682395935e-02,-2.035383693873882294e-02,-1.280578598380088806e-02,-8.956266683526337147e-04,5.838473327457904816e-03,1.858927123248577118e-02,2.053184993565082550e-02,3.388340771198272705e-02
2.602382935583591461e-02,1.134246140718460083e-01,8.542096614837646484e-02,-2.499284967780113220e-02,-9.105672128498554230e-03,-1.018168926239013672e-01,-1.136960163712501526e-01,5.733004957437515259e-02,-9.065047651529312134e-02,-1.558545045554637909e-02,-1.703848945908248425e-03,5.133852362632751465e-02,6.026698276400566101e-02,1.314537525177001953e-01,-1.718819327652454376e-02,5.164824053645133972e-02
4.195138439536094666e-02,2.407014928758144379e-02,2.663808465003967285e-01,-1.795389205217361450e-01,1.352940350770950317e-01,-6.260615307837724686e-03,-1.071498915553092957e-02,1.612231880426406860e-01,-1.377796530723571777e-01,-1.166193559765815735e-01,-1.841055303812026978e-01,7.906180620193481445e-02,1.974295526742935181e-01,2.784035503864288330e-01,-5.765624810010194778e-04,5.771309137344360352e-02
-5.641649663448333740e-02,1.788119971752166748e-01,2.151951938867568970e-01,4.984989645890891552e-04,1.154838576912879944e-01,1.092900708317756653e-02,1.144326385110616684e-02,1.302980631589889526e-01,-2.143144309520721436e-01,-4.170578345656394958e-02,-2.283272743225097656e-01,1.743407994508743286e-01,1.663326919078826904e-01,1.636369824409484863e-01,-1.272682994604110718e-01,2.457943111658096313e-01
-1.787279844284057617e-01,3.771480321884155273e-01,3.839512467384338379e-01,1.511816680431365967e-01,1.872479319572448730e-01,-1.769890487194061279e-01,3.882988914847373962e-02,2.773283123970031738e-01,-1.818068325519561768e-01,-5.643524229526519775e-03,-1.822083443403244019e-01,4.723383858799934387e-02,2.310113608837127686e-01,2.332743704319000244e-01,-2.466815859079360962e-01,4.923009574413299561e-01
-3.020958900451660156e-01,5.186126232147216797e-01,8.472397327423095703e-01,1.724055260419845581e-01,2.286753654479980469e-01,-1.251050382852554321e-01,-4.645251110196113586e-02,3.627986088395118713e-02,-4.639535248279571533e-01,-9.456593543291091919e-02,-3.580451309680938721e-01,2.221511453390121460e-01,2.671297192573547363e-01,2.897235155105590820e-01,2.017403990030288696e-01,6.990091204643249512e-01
-3.098876774311065674e-01,7.018413543701171875e-01,7.295445799827575684e-01,4.055014848709106445e-01,2.920083701610565186e-01,1.323637664318084717e-01,-3.750615715980529785e-01,2.562488019466400146e-01,-3.873884081840515137e-01,-2.844231761991977692e-02,-1.304027140140533447e-01,4.622251689434051514e-01,5.034025907516479492e-01,-1.416699439287185669e-01,1.615472882986068726e-01,8.499516844749450684e-01
-3.208703398704528809e-01,6.556442379951477051e-01,1.122725009918212891e+00,2.150218188762664795e-01,3.215292096138000488e-01,1.922612488269805908e-01,-1.494870483875274658e-01,7.710474729537963867e-02,-3.680298626422882080e-01,-7.983312755823135376e-02,-9.601526707410812378e-02,3.929046392440795898e-01,3.597412109375000000e-01,-1.004534512758255005e-01,3.602880835533142090e-01,6.561821699142456055e-01
-1.681066155433654785e-01,6.495614647865295410e-01,3.477683365345001221e-01,5.969275832176208496e-01,3.370332419872283936e-01,-3.900291621685028076e-01,1.824662238359451294e-01,-2.979955077171325684e-02,1.313110291957855225e-01,-1.966561228036880493e-01,4.904461279511451721e-02,3.071175217628479004e-01,4.437167346477508545e-01,-1.363799124956130981e-01,3.233486711978912354e-01,6.885702013969421387e-01
-1.440087258815765381e-01,4.113647639751434326e-01,4.282872974872589111e-01,5.700235366821289062e-01,7.643044739961624146e-02,3.170458078384399414e-01,7.924271747469902039e-03,-1.903600245714187622e-01,2.501623034477233887e-01,-1.580104045569896698e-02,9.440503269433975220e-02,2.141705900430679321e-01,7.824713587760925293e-01,-2.916491962969303131e-02,4.986739158630371094e-01,7.239193320274353027e-01
-1.179899871349334717e-01,3.726115226745605469e-01,3.365191221237182617e-01,3.798018693923950195e-01,5.180104449391365051e-02,2.705464661121368408e-01,-2.585615217685699463e-01,1.300712395459413528e-02,1.663841009140014648e-01,4.216127470135688782e-02,2.341810911893844604e-01,1.224903836846351624e-01,1.028862237930297852e+00,-1.353134661912918091e-01,5.927242636680603027e-01,4.753339290618896484e-01
-5.969165638089179993e-02,6.254302859306335449e-01,5.537651181221008301e-01,3.462427258491516113e-01,-2.817273437976837158e-01,-5.583094805479049683e-02,-9.079252928495407104e-02,-2.983984351158142090e-01,-2.512401640415191650e-01,-1.334201693534851074e-01,2.185402661561965942e-01,-2.318844050168991089e-01,3.533436357975006104e-01,1.274480670690536499e-01,5.483518242835998535e-01,4.619766473770141602e-01
7.631471008062362671e-02,3.100329339504241943e-01,-1.927165538072586060e-01,-2.720006406307220459e-01,4.746182560920715332e-01,9.768860787153244019e-02,1.920070052146911621e-01,-3.149849772453308105e-01,9.875247627496719360e-02,9.859925508499145508e-02,4.999186396598815918e-01,-2.999342978000640869e-01,6.422415971755981445e-01,-3.788156211376190186e-01,4.851817786693572998e-01,4.219259023666381836e-01
-1.594284176826477051e-01,3.983000814914703369e-01,4.759013354778289795e-01,-1.887954771518707275e-01,1.545019596815109253e-01,2.176382020115852356e-02,4.690565764904022217e-01,-3.315366506576538086e-01,2.875736542046070099e-02,2.410891205072402954e-01,1.006806015968322754e+00,-3.354186415672302246e-01,6.126350164413452148e-01,-3.098619878292083740e-01,4.831286668777465820e-01,4.958395957946777344e-01
1.349561009556055069e-02,6.299133896827697754e-01,2.950364947319030762e-01,3.318500518798828125e-01,-1.392688006162643433e-01,-8.308813720941543579e-02,7.514876723289489746e-01,-3.049653470516204834e-01,4.337961971759796143e-01,2.449447214603424072e-01,1.035114526748657227e+00,-2.568022906780242920e-01,2.727059423923492432e-01,-2.677421867847442627e-01,3.240815401077270508e-01,1.593873952515423298e-03
-1.485127210617065430e-01,2.783254384994506836e-01,-1.151267215609550476e-01,2.525845170021057129e-01,8.445493876934051514e-02,1.277027875185012817e-01,3.052051067352294922e-01,-1.352943032979965210e-01,2.999577820301055908e-01,2.548155374825000763e-03,9.120019078254699707e-01,2.149284631013870239e-01,3.041289746761322021e-01,-3.773736059665679932e-01,5.387608408927917480e-01,4.581855610013008118e-02
7.672910392284393311e-02,3.734593093395233154e-01,3.039174079895019531e-01,3.254775889217853546e-03,-3.301043063402175903e-02,-1.709203571081161499e-01,7.453653812408447266e-01,-4.615151882171630859e-02,2.647686004638671875e-01,1.256937831640243530e-01,7.485702633857727051e-01,1.606496274471282959e-01,4.327808320522308350e-01,-3.137600719928741455e-01,2.158735990524291992e-01,1.412640511989593506e-02
1.737796217203140259e-01,8.190943300724029541e-02,3.271872103214263916e-01,2.612015306949615479e-01,-1.616388857364654541e-01,1.509500667452812195e-02,7.036046981811523438e-01,-1.245428323745727539e-01,3.938798904418945312e-01,1.460078060626983643e-01,6.019184589385986328e-01,-1.689505577087402344e-01,1.818516701459884644e-01,-1.725669801235198975e-01,-2.289105206727981567e-02,-3.148832172155380249e-02
2.859613895416259766e-01,1.400315761566162109e-02,3.771845996379852295e-01,2.347528189420700073e-01,2.090140432119369507e-01,-1.485995501279830933e-01,4.650746881961822510e-01,2.135932818055152893e-02,2.298246622085571289e-01,-1.411981415003538132e-02,5.113394260406494141e-01,-2.068973779678344727e-01,1.770063638687133789e-01,-3.049377799034118652e-01,1.574571803212165833e-02,-2.794938981533050537e-01
4.304922223091125488e-01,-4.510154202580451965e-02,2.563524059951305389e-03,1.343391239643096924e-01,7.338964939117431641e-02,-2.575918100774288177e-02,4.527880847454071045e-01,-1.923039406538009644e-01,4.221597611904144287e-01,6.696616858243942261e-02,6.816288083791732788e-02,-4.325249195098876953e-01,7.798523455858230591e-02,-3.338863849639892578e-01,-1.838436126708984375e-01,-7.256337255239486694e-02
6.887177228927612305e-01,-1.356544345617294312e-01,-2.728349566459655762e-01,1.781902611255645752e-01,2.209541201591491699e-02,1.807537525892257690e-01,-8.638834953308105469e-02,-6.007731705904006958e-02,8.187939971685409546e-02,2.171081155538558960e-01,2.885242700576782227e-01,-1.899030655622482300e-01,-7.285514380782842636e-03,-2.452822476625442505e-01,-4.079370498657226562e-01,-3.502788841724395752e-01
1.350362002849578857e-01,-2.339212745428085327e-01,-4.272788017988204956e-02,1.753578335046768188e-01,-4.139973223209381104e-02,2.224896103143692017e-01,-2.753378748893737793e-01,1.688946187496185303e-01,2.444252818822860718e-01,1.540190428495407104e-01,2.870555520057678223e-01,-1.516694128513336182e-01,-2.002887278795242310e-01,-9.301282465457916260e-02,5.349427461624145508e-02,-9.542390704154968262e-02
-1.037862077355384827e-01,-5.417330935597419739e-02,2.673816308379173279e-02,1.722874306142330170e-02,1.226437687873840332e-01,1.668728291988372803e-01,-2.143869400024414062e-01,-1.418341696262359619e-02,2.349443286657333374e-01,1.400049477815628052e-01,8.527527004480361938e-02,-2.620284259319305420e-01,-1.400846391916275024e-01,2.653485909104347229e-02,-2.087143808603286743e-02,3.017743490636348724e-02
-7.651640474796295166e-02,1.634500026702880859e-01,5.373777449131011963e-02,-5.744785815477371216e-02,-2.182486496167257428e-04,-4.625720158219337463e-02,-1.180283054709434509e-01,-5.499419197440147400e-02,1.285238831769675016e-04,-3.073155321180820465e-02,1.354238837957382202e-01,-9.591276943683624268e-02,-6.036463007330894470e-02,3.594367206096649170e-02,5.710892751812934875e-02,2.473546657711267471e-03
2.567592449486255646e-02,5.733992159366607666e-02,3.603424876928329468e-02,-5.456379149109125137e-04,-9.723233059048652649e-03,-1.971661671996116638e-02,-5.481069535017013550e-02,1.454716455191373825e-02,4.075900837779045105e-02,-5.642570182681083679e-02,1.758848503232002258e-02,-2.496721409261226654e-02,1.481507066637277603e-02,9.731078520417213440e-03,1.499293837696313858e-02,-7.484351098537445068e-02
-4.996945150196552277e-03,-2.606522850692272186e-02,1.488208957016468048e-02,1.976840756833553314e-02,8.582428097724914551e-03,-4.188008140772581100e-03,-2.844942966476082802e-03,-1.638201996684074402e-02,-7.229105103760957718e-03,9.239489445462822914e-04,-9.186177514493465424e-03,-1.181534957140684128e-03,2.048895694315433502e-02,-3.647023346275091171e-03,-2.724366495385766029e-03,9.093224070966243744e-03
-1.946380548179149628e-02,-2.106443047523498535e-02,9.140737354755401611e-03,-7.787960115820169449e-03,1.116574462503194809e-02,8.391266688704490662e-03,-1.797393709421157837e-02,-3.593055764213204384e-03,2.538223192095756531e-02,-3.701131558045744896e-03,-2.044216729700565338e-02,-2.588924393057823181e-02,-1.246743090450763702e-02,1.413034554570913315e-02,-5.324311205185949802e-04,-1.132976380176842213e-03
1.600585877895355225e-02,1.145529653877019882e-02,1.076990552246570587e-02,-6.042873137630522251e-04,1.269632205367088318e-02,-4.151702672243118286e-02,-6.390525493770837784e-03,-1.971783116459846497e-02,-5.622867494821548462e-03,1.567865163087844849e-02,-3.287175297737121582e-02,4.823556169867515564e-03,2.960789017379283905e-02,2.461745031177997589e-02,-4.148402251303195953e-03,2.747749350965023041e-02
-3.061755374073982239e-02,-3.531211987137794495e-02,7.247506827116012573e-02,-7.202266156673431396e-02,4.825615137815475464e-02,3.724300302565097809e-03,2.655849605798721313e-02,4.174399003386497498e-02,2.152370475232601166e-02,-5.791486427187919617e-02,-5.689314007759094238e-02,1.331787090748548508e-02,-3.944623097777366638e-02,6.433027237653732300e-02,6.599596142768859863e-02,4.140779376029968262e-02
-6.688433885574340820e-02,1.026792302727699280e-01,2.808759510517120361e-01,-1.264532357454299927e-01,7.646047323942184448e-02,-1.599682271480560303e-01,-2.173914462327957153e-01,1.200762484222650528e-02,-2.780756056308746338e-01,-5.896003544330596924e-02,-8.612265437841415405e-02,7.327974587678909302e-02,1.987983137369155884e-01,3.358962535858154297e-01,-5.113550275564193726e-02,-4.247680306434631348e-02
3.855318948626518250e-02,-3.227066695690155029e-01,2.100927941501140594e-02,-2.228172570466995239e-01,2.609637379646301270e-01,5.777198076248168945e-02,8.489633351564407349e-02,1.997422873973846436e-01,-5.065417662262916565e-02,-6.658825278282165527e-02,-1.659340858459472656e-01,2.536828070878982544e-02,3.093802928924560547e-01,4.319784641265869141e-01,9.892705827951431274e-02,-1.051641479134559631e-01
1.394623368978500366e-01,2.224226854741573334e-02,4.419375956058502197e-02,1.332528144121170044e-01,1.652068942785263062e-01,-8.871918916702270508e-02,1.137680038809776306e-01,-9.773293137550354004e-02,1.750718057155609131e-01,-9.848570451140403748e-03,-3.190751373767852783e-01,-7.438547909259796143e-02,2.529163062572479248e-01,2.075169384479522705e-01,1.931434124708175659e-01,9.869015216827392578e-02
5.016379058361053467e-02,2.318153232336044312e-01,5.296487808227539062e-01,4.350604712963104248e-01,3.365268707275390625e-01,-1.770288348197937012e-01,-8.875431120395660400e-02,-5.671498831361532211e-03,1.803081780672073364e-01,-3.690709173679351807e-01,-1.895775347948074341e-01,-1.046344861388206482e-01,4.628534242510795593e-02,3.936311602592468262e-01,2.564717233180999756e-01,1.785268932580947876e-01
3.218011185526847839e-02,1.177108585834503174e-01,2.143632173538208008e-01,2.008331120014190674e-01,-7.388088386505842209e-03,-2.086034864187240601e-01,-7.027522474527359009e-02,-3.152888417243957520e-01,7.568402886390686035e-01,-1.125657632946968079e-01,-4.257372021675109863e-01,1.856587640941143036e-02,6.327105760574340820e-01,4.826615154743194580e-01,6.005712226033210754e-02,3.441855609416961670e-01
7.098433375358581543e-02,-9.540618956089019775e-02,3.484816849231719971e-02,3.830500543117523193e-01,-1.445179283618927002e-01,-2.224793098866939545e-02,-2.842501699924468994e-01,-2.360068857669830322e-01,3.872671425342559814e-01,3.420648276805877686e-01,-1.077398508787155151e-01,6.690875440835952759e-02,5.272281765937805176e-01,-4.456206038594245911e-02,9.250992536544799805e-02,2.566758990287780762e-01
-7.465572655200958252e-02,3.282245397567749023e-01,-8.859215304255485535e-04,5.262197852134704590e-01,2.387219816446304321e-01,2.001571208238601685e-01,2.808090448379516602e-01,-2.957849502563476562e-01,4.893060773611068726e-02,-3.259246647357940674e-01,1.028863638639450073e-01,3.604245930910110474e-02,3.243927657604217529e-01,-2.680174261331558228e-02,-2.452246099710464478e-01,4.261563718318939209e-01
-3.887949585914611816e-01,4.136320352554321289e-01,-1.661048978567123413e-01,4.929604530334472656e-01,2.567433416843414307e-01,-3.431700468063354492e-01,2.183377183973789215e-02,-8.646615780889987946e-03,6.890918016433715820e-01,3.574204742908477783e-01,-1.127770021557807922e-01,-4.332219958305358887e-01,-9.496010094881057739e-02,-9.703005105257034302e-02,1.108073517680168152e-01,2.879897356033325195e-01
-1.118663139641284943e-02,8.028969168663024902e-02,5.489878654479980469e-01,8.042149990797042847e-02,3.281597420573234558e-02,-8.505850285291671753e-02,-2.857159823179244995e-02,-2.879226803779602051e-01,2.573681175708770752e-01,5.646194815635681152e-01,-1.663260906934738159e-01,-5.106297507882118225e-02,1.693002581596374512e-01,-2.697941958904266357e-01,4.492327943444252014e-02,7.452766597270965576e-02
-1.324713826179504395e-01,3.891721963882446289e-01,-1.575175821781158447e-01,-5.342193841934204102e-01,1.501404494047164917e-01,-4.743782803416252136e-02,-5.360537171363830566e-01,1.217128038406372070e-01,-2.766380906105041504e-01,3.055581636726856232e-02,8.471111208200454712e-02,-6.039309501647949219e-02,2.497743219137191772e-01,-1.418130844831466675e-01,9.798421710729598999e-02,2.535781264305114746e-01
2.389132082462310791e-01,2.616393864154815674e-01,3.528192639350891113e-01,-1.661490350961685181e-01,-1.278128027915954590e-01,4.842005297541618347e-02,-3.270386457443237305e-01,-5.838391929864883423e-02,-2.062390744686126709e-02,-8.129829913377761841e-02,-8.943837136030197144e-02,9.160310961306095123e-03,2.655252814292907715e-01,-5.307232141494750977e-01,1.237392947077751160e-01,3.773696422576904297e-01
3.128355741500854492e-01,1.078558862209320068e-01,2.425702661275863647e-01,-2.140754461288452148e-01,5.652856454253196716e-02,-1.279334444552659988e-02,-3.660699725151062012e-01,1.081612184643745422e-01,-3.219095170497894287e-01,1.509392112493515015e-01,-2.145209312438964844e-01,2.171412408351898193e-01,-3.843661025166511536e-02,-1.687496006488800049e-01,8.016364276409149170e-02,3.181904256343841553e-01
-9.117135405540466309e-02,1.211421191692352295e-01,5.295339822769165039e-01,8.526134490966796875e-02,1.425662934780120850e-01,2.191700488328933716e-01,-1.647852361202239990e-01,1.315545737743377686e-01,-2.203122712671756744e-02,-1.873833090066909790e-01,1.167973428964614868e-01,4.676284268498420715e-02,5.921000242233276367e-02,4.891470074653625488e-02,-3.757901722565293312e-03,4.568962156772613525e-01
5.840695500373840332e-01,-7.171526551246643066e-02,2.241844981908798218e-01,4.844104871153831482e-02,-4.137445613741874695e-02,1.046130433678627014e-01,3.177192509174346924e-01,-1.588520407676696777e-01,1.166407763957977295e-02,-2.807806013152003288e-04,3.904456496238708496e-01,8.790698647499084473e-02,-4.973359405994415283e-02,-1.475033760070800781e-01,-1.569370031356811523e-01,7.171686738729476929e-02
2.152161002159118652e-01,3.123869597911834717e-01,-1.569967865943908691e-01,1.995328217744827271e-01,-1.375359296798706055e-01,3.107492625713348389e-01,7.991139888763427734e-01,2.397100627422332764e-01,5.326563864946365356e-02,-2.755896151065826416e-01,4.957485198974609375e-01,-2.071562707424163818e-01,-2.433137744665145874e-01,-4.664208889007568359e-01,1.648150533437728882e-01,4.050664901733398438e-01
1.957123279571533203e-01,7.512723207473754883e-01,5.632606148719787598e-01,7.496575266122817993e-02,2.419803589582443237e-01,2.085764110088348389e-01,8.008142113685607910e-01,1.367657333612442017e-01,-2.485015392303466797e-01,-1.701164841651916504e-01,5.300145745277404785e-01,-4.703049659729003906e-01,3.522737324237823486e-01,-2.040606886148452759e-01,3.915484845638275146e-01,1.456583887338638306e-01
6.261779367923736572e-02,7.530495524406433105e-01,5.583144426345825195e-01,-8.269067853689193726e-02,1.044918075203895569e-01,4.748214185237884521e-01,3.340287804603576660e-01,3.172036632895469666e-02,1.431087255477905273e-01,1.807330697774887085e-01,9.170908927917480469e-01,-5.705139636993408203e-01,1.961288154125213623e-01,-3.840627968311309814e-01,4.287532269954681396e-01,-1.636904664337635040e-02
2.620111405849456787e-02,3.684324771165847778e-02,2.919108867645263672e-01,8.387099951505661011e-02,1.469034999608993530e-01,3.950465619564056396e-01,1.625182628631591797e-01,-5.768269672989845276e-02,-2.417233884334564209e-01,2.012035250663757324e-01,8.793890476226806641e-01,-2.496328502893447876e-01,-3.353536128997802734e-02,-5.660232156515121460e-02,-1.679307967424392700e-01,1.748242825269699097e-01
-2.369817160069942474e-02,-5.752385854721069336e-01,-3.840702027082443237e-02,1.242687627673149109e-01,1.386772394180297852e-01,3.754469156265258789e-01,3.998028039932250977e-01,-1.490344852209091187e-01,-1.287757605314254761e-01,3.402054011821746826e-01,5.774041414260864258e-01,-3.087916076183319092e-01,3.392873331904411316e-02,-1.789225041866302490e-01,1.014341488480567932e-01,2.231723070144653320e-01
3.104298412799835205e-01,-3.756790459156036377e-01,2.473329752683639526e-01,-1.290560066699981689e-01,2.411544770002365112e-01,2.892110943794250488e-01,3.959351778030395508e-01,-4.614223539829254150e-01,-2.933500409126281738e-01,2.454358339309692383e-02,4.040293693542480469e-01,-2.695726752281188965e-01,2.429603785276412964e-01,-1.910824179649353027e-01,-2.286923527717590332e-01,-3.248686790466308594e-01
4.224035739898681641e-01,-1.415165364742279053e-01,2.007059156894683838e-01,3.306471975520253181e-03,1.812747865915298462e-01,1.372170746326446533e-01,-3.566288948059082031e-02,-1.313618123531341553e-01,-3.420145437121391296e-02,3.213622793555259705e-02,3.504061996936798096e-01,-1.959001831710338593e-02,1.560253053903579712e-01,-4.125816002488136292e-02,9.999623522162437439e-03,-3.725595772266387939e-01
-4.365175217390060425e-02,1.223075613379478455e-01,1.662099063396453857e-01,5.582254379987716675e-02,1.323956847190856934e-01,2.601904571056365967e-01,-3.683734536170959473e-01,-5.809437483549118042e-02,1.768309921026229858e-01,1.623598188161849976e-01,2.708275616168975830e-01,-2.280629426240921021e-01,2.556717023253440857e-02,6.902951002120971680e-02,-2.118880115449428558e-02,6.699641793966293335e-02
4.868718981742858887e-02,1.429719030857086182e-01,1.226361170411109924e-01,2.027403935790061951e-02,-1.633808575570583344e-02,3.273866698145866394e-02,-6.953262537717819214e-02,1.664827577769756317e-02,3.218878805637359619e-02,-9.850502759218215942e-02,8.172470331192016602e-02,-1.006560847163200378e-01,-4.137943033128976822e-03,5.385378748178482056e-02,8.421316742897033691e-02,-4.647834226489067078e-02
8.071608841419219971e-02,5.419528856873512268e-02,7.107941806316375732e-02,3.451862186193466187e-02,1.138011552393436432e-02,2.445673383772373199e-02,-7.748199254274368286e-02,-8.952626027166843414e-03,2.506157569587230682e-02,-3.699464723467826843e-02,2.065724134445190430e-02,-3.412132710218429565e-02,1.930224825628101826e-03,-1.112727541476488113e-02,6.697822245769202709e-04,-5.780814588069915771e-02
-6.320941727608442307e-03,1.108284480869770050e-02,1.201531291007995605e-02,6.175207905471324921e-03,-1.971841417253017426e-02,-1.244650594890117645e-02,-2.143012732267379761e-02,-4.999116528779268265e-03,-7.051443681120872498e-03,2.339518815279006958e-02,2.549421787261962891e-02,1.069574151188135147e-03,-2.496615052223205566e-02,5.768080009147524834e-04,-2.295028045773506165e-02,1.187073905020952225e-02
1.341476850211620331e-02,8.288131095468997955e-03,-3.690304234623908997e-03,1.957521215081214905e-02,7.589913904666900635e-03,-1.413124054670333862e-02,2.637238055467605591e-02,-7.184554357081651688e-03,-9.182610549032688141e-03,1.964085502550005913e-03,1.797683537006378174e-02,1.051722373813390732e-02,-1.132555771619081497e-02,2.078964561223983765e-02,1.146711874753236771e-02,1.211383193731307983e-02
5.429221317172050476e-02,2.694869786500930786e-02,-3.360756486654281616e-02,2.334082871675491333e-02,-8.387853205204010010e-02,-8.269488811492919922e-03,1.713909325189888477e-03,-1.014638878405094147e-02,1.188468784093856812e-01,-2.157711051404476166e-02,-4.471237584948539734e-02,-4.408885911107063293e-02,2.153552137315273285e-02,-4.680191352963447571e-02,1.559448149055242538e-02,-2.870038338005542755e-02
-4.842256009578704834e-02,-1.717509478330612183e-01,6.512758135795593262e-02,-1.825815141201019287e-01,-3.421973809599876404e-02,-5.507312715053558350e-02,9.421359747648239136e-02,2.110436372458934784e-02,2.536174058914184570e-01,-8.663077652454376221e-02,-1.825646907091140747e-01,-1.294589787721633911e-02,5.046043172478675842e-02,2.185370326042175293e-01,1.454488635063171387e-01,8.159616589546203613e-02
6.190313491970300674e-03,1.981525123119354248e-02,3.486905694007873535e-01,-1.491025984287261963e-01,-7.248012721538543701e-02,-1.248047575354576111e-01,-1.720046699047088623e-01,5.226204916834831238e-02,-1.374904960393905640e-01,2.442912384867668152e-02,-1.954270303249359131e-01,1.311294827610254288e-02,2.268425971269607544e-01,3.995537757873535156e-01,-2.124402299523353577e-02,4.927165340632200241e-03
3.865275681018829346e-01,-5.259889364242553711e-01,2.741813957691192627e-01,-3.125392645597457886e-02,3.263496235013008118e-02,-3.366217911243438721e-01,1.083254143595695496e-01,2.378591150045394897e-01,5.088143348693847656e-01,-6.597486883401870728e-02,-2.175667732954025269e-01,5.104565620422363281e-02,6.691514253616333008e-01,1.876858174800872803e-01,1.017436012625694275e-02,3.463421761989593506e-02
3.143724203109741211e-01,-1.118886321783065796e-01,8.527561277151107788e-02,1.840845644474029541e-01,1.447719037532806396e-01,-3.176904916763305664e-01,3.793393969535827637e-01,1.743913255631923676e-02,1.807674020528793335e-01,-1.187523305416107178e-01,-5.017272830009460449e-01,2.335492968559265137e-01,-9.445614367723464966e-02,3.350518941879272461e-01,-1.942400634288787842e-01,1.842774599790573120e-01
1.947353780269622803e-01,2.831199169158935547e-01,2.799914479255676270e-01,3.352492749691009521e-01,-9.955230355262756348e-02,-2.261467128992080688e-01,1.794383376836776733e-01,4.546176269650459290e-02,2.102951854467391968e-01,-1.559516191482543945e-01,-4.989490658044815063e-02,3.698654100298881531e-02,-1.910212188959121704e-01,1.715363413095474243e-01,-1.170325502753257751e-01,9.632634371519088745e-02
-1.981763634830713272e-04,-1.743148565292358398e-01,1.671841740608215332e-02,1.969832181930541992e-01,-3.401412442326545715e-02,-4.581719934940338135e-01,-3.159203007817268372e-02,1.660149991512298584e-01,8.430988788604736328e-01,1.418502628803253174e-01,5.262992903590202332e-02,-2.842457890510559082e-01,1.521571427583694458e-01,-4.728715494275093079e-02,4.760469123721122742e-02,1.551828235387802124e-01
-2.175019383430480957e-01,-5.397542715072631836e-01,1.534277647733688354e-01,1.929302513599395752e-01,2.190703153610229492e-01,-1.840831935405731201e-01,1.757347285747528076e-01,-6.908067315816879272e-02,5.642274022102355957e-01,-3.929779306054115295e-02,-1.229234412312507629e-01,-1.543303132057189941e-01,-2.512426376342773438e-01,3.593200743198394775e-01,6.504375487565994263e-02,3.129634261131286621e-01
-2.065932601690292358e-01,-2.976860404014587402e-01,-2.095472961664199829e-01,-2.407861948013305664e-01,3.180236220359802246e-01,-4.554040729999542236e-01,-3.417573869228363037e-02,-2.698945999145507812e-01,6.576036661863327026e-02,-4.609376192092895508e-01,6.060292571783065796e-02,1.569597236812114716e-02,-6.636026501655578613e-01,-1.020535081624984741e-01,2.588865458965301514e-01,3.402387797832489014e-01
-1.210160031914710999e-01,9.920143336057662964e-02,-3.424142301082611084e-01,2.219530493021011353e-01,2.219834923744201660e-01,1.990433409810066223e-02,-3.260181546211242676e-01,-6.025847792625427246e-02,4.079881310462951660e-02,1.789481639862060547e-01,-2.251204103231430054e-01,3.376137614250183105e-01,-1.858066618442535400e-01,2.026270329952239990e-02,1.616907864809036255e-01,2.735802233219146729e-01
-8.999656885862350464e-02,-3.412340879440307617e-01,-1.246159374713897705e-01,1.979151964187622070e-01,-7.000786717981100082e-03,-1.820562332868576050e-01,8.145573735237121582e-02,-2.498919842764735222e-03,9.562645852565765381e-02,4.252133369445800781e-01,2.423518449068069458e-01,-7.786300182342529297e-01,-2.771329134702682495e-02,1.441445201635360718e-01,-1.130647584795951843e-01,2.034712433815002441e-01
-6.167270988225936890e-02,-8.470964431762695312e-02,1.611245051026344299e-02,-5.279784202575683594e-01,2.425481081008911133e-01,-2.473441809415817261e-01,-8.979675918817520142e-02,-1.230724826455116272e-01,1.148837152868509293e-02,-4.416628181934356689e-02,-1.392398178577423096e-01,-5.217618942260742188e-01,1.151884943246841431e-01,-1.886297613382339478e-01,-1.731447130441665649e-01,3.492077589035034180e-01
9.410325437784194946e-03,8.596935868263244629e-02,-2.242118567228317261e-01,-4.791590869426727295e-01,2.591550583019852638e-04,1.220666691660881042e-01,-9.650644659996032715e-01,-1.508039087057113647e-01,1.688543707132339478e-01,-2.208363860845565796e-01,3.548328205943107605e-02,-6.075285747647285461e-02,-1.172055751085281372e-01,-2.810564124956727028e-03,6.068294495344161987e-02,2.193464785814285278e-01
1.209001019597053528e-01,3.231860697269439697e-02,-7.446216791868209839e-02,-1.770565807819366455e-01,2.490494772791862488e-02,2.345915436744689941e-01,-7.313706874847412109e-01,-2.010210305452346802e-01,1.437003761529922485e-01,-2.556174099445343018e-01,9.083469957113265991e-02,-3.606090694665908813e-02,-3.833045065402984619e-02,-1.158027425408363342e-01,7.280234992504119873e-02,3.806763589382171631e-01
1.144697219133377075e-01,4.249173700809478760e-01,-4.859853535890579224e-02,-1.924098283052444458e-01,6.778529286384582520e-02,8.599694818258285522e-02,1.820266246795654297e-01,-3.069134429097175598e-02,-1.713210530579090118e-02,1.154196783900260925e-01,-1.744866520166397095e-01,1.849929988384246826e-01,-3.169638514518737793e-01,-1.645700037479400635e-01,3.373951315879821777e-01,3.210706710815429688e-01
3.129359185695648193e-01,1.940148770809173584e-01,3.400824591517448425e-02,2.810550620779395103e-03,5.828683450818061829e-02,-1.568220257759094238e-01,6.063630580902099609e-01,-9.480752795934677124e-02,2.658086419105529785e-01,-4.340186342597007751e-02,1.963502764701843262e-01,-3.584447205066680908e-01,-4.815057292580604553e-02,-5.727449432015419006e-02,3.341055810451507568e-01,2.304030507802963257e-01
-2.185069620609283447e-01,4.723401665687561035e-01,-7.073082923889160156e-01,-1.982488483190536499e-01,1.219508275389671326e-01,1.335421055555343628e-01,7.530401349067687988e-01,-1.971019506454467773e-01,-7.981677353382110596e-02,-3.017314970493316650e-01,1.640976071357727051e-01,1.167844459414482117e-01,-1.177161633968353271e-01,-1.587959229946136475e-01,8.175814747810363770e-01,3.233455717563629150e-01
-4.213812351226806641e-01,1.991561651229858398e-01,-4.349028170108795166e-01,2.639326155185699463e-01,-3.634487688541412354e-01,-1.042692549526691437e-02,1.754205077886581421e-01,-8.256358653306961060e-02,-8.228423073887825012e-03,1.481084525585174561e-01,5.697225928306579590e-01,-2.040008902549743652e-01,-2.566643953323364258e-01,-3.460574746131896973e-01,-1.357382815331220627e-02,-1.724749803543090820e-01
-1.883782260119915009e-02,-7.325563579797744751e-02,-8.882975578308105469e-02,-5.922108888626098633e-01,6.210236251354217529e-02,-6.448200345039367676e-02,4.488427639007568359e-01,2.830551564693450928e-02,1.065665185451507568e-01,1.807130314409732819e-02,4.491883814334869385e-01,-4.403065145015716553e-01,1.369520425796508789e-01,-1.200670599937438965e-01,3.519852459430694580e-01,-4.378112256526947021e-01
2.299223989248275757e-01,-1.670905649662017822e-01,-4.690710306167602539e-01,-6.653557419776916504e-01,-1.096397861838340759e-01,-2.417241483926773071e-01,1.641830056905746460e-01,-3.728263080120086670e-01,3.747550845146179199e-01,1.636823415756225586e-01,3.236836493015289307e-01,2.357864193618297577e-02,3.762196898460388184e-01,-9.847888350486755371e-02,-3.026513159275054932e-01,1.337450742721557617e-01
4.378115236759185791e-01,-1.731370836496353149e-01,-3.151908516883850098e-03,-1.897950619459152222e-01,-6.181599572300910950e-02,-2.232006490230560303e-01,-3.054850995540618896e-01,-8.863592147827148438e-02,4.169446527957916260e-01,5.116365477442741394e-02,3.063660562038421631e-01,5.388853698968887329e-02,-2.750153280794620514e-02,-3.464926183223724365e-01,-3.136518001556396484e-01,-3.384065926074981689e-01
-2.417338080704212189e-03,-2.484518438577651978e-01,6.964294910430908203e-01,-6.574513018131256104e-02,-7.702007144689559937e-02,2.765173316001892090e-01,3.569577336311340332e-01,-2.229997515678405762e-01,3.284272551536560059e-01,2.859306335449218750e-01,1.995889097452163696e-01,-3.529353737831115723e-01,3.004366457462310791e-01,-1.653483211994171143e-01,1.062171012163162231e-01,-5.155921578407287598e-01
9.468625485897064209e-02,-2.661040723323822021e-01,3.107099235057830811e-01,1.267455965280532837e-01,2.776525318622589111e-01,6.198054552078247070e-02,-1.950875669717788696e-01,-8.503536880016326904e-02,2.102175652980804443e-01,2.964977324008941650e-01,5.083547234535217285e-01,-1.149097159504890442e-01,3.388180732727050781e-01,-1.663928925991058350e-01,-1.081070899963378906e-01,-7.278874516487121582e-01
-2.309564501047134399e-01,5.771211162209510803e-02,1.772926896810531616e-01,2.658961415290832520e-01,6.728583574295043945e-02,2.156398147344589233e-01,-1.692626774311065674e-01,8.621787279844284058e-02,4.150765761733055115e-02,3.093970119953155518e-01,4.466460645198822021e-01,-7.426102459430694580e-02,4.960660263895988464e-02,2.786247991025447845e-02,2.204817980527877808e-01,-1.276201903820037842e-01
-7.116059213876724243e-02,2.482824400067329407e-02,5.282450094819068909e-02,1.308376938104629517e-01,3.631227090954780579e-02,5.221204366534948349e-03,4.899892583489418030e-02,5.084656178951263428e-02,4.441704135388135910e-03,7.268039882183074951e-02,1.746789813041687012e-01,-9.166607633233070374e-03,2.293195948004722595e-02,2.078946866095066071e-02,1.143993809819221497e-01,-6.784437596797943115e-02
-1.216559391468763351e-02,1.417341083288192749e-02,4.166261106729507446e-02,9.213136136531829834e-02,3.573382645845413208e-02,-3.711349517107009888e-02,1.724343560636043549e-02,8.677369914948940277e-03,-2.148861438035964966e-02,-3.200972825288772583e-02,7.452412694692611694e-02,1.525418460369110107e-02,-8.348533511161804199e-02,1.761144958436489105e-02,1.469815429300069809e-02,-1.142580658197402954e-01
-8.928504772484302521e-03,-2.241854369640350342e-02,2.267340570688247681e-02,2.031425386667251587e-02,1.541734393686056137e-02,1.609321869909763336e-02,-1.377819851040840149e-02,1.426539849489927292e-02,-2.551219984889030457e-02,-4.296906758099794388e-03,2.981462515890598297e-03,-2.324822172522544861e-02,2.103493362665176392e-02,-6.883993744850158691e-03,1.310775615274906158e-02,2.090875804424285889e-02
-1.067003533244132996e-01,-8.740147203207015991e-02,1.123336888849735260e-02,-1.333919074386358261e-02,2.437790296971797943e-02,-4.388978704810142517e-02,6.632062792778015137e-02,4.730167612433433533e-02,2.045064792037010193e-02,-6.074641644954681396e-02,4.047596827149391174e-02,6.201823428273200989e-02,4.836521670222282410e-02,5.351654440164566040e-02,-1.992607861757278442e-02,8.326420187950134277e-02
6.917618215084075928e-02,2.279950119554996490e-02,-8.077833801507949829e-02,1.750947907567024231e-02,-1.399152427911758423e-01,-5.651093553751707077e-03,-3.588683530688285828e-02,-1.025073044002056122e-02,1.706188619136810303e-01,-6.855191290378570557e-02,-9.056286513805389404e-02,3.124945610761642456e-02,2.612288668751716614e-02,7.389687746763229370e-02,4.858206957578659058e-02,-2.640298381447792053e-02
6.134503055363893509e-03,-1.979118436574935913e-01,4.364690929651260376e-02,-1.556849926710128784e-01,-1.026837751269340515e-01,-8.411137014627456665e-02,1.875210404396057129e-01,5.024524405598640442e-02,4.145856201648712158e-01,9.205241687595844269e-03,-2.897128164768218994e-01,-1.123645007610321045e-01,2.222066931426525116e-02,2.892902493476867676e-01,1.081961542367935181e-01,1.227499991655349731e-01
-1.293119490146636963e-01,-7.206742465496063232e-02,9.173419475555419922e-01,-2.711013555526733398e-01,-2.324332296848297119e-01,-7.995385676622390747e-02,2.575723081827163696e-02,6.644971203058958054e-03,-7.450251840054988861e-03,1.307376194745302200e-02,-4.982852041721343994e-01,-9.378350526094436646e-02,2.303904443979263306e-01,4.868127405643463135e-01,-1.033159121870994568e-01,2.763660550117492676e-01
1.615212559700012207e-01,-3.534118533134460449e-01,7.304674386978149414e-01,7.019925862550735474e-02,3.606947511434555054e-02,-1.124085858464241028e-01,7.452195882797241211e-02,1.483048349618911743e-01,2.633428573608398438e-01,1.485372241586446762e-02,-1.516864001750946045e-01,7.815041393041610718e-02,4.408107995986938477e-01,-1.146556362509727478e-01,-4.051270484924316406e-01,2.765361666679382324e-01
4.979161545634269714e-02,-2.167273461818695068e-01,-1.603897511959075928e-01,-1.681656949222087860e-02,-1.277564465999603271e-01,-6.066938862204551697e-02,2.302296757698059082e-01,-7.714882376603782177e-04,6.071960330009460449e-01,-1.835039556026458740e-01,-5.015726685523986816e-01,2.512511312961578369e-01,2.253412604331970215e-01,1.606321930885314941e-01,6.887619197368621826e-02,2.155488580465316772e-01
-4.580270946025848389e-01,-5.624554753303527832e-01,2.150446772575378418e-01,-4.527079313993453979e-02,6.349471211433410645e-02,-1.996280699968338013e-01,1.342649478465318680e-02,-1.113667339086532593e-01,3.172706365585327148e-01,-4.679032862186431885e-01,-1.510028541088104248e-01,5.243736505508422852e-01,2.437171638011932373e-01,1.991793960332870483e-01,-8.703733235597610474e-02,-2.257013767957687378e-01
-4.919068217277526855e-01,-3.431079685688018799e-01,4.925529658794403076e-01,3.819057643413543701e-01,-6.131723988801240921e-03,-2.621896266937255859e-01,-3.964003622531890869e-01,1.122203916311264038e-01,4.598201513290405273e-01,5.468249693512916565e-02,2.145166695117950439e-01,-3.266168832778930664e-01,-2.437331080436706543e-01,-4.482325538992881775e-02,-1.177009008824825287e-02,-8.614077419042587280e-02
-1.215104982256889343e-01,-2.348728179931640625e-01,9.318479895591735840e-02,3.487250208854675293e-01,-2.599183917045593262e-01,-1.369809061288833618e-01,5.589900165796279907e-02,-2.769152820110321045e-01,1.729528754949569702e-01,-3.711977228522300720e-02,-2.881607785820960999e-02,1.094608679413795471e-01,-2.635879814624786377e-01,-7.779247313737869263e-02,-1.040960922837257385e-01,-8.208271861076354980e-02
-1.229298710823059082e-01,-1.173189133405685425e-01,-3.847983479499816895e-01,4.236683547496795654e-01,-2.538953721523284912e-01,-2.842319607734680176e-01,2.089811414480209351e-01,-1.425892859697341919e-01,2.359084784984588623e-01,-1.057059988379478455e-01,3.107224404811859131e-01,1.163962036371231079e-01,-3.773939311504364014e-01,-2.279113978147506714e-01,1.805444508790969849e-01,5.017932504415512085e-02
-1.479859054088592529e-01,1.367190182209014893e-01,-4.099503457546234131e-01,-1.209672614932060242e-01,-1.185688190162181854e-02,-8.119146525859832764e-02,1.626955121755599976e-01,2.527866661548614502e-01,1.593171805143356323e-01,-5.247597098350524902e-01,1.295119971036911011e-01,2.387952506542205811e-01,-2.048420011997222900e-01,-1.699138879776000977e-01,-3.540072441101074219e-01,-8.514860644936561584e-03
-1.150971874594688416e-01,-2.949340343475341797e-01,6.025505252182483673e-03,-1.712655276060104370e-01,9.782404452562332153e-02,-5.610237121582031250e-01,-2.811696231365203857e-01,-1.831385195255279541e-01,-1.731948852539062500e-01,1.161943562328815460e-02,1.275082528591156006e-01,-3.447911143302917480e-01,-9.199231117963790894e-02,-1.750178933143615723e-01,-2.127188593149185181e-01,-1.547694653272628784e-01
-6.150005012750625610e-02,-2.442090809345245361e-01,-1.123392507433891296e-01,-6.841099858283996582e-01,2.185995317995548248e-02,2.834672033786773682e-01,-3.607100248336791992e-01,-6.789120435714721680e-01,3.175168037414550781e-01,2.153715640306472778e-01,-2.405797541141510010e-01,-5.899541974067687988e-01,-4.083195924758911133e-01,3.368446230888366699e-02,-3.064398765563964844e-01,6.389325857162475586e-01
1.053290069103240967e-02,-3.387268483638763428e-01,-4.944490641355514526e-02,-2.745870947837829590e-01,6.148992180824279785e-01,-9.335223585367202759e-02,-9.081400632858276367e-01,-1.021509394049644470e-01,-1.248081121593713760e-02,-5.056364536285400391e-01,-1.398349832743406296e-02,2.179888039827346802e-01,9.728855639696121216e-02,-1.016517356038093567e-01,2.887801229953765869e-01,3.429111838340759277e-01
2.672375142574310303e-01,2.328215390443801880e-01,1.996147334575653076e-01,7.226988673210144043e-02,-2.767938971519470215e-01,-1.430489122867584229e-01,-6.913620829582214355e-01,-3.915993571281433105e-01,1.571497321128845215e-01,-7.721240073442459106e-02,-1.262269020080566406e-01,1.396062374114990234e-01,-4.108791053295135498e-01,-1.360351294279098511e-01,5.866823196411132812e-01,2.480567097663879395e-01
2.176930196583271027e-03,-9.851451218128204346e-02,-4.057843089103698730e-01,-4.659232683479785919e-03,1.414500772953033447e-01,1.245823055505752563e-01,6.366552412509918213e-02,-3.282716870307922363e-01,-1.285893768072128296e-01,1.126700341701507568e-01,3.024321496486663818e-01,9.041143208742141724e-02,4.517794400453567505e-02,-3.231192231178283691e-01,2.470006346702575684e-01,4.700620472431182861e-01
3.147675096988677979e-01,6.055519729852676392e-02,-3.257604539394378662e-01,5.519043281674385071e-02,-1.026823967695236206e-01,6.411914527416229248e-02,4.240069389343261719e-01,-6.469026952981948853e-02,3.375723659992218018e-01,-2.489277571439743042e-01,7.669965270906686783e-03,1.255882978439331055e-01,-3.727690279483795166e-01,-3.069911897182464600e-02,-7.638218998908996582e-02,3.086730241775512695e-01
1.663413792848587036e-01,1.813667565584182739e-01,-1.852371841669082642e-01,-3.977116942405700684e-02,-8.772256970405578613e-02,-1.635634601116180420e-01,4.414243996143341064e-01,-3.229441046714782715e-01,9.850046783685684204e-02,-1.104907169938087463e-01,7.397640943527221680e-01,-4.221538305282592773e-01,-8.673615753650665283e-03,1.641397364437580109e-02,-2.578527666628360748e-02,2.517700195312500000e-01
4.713375121355056763e-02,-4.577159285545349121e-01,-4.654476940631866455e-01,-1.828147768974304199e-01,-1.212779507040977478e-01,-2.368582785129547119e-01,9.156860113143920898e-01,-3.319264948368072510e-01,1.862043738365173340e-01,9.374029934406280518e-02,1.315131783485412598e-01,-5.606902241706848145e-01,-2.232182621955871582e-01,-1.901838630437850952e-01,1.512817740440368652e-01,-5.469802767038345337e-03
2.691486179828643799e-01,-6.165422797203063965e-01,-2.799762785434722900e-01,-2.067480385303497314e-01,3.989786803722381592e-01,-2.204701863229274750e-02,1.966566443443298340e-01,-5.329395085573196411e-02,3.819808959960937500e-01,1.606917381286621094e-01,1.840070784091949463e-01,-1.498633176088333130e-01,-1.849409639835357666e-01,1.187647506594657898e-02,2.091292738914489746e-01,-2.345401495695114136e-01
2.980810701847076416e-01,-1.885480433702468872e-01,-7.437151670455932617e-02,1.980439573526382446e-01,8.624700456857681274e-02,1.701884716749191284e-01,1.322185993194580078e-01,-3.075913488864898682e-01,1.904248073697090149e-02,1.858762651681900024e-01,5.052322149276733398e-01,-1.294964551925659180e-01,-6.336967349052429199e-01,2.789933979511260986e-01,-1.760772466659545898e-01,3.555059134960174561e-01
2.959401607513427734e-01,-1.792947500944137573e-01,2.522216439247131348e-01,3.800872266292572021e-01,-1.713390052318572998e-01,1.726296991109848022e-01,1.084828097373247147e-02,5.727772135287523270e-03,2.583601772785186768e-01,2.926051020622253418e-01,4.686422944068908691e-01,-1.082025319337844849e-01,-4.204016923904418945e-01,-4.238194227218627930e-01,-4.774492979049682617e-01,3.748078346252441406e-01
3.238909542560577393e-01,-1.818872988224029541e-01,2.832020223140716553e-01,9.436970949172973633e-02,-1.375393420457839966e-01,-4.870649874210357666e-01,1.677544564008712769e-01,-3.340840339660644531e-02,6.232296824455261230e-01,5.224493741989135742e-01,4.717724323272705078e-01,-1.480398774147033691e-01,1.639325916767120361e-01,-3.472273051738739014e-01,-1.887404471635818481e-01,-3.413988053798675537e-01
2.976731657981872559e-01,1.523578166961669922e-01,5.763645842671394348e-02,2.718704938888549805e-01,4.357506036758422852e-01,-7.421201467514038086e-02,-4.693066179752349854e-01,9.257294237613677979e-02,4.283347725868225098e-01,5.152009129524230957e-01,4.146028757095336914e-01,1.204830706119537354e-01,3.499811589717864990e-01,-4.759266376495361328e-01,-4.336957260966300964e-02,-8.053282499313354492e-01
-9.499281644821166992e-02,4.951135069131851196e-02,4.461974650621414185e-02,5.334808826446533203e-01,2.653061747550964355e-01,-2.018884569406509399e-02,-3.657465577125549316e-01,1.646090745925903320e-01,1.826957315206527710e-01,3.502895534038543701e-01,5.098331570625305176e-01,2.234648764133453369e-01,2.046331316232681274e-01,-8.250956237316131592e-02,-1.233574189245700836e-02,-1.217590942978858948e-01
-7.429731637239456177e-02,9.553705900907516479e-02,1.938430964946746826e-01,9.625770896673202515e-02,3.415190428495407104e-02,-2.983084507286548615e-02,2.322104014456272125e-02,8.153743296861648560e-02,-6.768970191478729248e-02,1.644681245088577271e-01,1.424972712993621826e-01,2.207500487565994263e-02,-8.437566459178924561e-02,-2.538936585187911987e-02,1.264743357896804810e-01,3.955840319395065308e-02
1.675459370017051697e-02,-5.830454174429178238e-03,-2.503748284652829170e-03,4.599770158529281616e-02,2.781924791634082794e-02,-5.032807122915983200e-03,4.672917071729898453e-03,-9.280474856495857239e-03,2.990547195076942444e-02,-2.328492142260074615e-02,5.661055445671081543e-02,-7.770108641125261784e-04,-3.573193773627281189e-02,-8.530356921255588531e-03,1.313633401878178120e-03,-8.102568238973617554e-02
7.689596619457006454e-03,6.104810163378715515e-02,1.561029814183712006e-02,-5.712932907044887543e-03,-3.609857754781842232e-03,-6.021935120224952698e-02,1.395323313772678375e-02,2.037159539759159088e-02,3.630467504262924194e-02,1.896918192505836487e-02,2.550092339515686035e-02,1.560005452483892441e-02,6.995134055614471436e-02,-4.796543717384338379e-02,-4.705976694822311401e-02,-1.222630869597196579e-02
-3.718132153153419495e-02,-5.074965208768844604e-02,-3.159015998244285583e-02,2.287353388965129852e-02,-1.807920262217521667e-02,-1.607462391257286072e-02,3.037498518824577332e-02,1.170288771390914917e-02,2.491699345409870148e-02,1.457230746746063232e-02,3.545260429382324219e-02,5.137210339307785034e-02,9.681966900825500488e-02,3.285880014300346375e-02,-2.944409847259521484e-02,6.813052296638488770e-02
7.343249768018722534e-02,4.373162612318992615e-02,-9.461284428834915161e-02,-3.373319981619715691e-03,-1.141869276762008667e-01,1.005376456305384636e-03,3.566073998808860779e-02,-1.257084459066390991e-01,1.602764278650283813e-01,-1.476466376334428787e-02,-1.170369759202003479e-01,5.594711005687713623e-02,5.948831140995025635e-02,7.739223539829254150e-02,-8.533350192010402679e-04,-3.610274568200111389e-02
-5.407001450657844543e-02,-1.650067418813705444e-01,1.389070041477680206e-02,-6.531083583831787109e-02,-1.931902766227722168e-01,-5.967399477958679199e-02,1.411809325218200684e-01,-1.549670100212097168e-02,2.282831072807312012e-01,7.931207120418548584e-02,-2.189787179231643677e-01,4.116588458418846130e-02,-7.985113188624382019e-03,2.451800853013992310e-01,5.712439864873886108e-02,9.641406685113906860e-02
-6.128682196140289307e-02,-2.012139111757278442e-01,4.276290833950042725e-01,-2.016157805919647217e-01,-1.340227723121643066e-01,-2.100207954645156860e-01,1.123294457793235779e-01,-7.244231551885604858e-02,1.755367517471313477e-01,1.693646758794784546e-01,-5.792337059974670410e-01,4.576755687594413757e-03,2.782453596591949463e-01,5.855087637901306152e-01,9.818809479475021362e-02,1.812628209590911865e-01
-5.377117544412612915e-02,9.012935310602188110e-02,5.667915940284729004e-01,5.328707098960876465e-01,1.198390722274780273e-01,-3.855941891670227051e-01,-2.141830325126647949e-01,-5.725666880607604980e-02,8.033607155084609985e-02,3.828238844871520996e-01,-3.130090832710266113e-01,1.439102888107299805e-01,1.711721299216151237e-03,-2.050526812672615051e-02,-1.085214987397193909e-01,1.020237132906913757e-01
1.599054634571075439e-01,2.127737738192081451e-02,-3.210640251636505127e-01,1.359847187995910645e-01,1.669145971536636353e-01,-1.457323282957077026e-01,1.379832327365875244e-01,-2.899709343910217285e-01,4.522320032119750977e-01,5.365628004074096680e-01,1.983777731657028198e-01,4.984759166836738586e-02,1.763543486595153809e-01,-9.013020992279052734e-02,1.083144396543502808e-01,-3.588813915848731995e-02
-1.840724796056747437e-01,-1.277213394641876221e-01,2.942691445350646973e-01,1.522766500711441040e-01,-8.283849805593490601e-02,-5.724270343780517578e-01,3.281852602958679199e-01,-3.228150904178619385e-01,3.630219995975494385e-01,2.477110773324966431e-01,7.017126679420471191e-02,-3.674493730068206787e-02,-1.311058104038238525e-01,9.910146147012710571e-02,-1.552150696516036987e-01,3.195346295833587646e-01
-1.507638096809387207e-01,2.660989165306091309e-01,-2.303713113069534302e-01,2.047860473394393921e-01,5.558353289961814880e-02,-3.936705589294433594e-01,2.501197159290313721e-01,3.256761003285646439e-03,4.015749394893646240e-01,2.272524535655975342e-01,-1.527098864316940308e-01,-2.227920293807983398e-01,3.535437583923339844e-02,2.799863219261169434e-01,3.616416454315185547e-02,2.060031592845916748e-01
3.371729701757431030e-02,2.479126863181591034e-02,-2.096152305603027344e-02,3.860980570316314697e-01,1.125935241580009460e-01,-4.088500142097473145e-01,3.152225017547607422e-01,-5.008342266082763672e-01,3.561199605464935303e-01,-3.465193789452314377e-03,-4.184556379914283752e-02,-2.692551612854003906e-01,2.171924263238906860e-01,-2.337699532508850098e-01,-1.752423495054244995e-01,2.962560653686523438e-01
-3.245598077774047852e-01,2.926050312817096710e-02,-1.290343850851058960e-01,3.208734393119812012e-01,1.220081374049186707e-01,-6.464182734489440918e-01,7.585920393466949463e-02,2.863550186157226562e-02,-6.336431205272674561e-02,2.973646819591522217e-01,2.042687833309173584e-01,6.702170521020889282e-02,-1.563693210482597351e-02,4.818881452083587646e-01,1.898806840181350708e-01,3.498961329460144043e-01
-8.041811734437942505e-02,1.950947493314743042e-01,-8.279410749673843384e-02,-1.199591830372810364e-01,2.667015790939331055e-02,-1.744403243064880371e-01,3.480574786663055420e-01,-3.288907110691070557e-01,2.579517662525177002e-01,1.494973599910736084e-01,2.557045817375183105e-01,-3.219798803329467773e-01,-3.379453420639038086e-01,2.281464785337448120e-01,-3.656512796878814697e-01,-3.732908070087432861e-01
-3.734458237886428833e-02,-5.216735973954200745e-02,1.216376200318336487e-01,-5.662039518356323242e-01,2.333608455955982208e-02,-2.496114820241928101e-01,3.450360596179962158e-01,-1.891075074672698975e-01,2.066698819398880005e-01,-1.282396018505096436e-01,2.650041282176971436e-01,-5.352797508239746094e-01,2.697786390781402588e-01,-1.020785942673683167e-01,-1.082943677902221680e-01,-2.208674699068069458e-02
-8.264917880296707153e-02,5.860722437500953674e-02,6.154532730579376221e-02,-7.699340581893920898e-01,9.415410459041595459e-02,-1.709027588367462158e-02,-3.483051657676696777e-01,-4.216173291206359863e-01,-1.765170246362686157e-01,5.814206227660179138e-02,1.391738373786211014e-02,-2.261168211698532104e-01,1.340049505233764648e-01,-1.307897418737411499e-01,-1.549392491579055786e-01,-1.459989417344331741e-02
4.134264588356018066e-01,-1.365625858306884766e-01,-4.571872353553771973e-01,6.952111423015594482e-02,-1.380758583545684814e-01,-9.293733537197113037e-02,-9.740833044052124023e-01,-2.576284706592559814e-01,2.440273314714431763e-01,2.685523778200149536e-02,1.948150694370269775e-01,2.794516086578369141e-01,-5.419280529022216797e-01,2.110335379838943481e-01,-1.785474121570587158e-01,2.545045614242553711e-01
4.582306742668151855e-01,-2.809158265590667725e-01,-6.050812080502510071e-02,-4.616114869713783264e-02,1.320760510861873627e-02,-1.202206686139106750e-01,-7.310571670532226562e-01,-4.045745134353637695e-01,3.945959806442260742e-01,-1.449765861034393311e-01,-7.915608584880828857e-02,1.894574910402297974e-01,-1.140739470720291138e-01,-2.604718506336212158e-02,1.915057152509689331e-01,3.038728237152099609e-01
1.538868099451065063e-01,1.728844344615936279e-01,-1.861085444688796997e-01,-2.720471024513244629e-01,7.805040478706359863e-02,-1.700528264045715332e-01,4.247535169124603271e-01,-7.284548878669738770e-01,5.443471670150756836e-01,-4.395333528518676758e-01,2.569514811038970947e-01,-3.534457385540008545e-01,-2.156265377998352051e-01,-3.855585306882858276e-02,7.631077617406845093e-02,4.867995679378509521e-01
3.050003759562969208e-02,-9.238911420106887817e-02,-1.461090445518493652e-01,-1.512438505887985229e-01,5.432393029332160950e-02,-2.128740251064300537e-01,1.014392375946044922e+00,-5.072146058082580566e-01,-1.325512677431106567e-01,-4.940666556358337402e-01,1.791980713605880737e-01,7.640019990503787994e-03,-4.367503225803375244e-01,-1.205928474664688110e-01,-1.384144574403762817e-01,3.790027499198913574e-01
1.904030889272689819e-01,-3.579467236995697021e-01,-1.923943608999252319e-01,-1.818869709968566895e-01,1.001678779721260071e-01,-1.403273642063140869e-01,5.092156529426574707e-01,-1.927147656679153442e-01,7.915678620338439941e-01,-1.665556579828262329e-01,7.768961042165756226e-02,-3.990903496742248535e-01,-3.622830510139465332e-01,-8.356179296970367432e-02,1.625148653984069824e-01,1.931330859661102295e-01
-2.678126096725463867e-01,1.848692893981933594e-01,9.162242710590362549e-02,-4.403011202812194824e-01,-1.891245506703853607e-02,-1.880805939435958862e-01,3.134518563747406006e-01,-1.266610026359558105e-01,-8.858696371316909790e-02,-1.468442101031541824e-02,3.903225958347320557e-01,4.168296232819557190e-02,-3.090118169784545898e-01,-2.252641692757606506e-02,1.194430738687515259e-01,4.248657450079917908e-02
-2.678806483745574951e-01,6.788278371095657349e-02,-1.857008598744869232e-02,1.532027777284383774e-02,-2.162194252014160156e-01,-3.514735773205757141e-02,8.379132300615310669e-02,2.903059422969818115e-01,3.911426663398742676e-01,-2.347743809223175049e-01,3.345060050487518311e-01,1.341620385646820068e-01,2.884379215538501740e-02,-1.002346873283386230e-01,-2.253564298152923584e-01,2.168255299329757690e-01
