9.142585098743438721e-03,2.250873483717441559e-02,-2.045690827071666718e-02,1.747441850602626801e-02,1.518670003861188889e-02,-1.815121434628963470e-02,2.106702700257301331e-02,-3.165779169648885727e-03,8.190862834453582764e-03,-6.729175336658954620e-03,2.848559757694602013e-03,1.858390495181083679e-02,-5.055504385381937027e-03,2.299800515174865723e-02,-1.859338022768497467e-02,1.800016872584819794e-02,-5.277330521494150162e-03,-1.021843682974576950e-02,-7.564176805317401886e-03,4.529105033725500107e-03,-1.260168757289648056e-02,2.214060351252555847e-02,4.988248459994792938e-03,2.345572138438001275e-04,1.885104365646839142e-02,-1.355622708797454834e-02,7.291773799806833267e-03,-1.548646576702594757e-02,2.779303817078471184e-03,-1.072157267481088638e-02,2.258824370801448822e-02,-2.065306343138217926e-02
-4.534200299531221390e-03,-1.265425886958837509e-02,1.068842757376842201e-04,-6.880407221615314484e-03,2.570741064846515656e-02,1.856557466089725494e-02,2.118404209613800049e-02,-8.927005343139171600e-03,1.783238165080547333e-02,9.312525391578674316e-03,-4.965864121913909912e-03,1.742865517735481262e-02,1.243480760604143143e-02,-1.090438221581280231e-03,1.134546939283609390e-02,-2.188969403505325317e-02,-2.037607133388519287e-03,2.361069433391094208e-02,-3.834649920463562012e-03,-2.336150407791137695e-02,1.805529743432998657e-02,8.751086890697479248e-03,-1.951548270881175995e-02,-7.051763590425252914e-03,-1.197731308639049530e-02,-1.651489734649658203e-02,-7.785388268530368805e-03,2.696971409022808075e-03,1.866763457655906677e-02,1.869417354464530945e-02,-4.808682948350906372e-03,9.641963406465947628e-04
-1.331683248281478882e-02,-4.103445447981357574e-03,1.620157808065414429e-02,1.048477832227945328e-02,-2.207816764712333679e-02,-2.271920815110206604e-02,5.498285405337810516e-03,2.562073804438114166e-02,-1.168096438050270081e-02,-4.631097253877669573e-04,-1.353840064257383347e-02,-1.235553994774818420e-02,6.762791890650987625e-03,2.550905803218483925e-03,3.939749673008918762e-03,5.578493233770132065e-03,1.644211472012102604e-03,1.282982900738716125e-02,-1.952324621379375458e-02,2.412234619259834290e-02,1.824162900447845459e-02,-1.484509184956550598e-02,-3.731059608981013298e-03,2.532544359564781189e-02,2.092211879789829254e-02,9.552260860800743103e-03,-2.557913959026336670e-02,-7.727250922471284866e-03,-1.140653900802135468e-02,-6.737191230058670044e-03,-1.979372091591358185e-02,2.355520054697990417e-02
-1.100376900285482407e-02,-1.337241497822105885e-03,-9.910149499773979187e-03,-4.760012030601501465e-03,2.517244778573513031e-02,-6.377486512064933777e-03,-2.115147560834884644e-02,-1.332524977624416351e-02,1.190643664449453354e-02,-2.315347082912921906e-02,1.092892140150070190e-02,-2.130308374762535095e-02,2.678575227037072182e-03,-1.463707722723484039e-02,-5.761240608990192413e-03,-6.826637312769889832e-03,-3.113973885774612427e-03,-1.768059283494949341e-02,2.241226844489574432e-02,3.702282905578613281e-03,6.091339979320764542e-03,2.195749990642070770e-02,1.328790653496980667e-02,-3.139956854283809662e-03,1.543719205074012280e-03,1.786934626579750329e-05,-2.063556760549545288e-02,7.541921921074390411e-03,1.898924447596073151e-02,-4.819925874471664429e-03,-1.287113502621650696e-02,-2.467188797891139984e-02
-1.983326673507690430e-02,-8.554488420486450195e-03,-3.573023481294512749e-03,-1.137637346982955933e-02,8.380446583032608032e-03,2.124956343322992325e-03,-2.494758926331996918e-02,-2.577041275799274445e-02,2.682694466784596443e-04,6.078699603676795959e-03,-7.697224151343107224e-03,-1.937314984388649464e-03,-1.734070293605327606e-02,-2.442158386111259460e-02,-2.143905963748693466e-03,-1.963090710341930389e-02,-8.330971002578735352e-03,-8.222610689699649811e-03,2.403840050101280212e-02,-1.903671422041952610e-03,6.336043588817119598e-03,-2.219737321138381958e-02,-2.021759748458862305e-02,-1.321109291166067123e-02,1.263657305389642715e-02,-2.331474609673023224e-02,-1.882723160088062286e-02,1.683986512944102287e-03,1.721873320639133453e-02,-1.788256689906120300e-02,1.378160715103149414e-02,-1.750395260751247406e-02
-2.076547406613826752e-02,8.219696581363677979e-03,2.489112690091133118e-02,6.472355686128139496e-03,-1.782587915658950806e-02,2.033722773194313049e-02,5.359372589737176895e-03,2.493548952043056488e-02,-2.375212870538234711e-02,1.142632798291742802e-03,-2.086937613785266876e-02,1.679276116192340851e-02,1.453029830008745193e-02,-1.828058436512947083e-02,-2.557675726711750031e-02,-8.866477757692337036e-03,2.424394153058528900e-02,1.951731857843697071e-03,-2.300328016281127930e-02,2.755509689450263977e-03,-1.142493356019258499e-02,1.915184222161769867e-02,2.526960708200931549e-02,1.487027760595083237e-02,2.448382042348384857e-02,1.159564405679702759e-02,-3.554507857188582420e-03,-1.598784001544117928e-03,-1.091059039026731625e-05,-5.906681995838880539e-03,-1.496929116547107697e-02,-3.718815743923187256e-03
1.754799671471118927e-02,1.030573528259992599e-02,-1.861997134983539581e-02,-1.511620450764894485e-02,-2.040804922580718994e-02,4.367768764495849609e-03,-8.538513444364070892e-03,-2.792951883748173714e-03,8.285772986710071564e-03,-2.345356903970241547e-02,1.588065363466739655e-02,4.978640004992485046e-03,-1.719799451529979706e-02,-1.622378081083297729e-02,-2.499902993440628052e-02,-2.089764177799224854e-02,5.423870752565562725e-04,1.551805809140205383e-02,-1.620445027947425842e-02,1.370041910558938980e-02,1.952225342392921448e-02,-3.117434913292527199e-03,-2.354440366616472602e-04,1.386168599128723145e-02,-2.027866430580615997e-02,-1.814612559974193573e-02,1.805193908512592316e-02,-1.656688004732131958e-02,1.682485826313495636e-02,-1.726198242977261543e-03,1.535207591950893402e-02,-7.388473604805767536e-04
-8.083824999630451202e-03,5.249395500868558884e-03,4.370089620351791382e-03,-7.588776759803295135e-03,5.986212287098169327e-03,-1.748813875019550323e-02,1.979690976440906525e-02,-2.450668811798095703e-02,-3.585286904126405716e-04,2.085267193615436554e-02,7.754125632345676422e-03,1.509435847401618958e-02,3.635118482634425163e-03,1.002051634714007378e-03,-2.405207231640815735e-02,-2.057237736880779266e-02,2.005701698362827301e-02,2.622304484248161316e-03,-8.271368220448493958e-03,1.051981467753648758e-02,-1.100422069430351257e-02,-2.461235597729682922e-02,1.241986639797687531e-02,1.379764638841152191e-02,2.083516493439674377e-02,-2.366815879940986633e-02,2.169139916077256203e-03,4.908982198685407639e-03,8.946065790951251984e-03,3.931244369596242905e-03,3.733887569978833199e-05,-3.252580761909484863e-03
-4.452038556337356567e-03,-4.433943424373865128e-03,1.647213473916053772e-02,1.952393166720867157e-02,7.252297364175319672e-03,2.404162846505641937e-02,-1.834908872842788696e-02,1.724961586296558380e-02,-1.146021764725446701e-02,3.734847763553261757e-03,2.093511447310447693e-02,-2.098372578620910645e-02,-6.808770820498466492e-03,-1.738639548420906067e-02,-1.771435700356960297e-02,-6.776694208383560181e-03,2.550368010997772217e-02,-1.052225939929485321e-02,-1.632697507739067078e-02,-2.514756470918655396e-02,1.760086975991725922e-02,1.528145559132099152e-02,2.198391035199165344e-02,-1.641046628355979919e-02,-1.173367351293563843e-02,-7.350591011345386505e-03,-9.061452001333236694e-03,2.113907039165496826e-02,-7.482355460524559021e-03,-2.797059714794158936e-03,2.045277506113052368e-02,2.132504619657993317e-02
-1.323549356311559677e-02,2.548391185700893402e-02,-2.104594372212886810e-02,6.679449696093797684e-03,-2.303835935890674591e-02,-2.455764450132846832e-02,-4.172433633357286453e-03,6.333722732961177826e-03,1.994888298213481903e-02,1.258901692926883698e-02,-1.142238732427358627e-02,-6.325503927655518055e-04,-2.117557637393474579e-02,-1.399058289825916290e-02,-2.534711547195911407e-02,-3.504331689327955246e-03,-4.672492854297161102e-03,2.386925276368856430e-03,8.195043541491031647e-03,-1.509623369202017784e-03,7.571719470433890820e-04,2.290126308798789978e-02,9.304014965891838074e-03,2.119575627148151398e-02,-2.329598180949687958e-02,2.434999123215675354e-02,1.001397520303726196e-02,-4.320029634982347488e-03,-1.815949939191341400e-02,2.081106975674629211e-02,1.186161115765571594e-02,2.331242337822914124e-02
1.326448470354080200e-02,1.322014629840850830e-02,-1.252684742212295532e-02,-3.783134976401925087e-03,1.048337202519178391e-02,-5.577792879194021225e-03,-6.846202537417411804e-03,2.006481960415840149e-02,-2.351335994899272919e-02,4.905407782644033432e-03,-5.365082994103431702e-03,-1.496732048690319061e-02,-5.577797070145606995e-03,7.411696948111057281e-03,-2.181622385978698730e-02,-1.526781264692544937e-02,-1.359635684639215469e-02,-6.381680257618427277e-03,2.540896087884902954e-02,2.221193909645080566e-02,1.508434303104877472e-02,-3.525865497067570686e-03,-1.511791069060564041e-02,-5.220135790295898914e-04,-1.071088109165430069e-02,1.579247228801250458e-02,-1.195728126913309097e-02,-1.597950584255158901e-03,4.422808531671762466e-03,-1.714661921141669154e-04,-1.983016356825828552e-02,-9.816473349928855896e-03
1.413671881891787052e-03,1.066166348755359650e-02,-2.456120774149894714e-02,1.005931105464696884e-02,-3.689946141093969345e-03,5.657803267240524292e-03,8.719339035451412201e-03,-1.253727357834577560e-02,-2.558974362909793854e-02,-8.975279517471790314e-03,-1.271469797939062119e-02,-2.063548937439918518e-02,1.618180796504020691e-02,1.566466689109802246e-02,1.061675325036048889e-02,-2.474373579025268555e-02,-5.733777303248643875e-03,-1.231082621961832047e-02,-1.280205440707504749e-03,-1.327082701027393341e-02,1.099877711385488510e-02,-1.421651896089315414e-02,1.192941213957965374e-03,2.237257920205593109e-02,-7.719554472714662552e-03,-1.723410934209823608e-02,5.505593493580818176e-03,-2.349356189370155334e-02,-1.469932612963020802e-03,1.983871683478355408e-02,2.534992247819900513e-02,2.461933717131614685e-02
2.329507656395435333e-02,-1.983182691037654877e-02,4.579519852995872498e-03,-5.559863056987524033e-03,4.402987658977508545e-03,-9.044159203767776489e-03,-1.004554331302642822e-02,2.362217940390110016e-02,2.361461892724037170e-02,-1.874616742134094238e-02,-1.179755385965108871e-02,2.101480215787887573e-02,-1.416592742316424847e-03,-9.660846553742885590e-03,7.216070313006639481e-03,1.853210665285587311e-02,1.690815575420856476e-02,9.848538786172866821e-03,4.912077449262142181e-03,1.969907246530056000e-02,1.744063198566436768e-02,2.614989643916487694e-03,8.018867112696170807e-03,-2.015361748635768890e-02,1.074528507888317108e-02,8.015838451683521271e-03,-1.813963800668716431e-02,2.098930627107620239e-02,-1.072756759822368622e-02,-1.591358520090579987e-02,-8.993996307253837585e-03,1.648672111332416534e-02
2.559111453592777252e-04,-5.029066931456327438e-03,-2.555684745311737061e-02,-1.298695988953113556e-02,1.414073724299669266e-02,-1.291048806160688400e-02,-1.896668039262294769e-02,-8.342782035470008850e-03,-3.597836010158061981e-03,-1.702723838388919830e-02,1.039652526378631592e-02,1.209436333738267422e-03,2.605320326983928680e-02,6.462477613240480423e-03,1.414958015084266663e-02,1.034062169492244720e-02,-1.999435760080814362e-02,1.046390924602746964e-02,-1.422161888331174850e-02,7.391151506453752518e-03,-1.933787018060684204e-02,1.518624275922775269e-02,-1.911374367773532867e-02,-1.843427121639251709e-02,2.134288847446441650e-02,1.443375088274478912e-02,1.747764647006988525e-02,2.170909196138381958e-03,-7.240596227347850800e-03,-1.496186479926109314e-02,2.397912554442882538e-02,-4.921459127217531204e-03
-6.602084729820489883e-03,7.267993409186601639e-03,1.596730016171932220e-02,2.446070313453674316e-03,-2.042583934962749481e-02,1.465272251516580582e-02,8.192532695829868317e-03,1.265233010053634644e-02,-1.837688311934471130e-02,6.542434450238943100e-03,-2.857591898646205664e-04,9.964524069800972939e-04,2.232246100902557373e-02,3.176839672960340977e-04,-3.252643800806254148e-04,1.097870524972677231e-02,2.033570036292076111e-02,1.199755538254976273e-02,-1.058560237288475037e-02,-6.660330109298229218e-03,1.458696462213993073e-02,1.134148519486188889e-02,2.052825503051280975e-02,1.264982298016548157e-02,3.511964809149503708e-03,1.123811490833759308e-02,-2.345437556505203247e-02,-1.397423818707466125e-02,-2.468287199735641479e-02,9.194721467792987823e-03,-9.996916167438030243e-03,-1.714554429054260254e-02
1.589841581881046295e-02,2.392517961561679840e-02,-1.187676656991243362e-02,-7.729200180619955063e-03,-2.432392351329326630e-02,7.068227510899305344e-03,-9.846512228250503540e-03,7.160413078963756561e-03,1.311084162443876266e-02,-2.113409154117107391e-02,1.858857087790966034e-02,-1.170265371911227703e-03,2.133418247103691101e-02,-2.400179207324981689e-02,9.706898708827793598e-04,6.178277544677257538e-03,-2.020865911617875099e-03,-7.732084486633539200e-03,8.771078661084175110e-03,2.208749949932098389e-02,-2.199260890483856201e-02,-1.803161390125751495e-02,-1.600189693272113800e-02,-2.730374457314610481e-03,2.306034229695796967e-02,-1.622562296688556671e-02,-1.284570526331663132e-02,-2.056116424500942230e-02,4.401305690407752991e-03,-8.972847834229469299e-03,-4.638946149498224258e-03,-1.862318255007266998e-02
-1.729606464505195618e-02,2.170952036976814270e-03,3.762069623917341232e-03,2.084446698427200317e-02,4.376925993710756302e-03,-1.569389551877975464e-02,4.991170018911361694e-03,-1.743309199810028076e-02,-6.515549961477518082e-03,1.038040965795516968e-02,-1.043655164539813995e-02,7.809621747583150864e-03,-1.651245355606079102e-02,1.513212732970714569e-02,8.712454698979854584e-03,-1.365953474305570126e-03,-3.234130330383777618e-03,1.641909405589103699e-02,5.392286460846662521e-03,-5.870781373232603073e-03,-2.011848054826259613e-02,1.636522635817527771e-02,2.405908331274986267e-02,-1.592268352396786213e-03,-1.602622494101524353e-02,1.809983327984809875e-02,-9.627695195376873016e-03,1.577086374163627625e-02,3.254092298448085785e-03,8.221729658544063568e-03,1.987304911017417908e-02,1.031765947118401527e-03
1.271446049213409424e-02,-1.566231250762939453e-02,7.458521984517574310e-03,-1.118260249495506287e-02,-5.135390907526016235e-03,7.401731330901384354e-03,1.471214089542627335e-02,-1.353281922638416290e-02,1.048713107593357563e-03,1.067269593477249146e-02,-1.066915132105350494e-02,-2.580974623560905457e-02,-6.782005541026592255e-03,-1.262302044779062271e-03,8.215900510549545288e-03,-5.268568638712167740e-03,1.151136588305234909e-02,-1.695949025452136993e-02,-2.377040497958660126e-02,-6.642662920057773590e-03,1.304959785193204880e-02,-2.195550501346588135e-02,-1.124290563166141510e-02,-1.817082427442073822e-02,1.880056783556938171e-02,-1.893756166100502014e-02,-2.070801518857479095e-02,-2.566169016063213348e-02,-5.305917002260684967e-03,1.193201635032892227e-02,1.500540040433406830e-02,1.577993109822273254e-02
-1.165434718132019043e-02,-2.220864035189151764e-02,-2.509780414402484894e-02,-1.308695413172245026e-02,9.400102309882640839e-03,6.577759515494108200e-03,6.717515643686056137e-03,-1.561934221535921097e-02,-5.571466870605945587e-03,-1.480673160403966904e-02,5.062198266386985779e-03,-3.758769482374191284e-03,-2.316048182547092438e-02,-8.325235918164253235e-03,1.478745136409997940e-03,2.263952977955341339e-02,-9.783233515918254852e-03,3.793872427195310593e-03,-6.652690935879945755e-03,1.199022214859724045e-02,-1.829977118177339435e-04,1.692887954413890839e-02,-8.411515504121780396e-03,-1.103600021451711655e-02,-2.284087799489498138e-02,1.810132712125778198e-02,-3.873112844303250313e-03,-5.413898732513189316e-03,-1.021623332053422928e-02,-8.361825719475746155e-03,-1.412987709045410156e-02,5.079294554889202118e-03
-6.582553498446941376e-03,1.544360723346471786e-02,2.040084451436996460e-02,1.063393894582986832e-02,1.987861935049295425e-03,-1.631440012715756893e-03,7.195496000349521637e-03,2.502162754535675049e-02,2.205395139753818512e-02,1.345061697065830231e-02,2.389506436884403229e-02,2.306302450597286224e-02,2.192924544215202332e-02,-1.895876228809356689e-02,4.584649112075567245e-03,1.632627099752426147e-02,-2.240312844514846802e-02,-1.114822737872600555e-02,1.696527376770973206e-02,2.418928546831011772e-03,2.554656472057104111e-03,-2.281022071838378906e-02,-2.224208600819110870e-02,6.000578403472900391e-03,1.568051055073738098e-02,-1.849095150828361511e-02,-1.504106633365154266e-02,-1.477096229791641235e-02,5.307959392666816711e-03,2.570465207099914551e-02,-1.441030669957399368e-02,2.527480944991111755e-02
2.114003757014870644e-03,-2.534763887524604797e-02,1.324377954006195068e-02,3.888379083946347237e-03,-1.824382133781909943e-02,1.819108985364437103e-02,-4.963335231877863407e-04,1.104722172021865845e-02,-1.147290598601102829e-02,-8.593622595071792603e-03,2.531930059194564819e-02,1.921027549542486668e-03,1.016732584685087204e-02,8.314468897879123688e-03,-9.867825545370578766e-03,-2.743919845670461655e-03,9.876135736703872681e-03,9.666742756962776184e-03,-1.832609251141548157e-02,-3.452453762292861938e-03,1.253175362944602966e-02,1.468814350664615631e-02,2.534715924412012100e-03,-1.096660504117608070e-03,-3.713045036420226097e-03,1.999809406697750092e-02,-2.300659194588661194e-02,-6.522501353174448013e-03,1.377048436552286148e-02,-8.340088650584220886e-03,-1.068497076630592346e-02,1.963086053729057312e-02
2.922499785199761391e-03,2.576657943427562714e-02,-3.967755474150180817e-03,2.273456938564777374e-02,2.518052421510219574e-02,-7.756514474749565125e-03,2.019799314439296722e-02,1.728098490275442600e-03,9.898746386170387268e-03,-3.307269362267106771e-04,-2.399463951587677002e-02,-1.911551505327224731e-02,6.527935620397329330e-03,-1.070169173181056976e-02,-2.394645661115646362e-02,9.310937486588954926e-03,-1.316881831735372543e-02,5.059869028627872467e-03,4.283248563297092915e-04,2.367142774164676666e-02,-1.560532400617375970e-04,-2.299430966377258301e-02,2.091811597347259521e-02,1.697000116109848022e-02,-1.871893368661403656e-02,-1.598303206264972687e-02,3.456423757597804070e-03,-6.569257471710443497e-03,-5.969312973320484161e-03,-3.108769655227661133e-03,-4.301338456571102142e-03,-2.374777197837829590e-02
2.430759370326995850e-03,-2.142676338553428650e-02,-1.197419315576553345e-02,-2.438345924019813538e-02,-1.603969372808933258e-02,-1.905975304543972015e-02,-1.182914990931749344e-02,-9.447907796129584312e-04,2.804034389555454254e-03,2.139225043356418610e-02,5.422020796686410904e-03,-1.566919684410095215e-02,2.144814096391201019e-02,-2.425339072942733765e-02,6.865621078759431839e-03,-1.357223000377416611e-02,-1.190091297030448914e-02,2.390124462544918060e-02,-1.709480211138725281e-02,-8.402363397181034088e-03,-2.433137409389019012e-02,4.139080410823225975e-04,1.658110506832599640e-02,1.232978887856006622e-02,8.823524229228496552e-03,-2.580132707953453064e-02,-1.229150407016277313e-02,-7.301937323063611984e-03,-1.597244292497634888e-02,1.099542342126369476e-02,1.381814945489168167e-02,-3.100876463577151299e-03
1.762820780277252197e-02,-9.780517779290676117e-03,3.891315544024109840e-03,9.976197965443134308e-03,2.234273403882980347e-02,-3.384114010259509087e-03,3.793612355366349220e-03,-1.108024921268224716e-02,4.709394183009862900e-03,1.030801143497228622e-02,1.109716389328241348e-02,-1.477038115262985229e-02,1.668288372457027435e-02,-1.787863299250602722e-02,2.882330154534429312e-04,1.874772831797599792e-02,-1.074147759936749935e-03,-1.298508420586585999e-02,-2.039097622036933899e-02,-1.837057294324040413e-03,2.592202974483370781e-03,9.491762146353721619e-03,1.515056565403938293e-02,-2.585004549473524094e-03,-1.906823553144931793e-02,-2.200312167406082153e-02,1.730657555162906647e-02,7.851168513298034668e-03,1.080327294766902924e-02,4.462935496121644974e-03,-2.338528446853160858e-02,-8.587201125919818878e-03
1.371223293244838715e-02,-9.621922858059406281e-03,2.969244262203574181e-03,-3.567747771739959717e-03,-2.273269742727279663e-02,2.099510096013545990e-02,-3.136142157018184662e-03,-2.483784407377243042e-02,4.251269157975912094e-03,-2.017132565379142761e-02,4.419438540935516357e-03,1.987366750836372375e-02,2.272886782884597778e-02,-1.817026734352111816e-02,-6.481204647570848465e-03,6.759131792932748795e-03,-8.932626806199550629e-03,-6.071656011044979095e-03,1.342180371284484863e-02,1.536054257303476334e-02,1.336184516549110413e-02,3.027722705155611038e-03,1.019311323761940002e-02,-1.411420665681362152e-02,1.358407363295555115e-02,1.375275757163763046e-02,2.112733386456966400e-02,1.200763392262160778e-03,-2.285661548376083374e-02,1.509452704340219498e-02,7.712165359407663345e-03,8.064806461334228516e-03
2.445130050182342529e-02,-2.084114030003547668e-02,1.227170135825872421e-02,1.482359319925308228e-02,1.037749811075627804e-03,-1.666476577520370483e-02,2.357269451022148132e-02,1.662553474307060242e-02,-1.861466094851493835e-02,1.928336336277425289e-03,-1.401375886052846909e-02,-1.717811077833175659e-02,4.245012532919645309e-03,1.424899417906999588e-02,-4.333618097007274628e-03,2.385336160659790039e-02,5.808220710605382919e-03,-1.040806900709867477e-02,1.950361952185630798e-02,-1.485758647322654724e-02,-1.401692721992731094e-02,2.571965381503105164e-02,-1.970781572163105011e-02,2.523205615580081940e-02,-3.868527011945843697e-03,-1.222055777907371521e-02,-1.418781001120805740e-02,-1.501495251432061195e-03,-2.568781748414039612e-02,1.026725582778453827e-02,1.865763962268829346e-02,1.161267980933189392e-02
-9.931502863764762878e-03,-2.233789302408695221e-02,-7.152040954679250717e-03,1.108811516314744949e-02,1.093517523258924484e-02,-1.711599528789520264e-02,2.025409042835235596e-02,2.631107112392783165e-03,-1.645095273852348328e-02,-2.431983500719070435e-02,-6.061467342078685760e-03,2.158688614144921303e-03,3.972362261265516281e-03,2.698089228942990303e-03,1.028600148856639862e-03,1.103093288838863373e-02,9.260348975658416748e-03,-2.197293192148208618e-02,-1.858888193964958191e-02,-2.337211370468139648e-02,2.572032064199447632e-02,3.181109204888343811e-03,1.409550942480564117e-02,-1.015248894691467285e-02,-1.668735034763813019e-02,-1.969176344573497772e-02,-1.998733542859554291e-02,-2.162742614746093750e-02,-1.605081371963024139e-02,-2.178751118481159210e-02,2.006421238183975220e-02,-1.190353999845683575e-03
-7.293099071830511093e-03,2.463776431977748871e-02,-8.537259884178638458e-03,-1.563122123479843140e-02,-6.968606729060411453e-03,-6.095925811678171158e-03,-8.127352222800254822e-03,-1.341372169554233551e-02,2.138918265700340271e-02,-4.455964080989360809e-03,-7.280392106622457504e-03,-2.394110709428787231e-02,1.560930744744837284e-03,-2.117588929831981659e-02,1.515332423150539398e-02,9.574805386364459991e-03,-5.600430071353912354e-03,-6.359936203807592392e-03,1.310657244175672531e-03,7.375311106443405151e-03,1.022711955010890961e-02,-1.057137269526720047e-02,2.330221049487590790e-02,2.126031555235385895e-02,2.369507215917110443e-02,-2.596092177554965019e-03,-3.321234835311770439e-03,3.303859615698456764e-03,-2.332942560315132141e-02,-1.973307132720947266e-02,1.980951614677906036e-02,2.480388991534709930e-02
-2.507789805531501770e-02,1.458925940096378326e-02,8.905488997697830200e-03,-2.528349123895168304e-02,-1.761688478291034698e-02,-1.497833058238029480e-02,-1.232321094721555710e-02,-2.109370008111000061e-02,-2.332405932247638702e-02,1.913096569478511810e-02,-1.655726507306098938e-02,1.393941417336463928e-02,6.112719886004924774e-03,2.814798848703503609e-03,-8.706562221050262451e-03,-1.310753077268600464e-02,1.451509818434715271e-02,2.251579612493515015e-02,-8.282874478027224541e-04,6.512315012514591217e-03,-1.289209444075822830e-02,1.260394055861979723e-04,2.224501408636569977e-02,-2.445952221751213074e-02,-2.335569076240062714e-02,-2.267869189381599426e-02,8.886211551725864410e-03,-1.668352633714675903e-02,2.094227261841297150e-02,1.598394883330911398e-04,1.422730041667819023e-03,4.211188759654760361e-03
1.974480226635932922e-02,-1.742679439485073090e-02,-4.766828846186399460e-03,2.278414182364940643e-02,1.093911658972501755e-02,8.958596736192703247e-03,3.017899114638566971e-03,2.037482522428035736e-02,-2.312109991908073425e-02,-7.332373876124620438e-03,-5.043013487011194229e-03,-2.033508010208606720e-02,-1.568790525197982788e-03,-2.469731867313385010e-02,7.761420216411352158e-03,-2.218888700008392334e-02,-1.783268898725509644e-02,-1.060498878359794617e-02,-1.800025999546051025e-02,-1.340161357074975967e-02,-2.183123305439949036e-02,1.321955118328332901e-02,3.048943355679512024e-03,-1.895861700177192688e-02,1.373535022139549255e-02,-2.012844011187553406e-02,1.422104146331548691e-02,1.491863280534744263e-02,-1.765058562159538269e-02,2.512780576944351196e-02,-6.336013786494731903e-03,-2.396137453615665436e-02
2.686582505702972412e-03,6.365608423948287964e-03,1.169003080576658249e-02,6.904933135956525803e-03,-7.979121990501880646e-03,2.185151167213916779e-02,5.435253027826547623e-03,-1.169596239924430847e-02,-2.117324434220790863e-02,-2.980936784297227859e-03,-2.579908445477485657e-02,-2.130113169550895691e-02,2.071149274706840515e-02,1.323515642434358597e-02,6.179551593959331512e-03,-2.236734516918659210e-02,-4.660639911890029907e-03,1.194961182773113251e-02,1.163635589182376862e-02,1.068528275936841965e-02,-2.338141389191150665e-02,5.331922788172960281e-03,-1.085649855667725205e-04,-7.487505208700895309e-04,5.840382073074579239e-04,2.407893538475036621e-03,8.526025339961051941e-03,-1.906904205679893494e-02,1.263505313545465469e-02,-2.384827658534049988e-02,-2.055981382727622986e-02,5.473703145980834961e-03
-2.516095712780952454e-02,-2.079603821039199829e-02,2.435666881501674652e-02,-2.146856486797332764e-02,-6.416324060410261154e-03,1.138410344719886780e-02,2.314653829671442509e-04,-2.338784188032150269e-02,1.031361799687147141e-02,5.523848813027143478e-03,-4.290211014449596405e-03,9.261388331651687622e-03,1.707019470632076263e-02,1.202174741774797440e-02,2.186183817684650421e-02,1.440372900106012821e-03,1.317236758768558502e-02,3.866890678182244301e-03,2.215423062443733215e-02,1.646508462727069855e-02,-1.395763456821441650e-02,-2.459422685205936432e-02,2.393968217074871063e-02,1.670152507722377777e-02,-2.132335677742958069e-02,-1.819210825487971306e-03,-1.837791991420090199e-03,7.541106082499027252e-03,1.004091091454029083e-02,6.119208410382270813e-03,1.326256711035966873e-02,-6.394330877810716629e-03
2.549936622381210327e-02,1.562403328716754913e-02,-8.645539171993732452e-03,-2.301541389897465706e-03,-1.467573828995227814e-02,1.961413584649562836e-02,-1.968439109623432159e-02,-6.773363798856735229e-03,9.521542116999626160e-03,8.221560157835483551e-03,2.159018069505691528e-03,3.657277673482894897e-03,1.262751594185829163e-02,6.651656236499547958e-03,1.451638992875814438e-02,1.734564197249710560e-03,1.689906232059001923e-02,1.330472622066736221e-02,-6.822306662797927856e-03,-1.322389952838420868e-02,-2.141235955059528351e-02,2.251676842570304871e-02,7.678714580833911896e-03,-6.077884696424007416e-03,-3.563086269423365593e-03,-1.301220338791608810e-02,1.025697682052850723e-02,-9.056532755494117737e-03,6.265716627240180969e-03,2.167221903800964355e-02,2.552575245499610901e-02,-2.250343561172485352e-02
1.792923733592033386e-02,8.745357044972479343e-04,-8.899462409317493439e-03,2.430273778736591339e-02,2.431052923202514648e-02,-2.053330419585108757e-03,-4.358702804893255234e-03,1.105737499892711639e-02,-1.893607154488563538e-02,1.227965112775564194e-03,-2.004078030586242676e-02,3.812304930761456490e-03,9.002394042909145355e-03,-8.830187842249870300e-03,-1.610320620238780975e-02,1.976300263777375221e-03,2.355192229151725769e-02,-1.633968017995357513e-02,1.821004971861839294e-02,2.231410890817642212e-02,1.173593755811452866e-02,4.629904869943857193e-03,5.137037485837936401e-03,1.017628936097025871e-03,1.652117073535919189e-02,8.525483310222625732e-03,-2.394355833530426025e-02,2.305281534790992737e-02,1.603107899427413940e-02,1.001415587961673737e-02,3.788931295275688171e-03,-1.161456108093261719e-02
-2.151054330170154572e-02,-1.598301157355308533e-02,-1.249882392585277557e-02,-3.082547895610332489e-02,-8.853438310325145721e-03,1.685571670532226562e-02,4.320503678172826767e-03,-1.435453630983829498e-02,-8.315616287291049957e-03,-1.486098859459161758e-02,6.314506172202527523e-04,2.444623783230781555e-02,5.732327233999967575e-03,-4.939748439937829971e-03,1.428627688437700272e-02,5.340987816452980042e-03,6.400511134415864944e-03,-1.621464826166629791e-02,1.438510976731777191e-02,-1.402716152369976044e-02,3.895505517721176147e-02,-1.627528108656406403e-02,-1.676824130117893219e-02,-2.423434518277645111e-02,-4.990081768482923508e-03,3.878283314406871796e-03,-3.732038196176290512e-03,-6.591818295419216156e-03,-2.523838728666305542e-02,-1.436802744865417480e-02,-3.397173015400767326e-03,3.284711390733718872e-03
-8.701105602085590363e-03,-2.036922378465533257e-03,2.327813580632209778e-02,6.097033154219388962e-03,9.058325551450252533e-03,1.815130701288580894e-03,-7.035712245851755142e-03,-1.567776128649711609e-02,6.007767748087644577e-03,1.777649670839309692e-02,-1.244946289807558060e-02,1.659917086362838745e-02,-1.012613251805305481e-02,-7.637641392648220062e-03,9.150083176791667938e-03,-6.909167859703302383e-03,-2.455995418131351471e-02,-4.283339250832796097e-03,5.511540453881025314e-03,-3.798227384686470032e-02,3.239173814654350281e-02,2.263391856104135513e-03,-2.782756229862570763e-03,-8.443838916718959808e-03,-9.563946165144443512e-03,-3.669175785034894943e-03,4.284474067389965057e-03,9.012139402329921722e-03,-1.754294522106647491e-02,2.391544356942176819e-02,-1.611166819930076599e-02,1.514820381999015808e-02
-3.694817051291465759e-02,-1.995618082582950592e-02,1.534471055492758751e-03,-4.550838842988014221e-03,-2.709905616939067841e-03,1.241378136910498142e-03,1.079905498772859573e-02,-2.499922923743724823e-02,-5.141288973391056061e-03,1.634557172656059265e-02,1.415158994495868683e-02,6.934009026736021042e-03,-1.870459131896495819e-02,1.326549332588911057e-02,-2.169938758015632629e-02,-3.283482277765870094e-03,-2.892930433154106140e-02,1.698954589664936066e-02,1.306805759668350220e-02,-3.614034503698348999e-02,3.962381184101104736e-02,-2.510266378521919250e-02,1.575717516243457794e-02,-1.604088768362998962e-02,-8.334068581461906433e-03,4.350510239601135254e-02,-2.063710428774356842e-02,1.302095036953687668e-02,-3.066359832882881165e-02,-2.973806811496615410e-03,-2.554850280284881592e-02,-1.275579910725355148e-02
-3.213454969227313995e-03,-1.749123819172382355e-02,-2.375243639107793570e-04,-3.243606071919202805e-03,-2.121544629335403442e-02,2.050701715052127838e-02,2.246294170618057251e-02,1.056089159101247787e-02,-2.601171284914016724e-02,-1.497661788016557693e-02,-8.547865785658359528e-03,-2.087464183568954468e-02,-1.838054880499839783e-02,-1.879845373332500458e-02,1.964301802217960358e-03,1.358546875417232513e-02,1.958293095231056213e-02,-1.312996819615364075e-02,-2.097312361001968384e-02,-3.192036971449851990e-02,1.545072998851537704e-02,-1.807172782719135284e-02,-1.216607913374900818e-02,1.513303164392709732e-02,-1.612518355250358582e-02,1.821958459913730621e-02,-1.674018916673958302e-03,3.822192549705505371e-02,2.503071678802371025e-03,1.470132730901241302e-02,-1.045943330973386765e-02,1.166992913931608200e-02
9.726250544190406799e-03,-2.538022119551897049e-03,-2.287172526121139526e-02,-8.528984151780605316e-03,2.905297465622425079e-02,-3.754448145627975464e-03,2.595829777419567108e-02,-3.273107483983039856e-02,-8.864440955221652985e-03,2.063913643360137939e-02,1.416250504553318024e-02,-5.694804247468709946e-03,7.275569252669811249e-03,9.573684073984622955e-03,6.375987548381090164e-03,5.515267606824636459e-03,-1.472533331252634525e-04,1.762288622558116913e-02,-2.611813507974147797e-02,-8.503712713718414307e-03,7.968498975969851017e-04,9.466871619224548340e-03,-9.327214211225509644e-03,1.058872439898550510e-04,4.245594143867492676e-03,2.137282863259315491e-02,-1.591701805591583252e-02,3.737607225775718689e-02,1.212800852954387665e-02,8.019578526727855206e-04,8.150720037519931793e-03,-1.217969972640275955e-02
-1.504180673509836197e-02,-1.488065533339977264e-02,1.042956486344337463e-02,2.699751406908035278e-02,-1.405956409871578217e-02,1.800597459077835083e-02,2.255990728735923767e-02,-2.913806773722171783e-02,5.620613694190979004e-02,1.318018417805433273e-02,1.499178539961576462e-02,-1.989987306296825409e-02,2.486249897629022598e-03,4.461583215743303299e-03,-2.442117407917976379e-02,-2.362943626940250397e-02,-2.554379217326641083e-02,5.916723236441612244e-02,-2.047408744692802429e-02,-8.573736064136028290e-03,1.397554855793714523e-02,1.286800601519644260e-03,-6.522925104945898056e-03,-2.065427415072917938e-02,-5.842376500368118286e-03,6.413604319095611572e-02,-2.087462693452835083e-03,3.116631880402565002e-02,1.120416540652513504e-02,8.743484504520893097e-03,2.552952803671360016e-02,-1.011586748063564301e-02
-4.020528867840766907e-02,-1.121054962277412415e-02,-2.396650239825248718e-02,-4.434669390320777893e-02,1.414295658469200134e-02,-2.604471333324909210e-02,2.985287690535187721e-03,-3.734522312879562378e-02,-5.150881130248308182e-03,3.911590948700904846e-02,2.110026031732559204e-02,-4.651048779487609863e-02,3.841951861977577209e-02,2.264915406703948975e-02,-3.847733838483691216e-03,-1.772676035761833191e-02,-1.023098942823708057e-03,7.103330641984939575e-02,-4.051728174090385437e-02,-9.997748583555221558e-02,4.392829164862632751e-02,3.233416378498077393e-02,-3.336460888385772705e-02,2.123918570578098297e-02,-3.874335438013076782e-02,7.810579985380172729e-02,-2.310903184115886688e-02,1.124946027994155884e-01,-1.238923147320747375e-02,1.210842933505773544e-02,-7.474412210285663605e-03,9.294329211115837097e-03
-3.447957336902618408e-02,1.860775053501129150e-02,7.239195518195629120e-03,-2.448540739715099335e-02,1.462063752114772797e-02,-9.565361775457859039e-03,-1.841016812250018120e-03,1.467088982462882996e-02,2.254698611795902252e-02,2.643886022269725800e-02,2.703293040394783020e-02,-2.449566870927810669e-02,4.394650459289550781e-02,-1.075129373930394650e-03,8.027246221899986267e-03,1.951472088694572449e-02,-1.281210337765514851e-03,4.138326644897460938e-02,-3.783697262406349182e-02,-4.112406075000762939e-02,7.572133094072341919e-02,1.109363418072462082e-02,1.264528743922710419e-02,5.709324963390827179e-03,-1.411718782037496567e-02,7.948390394449234009e-02,1.311120484024286270e-02,8.154196292161941528e-02,-1.904120855033397675e-02,2.025559917092323303e-02,-2.403295412659645081e-02,-1.837377622723579407e-02
-5.918356124311685562e-03,3.905195370316505432e-02,2.613639831542968750e-02,8.457130752503871918e-03,-1.371662411838769913e-02,4.566460847854614258e-03,2.542391978204250336e-02,-7.509019970893859863e-02,8.576802909374237061e-02,2.620916627347469330e-02,4.027746245265007019e-02,-1.352686900645494461e-03,4.141847603023052216e-03,-1.351027190685272217e-02,2.418706938624382019e-02,6.807912606745958328e-03,3.782880306243896484e-02,1.405183039605617523e-02,-4.269802197813987732e-02,-3.928475826978683472e-02,6.711124628782272339e-02,-1.236766576766967773e-02,2.176575362682342529e-02,3.071805695071816444e-03,-1.883582398295402527e-02,5.395877175033092499e-03,3.125592693686485291e-02,3.351643681526184082e-02,-2.048742398619651794e-02,2.594209043309092522e-03,1.236635353416204453e-02,-1.352666411548852921e-02
-6.505684554576873779e-02,2.141090482473373413e-02,2.956368774175643921e-02,-8.318280801177024841e-03,-2.883644402027130127e-02,6.014096084982156754e-03,1.278343424201011658e-02,-4.606047645211219788e-02,6.420595198869705200e-02,5.313729122281074524e-02,1.061587855219841003e-01,-2.480106055736541748e-02,4.047654196619987488e-02,4.764926806092262268e-02,4.415606334805488586e-02,-1.502236910164356232e-02,4.150229319930076599e-02,6.157384812831878662e-02,-3.720210120081901550e-02,-8.070948719978332520e-02,8.564224839210510254e-02,-6.074222177267074585e-02,4.406457021832466125e-02,1.965244114398956299e-02,-3.850052133202552795e-02,5.532608553767204285e-02,5.283664539456367493e-02,4.480580985546112061e-02,-9.282239526510238647e-02,-1.291067898273468018e-02,1.401822827756404877e-02,-2.682842686772346497e-02
-5.543379113078117371e-02,2.170107699930667877e-02,-1.730429194867610931e-02,-2.360163256525993347e-02,-7.888805121183395386e-03,-2.564384043216705322e-02,-3.468325361609458923e-03,-2.222413010895252228e-02,5.722024291753768921e-02,1.935406029224395752e-02,6.523895263671875000e-02,-1.909534446895122528e-02,5.554718151688575745e-02,-3.918867092579603195e-03,3.448029456194490194e-04,-7.063477765768766403e-03,-6.260403431951999664e-03,5.697629228234291077e-02,-1.607119664549827576e-02,-4.642052948474884033e-02,6.711079925298690796e-02,-8.256161212921142578e-02,6.340964138507843018e-02,1.982554234564304352e-02,-7.971016690135002136e-03,1.013516709208488464e-01,5.502161756157875061e-02,2.872853167355060577e-02,-5.678592249751091003e-02,-4.950584843754768372e-02,4.125358909368515015e-02,-4.826844483613967896e-02
-3.614371269941329956e-02,-2.140041906386613846e-03,2.357147075235843658e-02,-2.967071719467639923e-02,3.298272192478179932e-02,-1.873238570988178253e-02,2.263702824711799622e-02,2.252102829515933990e-02,3.213946893811225891e-02,-1.728183217346668243e-02,3.134470805525779724e-02,-9.827787056565284729e-03,1.092570833861827850e-02,-3.493563458323478699e-02,3.914264030754566193e-03,1.477555138990283012e-03,-1.218172814697027206e-02,3.052916191518306732e-02,-3.049176186323165894e-02,-3.487021848559379578e-02,1.624650694429874420e-02,-4.482286795973777771e-02,6.373856682330369949e-03,-6.781559903174638748e-03,8.300287649035453796e-03,6.257651001214981079e-02,1.206365041434764862e-02,1.198507193475961685e-02,-1.809227280318737030e-02,-2.515051700174808502e-02,2.711576409637928009e-02,-1.176559180021286011e-02
-1.133812870830297470e-02,1.050494424998760223e-02,-9.442823939025402069e-03,1.107288431376218796e-02,3.082351572811603546e-02,-1.438971702009439468e-02,2.101040817797183990e-02,2.532188082113862038e-03,-1.325010508298873901e-02,1.785469055175781250e-02,-2.290943823754787445e-02,1.132323523052036762e-03,1.934255473315715790e-02,3.695460036396980286e-02,1.364312972873449326e-02,-1.448771078139543533e-02,-2.639912441372871399e-02,2.556558512151241302e-02,-1.071505248546600342e-03,-1.214084029197692871e-02,2.747037215158343315e-03,-1.826531812548637390e-02,-2.337064780294895172e-02,-1.826275885105133057e-02,-2.249351516366004944e-02,1.331848558038473129e-02,-2.421827055513858795e-02,-9.483334608376026154e-03,-6.876959465444087982e-03,-1.329853665083646774e-02,-1.965228840708732605e-02,2.743634395301342010e-03
-4.940620064735412598e-02,2.293774858117103577e-02,-2.544700726866722107e-02,1.876289024949073792e-03,-4.663492087274789810e-03,2.552234008908271790e-02,-2.095031365752220154e-02,1.680270954966545105e-02,-3.192826174199581146e-03,4.245034605264663696e-02,-1.306544058024883270e-02,8.569560945034027100e-03,-3.792115487158298492e-03,4.793035611510276794e-02,-2.973476424813270569e-03,-1.751413010060787201e-02,-1.179930195212364197e-02,1.493584644049406052e-02,-1.379212085157632828e-02,-2.152056060731410980e-02,5.271124094724655151e-02,1.527015678584575653e-02,-7.952497340738773346e-03,1.085510943084955215e-02,-4.738555476069450378e-02,1.053850445896387100e-02,-3.169271722435951233e-02,-1.309982035309076309e-02,-3.470541536808013916e-02,-7.728647906333208084e-03,-1.050756406038999557e-02,4.735104274004697800e-03
-5.333077535033226013e-02,2.105332165956497192e-02,-1.278360094875097275e-02,9.544588625431060791e-03,9.510577656328678131e-03,-7.344261743128299713e-03,-1.743317209184169769e-02,-7.559499354101717472e-04,-2.353746443986892700e-02,3.515672683715820312e-02,-2.522873505949974060e-02,-4.672266542911529541e-03,1.664725691080093384e-02,5.347096547484397888e-02,-1.897358149290084839e-02,-1.149047818034887314e-02,-1.282256469130516052e-02,2.775868400931358337e-02,-1.465131435543298721e-02,-3.664692863821983337e-02,5.180030316114425659e-02,-6.976822856813669205e-03,-2.952085435390472412e-02,-1.241188030689954758e-02,-2.029839158058166504e-02,2.342229336500167847e-02,1.325692981481552124e-02,2.680005878210067749e-02,-2.762011438608169556e-02,-1.518824137747287750e-02,-3.085237555205821991e-02,-2.280213404446840286e-03
-6.242072582244873047e-02,6.229625549167394638e-03,-5.076614208519458771e-03,-2.506252378225326538e-02,2.580655738711357117e-03,-2.406309731304645538e-02,1.142354030162096024e-02,2.885583043098449707e-02,-4.798250645399093628e-02,5.002231150865554810e-02,2.715211920440196991e-02,1.331277750432491302e-02,3.697359934449195862e-02,5.578532442450523376e-02,7.837922312319278717e-03,4.897960927337408066e-03,-3.599397838115692139e-02,5.817087739706039429e-02,-1.485127117484807968e-02,-2.620638161897659302e-02,2.971398830413818359e-02,-1.918297074735164642e-02,5.989460274577140808e-03,-2.362450212240219116e-02,-2.520494349300861359e-02,5.893942713737487793e-02,-8.293371647596359253e-03,-9.670728817582130432e-03,-5.802372470498085022e-02,-6.022274866700172424e-02,9.357643313705921173e-03,4.122861474752426147e-02
-5.268508195877075195e-02,-2.156706713140010834e-02,-7.356673479080200195e-03,6.190463900566101074e-03,-7.515476550906896591e-03,1.502382010221481323e-02,-2.082402817904949188e-02,-2.113259769976139069e-02,-2.568215131759643555e-02,1.997218653559684753e-02,-2.811030484735965729e-03,-2.226108312606811523e-02,1.637063547968864441e-02,3.340587764978408813e-02,-2.662062831223011017e-02,-1.081356219947338104e-02,-4.553680866956710815e-02,1.275900006294250488e-02,-2.516160719096660614e-02,-3.520769998431205750e-02,2.278366498649120331e-02,3.569824621081352234e-03,1.555068790912628174e-02,1.548706553876399994e-02,5.576917435973882675e-03,3.498503938317298889e-02,-2.315763197839260101e-02,1.478002965450286865e-02,-4.660307243466377258e-02,-7.356217503547668457e-02,-1.376766618341207504e-02,3.027456626296043396e-02
-5.512022413313388824e-03,6.898752180859446526e-04,4.027938004583120346e-03,1.361051853746175766e-02,2.314422652125358582e-02,-2.248496562242507935e-02,-2.389204129576683044e-02,-6.774029694497585297e-03,-1.500386185944080353e-02,-1.667827554047107697e-02,5.295787006616592407e-03,1.578029990196228027e-02,1.103372662328183651e-03,1.919365371577441692e-03,-2.148285694420337677e-02,1.218496076762676239e-02,-2.313683554530143738e-02,-1.182538364082574844e-02,7.894236594438552856e-03,-1.241051871329545975e-02,2.693949453532695770e-02,1.805951818823814392e-02,-1.262779347598552704e-02,-2.011930570006370544e-02,-2.475897781550884247e-02,-1.012108754366636276e-03,-7.314470596611499786e-03,-9.187635150738060474e-04,1.101818401366472244e-02,-2.371672168374061584e-02,9.711174294352531433e-03,-2.036983892321586609e-02
4.305376205593347549e-03,-1.605274342000484467e-02,-1.611453830264508724e-03,3.473233897238969803e-03,-1.817353256046772003e-02,-1.341889053583145142e-02,-9.865964762866497040e-03,1.160016935318708420e-02,-2.263999916613101959e-02,-1.855205744504928589e-02,6.822841824032366276e-04,2.481805719435214996e-02,2.187899686396121979e-02,-1.439998042769730091e-03,-9.931433014571666718e-04,1.503096800297498703e-02,-1.415042392909526825e-02,-2.262506075203418732e-02,-1.265475712716579437e-02,6.531100720167160034e-03,2.199168875813484192e-02,-1.647397875785827637e-02,2.043682523071765900e-02,2.237492054700851440e-02,-1.627112738788127899e-02,-2.307732962071895599e-02,-2.445193752646446228e-02,4.314012825489044189e-03,9.149630554020404816e-03,-2.223085612058639526e-02,-2.011864259839057922e-02,2.490976080298423767e-02
9.530840441584587097e-03,9.100224822759628296e-03,2.405906468629837036e-02,-1.361000933684408665e-03,1.259858161211013794e-02,5.668373312801122665e-03,3.097534412518143654e-03,-2.160460129380226135e-02,-9.293679147958755493e-03,5.224627442657947540e-03,1.331967394798994064e-02,2.138941548764705658e-02,1.426655612885951996e-02,-2.916327677667140961e-03,-1.663985475897789001e-02,-1.682591252028942108e-02,9.878126904368400574e-03,-1.361178141087293625e-02,2.120227087289094925e-03,-2.367124520242214203e-02,-1.188324484974145889e-02,-8.208876475691795349e-03,-1.606869511306285858e-02,-2.258478663861751556e-02,2.263289317488670349e-02,-1.988965272903442383e-02,1.446727383881807327e-02,-1.333197485655546188e-02,-1.573249138891696930e-02,1.391161046922206879e-02,-2.064594626426696777e-02,9.455735795199871063e-03
1.746895164251327515e-02,3.198403632268309593e-03,-1.765638217329978943e-02,-6.305957678705453873e-03,1.305991411209106445e-02,-2.275723591446876526e-02,2.174961380660533905e-02,-1.009877305477857590e-02,-1.909387484192848206e-02,1.044012885540723801e-02,-1.230365689843893051e-02,-1.005700789391994476e-02,-1.448371098376810551e-03,-3.321890020743012428e-03,9.909721091389656067e-03,2.034116163849830627e-02,2.199153788387775421e-02,1.463482063263654709e-02,-2.555401436984539032e-02,-1.594946347177028656e-02,4.950391594320535660e-03,-2.226413041353225708e-02,8.927782997488975525e-03,-2.728100167587399483e-03,-9.029219858348369598e-03,-2.229470945894718170e-02,2.881893655285239220e-03,1.983140408992767334e-02,1.276440452784299850e-02,-2.197990193963050842e-02,1.506078802049160004e-02,-3.580127144232392311e-03
-8.074233308434486389e-03,2.306810207664966583e-02,2.332044392824172974e-02,2.562497369945049286e-02,3.327272599563002586e-03,-1.878336444497108459e-02,2.391910925507545471e-02,9.473695419728755951e-03,-1.759424805641174316e-02,-2.580101415514945984e-02,8.820165880024433136e-03,-1.300467760302126408e-03,1.459448225796222687e-02,-4.178975708782672882e-03,2.165975049138069153e-02,5.409903824329376221e-03,1.809996180236339569e-02,2.179118245840072632e-02,6.475442554801702499e-03,-1.100370287895202637e-02,6.048129871487617493e-03,3.529904643073678017e-03,-2.182456478476524353e-02,-2.172802202403545380e-02,-2.408337779343128204e-02,-7.198246661573648453e-03,-1.801394158974289894e-03,2.153675304725766182e-03,-1.089195907115936279e-02,-2.256893739104270935e-02,-6.701007951050996780e-03,2.339985780417919159e-02
2.449556067585945129e-02,-6.931790616363286972e-03,1.622254494577646255e-03,-2.352379029616713524e-03,-1.848954521119594574e-02,1.838463358581066132e-02,-1.652734167873859406e-02,1.848128810524940491e-02,-1.433549332432448864e-03,-1.661469414830207825e-02,-4.114049370400607586e-04,-2.532783150672912598e-02,1.241492293775081635e-02,1.056193932890892029e-02,-8.592458441853523254e-03,-8.016359061002731323e-03,7.227541878819465637e-03,-2.188768237829208374e-02,2.269309759140014648e-02,-1.852322369813919067e-02,-1.093226857483386993e-02,-1.242309715598821640e-02,1.820788532495498657e-02,-2.581207081675529480e-02,1.401097793132066727e-02,-2.112939208745956421e-02,-6.782987620681524277e-03,-1.847477816045284271e-02,-2.156526222825050354e-02,-1.185535875265486538e-04,9.527032263576984406e-03,-1.729569770395755768e-02
-1.859935000538825989e-02,4.732274450361728668e-03,1.736841537058353424e-02,-2.485582954250276089e-04,-4.075651668244972825e-05,-3.712655510753393173e-03,-4.504796117544174194e-03,-1.785680092871189117e-02,-2.135746879503130913e-03,-4.917713813483715057e-03,2.351339533925056458e-02,4.356858786195516586e-03,1.330363284796476364e-02,-1.614772900938987732e-02,2.493025176227092743e-02,9.536270052194595337e-03,-8.683510124683380127e-03,-2.145895548164844513e-02,-1.900882087647914886e-02,2.493239939212799072e-03,-1.241264399141073227e-02,1.477124448865652084e-02,2.192537859082221985e-02,1.655392465181648731e-03,-1.011746819131076336e-03,-8.563674986362457275e-03,-1.159270480275154114e-02,1.304536219686269760e-02,-1.011654827743768692e-02,-2.148172631859779358e-02,-4.980180878192186356e-03,-2.446738258004188538e-02
2.266425080597400665e-02,1.345271151512861252e-02,-2.198603935539722443e-02,3.264297498390078545e-03,1.166159193962812424e-02,-1.217079628258943558e-02,2.167431637644767761e-03,-5.743464920669794083e-03,2.156176976859569550e-02,9.478808497078716755e-04,9.903479367494583130e-03,-9.097320958971977234e-03,1.053297147154808044e-02,5.453309044241905212e-03,1.010526553727686405e-03,-2.365587651729583740e-02,-6.977023556828498840e-03,-1.372458599507808685e-02,-2.418523095548152924e-02,-1.982668414711952209e-02,-3.378289751708507538e-03,1.791080273687839508e-02,2.037520520389080048e-02,-2.021699026226997375e-02,-2.035344392061233521e-02,-2.060445956885814667e-02,-2.172665484249591827e-02,-2.085664309561252594e-02,-9.674426168203353882e-03,-1.477234903723001480e-02,2.328598871827125549e-02,2.322720550000667572e-02
-1.704403897747397423e-03,-2.419025264680385590e-02,8.566197939217090607e-03,-2.340094931423664093e-02,-9.530877694487571716e-03,-1.995066925883293152e-02,-8.310316130518913269e-03,2.520240843296051025e-02,4.051965661346912384e-03,-2.339474856853485107e-02,-2.140888944268226624e-02,-2.283323556184768677e-02,1.030089799314737320e-02,-6.235230714082717896e-03,7.471913471817970276e-03,2.101141959428787231e-02,4.753464367240667343e-03,1.277813874185085297e-02,-1.764885149896144867e-02,1.529247965663671494e-02,7.986701093614101410e-04,-2.132811769843101501e-02,-1.509275753051042557e-02,2.501043491065502167e-04,-1.385765243321657181e-02,2.342675253748893738e-02,2.476956881582736969e-02,9.230980649590492249e-03,-2.085340209305286407e-02,-2.547729527577757835e-03,6.630355026572942734e-03,-7.924045785330235958e-04
1.574676297605037689e-02,4.570211458485573530e-04,2.888704650104045868e-02,-7.018798496574163437e-03,1.396571751683950424e-03,1.607853733003139496e-02,-9.825345128774642944e-03,1.941905170679092407e-02,-1.278035156428813934e-02,-2.519762888550758362e-02,2.407503314316272736e-02,1.579714706167578697e-03,2.084781602025032043e-02,1.630791090428829193e-02,1.976944319903850555e-02,1.239135488867759705e-02,8.499821648001670837e-03,-2.192147774621844292e-03,-3.368910634890198708e-03,1.423991005867719650e-02,-4.343864042311906815e-03,-1.496391650289297104e-02,-1.847809366881847382e-02,1.483585126698017120e-02,-1.130281761288642883e-02,2.177752181887626648e-02,1.165704522281885147e-02,2.176206000149250031e-02,7.500954903662204742e-03,5.891250912100076675e-03,5.273435730487108231e-03,1.112044695764780045e-02
-7.321695331484079361e-03,-8.675259537994861603e-03,-2.461015060544013977e-02,1.575927063822746277e-02,2.051163278520107269e-02,2.020109817385673523e-02,1.555686723440885544e-02,5.092366132885217667e-03,1.321485731750726700e-02,1.793461665511131287e-02,8.166934363543987274e-03,8.703280240297317505e-03,-2.247460000216960907e-02,-1.657434739172458649e-02,1.292639598250389099e-02,1.069425605237483978e-02,1.341514941304922104e-02,-8.947213180363178253e-03,8.036745712161064148e-03,-2.444284269586205482e-03,-2.594216912984848022e-02,-2.269578911364078522e-02,1.913163997232913971e-02,-2.543498948216438293e-02,2.204026281833648682e-02,-1.525799650698900223e-02,-1.433369889855384827e-02,-9.141921997070312500e-03,-6.656644400209188461e-03,-2.043476141989231110e-02,1.706759259104728699e-02,8.128599263727664948e-03
-1.802797196432948112e-03,2.170713432133197784e-02,1.124563626945018768e-02,1.800621114671230316e-02,7.045596372336149216e-03,2.455238439142704010e-02,1.896697655320167542e-02,-6.442856509238481522e-03,4.548509791493415833e-02,1.250100089237093925e-03,2.871108055114746094e-02,-3.539109230041503906e-02,-3.670278936624526978e-03,1.160818245261907578e-02,-3.753586858510971069e-02,-2.957220003008842468e-02,1.281036250293254852e-02,5.166666209697723389e-02,-2.773239649832248688e-02,-9.200914762914180756e-03,2.334379823878407478e-03,-1.687542535364627838e-02,-1.578185358084738255e-03,1.332839950919151306e-02,-2.855861745774745941e-02,2.153625525534152985e-02,4.349466040730476379e-02,3.897522017359733582e-02,3.013511374592781067e-02,1.927271485328674316e-02,1.896029524505138397e-02,-2.995117008686065674e-02
-4.512558504939079285e-02,-3.600828582420945168e-03,-2.398245967924594879e-02,-2.677547186613082886e-02,2.548273839056491852e-02,-1.132244709879159927e-02,6.391087546944618225e-03,4.795764107257127762e-03,7.461983477696776390e-04,1.035977806895971298e-02,1.592299528419971466e-02,-1.170081179589033127e-02,3.389215841889381409e-02,1.535248477011919022e-02,-1.313880644738674164e-02,-2.313218638300895691e-02,-9.414543397724628448e-03,1.804169826209545135e-02,-1.123331300914287567e-02,-3.428627550601959229e-02,2.725513651967048645e-02,-2.727711945772171021e-02,3.633495792746543884e-02,-6.112908013164997101e-03,-3.285880386829376221e-02,1.910597458481788635e-02,4.001581668853759766e-02,3.006385453045368195e-02,-1.790839945897459984e-03,1.457373611629009247e-02,1.521034911274909973e-02,1.667297445237636566e-02
-6.526390463113784790e-02,2.851361781358718872e-02,-2.089223079383373260e-02,-4.323747474700212479e-03,6.534372922033071518e-03,1.614827476441860199e-02,-7.869814522564411163e-03,-2.535950392484664917e-02,1.073337066918611526e-02,6.968975812196731567e-02,1.259308774024248123e-02,-1.081932801753282547e-02,3.226652741432189941e-02,1.730930805206298828e-02,-4.175459500402212143e-03,-2.224897907581180334e-04,-5.478036776185035706e-02,7.908926159143447876e-02,-3.330130875110626221e-02,-7.187440991401672363e-02,7.317265123128890991e-02,5.547792185097932816e-03,-2.171701053157448769e-03,-3.360658511519432068e-02,-2.288053929805755615e-02,7.441094517707824707e-02,2.184590324759483337e-02,7.000887393951416016e-02,-6.564884632825851440e-02,1.194170117378234863e-02,3.202763199806213379e-02,1.854498684406280518e-02
-2.771336026489734650e-02,1.541740726679563522e-02,-4.704311862587928772e-02,-1.468024402856826782e-02,1.533611677587032318e-03,-2.121177501976490021e-02,-1.027111336588859558e-02,-3.857279568910598755e-02,3.456254256889224052e-03,7.272123545408248901e-02,7.100436836481094360e-02,-5.399578437209129333e-02,2.375927753746509552e-03,-2.776453737169504166e-03,-4.039134085178375244e-02,1.301731634885072708e-02,-5.698185414075851440e-02,7.498010993003845215e-02,-3.889029100537300110e-02,-1.024919450283050537e-01,5.612000823020935059e-03,1.733786985278129578e-02,2.712780982255935669e-02,-1.415418088436126709e-02,3.361548855900764465e-02,1.536663174629211426e-01,5.589351058006286621e-02,1.175006702542304993e-01,-3.338754922151565552e-02,-2.230054512619972229e-02,1.090786308050155640e-01,6.142388563603162766e-03
-3.782989457249641418e-02,3.227078169584274292e-02,-7.864549756050109863e-02,2.000825945287942886e-03,3.670376166701316833e-02,-2.630653232336044312e-02,-3.369534388184547424e-03,-7.725617289543151855e-02,7.579459808766841888e-03,3.025453351438045502e-02,1.082802861928939819e-01,-6.999444961547851562e-02,2.541501261293888092e-02,-2.096340991556644440e-03,-2.375259250402450562e-02,-1.353870145976543427e-02,-3.358837589621543884e-02,1.558265835046768188e-01,-5.955753102898597717e-02,-1.117125749588012695e-01,-3.663762286305427551e-02,5.442891642451286316e-02,2.386490814387798309e-02,-2.156245708465576172e-02,5.441491957753896713e-03,1.830090135335922241e-01,-5.425638984888792038e-03,1.373021304607391357e-01,-1.836033724248409271e-02,-2.153291180729866028e-02,1.420112997293472290e-01,-4.196386784315109253e-02
-8.776085823774337769e-02,6.157051399350166321e-02,-1.190672069787979126e-01,-1.230948604643344879e-02,1.007591336965560913e-01,-6.168397143483161926e-02,7.255021482706069946e-02,-8.245231211185455322e-02,2.585327811539173126e-02,1.215321645140647888e-01,1.552156507968902588e-01,-5.559434369206428528e-02,8.873938024044036865e-02,-3.967435657978057861e-02,-8.028990775346755981e-02,-3.300616517663002014e-02,-3.431022539734840393e-02,2.801128923892974854e-01,-5.235847458243370056e-02,-1.602423340082168579e-01,8.696211129426956177e-02,3.995513916015625000e-02,6.250883638858795166e-02,-3.467208147048950195e-02,-7.301053404808044434e-02,2.808822095394134521e-01,-4.150007665157318115e-02,2.145926952362060547e-01,-1.157424896955490112e-01,-5.495583638548851013e-02,9.124314039945602417e-02,4.784683510661125183e-02
-6.883846968412399292e-02,1.322063356637954712e-01,-1.101641580462455750e-01,-2.005950734019279480e-02,1.324744075536727905e-01,-8.913491666316986084e-02,5.513845756649971008e-02,-1.240791976451873779e-01,3.945426642894744873e-02,1.592248380184173584e-01,1.057297810912132263e-01,5.537934973835945129e-02,3.091194853186607361e-02,-1.049350425601005554e-01,-1.291783750057220459e-01,-5.347651988267898560e-02,-2.068951539695262909e-02,3.249098658561706543e-01,-5.296417325735092163e-02,-1.773552447557449341e-01,7.467684149742126465e-02,-2.291541732847690582e-02,1.014788374304771423e-01,-2.642113156616687775e-02,-7.021411508321762085e-02,3.343423306941986084e-01,-4.693072661757469177e-02,2.859579324722290039e-01,-9.916851669549942017e-02,-2.083158306777477264e-02,3.491966053843498230e-02,5.273023247718811035e-02
-1.543560475111007690e-01,1.477805972099304199e-01,-1.191564872860908508e-01,1.162609085440635681e-03,1.116122305393218994e-01,-7.024744153022766113e-02,3.202194720506668091e-02,-1.404889971017837524e-01,3.490684553980827332e-02,2.411884963512420654e-01,1.772924363613128662e-01,1.891680955886840820e-01,-4.356075078248977661e-02,-1.276937872171401978e-01,-2.337059974670410156e-01,-7.068848609924316406e-02,7.091372460126876831e-02,2.311618030071258545e-01,-5.470091477036476135e-03,-1.820216029882431030e-01,1.922518461942672729e-01,-4.850766807794570923e-02,1.399826407432556152e-01,3.046135790646076202e-02,-3.551100194454193115e-02,2.792557775974273682e-01,3.016651608049869537e-02,1.275459229946136475e-01,-1.258120238780975342e-01,-8.384945988655090332e-02,-8.951789140701293945e-02,2.205574214458465576e-01
-1.951320469379425049e-01,1.070013418793678284e-01,-1.166903600096702576e-01,-9.645784157328307629e-04,8.485541492700576782e-02,7.952953875064849854e-02,3.681180626153945923e-02,-2.960680127143859863e-01,6.496392190456390381e-02,2.986618578433990479e-01,2.676620483398437500e-01,8.445916324853897095e-02,-3.894105553627014160e-02,-8.123936504125595093e-02,-1.296436507254838943e-02,-6.299483589828014374e-03,9.624182432889938354e-02,6.225412338972091675e-02,3.929194808006286621e-02,-2.047953903675079346e-01,1.626315563917160034e-01,-9.305581450462341309e-02,9.114566445350646973e-02,8.679629862308502197e-02,5.880013853311538696e-02,8.234003186225891113e-02,1.445064246654510498e-01,6.370889488607645035e-03,-1.096554920077323914e-01,-8.642079681158065796e-02,-1.081410795450210571e-01,2.763353586196899414e-01
-1.887656897306442261e-01,9.432359784841537476e-02,-1.190132796764373779e-01,-6.696600466966629028e-02,7.517566531896591187e-02,1.637005805969238281e-01,6.090096384286880493e-02,-1.939053088426589966e-01,1.389838457107543945e-01,3.114309608936309814e-01,2.189550101757049561e-01,-6.946182809770107269e-03,9.507392346858978271e-02,8.177603594958782196e-03,1.528966575860977173e-01,-7.345872372388839722e-02,7.040742784738540649e-02,1.267342716455459595e-01,-2.956792153418064117e-02,-2.503705918788909912e-01,2.715530991554260254e-01,-2.088697403669357300e-01,8.352176100015640259e-02,7.520054280757904053e-02,1.655166968703269958e-02,1.250112950801849365e-01,6.168926134705543518e-02,6.098996102809906006e-02,-2.891419529914855957e-01,-2.459987252950668335e-02,-6.663715001195669174e-03,8.512731641530990601e-02
-2.256704419851303101e-01,-9.142987430095672607e-03,-1.372420191764831543e-01,-7.008905708789825439e-02,-4.425110667943954468e-02,2.048349827527999878e-01,7.340870797634124756e-02,-9.398859739303588867e-02,1.039803400635719299e-01,3.638908863067626953e-01,2.169884741306304932e-01,-4.048995673656463623e-02,1.397558748722076416e-01,4.989428073167800903e-02,2.190028131008148193e-01,2.447083406150341034e-02,6.598240695893764496e-03,1.078028976917266846e-01,-6.911030411720275879e-02,-2.844130694866180420e-01,2.597070038318634033e-01,-2.995969653129577637e-01,4.656214267015457153e-02,1.259301155805587769e-01,1.197635605931282043e-01,1.642226725816726685e-01,2.394028753042221069e-02,-1.749140955507755280e-02,-4.038879275321960449e-01,-4.963120073080062866e-02,-2.629895927384495735e-03,5.275528505444526672e-02
-1.297881156206130981e-01,6.817882508039474487e-02,-6.135503575205802917e-02,-1.503574103116989136e-02,-6.989620625972747803e-02,1.367094516754150391e-01,4.087223112583160400e-02,-5.582365673035383224e-03,4.465253651142120361e-02,1.643961519002914429e-01,1.252972334623336792e-01,-3.766140341758728027e-02,1.670709401369094849e-01,1.408110260963439941e-01,4.008796066045761108e-02,3.352651372551918030e-02,-6.011207029223442078e-02,1.463142186403274536e-01,-1.894460059702396393e-02,-1.837017089128494263e-01,2.267629802227020264e-01,-2.465842068195343018e-01,6.077152863144874573e-02,8.968910574913024902e-02,5.210820958018302917e-02,2.668147385120391846e-01,-6.075704842805862427e-02,5.291382595896720886e-02,-1.741813868284225464e-01,-5.820782482624053955e-02,-7.618827745318412781e-03,6.816607713699340820e-02
-9.296274930238723755e-02,1.357924379408359528e-02,-2.158020995557308197e-02,5.189961940050125122e-02,1.825136318802833557e-02,1.318332999944686890e-01,1.012650132179260254e-02,-5.975262448191642761e-02,-1.192129701375961304e-01,8.942692726850509644e-02,1.428237706422805786e-01,-8.421001024544239044e-03,2.787389792501926422e-02,2.610987722873687744e-01,-2.147702313959598541e-02,1.265774369239807129e-01,-2.623390778899192810e-02,-2.609436027705669403e-02,-1.322993542999029160e-02,-5.293330922722816467e-02,2.106966078281402588e-01,-1.798411011695861816e-01,-4.110783338546752930e-02,7.400421798229217529e-02,8.656314574182033539e-03,2.272586822509765625e-01,-5.344698205590248108e-02,-1.150130704045295715e-01,-2.145450711250305176e-01,-5.890118703246116638e-02,-1.054037660360336304e-01,1.072707995772361755e-01
-1.686439961194992065e-01,-4.903532564640045166e-02,3.964819014072418213e-02,1.710405573248863220e-02,1.783264987170696259e-02,5.334803834557533264e-02,-5.131632555276155472e-03,-5.347666889429092407e-02,-1.277125328779220581e-01,1.290946304798126221e-01,9.423834830522537231e-02,-3.940828517079353333e-02,1.312639936804771423e-02,2.685289084911346436e-01,9.354013949632644653e-03,8.074422180652618408e-02,-9.786002337932586670e-03,-3.689798759296536446e-03,5.883324891328811646e-03,-1.027325019240379333e-01,2.366407662630081177e-01,5.948730744421482086e-03,-8.159760385751724243e-02,4.387271404266357422e-02,-3.717865794897079468e-02,1.159363836050033569e-01,-2.334879711270332336e-02,-2.493095397949218750e-02,-1.442329734563827515e-01,-4.218655079603195190e-02,-1.342501193284988403e-01,9.244585037231445312e-02
-1.401630789041519165e-01,-7.591832429170608521e-02,1.981112174689769745e-02,-1.488957181572914124e-02,4.663982894271612167e-03,5.891716573387384415e-03,1.103163976222276688e-02,-8.849052712321281433e-03,-7.997217029333114624e-02,1.018126308917999268e-01,3.977392241358757019e-02,8.488425053656101227e-03,5.605765432119369507e-02,1.704203933477401733e-01,1.333254296332597733e-02,2.988602779805660248e-02,-4.150401428341865540e-02,-1.443560980260372162e-02,6.308246403932571411e-03,-1.238931789994239807e-01,1.672926694154739380e-01,4.488063231110572815e-02,-3.429265227168798447e-03,4.132358357310295105e-03,-7.292938977479934692e-02,1.121546849608421326e-01,-5.648757517337799072e-02,-7.235236465930938721e-02,-1.666831523180007935e-01,-3.866390511393547058e-02,-9.368667006492614746e-02,2.212880738079547882e-02
-9.287238866090774536e-02,2.702828729525208473e-03,-1.402700413018465042e-02,1.463362481445074081e-02,-7.347058854065835476e-04,-1.324378605931997299e-02,-1.194783486425876617e-03,-6.255409866571426392e-02,-8.281329274177551270e-02,4.114981368184089661e-02,6.190811470150947571e-02,-1.525818184018135071e-02,1.794770732522010803e-02,2.099500000476837158e-01,6.699187681078910828e-03,-2.444444037973880768e-02,-4.584467783570289612e-02,8.598598092794418335e-02,-1.364423613995313644e-02,-1.836774647235870361e-01,8.346826583147048950e-02,3.412798419594764709e-02,5.392203480005264282e-02,-5.212331190705299377e-03,-8.027607202529907227e-02,1.487542092800140381e-01,-1.701239496469497681e-02,-2.999540790915489197e-02,-8.032321184873580933e-02,-4.925463721156120300e-02,-3.590792790055274963e-02,4.162199795246124268e-02
-1.155609339475631714e-01,3.961438778787851334e-03,-2.555808611214160919e-02,-1.152202393859624863e-02,3.193949162960052490e-02,8.690989576280117035e-03,-1.552623230963945389e-02,-2.718288265168666840e-02,-7.861597090959548950e-02,6.264219433069229126e-02,4.775744676589965820e-02,5.150353536009788513e-03,3.707061707973480225e-02,1.750500947237014771e-01,2.969910763204097748e-02,-9.894847869873046875e-03,-9.675543755292892456e-02,7.538036257028579712e-02,1.256773062050342560e-02,-1.340992748737335205e-01,8.548396825790405273e-02,6.062023341655731201e-03,1.787627860903739929e-02,5.307868123054504395e-03,-7.111813873052597046e-02,8.540286868810653687e-02,-5.594386905431747437e-02,7.853952236473560333e-03,-6.022171676158905029e-02,-7.959439605474472046e-02,3.958087414503097534e-03,4.071225225925445557e-02
-7.793696969747543335e-02,1.176628936082124710e-02,-1.580087281763553619e-02,5.099852569401264191e-03,-1.233926322311162949e-02,1.206762716174125671e-02,-1.497061550617218018e-02,4.020935390144586563e-03,-9.088436490856111050e-04,2.213318645954132080e-02,1.113809924572706223e-02,-4.742624610662460327e-02,-5.884865298867225647e-03,9.276398271322250366e-02,3.121251799166202545e-02,-1.830306090414524078e-02,-5.654586479067802429e-02,1.808615587651729584e-02,1.079742889851331711e-02,-8.441085368394851685e-02,8.338379114866256714e-02,2.567569911479949951e-02,6.126299500465393066e-03,1.041066087782382965e-02,-3.506490960717201233e-02,3.563433513045310974e-02,-1.707114093005657196e-02,2.394877001643180847e-02,-3.238766640424728394e-02,-6.315720081329345703e-02,6.677493802271783352e-04,-1.047668699175119400e-02
-2.762378193438053131e-02,-4.162846598774194717e-03,-1.824282296001911163e-02,3.170627867802977562e-03,-1.582891494035720825e-02,7.852838374674320221e-03,-1.360478345304727554e-03,-2.039139944827184081e-04,5.709867458790540695e-03,1.085300464183092117e-02,-1.880672946572303772e-02,4.546857671812176704e-04,-4.524056799709796906e-03,1.609734445810317993e-02,2.437674440443515778e-02,-2.989159896969795227e-02,-5.848771426826715469e-03,1.487072184681892395e-02,-2.574057132005691528e-02,-6.399922072887420654e-03,1.764371804893016815e-02,1.621774956583976746e-02,1.727310940623283386e-02,8.732236921787261963e-03,-3.027203865349292755e-02,3.028818219900131226e-02,1.621210947632789612e-02,2.066721953451633453e-02,1.432732492685317993e-02,1.407074369490146637e-02,1.045388728380203247e-02,-7.836876437067985535e-03
9.205143898725509644e-03,2.653136104345321655e-02,1.124165486544370651e-03,4.421045538038015366e-03,-1.724588871002197266e-02,1.859945803880691528e-02,-7.897557690739631653e-03,-2.086188457906246185e-02,1.515268161892890930e-02,-1.189600862562656403e-02,9.046349674463272095e-03,-2.157580805942416191e-03,2.935497788712382317e-03,1.268462045118212700e-03,1.892986893653869629e-02,7.313445210456848145e-03,1.967217773199081421e-02,2.146897464990615845e-02,1.357361674308776855e-02,2.351136505603790283e-02,1.409614365547895432e-02,-1.250416412949562073e-02,-2.266927063465118408e-02,-1.371819339692592621e-02,4.503722302615642548e-03,1.250264421105384827e-02,1.983785443007946014e-02,-8.355224505066871643e-03,-7.857889868319034576e-03,-1.288059819489717484e-02,-4.725726787000894547e-03,-1.898076757788658142e-02
-1.473335456103086472e-02,-8.367578499019145966e-03,-1.651048474013805389e-02,1.024697162210941315e-02,1.339027751237154007e-02,7.981501519680023193e-03,5.995253100991249084e-03,3.280794480815529823e-03,2.367873303592205048e-02,8.235152810811996460e-03,6.206191144883632660e-03,-2.250327542424201965e-02,2.264844253659248352e-02,-2.029388956725597382e-02,9.729690849781036377e-03,-1.726538641378283501e-03,2.512195892632007599e-02,1.675136759877204895e-02,-1.238800399005413055e-02,-1.142628211528062820e-02,-6.318763829767704010e-03,7.718568667769432068e-03,-2.236354537308216095e-02,-3.667844459414482117e-03,-1.801542378962039948e-02,1.413401914760470390e-03,-1.653004996478557587e-02,9.574432857334613800e-03,-3.734483150765299797e-03,2.974336734041571617e-03,2.073681354522705078e-02,1.189512317068874836e-03
8.135646581649780273e-03,1.187296677380800247e-02,-1.016172813251614571e-03,1.744378008879721165e-03,-1.478250487707555294e-03,2.191670797765254974e-02,-1.138223521411418915e-02,9.902909398078918457e-03,2.857259532902389765e-04,9.775145910680294037e-03,-1.835440751165151596e-03,2.641025457705836743e-05,2.677198732271790504e-03,-2.128571085631847382e-02,-1.704478822648525238e-02,-1.511983294039964676e-02,3.821845166385173798e-03,1.230380870401859283e-02,9.421956725418567657e-03,1.645471900701522827e-03,1.091281883418560028e-02,2.523905038833618164e-02,-1.875506341457366943e-02,3.985973075032234192e-03,-5.200731102377176285e-03,-1.376515440642833710e-02,-1.615943945944309235e-02,-1.549650169909000397e-02,-2.558644302189350128e-02,-6.001365371048450470e-03,6.058683618903160095e-03,2.485812641680240631e-02
-1.422849018126726151e-02,1.503344625234603882e-02,-6.071538664400577545e-03,1.478368043899536133e-02,-2.409763261675834656e-02,-2.430293336510658264e-02,-4.911869182251393795e-04,-2.098255790770053864e-02,2.916064579039812088e-03,1.791318354662507772e-04,-1.872687228024005890e-02,1.165038906037807465e-02,1.044968143105506897e-02,-1.624811440706253052e-02,-2.523993607610464096e-03,-4.650412301998585463e-04,2.225997298955917358e-02,-8.987291716039180756e-03,-3.874019952490925789e-03,-5.511679919436573982e-04,1.568521372973918915e-02,1.472874637693166733e-02,7.784937508404254913e-03,-2.562000043690204620e-02,1.296971179544925690e-02,-1.786936447024345398e-02,-4.750841297209262848e-03,-2.517833001911640167e-02,2.250042930245399475e-02,1.140820235013961792e-02,-1.545816846191883087e-02,-2.016217075288295746e-02
-1.902752183377742767e-02,-2.528575621545314789e-02,-1.588633097708225250e-02,7.337681017816066742e-03,2.240824699401855469e-02,-7.266189903020858765e-03,9.587970562279224396e-03,-1.017697248607873917e-02,-1.146885007619857788e-02,9.622221812605857849e-03,-1.414575055241584778e-02,-9.028945118188858032e-03,1.085322629660367966e-02,7.483878638595342636e-03,1.177992671728134155e-02,5.292720161378383636e-03,-8.828869089484214783e-03,-1.966323005035519600e-03,1.410589087754487991e-02,1.649442687630653381e-02,-2.465512603521347046e-02,-6.157035473734140396e-03,-2.246246859431266785e-02,1.186520420014858246e-02,1.747519592754542828e-03,-1.851769350469112396e-02,-1.900755427777767181e-02,2.066006511449813843e-02,-1.712485402822494507e-02,-1.209025830030441284e-02,1.898147724568843842e-02,-4.112333524972200394e-03
-1.445317361503839493e-02,-2.084880135953426361e-02,1.954825781285762787e-02,6.244326476007699966e-03,-4.021728411316871643e-03,-2.580803586170077324e-03,8.943669497966766357e-03,3.422263544052839279e-03,-9.754892438650131226e-03,-2.091669104993343353e-02,1.445576548576354980e-02,3.870074287988245487e-04,-1.070949528366327286e-02,-1.664837636053562164e-02,2.425598353147506714e-02,2.490301802754402161e-02,3.461990877985954285e-02,-2.342846617102622986e-02,1.528837531805038452e-02,-1.859947293996810913e-02,-1.940746977925300598e-02,2.395837567746639252e-02,-1.755929552018642426e-02,-1.294275745749473572e-02,6.609739270061254501e-03,6.508280639536678791e-04,4.921175539493560791e-03,1.347647048532962799e-02,3.068095538765192032e-03,-4.257437773048877716e-03,-1.998358173295855522e-03,-1.887367106974124908e-02
-6.562007591128349304e-03,2.227675169706344604e-02,2.552493847906589508e-02,-2.977539226412773132e-02,8.682892657816410065e-03,4.002613015472888947e-03,-1.134955044835805893e-02,1.843792013823986053e-02,-1.302259042859077454e-02,2.977571217343211174e-03,1.037441752851009369e-02,-3.346459940075874329e-02,2.822713553905487061e-02,-1.466838270425796509e-02,5.691330414265394211e-03,-1.076520793139934540e-02,-2.868015505373477936e-02,-1.111693447455763817e-03,-2.673239074647426605e-02,1.331691537052392960e-02,2.656120806932449341e-02,-1.510033011436462402e-02,-1.978073269128799438e-02,1.506490632891654968e-02,1.061366219073534012e-02,2.334796451032161713e-02,-1.090520247817039490e-02,1.691259443759918213e-02,-2.793999621644616127e-03,3.659525187686085701e-03,-1.568111591041088104e-02,3.135394770652055740e-03
-2.197411097586154938e-02,1.423277147114276886e-02,-3.431191667914390564e-03,-1.251976564526557922e-02,-9.875553660094738007e-03,9.390917606651782990e-03,1.540288515388965607e-02,-1.263725291937589645e-02,3.682276234030723572e-03,2.602686174213886261e-02,1.022368785925209522e-03,3.698403248563408852e-03,1.081402599811553955e-02,2.614792995154857635e-02,-2.027699537575244904e-02,-6.323849409818649292e-02,-1.904176734387874603e-02,-3.278136253356933594e-02,-2.625445462763309479e-02,1.345794741064310074e-02,7.138392329216003418e-02,-7.790838927030563354e-02,-5.517537891864776611e-02,-7.826334796845912933e-03,-9.573502093553543091e-02,3.628872567787766457e-03,2.696075942367315292e-03,-1.162085868418216705e-02,5.790888331830501556e-03,-2.176548726856708527e-02,-5.154577083885669708e-03,7.285933941602706909e-03
2.619070746004581451e-02,2.160744555294513702e-02,-6.092946603894233704e-02,3.405125439167022705e-02,1.288513932377099991e-02,3.150356467813253403e-03,-7.750270888209342957e-03,5.382954329252243042e-02,-2.098232880234718323e-02,5.280046910047531128e-02,3.817023709416389465e-02,-3.478702390566468239e-03,1.554119214415550232e-02,-1.264048554003238678e-02,-1.511208480224013329e-03,3.039987292140722275e-03,-1.957754604518413544e-02,7.329675555229187012e-02,1.299930177628993988e-02,-7.955008745193481445e-02,2.148630656301975250e-02,8.401916362345218658e-03,-1.675737835466861725e-02,-2.839082106947898865e-02,4.728881642222404480e-02,6.920995563268661499e-02,3.143807873129844666e-03,-3.717744350433349609e-02,-3.961830958724021912e-02,1.309606153517961502e-02,-1.470867544412612915e-02,4.351019486784934998e-02
-3.597386553883552551e-02,1.015801448374986649e-02,-9.643212705850601196e-02,-3.904312103986740112e-02,-1.818362995982170105e-02,-6.870594341307878494e-03,-3.134949505329132080e-02,4.170364886522293091e-02,1.154864486306905746e-02,1.225471124053001404e-01,5.037396028637886047e-02,1.550114899873733521e-02,-3.674210608005523682e-02,6.209404818946495652e-05,-3.260122239589691162e-02,-1.666313223540782928e-02,-7.397782057523727417e-02,1.288861483335494995e-01,-4.750163853168487549e-02,-1.829537749290466309e-01,-7.465873379260301590e-03,-4.117328673601150513e-02,8.191933855414390564e-03,-1.749382913112640381e-02,2.495930716395378113e-02,1.533166468143463135e-01,-1.273783762007951736e-02,7.931717485189437866e-02,-1.000282317399978638e-01,-6.105751730501651764e-03,2.110076881945133209e-02,6.286778301000595093e-02
-7.118120789527893066e-03,-4.363933950662612915e-02,-9.149225056171417236e-02,-2.372519299387931824e-02,2.744878176599740982e-03,-2.925376035273075104e-02,-2.377924881875514984e-02,-9.292865172028541565e-03,-1.289658900350332260e-02,2.262606173753738403e-01,-1.589027978479862213e-02,-2.675962168723344803e-03,-4.157567024230957031e-02,-7.039323449134826660e-03,-1.057403162121772766e-02,-3.442754223942756653e-02,-4.166286438703536987e-02,1.171906590461730957e-01,-4.284746944904327393e-03,-2.730044722557067871e-01,-1.626618765294551849e-02,2.690132893621921539e-02,-2.462675562128424644e-03,-2.308890409767627716e-02,4.538470134139060974e-02,1.247057616710662842e-01,1.064789853990077972e-02,1.018724665045738220e-01,-1.143945753574371338e-01,-5.735755898058414459e-03,1.732176542282104492e-02,6.320311129093170166e-02
7.972877472639083862e-03,-6.140339747071266174e-02,-8.754310198128223419e-03,3.601468726992607117e-02,1.247040033340454102e-01,5.038612987846136093e-03,-8.828429877758026123e-02,-3.963313624262809753e-02,4.199991817586123943e-04,2.064984440803527832e-01,-3.443552553653717041e-02,-5.519681796431541443e-02,3.076455555856227875e-02,-4.027507454156875610e-02,-9.379918873310089111e-02,-5.623521283268928528e-02,-1.322146598249673843e-02,1.167267709970474243e-01,4.935934673994779587e-03,-2.583081424236297607e-01,7.035665214061737061e-03,1.097072213888168335e-01,3.068116027861833572e-03,-5.732923001050949097e-02,3.859892860054969788e-02,1.619529575109481812e-01,1.920823007822036743e-02,7.664824277162551880e-02,-1.732967197895050049e-01,-5.027741659432649612e-03,1.152742281556129456e-01,-9.722595661878585815e-02
-2.043733149766921997e-01,9.188634157180786133e-02,-1.630159169435501099e-01,8.061920106410980225e-02,1.652348488569259644e-01,3.721818327903747559e-02,-1.239576712250709534e-01,1.574761234223842621e-02,4.060025885701179504e-02,1.839792877435684204e-01,4.987723007798194885e-02,-6.884700804948806763e-02,6.961059570312500000e-02,-9.348340332508087158e-02,-2.901610434055328369e-01,-7.819744199514389038e-02,-2.336656488478183746e-02,2.229877710342407227e-01,-5.209147185087203979e-02,-2.323042452335357666e-01,-4.346122965216636658e-02,7.013791054487228394e-02,-3.175781294703483582e-02,-1.220047846436500549e-01,5.453749746084213257e-02,2.493273466825485229e-01,1.197517961263656616e-01,2.597604393959045410e-01,-5.054686963558197021e-02,1.998065738007426262e-03,2.446489930152893066e-01,5.662148818373680115e-02
-1.365771889686584473e-01,9.991828352212905884e-02,-7.657656818628311157e-02,1.010097637772560120e-01,1.686011701822280884e-01,-2.850587479770183563e-03,-1.899999529123306274e-01,-2.975805848836898804e-02,-7.993631064891815186e-02,2.861268520355224609e-01,1.533947885036468506e-01,-3.992356732487678528e-02,2.369066327810287476e-02,-1.458648592233657837e-01,-2.835756540298461914e-01,-2.124554105103015900e-02,-2.448383904993534088e-02,8.851072937250137329e-02,-1.038051024079322815e-01,-2.747622430324554443e-01,-8.647855371236801147e-02,9.300474077463150024e-02,-1.196050494909286499e-01,-5.086335539817810059e-02,2.924649417400360107e-01,1.965517550706863403e-01,6.693832576274871826e-02,1.767181605100631714e-01,-6.334071513265371323e-03,1.390676829032599926e-03,3.123568296432495117e-01,-6.963389925658702850e-03
-4.070376604795455933e-02,2.423538565635681152e-01,-1.861811131238937378e-01,-3.016971983015537262e-02,2.379953861236572266e-01,-1.031668558716773987e-01,-2.489624619483947754e-01,1.517939418554306030e-01,-9.488251805305480957e-02,4.032666981220245361e-01,7.705245912075042725e-02,-2.752134948968887329e-02,-5.508166551589965820e-02,-2.229710221290588379e-01,-5.129580497741699219e-01,-5.589088425040245056e-02,-5.174719542264938354e-02,5.804108977317810059e-01,-2.096365988254547119e-01,-2.628882527351379395e-01,-3.556154966354370117e-01,8.788041025400161743e-02,1.089434921741485596e-01,-7.899483293294906616e-02,2.898994982242584229e-01,4.274424314498901367e-01,1.315220724791288376e-02,5.003215670585632324e-01,4.861075896769762039e-03,-1.057189255952835083e-01,5.669517517089843750e-01,1.509524416178464890e-02
1.400948851369321346e-03,3.900684416294097900e-01,1.147196069359779358e-01,-1.420435160398483276e-01,1.454190313816070557e-01,-9.640383720397949219e-02,-1.137987673282623291e-01,1.214520335197448730e-01,-6.016637757420539856e-02,2.696952819824218750e-01,5.560488253831863403e-02,1.986049860715866089e-01,-5.109657719731330872e-02,-4.611411094665527344e-01,-3.222546279430389404e-01,4.968460649251937866e-02,7.669914979487657547e-03,2.338749170303344727e-01,-7.127175480127334595e-02,-2.064411789178848267e-01,-2.070334702730178833e-01,9.775876998901367188e-02,1.882598400115966797e-01,-9.693930298089981079e-02,3.700594902038574219e-01,3.682252764701843262e-02,1.957573145627975464e-01,3.857555091381072998e-01,-1.532558053731918335e-01,-1.281496286392211914e-01,3.736326694488525391e-01,9.323963522911071777e-02
-2.721482813358306885e-01,3.548273444175720215e-01,-1.096463650465011597e-01,-2.044061571359634399e-01,3.356814384460449219e-01,-1.063080653548240662e-01,7.154834270477294922e-02,1.009235810488462448e-02,3.029729053378105164e-02,3.645921647548675537e-01,7.952133566141128540e-02,8.190801739692687988e-02,3.235750198364257812e-01,-3.045684695243835449e-01,-2.342272847890853882e-01,1.222375221550464630e-02,1.181283667683601379e-01,2.789531946182250977e-01,-5.288583412766456604e-02,-4.886525869369506836e-01,1.003628820180892944e-01,4.225981887429952621e-03,4.634688496589660645e-01,1.083843633532524109e-01,2.928215265274047852e-01,6.256417371332645416e-03,1.727039963006973267e-01,2.887814044952392578e-01,-2.108707427978515625e-01,-1.520887911319732666e-01,-2.506729681044816971e-03,4.442569315433502197e-01
-5.167043581604957581e-02,2.336103469133377075e-01,-2.740262448787689209e-01,-2.934938967227935791e-01,2.268727719783782959e-01,6.916220486164093018e-02,-8.783263713121414185e-02,3.153061866760253906e-02,1.868747174739837646e-02,3.693663179874420166e-01,-1.162172928452491760e-01,1.399118304252624512e-01,3.668421506881713867e-01,-1.241554692387580872e-01,-2.093000710010528564e-01,7.261040806770324707e-02,1.140081807971000671e-01,1.670992076396942139e-01,1.313830018043518066e-01,-1.186669021844863892e-01,7.844837754964828491e-02,-6.416931748390197754e-02,3.506106138229370117e-01,2.312218993902206421e-01,2.732047438621520996e-01,-1.411784589290618896e-01,1.814267188310623169e-01,1.071638911962509155e-01,1.372668147087097168e-01,-2.618969082832336426e-01,-2.554131746292114258e-01,7.573097348213195801e-01
2.179238051176071167e-01,2.857050895690917969e-01,-3.047892153263092041e-01,-8.697064220905303955e-02,2.463165074586868286e-01,2.115031182765960693e-01,-1.076553314924240112e-01,-4.465017467737197876e-02,-1.786336898803710938e-01,4.340758323669433594e-01,3.002485446631908417e-02,1.054140776395797729e-01,3.598805963993072510e-01,1.975818909704685211e-02,-8.979744464159011841e-02,6.723239272832870483e-02,7.599798589944839478e-02,3.394016623497009277e-01,8.690306544303894043e-02,-1.494088768959045410e-01,1.332026273012161255e-01,-4.008281826972961426e-01,2.537814080715179443e-01,2.516092360019683838e-01,7.132206857204437256e-02,2.740544080734252930e-02,-2.586073940619826317e-03,2.475527077913284302e-01,-1.000686660408973694e-01,-4.391569197177886963e-01,-1.105815470218658447e-01,5.693736076354980469e-01
1.709672361612319946e-01,3.572707474231719971e-01,-2.223805487155914307e-01,-5.856969580054283142e-02,-2.190165668725967407e-01,3.708938062191009521e-01,7.934790849685668945e-02,1.802181750535964966e-01,1.034165918827056885e-01,2.289083451032638550e-01,2.893663644790649414e-01,-1.090050861239433289e-01,1.275552064180374146e-01,-1.794170439243316650e-01,-1.352343857288360596e-01,1.425792276859283447e-01,3.418247029185295105e-02,9.253634512424468994e-02,1.550203263759613037e-01,-1.122035533189773560e-01,-2.269233018159866333e-01,-4.835919737815856934e-01,7.226153463125228882e-02,3.729574084281921387e-01,2.056242078542709351e-01,5.643524229526519775e-02,2.412147819995880127e-01,7.033362984657287598e-02,-1.101355701684951782e-01,-3.114266097545623779e-01,1.697921901941299438e-01,2.678885459899902344e-01
-2.147928811609745026e-02,4.125277101993560791e-01,-3.698601126670837402e-01,-5.912195518612861633e-02,-3.464395999908447266e-01,1.176982149481773376e-01,-4.672277718782424927e-03,7.024150341749191284e-02,-7.695700973272323608e-02,2.348159402608871460e-01,-1.500820182263851166e-02,-2.053852379322052002e-01,2.381592243909835815e-01,2.382199168205261230e-01,-3.215663433074951172e-01,1.332832127809524536e-01,-9.172137081623077393e-02,-1.700297929346561432e-03,1.237893179059028625e-01,-4.355445131659507751e-02,3.108710609376430511e-02,-5.078368186950683594e-01,3.425452858209609985e-02,4.191368222236633301e-01,1.992648243904113770e-01,2.016949057579040527e-01,8.349006623029708862e-02,-1.764667034149169922e-01,-1.854680106043815613e-02,-1.481206864118576050e-01,7.260903716087341309e-02,2.013648897409439087e-01
2.033018767833709717e-01,4.037123620510101318e-01,-2.771841287612915039e-01,-1.757545582950115204e-02,-2.158646136522293091e-01,2.101034969091415405e-01,-1.330640017986297607e-01,-3.377527371048927307e-02,-7.816442102193832397e-02,1.980764865875244141e-01,-2.281608805060386658e-02,-7.162237912416458130e-02,-6.053493544459342957e-02,3.542300164699554443e-01,-1.523872464895248413e-01,2.442165613174438477e-01,-1.204128786921501160e-01,-1.630790382623672485e-01,1.620635837316513062e-01,-1.737195625901222229e-02,2.628056704998016357e-01,-2.111570388078689575e-01,-5.100179463624954224e-03,2.869398593902587891e-01,-2.996203117072582245e-02,1.675418615341186523e-01,-1.181387305259704590e-01,-7.658755034208297729e-02,-1.809464693069458008e-01,1.668973825871944427e-02,-1.706833541393280029e-01,1.463893055915832520e-01
2.071436047554016113e-01,1.972381025552749634e-01,-1.947437673807144165e-01,5.333231762051582336e-02,-8.363171666860580444e-02,1.121175810694694519e-01,-1.680157482624053955e-01,-1.901129335165023804e-01,7.939800620079040527e-02,1.143493875861167908e-01,1.077240929007530212e-01,-6.111919507384300232e-02,-8.202224224805831909e-02,3.441826403141021729e-01,-1.397555619478225708e-01,-2.610034495592117310e-02,-1.798694208264350891e-02,1.002877950668334961e-01,1.101179122924804688e-01,-2.503552138805389404e-01,2.493260502815246582e-01,5.420883744955062866e-02,-1.379385590553283691e-01,1.935638040304183960e-01,-1.490419059991836548e-01,2.554542720317840576e-01,-1.598185747861862183e-01,-1.649901270866394043e-01,-6.771735846996307373e-02,-1.036233082413673401e-02,-2.633759379386901855e-01,-1.866330392658710480e-03
2.454617321491241455e-01,9.858845174312591553e-02,8.765366859734058380e-03,-7.143652439117431641e-02,2.931071817874908447e-02,7.862626016139984131e-02,-2.946140170097351074e-01,1.664653718471527100e-01,-1.213131994009017944e-01,1.414007544517517090e-01,4.177340865135192871e-02,-3.184372559189796448e-02,-1.254693418741226196e-01,7.993714511394500732e-02,1.583840325474739075e-02,-3.153350576758384705e-02,8.100203238427639008e-03,-1.622671931982040405e-01,9.007250890135765076e-03,-3.773790970444679260e-02,2.692969441413879395e-01,6.383296847343444824e-02,-1.833446323871612549e-01,-7.563885301351547241e-02,-5.379382520914077759e-02,2.722795680165290833e-02,-8.450880646705627441e-02,-2.975440025329589844e-01,-2.271828800439834595e-01,3.628127742558717728e-03,-1.806389689445495605e-01,-2.533527789637446404e-03
2.252418398857116699e-01,7.438541855663061142e-03,-5.102510377764701843e-02,-1.311176270246505737e-02,1.710218340158462524e-01,8.542514592409133911e-02,-3.125380957499146461e-03,-5.334122106432914734e-02,-1.300974041223526001e-01,-1.775587536394596100e-02,-3.151166439056396484e-02,1.521209180355072021e-01,2.153960615396499634e-01,3.105268180370330811e-01,-4.677418991923332214e-02,-5.610628053545951843e-02,-1.046357974410057068e-01,4.218809306621551514e-02,7.897745072841644287e-02,-8.742731809616088867e-02,3.542996942996978760e-01,-9.036554396152496338e-02,-1.026243641972541809e-01,-3.888951241970062256e-02,-2.786498665809631348e-01,1.968384087085723877e-01,-1.597811132669448853e-01,-9.105654805898666382e-02,-1.086216196417808533e-01,-2.282649725675582886e-01,-1.238553300499916077e-01,1.098406612873077393e-01
1.467381268739700317e-01,-7.774143945425748825e-03,-3.944602981209754944e-02,5.849664658308029175e-02,6.510453671216964722e-02,-9.842059016227722168e-02,8.321879059076309204e-02,-1.195657327771186829e-01,3.634843276813626289e-03,-1.215877830982208252e-01,-9.363701939582824707e-02,1.301714926958084106e-01,1.847531199455261230e-01,1.869276612997055054e-01,-2.098544687032699585e-02,-2.705242857336997986e-02,-6.108893454074859619e-02,5.211653560400009155e-02,6.041495129466056824e-02,-1.391036659479141235e-01,9.377360343933105469e-02,2.146989665925502777e-02,-3.309705108404159546e-02,-1.105477362871170044e-01,-1.193516328930854797e-01,3.988250717520713806e-02,-2.168968319892883301e-02,-6.460258364677429199e-02,-8.464755862951278687e-02,-1.247174590826034546e-01,-5.473083001561462879e-04,8.063028752803802490e-02
-2.989787980914115906e-02,-9.640357643365859985e-02,-2.476296946406364441e-02,-4.230563063174486160e-03,-6.260921712964773178e-03,-7.194411009550094604e-02,9.415239840745925903e-02,-1.477278582751750946e-02,-3.723176568746566772e-02,8.018592000007629395e-02,-3.833872824907302856e-02,-3.263580799102783203e-02,1.610400676727294922e-01,2.271149009466171265e-01,5.729867890477180481e-02,1.708948798477649689e-02,-6.964571028947830200e-02,1.129719242453575134e-01,1.801949553191661835e-02,-1.052109971642494202e-01,6.563884019851684570e-02,7.015996426343917847e-02,-3.496252000331878662e-02,-2.091805823147296906e-02,-1.640034914016723633e-01,5.274578556418418884e-02,-9.816725552082061768e-02,-3.620387613773345947e-02,-1.502931565046310425e-01,-6.370478868484497070e-02,4.149382561445236206e-02,2.075550146400928497e-02
1.010614726692438126e-02,-2.176853455603122711e-02,4.172052070498466492e-02,-1.337620429694652557e-02,2.270855009555816650e-02,-4.111440852284431458e-02,2.802492119371891022e-02,1.476544141769409180e-01,-3.997561335563659668e-02,2.774735726416110992e-02,-3.445977717638015747e-02,-5.717765167355537415e-02,6.389267742633819580e-02,8.768595755100250244e-02,2.423858828842639923e-02,-3.646226599812507629e-02,-6.611799821257591248e-03,1.077792374417185783e-03,1.922456547617912292e-02,-1.609603315591812134e-02,1.236398741602897644e-01,7.485878467559814453e-02,-1.255646906793117523e-02,-1.360382768325507641e-03,-6.494873017072677612e-02,-5.224999040365219116e-03,-9.183112531900405884e-02,-1.545757753774523735e-03,-9.992439299821853638e-02,7.564761675894260406e-03,1.034367457032203674e-02,-5.884803831577301025e-02
3.447089716792106628e-02,4.920795559883117676e-02,6.479902565479278564e-02,-6.171441636979579926e-03,4.641961306333541870e-02,-7.106148637831211090e-03,-6.182481348514556885e-02,5.241483822464942932e-02,8.649028837680816650e-03,-3.709172457456588745e-02,-1.858581788837909698e-02,8.358249068260192871e-02,-3.219147026538848877e-02,-4.377767443656921387e-02,4.956206772476434708e-03,-2.345052175223827362e-02,2.367038279771804810e-02,-8.145180344581604004e-02,-2.059013210237026215e-02,9.297163039445877075e-02,8.765322715044021606e-02,3.156082471832633018e-03,-8.986100554466247559e-03,-7.384415366686880589e-04,-5.380813032388687134e-02,-4.167913272976875305e-02,-3.784345462918281555e-02,1.918438449501991272e-02,-7.651644945144653320e-02,-6.446488201618194580e-03,-2.499618753790855408e-02,2.283448539674282074e-02
-1.471150759607553482e-02,4.018450155854225159e-02,5.366103351116180420e-02,2.232789807021617889e-02,1.102939248085021973e-02,-1.111343502998352051e-02,1.846395549364387989e-03,6.218688935041427612e-02,-4.773977212607860565e-03,-1.934704557061195374e-02,1.535831484943628311e-02,4.823066294193267822e-02,5.839691148139536381e-04,-2.723017893731594086e-02,-3.110170923173427582e-02,-5.732799414545297623e-03,2.299979142844676971e-02,-3.374594449996948242e-02,3.082663286477327347e-03,6.496779620647430420e-02,3.091927431523799896e-02,4.064672440290451050e-02,1.489591412246227264e-02,-3.226064844056963921e-03,-5.050326511263847351e-02,3.896953165531158447e-02,-5.115455016493797302e-02,-2.270953729748725891e-03,-2.068413794040679932e-02,6.245436612516641617e-03,3.564427373930811882e-03,-3.488268703222274780e-04
-6.228697602637112141e-04,-2.499920316040515900e-03,1.746948808431625366e-02,-2.365470631048083305e-03,6.014543585479259491e-03,2.492846548557281494e-02,-2.494264021515846252e-02,-2.367847785353660583e-02,2.332641929388046265e-02,1.235023047775030136e-02,-8.042637258768081665e-03,1.915639080107212067e-02,2.041475288569927216e-02,1.859379000961780548e-02,1.081996783614158630e-02,-1.742485351860523224e-02,-2.380248904228210449e-02,-2.245609275996685028e-02,1.953173428773880005e-03,3.079354064539074898e-03,-6.921387743204832077e-03,-7.057153154164552689e-03,2.382219024002552032e-02,1.097750151529908180e-03,1.149459276348352432e-03,-1.000288501381874084e-02,7.355327397817745805e-05,-2.314377576112747192e-02,-9.027300402522087097e-03,1.645049825310707092e-02,3.003311809152364731e-03,5.087820347398519516e-03
-1.533086132258176804e-02,-3.167649498209357262e-03,2.543732523918151855e-02,4.398976918309926987e-03,7.725419010967016220e-03,-1.934482157230377197e-02,-8.916418068110942841e-03,-2.564188279211521149e-02,-2.130947262048721313e-02,-2.568196738138794899e-03,1.444757916033267975e-02,2.032847702503204346e-02,1.380200684070587158e-02,-4.327719099819660187e-03,1.148211676627397537e-02,-1.631785184144973755e-02,1.227730233222246170e-02,2.371593937277793884e-02,3.519470337778329849e-03,1.054842863231897354e-02,-6.279459688812494278e-03,2.105726487934589386e-02,-1.050952170044183731e-02,1.313198637217283249e-02,-2.343556471168994904e-02,2.518166601657867432e-02,2.095797844231128693e-02,3.926401026546955109e-03,-1.456502918154001236e-02,9.835701348492875695e-05,-1.785145327448844910e-02,-2.152949309675022960e-04
2.005257271230220795e-02,1.202439307235181332e-03,-1.079360116273164749e-02,1.764166913926601410e-02,1.906503364443778992e-02,2.119408175349235535e-02,2.074403315782546997e-02,2.142697758972644806e-02,-1.911941356956958771e-02,1.674245297908782959e-02,9.854297153651714325e-03,-2.125366032123565674e-02,2.175326272845268250e-02,-2.124894410371780396e-02,-7.003281498327851295e-04,2.081554196774959564e-02,-2.160876523703336716e-03,-3.776806115638464689e-04,2.462401062075514346e-05,-1.566174626350402832e-02,-2.581376209855079651e-02,1.814076490700244904e-02,-7.528172805905342102e-03,-2.228704094886779785e-02,-2.518507093191146851e-02,-7.074533030390739441e-03,8.054018020629882812e-03,2.362070232629776001e-02,-1.817717589437961578e-02,-1.442877482622861862e-02,-2.260105125606060028e-02,8.794992230832576752e-03
-5.546813830733299255e-03,-2.946023829281330109e-02,4.547547176480293274e-02,1.707425899803638458e-02,-1.195318065583705902e-02,-1.109768636524677277e-02,-2.755138266365975142e-04,-3.908874094486236572e-02,5.104164406657218933e-02,-1.086053531616926193e-02,2.843333221971988678e-02,-1.079132780432701111e-02,-3.093112027272582054e-03,-4.792784899473190308e-02,1.560316141694784164e-02,1.127233263105154037e-02,1.632974133826792240e-03,-5.051107332110404968e-02,1.047916058450937271e-02,2.766995690762996674e-03,-4.372255876660346985e-02,1.222238875925540924e-02,-8.518144488334655762e-03,-1.921045966446399689e-02,4.796293377876281738e-02,-2.245855331420898438e-02,2.505631744861602783e-02,-1.896626199595630169e-04,-1.456546224653720856e-02,5.744618922472000122e-02,1.393045578151941299e-02,-1.055971626192331314e-02
8.544881828129291534e-03,3.658576402813196182e-03,1.849337108433246613e-02,-1.261296868324279785e-02,-2.000272460281848907e-02,2.850637212395668030e-02,1.813082955777645111e-02,1.191227347590029240e-04,3.166508628055453300e-03,1.418984495103359222e-02,2.339866943657398224e-02,-2.524131350219249725e-02,1.079293061047792435e-02,-2.139129303395748138e-02,2.744289115071296692e-02,-1.703389361500740051e-02,2.632191590964794159e-02,-3.330419957637786865e-02,-3.083163872361183167e-03,2.351361326873302460e-02,9.408446028828620911e-03,-4.406794905662536621e-02,-2.948228642344474792e-02,-1.116586197167634964e-02,-4.029411356896162033e-03,-5.114995874464511871e-03,-2.003882639110088348e-02,9.876805415842682123e-05,1.539615821093320847e-02,3.474539145827293396e-02,3.624493954703211784e-03,-2.076449431478977203e-02
-1.006641536951065063e-01,-6.707644090056419373e-03,-3.140466986224055290e-03,3.808071464300155640e-02,-4.499975219368934631e-02,1.422561518847942352e-02,1.291081588715314865e-02,1.061749272048473358e-02,-8.864063769578933716e-03,7.612710446119308472e-02,4.652129951864480972e-03,-1.573462225496768951e-02,4.852132499217987061e-02,-1.426272932440042496e-02,2.650014683604240417e-02,1.239097211509943008e-02,-4.558482766151428223e-02,3.564574569463729858e-02,-5.585253704339265823e-03,-7.932347059249877930e-02,3.345672041177749634e-02,-1.913302764296531677e-02,1.426607370376586914e-02,-1.435470860451459885e-02,1.180245913565158844e-02,1.303222402930259705e-02,3.112502768635749817e-02,5.080159753561019897e-02,-6.522448360919952393e-02,1.353025157004594803e-02,1.789146289229393005e-02,5.448592454195022583e-02
-4.309940338134765625e-02,-6.060957908630371094e-02,-1.468826085329055786e-01,8.056412637233734131e-02,-6.642348319292068481e-02,-7.553307805210351944e-03,2.920439280569553375e-02,4.519636183977127075e-02,-3.455379232764244080e-02,1.935570389032363892e-01,6.339671462774276733e-02,-1.374749932438135147e-02,-1.750573888421058655e-02,2.561925165355205536e-02,-2.000656351447105408e-02,6.868871394544839859e-03,-5.704477429389953613e-02,6.862326711416244507e-02,7.612507790327072144e-02,-1.292384117841720581e-01,2.398651093244552612e-03,2.889024652540683746e-02,-2.971147187054157257e-02,-3.578547155484557152e-03,1.430787029676139355e-03,3.935056924819946289e-02,8.478105999529361725e-03,-1.052745133638381958e-01,-6.806586682796478271e-02,-3.088851831853389740e-02,-1.635041274130344391e-02,1.453760564327239990e-01
-1.302222604863345623e-03,5.184311792254447937e-02,-1.101906150579452515e-01,-4.962285608053207397e-02,-8.587817102670669556e-02,-3.036414645612239838e-02,-4.330018907785415649e-02,-5.122564267367124557e-03,-4.166067764163017273e-02,2.256183177232742310e-01,7.989757694303989410e-03,-5.875383317470550537e-02,-7.450660318136215210e-02,-1.531384512782096863e-02,-3.536592237651348114e-03,6.916295271366834641e-03,-9.651438891887664795e-02,1.698385626077651978e-01,7.982962578535079956e-02,-2.624444663524627686e-01,4.922236129641532898e-02,3.228575456887483597e-03,-4.034867510199546814e-02,1.311550755053758621e-02,2.858002670109272003e-02,8.347438275814056396e-02,4.489193856716156006e-02,4.191942140460014343e-02,-3.890891373157501221e-02,-7.013823487795889378e-04,9.221795201301574707e-02,1.597811877727508545e-01
6.622311472892761230e-02,1.985079646110534668e-01,-7.189270108938217163e-02,1.283751148730516434e-02,1.166967600584030151e-01,-7.019191980361938477e-02,-6.121632829308509827e-02,-4.026837646961212158e-02,-1.447919569909572601e-02,2.223185002803802490e-01,5.978413298726081848e-02,-1.394659727811813354e-01,1.882939040660858154e-02,-1.114483550190925598e-01,1.333915628492832184e-02,-6.683381646871566772e-02,-6.737147271633148193e-02,2.145723998546600342e-01,1.813729703426361084e-01,-3.042327761650085449e-01,-6.096259132027626038e-02,9.990013390779495239e-02,1.418020226992666721e-03,4.367012530565261841e-02,-6.881424784660339355e-02,-6.901194155216217041e-02,7.705070823431015015e-02,8.463735878467559814e-02,-3.166650608181953430e-02,1.064825151115655899e-02,1.326716691255569458e-01,-1.116852555423974991e-02
-4.972797259688377380e-02,1.259253621101379395e-01,3.086823038756847382e-02,4.819461330771446228e-02,3.977974411100149155e-03,3.164218505844473839e-03,-1.562564522027969360e-01,-7.295526564121246338e-02,-2.039654925465583801e-02,4.096767902374267578e-01,4.378042221069335938e-01,-1.607659906148910522e-01,2.507028728723526001e-02,-2.131056934595108032e-01,9.766169637441635132e-02,1.490249298512935638e-03,1.218738965690135956e-02,4.022314548492431641e-01,2.732502222061157227e-01,-3.517816066741943359e-01,-1.815333217382431030e-01,6.796876341104507446e-02,-7.170382887125015259e-03,2.196791954338550568e-02,1.491771489381790161e-01,-8.555664867162704468e-02,1.759169101715087891e-01,-7.859922200441360474e-02,-2.283746376633644104e-02,3.272838890552520752e-02,1.839972138404846191e-01,-7.670605182647705078e-02
-2.595804333686828613e-01,2.218290716409683228e-01,-8.295972645282745361e-02,8.520161360502243042e-02,2.241021394729614258e-01,1.223316863179206848e-01,-1.758045852184295654e-01,2.310848683118820190e-01,-1.738790422677993774e-01,4.868886768817901611e-01,3.705506622791290283e-01,-6.573399156332015991e-02,5.294780060648918152e-02,-3.463903665542602539e-01,-1.331026405096054077e-01,-1.467471942305564880e-03,1.704812981188297272e-03,5.427892208099365234e-01,2.940086126327514648e-01,-4.049238562583923340e-01,-2.905937135219573975e-01,-1.384314745664596558e-01,-2.876637130975723267e-02,7.580252736806869507e-02,3.618333041667938232e-01,1.168428659439086914e-01,9.953436255455017090e-02,1.683699339628219604e-01,1.049012765288352966e-01,-4.623867105692625046e-03,2.877795100212097168e-01,-9.887184947729110718e-02
