5.554172676056623459e-03,1.098711788654327393e-02,-1.598616503179073334e-02,1.076525356620550156e-02,-3.985667135566473007e-03,3.625832905527204275e-04,2.128918096423149109e-02,-1.321006100624799728e-02,6.967784836888313293e-03,-1.088703796267509460e-02,5.069000646471977234e-03,1.991959847509860992e-02,-2.077271975576877594e-02,5.917617119848728180e-03,-5.287820938974618912e-03,-7.878684438765048981e-03,-2.511570462957024574e-03,4.316865233704447746e-04,-2.103334479033946991e-02,3.108189441263675690e-03,-1.102894637733697891e-02,-5.939342663623392582e-04,2.390578202903270721e-02,-6.615034304559230804e-03,-1.852023415267467499e-02,-1.947724819183349609e-02,1.678602211177349091e-02,8.533056825399398804e-03,-1.187530439347028732e-02,2.442063996568322182e-03,-3.979825414717197418e-03,-2.425657585263252258e-02,8.439313620328903198e-03,-1.934145949780941010e-02,1.845045387744903564e-02,1.397077459841966629e-02,-1.199169643223285675e-02,-2.381225302815437317e-02,-2.406504750251770020e-02,7.148320320993661880e-03,-1.916300691664218903e-02,-2.280586026608943939e-02,7.254341151565313339e-03,2.016087062656879425e-02,-1.062102336436510086e-02,-2.057039365172386169e-02,9.698336943984031677e-03,1.967151416465640068e-03,1.843774877488613129e-02,-1.301905419677495956e-02,6.268931087106466293e-03,3.538089105859398842e-03,-1.491515524685382843e-02,-1.067173853516578674e-02,1.224385201930999756e-02,1.538682542741298676e-02,-1.753361523151397705e-02,1.003487966954708099e-02,-1.446864567697048187e-02,-1.098211761564016342e-02,1.397052407264709473e-02,1.399130281060934067e-02,2.392323128879070282e-02,7.110804785043001175e-03,-1.439364161342382431e-02,-2.662213810253888369e-04,9.872272610664367676e-03,-3.066715318709611893e-03,1.081304345279932022e-02,-4.336958285421133041e-03,9.702994488179683685e-03,3.692721016705036163e-03,-2.115819044411182404e-02,-1.334570161998271942e-02,1.505388133227825165e-02,-2.248076722025871277e-02,-3.427347110118716955e-04,-2.388494834303855896e-02,4.570999182760715485e-03,5.946065764874219894e-03,-4.086243920028209686e-03,2.248099446296691895e-02,1.632348261773586273e-02,-6.479242816567420959e-03,-2.540958812460303307e-04,1.274668611586093903e-02,-1.954081654548645020e-02,-3.324871882796287537e-03,1.713654585182666779e-02,1.704086922109127045e-02,1.871457695960998535e-02,1.513404771685600281e-02,-1.622309163212776184e-02,-9.365271776914596558e-03,-3.114643972367048264e-03,-6.945548113435506821e-03,1.266743987798690796e-02,-2.119080908596515656e-02,-2.146251499652862549e-02,-7.871656678617000580e-03,2.062080195173621178e-03,-1.840431801974773407e-02,-1.326472032815217972e-02,1.134796650148928165e-03,1.486427057534456253e-02,-5.848684348165988922e-03,-6.475550122559070587e-03,-1.602992415428161621e-02,1.527259685099124908e-02,-1.384776830673217773e-02,-2.134209871292114258e-02,6.772255990654230118e-03,1.009874884039163589e-02,1.242170482873916626e-02,2.407588064670562744e-02,-8.143620565533638000e-03,5.879736505448818207e-03,2.239252068102359772e-02,2.368176542222499847e-02,1.218658965080976486e-02,1.986269652843475342e-02,1.554154604673385620e-02,-2.334348671138286591e-02,-1.575971581041812897e-02,1.957558281719684601e-02,-7.834243006072938442e-04,-4.377980250865221024e-03,1.851311326026916504e-02
1.243371423333883286e-02,1.204111520200967789e-02,-6.226009223610162735e-03,1.814995147287845612e-02,-9.871778078377246857e-03,-1.404066849499940872e-02,2.435362339019775391e-02,9.499283507466316223e-03,-6.027462659403681755e-04,-2.808424411341547966e-03,-1.989994384348392487e-02,1.025079749524593353e-02,2.980623394250869751e-03,1.739604957401752472e-02,-5.458130035549402237e-03,1.288155745714902878e-02,2.268070168793201447e-02,2.189256483688950539e-03,1.186680980026721954e-02,-4.745856858789920807e-03,-4.766693804413080215e-03,-8.817873895168304443e-03,-7.797578815370798111e-03,-1.285982504487037659e-02,-1.080741453915834427e-02,5.077725276350975037e-03,-1.173783931881189346e-02,7.624122779816389084e-03,-1.719017885625362396e-02,-9.168147109448909760e-03,5.448719486594200134e-03,7.979336194694042206e-03,2.074461430311203003e-02,2.067177556455135345e-02,1.670852676033973694e-02,8.206356316804885864e-03,-7.462508976459503174e-03,-5.190795753151178360e-03,-1.171537395566701889e-02,-1.341121550649404526e-02,-1.484297774732112885e-02,-5.820216611027717590e-03,-2.020187530433759093e-04,7.922922261059284210e-03,-1.858191564679145813e-02,2.358541451394557953e-02,-2.858148887753486633e-03,1.741586253046989441e-02,-6.659809499979019165e-03,1.789921522140502930e-02,-7.406769320368766785e-03,1.553763914853334427e-02,3.866964718326926231e-03,-2.335651777684688568e-02,1.871654018759727478e-02,1.516671944409608841e-02,1.113367616198956966e-03,8.697175420820713043e-03,-2.510509220883250237e-03,7.094628177583217621e-03,-1.752664148807525635e-02,-2.071335911750793457e-02,6.225182674825191498e-03,2.130373567342758179e-02,-2.101728320121765137e-02,-1.523607596755027771e-02,1.293299440294504166e-02,2.415665797889232635e-02,2.228126302361488342e-02,-9.072537650354206562e-04,-2.164628729224205017e-02,-6.758607458323240280e-03,-7.890276610851287842e-04,1.853314787149429321e-02,1.950130797922611237e-02,-1.826022006571292877e-02,-1.508548203855752945e-02,-1.228474546223878860e-02,-2.289979485794901848e-03,-9.616887196898460388e-03,1.412554830312728882e-02,-8.205022662878036499e-03,-6.794613786041736603e-03,-1.088953018188476562e-02,2.188891405239701271e-03,7.927916944026947021e-03,-2.124998345971107483e-02,6.248035933822393417e-03,-1.046482659876346588e-02,-7.939316565170884132e-04,-4.726168233901262283e-03,2.201194688677787781e-02,-6.271604914218187332e-03,2.405856503173708916e-03,1.824531517922878265e-02,1.882756501436233521e-02,-1.199893280863761902e-02,-1.289707794785499573e-02,1.417397055774927139e-02,-3.309916704893112183e-03,1.935024559497833252e-02,-1.634844578802585602e-02,2.576791448518633842e-03,7.115805055946111679e-03,-1.473178900778293610e-02,8.478164672851562500e-03,1.622949726879596710e-02,-2.203612355515360832e-03,2.822841051965951920e-03,-1.360583864152431488e-02,-1.566261425614356995e-02,2.349453605711460114e-02,6.498436909168958664e-03,-2.349303290247917175e-02,1.516307611018419266e-02,3.434903686866164207e-03,5.483246874064207077e-03,-1.887182239443063736e-03,-1.032118592411279678e-02,-9.292601607739925385e-03,1.807730086147785187e-02,-5.513585638254880905e-03,-8.245849981904029846e-03,5.760984029620885849e-03,-3.219689708203077316e-03,-1.828645355999469757e-03,3.481187624856829643e-03,1.103802677243947983e-02
-9.241579100489616394e-03,-1.761901937425136566e-02,2.431415952742099762e-02,9.312303736805915833e-03,-1.216825097799301147e-02,2.415605261921882629e-02,-2.217976935207843781e-02,1.957428082823753357e-02,-2.126350626349449158e-02,-1.397151616401970387e-03,1.979544200003147125e-02,-2.016155607998371124e-02,-3.124396025668829679e-04,9.724983945488929749e-03,2.383022196590900421e-02,4.592820536345243454e-03,1.959944888949394226e-02,8.758649928495287895e-04,1.873578503727912903e-02,1.495224703103303909e-02,4.590337164700031281e-03,-2.255454845726490021e-02,-1.907619275152683258e-02,-1.269058790057897568e-02,-2.352970093488693237e-02,1.666657626628875732e-02,-1.927403360605239868e-02,-5.318874027580022812e-03,-4.030815791338682175e-03,7.501973770558834076e-03,1.072882423613918945e-05,6.234024185687303543e-03,-8.232272230088710785e-03,-6.267770659178495407e-03,2.564083086326718330e-03,3.389437450096011162e-03,-8.049544878304004669e-03,-8.747511543333530426e-03,-7.958137430250644684e-03,9.303973056375980377e-03,-1.237805373966693878e-02,1.454610656946897507e-02,2.328892052173614502e-02,-6.425903178751468658e-03,2.059506438672542572e-02,-1.034361775964498520e-02,-2.327014133334159851e-02,8.583972230553627014e-03,1.121531147509813309e-02,6.191824097186326981e-03,1.577241532504558563e-02,2.517499495297670364e-03,8.869432844221591949e-03,8.611941710114479065e-03,-8.571152575314044952e-04,-5.558189935982227325e-03,1.160184666514396667e-02,-4.229277372360229492e-03,1.654818654060363770e-02,1.291339192539453506e-02,2.043860405683517456e-02,-1.906505972146987915e-02,-1.633062586188316345e-02,1.609786599874496460e-02,-1.191867142915725708e-02,3.287048311904072762e-03,-3.024558071047067642e-03,1.542874984443187714e-02,-5.818409845232963562e-03,7.163516711443662643e-03,-1.075028534978628159e-02,-2.056131325662136078e-02,-7.901271805167198181e-03,-2.412667311728000641e-02,5.773546174168586731e-03,4.455801899894140661e-05,-2.509647980332374573e-03,-1.152381300926208496e-02,2.099168300628662109e-02,1.700930995866656303e-03,-1.296843681484460831e-02,-1.410348061472177505e-02,1.343341916799545288e-02,1.756981201469898224e-02,-7.454285863786935806e-03,-7.615294773131608963e-03,4.258893895894289017e-03,6.568200420588254929e-03,-5.901500582695007324e-03,-9.472312405705451965e-03,7.978359237313270569e-03,1.108233537524938583e-02,-5.289023276418447495e-03,2.019220218062400818e-02,-3.643006784841418266e-03,-1.898612082004547119e-02,2.257203310728073120e-02,-2.225116640329360962e-02,-1.118837855756282806e-02,1.401713024824857712e-02,1.921184174716472626e-02,1.208998449146747589e-02,2.304850146174430847e-02,-1.281190430745482445e-03,1.846273057162761688e-02,1.072008017217740417e-04,-1.774178585037589073e-03,1.929693110287189484e-02,-2.093583159148693085e-02,1.191277988255023956e-02,-2.355112135410308838e-02,-2.034192718565464020e-02,1.808086642995476723e-03,1.363484282046556473e-02,-1.591241732239723206e-02,1.063225232064723969e-02,2.060673199594020844e-02,7.700557820498943329e-03,-2.292460575699806213e-02,1.916773244738578796e-02,-3.674808191135525703e-03,1.376345101743936539e-02,3.183143213391304016e-03,-1.190837100148200989e-02,-2.192457765340805054e-02,-1.343043707311153412e-02,-2.434299513697624207e-02,-1.171161700040102005e-02
-6.306553725153207779e-03,-4.917884711176156998e-03,2.045761980116367340e-02,-1.058914698660373688e-02,4.225714597851037979e-03,-1.604897901415824890e-02,-2.660709433257579803e-03,-3.596321446821093559e-03,1.498107146471738815e-02,-4.109077621251344681e-03,-3.277058422099798918e-04,1.200958155095577240e-02,1.657907105982303619e-02,-1.227566879242658615e-02,8.885903283953666687e-03,-1.829268038272857666e-02,2.111937850713729858e-02,9.975377470254898071e-03,-1.449331082403659821e-02,-1.257742382586002350e-02,1.842916826717555523e-03,1.508448272943496704e-02,1.742430590093135834e-02,9.637374430894851685e-03,1.290423702448606491e-02,1.407958008348941803e-02,-7.531211245805025101e-03,4.357273690402507782e-03,-1.524281315505504608e-02,-2.136242948472499847e-02,1.626904495060443878e-02,1.591217704117298126e-02,-2.036694064736366272e-02,-3.496715566143393517e-03,2.922887215390801430e-03,2.101488789776340127e-04,2.280489169061183929e-02,-3.068750258535146713e-03,2.002635598182678223e-02,3.401039168238639832e-03,-7.614071946591138840e-03,-1.007521711289882660e-02,2.109764330089092255e-02,-1.557801384478807449e-03,1.832690672017633915e-03,6.615880876779556274e-03,9.769483469426631927e-03,-1.185587700456380844e-02,-3.202624793630093336e-04,-2.335508540272712708e-02,1.558681717142462730e-03,-7.926540449261665344e-03,-2.414184622466564178e-02,-6.538307294249534607e-03,1.718704588711261749e-02,-1.919004693627357483e-02,5.996918305754661560e-03,-2.061022073030471802e-02,1.999151520431041718e-02,4.404964391142129898e-03,7.768041919916868210e-03,-3.260701196268200874e-04,-4.346555506344884634e-04,1.416431460529565811e-02,-7.942537777125835419e-03,-1.332042086869478226e-02,2.029575034976005554e-02,6.316051352769136429e-03,-1.014664676040410995e-02,1.437932020053267479e-03,8.632010780274868011e-03,7.045967504382133484e-03,-6.564048584550619125e-03,-2.129876799881458282e-02,-1.491220109164714813e-02,-2.397648058831691742e-03,-1.385328080505132675e-02,9.195191785693168640e-03,-1.058313180692493916e-03,-4.487038124352693558e-03,5.704388953745365143e-03,2.178394794464111328e-02,-1.102228648960590363e-02,-1.312400214374065399e-02,4.250379279255867004e-03,1.372332777827978134e-02,-1.739392802119255066e-02,9.651246480643749237e-03,-2.031518705189228058e-02,1.758182980120182037e-02,-1.381566282361745834e-02,-4.416578449308872223e-03,-1.884571835398674011e-02,-1.651547476649284363e-02,-1.470414106734097004e-03,-1.253342023119330406e-03,2.315835841000080109e-02,-3.198712598532438278e-03,2.255063503980636597e-03,-5.044475197792053223e-03,2.350481785833835602e-02,-3.237641649320721626e-03,1.094043441116809845e-02,-1.265108957886695862e-02,-2.014396898448467255e-02,-1.774461753666400909e-02,-8.995870128273963928e-03,6.108179222792387009e-03,7.305707782506942749e-03,1.403540931642055511e-02,2.168824896216392517e-02,-9.216231293976306915e-03,-1.400347147136926651e-02,1.659610681235790253e-02,6.465465296059846878e-03,-1.527204923331737518e-02,-8.561234921216964722e-03,6.723265629261732101e-03,2.116822451353073120e-02,-1.557417493313550949e-02,1.712138764560222626e-02,5.242376122623682022e-03,2.258723042905330658e-02,-8.315150626003742218e-03,-7.915377616882324219e-03,2.355263940989971161e-02,-2.400108799338340759e-02,-7.390154991298913956e-03
-2.049017697572708130e-02,-3.837795928120613098e-03,-1.274400256079388782e-05,-1.238764263689517975e-03,1.002981443889439106e-03,-3.920854942407459021e-04,-2.957457210868597031e-03,-1.738225109875202179e-02,3.061089199036359787e-03,6.712675560265779495e-03,-1.860506087541580200e-02,1.910417713224887848e-02,-2.288647741079330444e-02,1.096762903034687042e-02,-3.110753837972879410e-03,-2.411514520645141602e-02,1.484798360615968704e-02,1.866646669805049896e-02,-2.415724284946918488e-02,2.092865668237209320e-02,-1.179969310760498047e-02,1.425835862755775452e-02,-1.362211629748344421e-02,7.184568792581558228e-03,-1.425524055957794189e-02,2.403949387371540070e-02,1.282759755849838257e-02,1.346193067729473114e-02,-8.632006123661994934e-03,-2.009148523211479187e-02,-2.307546325027942657e-02,-3.509892849251627922e-03,6.805907003581523895e-03,1.140127796679735184e-02,-1.184508670121431351e-02,8.365303277969360352e-03,-1.969423517584800720e-02,1.557515747845172882e-02,2.541441470384597778e-03,4.439349286258220673e-03,1.346486271359026432e-03,-2.413364499807357788e-02,9.608943946659564972e-03,-1.397201139479875565e-02,-1.476440764963626862e-02,-1.835654675960540771e-02,1.172594260424375534e-02,-9.576500393450260162e-03,-6.048941519111394882e-03,1.745150424540042877e-02,-1.537452638149261475e-02,9.315988048911094666e-03,-4.218975547701120377e-03,1.244624797254800797e-02,-8.378108963370323181e-03,6.271218444453552365e-05,1.791368122212588787e-03,-1.578454859554767609e-02,-1.039264816790819168e-02,-1.485569868236780167e-02,1.107052713632583618e-02,1.192442234605550766e-02,-2.896037418395280838e-03,-2.430796064436435699e-02,1.574620231986045837e-02,-2.906928071752190590e-03,9.780799038708209991e-03,1.607789285480976105e-02,-1.847085170447826385e-02,-1.788894087076187134e-02,-2.180144656449556351e-03,7.588461972773075104e-03,1.136592216789722443e-02,-1.301390025764703751e-02,-1.024121697992086411e-02,-2.335097268223762512e-02,4.121378064155578613e-03,3.282412188127636909e-03,-1.962211448699235916e-03,-2.100069262087345123e-02,-1.569586247205734253e-02,-1.239770092070102692e-03,-6.015176768414676189e-04,-2.189182676374912262e-02,-2.022438310086727142e-02,-1.601143181324005127e-02,1.372130308300256729e-02,-5.800200160592794418e-03,-1.751688122749328613e-02,-1.849363185465335846e-02,1.431270129978656769e-02,-6.429347675293684006e-03,-2.010032907128334045e-02,2.497965469956398010e-04,-1.199202262796461582e-03,8.098919875919818878e-03,-1.638688892126083374e-02,3.300164593383669853e-03,1.363594084978103638e-02,1.782931759953498840e-02,1.145608164370059967e-02,-2.689633052796125412e-03,-2.218003198504447937e-02,-1.752246171236038208e-02,-9.500713087618350983e-03,2.894122153520584106e-03,1.032206229865550995e-02,-1.242738030850887299e-02,1.117045525461435318e-02,-2.067091641947627068e-03,1.653690077364444733e-02,-9.206037037074565887e-03,-1.518973801285028458e-02,-5.219829268753528595e-03,-1.314861420542001724e-02,1.924894377589225769e-02,-8.389594964683055878e-03,2.084658667445182800e-02,1.700001396238803864e-02,1.212002430111169815e-02,-5.235124379396438599e-03,3.533327253535389900e-03,-2.440942078828811646e-02,-7.045698584988713264e-04,-3.189209150150418282e-03,1.452026329934597015e-02,4.958631005138158798e-03,-1.533639337867498398e-02
-1.950926147401332855e-02,-2.959997160360217094e-03,3.750100964680314064e-03,-1.867115870118141174e-02,7.110815960913896561e-03,1.996468985453248024e-03,-1.749755628407001495e-02,1.068489719182252884e-02,5.129488650709390640e-03,-2.289604954421520233e-02,-1.632334291934967041e-02,-1.406483724713325500e-02,-1.567371934652328491e-02,-9.463326074182987213e-03,1.887700706720352173e-02,1.734215021133422852e-02,-2.097069373121485114e-04,1.846628822386264801e-02,-1.271105743944644928e-02,-2.951122121885418892e-03,-9.097316302359104156e-03,-7.995925261639058590e-04,9.327854029834270477e-03,-1.430688053369522095e-02,1.260965410619974136e-02,-1.403940375894308090e-02,-6.209574174135923386e-03,1.961113885045051575e-02,5.781175568699836731e-03,9.038641583174467087e-04,1.067356788553297520e-03,8.349771378561854362e-04,-1.852670870721340179e-02,2.230352349579334259e-02,1.459612231701612473e-02,8.330086246132850647e-03,5.432245787233114243e-03,1.592531614005565643e-02,1.307359430938959122e-02,8.498408831655979156e-03,1.317070703953504562e-02,1.071712281554937363e-02,2.606848720461130142e-03,5.712949670851230621e-03,-1.730337552726268768e-02,1.881202310323715210e-02,-1.806880719959735870e-02,3.955621737986803055e-03,1.618099957704544067e-02,1.859543099999427795e-02,1.271869800984859467e-02,2.336109027964994311e-04,-3.701066365465521812e-03,8.487639948725700378e-03,-9.636296890676021576e-03,2.115515433251857758e-02,-2.319598197937011719e-02,-9.646873921155929565e-03,-1.995005458593368530e-02,-5.511638708412647247e-03,-1.897583901882171631e-02,2.441452071070671082e-02,7.669791113585233688e-03,-9.054493159055709839e-03,-1.586295664310455322e-02,5.641992320306599140e-04,-2.151491306722164154e-02,1.750502549111843109e-02,9.034324437379837036e-03,4.512315616011619568e-03,-2.298280782997608185e-02,-1.140750665217638016e-02,-1.356762275099754333e-02,-4.179155454039573669e-03,-1.094309613108634949e-02,-1.368700340390205383e-02,7.530610542744398117e-03,-2.312099002301692963e-02,-2.083598077297210693e-02,1.410686061717569828e-03,-1.364493556320667267e-02,-1.209565810859203339e-02,-4.284118302166461945e-03,-1.697847433388233185e-02,-1.890799775719642639e-02,4.130861256271600723e-03,-1.469668745994567871e-02,1.894246973097324371e-02,-5.585234146565198898e-03,1.940412819385528564e-02,-1.772276009432971478e-03,8.185406331904232502e-04,5.625688936561346054e-03,1.506439875811338425e-02,-4.636532161384820938e-03,-1.449515204876661301e-02,-1.744406856596469879e-02,-9.096247144043445587e-03,-1.989579945802688599e-02,-1.936500892043113708e-02,-3.222836880013346672e-03,-3.699058433994650841e-03,3.175514284521341324e-03,2.094290964305400848e-02,1.893435977399349213e-02,-5.825513508170843124e-03,-2.415426261723041534e-02,1.077699847519397736e-02,2.369652688503265381e-02,1.192908082157373428e-02,2.309050224721431732e-02,-2.275763452053070068e-02,2.345860004425048828e-02,-3.428726224228739738e-03,2.400559000670909882e-02,-3.885102225467562675e-03,-7.390865590423345566e-03,2.428051270544528961e-02,-2.093135938048362732e-02,-1.191178616136312485e-02,-2.054714597761631012e-02,2.815503161400556564e-03,1.583713665604591370e-02,-2.317580021917819977e-02,1.027941145002841949e-02,4.211260937154293060e-03,2.432405762374401093e-02,-3.098099026829004288e-03
-1.636553555727005005e-02,1.492573879659175873e-02,1.532184705138206482e-02,-1.922487840056419373e-02,-8.870353922247886658e-03,-1.974536851048469543e-02,9.563910774886608124e-03,-9.218951687216758728e-03,6.169664673507213593e-03,5.977088585495948792e-03,-2.147066779434680939e-02,2.394570410251617432e-02,-1.587835489772260189e-03,-1.315895933657884598e-02,1.649128273129463196e-03,-6.670065689831972122e-03,-2.042711246758699417e-03,1.659340038895606995e-02,2.327227033674716949e-02,2.508269157260656357e-03,-1.025961339473724365e-02,1.954221539199352264e-02,2.346645481884479523e-02,5.376206245273351669e-03,-2.685396699234843254e-03,1.960992999374866486e-02,2.233918011188507080e-02,-1.681949011981487274e-02,-6.650814320892095566e-03,-1.504382584244012833e-02,-2.179277874529361725e-02,2.153825480490922928e-03,2.322906255722045898e-02,1.301986444741487503e-02,-1.100940257310867310e-02,1.425085961818695068e-02,4.886384587734937668e-03,-1.016949024051427841e-02,9.148305281996726990e-03,5.692728445865213871e-04,1.019607530906796455e-03,1.920486986637115479e-02,6.587014533579349518e-03,-1.204528752714395523e-02,-5.209931172430515289e-03,2.206759527325630188e-02,-1.495545823127031326e-02,7.610025350004434586e-03,-1.659694314002990723e-02,1.031810790300369263e-02,-5.180163774639368057e-03,8.901069872081279755e-03,1.066812686622142792e-02,2.320457622408866882e-02,1.411948259919881821e-02,2.043335326015949249e-02,2.428631857037544250e-02,1.150384917855262756e-02,-9.396737441420555115e-03,-1.462814304977655411e-02,9.466423653066158295e-03,2.011970989406108856e-02,1.665776595473289490e-02,-5.680593661963939667e-03,2.704763086512684822e-03,1.482534571550786495e-03,-2.288657799363136292e-02,-7.721247384324669838e-04,1.235104165971279144e-02,1.314585097134113312e-02,2.343650162220001221e-02,-1.221608184278011322e-02,-1.772825780790299177e-04,-1.098729483783245087e-02,1.420514937490224838e-02,-1.385103631764650345e-02,-2.414920600131154060e-03,1.247542724013328552e-02,-1.017512008547782898e-02,2.165075624361634254e-03,1.014529448002576828e-02,9.064465761184692383e-03,1.507695950567722321e-02,-2.896760357543826103e-03,-2.419051900506019592e-02,-9.534128010272979736e-03,-3.355849534273147583e-03,2.001532725989818573e-02,7.740160799585282803e-04,-2.433861233294010162e-02,1.526027172803878784e-02,-1.304654497653245926e-02,1.374165248125791550e-02,-7.755614817142486572e-03,2.395384386181831360e-02,1.827420201152563095e-03,-6.176773924380540848e-03,1.203274168074131012e-02,-2.075455896556377411e-02,8.558982051908969879e-03,1.871502841822803020e-03,5.448647309094667435e-03,-1.093067415058612823e-02,-1.233121100813150406e-02,-1.970513351261615753e-02,1.285871863365173340e-02,9.501969325356185436e-04,7.428147364407777786e-03,-2.417572028934955597e-02,-3.860528115183115005e-03,1.372056454420089722e-02,-1.869484223425388336e-02,2.168685197830200195e-02,-1.213110238313674927e-02,-5.585601553320884705e-03,-2.235818840563297272e-02,1.987047679722309113e-02,1.095763873308897018e-02,-2.543454465921968222e-04,-1.261792425066232681e-02,-1.497100014239549637e-02,1.082683540880680084e-02,1.295464811846613884e-03,1.374979317188262939e-02,9.462377987802028656e-03,1.640520617365837097e-02,3.601457225158810616e-03,1.646082103252410889e-02
-8.356218226253986359e-03,2.810005331411957741e-03,2.275047451257705688e-02,1.639669388532638550e-02,5.938933696597814560e-03,1.513595227152109146e-02,-4.143158905208110809e-03,1.461597811430692673e-02,3.632473526522517204e-03,1.367355138063430786e-02,-1.897188276052474976e-02,-1.335465349256992340e-02,1.176987029612064362e-02,-5.559979472309350967e-04,1.956356922164559364e-03,1.427089329808950424e-02,-1.537528354674577713e-02,-1.131559256464242935e-02,-1.858426071703433990e-02,2.118301205337047577e-02,1.641285419464111328e-02,-2.050830237567424774e-02,-8.857967332005500793e-03,8.222294971346855164e-03,6.205864716321229935e-03,-6.483047618530690670e-04,-1.719315722584724426e-02,1.834580302238464355e-02,-1.755701377987861633e-02,1.636103144846856594e-03,4.087133333086967468e-03,-4.647638648748397827e-03,-1.822615973651409149e-02,9.655539877712726593e-03,-1.660804264247417450e-02,-1.359407231211662292e-02,1.402442716062068939e-02,-1.037193927913904190e-02,6.099076475948095322e-03,2.053658291697502136e-02,-3.793482203036546707e-03,7.752172648906707764e-03,4.638790152966976166e-03,-7.779494859278202057e-03,-1.089425478130578995e-02,-9.797338396310806274e-03,-6.625200156122446060e-03,6.905222777277231216e-03,-1.333357114344835281e-02,2.004838548600673676e-03,-1.192259788513183594e-02,1.633734814822673798e-02,9.172156453132629395e-03,7.449425291270017624e-03,1.800746284425258636e-02,-3.165560541674494743e-03,3.593861823901534081e-03,2.082193084061145782e-02,-2.130639972165226936e-03,-1.165316998958587646e-02,1.435338868759572506e-03,-4.664185922592878342e-03,-2.102535218000411987e-02,5.918662995100021362e-03,-4.883232526481151581e-03,2.216055989265441895e-02,-4.744241014122962952e-03,-1.553267519921064377e-02,-9.185109287500381470e-03,-7.317553739994764328e-03,-2.329405769705772400e-02,-1.111198333092033863e-03,5.020619835704565048e-03,2.572094090282917023e-03,5.284312181174755096e-03,-8.922153210733085871e-05,-1.128617208451032639e-02,-2.006335556507110596e-02,1.108882110565900803e-02,7.723807822912931442e-03,2.420844696462154388e-02,-2.167635038495063782e-02,2.318456768989562988e-02,-1.459990348666906357e-02,-1.986016146838665009e-02,-5.266928113996982574e-03,8.752207271754741669e-03,-2.338581718504428864e-02,2.052336372435092926e-02,-5.836538970470428467e-03,-3.646000754088163376e-03,-2.395200170576572418e-02,-1.929614320397377014e-02,4.442557110451161861e-04,7.376672234386205673e-03,-1.149802003055810928e-02,1.552748493850231171e-02,1.122810225933790207e-02,-1.072018034756183624e-02,8.028218522667884827e-03,-1.957784034311771393e-02,2.057980187237262726e-02,1.312184147536754608e-03,1.311294734477996826e-02,-2.460224088281393051e-03,4.449951666174456477e-05,9.748758748173713684e-03,-2.052456513047218323e-02,1.255297195166349411e-02,3.523271530866622925e-03,-7.743672933429479599e-03,-1.395202055573463440e-02,1.729654707014560699e-02,1.473656762391328812e-02,2.226872555911540985e-02,2.371485903859138489e-02,-1.362254191190004349e-02,1.366948988288640976e-02,-2.932327333837747574e-03,-1.388521678745746613e-02,-5.138282431289553642e-04,-1.423583924770355225e-02,5.373156163841485977e-03,-5.813892465084791183e-03,-1.215326040983200073e-02,-2.360041625797748566e-02,-1.921974495053291321e-02,2.269859578518662602e-05
2.267349744215607643e-03,1.251704152673482895e-02,-4.624604713171720505e-03,8.701685816049575806e-03,1.857906021177768707e-02,2.304162085056304932e-02,-1.472627092152833939e-02,1.676085963845252991e-02,1.079267170280218124e-02,1.215382479131221771e-02,-2.356630191206932068e-02,5.167462513782083988e-04,8.326130919158458710e-04,2.112147770822048187e-02,-4.615889862179756165e-03,5.089356098324060440e-03,-1.187535934150218964e-02,-1.387599110603332520e-02,1.860962063074111938e-02,-8.819379843771457672e-03,8.994217962026596069e-03,4.671853035688400269e-03,9.132687002420425415e-03,-1.033635158091783524e-02,1.002003252506256104e-02,1.033499464392662048e-02,-3.478239057585597038e-03,1.186440233141183853e-03,1.357676461338996887e-02,-4.427340347319841385e-03,-1.565090962685644627e-03,-2.040143497288227081e-02,-1.383561827242374420e-02,-1.284242048859596252e-02,5.171645170776173472e-05,-2.881746506318449974e-03,2.231923490762710571e-02,-6.706769578158855438e-03,1.278243213891983032e-02,-4.676475655287504196e-04,2.069473266601562500e-02,7.558950688689947128e-03,-2.177514880895614624e-02,7.291434332728385925e-03,-5.531542003154754639e-03,8.746285922825336456e-03,-1.162507664412260056e-02,2.342905383557081223e-03,1.181424595415592194e-02,-1.769186928868293762e-02,8.578444831073284149e-03,-3.547946456819772720e-03,-1.739513711072504520e-03,-1.377481408417224884e-02,-5.174042307771742344e-04,-1.473679207265377045e-02,-8.120142854750156403e-03,1.927926018834114075e-02,-1.711022481322288513e-02,-8.910386823117733002e-03,-2.355662547051906586e-02,-2.054197527468204498e-02,-1.671720668673515320e-02,1.814535073935985565e-02,-8.774516172707080841e-03,5.024134181439876556e-03,-1.084418501704931259e-02,-3.490197705104947090e-03,3.269664011895656586e-04,4.754438996315002441e-03,3.597009228542447090e-03,1.543346419930458069e-02,2.139426581561565399e-02,1.371865533292293549e-02,-2.855395432561635971e-03,1.696310192346572876e-02,1.152389775961637497e-02,2.379821427166461945e-02,1.250313594937324524e-03,1.212903764098882675e-03,-7.415650878101587296e-03,-2.715928130783140659e-04,5.322147160768508911e-03,1.018816232681274414e-02,-2.166563458740711212e-02,1.618079654872417450e-02,1.777338795363903046e-02,1.531155966222286224e-02,-2.360732527449727058e-03,-9.841219522058963776e-03,2.358186990022659302e-02,-1.322267227806150913e-03,-2.841236069798469543e-03,-6.682136445306241512e-04,-1.673657447099685669e-02,-1.527078170329332352e-02,1.920348219573497772e-02,9.572386625222861767e-04,-2.348482236266136169e-02,-5.153011064976453781e-03,1.805327273905277252e-02,-1.407431531697511673e-02,2.217512950301170349e-02,1.839217543601989746e-02,-2.361599123105406761e-03,1.726387813687324524e-02,-2.338284626603126526e-02,-4.452857538126409054e-04,1.590582728385925293e-02,1.761428453028202057e-02,-1.939364895224571228e-02,1.204252336174249649e-02,-1.978519558906555176e-02,-6.762429140508174896e-03,1.995101757347583771e-02,-6.084794644266366959e-03,-8.580764755606651306e-03,-2.012732438743114471e-02,1.576579920947551727e-02,-1.561146695166826248e-03,1.818404532968997955e-02,1.255024783313274384e-02,-1.370650995522737503e-02,-1.926563121378421783e-02,1.099587138742208481e-02,1.890594698488712311e-02,-9.995391592383384705e-04,1.705590449273586273e-02
-1.557548530399799347e-02,3.261043224483728409e-03,-1.897579617798328400e-02,1.948272809386253357e-02,-1.965769752860069275e-02,9.249961003661155701e-03,-5.734917242079973221e-03,1.145361457020044327e-02,-2.027604170143604279e-02,-1.858374290168285370e-02,-5.983007140457630157e-03,-1.632302766665816307e-03,-1.130985002964735031e-02,1.448917016386985779e-02,1.355592906475067139e-02,-7.571792695671319962e-03,-2.395037561655044556e-02,-1.032082713209092617e-03,4.857650492340326309e-03,9.604588150978088379e-03,-4.410463850945234299e-03,-8.527073077857494354e-03,-1.086268201470375061e-02,1.545231044292449951e-02,2.121371217072010040e-02,-5.134411621838808060e-03,-1.246617920696735382e-02,2.378736250102519989e-02,9.567818604409694672e-03,-1.348968874663114548e-02,-5.384296644479036331e-03,-2.299454621970653534e-02,1.844327524304389954e-02,1.379800960421562195e-02,1.673037000000476837e-02,-1.672101952135562897e-02,2.355320379137992859e-02,1.377166435122489929e-02,-1.134247332811355591e-02,-1.004039775580167770e-02,2.046664245426654816e-02,-1.914135552942752838e-02,1.916574500501155853e-02,1.644825190305709839e-02,-8.602698333561420441e-03,1.407484523952007294e-02,1.497383601963520050e-02,3.586852690204977989e-03,1.960425637662410736e-02,2.421951480209827423e-02,-1.466521713882684708e-02,-1.609240286052227020e-02,1.441262848675251007e-02,2.371067367494106293e-02,-5.017713177949190140e-03,1.568723528180271387e-04,-2.352750673890113831e-02,5.187903065234422684e-03,-1.172078121453523636e-02,5.874571390450000763e-03,-2.859816886484622955e-03,-1.607107929885387421e-02,9.466581046581268311e-03,-2.157943695783615112e-02,-1.473268773406744003e-02,-2.230772189795970917e-02,-2.128878608345985413e-02,2.162148803472518921e-02,1.523728948086500168e-02,-2.280099689960479736e-02,-1.206034515053033829e-02,-9.121027775108814240e-03,7.485973183065652847e-03,-7.271667011082172394e-03,-1.951671019196510315e-02,1.567427627742290497e-02,-3.385233227163553238e-03,2.215906791388988495e-02,2.405908145010471344e-02,-1.988885737955570221e-02,-2.594894729554653168e-03,-1.331752818077802658e-02,-2.200474729761481285e-03,-2.392882294952869415e-02,-1.669861748814582825e-02,7.495168130844831467e-03,-4.341457504779100418e-03,6.392263807356357574e-03,1.350530516356229782e-02,2.158516319468617439e-03,-2.322919107973575592e-02,1.891296356916427612e-02,9.250064380466938019e-03,-1.312663871794939041e-02,2.096398733556270599e-02,8.817944675683975220e-03,-2.322049066424369812e-02,-5.661580245941877365e-03,1.863668113946914673e-02,-2.198878489434719086e-02,-1.331736706197261810e-02,1.201959419995546341e-02,-6.737528368830680847e-03,-4.299345891922712326e-03,1.274214778095483780e-02,5.597559735178947449e-03,2.162300795316696167e-02,8.414356969296932220e-03,1.214350108057260513e-02,5.964088253676891327e-03,-6.579311564564704895e-03,-1.027868222445249557e-02,1.999030262231826782e-02,-5.361048039048910141e-03,1.699674502015113831e-02,1.885792240500450134e-02,2.111807651817798615e-02,2.401448786258697510e-02,1.483457721769809723e-02,2.354825846850872040e-02,-9.025310166180133820e-03,-2.054366096854209900e-02,1.559705659747123718e-02,-3.831407288089394569e-03,-1.276142057031393051e-02,2.247476717457175255e-03,1.874123327434062958e-02,5.499116610735654831e-03
2.363376505672931671e-02,1.473621744662523270e-02,1.802290789783000946e-02,7.409557700157165527e-03,1.568680442869663239e-02,4.336519632488489151e-03,-1.393174985423684120e-03,6.945863366127014160e-03,-8.263696799986064434e-04,-1.706077530980110168e-02,-5.756215658038854599e-03,-1.629243232309818268e-02,-6.278515327721834183e-03,-4.902187734842300415e-03,-1.307406648993492126e-02,-9.584046783857047558e-04,6.001434754580259323e-03,-2.250792086124420166e-02,-2.127529308199882507e-02,-8.086998946964740753e-03,2.135641686618328094e-02,3.193260403349995613e-03,2.435702085494995117e-02,7.590798195451498032e-03,9.579556994140148163e-03,1.712865754961967468e-02,8.954002521932125092e-03,-2.401166781783103943e-02,-9.412217186763882637e-04,-1.725090108811855316e-02,-8.341816283063963056e-05,-1.354353502392768860e-03,2.787773031741380692e-03,5.644239485263824463e-03,-2.291147038340568542e-02,1.790998317301273346e-02,-1.724233850836753845e-02,-1.997234299778938293e-02,2.292515523731708527e-02,1.499776542186737061e-02,1.071466319262981415e-02,-1.683541014790534973e-02,-1.892076432704925537e-02,1.979856938123703003e-02,1.545598078519105911e-02,-5.190581083297729492e-03,-1.967767998576164246e-02,-1.243387628346681595e-02,7.732539903372526169e-03,-1.981114223599433899e-02,1.440586335957050323e-02,-1.440559048205614090e-02,-2.414249815046787262e-02,-2.377811633050441742e-02,-5.675239954143762589e-03,-3.219014964997768402e-03,5.735658109188079834e-03,-1.635001972317695618e-02,9.556140284985303879e-04,-1.487858872860670090e-02,5.701193585991859436e-03,1.383350137621164322e-02,-1.676986925303936005e-02,4.652227740734815598e-03,1.361768133938312531e-02,4.978400189429521561e-03,1.183916814625263214e-02,-1.909494400024414062e-02,-8.490623906254768372e-03,-9.052094072103500366e-03,-1.276190951466560364e-02,-2.042014896869659424e-02,-2.285124920308589935e-02,-2.246869169175624847e-02,1.683106832206249237e-02,-1.224851328879594803e-02,-2.416800521314144135e-02,-5.084902048110961914e-03,3.228874644264578819e-03,-2.110103517770767212e-02,-2.018055506050586700e-02,-9.954790584743022919e-03,-2.071334794163703918e-02,4.118586424738168716e-03,1.238227542489767075e-02,-1.350683742202818394e-03,-7.355440407991409302e-03,1.298747770488262177e-02,9.662784636020660400e-03,-8.490726351737976074e-03,-1.148863788694143295e-02,8.172871544957160950e-03,1.407310180366039276e-02,9.293840266764163971e-03,1.851151348091661930e-03,-1.274751964956521988e-02,-6.215947680175304413e-03,-1.476062741130590439e-02,-2.355783479288220406e-03,1.035978272557258606e-02,-1.690655387938022614e-02,5.801495630294084549e-03,2.425582334399223328e-02,-8.364150300621986389e-03,-1.024646498262882233e-02,-2.238730527460575104e-02,2.037887647747993469e-02,2.027289755642414093e-02,5.819242913275957108e-03,-1.909979060292243958e-02,1.721304655075073242e-02,-5.224534310400485992e-03,-4.258212167769670486e-03,-2.299128565937280655e-03,1.029727049171924591e-02,-2.129608951508998871e-02,9.880481287837028503e-03,1.317890360951423645e-02,2.087901905179023743e-02,1.871032640337944031e-02,-1.603801734745502472e-02,1.395216863602399826e-02,1.164483558386564255e-02,1.828569802455604076e-03,-1.589291729032993317e-02,-2.021006541326642036e-03,1.286907866597175598e-02,2.294712699949741364e-02
8.297663182020187378e-03,5.765694193542003632e-03,1.227057538926601410e-02,-2.082637697458267212e-02,2.327108383178710938e-02,5.092477425932884216e-03,1.983598247170448303e-02,2.336979098618030548e-02,-1.300120539963245392e-02,-1.556195598095655441e-02,-1.524395775049924850e-02,1.509415684267878532e-03,-1.822233758866786957e-02,-1.517577562481164932e-02,7.661440875381231308e-03,-2.289240062236785889e-02,7.528542773798108101e-04,1.210127957165241241e-02,-6.554989144206047058e-03,5.990112200379371643e-03,1.753686740994453430e-02,1.756468974053859711e-02,1.579952426254749298e-02,-7.664158008992671967e-03,1.544057670980691910e-02,-1.172022521495819092e-02,-9.216919541358947754e-03,-7.310920860618352890e-03,8.702057413756847382e-03,8.373018354177474976e-03,2.356848679482936859e-02,-2.158147282898426056e-02,-2.206379361450672150e-02,-1.779493503272533417e-02,-9.016592986881732941e-03,2.312882244586944580e-02,-1.397784333676099777e-02,1.055839844048023224e-02,2.078233659267425537e-02,1.261368766427040100e-02,-1.889226585626602173e-02,-2.187714911997318268e-02,1.708642579615116119e-02,1.828876137733459473e-02,1.206683740019798279e-02,-1.903445646166801453e-02,-2.093430049717426300e-02,-9.711052291095256805e-03,1.336457114666700363e-02,-1.883179694414138794e-02,-7.076062029227614403e-04,-1.277407817542552948e-02,8.102189749479293823e-03,5.848151631653308868e-03,-1.203296892344951630e-02,-1.345112826675176620e-02,1.214106380939483643e-02,2.468968741595745087e-03,1.387484278529882431e-02,-3.359132679179310799e-04,1.169598661363124847e-02,2.051382884383201599e-02,2.159452764317393303e-03,-2.152430824935436249e-02,-4.129948560148477554e-03,-7.209439645521342754e-04,2.267671748995780945e-02,1.239483524113893509e-02,-2.666985092218965292e-04,-5.989560391753911972e-03,-6.981316488236188889e-03,-1.609834656119346619e-02,5.439060274511575699e-03,-1.762181171216070652e-03,1.133115589618682861e-02,2.513762563467025757e-03,-1.673689298331737518e-02,1.260940544307231903e-02,-2.261800877749919891e-02,2.050429955124855042e-02,-2.174855023622512817e-02,2.360270917415618896e-02,-1.097715273499488831e-02,5.364279262721538544e-03,1.476030517369508743e-02,-1.256860978901386261e-02,-6.949499715119600296e-03,2.340812422335147858e-02,1.330626662820577621e-02,-3.704013070091605186e-03,4.793246276676654816e-03,1.211375463753938675e-02,-9.640710428357124329e-03,2.430132403969764709e-02,1.117952540516853333e-02,2.328161383047699928e-03,-3.441546868998557329e-04,9.091796353459358215e-03,1.555423904210329056e-02,-2.215285412967205048e-02,1.866566017270088196e-02,-1.229568105190992355e-02,-2.066852152347564697e-02,-2.224075049161911011e-02,-6.737896241247653961e-03,-1.471405290067195892e-02,-1.798537559807300568e-02,3.141988709103316069e-04,1.627719588577747345e-02,-1.406971644610166550e-02,1.379516161978244781e-02,5.492240190505981445e-03,9.887303225696086884e-03,-1.602013781666755676e-02,8.566672913730144501e-03,1.808745414018630981e-02,2.308807335793972015e-02,3.240132471546530724e-03,-1.152937673032283783e-02,1.146407704800367355e-02,1.042343955487012863e-02,1.069944933988153934e-03,1.223503425717353821e-02,-2.323492802679538727e-02,-5.669902544468641281e-03,-4.156065173447132111e-03,2.112229354679584503e-02,1.879642601124942303e-03
-9.377656504511833191e-03,2.440036460757255554e-02,1.414583064615726471e-02,2.224931865930557251e-02,5.147153977304697037e-03,-1.565163210034370422e-02,-5.494519718922674656e-04,2.349293790757656097e-02,1.982109434902667999e-02,6.599987857043743134e-03,-1.594654843211174011e-02,-2.323277853429317474e-02,-1.454535126686096191e-02,-7.396698929369449615e-03,-1.928201876580715179e-02,-1.162656862288713455e-02,-3.371858503669500351e-03,1.693711988627910614e-02,-1.091112475842237473e-02,-2.241099253296852112e-02,1.621152088046073914e-02,6.332391407340764999e-03,1.540213357657194138e-02,-1.326197199523448944e-02,-1.767981424927711487e-02,-7.223817054182291031e-03,-4.241549875587224960e-03,-4.213090520352125168e-03,-2.097452618181705475e-02,-1.247797627002000809e-02,3.103057621046900749e-03,-4.835869185626506805e-04,9.730087593197822571e-03,6.305203307420015335e-03,-1.769079826772212982e-02,-5.358024965971708298e-03,-1.489709410816431046e-02,-8.150164969265460968e-03,-6.232883315533399582e-03,2.037242613732814789e-02,-1.481316983699798584e-03,7.614176720380783081e-03,8.935249410569667816e-03,4.150231834501028061e-03,-1.887303777039051056e-02,-1.018213480710983276e-02,1.354925427585840225e-02,-1.324605010449886322e-02,2.069180831313133240e-02,-1.430656644515693188e-03,2.666509477421641350e-03,-8.923044428229331970e-03,-6.788421422243118286e-03,-1.523948553949594498e-02,2.294008247554302216e-02,1.294713746756315231e-02,-6.949118687771260738e-04,-1.473571453243494034e-02,-3.134803147986531258e-03,1.136345975100994110e-02,2.122492296621203423e-03,-7.683197327423840761e-05,4.898704122751951218e-03,-1.835125684738159180e-02,1.307800132781267166e-02,-3.948033787310123444e-03,1.619518175721168518e-02,1.693663001060485840e-02,-1.733172871172428131e-02,1.885572634637355804e-02,-9.439785033464431763e-03,1.646923646330833435e-02,1.216211542487144470e-02,1.348459906876087189e-02,-1.198176760226488113e-02,-1.829205639660358429e-02,3.418674925342202187e-03,-1.828232966363430023e-02,-4.338392056524753571e-03,1.792755350470542908e-02,-6.858905311673879623e-03,-9.692976251244544983e-03,1.005001924932003021e-02,-1.503383833914995193e-02,1.591278798878192902e-02,-1.971989870071411133e-02,1.197898294776678085e-02,1.824530027806758881e-02,2.348913811147212982e-02,1.268130727112293243e-02,-2.056725323200225830e-02,-5.794471129775047302e-03,-1.602622121572494507e-02,1.260500028729438782e-02,-1.140701957046985626e-02,1.234559714794158936e-02,-1.220391690731048584e-02,-1.590275205671787262e-02,-1.763564907014369965e-02,2.331918105483055115e-02,-1.229112874716520309e-02,-1.592608541250228882e-02,-7.585322484374046326e-03,3.551751840859651566e-03,-1.379573997110128403e-02,-7.085978519171476364e-03,-1.868532598018646240e-02,-1.552279200404882431e-02,2.267946489155292511e-02,4.493827465921640396e-03,9.842432336881756783e-04,-1.356326509267091751e-02,1.724699977785348892e-03,-2.191078662872314453e-02,8.982889703474938869e-04,-1.612425781786441803e-02,-1.052306313067674637e-02,2.760167699307203293e-03,2.542083384469151497e-03,1.484169811010360718e-02,3.877562005072832108e-03,-5.806584842503070831e-03,5.066124722361564636e-03,2.430075034499168396e-02,1.886997744441032410e-02,1.566022075712680817e-02,-1.646887976676225662e-03,-1.132249645888805389e-02
-3.634103573858737946e-03,-1.411692053079605103e-02,-4.561145324259996414e-03,1.348060183227062225e-02,1.532978750765323639e-02,-7.496464997529983521e-03,2.274345234036445618e-02,-1.023938506841659546e-02,-1.369077432900667191e-02,-8.975081145763397217e-03,2.395664155483245850e-02,5.216415156610310078e-04,1.395373255945742130e-04,-1.969818025827407837e-02,1.051526516675949097e-02,2.397575974464416504e-02,-5.127565935254096985e-03,-4.267879761755466461e-03,1.935201138257980347e-02,-6.732997018843889236e-03,1.944069936871528625e-02,-1.278039161115884781e-02,-1.693064719438552856e-02,-1.741651631891727448e-02,-1.314930338412523270e-02,1.937891007401049137e-03,2.315865270793437958e-02,-5.822911392897367477e-03,-4.121537785977125168e-03,6.401026155799627304e-03,2.071286179125308990e-02,1.674222759902477264e-02,-2.861281391233205795e-03,-9.390609338879585266e-03,-5.485748872160911560e-03,-1.677434146404266357e-02,-2.184658870100975037e-02,-2.265363000333309174e-02,2.444270253181457520e-02,-7.191269192844629288e-03,1.627089804969727993e-04,1.582341082394123077e-02,-1.320851221680641174e-02,3.120502922683954239e-03,-1.027694903314113617e-02,2.412504330277442932e-02,-1.589340530335903168e-02,5.368299316614866257e-03,1.970882155001163483e-02,4.560811445116996765e-03,1.872432976961135864e-02,1.810451596975326538e-02,1.356095168739557266e-02,-2.306361496448516846e-02,1.378748379647731781e-02,-2.003971952944993973e-03,1.955640316009521484e-02,-1.655692793428897858e-02,8.703704923391342163e-03,-1.678027771413326263e-02,-7.631750777363777161e-04,-6.493773544207215309e-04,-4.462738987058401108e-03,-7.173934951424598694e-03,-1.759420335292816162e-02,1.545230392366647720e-02,-1.168170664459466934e-02,1.814532466232776642e-02,1.854989863932132721e-02,2.338467724621295929e-02,-3.166363341733813286e-03,-1.704227551817893982e-02,-1.250289473682641983e-02,-5.444759037345647812e-03,-3.659842070192098618e-03,1.921827532351016998e-02,-2.205716632306575775e-02,2.254941873252391815e-02,-6.655601784586906433e-03,2.371519617736339569e-02,3.392588114365935326e-03,-2.390196919441223145e-02,8.924695663154125214e-03,9.373455308377742767e-03,2.329171821475028992e-02,1.782806403934955597e-02,-4.985470441170036793e-04,1.108514238148927689e-02,-5.933340638875961304e-03,-1.413744036108255386e-02,2.374488487839698792e-02,4.033426288515329361e-03,-1.820500940084457397e-02,1.091965939849615097e-02,-2.970007946714758873e-03,-2.354178950190544128e-02,3.074807114899158478e-03,2.283889614045619965e-02,2.234503813087940216e-02,-1.302317250519990921e-02,-2.279684413224458694e-03,8.331038057804107666e-03,-1.019171345978975296e-02,9.661639109253883362e-03,-2.018615789711475372e-02,2.006767690181732178e-02,1.128376182168722153e-02,-1.954531483352184296e-02,-1.489381393184885383e-04,1.081032119691371918e-02,1.757905259728431702e-02,-1.093061082065105438e-02,-9.172301739454269409e-03,2.103556320071220398e-02,-1.519107073545455933e-02,-2.144761383533477783e-02,-1.777996309101581573e-02,-1.607763208448886871e-02,2.189762890338897705e-02,-1.377304270863533020e-02,-1.300956029444932938e-02,-1.902919448912143707e-02,1.486984547227621078e-03,1.530023012310266495e-02,-1.082405354827642441e-02,-9.876818396151065826e-03,-1.273834705352783203e-02,7.534127216786146164e-03
2.187041006982326508e-02,1.147393882274627686e-02,1.891220733523368835e-02,-7.454020436853170395e-03,2.112301625311374664e-02,2.171822823584079742e-02,-8.421927341260015965e-04,-1.640502596274018288e-03,-3.391963429749011993e-03,1.757584698498249054e-02,-2.084517385810613632e-03,1.226475089788436890e-02,1.430959440767765045e-02,-1.871943101286888123e-02,2.375788427889347076e-02,-9.793390519917011261e-03,-1.233048178255558014e-02,-8.186597377061843872e-03,-2.277825586497783661e-02,-1.212995685636997223e-02,1.178168319165706635e-02,2.668232657015323639e-03,6.351948250085115433e-03,-1.546356361359357834e-02,1.812865398824214935e-02,-2.464039810001850128e-02,-1.447834167629480362e-02,1.165782660245895386e-02,-2.234189398586750031e-02,-2.269707433879375458e-02,-1.681036688387393951e-02,-5.076197441667318344e-03,-2.031488344073295593e-02,1.009141188114881516e-02,1.061780378222465515e-03,-2.009365940466523170e-03,1.187440194189548492e-02,1.367734745144844055e-02,-4.793665837496519089e-03,1.403235737234354019e-02,-5.165556445717811584e-03,-1.932045817375183105e-02,-2.220375463366508484e-02,-6.081577390432357788e-03,-2.349084615707397461e-02,1.940374262630939484e-02,3.326164558529853821e-03,1.215466856956481934e-02,1.478869467973709106e-02,-6.667249836027622223e-03,1.670687086880207062e-02,4.216910805553197861e-03,-9.304785169661045074e-03,1.581466384232044220e-02,1.496481709182262421e-02,-2.414271607995033264e-02,4.581104498356580734e-03,6.974798627197742462e-03,3.893767716363072395e-03,-2.353190630674362183e-02,-9.310829453170299530e-03,-6.135643459856510162e-03,2.863612025976181030e-03,-1.810561306774616241e-02,1.100585679523646832e-03,1.427753921598196030e-02,-7.375889923423528671e-03,-1.522476784884929657e-02,-1.337520778179168701e-02,5.100876092910766602e-03,-3.338847775012254715e-03,5.847992375493049622e-03,-1.058474183082580566e-02,2.312241680920124054e-02,-2.331345714628696442e-02,1.179105602204799652e-02,-5.099617876112461090e-03,-1.385322399437427521e-02,3.973476123064756393e-03,9.703537449240684509e-03,-1.378086395561695099e-02,7.257612422108650208e-03,-2.141215279698371887e-02,1.456024963408708572e-02,-1.066532931872643530e-04,-1.923429034650325775e-02,1.208012271672487259e-02,-1.115467678755521774e-02,2.461512340232729912e-03,2.046486176550388336e-02,1.799832098186016083e-02,-1.685473881661891937e-02,-2.381448261439800262e-02,1.299403887242078781e-02,2.275210991501808167e-02,6.324339192360639572e-03,1.784114167094230652e-03,-4.101159982383251190e-03,-1.252741832286119461e-02,1.444833725690841675e-02,1.808947999961674213e-03,6.691867019981145859e-03,2.375865541398525238e-02,-2.139018476009368896e-02,-1.207347214221954346e-02,-3.548626787960529327e-03,-2.725268015637993813e-03,1.698878407478332520e-02,9.686611592769622803e-03,-1.307923230342566967e-03,2.256111055612564087e-02,-2.099221199750900269e-02,1.229673810303211212e-02,8.011246100068092346e-03,-4.386037588119506836e-03,-4.506889265030622482e-03,-3.031164640560746193e-03,-1.832240261137485504e-02,-4.694076720625162125e-03,3.950014244765043259e-03,-3.753631608560681343e-03,6.738427560776472092e-03,3.026470076292753220e-03,3.971803933382034302e-03,2.249618247151374817e-02,1.198268495500087738e-02,8.375859819352626801e-03,3.415303071960806847e-03
9.898735210299491882e-03,-1.809450611472129822e-02,2.415351336821913719e-03,-1.952014863491058350e-02,-1.375138387084007263e-02,-1.280830148607492447e-02,1.108878175728023052e-03,1.393916737288236618e-02,-5.888225045055150986e-03,-8.523613214492797852e-03,1.406151219271123409e-03,2.272652089595794678e-02,7.806652574799954891e-04,-1.027734111994504929e-02,-1.418733969330787659e-02,-9.842708706855773926e-03,2.312506176531314850e-02,-2.005143836140632629e-02,-4.062444902956485748e-03,-3.728294395841658115e-04,-9.530828334391117096e-03,-1.761822961270809174e-02,-1.484838034957647324e-02,2.394793741405010223e-02,6.945305969566106796e-03,2.309059537947177887e-02,1.736949384212493896e-02,1.555230189114809036e-02,-2.131281048059463501e-02,-6.169618573039770126e-03,-1.571287587285041809e-02,1.720474474132061005e-02,2.161373756825923920e-02,-1.745840348303318024e-02,2.306465830770321190e-05,-4.806473851203918457e-03,1.715443469583988190e-02,5.915598012506961823e-03,2.147262170910835266e-02,-5.937682930380105972e-03,1.415396854281425476e-02,7.492588367313146591e-03,2.289314940571784973e-02,-2.392251510173082352e-03,2.013921365141868591e-02,-2.011676691472530365e-02,-1.653275685384869576e-03,-1.350385323166847229e-02,-3.211929230019450188e-03,-2.248424477875232697e-02,1.180567126721143723e-02,2.328706160187721252e-02,-1.294840965420007706e-02,-6.975004915148019791e-03,1.066310796886682510e-02,8.148272521793842316e-03,-1.671515405178070068e-02,-1.367750205099582672e-02,3.251994494348764420e-03,-5.453844787552952766e-04,2.020909450948238373e-02,6.371198687702417374e-03,1.706696301698684692e-02,-6.011839956045150757e-03,1.675248518586158752e-02,1.391735766083002090e-02,-2.178088016808032990e-02,-1.332958112470805645e-03,1.967537216842174530e-02,-9.593851864337921143e-03,-1.843233406543731689e-02,3.063552314415574074e-03,-2.326789870858192444e-02,5.218615755438804626e-03,-2.313773892819881439e-02,-1.252468489110469818e-02,-4.931025672703981400e-03,1.406142022460699081e-03,-7.937716320157051086e-03,-3.845294471830129623e-03,1.736273430287837982e-02,4.274993669241666794e-03,-1.916288631036877632e-03,2.180639281868934631e-02,-5.568305030465126038e-03,-2.282575890421867371e-02,1.188400946557521820e-02,2.417255192995071411e-03,7.538239471614360809e-03,1.580863445997238159e-02,1.768511720001697540e-02,-8.161573670804500580e-03,-7.865409366786479950e-03,-6.238801404833793640e-03,2.162032574415206909e-02,-3.409548429772257805e-03,-1.463778130710124969e-02,-2.202875725924968719e-02,2.267914637923240662e-02,3.267285646870732307e-04,1.003312226384878159e-02,-1.899730414152145386e-02,4.833094310015439987e-03,-9.245667606592178345e-03,1.230117119848728180e-02,1.402041502296924591e-02,-4.719948861747980118e-03,-1.887899264693260193e-02,8.719218894839286804e-03,-2.222623676061630249e-02,-2.134812809526920319e-02,-9.940325282514095306e-03,-2.430829219520092010e-02,-6.584750022739171982e-03,-5.641176365315914154e-03,1.209803763777017593e-02,-4.459951538592576981e-03,1.682940497994422913e-02,-4.081137944012880325e-03,1.960662193596363068e-03,-1.680496707558631897e-02,1.771661685779690742e-03,1.855346560478210449e-02,-4.637160804122686386e-03,1.215782482177019119e-02,-2.017633058130741119e-02,-1.969901658594608307e-02,1.167279668152332306e-02
8.902407251298427582e-03,-2.287419885396957397e-02,1.551646925508975983e-02,2.204482816159725189e-02,-6.693350616842508316e-03,5.959844682365655899e-03,-1.660343632102012634e-02,-2.052460610866546631e-02,1.283813966438174248e-03,-1.024430617690086365e-03,6.625919602811336517e-03,6.041015498340129852e-03,2.169124549254775047e-03,-1.956588216125965118e-02,-2.099383063614368439e-02,1.632905192673206329e-02,-1.846519671380519867e-02,-2.293952740728855133e-02,-1.328216865658760071e-03,-2.276664786040782928e-02,-2.296300232410430908e-02,2.899649087339639664e-03,1.861306279897689819e-02,1.564148697070777416e-03,-1.465480495244264603e-02,-2.246513403952121735e-02,1.778149232268333435e-02,-1.151809841394424438e-02,1.531154499389231205e-03,1.036589778959751129e-02,-1.967445202171802521e-02,-2.000989019870758057e-02,-2.405968867242336273e-02,6.129684858024120331e-03,-7.726526353508234024e-03,1.789713092148303986e-02,1.372303999960422516e-02,7.468090858310461044e-03,-9.716205298900604248e-03,1.285629230551421642e-03,-1.395146921277046204e-02,-9.172325022518634796e-03,1.643101102672517300e-03,-5.696614389307796955e-04,-6.677029654383659363e-03,5.152253434062004089e-03,9.329668246209621429e-03,-2.297189831733703613e-02,-8.929563686251640320e-03,3.339828224852681160e-03,-1.502692047506570816e-02,-1.758412085473537445e-02,7.006113883107900620e-03,-8.988812565803527832e-03,-4.159062809776514769e-04,2.887381473556160927e-03,2.346552163362503052e-02,8.843485265970230103e-03,1.939955167472362518e-02,-1.059081964194774628e-02,1.584264077246189117e-02,-3.023419994860887527e-03,1.280775759369134903e-02,-1.442663557827472687e-02,-8.044613059610128403e-04,1.387509400956332684e-03,-1.385935209691524506e-02,1.090648001991212368e-03,1.131740119308233261e-02,1.865373924374580383e-02,-7.520794402807950974e-03,-5.060440395027399063e-03,1.491349283605813980e-02,-1.341228466480970383e-02,1.265466213226318359e-02,-7.551560644060373306e-03,-1.044423040002584457e-02,-2.151698619127273560e-02,-1.058883848600089550e-03,-1.222841907292604446e-02,-2.004827931523323059e-02,-1.270348578691482544e-02,7.405454292893409729e-03,-2.244562655687332153e-02,6.481556687504053116e-03,1.456024032086133957e-02,-1.114530488848686218e-02,8.059560321271419525e-03,3.254445968195796013e-03,8.539085392840206623e-04,-2.076667733490467072e-02,1.091029215604066849e-02,-2.303569950163364410e-02,-1.070555299520492554e-03,1.524832844734191895e-02,2.012703567743301392e-02,1.216324418783187866e-02,9.717246866784989834e-04,-6.061443127691745758e-03,1.727601513266563416e-02,-1.266499282792210579e-03,1.273193629458546638e-03,4.906230606138706207e-04,9.715642780065536499e-03,-2.112704794853925705e-03,-1.784991705790162086e-03,9.962447220459580421e-04,1.275781076401472092e-02,1.162088941782712936e-02,7.749300915747880936e-03,-6.491047330200672150e-03,1.787188276648521423e-02,9.204720146954059601e-03,-2.354320324957370758e-02,-7.832760922610759735e-03,1.741105318069458008e-02,2.435417613014578819e-03,-2.040417492389678955e-02,1.301101315766572952e-02,-9.697242639958858490e-03,-1.780397444963455200e-02,-1.115604862570762634e-02,1.532578654587268829e-02,-1.015091035515069962e-02,-2.072681440040469170e-03,1.119080837815999985e-02,-2.124070748686790466e-02,-2.187484130263328552e-02
1.040398608893156052e-02,1.377749722450971603e-02,1.939983665943145752e-02,1.937000826001167297e-02,-8.996352553367614746e-03,2.077198587357997894e-03,1.622410304844379425e-02,1.031736005097627640e-02,1.518363691866397858e-02,-1.858934410847723484e-03,1.692036539316177368e-02,8.625118993222713470e-03,7.479437626898288727e-03,1.682495139539241791e-02,-2.099549025297164917e-02,-9.092146530747413635e-03,-1.398881431668996811e-02,-1.476997788995504379e-02,2.073977142572402954e-02,-7.548135705292224884e-03,-1.029512193053960800e-02,-1.810385100543498993e-02,2.116351947188377380e-02,2.237869054079055786e-02,-2.658306948433164507e-05,4.303734283894300461e-03,2.359483949840068817e-02,-2.237240225076675415e-02,-1.131622493267059326e-02,-1.628354378044605255e-02,7.735883817076683044e-03,1.114886160939931870e-02,2.283162437379360199e-02,-1.039390638470649719e-02,8.926991373300552368e-03,2.028913982212543488e-02,-2.039660513401031494e-02,-1.802476705051958561e-03,-2.436327980831265450e-03,2.702183090150356293e-03,2.415004745125770569e-02,4.930915893055498600e-04,-1.978279277682304382e-02,-4.923372529447078705e-03,1.606060191988945007e-02,-1.527400687336921692e-02,1.584910415112972260e-02,-3.938072826713323593e-03,-1.990060880780220032e-02,2.665033563971519470e-03,-1.570828608237206936e-03,6.104436703026294708e-03,1.602069661021232605e-02,1.351443491876125336e-02,-5.313222296535968781e-03,1.737984642386436462e-02,2.144655399024486542e-02,1.289965771138668060e-02,-2.265657298266887665e-03,1.902952231466770172e-02,2.430330589413642883e-02,1.417567837052047253e-04,-4.047787748277187347e-03,-7.363937329500913620e-03,-1.969929412007331848e-02,-2.160235308110713959e-02,2.173376083374023438e-02,-3.028003731742501259e-03,1.235207635909318924e-02,-2.352457679808139801e-02,-1.855846121907234192e-02,-5.800871644169092178e-03,-1.350659970194101334e-02,-2.344823628664016724e-02,-1.406677905470132828e-02,-2.083782310364767909e-04,2.247781865298748016e-02,-6.188022904098033905e-03,-1.825326122343540192e-02,-8.620011620223522186e-03,-1.982817985117435455e-02,-1.723987236618995667e-02,-3.783144522458314896e-03,1.654276624321937561e-02,1.404119841754436493e-02,1.210103463381528854e-02,4.614247474819421768e-03,1.610831916332244873e-02,-1.716333627700805664e-02,1.909557171165943146e-02,-1.440594345331192017e-02,4.717136267572641373e-03,-5.720440763980150223e-03,4.426042083650827408e-03,2.108907699584960938e-02,1.861798577010631561e-02,-2.286350540816783905e-02,1.817628182470798492e-02,-1.830005319789052010e-03,4.857018589973449707e-03,1.997551880776882172e-02,-1.212790329009294510e-02,-1.349541265517473221e-02,8.520449511706829071e-03,-3.386404365301132202e-03,1.601791195571422577e-02,2.230298519134521484e-02,-2.130739577114582062e-02,-1.134073454886674881e-02,-1.561444904655218124e-02,-9.443639777600765228e-03,2.240687794983386993e-02,-7.397380191832780838e-03,1.774702407419681549e-02,-1.151718664914369583e-02,1.671143621206283569e-02,-9.452391415834426880e-03,1.126091089099645615e-02,-1.475506089627742767e-02,-1.449412014335393906e-02,2.366813644766807556e-02,2.279863320291042328e-02,7.425562944263219833e-03,2.309115417301654816e-02,5.690781399607658386e-03,-1.728926412761211395e-02,1.319174841046333313e-02,1.222199760377407074e-02
2.206216007471084595e-02,1.862248405814170837e-02,-2.431282214820384979e-02,-2.007644437253475189e-02,2.199044683948159218e-03,1.843887753784656525e-02,-8.193738758563995361e-03,1.393307186663150787e-02,-1.220606453716754913e-02,1.521340385079383850e-02,-8.369903080165386200e-04,4.041607957333326340e-03,-1.986187137663364410e-02,9.633149020373821259e-03,-2.183304913341999054e-02,3.429577685892581940e-03,-5.265354178845882416e-03,1.922356337308883667e-02,1.866135373711585999e-02,-6.759091746062040329e-03,-8.863098919391632080e-03,-2.431869693100452423e-02,2.364772744476795197e-02,-1.065853890031576157e-02,1.683798432350158691e-02,-2.281066961586475372e-02,1.417506113648414612e-02,2.098871767520904541e-02,-2.051915973424911499e-02,5.205788183957338333e-03,2.742057200521230698e-03,-8.722415193915367126e-03,-1.975562982261180878e-02,2.066348306834697723e-02,-8.357955142855644226e-03,-7.329990155994892120e-03,3.689804580062627792e-03,-6.246799137443304062e-03,2.206106670200824738e-02,1.993841397052165121e-05,1.109976507723331451e-02,-1.654377020895481110e-02,4.840594192501157522e-04,1.490143500268459320e-02,-2.394778095185756683e-02,1.497228350490331650e-02,-1.235326752066612244e-03,-8.272460661828517914e-03,-7.381134200841188431e-03,-1.580078341066837311e-02,8.677397854626178741e-03,-6.193711888045072556e-04,2.376946806907653809e-02,1.852724142372608185e-02,2.083746902644634247e-02,-1.453038025647401810e-02,-1.783350296318531036e-02,4.105438943952322006e-03,-1.363862212747335434e-02,1.332067605108022690e-02,2.332457713782787323e-02,-1.295882090926170349e-02,-2.380337007343769073e-02,9.190736338496208191e-03,-1.744990237057209015e-02,2.174143493175506592e-02,-1.333403866738080978e-02,1.413336582481861115e-02,1.195515971630811691e-02,2.367327362298965454e-02,-1.090534403920173645e-02,5.248698405921459198e-03,-2.276204992085695267e-03,1.435698848217725754e-02,-1.420640200376510620e-02,2.106398902833461761e-02,1.803105324506759644e-02,1.757312938570976257e-02,-1.543171610683202744e-02,-6.510362960398197174e-03,2.031791396439075470e-02,1.037254184484481812e-02,6.326134316623210907e-03,2.283641137182712555e-02,-1.500473264604806900e-02,1.175382360816001892e-02,-6.901480257511138916e-03,-1.174785010516643524e-02,4.587900824844837189e-03,6.268221884965896606e-03,-5.004246759199304506e-06,1.748185604810714722e-02,1.653258129954338074e-02,-2.065520500764250755e-03,-1.384665444493293762e-02,5.578226409852504730e-03,1.218469813466072083e-02,3.077274595852941275e-04,1.715990155935287476e-02,7.321589160710573196e-03,1.613267348147928715e-03,-1.227752072736620903e-03,-7.298907265067100525e-03,4.575386177748441696e-03,5.184261593967676163e-03,2.422176487743854523e-02,1.064282376319169998e-02,1.064889971166849136e-02,-3.445865120738744736e-03,1.496735215187072754e-02,2.271466329693794250e-02,-7.339487317949533463e-03,2.486797748133540154e-03,-1.085147913545370102e-02,-7.706773467361927032e-03,-1.463153306394815445e-02,-2.379440516233444214e-02,-5.752508994191884995e-03,1.329018175601959229e-02,1.117344200611114502e-02,-4.342192783951759338e-03,1.299986382946372032e-03,-1.047761086374521255e-02,1.335481065325438976e-03,3.051458392292261124e-03,2.246069721877574921e-03,-1.021100115031003952e-02,1.681636669673025608e-03
2.252094820141792297e-02,-2.873772289603948593e-03,1.359845511615276337e-02,2.966462867334485054e-03,-4.715551156550645828e-03,-8.243768475949764252e-03,1.111145317554473877e-02,-1.336801983416080475e-02,2.286850102245807648e-02,1.796585693955421448e-02,1.129125617444515228e-02,4.938584752380847931e-03,1.226061955094337463e-02,-2.180365473031997681e-02,9.635942056775093079e-03,-2.503715688362717628e-03,-1.695951446890830994e-03,-1.114432141184806824e-02,7.515246514230966568e-03,1.153913233429193497e-02,1.722488552331924438e-02,1.907966285943984985e-02,-1.688361167907714844e-02,6.327431183308362961e-04,-2.490872750058770180e-03,-3.359187627211213112e-03,-1.697277184575796127e-03,4.271307494491338730e-03,1.904712803661823273e-02,-2.260968461632728577e-02,-8.586721494793891907e-03,-1.015715673565864563e-02,-2.340445294976234436e-02,-7.327802479267120361e-03,1.022949349135160446e-02,-2.008948661386966705e-02,1.007242035120725632e-02,1.884886994957923889e-02,-3.914144181180745363e-04,-1.894682273268699646e-02,2.329096570611000061e-02,-2.362311445176601410e-02,1.250867545604705811e-02,5.050430074334144592e-03,9.342741221189498901e-03,-1.490280032157897949e-02,2.225266955792903900e-02,1.550285238772630692e-02,-1.558242831379175186e-02,3.885048674419522285e-03,1.211783755570650101e-02,2.169761434197425842e-02,2.104824781417846680e-02,1.912057399749755859e-02,1.518134586513042450e-02,-3.277275944128632545e-03,-1.143078319728374481e-02,-1.782946847379207611e-02,4.408317618072032928e-03,-2.273759245872497559e-02,-4.589479416608810425e-03,-1.208144240081310272e-02,-2.230028435587882996e-02,1.371706835925579071e-02,-1.374888420104980469e-02,1.940851844847202301e-02,5.652550607919692993e-04,9.311297908425331116e-03,2.320903167128562927e-02,5.211732350289821625e-03,-1.827527396380901337e-02,4.127444117330014706e-04,-3.177036996930837631e-04,-1.853881962597370148e-02,-2.048546448349952698e-02,1.465545222163200378e-02,-2.153269574046134949e-02,2.038391539826989174e-03,-2.200048416852951050e-02,-3.514154115691781044e-03,-1.315237302333116531e-02,1.566722244024276733e-02,2.777368063107132912e-03,7.232397794723510742e-03,1.917257718741893768e-02,2.948170993477106094e-03,1.944000273942947388e-02,-1.878386596217751503e-03,1.815291866660118103e-02,-1.813250780105590820e-02,1.090159872546792030e-03,6.005070637911558151e-03,-1.018379721790552139e-02,1.048806309700012207e-02,-2.299659512937068939e-02,2.337065152823925018e-02,-5.216646008193492889e-03,1.256514433771371841e-02,2.909819828346371651e-03,1.235635299235582352e-02,9.159757755696773529e-03,6.444287020713090897e-03,1.972584240138530731e-02,1.628377474844455719e-02,-1.187977567315101624e-02,-2.139541693031787872e-02,1.669345051050186157e-02,-9.572724811732769012e-03,-1.486450619995594025e-02,-1.775912009179592133e-02,1.200752984732389450e-02,4.407220054417848587e-03,1.397329848259687424e-02,-1.308903284370899200e-02,-1.330586988478899002e-02,-2.001031674444675446e-02,-8.695332333445549011e-03,1.544361747801303864e-02,-1.395481172949075699e-02,1.844454184174537659e-02,-5.236917175352573395e-03,1.273159589618444443e-02,-2.157583087682723999e-02,-2.386669395491480827e-03,-7.390073966234922409e-03,-1.029929891228675842e-02,1.161924377083778381e-02,-2.246165648102760315e-02
-5.344279110431671143e-03,-1.592497341334819794e-02,-6.913041695952415466e-03,-1.930270111188292503e-03,-4.259188193827867508e-03,1.838263124227523804e-02,-2.275913953781127930e-02,2.206487394869327545e-02,6.507441401481628418e-03,-5.064813420176506042e-03,-1.588146388530731201e-02,-5.127978511154651642e-03,-8.517544716596603394e-03,2.366245910525321960e-02,2.401819080114364624e-02,2.016100846230983734e-02,1.096685882657766342e-02,1.588142290711402893e-02,1.254140492528676987e-02,-7.788106333464384079e-03,-4.498062655329704285e-03,2.021865732967853546e-02,-6.652917712926864624e-03,1.421313732862472534e-02,-8.858702145516872406e-03,8.123047649860382080e-03,2.078238688409328461e-02,-2.165732719004154205e-02,-1.261908560991287231e-03,1.338475942611694336e-02,-2.403401583433151245e-02,-4.319386556744575500e-03,1.559972576797008514e-02,9.764735586941242218e-03,8.246782235801219940e-03,1.154698804020881653e-02,7.062326185405254364e-03,-3.343747521284967661e-04,-3.881894284859299660e-03,-1.163674239069223404e-02,6.266469601541757584e-03,-1.563950814306735992e-02,-2.283537015318870544e-02,2.379529923200607300e-02,-3.555435221642255783e-03,-1.177085656672716141e-02,1.418028026819229126e-02,1.452957186847925186e-02,-2.004358917474746704e-02,-2.044163271784782410e-02,7.182574830949306488e-03,-8.422208949923515320e-03,2.117858268320560455e-02,-2.033972553908824921e-02,1.204560045152902603e-02,-1.387434266507625580e-02,-1.117113698273897171e-02,2.317291684448719025e-02,1.213117968291044235e-02,-1.231462322175502777e-02,-1.684036664664745331e-02,1.467081252485513687e-02,1.786707341670989990e-02,-1.083556376397609711e-02,1.302261371165513992e-02,3.345209406688809395e-03,7.613357622176408768e-03,2.051517367362976074e-02,-2.311152406036853790e-02,9.595230221748352051e-04,-1.389786414802074432e-02,-8.392837829887866974e-03,2.072400599718093872e-02,5.789363756775856018e-03,1.997889764606952667e-02,2.322377078235149384e-02,-1.443424914032220840e-02,2.114346995949745178e-02,1.686855917796492577e-03,3.787058871239423752e-03,1.609995216131210327e-02,-3.750937758013606071e-03,-1.008899789303541183e-02,1.818310841917991638e-02,-1.348427904304116964e-04,1.476798672229051590e-02,1.428999379277229309e-02,2.133077941834926605e-02,-7.848634384572505951e-03,2.729244763031601906e-03,-5.053132772445678711e-03,-2.068322151899337769e-02,1.402284204959869385e-02,7.969189318828284740e-04,1.766135916113853455e-02,-3.528316272422671318e-03,-5.760539323091506958e-03,-6.583945942111313343e-04,7.761887274682521820e-03,1.752512715756893158e-02,1.735222525894641876e-02,9.967867285013198853e-03,7.670166269235778600e-06,2.151296101510524750e-02,1.551548950374126434e-02,1.798935607075691223e-02,-2.123295143246650696e-02,-1.134729757905006409e-02,-1.842914149165153503e-02,-8.552019484341144562e-03,-1.414643786847591400e-02,-1.273659436265006661e-04,2.335354126989841461e-02,1.074279751628637314e-02,-1.454016077332198620e-03,1.041492447257041931e-02,1.608613505959510803e-02,2.077422291040420532e-02,1.943969912827014923e-02,2.381866425275802612e-02,-1.631901226937770844e-02,1.506447792053222656e-03,1.012134924530982971e-02,3.624307457357645035e-03,1.481530908495187759e-02,-1.304206810891628265e-02,-7.393965031951665878e-03,6.440926343202590942e-03
2.086068503558635712e-02,3.301868680864572525e-03,1.725564710795879364e-02,-2.772271865978837013e-03,1.378568820655345917e-02,-9.242633357644081116e-03,4.765970632433891296e-03,-9.163502603769302368e-03,7.291202899068593979e-03,-1.607490889728069305e-02,-1.669095270335674286e-02,9.250776842236518860e-03,1.810101978480815887e-02,-5.914686713367700577e-03,1.845582760870456696e-02,-7.696781307458877563e-03,-2.050297707319259644e-02,5.366635508835315704e-03,3.498335601761937141e-03,2.016955427825450897e-02,-2.206768095493316650e-02,5.430572200566530228e-03,1.983290724456310272e-02,2.132755517959594727e-02,1.689590280875563622e-03,1.284217741340398788e-02,2.182701788842678070e-02,1.363905705511569977e-02,7.872651331126689911e-03,1.740297861397266388e-02,-9.126674383878707886e-03,-4.724754020571708679e-03,-1.331664063036441803e-02,-2.338421158492565155e-02,-1.848426647484302521e-02,1.357594877481460571e-02,1.763674989342689514e-02,1.398247200995683670e-02,-3.969455137848854065e-03,1.470255665481090546e-02,-6.711066234856843948e-03,-5.843830760568380356e-03,2.001623623073101044e-02,-2.390170283615589142e-02,-1.559930946677923203e-02,6.703658960759639740e-03,-4.425442777574062347e-03,2.585911424830555916e-04,-2.239118888974189758e-02,1.665203273296356201e-02,-8.765619248151779175e-03,1.346311531960964203e-02,2.223022747784852982e-03,3.692860947921872139e-03,-5.123894661664962769e-04,1.167942769825458527e-02,2.180586941540241241e-02,2.359378337860107422e-02,-6.719527300447225571e-03,2.883126260712742805e-03,-2.105288393795490265e-02,1.284549199044704437e-02,1.067772973328828812e-02,-4.042170476168394089e-03,2.352562267333269119e-03,2.768436446785926819e-03,-2.152447216212749481e-02,2.044871263206005096e-02,-2.907547866925597191e-03,2.381873317062854767e-02,-6.692115683108568192e-03,9.843327105045318604e-03,-6.501987576484680176e-03,9.592480957508087158e-03,-1.974459551274776459e-02,1.022143755108118057e-02,-1.392012741416692734e-02,2.223382331430912018e-02,-1.551952119916677475e-02,8.720613084733486176e-03,-5.240377038717269897e-03,-1.801712252199649811e-02,1.233113277703523636e-02,4.653748124837875366e-03,1.823779009282588959e-02,4.546420648694038391e-03,-1.519212312996387482e-02,-2.328064106404781342e-02,1.343311741948127747e-04,1.023448538035154343e-02,2.219388075172901154e-02,-5.986853502690792084e-03,-1.379980798810720444e-02,-6.850800942629575729e-03,2.310033142566680908e-02,1.477055810391902924e-02,-6.580929271876811981e-03,-8.690080139786005020e-04,1.608463563024997711e-02,-2.181357704102993011e-02,-2.310004085302352905e-02,2.309578843414783478e-02,-1.843149773776531219e-02,9.718387387692928314e-03,1.037106942385435104e-02,-2.277107443660497665e-03,1.027624215930700302e-02,1.126267295330762863e-02,-2.154933661222457886e-02,-2.826295385602861643e-04,3.722032997757196426e-03,-1.107632648199796677e-02,2.276900596916675568e-02,-1.211237721145153046e-02,-5.283256177790462971e-04,1.592149026691913605e-02,-2.018277719616889954e-02,1.177373901009559631e-02,-1.854212768375873566e-02,1.541471108794212341e-02,-1.849215850234031677e-02,1.786973699927330017e-02,-1.523701939731836319e-02,-1.430595759302377701e-02,-6.971099413931369781e-03,1.690273731946945190e-02,1.481991540640592575e-02,-1.313420664519071579e-02
-8.910337928682565689e-04,1.761416345834732056e-02,2.134448289871215820e-02,-1.260995492339134216e-02,-2.236036211252212524e-02,1.342420279979705811e-02,-3.269722219556570053e-03,2.296778373420238495e-02,-1.740659773349761963e-02,-2.556639024987816811e-03,-1.813605055212974548e-02,1.012010965496301651e-02,1.186551991850137711e-02,1.398269273340702057e-02,-1.019577309489250183e-02,1.328855939209461212e-02,-1.821968617150560021e-04,1.513844914734363556e-02,-1.816831156611442566e-02,-1.768232882022857666e-02,1.592566817998886108e-02,-1.671317592263221741e-02,1.732228137552738190e-02,1.383164897561073303e-02,-2.922473708167672157e-03,1.753689162433147430e-02,8.169936947524547577e-03,1.434458885341882706e-02,2.301008068025112152e-02,1.683752925600856543e-04,1.132694631814956665e-02,-1.513549126684665680e-02,2.425374835729598999e-02,-1.609644852578639984e-02,-1.551446877419948578e-02,1.709536835551261902e-02,2.229034155607223511e-02,-3.539730794727802277e-03,-1.988997682929039001e-03,5.408127326518297195e-03,1.935700303874909878e-03,-1.546090748161077499e-02,-1.542726717889308929e-02,-9.133632294833660126e-03,-1.945047080516815186e-02,-2.209578827023506165e-02,1.501542143523693085e-02,3.866418497636914253e-03,1.071154791861772537e-02,2.058980613946914673e-02,1.103045605123043060e-02,-1.126974448561668396e-02,2.057110518217086792e-02,-1.991010643541812897e-02,4.190483130514621735e-03,1.111630722880363464e-02,6.659884005784988403e-03,9.641160257160663605e-03,9.065424092113971710e-03,1.989135146141052246e-02,-1.866086944937705994e-02,-1.802643062546849251e-03,9.999272413551807404e-03,-2.261352911591529846e-02,1.537766773253679276e-03,9.120188653469085693e-03,-2.416466176509857178e-02,3.720079548656940460e-04,-8.914494886994361877e-03,-7.380354683846235275e-03,1.056260056793689728e-02,-2.686447929590940475e-03,1.480048336088657379e-02,7.612415938638150692e-04,-1.254292763769626617e-02,-1.272598002105951309e-02,1.647062972187995911e-02,1.202030666172504425e-02,-1.052790228277444839e-02,-7.761511020362377167e-03,1.188541203737258911e-02,-8.489902247674763203e-04,7.922288030385971069e-03,-2.102305740118026733e-02,1.309120375663042068e-02,2.702709287405014038e-03,-2.251506038010120392e-02,2.440075017511844635e-02,1.135465875267982483e-02,-4.480747506022453308e-03,9.267491288483142853e-03,1.569966785609722137e-02,7.173622958362102509e-03,-1.042336341924965382e-03,1.869643479585647583e-02,-2.118312194943428040e-02,1.303868368268013000e-02,-1.626729383133351803e-03,-1.848150417208671570e-02,-2.414233237504959106e-02,-4.255106323398649693e-04,-1.145305298268795013e-02,2.367171272635459900e-02,-2.031739801168441772e-02,2.044464088976383209e-02,-1.706705614924430847e-02,1.810198090970516205e-02,-1.760777086019515991e-02,-8.508304134011268616e-03,-1.518801786005496979e-02,-1.838518492877483368e-02,2.206293493509292603e-02,1.375382766127586365e-02,-1.962843909859657288e-02,-1.969768851995468140e-02,-1.711167767643928528e-02,-1.638058014214038849e-02,-5.760817788541316986e-03,-1.408770913258194923e-04,-2.056946232914924622e-02,-2.332194009795784950e-03,1.534489542245864868e-02,1.198785472661256790e-02,-1.773439347743988037e-02,-4.532545804977416992e-03,-2.003985689952969551e-03,-4.428860731422901154e-03,-5.990460980683565140e-03
1.167606376111507416e-02,-2.013374119997024536e-03,-1.176135800778865814e-02,1.992230489850044250e-02,-1.673570461571216583e-02,-1.214801985770463943e-02,1.773126609623432159e-02,1.939403591677546501e-03,-2.294740639626979828e-03,1.090722065418958664e-02,5.399862304329872131e-03,1.851539313793182373e-02,1.348937023431062698e-02,6.343782879412174225e-03,-4.405144718475639820e-04,5.161643028259277344e-03,7.962783798575401306e-03,1.006904803216457367e-02,-8.500762283802032471e-03,-1.175661757588386536e-02,3.054519649595022202e-03,1.926716417074203491e-02,1.344869728200137615e-03,-8.559670299291610718e-03,5.025302525609731674e-03,2.138997800648212433e-02,-2.240633219480514526e-02,1.283309236168861389e-02,7.111717946827411652e-03,4.135421477258205414e-03,-1.010755263268947601e-02,-9.920988231897354126e-03,7.244349922984838486e-03,1.499166712164878845e-02,-7.226769812405109406e-03,-2.425619604764506221e-04,2.187289856374263763e-02,3.723288653418421745e-03,-1.000832114368677139e-02,8.186396211385726929e-03,2.397093921899795532e-02,-2.080727554857730865e-02,-1.417884044349193573e-02,-1.423846464604139328e-02,-7.815094664692878723e-03,8.493926376104354858e-03,-1.987219974398612976e-02,2.330366894602775574e-02,-2.116518840193748474e-02,-1.408014539629220963e-02,3.725314512848854065e-03,1.530265901237726212e-02,-2.091561444103717804e-02,-1.987559534609317780e-02,-1.097945496439933777e-02,-1.151256728917360306e-02,-1.916897110641002655e-02,-1.951633952558040619e-02,-2.406227402389049530e-02,-1.762605272233486176e-02,-1.788007281720638275e-02,1.931236870586872101e-02,-2.389314351603388786e-03,8.312010206282138824e-03,-2.130635455250740051e-02,2.327018155483528972e-04,1.129746623337268829e-02,-2.029619552195072174e-02,3.998791333287954330e-03,-5.713522899895906448e-03,2.252196520566940308e-02,-2.188436128199100494e-02,2.373133413493633270e-02,-1.196106057614088058e-02,2.332962118089199066e-03,2.059659920632839203e-02,-1.805297657847404480e-02,-1.909591071307659149e-02,-2.438290230929851532e-02,2.075626328587532043e-02,1.411903835833072662e-02,1.808439381420612335e-02,-1.956590684130787849e-03,-1.622831821441650391e-02,-1.932173408567905426e-02,1.843000389635562897e-02,5.676453467458486557e-03,6.629219278693199158e-03,-1.631843484938144684e-02,1.512577105313539505e-02,2.020011469721794128e-02,-2.184044010937213898e-02,-1.081852801144123077e-02,-2.013119123876094818e-02,-2.137925848364830017e-02,-2.419917471706867218e-02,1.180442143231630325e-02,-4.844954237341880798e-04,-1.937469094991683960e-02,7.659354712814092636e-03,-2.015104331076145172e-02,-2.281807828694581985e-03,-5.106757860630750656e-03,4.867739975452423096e-03,6.545206066220998764e-03,-1.322883181273937225e-03,8.161976933479309082e-03,-1.478857919573783875e-02,-1.658492349088191986e-02,-1.674859039485454559e-02,1.699955575168132782e-02,-2.146814577281475067e-02,1.815677434206008911e-02,-1.782605610787868500e-02,-6.232946645468473434e-03,2.112753503024578094e-02,-1.637899503111839294e-02,-1.298484392464160919e-02,1.217105984687805176e-02,2.337723970413208008e-02,1.315710542257875204e-04,-2.933950861915946007e-03,-1.104781683534383774e-02,-8.056163787841796875e-03,1.889915019273757935e-02,-4.040894098579883575e-03,2.661934588104486465e-03,1.731864735484123230e-02
-1.375469844788312912e-03,-1.084496360272169113e-02,-1.753167994320392609e-02,-9.577514138072729111e-04,1.882708817720413208e-02,-5.871067289263010025e-03,-1.454717107117176056e-02,4.891276475973427296e-04,1.053476054221391678e-02,1.939709484577178955e-02,-9.005883708596229553e-03,-1.948411203920841217e-02,-1.944234780967235565e-02,1.990813575685024261e-02,5.485241301357746124e-03,1.465124916285276413e-02,2.148613147437572479e-02,-3.451568540185689926e-03,9.810500778257846832e-03,3.528964240103960037e-03,-2.213146071881055832e-03,-2.166363969445228577e-02,-2.403547056019306183e-02,2.234476990997791290e-02,4.694895353168249130e-03,1.907004602253437042e-02,4.187029320746660233e-03,1.200825069099664688e-02,1.269840635359287262e-02,1.283884700387716293e-02,1.482091844081878662e-02,-9.559805504977703094e-03,2.110235206782817841e-02,2.248050086200237274e-02,-1.594283431768417358e-02,2.035862766206264496e-02,-8.852571249008178711e-03,-2.210468519479036331e-03,1.796520501375198364e-02,1.237006485462188721e-02,-1.227145828306674957e-02,-1.441896799951791763e-02,-1.244904287159442902e-02,-1.520662102848291397e-02,1.007645949721336365e-02,8.648364018881693482e-05,1.891206204891204834e-02,2.222103066742420197e-03,1.896695792675018311e-02,-1.369496341794729233e-02,-5.470542237162590027e-03,1.035176403820514679e-02,-1.987107843160629272e-02,8.895087055861949921e-03,2.172986976802349091e-02,2.376213110983371735e-02,1.116126682609319687e-02,-2.858022926375269890e-03,1.588035747408866882e-02,-1.513039786368608475e-02,-6.157450843602418900e-03,1.972188986837863922e-02,-3.530597547069191933e-03,-8.553884923458099365e-03,-3.996909596025943756e-03,1.508145313709974289e-02,-1.571566238999366760e-02,1.190807763487100601e-02,-1.612005382776260376e-02,-3.839210839942097664e-03,2.764229793683625758e-05,-1.729794032871723175e-02,1.644870825111865997e-02,-5.679109133780002594e-03,1.533960085362195969e-02,2.038771286606788635e-02,1.638930104672908783e-02,1.918119005858898163e-02,-1.367199048399925232e-02,-1.756188459694385529e-02,-7.894413545727729797e-03,4.724457394331693649e-03,-1.977009512484073639e-02,8.330263197422027588e-03,1.583828474394977093e-03,8.203023113310337067e-03,-1.201160531491041183e-02,1.682849787175655365e-02,-2.381333895027637482e-02,-7.154860999435186386e-03,-1.238258183002471924e-02,-4.469252235139720142e-05,2.291036956012248993e-02,-1.819020137190818787e-02,6.630708929151296616e-03,1.583755761384963989e-02,-8.344824425876140594e-03,1.322221569716930389e-02,-3.945550881326198578e-03,-1.624915748834609985e-02,-1.000697910785675049e-02,1.434234995394945145e-02,1.789637841284275055e-02,1.950294524431228638e-02,3.177478443831205368e-03,-4.314425867050886154e-03,1.088170241564512253e-02,-2.288543246686458588e-02,-3.854756010696291924e-03,1.341326255351305008e-02,-2.967616543173789978e-03,-1.006889250129461288e-02,2.226514741778373718e-02,1.362090092152357101e-02,-2.037744224071502686e-02,1.221243664622306824e-02,-2.331509999930858612e-02,1.150263752788305283e-02,-7.725535891950130463e-03,1.512694358825683594e-02,9.491840377449989319e-03,-1.731864549219608307e-02,2.044564671814441681e-02,1.231781300157308578e-02,1.013328135013580322e-02,3.970215097069740295e-03,1.987070776522159576e-02,1.523288339376449585e-02
-6.211767322383821011e-05,-1.590902917087078094e-02,2.042138762772083282e-02,-1.343681011348962784e-02,5.447260104119777679e-03,1.626222394406795502e-02,1.543564163148403168e-02,1.127245556563138962e-02,-1.468827947974205017e-02,-1.978628337383270264e-02,8.832486346364021301e-03,1.593039371073246002e-02,-1.729705557227134705e-02,1.409975811839103699e-02,-5.405232310295104980e-03,-2.023022063076496124e-02,1.835808716714382172e-02,2.419003471732139587e-02,1.466275285929441452e-02,-1.631015725433826447e-02,2.347435615956783295e-02,2.361463755369186401e-02,-1.277553010731935501e-02,4.021951928734779358e-03,-2.090914361178874969e-02,2.379436604678630829e-02,-2.159715630114078522e-02,4.913891665637493134e-03,3.849681466817855835e-03,1.422351878136396408e-02,1.727440953254699707e-02,-1.585565879940986633e-02,-1.310727093368768692e-02,1.702127605676651001e-02,-5.942994263023138046e-03,1.136027835309505463e-02,-1.841575466096401215e-02,-3.793635172769427299e-03,1.089132763445377350e-02,9.075917303562164307e-03,-1.005791779607534409e-02,-5.447925068438053131e-03,-1.417386624962091446e-02,-1.822304353117942810e-02,-1.896750554442405701e-02,-1.653927564620971680e-02,-1.892548240721225739e-02,1.799341663718223572e-02,-1.979567855596542358e-02,9.821747662499547005e-04,-1.325184479355812073e-02,-1.078095566481351852e-02,-2.078896574676036835e-02,-4.541742091532796621e-04,-8.838176727294921875e-03,-2.197044715285301208e-02,-2.052873931825160980e-02,2.041919343173503876e-02,-1.193637866526842117e-02,1.940220035612583160e-02,-1.322705671191215515e-02,1.104516070336103439e-02,8.207868784666061401e-03,1.455782260745763779e-02,-1.186871621757745743e-02,-1.684877648949623108e-02,2.041671425104141235e-02,-2.183372341096401215e-02,-2.227538451552391052e-02,-5.359338130801916122e-03,-6.625471636652946472e-03,-4.239415284246206284e-03,-2.443388570100069046e-03,-1.240630913525819778e-02,1.239338889718055725e-02,5.903872661292552948e-04,-6.891231052577495575e-03,2.088324725627899170e-02,-1.276498008519411087e-02,2.413605712354183197e-02,2.391430363059043884e-02,-1.986190304160118103e-02,2.084564790129661560e-02,9.723468683660030365e-03,1.990173943340778351e-02,1.269533764570951462e-02,-6.916527170687913895e-03,-1.728224754333496094e-02,-1.302475202828645706e-02,-1.056252140551805496e-02,-2.423305064439773560e-02,2.162066288292407990e-02,-4.334738478064537048e-03,-2.202471159398555756e-02,-5.648868624120950699e-03,-2.363351918756961823e-02,1.203834731131792068e-02,2.033783309161663055e-02,9.014775045216083527e-03,3.596564522013068199e-03,-4.891874268651008606e-03,-1.052753627300262451e-02,7.787621580064296722e-04,2.064028568565845490e-02,-1.642234064638614655e-02,-2.508734585717320442e-03,-2.243614755570888519e-02,-1.496637426316738129e-02,-5.402571056038141251e-03,-2.197291702032089233e-02,-1.696169190108776093e-02,-1.526491064578294754e-02,-1.568550057709217072e-02,-1.346612535417079926e-02,2.346573211252689362e-02,-8.740015327930450439e-03,1.583633385598659515e-02,-1.618160121142864227e-02,-4.987993277609348297e-03,1.191232539713382721e-02,1.409154757857322693e-02,2.404895052313804626e-02,-2.005760930478572845e-02,-1.006588526070117950e-02,-1.005704421550035477e-02,1.727507077157497406e-02,1.071477588266134262e-02,-3.044639015570282936e-03
-2.810943173244595528e-03,1.611374691128730774e-02,3.548180684447288513e-03,2.207522653043270111e-02,-9.923640638589859009e-03,-2.330747805535793304e-02,-7.742913439869880676e-03,-2.233022078871726990e-02,1.710171997547149658e-02,-4.428145941346883774e-03,1.619139313697814941e-02,4.558556247502565384e-03,2.072956971824169159e-02,9.174893610179424286e-03,-1.512771705165505409e-03,-6.823951844125986099e-04,2.964132232591509819e-03,3.522875253111124039e-03,5.749610136263072491e-04,3.847102634608745575e-03,2.323022112250328064e-02,2.077274397015571594e-02,3.716288134455680847e-03,1.823851838707923889e-02,-7.098475936800241470e-03,1.899286173284053802e-02,1.353648398071527481e-02,1.046315208077430725e-02,2.117700502276420593e-02,-2.650382928550243378e-03,-8.677641744725406170e-04,-1.395350974053144455e-02,-2.046169713139533997e-02,-9.447997435927391052e-03,1.036042068153619766e-02,2.180692739784717560e-02,-2.186073176562786102e-02,2.007385157048702240e-02,-1.108656823635101318e-02,1.680256985127925873e-02,1.438845973461866379e-02,-3.004502039402723312e-03,-1.235069986432790756e-02,-9.628614410758018494e-03,1.377375447191298008e-03,-9.229730931110680103e-04,-1.233198028057813644e-02,2.359180897474288940e-02,-1.388572528958320618e-02,-1.402027904987335205e-02,9.730673395097255707e-03,-1.349912118166685104e-02,4.688664805144071579e-03,-1.234858017414808273e-02,1.198910363018512726e-02,-1.729905977845191956e-02,1.586605608463287354e-02,2.211996167898178101e-02,-6.523558404296636581e-03,6.769944913685321808e-03,-2.439999394118785858e-02,-8.659779094159603119e-03,2.804761286824941635e-03,2.398710884153842926e-02,1.905519142746925354e-02,1.753991469740867615e-02,2.171059697866439819e-02,-1.608972065150737762e-02,1.194140873849391937e-02,-3.309554420411586761e-03,2.123745344579219818e-02,1.881411485373973846e-02,2.419715002179145813e-02,-4.082298371940851212e-03,-3.735114820301532745e-03,-1.411226578056812286e-02,-8.813649415969848633e-03,-9.001267142593860626e-03,-7.002899888902902603e-03,9.629225358366966248e-03,-9.275693446397781372e-03,-1.999274455010890961e-02,1.846023648977279663e-02,2.234598249197006226e-02,1.457577478140592575e-02,-5.548054818063974380e-03,-1.328423246741294861e-02,1.231918809935450554e-03,-2.318362519145011902e-02,-9.414981119334697723e-03,1.793017797172069550e-02,1.080673001706600189e-02,5.534966941922903061e-03,1.401837076991796494e-02,-4.850884433835744858e-03,2.040507271885871887e-02,-1.548686902970075607e-02,1.205912232398986816e-02,-1.663010753691196442e-02,7.321938872337341309e-03,1.436246838420629501e-02,-1.258729491382837296e-02,-2.305678091943264008e-02,2.305031009018421173e-02,2.263285778462886810e-02,2.222440764307975769e-02,-7.522457162849605083e-04,-2.424427121877670288e-02,-2.276722528040409088e-02,4.559553228318691254e-03,4.685328807681798935e-03,-9.097191505134105682e-03,8.569067344069480896e-03,2.410302683711051941e-02,1.913871429860591888e-02,1.220395602285861969e-02,2.214125730097293854e-02,2.431079559028148651e-02,-4.592026583850383759e-03,-3.416209481656551361e-03,9.194988757371902466e-03,1.038168836385011673e-02,-8.125563152134418488e-03,-2.031481452286243439e-02,2.413001656532287598e-02,-2.138192951679229736e-02,2.349082939326763153e-02,5.964725278317928314e-03
-2.174767851829528809e-02,-2.266721241176128387e-02,-7.542645093053579330e-03,1.251317281275987625e-02,-7.981884293258190155e-03,1.030434388667345047e-02,-2.157441340386867523e-02,-1.893907226622104645e-02,-1.592081598937511444e-02,-1.524545345455408096e-02,6.458892952650785446e-03,-1.923668384552001953e-02,1.481617987155914307e-02,1.837677881121635437e-02,1.894122175872325897e-02,-1.883029192686080933e-02,-4.739419382531195879e-04,-6.976400967687368393e-03,1.942964643239974976e-02,-1.114138308912515640e-02,-5.263888277113437653e-03,-5.332136526703834534e-03,-1.080748159438371658e-02,-1.214258023537695408e-03,5.268917419016361237e-03,1.064649200998246670e-03,-8.254322223365306854e-03,2.369256690144538879e-02,1.805790513753890991e-02,1.159641984850168228e-02,-2.378609217703342438e-02,-2.403586730360984802e-02,5.233041942119598389e-03,-7.607496809214353561e-03,3.687518881633877754e-03,2.128877490758895874e-02,-4.059171769767999649e-03,7.075512316077947617e-03,9.280832484364509583e-03,-9.699718095362186432e-03,-1.533107366412878036e-03,1.672938652336597443e-02,8.019790984690189362e-03,2.098046801984310150e-02,1.420405507087707520e-02,1.171207986772060394e-02,1.570072723552584648e-03,2.109987474977970123e-02,-1.432613655924797058e-02,-9.823624975979328156e-03,2.275110967457294464e-02,-2.299333224073052406e-03,1.835286058485507965e-02,-1.741041615605354309e-02,1.447826903313398361e-02,-2.109939418733119965e-02,1.422015763819217682e-02,1.024465542286634445e-02,-3.354832064360380173e-03,-2.205166406929492950e-02,2.418097481131553650e-02,-2.388539165258407593e-02,-8.981135673820972443e-03,1.390571985393762589e-02,1.160214282572269440e-02,-3.455833299085497856e-03,1.351987104862928391e-02,1.958664506673812866e-02,7.139259949326515198e-03,1.284028589725494385e-02,-2.007303945720195770e-02,2.210384607315063477e-02,-7.926269434392452240e-03,-1.235205400735139847e-02,-1.170329470187425613e-02,-6.360574159771203995e-03,2.119997330009937286e-02,4.589260555803775787e-03,1.179577410221099854e-02,1.432818453758955002e-02,9.930688887834548950e-03,-2.324563078582286835e-02,-2.356654033064842224e-03,-1.208951883018016815e-02,2.150319050997495651e-03,-1.813597232103347778e-02,1.395025197416543961e-02,1.211437955498695374e-02,8.578023407608270645e-04,1.424416550435125828e-03,1.343674305826425552e-02,8.485483936965465546e-03,1.766638830304145813e-02,1.200414355844259262e-02,2.249056845903396606e-02,1.573702506721019745e-02,1.515533495694398880e-02,2.435136027634143829e-02,-1.283303741365671158e-02,-5.776979960501194000e-03,-2.434727735817432404e-02,1.340252533555030823e-02,-1.848289929330348969e-02,2.426881529390811920e-02,1.460221968591213226e-02,4.712825175374746323e-03,7.478450890630483627e-03,5.188306793570518494e-03,-8.496928028762340546e-03,-1.552134100347757339e-02,1.751092821359634399e-02,1.528242975473403931e-02,-3.218841506168246269e-03,-1.120971888303756714e-02,2.291781641542911530e-02,-8.085607551038265228e-03,-1.996116898953914642e-02,-1.866994798183441162e-02,2.315163612365722656e-02,-5.108912475407123566e-03,7.063255645334720612e-03,1.099730562418699265e-02,-3.835477167740464211e-03,-2.192490361630916595e-02,1.887743547558784485e-02,1.784116216003894806e-02,-3.260670928284525871e-03,1.833095401525497437e-02
2.221505902707576752e-02,-6.468010600656270981e-03,-5.153479054570198059e-03,-1.638343371450901031e-02,-2.377003617584705353e-02,-4.018764477223157883e-03,2.349821478128433228e-02,-6.898448802530765533e-03,-5.195184145122766495e-03,1.964590139687061310e-02,4.452429711818695068e-03,3.342980984598398209e-03,-1.812092028558254242e-02,6.128095090389251709e-03,1.420878898352384567e-02,6.793359294533729553e-03,9.154702536761760712e-03,2.030339464545249939e-02,1.224523410201072693e-02,2.017853112192824483e-04,-9.414499625563621521e-03,2.122308500111103058e-02,-4.607882350683212280e-03,-1.357765030115842819e-02,2.677496813703328371e-04,1.021382492035627365e-02,-1.394355110824108124e-02,-7.272038143128156662e-03,8.491379208862781525e-03,-1.876025274395942688e-02,-1.404836773872375488e-02,1.942129619419574738e-02,1.969818212091922760e-02,-1.027284003794193268e-02,9.097853675484657288e-03,-1.556424237787723541e-02,1.097510382533073425e-02,-2.892168704420328140e-03,1.473503652960062027e-02,2.398795075714588165e-02,1.992209628224372864e-02,8.848534896969795227e-03,2.403373830020427704e-02,1.499125082045793533e-02,8.902856148779392242e-03,8.596230298280715942e-03,1.488033030182123184e-02,1.893855072557926178e-02,-1.037496048957109451e-02,2.377063967287540436e-02,-4.915598779916763306e-03,2.290170639753341675e-02,1.680600084364414215e-02,-1.547272317111492157e-02,1.238521840423345566e-02,-1.284815650433301926e-02,-1.948978379368782043e-02,4.569443408399820328e-03,-1.310526393353939056e-02,-1.315729971975088120e-02,-1.175883699033875018e-05,2.215545810759067535e-02,-2.269937098026275635e-02,-5.372307263314723969e-03,-1.835091039538383484e-02,8.247887715697288513e-03,1.079715881496667862e-02,1.818812452256679535e-02,-1.094925403594970703e-02,-1.956338249146938324e-02,1.858016476035118103e-02,2.204468101263046265e-02,1.077581383287906647e-02,-4.557287320494651794e-03,-9.466632269322872162e-03,-1.034740544855594635e-02,-8.642345783300697803e-04,1.970865949988365173e-02,-1.861891523003578186e-02,-8.877716027200222015e-03,2.394385263323783875e-02,-1.919834030559286475e-04,9.788179770112037659e-03,-1.225435733795166016e-02,-1.825542934238910675e-02,-2.687680767849087715e-03,-3.997980151325464249e-03,-4.688026849180459976e-03,-5.888000596314668655e-03,-4.214842338114976883e-03,-2.186046540737152100e-02,-1.564220339059829712e-02,1.341114100068807602e-02,-2.327296696603298187e-02,7.225095760077238083e-04,-2.429435960948467255e-02,-1.206997036933898926e-02,2.041123062372207642e-02,-1.598074473440647125e-02,-2.341912873089313507e-02,-1.867951452732086182e-02,2.023482508957386017e-02,-5.449802614748477936e-03,2.038479782640933990e-02,3.939644899219274521e-03,6.687886547297239304e-03,2.331142313778400421e-02,-1.768449507653713226e-02,-2.061026357114315033e-02,7.676766719669103622e-03,-1.916071283631026745e-03,2.353239245712757111e-02,-1.514808181673288345e-02,4.121272359043359756e-03,-9.576007723808288574e-03,-1.139624696224927902e-02,2.050979621708393097e-02,-1.300132274627685547e-02,-7.930269464850425720e-03,1.139024831354618073e-02,5.288871470838785172e-03,1.657921448349952698e-02,1.898525841534137726e-02,1.158931851387023926e-02,1.593030057847499847e-02,1.819642446935176849e-02,1.094259880483150482e-02,-4.344128072261810303e-03
2.209402993321418762e-02,-2.330044470727443695e-02,1.600255072116851807e-02,-2.248697914183139801e-02,1.732872053980827332e-02,1.082827243953943253e-02,-1.760585606098175049e-02,-1.634243875741958618e-02,1.668411865830421448e-02,1.972096785902976990e-02,-1.405467279255390167e-02,-1.265096850693225861e-02,1.093979738652706146e-02,-6.588909309357404709e-03,2.625411842018365860e-03,-3.410809906199574471e-03,-9.526340290904045105e-03,-2.742370823398232460e-03,6.001492962241172791e-03,-3.171891905367374420e-03,5.810431321151554585e-04,-1.198002696037292480e-02,-7.520615588873624802e-03,-1.597200706601142883e-02,1.256566960364580154e-02,2.110878378152847290e-02,1.990969292819499969e-02,1.437733322381973267e-02,2.193006686866283417e-02,-2.331859059631824493e-02,1.561984699219465256e-02,-5.166646558791399002e-03,-5.503615364432334900e-03,-1.412256807088851929e-02,3.926038043573498726e-04,-2.409417182207107544e-02,1.487564295530319214e-02,-3.687155549414455891e-04,9.972815314540639520e-05,8.881581947207450867e-03,1.703138649463653564e-02,3.591126529499888420e-03,-1.205858588218688965e-02,-5.146679934114217758e-03,-1.364993397146463394e-02,1.014599017798900604e-02,-6.497328286059200764e-04,-8.660352788865566254e-03,-1.605378650128841400e-02,1.617071218788623810e-02,1.292489189654588699e-02,2.065851911902427673e-02,-1.020061783492565155e-02,-2.363584004342556000e-02,1.619359105825424194e-02,-1.518742879852652550e-03,2.251365408301353455e-02,-2.008766168728470802e-04,-2.333914302289485931e-02,1.201673876494169235e-02,-6.641407031565904617e-03,-1.994354836642742157e-02,5.215331912040710449e-03,-1.401094777975231409e-04,-4.914574092254042625e-04,2.134954929351806641e-02,-5.608239211142063141e-03,7.525800261646509171e-03,-1.678438158705830574e-03,-2.215802855789661407e-02,8.320542983710765839e-03,-2.081088162958621979e-02,-1.126703247427940369e-02,-1.090556941926479340e-02,-1.892458461225032806e-02,-1.810326799750328064e-02,1.741362735629081726e-02,1.943869888782501221e-02,5.085566546767950058e-03,2.806025557219982147e-03,2.054918184876441956e-02,-1.549244020134210587e-02,-1.249128486961126328e-02,1.982905343174934387e-02,6.862608250230550766e-03,1.985061168670654297e-02,-5.362246651202440262e-03,1.354661025106906891e-02,-2.367700077593326569e-02,-1.425467897206544876e-03,-7.265959400683641434e-03,1.905365264974534512e-03,-1.493048202246427536e-02,9.815992787480354309e-03,7.344521582126617432e-03,-5.027771461755037308e-03,1.354567520320415497e-02,-1.211620960384607315e-02,2.229503123089671135e-03,8.155850693583488464e-03,-1.711106859147548676e-02,2.390413358807563782e-02,1.950334524735808372e-03,-8.328708820044994354e-03,1.495922100730240345e-03,-4.211528692394495010e-03,1.760523207485675812e-02,-2.074990235269069672e-02,-1.738213002681732178e-02,-2.149608545005321503e-02,9.760382585227489471e-03,-1.437889039516448975e-02,-1.871402002871036530e-02,2.768220147117972374e-03,-1.369761675596237183e-02,-6.573752500116825104e-03,1.379748992621898651e-02,-2.669914392754435539e-03,-1.899436488747596741e-02,-3.941833507269620895e-03,-4.808530211448669434e-03,7.384246680885553360e-03,-9.096653200685977936e-03,1.153007056564092636e-02,-1.163957826793193817e-02,2.148601599037647247e-02,-2.319370955228805542e-02,6.093587260693311691e-03
