1.258957199752330780e-04,2.352878254896495491e-05,-0.000000000000000000e+00,2.014517231145873666e-04,2.336005491088144481e-05,6.392553768819198012e-05,1.252411748282611370e-04,-0.000000000000000000e+00,8.300984336528927088e-05,-0.000000000000000000e+00,-0.000000000000000000e+00,-0.000000000000000000e+00,8.326669194502756000e-05,1.610781473573297262e-04,-0.000000000000000000e+00,-0.000000000000000000e+00
1.881823118310421705e-04,-0.000000000000000000e+00,1.217439639731310308e-04,-0.000000000000000000e+00,-0.000000000000000000e+00,2.018758277699816972e-05,1.909267739392817020e-04,1.053454398061148822e-04,7.307242776732891798e-05,-0.000000000000000000e+00,4.325020199758000672e-06,-0.000000000000000000e+00,-0.000000000000000000e+00,8.883151895133778453e-05,-0.000000000000000000e+00,-0.000000000000000000e+00
2.010416210396215320e-04,-0.000000000000000000e+00,1.488014822825789452e-04,-0.000000000000000000e+00,-0.000000000000000000e+00,1.255002280231565237e-04,-0.000000000000000000e+00,2.179572447857935913e-06,1.287216764467302710e-05,-0.000000000000000000e+00,-0.000000000000000000e+00,8.899266686057671905e-05,1.989089068956673145e-04,-0.000000000000000000e+00,2.103389851981773973e-04,3.383416640190262115e-07
1.093900136766023934e-04,-0.000000000000000000e+00,-0.000000000000000000e+00,1.042912408593110740e-04,-0.000000000000000000e+00,1.443626097170636058e-04,-0.000000000000000000e+00,1.212895222124643624e-04,1.747061178321018815e-04,-0.000000000000000000e+00,1.892778236651793122e-04,-0.000000000000000000e+00,1.934042520588263869e-04,1.041063005686737597e-04,1.256345713045448065e-04,1.898937189253047109e-04
-0.000000000000000000e+00,-0.000000000000000000e+00,-0.000000000000000000e+00,-0.000000000000000000e+00,-0.000000000000000000e+00,1.775723649188876152e-04,9.360095282318070531e-05,4.883439487457508221e-06,6.171591667225584388e-05,1.348619407508522272e-04,-0.000000000000000000e+00,6.156635208753868937e-05,1.115268387366086245e-04,1.068630226654931903e-04,-0.000000000000000000e+00,-0.000000000000000000e+00
-0.000000000000000000e+00,-0.000000000000000000e+00,8.849867299431934953e-05,5.091808998258784413e-05,1.128614239860326052e-04,-0.000000000000000000e+00,-0.000000000000000000e+00,3.040565934497863054e-05,6.531726103276014328e-05,-0.000000000000000000e+00,-0.000000000000000000e+00,-0.000000000000000000e+00,-0.000000000000000000e+00,-0.000000000000000000e+00,8.961484127212315798e-05,2.082827413687482476e-04
-0.000000000000000000e+00,1.089971774490550160e-04,-0.000000000000000000e+00,-0.000000000000000000e+00,1.296192349400371313e-04,-0.000000000000000000e+00,1.562451870995573699e-05,1.663570146774873137e-04,2.044833236141130328e-04,2.705791666812729090e-05,-0.000000000000000000e+00,-0.000000000000000000e+00,-0.000000000000000000e+00,-0.000000000000000000e+00,2.041771804215386510e-04,1.193303032778203487e-04
1.623535354156047106e-04,-0.000000000000000000e+00,2.190579152738791890e-06,-0.000000000000000000e+00,-0.000000000000000000e+00,1.325902267126366496e-04,1.870774212875403464e-05,-0.000000000000000000e+00,-0.000000000000000000e+00,-0.000000000000000000e+00,-0.000000000000000000e+00,-0.000000000000000000e+00,-0.000000000000000000e+00,-0.000000000000000000e+00,8.752116264076903462e-05,-0.000000000000000000e+00
8.628961950307711959e-06,1.012182256090454757e-04,-0.000000000000000000e+00,2.994487886098795570e-06,-0.000000000000000000e+00,5.374684405978769064e-06,2.075227239402011037e-04,5.757421604357659817e-06,-0.000000000000000000e+00,-0.000000000000000000e+00,1.302028686041012406e-04,-0.000000000000000000e+00,-0.000000000000000000e+00,-0.000000000000000000e+00,-0.000000000000000000e+00,1.423989306204020977e-04
1.779221929609775543e-04,-0.000000000000000000e+00,5.418893124442547560e-05,2.041738771367818117e-04,1.511023438069969416e-04,1.112939062295481563e-04,1.777380821295082569e-04,1.823597558541223407e-04,-0.000000000000000000e+00,-0.000000000000000000e+00,-0.000000000000000000e+00,3.824245504802092910e-05,-0.000000000000000000e+00,3.473843753454275429e-05,-0.000000000000000000e+00,-0.000000000000000000e+00
-0.000000000000000000e+00,1.743359753163531423e-04,1.880435775092337281e-05,-0.000000000000000000e+00,1.040696442942135036e-04,1.765567430993542075e-04,5.592510569840669632e-05,-0.000000000000000000e+00,9.608850086806342006e-05,-0.000000000000000000e+00,9.753794438438490033e-05,-0.000000000000000000e+00,5.605193291557952762e-05,6.196205958985956386e-06,-0.000000000000000000e+00,-0.000000000000000000e+00
-0.000000000000000000e+00,-0.000000000000000000e+00,1.812680275179445744e-04,-0.000000000000000000e+00,-0.000000000000000000e+00,-0.000000000000000000e+00,-0.000000000000000000e+00,1.378409942844882607e-04,6.205309910001233220e-05,-0.000000000000000000e+00,-0.000000000000000000e+00,-0.000000000000000000e+00,9.177620086120441556e-05,1.365485222777351737e-04,-0.000000000000000000e+00,1.586020080139860511e-04
1.376019208692014217e-03,1.634768559597432613e-03,-0.000000000000000000e+00,5.233738920651376247e-05,2.749906561803072691e-04,6.131035945600160630e-08,-0.000000000000000000e+00,-0.000000000000000000e+00,5.726144181039671821e-08,-0.000000000000000000e+00,-0.000000000000000000e+00,2.050957269966602325e-02,1.346352473774459213e-05,5.464115645736455917e-03,-0.000000000000000000e+00,-0.000000000000000000e+00
2.857603132724761963e-03,3.694299375638365746e-03,-0.000000000000000000e+00,1.120278175221756101e-04,5.999947316013276577e-04,1.324306822425569408e-06,-0.000000000000000000e+00,-0.000000000000000000e+00,1.236845264429575764e-06,-0.000000000000000000e+00,-0.000000000000000000e+00,4.054997861385345459e-02,7.867449312470853329e-05,1.140706427395343781e-02,-0.000000000000000000e+00,-0.000000000000000000e+00
-0.000000000000000000e+00,3.689122386276721954e-04,2.354056050535291433e-04,2.968513872474431992e-04,-0.000000000000000000e+00,3.284002741565927863e-05,3.400109999347478151e-04,1.477056912335683592e-07,9.503816545475274324e-05,1.249515626113861799e-04,-0.000000000000000000e+00,-0.000000000000000000e+00,-0.000000000000000000e+00,-0.000000000000000000e+00,4.286909825168550014e-05,2.169140771002275869e-06
-0.000000000000000000e+00,7.673342224734369665e-06,3.968739747506333515e-06,4.984387487638741732e-06,7.471951448678737506e-06,1.817603333620354533e-04,1.007659448077902198e-04,6.154398324298426814e-09,2.177093301725108176e-05,3.802654828177765012e-05,2.092235517920926213e-04,1.235936069861054420e-04,-0.000000000000000000e+00,1.080123111023567617e-04,8.693808194948360324e-05,-0.000000000000000000e+00
7.515266042901203036e-05,-0.000000000000000000e+00,5.487612725119106472e-05,1.671391942181799095e-06,6.485696940217167139e-05,-0.000000000000000000e+00,5.555647294386290014e-05,-0.000000000000000000e+00,-0.000000000000000000e+00,-0.000000000000000000e+00,-0.000000000000000000e+00,-0.000000000000000000e+00,-0.000000000000000000e+00,-0.000000000000000000e+00,6.395350646926090121e-05,1.195609365822747350e-04
-0.000000000000000000e+00,-0.000000000000000000e+00,-0.000000000000000000e+00,-0.000000000000000000e+00,1.661368442000821233e-04,-0.000000000000000000e+00,9.224002133123576641e-05,3.431248478591442108e-05,-0.000000000000000000e+00,1.047718615154735744e-05,-0.000000000000000000e+00,-0.000000000000000000e+00,-0.000000000000000000e+00,-0.000000000000000000e+00,-0.000000000000000000e+00,3.573960566427558661e-05
-0.000000000000000000e+00,1.157545484602451324e-04,-0.000000000000000000e+00,5.325856545823626220e-05,9.551280527375638485e-05,-0.000000000000000000e+00,1.797219447325915098e-04,9.127982048084959388e-05,2.004360139835625887e-04,-0.000000000000000000e+00,1.477834593970328569e-04,1.409944088663905859e-04,-0.000000000000000000e+00,-0.000000000000000000e+00,1.083563765860162675e-04,-0.000000000000000000e+00
-0.000000000000000000e+00,-0.000000000000000000e+00,-0.000000000000000000e+00,1.255962561117485166e-04,7.297504635062068701e-05,-0.000000000000000000e+00,-0.000000000000000000e+00,-0.000000000000000000e+00,-0.000000000000000000e+00,-0.000000000000000000e+00,-0.000000000000000000e+00,-0.000000000000000000e+00,-0.000000000000000000e+00,-0.000000000000000000e+00,7.027858373476192355e-05,2.145938196917995811e-04
-0.000000000000000000e+00,1.289733190787956119e-04,-0.000000000000000000e+00,1.052924635587260127e-04,-0.000000000000000000e+00,9.127434168476611376e-05,8.280186739284545183e-05,-0.000000000000000000e+00,5.732150748372077942e-05,6.842033144494052976e-06,7.000231562415137887e-05,4.690255445893853903e-05,3.577002644306048751e-05,-0.000000000000000000e+00,2.098179975291714072e-04,-0.000000000000000000e+00
-0.000000000000000000e+00,-0.000000000000000000e+00,9.873812086880207062e-05,5.323828372638672590e-05,8.172827801899984479e-05,-0.000000000000000000e+00,-0.000000000000000000e+00,1.491623261244967580e-04,-0.000000000000000000e+00,-0.000000000000000000e+00,-0.000000000000000000e+00,1.840494223870337009e-04,-0.000000000000000000e+00,1.250542700290679932e-04,-0.000000000000000000e+00,-0.000000000000000000e+00
1.843717909650877118e-04,2.097794349538162351e-04,-0.000000000000000000e+00,7.232715870486572385e-05,4.518098285188898444e-05,1.201074410346336663e-04,-0.000000000000000000e+00,-0.000000000000000000e+00,-0.000000000000000000e+00,-0.000000000000000000e+00,6.216918700374662876e-05,-0.000000000000000000e+00,-0.000000000000000000e+00,-0.000000000000000000e+00,-0.000000000000000000e+00,-0.000000000000000000e+00
-0.000000000000000000e+00,6.610967830056324601e-05,1.886598183773458004e-04,-0.000000000000000000e+00,9.840134589467197657e-05,-0.000000000000000000e+00,8.861232345225289464e-05,6.956584547879174352e-05,-0.000000000000000000e+00,8.539214468328282237e-05,3.172213109792210162e-05,6.499159644590690732e-05,4.076868572155945003e-05,-0.000000000000000000e+00,-0.000000000000000000e+00,6.731846224283799529e-05
1.386924850521609187e-04,-0.000000000000000000e+00,1.440123469365062192e-05,1.025932942866347730e-04,9.996951848734170198e-05,6.169162224978208542e-05,-0.000000000000000000e+00,6.634727469645440578e-05,-0.000000000000000000e+00,8.067308226600289345e-05,-0.000000000000000000e+00,-0.000000000000000000e+00,-0.000000000000000000e+00,1.248527405550703406e-04,2.724057412706315517e-05,1.667044853093102574e-04
9.303765546064823866e-05,-0.000000000000000000e+00,2.604780274850782007e-05,-0.000000000000000000e+00,1.494386815465986729e-04,2.431470420560799539e-05,-0.000000000000000000e+00,-0.000000000000000000e+00,-0.000000000000000000e+00,1.928068813867866993e-04,1.218524703290313482e-04,9.500403393758460879e-05,2.103690057992935181e-04,1.007587616186356172e-05,-0.000000000000000000e+00,1.918656780617311597e-04
-0.000000000000000000e+00,9.144921205006539822e-05,-0.000000000000000000e+00,1.444557274226099253e-04,-0.000000000000000000e+00,-0.000000000000000000e+00,1.898893970064818859e-04,1.888038386823609471e-04,1.657723987591452897e-05,9.140962356468662620e-05,-0.000000000000000000e+00,5.771488940808922052e-05,-0.000000000000000000e+00,-0.000000000000000000e+00,-0.000000000000000000e+00,-0.000000000000000000e+00
-0.000000000000000000e+00,-0.000000000000000000e+00,2.868899355235043913e-05,1.854412694228813052e-04,-0.000000000000000000e+00,-0.000000000000000000e+00,8.137647819239646196e-05,1.112754252972081304e-04,-0.000000000000000000e+00,8.403151150560006499e-05,1.840812910813838243e-05,-0.000000000000000000e+00,-0.000000000000000000e+00,4.665143569582141936e-05,-0.000000000000000000e+00,-0.000000000000000000e+00
-0.000000000000000000e+00,1.269313215743750334e-04,-0.000000000000000000e+00,1.089709403458982706e-04,-0.000000000000000000e+00,9.618321200832724571e-05,-0.000000000000000000e+00,5.452428013086318970e-05,-0.000000000000000000e+00,4.794007691089063883e-05,7.568389992229640484e-05,-0.000000000000000000e+00,-0.000000000000000000e+00,8.300708577735349536e-05,5.981107824482023716e-05,9.501727618044242263e-05
-0.000000000000000000e+00,-0.000000000000000000e+00,1.775824639480561018e-04,4.871786222793161869e-05,4.359637750894762576e-05,9.661207877798005939e-05,8.148340566549450159e-05,-0.000000000000000000e+00,1.694957318250089884e-04,1.108161959564313293e-04,1.098068751161918044e-04,-0.000000000000000000e+00,1.760093146003782749e-04,-0.000000000000000000e+00,8.842887473292648792e-05,3.358680032761185430e-06
-0.000000000000000000e+00,-0.000000000000000000e+00,1.823243510443717241e-04,-0.000000000000000000e+00,-0.000000000000000000e+00,1.129209340433590114e-04,6.530793325509876013e-05,7.479685882572084665e-05,1.308551873080432415e-04,-0.000000000000000000e+00,-0.000000000000000000e+00,-0.000000000000000000e+00,-0.000000000000000000e+00,6.224357093742582947e-06,-0.000000000000000000e+00,-0.000000000000000000e+00
1.818679156713187695e-04,-0.000000000000000000e+00,2.089431218337267637e-04,3.764259872696129605e-06,5.981381400488317013e-05,-0.000000000000000000e+00,3.850759094348177314e-05,5.371147199184633791e-05,8.523355973011348397e-06,1.017668109852820635e-04,1.752545358613133430e-04,4.868512405664660037e-05,-0.000000000000000000e+00,1.399995671818032861e-04,1.144763737102039158e-04,1.425556256435811520e-04
4.835522122448310256e-05,1.902827898447867483e-05,1.160069659817963839e-04,4.058536887896480039e-06,-0.000000000000000000e+00,-0.000000000000000000e+00,7.443776121363043785e-05,-0.000000000000000000e+00,1.325932826148346066e-04,1.077430206350982189e-04,1.423384819645434618e-04,8.019594679353758693e-05,-0.000000000000000000e+00,1.930797770910430700e-05,1.254607195733115077e-04,3.106909503003407735e-07
7.378250011242926121e-04,1.203735242597758770e-03,3.991948906332254410e-04,-0.000000000000000000e+00,-0.000000000000000000e+00,4.362938125268556178e-05,-0.000000000000000000e+00,-0.000000000000000000e+00,-0.000000000000000000e+00,1.004641561053176702e-07,-0.000000000000000000e+00,2.253611572086811066e-03,-0.000000000000000000e+00,6.029451615177094936e-04,3.074089818255743012e-06,5.999475433782208711e-06
4.056384786963462830e-02,1.138251796364784241e-01,4.597068950533866882e-02,7.231307790789287537e-06,-0.000000000000000000e+00,1.290260464884340763e-03,-0.000000000000000000e+00,-0.000000000000000000e+00,-0.000000000000000000e+00,-0.000000000000000000e+00,-0.000000000000000000e+00,1.866568773984909058e-01,-0.000000000000000000e+00,4.408893361687660217e-02,1.644056173972785473e-04,1.189452246762812138e-03
8.132252842187881470e-02,1.826067566871643066e-01,8.347547799348831177e-02,-0.000000000000000000e+00,-0.000000000000000000e+00,4.785115364938974380e-03,-0.000000000000000000e+00,-0.000000000000000000e+00,7.997938664630055428e-04,-0.000000000000000000e+00,-0.000000000000000000e+00,2.799501717090606689e-01,2.846336690708994865e-03,8.562924712896347046e-02,7.789809023961424828e-05,2.354842843487858772e-03
4.812356084585189819e-02,1.450639367103576660e-01,5.617675557732582092e-02,-0.000000000000000000e+00,-0.000000000000000000e+00,8.459620177745819092e-03,1.163869965239427984e-04,-0.000000000000000000e+00,1.076261699199676514e-02,1.702642111922614276e-05,-0.000000000000000000e+00,2.330515384674072266e-01,2.229823358356952667e-02,5.728584900498390198e-02,4.240732960170134902e-05,1.156820915639400482e-03
8.551755547523498535e-02,4.775020107626914978e-02,6.725227576680481434e-04,1.672818616498261690e-04,-0.000000000000000000e+00,8.051846176385879517e-03,3.728425072040408850e-04,3.953364739572862163e-06,1.194745674729347229e-02,6.331275017146253958e-06,-0.000000000000000000e+00,2.536581456661224365e-01,1.115634106099605560e-02,6.161606311798095703e-02,2.940485273938975297e-06,9.437961271032691002e-04
1.431812494993209839e-01,8.684511994943022728e-04,2.467416634317487478e-04,3.416612977162003517e-03,3.787091374397277832e-02,1.570481806993484497e-02,3.780494735110551119e-04,7.436088708345778286e-06,1.818963512778282166e-02,-0.000000000000000000e+00,-0.000000000000000000e+00,3.413465023040771484e-01,1.765781635185703635e-04,1.268761157989501953e-01,7.244693551911041141e-05,2.558148466050624847e-03
1.128007695078849792e-01,1.866062521003186703e-03,2.237639389932155609e-02,6.564848124980926514e-02,5.223713815212249756e-04,1.744072797009721398e-04,4.788619407918304205e-04,1.073176463251002133e-05,7.342405617237091064e-03,1.011478081345558167e-01,-0.000000000000000000e+00,3.258392810821533203e-01,3.776131570339202881e-02,6.650557368993759155e-02,-0.000000000000000000e+00,1.184828300029039383e-02
1.602082550525665283e-01,7.990263402462005615e-03,7.247480750083923340e-02,7.912219502031803131e-03,2.221190661657601595e-04,4.073306045029312372e-04,5.204549324844265357e-06,-0.000000000000000000e+00,1.018552924506366253e-03,9.541300684213638306e-02,-0.000000000000000000e+00,4.483078718185424805e-01,9.464944154024124146e-02,7.571304589509963989e-02,2.887334815682152112e-10,4.593224134374906953e-10
3.016442432999610901e-02,5.615157075226306915e-03,5.030419304966926575e-02,1.024163961410522461e-01,4.936357145197689533e-04,1.587391830980777740e-03,1.933472522068768740e-04,4.784872089658165351e-06,4.125406965613365173e-03,9.062083810567855835e-02,9.397324174642562866e-04,3.242506980895996094e-01,2.592312917113304138e-02,2.863720618188381195e-02,7.170208426998669893e-09,1.140650240927243431e-08
1.047248020768165588e-03,2.131439046934247017e-03,1.288950443267822266e-03,2.007392644882202148e-01,5.188934504985809326e-03,1.012160927057266235e-01,2.610798459500074387e-03,4.016500897705554962e-03,5.775699391961097717e-04,2.147997001884505153e-04,3.966088406741619110e-03,1.298680435866117477e-02,-0.000000000000000000e+00,7.936991006135940552e-02,1.150831678842223482e-07,4.809779056813567877e-05
3.975923464167863131e-04,3.142779693007469177e-02,9.150825440883636475e-02,2.453569769859313965e-01,9.894010145217180252e-04,1.448782682418823242e-01,3.322430653497576714e-03,9.231874173565302044e-06,2.479047907399944961e-06,6.095464900135993958e-02,-0.000000000000000000e+00,1.388362199068069458e-01,8.961428888142108917e-03,1.238982528448104858e-01,2.364458923693746328e-04,2.835122586475335993e-06
1.268405932933092117e-03,2.382637411355972290e-01,2.723772525787353516e-01,3.510950505733489990e-01,-0.000000000000000000e+00,9.537813812494277954e-02,2.119956910610198975e-01,3.535032010404393077e-05,7.341005584748927504e-06,5.256822705268859863e-02,-0.000000000000000000e+00,1.067368611693382263e-01,5.926033854484558105e-02,-0.000000000000000000e+00,2.877827319025527686e-05,-0.000000000000000000e+00
8.294579386711120605e-02,6.792079657316207886e-02,1.228764727711677551e-01,1.074749454855918884e-01,2.500748621514503611e-07,1.395701247020042501e-06,2.887648716568946838e-02,2.562441477493848652e-05,2.204380507464520633e-05,7.627913355827331543e-02,-0.000000000000000000e+00,2.164566218852996826e-01,8.023758232593536377e-02,-0.000000000000000000e+00,-0.000000000000000000e+00,-0.000000000000000000e+00
4.872898012399673462e-02,2.397221885621547699e-02,6.453038076870143414e-05,7.277759868884459138e-05,6.688824505545198917e-04,-0.000000000000000000e+00,8.817041089059785008e-05,1.375652345814160071e-06,1.265485298063140363e-05,-0.000000000000000000e+00,-0.000000000000000000e+00,1.536484360694885254e-01,6.271547637879848480e-03,3.539774939417839050e-02,-0.000000000000000000e+00,-0.000000000000000000e+00
3.394454345107078552e-02,8.833707123994827271e-02,2.914703451097011566e-02,-0.000000000000000000e+00,1.108260403270833194e-05,2.243622002424672246e-04,-0.000000000000000000e+00,-0.000000000000000000e+00,1.051676554197911173e-05,-0.000000000000000000e+00,-0.000000000000000000e+00,1.987167149782180786e-01,2.036578953266143799e-03,2.334091998636722565e-02,-0.000000000000000000e+00,-0.000000000000000000e+00
4.754986613988876343e-02,8.947225660085678101e-02,2.099789865314960480e-02,-0.000000000000000000e+00,5.100270641378301661e-07,1.715289428830146790e-03,-0.000000000000000000e+00,-0.000000000000000000e+00,2.325996138097252697e-05,-0.000000000000000000e+00,-0.000000000000000000e+00,2.561722099781036377e-01,6.113218143582344055e-03,5.134059861302375793e-02,2.681696997797189397e-08,-0.000000000000000000e+00
7.701051235198974609e-02,1.056876629590988159e-01,4.929326474666595459e-02,-0.000000000000000000e+00,3.874164031003601849e-05,8.981780149042606354e-03,-0.000000000000000000e+00,-0.000000000000000000e+00,8.995260031952057034e-06,3.634927270468324423e-05,-0.000000000000000000e+00,1.852012276649475098e-01,8.874320425093173981e-03,8.084243535995483398e-02,6.809771730331704021e-05,3.659767389763146639e-04
7.940342277288436890e-02,1.557773351669311523e-01,8.340288698673248291e-02,-0.000000000000000000e+00,3.931900209863670170e-06,1.069425977766513824e-02,-0.000000000000000000e+00,-0.000000000000000000e+00,5.904383215238340199e-05,5.095727829029783607e-05,-0.000000000000000000e+00,1.989996582269668579e-01,1.003950135782361031e-03,9.869918972253799438e-02,9.512720134807750583e-05,2.502077957615256310e-03
1.768897287547588348e-02,8.115922659635543823e-02,3.409428149461746216e-02,1.181858096970245242e-04,-0.000000000000000000e+00,8.983740117400884628e-04,-0.000000000000000000e+00,-0.000000000000000000e+00,3.151654937028069980e-06,6.185133315739221871e-06,-0.000000000000000000e+00,1.217619180679321289e-01,2.121717989211902022e-05,4.323785379528999329e-02,7.789906703692395240e-06,9.248590213246643543e-04
4.062023799633607268e-05,1.313900284003466368e-04,-0.000000000000000000e+00,1.069763966370373964e-04,-0.000000000000000000e+00,-0.000000000000000000e+00,-0.000000000000000000e+00,4.171756881987676024e-05,-0.000000000000000000e+00,-0.000000000000000000e+00,8.199436706490814686e-05,-0.000000000000000000e+00,8.962295396486297250e-05,3.571774868760257959e-05,-0.000000000000000000e+00,-0.000000000000000000e+00
-0.000000000000000000e+00,4.111739690415561199e-05,7.603266112710116431e-06,1.229321787832304835e-04,-0.000000000000000000e+00,-0.000000000000000000e+00,2.705673250602558255e-05,1.274817623198032379e-04,-0.000000000000000000e+00,8.352487930096685886e-05,1.180930394184542820e-05,-0.000000000000000000e+00,1.438694598618894815e-04,1.230726775247603655e-04,-0.000000000000000000e+00,2.114156086463481188e-04
-0.000000000000000000e+00,6.125945219537243247e-05,-0.000000000000000000e+00,-0.000000000000000000e+00,8.385408000322058797e-05,-0.000000000000000000e+00,2.113912632921710610e-04,-0.000000000000000000e+00,1.549405424157157540e-04,-0.000000000000000000e+00,-0.000000000000000000e+00,9.971647523343563080e-05,-0.000000000000000000e+00,5.667962250299751759e-05,3.419653512537479401e-05,4.186276419204659760e-05
2.128540072590112686e-04,1.975260674953460693e-04,1.414186845067888498e-04,-0.000000000000000000e+00,-0.000000000000000000e+00,1.815092255128547549e-04,-0.000000000000000000e+00,-0.000000000000000000e+00,-0.000000000000000000e+00,1.205627813760656863e-05,1.934691390488296747e-04,-0.000000000000000000e+00,1.064097014022991061e-04,1.374730200041085482e-04,-0.000000000000000000e+00,4.638949394575320184e-05
1.596478396095335484e-04,-0.000000000000000000e+00,-0.000000000000000000e+00,6.305982969934120774e-05,-0.000000000000000000e+00,-0.000000000000000000e+00,1.467065303586423397e-04,-0.000000000000000000e+00,1.840194454416632652e-04,9.428003249922767282e-05,-0.000000000000000000e+00,-0.000000000000000000e+00,1.848516549216583371e-04,-0.000000000000000000e+00,8.386003173654899001e-06,1.317955047852592543e-05
1.845878141466528177e-04,-0.000000000000000000e+00,-0.000000000000000000e+00,-0.000000000000000000e+00,-0.000000000000000000e+00,9.532854164717718959e-05,1.437933824490755796e-04,1.381122274324297905e-04,-0.000000000000000000e+00,-0.000000000000000000e+00,-0.000000000000000000e+00,-0.000000000000000000e+00,6.195996684255078435e-05,-0.000000000000000000e+00,-0.000000000000000000e+00,1.945352123584598303e-04
1.908834747155196965e-05,2.126006620528642088e-05,3.576947619876591489e-06,-0.000000000000000000e+00,-0.000000000000000000e+00,2.858138170580559745e-09,-0.000000000000000000e+00,-0.000000000000000000e+00,-0.000000000000000000e+00,-0.000000000000000000e+00,-0.000000000000000000e+00,5.241150574875064194e-05,2.073020878015086055e-04,1.638219109736382961e-04,1.917755871545523405e-04,-0.000000000000000000e+00
5.533190444111824036e-03,9.006489417515695095e-04,2.891783230006694794e-02,1.457925513386726379e-02,2.070247683150228113e-05,2.196338726207613945e-03,5.363556090742349625e-03,4.314400570137877367e-08,-0.000000000000000000e+00,5.189615860581398010e-02,-0.000000000000000000e+00,2.050991542637348175e-02,1.632844656705856323e-02,-0.000000000000000000e+00,3.578307996576768346e-07,1.143181696534156799e-03
2.370041422545909882e-02,-0.000000000000000000e+00,1.317114802077412605e-03,4.268480930477380753e-03,4.654241492971777916e-04,7.480019703507423401e-04,-0.000000000000000000e+00,-0.000000000000000000e+00,2.526479147491045296e-05,2.299029007554054260e-02,-0.000000000000000000e+00,4.552238807082176208e-02,6.759319920092821121e-03,1.036921236664056778e-02,2.354528660930554906e-08,9.619767079129815102e-04
6.967118009924888611e-03,2.807831857353448868e-03,-0.000000000000000000e+00,1.038423420141043607e-06,2.520936832297593355e-04,-0.000000000000000000e+00,-0.000000000000000000e+00,-0.000000000000000000e+00,4.361006176623050123e-06,4.055438580508052837e-07,-0.000000000000000000e+00,1.734270900487899780e-02,7.699728303123265505e-05,4.048127215355634689e-03,-0.000000000000000000e+00,2.508306715753860772e-05
7.153675705194473267e-02,1.428365558385848999e-01,1.856441795825958252e-02,5.399792826210614294e-06,-0.000000000000000000e+00,3.588215331546962261e-04,-0.000000000000000000e+00,-0.000000000000000000e+00,4.742379678646102548e-05,-0.000000000000000000e+00,-0.000000000000000000e+00,2.469579726457595825e-01,3.820527344942092896e-04,6.495701521635055542e-02,1.740444713504984975e-05,5.407178541645407677e-04
1.321042627096176147e-01,2.858018279075622559e-01,1.034550294280052185e-01,1.587300939718261361e-04,9.106213692575693130e-04,1.632991805672645569e-02,-0.000000000000000000e+00,-0.000000000000000000e+00,3.559681028127670288e-02,1.019622664898633957e-03,-0.000000000000000000e+00,5.984446406364440918e-01,7.170349825173616409e-03,1.594654768705368042e-01,3.063038093387149274e-05,1.733780838549137115e-03
5.221338570117950439e-02,4.234054088592529297e-01,1.223769634962081909e-01,1.195651595480740070e-03,2.559478860348463058e-03,9.340059757232666016e-02,-0.000000000000000000e+00,-0.000000000000000000e+00,1.489803194999694824e-01,-0.000000000000000000e+00,-0.000000000000000000e+00,5.998271703720092773e-01,1.881229574792087078e-03,1.017100289463996887e-01,2.469783430569805205e-05,2.901924599427729845e-04
1.252460330724716187e-01,6.150645017623901367e-01,2.429860979318618774e-01,7.605502009391784668e-02,2.827704185619950294e-03,2.366334944963455200e-01,7.835409045219421387e-02,-0.000000000000000000e+00,2.114555388689041138e-01,-0.000000000000000000e+00,-0.000000000000000000e+00,5.736977458000183105e-01,2.760678157210350037e-02,1.613651518709957600e-03,2.329255949007347226e-06,1.564970734762027860e-04
3.059819042682647705e-01,7.083962559700012207e-01,2.974861264228820801e-01,1.571618765592575073e-01,4.242182243615388870e-03,1.866864562034606934e-01,2.862212434411048889e-02,-0.000000000000000000e+00,1.304812133312225342e-01,-0.000000000000000000e+00,-0.000000000000000000e+00,9.856631755828857422e-01,2.003547176718711853e-02,5.794817954301834106e-02,2.648843685165047646e-03,1.953079772647470236e-04
2.484247833490371704e-01,6.650341749191284180e-01,2.676107883453369141e-01,3.394055962562561035e-01,2.493024570867419243e-03,1.048827916383743286e-01,8.041670173406600952e-02,-0.000000000000000000e+00,2.665302716195583344e-02,4.666252789320424199e-05,1.077078195521607995e-05,1.083697319030761719e+00,2.098489180207252502e-02,1.291348133236169815e-02,5.293399561196565628e-03,4.179292955086566508e-05
1.262473873794078827e-02,8.234822154045104980e-01,1.614761203527450562e-01,7.472789883613586426e-01,3.833889877569163218e-06,2.848322987556457520e-01,1.663371920585632324e-01,-0.000000000000000000e+00,7.867559045553207397e-02,-0.000000000000000000e+00,-0.000000000000000000e+00,1.021120548248291016e+00,3.571183420717716217e-03,1.886848919093608856e-02,6.137332879006862640e-03,1.732652421537750342e-08
8.905756985768675804e-04,6.041613817214965820e-01,1.550919469445943832e-02,1.011170148849487305e+00,6.634641904383897781e-04,1.446147561073303223e-01,1.966184377670288086e-02,1.692117220954969525e-04,2.295996248722076416e-02,-0.000000000000000000e+00,1.186230219900608063e-03,9.212142825126647949e-01,2.214453881606459618e-03,1.238362640142440796e-01,5.275704897940158844e-03,6.419666220836006687e-08
5.898551549762487411e-03,5.679371356964111328e-01,5.880190656171180308e-05,1.081298947334289551e+00,5.210875999182462692e-03,5.020338296890258789e-02,5.206352099776268005e-03,-0.000000000000000000e+00,6.484777200967073441e-03,-0.000000000000000000e+00,8.421047241427004337e-04,9.356570243835449219e-01,3.471562638878822327e-03,5.596256852149963379e-01,5.962899886071681976e-04,2.463208090830448782e-07
8.929449133574962616e-03,5.687824487686157227e-01,2.014093101024627686e-03,8.016546964645385742e-01,5.796278826892375946e-03,3.395896777510643005e-02,3.046367783099412918e-03,3.861274803057312965e-03,2.530598547309637070e-03,-0.000000000000000000e+00,3.527318593114614487e-03,6.824049949645996094e-01,-0.000000000000000000e+00,3.490216732025146484e-01,-0.000000000000000000e+00,7.585636581097787712e-07
1.125396788120269775e-02,8.534759879112243652e-01,2.224711701273918152e-03,7.464004158973693848e-01,5.326361861079931259e-03,9.720749408006668091e-02,4.436337389051914215e-03,4.034753888845443726e-03,1.377638150006532669e-02,-0.000000000000000000e+00,3.898229449987411499e-03,6.925467252731323242e-01,-0.000000000000000000e+00,1.934085190296173096e-01,-0.000000000000000000e+00,7.184637070167809725e-06
1.068839728832244873e-01,7.015644907951354980e-01,7.091550622135400772e-03,3.681412637233734131e-01,6.322932895272970200e-03,5.450610071420669556e-03,1.503979414701461792e-02,3.356983419507741928e-03,2.274651378393173218e-01,-0.000000000000000000e+00,3.804423380643129349e-03,7.464312314987182617e-01,-0.000000000000000000e+00,9.644326637499034405e-04,4.908795235678553581e-04,1.974601997062563896e-03
1.838540434837341309e-01,4.617565572261810303e-01,9.720655158162117004e-03,2.104354947805404663e-01,3.910352825187146664e-05,2.533870749175548553e-02,6.464528292417526245e-02,5.540020647458732128e-04,2.978443503379821777e-01,-0.000000000000000000e+00,2.432647626847028732e-03,7.448067069053649902e-01,-0.000000000000000000e+00,3.189984636264853179e-05,1.060050074011087418e-02,2.810375019907951355e-02
2.016674131155014038e-01,3.122092485427856445e-01,8.031490258872509003e-03,6.040462851524353027e-02,1.419014297425746918e-03,1.848640143871307373e-01,2.722495421767234802e-02,5.600211443379521370e-04,2.721945345401763916e-01,2.979810582473874092e-03,-0.000000000000000000e+00,9.096980094909667969e-01,7.418615410870188498e-08,6.271573511185124516e-05,5.986143369227647781e-04,1.017911825329065323e-02
3.082727789878845215e-01,3.233182728290557861e-01,4.766994621604681015e-03,5.021844059228897095e-03,6.176002789288759232e-04,7.197168469429016113e-02,8.317148312926292419e-03,5.661594332195818424e-04,2.402961812913417816e-02,-0.000000000000000000e+00,-0.000000000000000000e+00,6.325099468231201172e-01,7.163350470364093781e-03,1.526507362723350525e-02,-0.000000000000000000e+00,5.291489884257316589e-03
2.822081446647644043e-01,3.420585393905639648e-01,6.006692722439765930e-02,3.842613426968455315e-03,3.165894013363867998e-04,5.161882191896438599e-02,4.578801337629556656e-03,2.828683936968445778e-04,6.555383559316396713e-03,-0.000000000000000000e+00,-0.000000000000000000e+00,6.317067146301269531e-01,6.033372879028320312e-02,1.275225579738616943e-01,-0.000000000000000000e+00,2.005379414185881615e-03
2.518030107021331787e-01,2.042142897844314575e-01,2.842328324913978577e-02,4.121847159694880247e-04,5.683784256689250469e-04,7.745059672743082047e-03,1.759231672622263432e-03,-0.000000000000000000e+00,2.698332443833351135e-02,1.173486583866178989e-03,-0.000000000000000000e+00,4.680028855800628662e-01,3.754159063100814819e-02,1.633293032646179199e-01,-0.000000000000000000e+00,2.615559380501508713e-03
1.084549799561500549e-01,2.141558825969696045e-01,6.788074970245361328e-02,3.223245730623602867e-04,3.928652440663427114e-04,1.967415027320384979e-02,2.580063417553901672e-02,-0.000000000000000000e+00,5.262256041169166565e-02,1.030022930353879929e-02,-0.000000000000000000e+00,2.708423733711242676e-01,1.060791313648223877e-02,7.361806184053421021e-02,-0.000000000000000000e+00,1.752711832523345947e-02
2.031906205957056955e-06,1.302331686019897461e-01,8.358935266733169556e-02,2.589419309515506029e-04,1.376449745293939486e-06,7.171589136123657227e-02,8.420155942440032959e-02,2.111890062224119902e-04,6.611873954534530640e-02,-0.000000000000000000e+00,3.641032890300266445e-05,1.468782895244657993e-03,2.746701706200838089e-03,1.102268129216099624e-06,-0.000000000000000000e+00,-0.000000000000000000e+00
-0.000000000000000000e+00,6.572043895721435547e-02,5.212145298719406128e-02,1.304623874602839351e-04,-0.000000000000000000e+00,5.949043482542037964e-02,7.598517835140228271e-02,2.684285282157361507e-04,6.459480524063110352e-02,-0.000000000000000000e+00,2.354632124479394406e-05,-0.000000000000000000e+00,2.611824078485369682e-03,-0.000000000000000000e+00,-0.000000000000000000e+00,-0.000000000000000000e+00
1.441778003936633468e-04,-0.000000000000000000e+00,-0.000000000000000000e+00,-0.000000000000000000e+00,-0.000000000000000000e+00,-0.000000000000000000e+00,-0.000000000000000000e+00,-0.000000000000000000e+00,-0.000000000000000000e+00,1.510957372374832630e-04,1.568111765664070845e-04,1.235918462043628097e-04,-0.000000000000000000e+00,-0.000000000000000000e+00,8.209521183744072914e-05,-0.000000000000000000e+00
-0.000000000000000000e+00,-0.000000000000000000e+00,9.136774315265938640e-05,-0.000000000000000000e+00,5.341091309674084187e-05,-0.000000000000000000e+00,1.168704766314476728e-04,1.632543280720710754e-04,-0.000000000000000000e+00,-0.000000000000000000e+00,3.899817329511279240e-06,-0.000000000000000000e+00,1.160658721346408129e-04,2.031767508015036583e-04,1.931321894517168403e-04,4.503637228481238708e-06
1.978850777959451079e-04,-0.000000000000000000e+00,-0.000000000000000000e+00,-0.000000000000000000e+00,-0.000000000000000000e+00,-0.000000000000000000e+00,-0.000000000000000000e+00,1.180766121251508594e-04,-0.000000000000000000e+00,-0.000000000000000000e+00,3.680398367578163743e-05,-0.000000000000000000e+00,-0.000000000000000000e+00,-0.000000000000000000e+00,-0.000000000000000000e+00,-0.000000000000000000e+00
7.886508683441206813e-05,-0.000000000000000000e+00,1.334973785560578108e-04,4.863422509515658021e-05,-0.000000000000000000e+00,1.011187850963324308e-04,-0.000000000000000000e+00,-0.000000000000000000e+00,3.763130007428117096e-05,-0.000000000000000000e+00,-0.000000000000000000e+00,-0.000000000000000000e+00,-0.000000000000000000e+00,2.734983172558713704e-05,-0.000000000000000000e+00,-0.000000000000000000e+00
3.403152732062153518e-05,2.290291831741342321e-06,8.938310998019005638e-07,1.505619753152132034e-02,-0.000000000000000000e+00,1.539552398025989532e-02,-0.000000000000000000e+00,1.085192561731673777e-04,2.215109020653471816e-07,-0.000000000000000000e+00,-0.000000000000000000e+00,9.546459978082566522e-07,3.544892882928252220e-03,3.873965516686439514e-02,-0.000000000000000000e+00,-0.000000000000000000e+00
2.059633098542690277e-02,2.911750227212905884e-02,6.154593452811241150e-02,3.200538828969001770e-02,1.570857712067663670e-04,1.045694109052419662e-02,1.104109361767768860e-02,-0.000000000000000000e+00,1.425849925726652145e-02,6.159146875143051147e-02,-0.000000000000000000e+00,9.161008894443511963e-02,6.131748855113983154e-02,1.299643330276012421e-02,4.586912627502215400e-09,4.780306946486234665e-03
1.655270718038082123e-02,2.361579984426498413e-02,2.939179069016972790e-07,-0.000000000000000000e+00,2.356518991291522980e-03,2.297958708368241787e-04,1.105352537706494331e-03,-0.000000000000000000e+00,9.162558615207672119e-02,-0.000000000000000000e+00,-0.000000000000000000e+00,9.350550919771194458e-02,1.335254460573196411e-01,2.626809477806091309e-02,3.669531123406954976e-09,8.259321749210357666e-02
6.700711697340011597e-02,7.523563544964417815e-05,1.048999001795891672e-05,3.816933312918990850e-04,1.716610975563526154e-02,1.302295643836259842e-02,9.778761118650436401e-02,1.965611445484682918e-04,3.077093060710467398e-05,6.429743848457292188e-08,1.291879266500473022e-01,1.904286593198776245e-01,1.450878847390413284e-02,1.488221287727355957e-01,1.398117840290069580e-01,-0.000000000000000000e+00
1.350710541009902954e-01,1.109794154763221741e-01,2.781073562800884247e-04,6.790735060349106789e-04,7.438026950694620609e-04,9.765993803739547729e-03,1.251283437013626099e-01,-0.000000000000000000e+00,1.890494968392886221e-05,-0.000000000000000000e+00,4.529738426208496094e-02,4.093441367149353027e-01,1.186427008360624313e-02,2.083089351654052734e-01,1.240885034203529358e-01,5.115882231621071696e-05
1.372749358415603638e-01,4.410032331943511963e-01,4.711949732154607773e-03,1.948629069374874234e-04,2.305282279849052429e-03,9.280949085950851440e-02,2.431432902812957764e-01,-0.000000000000000000e+00,9.433727711439132690e-02,5.353765445761382580e-04,1.983574032783508301e-02,8.519010543823242188e-01,3.241696208715438843e-02,2.814964950084686279e-01,1.577115356922149658e-01,1.213582436321303248e-04
1.446524411439895630e-01,6.313662528991699219e-01,1.336793601512908936e-01,1.390290271956473589e-04,1.035923371091485023e-03,1.142045259475708008e-01,6.066380143165588379e-01,-0.000000000000000000e+00,4.263814389705657959e-01,-0.000000000000000000e+00,2.537007816135883331e-02,1.093146443367004395e+00,2.782179415225982666e-01,2.188993394374847412e-01,3.393841087818145752e-01,3.934352658689022064e-03
1.962367892265319824e-01,5.631217360496520996e-01,2.137183398008346558e-01,4.080029577016830444e-02,1.330904706264846027e-05,4.313133656978607178e-01,5.678268671035766602e-01,1.265505670744460076e-05,6.911367774009704590e-01,4.207395948469638824e-03,1.499573327600955963e-02,7.293418049812316895e-01,1.297700554132461548e-01,9.621223062276840210e-02,1.541588455438613892e-01,3.571454668417572975e-03
3.335838913917541504e-01,6.467553973197937012e-01,3.095105886459350586e-01,1.742843687534332275e-01,4.139263473916798830e-04,4.146437048912048340e-01,5.238794684410095215e-01,-0.000000000000000000e+00,7.156127095222473145e-01,4.995542112737894058e-03,1.963609643280506134e-02,8.549638390541076660e-01,1.366609334945678711e-02,9.292312897741794586e-03,1.636327989399433136e-02,-0.000000000000000000e+00
6.535910964012145996e-01,1.289326846599578857e-01,2.721644043922424316e-01,3.204473853111267090e-01,-0.000000000000000000e+00,2.868163287639617920e-01,8.924095034599304199e-01,-0.000000000000000000e+00,3.183912932872772217e-01,4.535336978733539581e-03,3.057532384991645813e-02,1.179088115692138672e+00,2.539891190826892853e-02,-0.000000000000000000e+00,8.285971730947494507e-02,9.826511814026162028e-05
1.266377717256546021e-01,6.740732491016387939e-02,4.091098532080650330e-02,7.880737781524658203e-01,-0.000000000000000000e+00,3.362155556678771973e-01,8.382048010826110840e-01,-0.000000000000000000e+00,3.407211899757385254e-01,5.799226462841033936e-03,3.093453682959079742e-02,8.418758511543273926e-01,7.453857455402612686e-03,1.450445415684953332e-04,3.239564970135688782e-02,1.820832723751664162e-03
8.539933711290359497e-02,4.296407699584960938e-01,7.350420355796813965e-01,1.182419419288635254e+00,4.016798629891127348e-04,2.967242300510406494e-01,3.245072066783905029e-01,-0.000000000000000000e+00,1.740416884422302246e-02,3.645410388708114624e-02,1.891135796904563904e-02,1.104173064231872559e+00,-0.000000000000000000e+00,7.140149828046560287e-03,2.471424080431461334e-02,2.435072138905525208e-02
3.699482651427388191e-03,1.437224727123975754e-02,2.848568744957447052e-02,1.913783669471740723e+00,8.017633226700127125e-04,3.164771944284439087e-02,7.283462882041931152e-01,3.093646228080615401e-08,2.365420386195182800e-02,3.236714750528335571e-02,1.428792066872119904e-02,8.198611736297607422e-01,3.235943222534842789e-05,2.069675363600254059e-02,1.591296866536140442e-02,2.516402304172515869e-02
1.227444130927324295e-02,1.238741166889667511e-02,1.979719474911689758e-02,1.652383446693420410e+00,-0.000000000000000000e+00,8.708953857421875000e-03,1.654615253210067749e-01,1.083480456145480275e-04,1.355919241905212402e-01,1.380573492497205734e-02,3.402405232191085815e-02,1.135439515113830566e+00,1.019778661429882050e-03,3.089242056012153625e-02,1.629141159355640411e-02,4.827835783362388611e-02
1.282845344394445419e-02,1.293221395462751389e-02,2.022050134837627411e-02,1.655274033546447754e+00,1.747036911547183990e-02,3.968284931033849716e-03,5.722574144601821899e-02,-0.000000000000000000e+00,4.211094975471496582e-02,1.472914498299360275e-02,4.724856466054916382e-02,4.832259118556976318e-01,3.095334162935614586e-03,1.590948924422264099e-02,1.352168340235948563e-02,4.538315534591674805e-02
2.087912149727344513e-02,2.414703555405139923e-02,2.956397086381912231e-02,1.283016920089721680e+00,3.484062105417251587e-02,-0.000000000000000000e+00,1.702428460121154785e-01,2.023199340328574181e-03,3.902896642684936523e-01,1.973791234195232391e-02,3.569641336798667908e-02,6.427783370018005371e-01,3.266659332439303398e-03,1.247185398824512959e-03,1.621893979609012604e-02,5.063324794173240662e-02
2.533584833145141602e-02,1.699038594961166382e-02,2.546319924294948578e-02,3.387213051319122314e-01,3.506347537040710449e-02,-0.000000000000000000e+00,6.713353563100099564e-03,3.900312120094895363e-03,2.772632241249084473e-01,8.224502205848693848e-03,2.675585746765136719e-01,8.477867245674133301e-01,1.477285008877515793e-02,1.391617843182757497e-04,1.232389584183692932e-01,5.971586331725120544e-02
8.879947476089000702e-03,9.959989227354526520e-03,1.811790652573108673e-02,4.055146574974060059e-01,1.298538893461227417e-01,3.864393755793571472e-02,4.429930821061134338e-03,4.796789027750492096e-03,7.319074869155883789e-01,1.355584058910608292e-02,1.455345153808593750e-01,1.018617510795593262e+00,3.939802758395671844e-03,1.821907935664057732e-03,1.631615124642848969e-02,3.957119956612586975e-02
5.981580819934606552e-03,1.092545222491025925e-02,1.875177212059497833e-02,4.697609245777130127e-01,2.660990285221487284e-04,4.518706724047660828e-02,3.004804253578186035e-01,-0.000000000000000000e+00,7.872259020805358887e-01,3.145002201199531555e-02,1.416316628456115723e-01,8.286466002464294434e-01,5.136475432664155960e-03,3.724021604284644127e-03,2.871623821556568146e-02,2.303407527506351471e-02
4.474253393709659576e-03,4.543445073068141937e-03,8.433102630078792572e-03,1.332691777497529984e-02,1.895119552500545979e-03,6.231576204299926758e-03,1.432633679360151291e-02,6.790675688534975052e-03,8.426551222801208496e-01,1.931702531874179840e-02,1.723157986998558044e-02,7.852109074592590332e-01,2.270548418164253235e-02,1.774862990714609623e-03,5.924071185290813446e-03,9.937795996665954590e-02
2.302482575178146362e-01,3.308370476588606834e-03,3.140740795060992241e-03,3.498460631817579269e-03,2.917681932449340820e-01,3.904545214027166367e-03,8.438439108431339264e-03,9.248251095414161682e-03,3.026882410049438477e-01,1.090909820050001144e-02,3.238034667447209358e-03,4.448502361774444580e-01,4.070901311933994293e-03,3.886257472913712263e-04,9.793830395210534334e-05,2.488333135843276978e-01
5.744122266769409180e-01,1.099698096513748169e-01,3.170937532559037209e-03,-0.000000000000000000e+00,2.025173455476760864e-01,2.866758441086858511e-04,9.104784694500267506e-04,-0.000000000000000000e+00,4.921881482005119324e-03,7.186341099441051483e-03,3.936951179639436305e-05,6.172801852226257324e-01,2.164782024919986725e-03,1.155366934835910797e-02,8.130270871333777905e-04,6.019547954201698303e-02
6.106221303343772888e-02,1.447518765926361084e-01,6.240923423320055008e-03,2.621585508677526377e-07,1.014794979710131884e-04,8.674354292452335358e-03,1.541925873607397079e-02,1.290202135351137258e-06,3.196208775043487549e-01,4.000042751431465149e-02,7.300463380488508847e-07,1.423406302928924561e-01,3.420780180022120476e-03,4.266183357685804367e-03,1.926537835970520973e-03,1.144117563962936401e-01
2.308370778337121010e-03,1.383846998214721680e-02,4.881046246737241745e-03,2.072496840810345020e-07,1.219089957885444164e-03,3.120303712785243988e-02,1.509614884853363037e-01,1.519488364465360064e-06,1.282049864530563354e-01,1.036453843116760254e-01,6.997057935222983360e-04,3.684163093566894531e-03,-0.000000000000000000e+00,-0.000000000000000000e+00,7.020692573860287666e-04,8.046971634030342102e-03
3.942873328924179077e-02,6.404305249452590942e-02,-0.000000000000000000e+00,-0.000000000000000000e+00,3.907956182956695557e-02,-0.000000000000000000e+00,1.124453358352184296e-02,-0.000000000000000000e+00,6.669868528842926025e-02,5.037695635110139847e-03,-0.000000000000000000e+00,6.427948921918869019e-02,1.563510159030556679e-03,-0.000000000000000000e+00,-0.000000000000000000e+00,1.478142454288899899e-03
1.848036044975742698e-04,1.201567065436393023e-04,1.727449998725205660e-04,4.944085503666428849e-06,1.546971179777756333e-04,-0.000000000000000000e+00,-0.000000000000000000e+00,-0.000000000000000000e+00,1.828022323024924845e-05,2.094373667205218226e-05,-0.000000000000000000e+00,6.528767357849574182e-07,-0.000000000000000000e+00,3.948491212213411927e-05,-0.000000000000000000e+00,3.337794260005466640e-05
2.106601896230131388e-04,8.179431461030617356e-06,1.889450795715674758e-04,1.450608833692967892e-04,-0.000000000000000000e+00,-0.000000000000000000e+00,1.589810854056850076e-04,-0.000000000000000000e+00,-0.000000000000000000e+00,2.116569812642410398e-04,2.696326191653497517e-06,3.858358468278311193e-05,-0.000000000000000000e+00,4.439444819581694901e-05,2.778768612188287079e-05,3.760924664675258100e-05
-0.000000000000000000e+00,-0.000000000000000000e+00,1.197126402985304594e-04,1.905807293951511383e-04,2.069811889668926597e-04,3.953766736231045797e-08,4.747077400679700077e-05,2.226072410849155858e-06,1.545354170957580209e-04,6.448839849326759577e-05,8.323851943714544177e-05,8.939411054598167539e-05,-0.000000000000000000e+00,1.766650348145049065e-05,1.750965893734246492e-04,7.854652722016908228e-06
1.386498683132231236e-03,1.398469612468034029e-05,1.506423268438084051e-05,4.984565079212188721e-02,3.160913911415264010e-05,4.034600406885147095e-02,6.079448852688074112e-03,7.573208422400057316e-04,1.741397909427178092e-06,-0.000000000000000000e+00,1.598624396137893200e-03,1.222059927385998890e-05,1.101046148687601089e-02,8.041764795780181885e-02,3.483568783849477768e-03,9.684613905847072601e-05
1.947505981661379337e-03,2.441155970700492617e-07,2.035117859122692607e-06,7.535296957939863205e-03,3.438572093727998435e-08,1.729803159832954407e-02,4.517666995525360107e-02,4.360028251539915800e-04,1.618968695402145386e-02,3.713598516696947627e-06,4.775860905647277832e-02,8.030236698687076569e-03,3.053279034793376923e-02,2.024465613067150116e-02,6.103811413049697876e-02,8.828841382637619972e-04
1.838034391403198242e-01,1.934642739342962159e-07,-0.000000000000000000e+00,1.143226516433060169e-03,1.289840638637542725e-01,5.842674057930707932e-03,5.569047760218381882e-03,1.611500419676303864e-02,-0.000000000000000000e+00,-0.000000000000000000e+00,1.653932034969329834e-01,3.586252778768539429e-02,7.563194260001182556e-03,1.296515017747879028e-01,9.242207556962966919e-02,-0.000000000000000000e+00
1.504376530647277832e-01,5.480710882693529129e-03,1.374500698148040101e-05,5.430067540146410465e-04,1.155995801091194153e-01,2.043915390968322754e-01,4.161893427371978760e-01,2.122074365615844727e-03,2.741105854511260986e-04,1.852085551945492625e-04,4.148105084896087646e-01,4.417390748858451843e-02,-0.000000000000000000e+00,2.997631430625915527e-01,1.730199307203292847e-01,5.719960900023579597e-04
1.483137905597686768e-01,4.012252092361450195e-01,4.193553877485101111e-07,3.078888403251767159e-03,6.318887230008840561e-03,3.093294501304626465e-01,6.626074314117431641e-01,1.483950996771454811e-03,5.382625386118888855e-03,5.613718647509813309e-03,9.094233810901641846e-02,2.207377403974533081e-01,2.730593841988593340e-04,1.704342663288116455e-01,1.021077856421470642e-01,5.272055976092815399e-03
8.817207068204879761e-02,5.347905680537223816e-02,2.658435376361012459e-03,6.427973858080804348e-04,1.639401167631149292e-02,1.447575632482767105e-02,4.950733482837677002e-01,2.591399708762764931e-03,1.776515543460845947e-01,1.713242265395820141e-03,1.927790790796279907e-01,1.079485565423965454e-01,7.548362482339143753e-03,1.036676857620477676e-02,3.013388626277446747e-02,6.560590118169784546e-03
3.953616619110107422e-01,2.302138358354568481e-01,2.239448726177215576e-01,5.062107462435960770e-03,2.521271526347845793e-04,2.263629734516143799e-01,7.862994074821472168e-01,-0.000000000000000000e+00,5.734187085181474686e-03,7.797065190970897675e-04,4.975977838039398193e-01,2.617483437061309814e-01,1.563788950443267822e-02,7.588080316781997681e-02,3.940170258283615112e-02,1.441107131540775299e-03
2.037043720483779907e-01,1.874723732471466064e-01,8.001778125762939453e-01,8.157369680702686310e-03,1.456482323192176409e-06,1.632161885499954224e-01,3.866016566753387451e-01,6.102428596932440996e-05,6.816038489341735840e-01,1.014298386871814728e-02,3.214619755744934082e-01,9.075503796339035034e-02,1.630208455026149750e-02,4.403823241591453552e-02,1.983466371893882751e-02,1.461537741124629974e-02
3.571763634681701660e-01,5.022195726633071899e-02,3.236069977283477783e-01,8.608725853264331818e-03,4.754407797008752823e-03,1.572364717721939087e-01,5.604112744331359863e-01,-0.000000000000000000e+00,5.867827534675598145e-01,1.185194309800863266e-02,6.994757652282714844e-01,4.609697461128234863e-01,1.057425979524850845e-02,1.250179708003997803e-01,1.042643748223781586e-02,2.300055883824825287e-02
2.723807692527770996e-01,4.767695069313049316e-02,4.483581483364105225e-01,2.649356126785278320e-01,7.636441383510828018e-03,9.489294886589050293e-02,4.261783957481384277e-01,-0.000000000000000000e+00,3.507789075374603271e-01,4.730259254574775696e-02,1.824821531772613525e-01,1.963071897625923157e-02,2.572569937910884619e-04,3.545967489480972290e-02,5.427250638604164124e-03,3.989514708518981934e-02
6.137709692120552063e-02,2.542050182819366455e-01,7.268688082695007324e-01,6.970111280679702759e-02,1.596048357896506786e-03,7.211652398109436035e-02,3.632333278656005859e-01,6.118330056779086590e-04,4.020528495311737061e-01,1.174398325383663177e-02,7.522483468055725098e-01,3.579974407330155373e-03,3.006095648743212223e-04,4.976462945342063904e-02,1.838771277107298374e-03,2.152907550334930420e-01
5.804998874664306641e-01,8.370488882064819336e-02,3.411177694797515869e-01,1.702783256769180298e-01,3.981743007898330688e-03,4.512294828891754150e-01,3.164451718330383301e-01,1.112956670112907887e-03,4.971540346741676331e-02,7.799239456653594971e-02,6.674816608428955078e-01,4.916402511298656464e-03,1.015266636386513710e-03,3.640997111797332764e-01,1.635944354347884655e-03,4.494104161858558655e-02
4.819191694259643555e-01,3.660456836223602295e-01,3.127124607563018799e-01,5.347225069999694824e-01,4.381950420793145895e-04,5.688011050224304199e-01,2.701742053031921387e-01,8.149414206854999065e-04,2.996898889541625977e-01,1.378887053579092026e-02,3.538370430469512939e-01,7.049953099340200424e-03,4.680398385971784592e-03,4.574549943208694458e-02,-0.000000000000000000e+00,4.665448963642120361e-01
2.378648221492767334e-01,6.679791957139968872e-02,4.456562176346778870e-02,1.202907681465148926e+00,1.202813698910176754e-03,5.276616811752319336e-01,1.541611850261688232e-01,-0.000000000000000000e+00,7.465200871229171753e-02,2.674782574176788330e-01,2.009805589914321899e-01,5.746816098690032959e-02,7.316692732274532318e-03,2.785954996943473816e-02,3.492385149002075195e-04,6.739026904106140137e-01
2.318560704588890076e-02,1.626162081956863403e-01,4.614644125103950500e-02,2.229630708694458008e+00,2.639799565076828003e-02,5.877067148685455322e-02,2.094664052128791809e-02,-0.000000000000000000e+00,1.250439137220382690e-01,2.230168506503105164e-02,9.031261205673217773e-01,5.999930500984191895e-01,4.215240944176912308e-03,1.908923238515853882e-01,2.892446354962885380e-04,5.031545758247375488e-01
2.224289998412132263e-02,2.341637201607227325e-02,5.026369094848632812e-01,1.727433204650878906e+00,4.890003800392150879e-01,7.581675425171852112e-03,8.242491632699966431e-03,5.069618346169590950e-04,3.928959369659423828e-01,5.648046731948852539e-02,3.316248059272766113e-01,8.708483576774597168e-01,3.516159951686859131e-03,1.839773356914520264e-01,2.387363929301500320e-04,6.834618449211120605e-01
2.354387380182743073e-02,4.274451732635498047e-02,8.816754817962646484e-02,1.127580881118774414e+00,3.539216518402099609e-01,9.953654625860508531e-06,2.704380312934517860e-05,6.408064509741961956e-04,1.153963088989257812e+00,5.996512249112129211e-02,3.848829865455627441e-01,3.087885379791259766e-01,3.320877207443118095e-03,1.451800465583801270e-01,-0.000000000000000000e+00,4.373323321342468262e-01
2.154674381017684937e-02,2.781119570136070251e-02,1.489043980836868286e-01,8.338719010353088379e-01,3.306296169757843018e-01,1.405695275025209412e-05,3.502205072436481714e-05,4.228801932185888290e-03,7.569683790206909180e-01,5.458303540945053101e-02,2.467919588088989258e-01,3.226001262664794922e-01,7.267982698976993561e-03,2.640071809291839600e-01,-0.000000000000000000e+00,1.661867052316665649e-01
4.477724432945251465e-01,4.417695477604866028e-02,2.717321813106536865e-01,7.086505293846130371e-01,8.652913570404052734e-01,2.109331398969516158e-05,3.682222450152039528e-05,5.463639739900827408e-03,1.434083580970764160e-01,3.446945920586585999e-02,6.622729301452636719e-01,9.590688347816467285e-02,9.279075078666210175e-03,5.188608765602111816e-01,3.033033804967999458e-03,3.726471960544586182e-02
9.405621886253356934e-01,2.443213574588298798e-02,2.463388815522193909e-02,2.874859794974327087e-02,7.171515822410583496e-01,2.089796122163534164e-03,2.778405905701220036e-05,1.431152038276195526e-02,8.331437110900878906e-01,4.569307342171669006e-02,2.591714560985565186e-01,4.825464785099029541e-01,1.236065384000539780e-02,2.911250889301300049e-01,3.948373254388570786e-03,2.396843731403350830e-01
1.022946119308471680e+00,8.959968574345111847e-03,7.389973383396863937e-03,1.472706440836191177e-03,6.335847377777099609e-01,2.794734202325344086e-03,2.252460224553942680e-03,5.696097016334533691e-02,6.595427989959716797e-01,2.338801324367523193e-02,1.442170441150665283e-01,1.336051076650619507e-01,8.751725777983665466e-03,8.153849095106124878e-02,7.298425305634737015e-03,1.091869249939918518e-01
8.856844305992126465e-01,7.523750420659780502e-03,5.108430981636047363e-03,1.524589024484157562e-04,7.353069782257080078e-01,4.643738793674856424e-04,6.991963367909193039e-03,2.459539286792278290e-02,2.810486406087875366e-02,3.465189635753631592e-01,1.108558010309934616e-02,2.239543199539184570e-01,5.153930280357599258e-03,2.763010375201702118e-02,4.458907060325145721e-03,4.499031305313110352e-01
3.862249478697776794e-02,8.230576291680335999e-03,2.741972682997584343e-03,-0.000000000000000000e+00,2.882896661758422852e-01,5.174461534807051066e-07,3.321749344468116760e-02,7.640271633863449097e-02,3.431808352470397949e-01,5.627467762678861618e-03,9.021458774805068970e-02,1.024849805980920792e-02,3.101185429841279984e-03,-0.000000000000000000e+00,1.556877233088016510e-02,9.261137247085571289e-01
7.682579103857278824e-03,5.430199205875396729e-03,2.891341596841812134e-02,3.286358260083943605e-04,1.125132758170366287e-02,3.587409992178436369e-06,8.997011184692382812e-02,6.064286921173334122e-03,2.311762273311614990e-01,3.893179818987846375e-03,2.998834848403930664e-01,4.806870594620704651e-03,7.600436802022159100e-04,-0.000000000000000000e+00,1.312927603721618652e-01,4.384447038173675537e-01
5.863219848833978176e-04,3.230337426066398621e-02,8.206435292959213257e-02,-0.000000000000000000e+00,2.768116828519850969e-04,1.086698921426432207e-05,2.269939286634325981e-03,-0.000000000000000000e+00,1.227912455797195435e-01,2.065625274553894997e-03,1.047142148017883301e-01,1.273668743669986725e-02,3.857263363897800446e-03,3.600716881919652224e-04,1.055695489048957825e-01,1.809155791997909546e-01
1.418330054730176926e-02,2.482800930738449097e-02,2.030187845230102539e-02,-0.000000000000000000e+00,1.273091044276952744e-02,-0.000000000000000000e+00,-0.000000000000000000e+00,-0.000000000000000000e+00,-0.000000000000000000e+00,-0.000000000000000000e+00,5.902696400880813599e-03,9.646952897310256958e-02,3.997573221568018198e-04,1.815726282075047493e-03,1.834300719201564789e-02,3.240489633753895760e-03
-0.000000000000000000e+00,-0.000000000000000000e+00,5.548056287807412446e-05,2.808468479997827671e-06,1.987631840165704489e-04,1.516752527095377445e-04,4.319439176470041275e-05,1.157231163233518600e-04,-0.000000000000000000e+00,1.881541975308209658e-04,1.624040742171928287e-04,1.517977652838453650e-04,-0.000000000000000000e+00,-0.000000000000000000e+00,-0.000000000000000000e+00,3.431650475249625742e-05
2.081480488413944840e-04,-0.000000000000000000e+00,-0.000000000000000000e+00,4.296818951843306422e-05,1.615085493540391326e-04,7.908125553512945771e-05,1.224831503350287676e-04,-0.000000000000000000e+00,-0.000000000000000000e+00,-0.000000000000000000e+00,-0.000000000000000000e+00,1.703193556750193238e-04,8.942060958361253142e-05,1.453167205909267068e-04,-0.000000000000000000e+00,-0.000000000000000000e+00
2.520413370802998543e-03,1.081007532775402069e-03,2.439793170196935534e-04,1.023128163069486618e-02,8.952842108556069434e-06,7.014510221779346466e-03,7.434599683620035648e-04,4.161749529885128140e-06,-0.000000000000000000e+00,-0.000000000000000000e+00,1.425108930561691523e-04,1.137316648964770138e-04,7.869313121773302555e-04,2.872812002897262573e-02,1.121465320466086268e-04,-0.000000000000000000e+00
1.428060204489156604e-04,6.584801594726741314e-04,-0.000000000000000000e+00,3.968292381614446640e-03,2.659846795722842216e-04,4.760573431849479675e-02,2.321898788213729858e-01,3.277817540947580710e-06,6.131485104560852051e-02,-0.000000000000000000e+00,1.383172422647476196e-01,1.079980938811786473e-04,1.036639735102653503e-01,8.263006061315536499e-02,7.614502310752868652e-02,2.478465437889099121e-03
2.613689005374908447e-01,6.509566213935613632e-03,-0.000000000000000000e+00,1.128710282500833273e-04,1.798626594245433807e-02,1.032697558403015137e-01,3.246084153652191162e-01,1.213096038554795086e-04,8.960811537690460682e-04,-0.000000000000000000e+00,2.622856795787811279e-01,4.676100332289934158e-03,4.721681028604507446e-02,3.696337640285491943e-01,1.279470790177583694e-02,-0.000000000000000000e+00
5.030993744730949402e-02,2.452192420605570078e-04,1.799717028916347772e-05,5.205885972827672958e-04,2.391498908400535583e-02,3.596428930759429932e-01,5.369177460670471191e-01,8.096182346343994141e-02,2.589672803878784180e-03,1.775112003087997437e-03,3.664785921573638916e-01,9.632779285311698914e-03,1.854807510972023010e-02,2.602529525756835938e-01,1.823855191469192505e-01,4.529417026787996292e-03
1.962063908576965332e-01,1.418484258465468884e-03,1.493546005804091692e-04,4.265069495886564255e-03,2.628030255436897278e-02,4.075249731540679932e-01,1.110972240567207336e-01,1.107418071478605270e-02,1.887003076262772083e-03,-0.000000000000000000e+00,3.616854548454284668e-01,3.776005934923887253e-03,-0.000000000000000000e+00,2.500903606414794922e-02,1.889285072684288025e-02,2.953321672976016998e-04
1.054096072912216187e-01,9.367180056869983673e-03,6.144919898360967636e-03,5.944098811596632004e-03,2.087561227381229401e-02,3.541549742221832275e-01,1.056175380945205688e-01,2.600189065560698509e-03,6.356633268296718597e-03,-0.000000000000000000e+00,4.869289696216583252e-01,2.559908628463745117e-01,5.532699637115001678e-03,1.069556549191474915e-02,2.139892280101776123e-01,-0.000000000000000000e+00
2.948318608105182648e-02,2.706720121204853058e-02,1.020427793264389038e-02,1.210769079625606537e-02,2.387162821833044291e-04,1.909315139055252075e-01,2.910486459732055664e-01,9.630409069359302521e-03,1.871295459568500519e-02,5.168478004634380341e-03,6.238426640629768372e-02,2.363120019435882568e-02,7.050590123981237411e-03,5.432262085378170013e-03,5.354957282543182373e-02,-0.000000000000000000e+00
6.619742512702941895e-02,1.250689616426825523e-03,1.701794750988483429e-02,1.122925803065299988e-02,1.960627996595576406e-04,9.163998067378997803e-03,1.773632317781448364e-02,3.469984279945492744e-03,8.486415445804595947e-02,1.638043671846389771e-02,1.932372599840164185e-01,4.271366447210311890e-02,8.741762489080429077e-03,2.314038202166557312e-02,3.375765681266784668e-02,5.174791906028985977e-03
4.560997784137725830e-01,2.070017531514167786e-02,6.005301326513290405e-02,9.448708966374397278e-03,1.380020380020141602e-02,5.003758240491151810e-03,1.074946224689483643e-01,8.810880535747855902e-05,4.741028249263763428e-01,1.959675364196300507e-02,7.312557846307754517e-02,3.496755659580230713e-02,3.892805194482207298e-03,1.054628007113933563e-02,3.435248136520385742e-02,3.402059897780418396e-02
3.269483149051666260e-01,3.701863437891006470e-02,6.701047420501708984e-01,8.108597248792648315e-03,2.521738037467002869e-02,4.218526650220155716e-03,3.841056227684020996e-01,-0.000000000000000000e+00,2.365019619464874268e-01,1.899870112538337708e-02,6.044976413249969482e-02,-0.000000000000000000e+00,-0.000000000000000000e+00,2.044438943266868591e-02,4.032334089279174805e-01,2.250784784555435181e-01
1.711587607860565186e-01,7.529136538505554199e-02,3.728493452072143555e-01,1.341636758297681808e-02,8.576848357915878296e-02,1.217904686927795410e-02,1.030948571860790253e-02,6.868205033242702484e-03,4.160486161708831787e-01,1.541646663099527359e-02,2.374153882265090942e-01,4.494516178965568542e-03,-0.000000000000000000e+00,4.185921326279640198e-02,3.304808437824249268e-01,7.170516997575759888e-02
1.237274855375289917e-01,3.763984516263008118e-02,4.270250201225280762e-01,2.171569876372814178e-02,1.970847696065902710e-02,5.841360986232757568e-02,1.687936484813690186e-01,4.442970093805342913e-04,3.509531319141387939e-01,1.324412822723388672e-01,7.660435140132904053e-02,9.212034754455089569e-03,5.712805315852165222e-03,3.308722376823425293e-02,2.452106922864913940e-01,1.416367143392562866e-01
6.743336319923400879e-01,3.145701438188552856e-02,3.807935416698455811e-01,1.335779950022697449e-02,1.459979731589555740e-02,4.986740276217460632e-02,1.692985892295837402e-01,5.353880696929991245e-04,6.147831305861473083e-02,6.416466832160949707e-02,2.323576360940933228e-01,2.308197878301143646e-02,6.632287986576557159e-03,3.853775560855865479e-02,2.528748009353876114e-04,9.062224626541137695e-02
1.972916908562183380e-02,3.080166131258010864e-02,6.060851737856864929e-02,3.532098978757858276e-02,1.592656783759593964e-02,1.301389783620834351e-01,2.803643234074115753e-02,-0.000000000000000000e+00,2.112403139472007751e-02,6.439195573329925537e-02,2.359924018383026123e-01,1.053917407989501953e-02,2.936766250059008598e-03,2.307235896587371826e-01,5.862875841557979584e-03,6.366979330778121948e-02
1.619572937488555908e-02,1.950930804014205933e-01,2.471638619899749756e-01,1.603525876998901367e+00,1.851397939026355743e-02,2.133864210918545723e-03,3.432391583919525146e-02,3.661848139017820358e-03,5.198393464088439941e-01,4.851597920060157776e-02,5.117997527122497559e-01,1.629109680652618408e-02,2.576049882918596268e-03,2.302429638803005219e-02,8.975200355052947998e-03,7.352633774280548096e-02
1.797335743904113770e-01,1.648796722292900085e-02,6.529048681259155273e-01,8.790813684463500977e-01,5.008653998374938965e-01,2.165430225431919098e-03,2.708694897592067719e-03,3.469156101346015930e-02,5.395532846450805664e-01,2.231913357973098755e-01,3.216447532176971436e-01,7.126606702804565430e-01,3.112534992396831512e-03,6.352539360523223877e-02,3.104879520833492279e-03,4.309252500534057617e-01
3.427709937095642090e-01,2.329913526773452759e-02,2.120122909545898438e-01,6.895675659179687500e-01,4.783907830715179443e-01,1.020964773488231003e-04,4.171886830590665340e-04,2.977522648870944977e-02,5.651500821113586426e-01,1.085268482565879822e-01,8.667798340320587158e-02,4.487257599830627441e-01,2.512529958039522171e-03,5.895091220736503601e-02,-0.000000000000000000e+00,5.883042886853218079e-02
6.076111197471618652e-01,2.184467948973178864e-02,3.593527674674987793e-01,9.211860895156860352e-01,4.577447175979614258e-01,9.395826964464504272e-06,-0.000000000000000000e+00,1.093873102217912674e-02,2.528185546398162842e-01,5.702215060591697693e-02,5.416476130485534668e-01,6.758724451065063477e-01,3.187683410942554474e-03,3.224295079708099365e-01,8.327728210133500397e-06,2.579435892403125763e-02
2.858881950378417969e-01,4.100272431969642639e-02,2.997339665889739990e-01,5.547121763229370117e-01,6.167514324188232422e-01,1.661691931076347828e-03,-0.000000000000000000e+00,7.916714064776897430e-03,9.736661314964294434e-01,2.950861677527427673e-02,3.528714925050735474e-02,4.710964262485504150e-01,3.015647176653146744e-03,2.867578864097595215e-01,1.453288365155458450e-03,6.675868034362792969e-01
2.791391015052795410e-01,5.550530180335044861e-02,6.087583303451538086e-01,3.531240522861480713e-01,6.310697197914123535e-01,7.087841629981994629e-03,1.296998187899589539e-02,2.464987896382808685e-02,4.828110635280609131e-01,2.459568344056606293e-02,8.281809091567993164e-02,1.294944882392883301e-01,1.057929731905460358e-02,7.564880847930908203e-01,1.134833693504333496e-02,2.533672749996185303e-01
5.125766620039939880e-03,2.581733837723731995e-02,5.245273560285568237e-02,3.110474646091461182e-01,1.767366230487823486e-01,1.022179238498210907e-02,2.035766281187534332e-02,3.579511865973472595e-02,8.456396460533142090e-01,8.893281221389770508e-03,3.146496415138244629e-02,1.060535851866006851e-02,9.253182448446750641e-03,5.881627798080444336e-01,2.087775152176618576e-03,2.224434912204742432e-01
1.123510207980871201e-02,1.465778332203626633e-02,4.116529133170843124e-03,1.816333085298538208e-02,6.781036257743835449e-01,4.466637503355741501e-03,8.421849459409713745e-03,2.384003251791000366e-02,3.818064332008361816e-01,3.232085611671209335e-03,1.862384751439094543e-02,3.851946294307708740e-01,4.638248123228549957e-03,4.953469038009643555e-01,2.427214058116078377e-03,4.645488783717155457e-02
1.226466223597526550e-01,7.858607918024063110e-03,7.192698772996664047e-03,1.492565730586647987e-03,3.378261625766754150e-01,5.808240894111804664e-05,3.284699749201536179e-03,6.840259302407503128e-03,3.831341564655303955e-01,8.076737634837627411e-03,1.620140299201011658e-02,1.685092300176620483e-01,2.753223478794097900e-02,5.338695272803306580e-02,1.066561322659254074e-03,1.163323372602462769e-01
6.591206789016723633e-02,3.161599636077880859e-01,2.128591015934944153e-02,-0.000000000000000000e+00,6.552511453628540039e-02,-0.000000000000000000e+00,1.177433505654335022e-02,5.523209460079669952e-03,4.719939529895782471e-01,3.805778454989194870e-03,1.019819676876068115e-01,2.566915936768054962e-03,3.177516860887408257e-03,-0.000000000000000000e+00,8.545680344104766846e-02,8.493015170097351074e-01
2.289457991719245911e-02,1.393233537673950195e-01,1.471325085731223226e-04,-0.000000000000000000e+00,4.618511535227298737e-03,6.639587692916393280e-03,1.252419315278530121e-03,5.006837309338152409e-04,1.317304521799087524e-01,1.240570563822984695e-04,8.688896778039634228e-04,2.179344296455383301e-01,4.476679861545562744e-02,1.468487549573183060e-03,2.490645274519920349e-03,1.696627885103225708e-01
5.438089370727539062e-03,2.931867167353630066e-02,-0.000000000000000000e+00,-0.000000000000000000e+00,7.626596838235855103e-02,2.020754254772327840e-05,1.617795205675065517e-04,-0.000000000000000000e+00,1.171479307231493294e-04,-0.000000000000000000e+00,-0.000000000000000000e+00,1.104735732078552246e-01,3.288234816864132881e-03,1.241799443960189819e-03,2.969694323837757111e-04,9.931608801707625389e-04
1.444859808543697000e-04,2.109111519530415535e-04,2.452754597470629960e-05,5.748165858676657081e-05,-0.000000000000000000e+00,-0.000000000000000000e+00,-0.000000000000000000e+00,1.944178802659735084e-04,-0.000000000000000000e+00,4.131003151996992528e-06,-0.000000000000000000e+00,-0.000000000000000000e+00,1.744251785567030311e-04,-0.000000000000000000e+00,3.671213198686018586e-05,-0.000000000000000000e+00
9.307097570854239166e-06,-0.000000000000000000e+00,-0.000000000000000000e+00,4.504594951868057251e-03,-0.000000000000000000e+00,2.248404489364475012e-04,1.271490938961505890e-02,1.132560364935919495e-10,1.738507999107241631e-03,-0.000000000000000000e+00,7.560630328953266144e-03,2.154314192011952400e-03,-0.000000000000000000e+00,1.640738919377326965e-03,3.417079952328094805e-09,-0.000000000000000000e+00
4.424314101925119758e-05,9.436564520001411438e-03,1.580266398377716541e-04,5.532034556381404400e-04,3.979049552071955986e-07,8.853803155943751335e-04,4.630640521645545959e-02,7.613870501518249512e-02,5.911021493375301361e-03,1.365677919238805771e-02,3.134433180093765259e-03,1.002368237823247910e-02,8.023257553577423096e-02,2.259245957247912884e-05,3.995973244309425354e-02,3.322587907314300537e-02
3.139991604257375002e-04,2.371847396716475487e-03,1.488195732235908508e-03,6.194794550538063049e-02,7.142161484807729721e-05,3.096267282962799072e-01,2.977245450019836426e-01,2.133090347051620483e-01,3.991108853369951248e-03,-0.000000000000000000e+00,3.500634059309959412e-02,1.275671063922345638e-03,1.116252616047859192e-01,4.463183227926492691e-03,4.037346541881561279e-01,-0.000000000000000000e+00
1.498346328735351562e-01,2.600274048745632172e-02,7.501781452447175980e-03,-0.000000000000000000e+00,7.378178648650646210e-03,9.139116108417510986e-02,2.743753790855407715e-01,1.679399795830249786e-02,9.420412592589855194e-03,3.501001512631773949e-03,1.630587130784988403e-02,8.129443973302841187e-03,2.457796782255172729e-02,4.614695906639099121e-02,1.357560791075229645e-02,4.253618884831666946e-03
1.498249471187591553e-01,2.821003319695591927e-03,6.693693649140186608e-06,1.521248370409011841e-03,1.870954781770706177e-01,1.789126098155975342e-01,1.473089009523391724e-01,7.435756921768188477e-01,1.138285733759403229e-02,5.481216125190258026e-03,3.494149744510650635e-01,6.045660469681024551e-03,2.167808115482330322e-01,1.284976722672581673e-03,2.584731846582144499e-04,7.677348330616950989e-03
4.125187918543815613e-02,8.979524485766887665e-03,3.503661602735519409e-02,4.618434701114892960e-03,4.498618096113204956e-02,4.777855873107910156e-01,4.373228251934051514e-01,2.248528301715850830e-01,8.428025990724563599e-03,-0.000000000000000000e+00,5.629995837807655334e-02,3.256755648180842400e-03,6.123824045062065125e-03,8.356570266187191010e-03,-0.000000000000000000e+00,5.204547662287950516e-03
5.610150843858718872e-02,7.124185562133789062e-02,1.318819969892501831e-01,4.876257386058568954e-03,3.493736311793327332e-02,1.159917376935482025e-02,9.910424798727035522e-02,1.839153170585632324e-01,1.525678299367427826e-02,3.151005657855421305e-04,3.622388839721679688e-02,3.334717825055122375e-02,7.767593022435903549e-03,2.008571475744247437e-02,-0.000000000000000000e+00,8.703109808266162872e-03
2.073953486979007721e-02,3.889613971114158630e-02,5.415236204862594604e-02,1.332399621605873108e-02,3.007845953106880188e-05,4.013479687273502350e-03,1.880061179399490356e-01,3.265418410301208496e-01,7.937141507863998413e-02,1.826226338744163513e-02,4.085039719939231873e-02,3.513256087899208069e-02,9.690812788903713226e-03,1.071841083467006683e-02,8.490865118801593781e-03,9.969006292521953583e-03
5.414447188377380371e-02,4.399229586124420166e-02,3.899248316884040833e-02,1.200265809893608093e-02,2.076038904488086700e-02,3.920220769941806793e-03,3.197237551212310791e-01,3.970724642276763916e-01,3.334436193108558655e-02,2.459809929132461548e-02,1.722033470869064331e-01,2.344749681651592255e-02,1.223243214190006256e-02,6.378176040016114712e-04,3.341312110424041748e-01,1.613738015294075012e-02
1.407037582248449326e-02,3.159594163298606873e-02,6.183479726314544678e-02,1.171389594674110413e-01,9.757752530276775360e-03,6.910893600434064865e-03,1.504568010568618774e-02,1.739378720521926880e-01,7.317306399345397949e-01,2.398770116269588470e-02,8.816216140985488892e-02,8.403132669627666473e-04,4.857928492128849030e-03,-0.000000000000000000e+00,2.083108425140380859e-01,4.230701923370361328e-02
6.688654422760009766e-02,2.935642190277576447e-02,7.072800397872924805e-02,7.770080585032701492e-03,3.547659516334533691e-02,9.241906926035881042e-03,7.464956957846879959e-03,1.027147397398948669e-01,9.227984398603439331e-02,1.751322112977504730e-02,1.094983052462339401e-02,1.104433671571314335e-03,-0.000000000000000000e+00,-0.000000000000000000e+00,6.937799453735351562e-01,5.650652199983596802e-02
4.974023625254631042e-02,4.744540154933929443e-02,5.233950018882751465e-01,8.391090668737888336e-03,4.990744590759277344e-02,9.496863931417465210e-03,6.453700363636016846e-03,1.464879885315895081e-02,5.135230422019958496e-01,1.029760204255580902e-02,1.851836591958999634e-02,7.612960878759622574e-03,2.033255295827984810e-04,2.053032442927360535e-02,4.987315833568572998e-01,6.686150282621383667e-02
1.211176440119743347e-01,2.707279473543167114e-02,2.615702450275421143e-01,6.670591421425342560e-03,4.664780944585800171e-02,6.250897888094186783e-03,2.945779636502265930e-02,9.546157903969287872e-03,2.651056647300720215e-01,7.399858534336090088e-02,2.933607995510101318e-02,2.492479421198368073e-02,2.355401637032628059e-03,4.498339444398880005e-02,7.105298042297363281e-01,3.366403281688690186e-02
1.600531116127967834e-02,2.542629092931747437e-02,1.388092786073684692e-01,2.533509628847241402e-03,1.475169230252504349e-02,2.589207608252763748e-03,4.548303037881851196e-02,1.165925338864326477e-02,5.464385747909545898e-01,9.819475561380386353e-02,1.143288798630237579e-02,4.043859243392944336e-02,4.667611792683601379e-03,3.280443698167800903e-02,6.538614630699157715e-01,5.340025201439857483e-02
9.344157762825489044e-03,1.421615183353424072e-01,7.411230802536010742e-01,5.699841305613517761e-03,6.256341934204101562e-03,4.320151172578334808e-03,4.361364617943763733e-02,1.429738756269216537e-02,2.071912437677383423e-01,3.736319253221154213e-03,3.060246445238590240e-02,1.080149412155151367e-01,1.379615394398570061e-03,2.374612167477607727e-02,5.681959390640258789e-01,1.866613179445266724e-01
9.569648653268814087e-03,9.616962634027004242e-03,7.498039305210113525e-02,5.879256725311279297e-01,1.833036914467811584e-02,4.382084589451551437e-03,1.779075153172016144e-02,1.394849270582199097e-02,8.275819569826126099e-02,1.497053503990173340e-01,4.226676002144813538e-02,2.241432666778564453e-02,3.701013512909412384e-03,5.705889314413070679e-03,7.054132223129272461e-01,5.146944895386695862e-02
7.058547809720039368e-03,7.531330920755863190e-03,1.933100074529647827e-02,1.327791571617126465e+00,3.852858766913414001e-02,5.083624739199876785e-03,4.682350903749465942e-03,2.428366802632808685e-02,7.348605245351791382e-02,3.892681002616882324e-02,3.633108362555503845e-02,2.347269095480442047e-02,4.628930240869522095e-03,7.688738871365785599e-03,4.286910295486450195e-01,2.895191907882690430e-01
6.265996396541595459e-02,1.326481904834508896e-02,9.060481563210487366e-03,1.557977557182312012e+00,1.683496534824371338e-01,4.012501332908868790e-03,1.563403755426406860e-02,1.595937646925449371e-02,8.685750886797904968e-03,3.008291125297546387e-01,3.073137067258358002e-02,1.964022070169448853e-01,3.796342061832547188e-03,7.272383570671081543e-02,5.554159283638000488e-01,1.437479257583618164e-01
6.230175867676734924e-02,1.706743240356445312e-02,2.995555475354194641e-02,6.221362352371215820e-01,3.404878675937652588e-01,2.973265945911407471e-04,3.839375916868448257e-03,2.511050365865230560e-02,2.978497557342052460e-02,1.155845969915390015e-01,4.011671990156173706e-02,1.739097088575363159e-01,5.108259618282318115e-03,2.253489010035991669e-02,1.766894608736038208e-01,9.757629036903381348e-01
3.210984915494918823e-02,1.191761065274477005e-02,2.862535230815410614e-02,8.102473616600036621e-01,5.178151279687881470e-02,2.813709434121847153e-03,2.750566927716135979e-03,1.481583714485168457e-02,5.099873989820480347e-02,5.219994112849235535e-02,2.537916973233222961e-02,1.528743747621774673e-02,5.119785200804471970e-03,1.802832260727882385e-02,1.234580352902412415e-01,2.070689648389816284e-01
3.278563916683197021e-02,2.768369391560554504e-02,7.901298999786376953e-02,6.454694271087646484e-01,2.494889870285987854e-02,3.464925102889537811e-03,1.139086205512285233e-02,5.228683352470397949e-02,4.290859401226043701e-02,2.353892028331756592e-01,6.598878186196088791e-03,9.661975316703319550e-03,8.573083207011222839e-03,9.933581575751304626e-03,7.823164574801921844e-03,8.832523599267005920e-03
9.481223300099372864e-03,2.744194865226745605e-02,3.368438035249710083e-02,1.496593002229928970e-02,2.157202214002609253e-01,3.895284142345190048e-03,1.864364184439182281e-02,2.764968015253543854e-02,4.661882817745208740e-01,6.216891407966613770e-01,1.742009073495864868e-02,1.388910878449678421e-02,8.903265930712223053e-03,2.366859465837478638e-03,2.486285986378788948e-03,4.169079661369323730e-02
3.003491729032248259e-04,5.265502724796533585e-03,5.773864686489105225e-04,1.109728403389453888e-02,8.969503641128540039e-01,3.859740449115633965e-03,2.153635583817958832e-02,1.629247143864631653e-02,7.427635043859481812e-02,2.926139160990715027e-02,5.340384691953659058e-02,6.738276220858097076e-03,4.312779754400253296e-03,3.526944220066070557e-01,1.851122593507170677e-03,2.479592114686965942e-01
1.393623277544975281e-02,4.619454964995384216e-03,2.879337989725172520e-04,2.337261801585555077e-03,2.774561643600463867e-01,3.087559714913368225e-03,1.327776443213224411e-02,1.752763800323009491e-02,5.163574218750000000e-01,8.498460985720157623e-03,8.206912316381931305e-03,4.230195581912994385e-01,1.183151751756668091e-01,2.367277629673480988e-02,-0.000000000000000000e+00,1.113608360290527344e+00
4.760741591453552246e-01,4.338503181934356689e-01,4.095458425581455231e-04,1.171729963971301913e-04,4.340835213661193848e-01,9.092625230550765991e-03,4.791088402271270752e-03,1.277725119143724442e-02,6.871382240206003189e-03,4.512020852416753769e-03,3.146969154477119446e-02,8.002830296754837036e-02,8.193604648113250732e-03,3.788309404626488686e-03,3.646971890702843666e-04,8.985005617141723633e-01
1.369805335998535156e-01,6.317510455846786499e-02,-0.000000000000000000e+00,1.714962767437100410e-03,1.566282063722610474e-01,4.775023832917213440e-02,3.879451006650924683e-02,2.700839564204216003e-02,2.185070654377341270e-03,1.720245745673310012e-05,4.515308886766433716e-03,1.965068746358156204e-03,3.414568305015563965e-02,4.311361350119113922e-03,-0.000000000000000000e+00,2.390305995941162109e-01
5.844229087233543396e-02,1.054779663681983948e-01,1.198291647597216070e-04,1.456866084481589496e-05,3.650264069437980652e-02,1.946070417761802673e-02,1.318264752626419067e-02,-0.000000000000000000e+00,4.036225378513336182e-02,-0.000000000000000000e+00,1.631724415346980095e-03,9.818552434444427490e-02,1.134989038109779358e-01,2.364015951752662659e-02,6.594191654585301876e-04,3.585111722350120544e-02
-0.000000000000000000e+00,1.968850265257060528e-04,1.542860331937845331e-06,-0.000000000000000000e+00,1.046701072482392192e-05,6.492526154033839703e-05,-0.000000000000000000e+00,1.801741309463977814e-04,2.337359001103322953e-05,6.746290455339476466e-05,-0.000000000000000000e+00,-0.000000000000000000e+00,9.934693662216886878e-05,-0.000000000000000000e+00,3.460761490714503452e-06,5.403252362157218158e-05
-0.000000000000000000e+00,-0.000000000000000000e+00,-0.000000000000000000e+00,1.139616891741752625e-01,-0.000000000000000000e+00,2.068795636296272278e-02,2.228122651576995850e-01,7.514635799452662468e-04,9.050907194614410400e-02,-0.000000000000000000e+00,1.524246633052825928e-01,5.588515475392341614e-02,-0.000000000000000000e+00,1.243637379957363009e-04,4.730734508484601974e-05,-0.000000000000000000e+00
2.230751124443486333e-05,6.859442591667175293e-02,8.034680038690567017e-02,6.633334560319781303e-04,-0.000000000000000000e+00,1.401204150170087814e-02,1.918845437467098236e-02,1.400372385978698730e-01,7.057123951881294488e-08,1.091341767460107803e-02,1.799688208848237991e-03,1.015177345834672451e-03,1.227252483367919922e-01,2.707378880586475134e-04,5.909293889999389648e-03,1.125198230147361755e-02
1.570956432260572910e-03,2.532034181058406830e-03,2.452406100928783417e-03,5.097943358123302460e-03,2.283481415361166000e-03,3.120712339878082275e-01,2.588663995265960693e-01,4.213918447494506836e-01,2.863713074475526810e-03,-0.000000000000000000e+00,2.471433579921722412e-02,1.138663734309375286e-03,2.755435882136225700e-03,4.251021891832351685e-03,2.905211448669433594e-01,-0.000000000000000000e+00
6.472000479698181152e-02,1.085745766758918762e-01,2.764756977558135986e-01,-0.000000000000000000e+00,8.094102144241333008e-02,2.320226579904556274e-01,7.361601591110229492e-01,1.870348602533340454e-01,1.460240129381418228e-02,2.336475299671292305e-03,3.632212579250335693e-01,8.121837861835956573e-03,5.283609498292207718e-03,8.794844034127891064e-04,1.889767823740839958e-03,2.870882395654916763e-03
2.390681207180023193e-01,2.215913869440555573e-02,4.510933905839920044e-02,2.809068519127322361e-06,1.659632772207260132e-01,1.623549126088619232e-02,7.814188003540039062e-01,1.123647913336753845e-01,8.526946417987346649e-03,1.015254762023687363e-02,5.080592632293701172e-01,8.396601304411888123e-03,2.671462856233119965e-02,3.078991780057549477e-03,-0.000000000000000000e+00,1.128118857741355896e-02
2.093965187668800354e-02,2.613365650177001953e-02,2.733456492424011230e-01,9.973794221878051758e-04,3.237812966108322144e-02,1.722842353046871722e-05,8.772190809249877930e-01,7.397371530532836914e-01,2.550755627453327179e-02,7.771531585603952408e-03,4.693419486284255981e-02,1.415802724659442902e-02,1.169222779572010040e-02,7.672509644180536270e-03,-0.000000000000000000e+00,1.325417309999465942e-02
1.505019888281822205e-02,6.042806059122085571e-02,1.626336872577667236e-01,3.716810024343430996e-04,3.792220354080200195e-02,6.000171737241544179e-08,5.652437359094619751e-02,3.911484777927398682e-01,5.998746678233146667e-02,4.341311287134885788e-03,3.806909918785095215e-02,3.200179338455200195e-02,1.348822657018899918e-02,7.548276335000991821e-03,7.042970391921699047e-04,1.760067418217658997e-02
8.211291395127773285e-03,2.231528609991073608e-01,1.850200295448303223e-01,9.085671044886112213e-04,5.923687014728784561e-03,6.704446859657764435e-04,4.499300569295883179e-02,2.624853327870368958e-02,7.047393321990966797e-01,2.561731263995170593e-02,3.906747400760650635e-01,2.769145742058753967e-02,1.438852865248918533e-02,2.400949888397008181e-04,1.295934547670185566e-03,1.082102954387664795e-01
3.261178135871887207e-01,5.381098017096519470e-02,5.293913185596466064e-02,2.818344905972480774e-02,1.736695133149623871e-02,1.905594952404499054e-03,4.551966488361358643e-02,3.075920939445495605e-01,4.144145175814628601e-02,2.507783845067024231e-02,1.565748751163482666e-01,1.160555705428123474e-02,1.262488588690757751e-02,-0.000000000000000000e+00,6.028987001627683640e-03,5.189681798219680786e-02
6.557679176330566406e-01,2.770169824361801147e-02,2.678679227828979492e-01,9.015554189682006836e-02,3.511379286646842957e-02,4.555014427751302719e-03,7.513312448281794786e-05,4.600590169429779053e-01,6.468524932861328125e-01,1.951546967029571533e-02,1.539220381528139114e-02,3.559791250154376030e-03,4.820529371500015259e-03,-0.000000000000000000e+00,1.833113580942153931e-01,1.286910474300384521e-01
1.701063513755798340e-01,5.037721619009971619e-02,3.399584889411926270e-01,1.457027159631252289e-03,3.529002144932746887e-02,5.897059105336666107e-03,-0.000000000000000000e+00,2.902662754058837891e-01,6.468418836593627930e-01,3.058142028748989105e-02,-0.000000000000000000e+00,3.670697333291172981e-03,2.109339460730552673e-03,-0.000000000000000000e+00,8.391723781824111938e-02,3.874894976615905762e-02
3.481223434209823608e-02,4.523597285151481628e-02,3.064453974366188049e-02,2.360867336392402649e-03,2.456351183354854584e-02,5.174797493964433670e-03,2.240477874875068665e-02,3.451133519411087036e-02,8.102896809577941895e-01,1.459833793342113495e-02,9.355193004012107849e-03,2.988582104444503784e-02,5.654904991388320923e-03,8.144896477460861206e-02,6.859564185142517090e-01,1.192670688033103943e-02
2.752914652228355408e-02,7.534951716661453247e-02,5.447564721107482910e-01,3.015041816979646683e-03,3.701551759149879217e-04,2.512978855520486832e-03,2.790065482258796692e-02,2.642732858657836914e-02,9.098575264215469360e-02,8.880440145730972290e-02,1.226116344332695007e-02,5.101919174194335938e-02,8.162673562765121460e-03,4.751094430685043335e-02,8.501253724098205566e-01,4.319203551858663559e-03
7.610819768160581589e-03,2.578906118869781494e-01,3.092170227319002151e-03,6.548164878040552139e-03,3.877600654959678650e-03,4.651668947190046310e-03,2.034623026847839355e-01,1.707440242171287537e-02,1.226672530174255371e+00,1.984883397817611694e-01,1.627997681498527527e-02,4.737322404980659485e-02,8.094917982816696167e-03,5.416905283927917480e-01,7.786704301834106445e-01,1.391323190182447433e-02
3.836521180346608162e-03,5.581116303801536560e-02,3.350116312503814697e-01,3.468918148428201675e-03,9.866232983767986298e-03,6.745947059243917465e-03,3.565426170825958252e-02,1.590798795223236084e-02,3.350288048386573792e-02,5.110071040689945221e-03,1.675330661237239838e-02,3.639780357480049133e-02,2.750480780377984047e-03,5.241708457469940186e-02,1.073071002960205078e+00,1.028293296694755554e-01
2.074942551553249359e-02,1.417300291359424591e-02,3.338218852877616882e-02,1.176636759191751480e-02,9.919758886098861694e-03,8.562153205275535583e-03,3.481015935540199280e-02,1.759544014930725098e-02,5.234864950180053711e-01,6.493935734033584595e-02,1.104672998189926147e-02,1.022112928330898285e-02,4.353809636086225510e-03,3.771279752254486084e-02,7.580929994583129883e-01,2.795470058917999268e-01
3.570038825273513794e-02,1.237732637673616409e-02,3.806700557470321655e-02,8.510912656784057617e-01,3.199636191129684448e-02,6.528641097247600555e-03,3.947355598211288452e-02,1.878859102725982666e-02,4.269934892654418945e-01,4.750834405422210693e-01,3.210351616144180298e-02,1.136285159736871719e-02,6.503269076347351074e-03,1.802627556025981903e-02,5.803117156028747559e-01,1.474172342568635941e-02
7.240423560142517090e-01,2.548030018806457520e-02,9.304630570113658905e-03,1.591454267501831055e+00,4.947904869914054871e-02,2.592384349554777145e-03,3.081137500703334808e-02,3.239159882068634033e-01,2.941142581403255463e-02,2.970190346240997314e-01,4.152388125658035278e-02,2.047784067690372467e-02,6.612141616642475128e-03,1.862401887774467468e-02,1.721881330013275146e-01,8.256823420524597168e-01
6.442593038082122803e-02,2.371539734303951263e-02,8.401786908507347107e-03,1.256145238876342773e+00,1.536975800991058350e-01,2.440750133246183395e-03,8.057556115090847015e-03,1.877628862857818604e-01,6.328103598207235336e-03,2.737548947334289551e-01,4.541270434856414795e-02,2.349709346890449524e-02,1.788058434613049030e-03,1.509220525622367859e-02,1.165767014026641846e-01,5.759900808334350586e-01
3.928596898913383484e-02,8.354695513844490051e-03,6.864383816719055176e-03,7.520006895065307617e-01,6.257840245962142944e-02,1.852817833423614502e-03,1.117656845599412918e-02,4.829155802726745605e-01,4.898357763886451721e-02,2.180303484201431274e-01,2.890724316239356995e-02,1.704774610698223114e-02,3.369580954313278198e-04,1.649622805416584015e-02,1.346687823534011841e-01,3.669017553329467773e-01
3.336738422513008118e-02,4.296573996543884277e-02,6.379313301295042038e-03,3.134765923023223877e-01,5.410185828804969788e-02,9.319020435214042664e-03,4.603516310453414917e-02,7.257012277841567993e-02,3.125985339283943176e-02,3.428791835904121399e-02,1.098978240042924881e-02,2.476060576736927032e-02,3.288371022790670395e-03,2.349115163087844849e-02,6.716712564229965210e-02,7.229566574096679688e-01
5.919328890740871429e-03,2.339379191398620605e-01,1.832696795463562012e-02,1.392473280429840088e-01,3.458138108253479004e-01,1.066807098686695099e-02,2.450103871524333954e-02,4.357794821262359619e-01,2.986269071698188782e-02,7.459586858749389648e-02,6.914639845490455627e-03,6.004492752254009247e-03,1.053654029965400696e-02,2.069948706775903702e-03,3.286113962531089783e-03,4.140203297138214111e-01
4.346650093793869019e-03,1.053765881806612015e-02,4.921508487313985825e-03,9.963724762201309204e-03,2.289328724145889282e-01,1.240513008087873459e-02,1.931458711624145508e-02,2.576537728309631348e-01,2.434065565466880798e-02,4.007281959056854248e-01,6.678903698921203613e-01,6.184171885251998901e-03,8.991211652755737305e-02,1.444495399482548237e-03,1.950263627804815769e-03,7.173498868942260742e-01
8.651838898658752441e-01,5.505735985934734344e-03,3.134666243568062782e-03,1.108375657349824905e-02,3.582828044891357422e-01,1.349635142832994461e-02,1.179810985922813416e-02,3.411522507667541504e-02,2.116676233708858490e-02,1.421634666621685028e-02,1.860016258433461189e-03,1.555548012256622314e-01,2.054602950811386108e-01,1.709138159640133381e-04,2.795467735268175602e-04,4.880377948284149170e-01
4.378710091114044189e-01,1.569163799285888672e-01,7.994722545845434070e-05,7.123848772607743740e-04,3.854578435420989990e-01,8.071815222501754761e-02,9.955118410289287567e-03,1.509884838014841080e-02,3.107305467128753662e-01,1.346685178577899933e-02,2.864922164008021355e-03,1.259603165090084076e-02,2.192502915859222412e-01,2.088274923153221607e-04,2.746034078882075846e-05,1.122618079185485840e+00
1.717204302549362183e-01,3.387159854173660278e-02,-0.000000000000000000e+00,1.129120471887290478e-03,2.267046272754669189e-01,9.828639775514602661e-02,1.448517739772796631e-01,9.327193349599838257e-02,1.436672080308198929e-02,3.470556112006306648e-03,-0.000000000000000000e+00,3.970517590641975403e-02,1.506393998861312866e-01,-0.000000000000000000e+00,-0.000000000000000000e+00,3.670718073844909668e-01
5.607919394969940186e-02,9.861407428979873657e-02,1.277611707337200642e-03,3.605772144510410726e-05,1.749297254718840122e-03,7.771842065267264843e-04,3.780779242515563965e-02,1.957260326035381581e-10,6.378678232431411743e-02,1.858482391980942339e-05,1.798217534087598324e-03,1.235962286591529846e-01,1.573985666036605835e-01,9.937246795743703842e-04,5.546278553083539009e-04,1.095149219036102295e-01
4.669460281729698181e-02,-0.000000000000000000e+00,7.168605923652648926e-02,1.723381318151950836e-02,-0.000000000000000000e+00,-0.000000000000000000e+00,2.039350755512714386e-02,-0.000000000000000000e+00,-0.000000000000000000e+00,1.048740148544311523e-01,-0.000000000000000000e+00,5.314501002430915833e-02,1.276425737887620926e-02,-0.000000000000000000e+00,-0.000000000000000000e+00,3.769577015191316605e-03
-0.000000000000000000e+00,1.618339680135250092e-02,2.388859633356332779e-03,4.476277902722358704e-02,-0.000000000000000000e+00,6.182646378874778748e-02,5.881716310977935791e-02,1.603334844112396240e-01,2.549866959452629089e-02,1.168575067822530400e-07,1.061596092768013477e-03,6.318920641206204891e-04,1.497959624975919724e-02,-0.000000000000000000e+00,2.913539670407772064e-02,-0.000000000000000000e+00
7.910081744194030762e-02,6.419624388217926025e-02,8.085666596889495850e-02,-0.000000000000000000e+00,2.525685168802738190e-02,6.533897831104695797e-04,6.509979069232940674e-02,1.152142509818077087e-01,1.455824589356780052e-03,4.613114893436431885e-02,8.583468198776245117e-02,1.760718785226345062e-02,1.520514022558927536e-03,1.502498402260243893e-03,8.363797096535563469e-04,-0.000000000000000000e+00
4.523614048957824707e-02,1.048194617033004761e-02,1.082724928855895996e-01,2.657326404005289078e-03,2.020438201725482941e-03,1.182483211159706116e-01,4.189550876617431641e-02,5.821613669395446777e-01,1.933281309902667999e-02,-0.000000000000000000e+00,2.361987084150314331e-01,7.627700106240808964e-04,1.273226574994623661e-03,8.256176114082336426e-02,6.024410249665379524e-04,3.726621434907428920e-05
1.396309733390808105e-01,8.693742007017135620e-02,3.788453936576843262e-01,1.109238713979721069e-03,3.702840581536293030e-02,4.162755012512207031e-01,5.808501839637756348e-01,6.327266693115234375e-01,1.487343199551105499e-02,2.548367192503064871e-04,5.958964228630065918e-01,2.446484984830021858e-03,2.940623788163065910e-03,2.257262589409947395e-03,7.492283359169960022e-03,3.238498233258724213e-03
1.552181243896484375e-01,1.015332415699958801e-01,1.060146987438201904e-01,-0.000000000000000000e+00,1.100853160023689270e-01,-0.000000000000000000e+00,5.453272163867950439e-02,1.669301688671112061e-01,1.802477836608886719e-01,4.619915038347244263e-03,2.810300886631011963e-01,2.516192151233553886e-03,2.088456228375434875e-02,4.326085094362497330e-03,7.461667526513338089e-03,1.324015669524669647e-02
2.205863967537879944e-02,3.439059853553771973e-02,1.613219082355499268e-01,7.860966026782989502e-03,4.429306834936141968e-02,7.146132702473551035e-06,4.650442674756050110e-02,3.047632277011871338e-01,2.624235153198242188e-01,4.967008717358112335e-03,3.525301516056060791e-01,1.836078241467475891e-02,9.121146053075790405e-03,6.028325296938419342e-03,2.825124887749552727e-03,1.695421710610389709e-02
6.935656070709228516e-03,4.296562448143959045e-02,3.592366576194763184e-01,7.071770727634429932e-03,1.249075960367918015e-02,5.201319581829011440e-04,4.930140078067779541e-02,7.138676047325134277e-01,3.415354788303375244e-01,2.240966632962226868e-02,6.410292387008666992e-01,2.444992400705814362e-02,3.911555744707584381e-03,3.926779143512248993e-03,3.194637829437851906e-03,1.864529959857463837e-02
1.794530195184051991e-03,2.348208986222743988e-02,1.454652752727270126e-02,1.031331717967987061e-03,9.927061386406421661e-03,2.291002776473760605e-03,3.384555876255035400e-02,4.604859054088592529e-01,1.569304317235946655e-01,3.038013912737369537e-02,1.717091910541057587e-02,2.044655382633209229e-02,8.301351219415664673e-03,6.198842893354594707e-04,2.431714534759521484e-01,1.702224910259246826e-01
5.330060608685016632e-03,5.099117755889892578e-02,2.637487351894378662e-01,5.408331751823425293e-02,1.091015338897705078e-02,5.390640348196029663e-03,1.269471738487482071e-02,2.749894857406616211e-01,4.661758989095687866e-02,2.188681624829769135e-02,1.771877855062484741e-01,3.198721911758184433e-03,3.912903834134340286e-03,-0.000000000000000000e+00,9.130843915045261383e-03,2.135574221611022949e-01
9.780910797417163849e-03,7.560998946428298950e-02,2.626713812351226807e-01,3.511426225304603577e-02,3.407242149114608765e-02,6.309544667601585388e-03,1.857919123722240329e-04,7.886280864477157593e-02,2.163291275501251221e-01,1.516846474260091782e-02,2.479634480550885201e-03,4.368983209133148193e-04,3.936154302209615707e-03,2.593975477793719620e-05,3.189260512590408325e-02,1.333125531673431396e-01
1.072461158037185669e-02,5.819604918360710144e-02,7.504168897867202759e-02,1.810253364965319633e-03,1.245937496423721313e-02,5.167101509869098663e-03,3.134395927190780640e-02,4.835750758647918701e-01,5.516811832785606384e-02,1.547411084175109863e-02,1.456578355282545090e-02,6.346430163830518723e-03,4.019541665911674500e-03,4.754520021378993988e-03,2.542691119015216827e-02,9.080100059509277344e-02
8.771128952503204346e-03,6.572365015745162964e-02,4.761438667774200439e-01,4.921447485685348511e-03,-0.000000000000000000e+00,2.069766074419021606e-02,6.266688555479049683e-02,2.322958409786224365e-01,2.403991520404815674e-01,1.114717572927474976e-01,2.714312076568603516e-02,3.480403870344161987e-02,6.796688772737979889e-03,4.289808869361877441e-02,1.061927434056997299e-02,2.246191166341304779e-02
6.069232709705829620e-03,7.269460707902908325e-02,8.722069114446640015e-02,1.763865468092262745e-03,2.100382931530475616e-03,1.444690302014350891e-02,7.265982776880264282e-02,2.818778529763221741e-02,9.652831405401229858e-02,1.174385379999876022e-02,2.207539416849613190e-02,4.384120553731918335e-02,1.383784692734479904e-02,3.545614480972290039e-01,1.579009592533111572e-01,5.865600332617759705e-02
3.120526205748319626e-03,1.080976277589797974e-01,6.764471530914306641e-02,1.028760219924151897e-03,4.117697477340698242e-03,2.076650969684123993e-02,2.795885801315307617e-01,2.400621026754379272e-02,1.476252824068069458e-01,3.906870484352111816e-01,9.450396522879600525e-03,3.481116890907287598e-02,2.479531429708003998e-02,9.682761877775192261e-02,7.233111262321472168e-01,1.951943524181842804e-02
2.994373813271522522e-02,4.466749355196952820e-02,4.023811593651771545e-02,1.956133637577295303e-03,4.065593704581260681e-03,3.376236185431480408e-03,1.339396834373474121e-01,2.590759396553039551e-01,5.803268868476152420e-03,2.388073354959487915e-01,3.293571295216679573e-03,3.945518657565116882e-02,1.900036074221134186e-02,4.949769377708435059e-02,2.587988674640655518e-01,7.099531125277280807e-03
5.013646185398101807e-02,3.036816790699958801e-02,2.690206170082092285e-01,8.153429254889488220e-03,8.031374774873256683e-03,3.460702020674943924e-03,2.211048454046249390e-01,5.765422433614730835e-02,1.037705340422689915e-03,6.473038792610168457e-01,1.785924541763961315e-03,1.610064692795276642e-02,1.139831356704235077e-02,3.717113286256790161e-02,4.616829454898834229e-01,-0.000000000000000000e+00
6.051947921514511108e-02,2.670950442552566528e-02,3.345151618123054504e-02,3.606589436531066895e-01,2.025531977415084839e-02,6.769925355911254883e-03,1.962742209434509277e-01,4.685929790139198303e-02,-0.000000000000000000e+00,1.970531493425369263e-01,1.420310046523809433e-02,1.388585846871137619e-02,8.338182233273983002e-03,3.352590799331665039e-01,3.947814926505088806e-02,1.470351126044988632e-04
1.533928662538528442e-01,2.392058819532394409e-02,2.284456975758075714e-02,1.058055758476257324e+00,4.199633747339248657e-02,2.446284983307123184e-03,2.151300571858882904e-02,3.131318390369415283e-01,-0.000000000000000000e+00,4.159685373306274414e-01,2.653214037418365479e-01,2.343872189521789551e-02,2.533097751438617706e-03,1.901828683912754059e-02,1.057599410414695740e-01,8.003600873053073883e-03
6.237685307860374451e-02,5.065306648612022400e-02,3.396753966808319092e-02,9.550423622131347656e-01,7.781310379505157471e-02,5.896376096643507481e-04,1.750483922660350800e-02,7.512208819389343262e-02,-0.000000000000000000e+00,1.167865190654993057e-02,4.082829132676124573e-02,1.633441075682640076e-02,2.252391874790191650e-01,1.227119844406843185e-02,4.040002450346946716e-02,5.139812827110290527e-01
3.675309941172599792e-02,3.404287621378898621e-02,1.402111537754535675e-02,4.124330580234527588e-01,4.847804829478263855e-02,-0.000000000000000000e+00,1.615920662879943848e-02,2.006617933511734009e-01,5.948533769696950912e-03,3.378125131130218506e-01,3.289851546287536621e-02,2.606579288840293884e-02,5.033152103424072266e-01,6.599586457014083862e-03,5.814279988408088684e-02,1.651728898286819458e-01
3.690981119871139526e-02,3.818120062351226807e-02,8.809073269367218018e-02,7.084211707115173340e-01,3.101308345794677734e-01,6.019836291670799255e-05,7.318513840436935425e-02,1.404949370771646500e-02,7.380405440926551819e-03,7.183190435171127319e-02,6.014272198081016541e-02,3.434428200125694275e-02,5.057122111320495605e-01,1.731355208903551102e-03,8.607214689254760742e-02,1.120106056332588196e-01
2.102198265492916107e-02,4.363720491528511047e-02,1.067791283130645752e-01,1.056815981864929199e+00,2.520455047488212585e-02,9.989266283810138702e-03,1.549669057130813599e-01,5.554030835628509521e-02,7.680228445678949356e-03,4.816387221217155457e-02,3.426681458950042725e-01,1.625210046768188477e-02,6.464986205101013184e-01,1.397341955453157425e-03,2.408216521143913269e-02,1.193047128617763519e-02
5.892629269510507584e-03,1.553409844636917114e-01,7.476612329483032227e-01,2.277772501111030579e-02,2.488318085670471191e-01,1.418556179851293564e-02,1.730164587497711182e-01,8.083674907684326172e-01,4.767003934830427170e-03,5.350081324577331543e-01,6.827859878540039062e-01,3.236509626731276512e-03,7.616935968399047852e-01,1.467051682993769646e-03,2.743039745837450027e-03,1.685428023338317871e-01
