4.669787827879190445e-03,-0.000000000000000000e+00,-0.000000000000000000e+00,-0.000000000000000000e+00,4.332007956691086292e-04,-0.000000000000000000e+00,4.896473139524459839e-03,-0.000000000000000000e+00,5.050191190093755722e-03,2.660051919519901276e-03,6.799050141125917435e-03,8.513904758729040623e-04,-0.000000000000000000e+00,7.262763101607561111e-03,4.238165449351072311e-03,7.730428478680551052e-04,6.160721182823181152e-03,-0.000000000000000000e+00,7.102485280483961105e-03,1.797505887225270271e-03,-0.000000000000000000e+00,-0.000000000000000000e+00,4.645794979296624660e-04,7.403864990919828415e-03,1.250736182555556297e-03,5.253984127193689346e-03,-0.000000000000000000e+00,-0.000000000000000000e+00,-0.000000000000000000e+00,4.220273811370134354e-03,6.189335603266954422e-03,1.240237848833203316e-03,2.127313520759344101e-03,-0.000000000000000000e+00,-0.000000000000000000e+00,2.908297814428806305e-03,6.475316360592842102e-03,2.377423224970698357e-03,-0.000000000000000000e+00,5.010761320590972900e-03,-0.000000000000000000e+00,4.582345485687255859e-03,-0.000000000000000000e+00,-0.000000000000000000e+00,6.188634317368268967e-03,3.741744905710220337e-03,4.753951448947191238e-03,-0.000000000000000000e+00,-0.000000000000000000e+00,-0.000000000000000000e+00,3.200170118361711502e-03,1.137323095463216305e-03,-0.000000000000000000e+00,-0.000000000000000000e+00,4.264171700924634933e-03,-0.000000000000000000e+00,-0.000000000000000000e+00,6.803508847951889038e-03,-0.000000000000000000e+00,-0.000000000000000000e+00,-0.000000000000000000e+00,2.524592215195298195e-03,-0.000000000000000000e+00,1.297063543461263180e-03
3.019284456968307495e-03,-0.000000000000000000e+00,5.194767843931913376e-03,-0.000000000000000000e+00,5.075186025351285934e-03,4.293276928365230560e-03,-0.000000000000000000e+00,2.220163354650139809e-03,5.057608243077993393e-03,7.326796185225248337e-03,-0.000000000000000000e+00,-0.000000000000000000e+00,4.817007109522819519e-03,-0.000000000000000000e+00,1.781233004294335842e-03,6.259826943278312683e-03,-0.000000000000000000e+00,-0.000000000000000000e+00,5.286586936563253403e-03,-0.000000000000000000e+00,3.582227742299437523e-03,4.723435267806053162e-03,-0.000000000000000000e+00,-0.000000000000000000e+00,-0.000000000000000000e+00,2.776056644506752491e-04,-0.000000000000000000e+00,-0.000000000000000000e+00,6.103773601353168488e-03,-0.000000000000000000e+00,-0.000000000000000000e+00,7.386699318885803223e-03,-0.000000000000000000e+00,-0.000000000000000000e+00,1.662193564698100090e-03,-0.000000000000000000e+00,6.574331200681626797e-04,-0.000000000000000000e+00,-0.000000000000000000e+00,3.265605075284838676e-03,5.235651042312383652e-03,3.583467099815607071e-03,3.641994902864098549e-03,-0.000000000000000000e+00,3.860150929540395737e-03,3.112798091024160385e-03,4.518949426710605621e-03,6.806739140301942825e-03,-0.000000000000000000e+00,-0.000000000000000000e+00,4.676756914705038071e-03,-0.000000000000000000e+00,-0.000000000000000000e+00,2.159322379156947136e-03,7.301014848053455353e-03,-0.000000000000000000e+00,1.610650797374546528e-03,3.820124315097928047e-03,7.436125539243221283e-03,-0.000000000000000000e+00,-0.000000000000000000e+00,-0.000000000000000000e+00,3.346824087202548981e-03,2.202899660915136337e-03
-0.000000000000000000e+00,-0.000000000000000000e+00,2.836585277691483498e-03,5.318589042872190475e-03,-0.000000000000000000e+00,-0.000000000000000000e+00,-0.000000000000000000e+00,-0.000000000000000000e+00,2.679817611351609230e-03,1.939341076649725437e-03,-0.000000000000000000e+00,-0.000000000000000000e+00,-0.000000000000000000e+00,2.241596230305731297e-04,5.804164800792932510e-03,6.207059137523174286e-03,7.195564918220043182e-03,3.508287773001939058e-04,-0.000000000000000000e+00,3.857965115457773209e-03,3.348140278831124306e-03,-0.000000000000000000e+00,2.052702708169817924e-03,-0.000000000000000000e+00,-0.000000000000000000e+00,5.577666684985160828e-03,-0.000000000000000000e+00,3.526241751387715340e-03,2.004879526793956757e-03,3.042419906705617905e-03,-0.000000000000000000e+00,2.445061923936009407e-03,-0.000000000000000000e+00,4.355112090706825256e-03,6.562391761690378189e-03,1.836136681959033012e-03,6.055437494069337845e-03,-0.000000000000000000e+00,2.382952487096190453e-03,-0.000000000000000000e+00,3.689230186864733696e-03,-0.000000000000000000e+00,-0.000000000000000000e+00,-0.000000000000000000e+00,-0.000000000000000000e+00,2.565340371802449226e-03,3.853466827422380447e-03,-0.000000000000000000e+00,4.532125778496265411e-03,-0.000000000000000000e+00,-0.000000000000000000e+00,6.321667693555355072e-03,-0.000000000000000000e+00,-0.000000000000000000e+00,4.475513473153114319e-03,3.725158283486962318e-03,3.244021441787481308e-03,-0.000000000000000000e+00,-0.000000000000000000e+00,-0.000000000000000000e+00,-0.000000000000000000e+00,-0.000000000000000000e+00,-0.000000000000000000e+00,-0.000000000000000000e+00
5.193521734327077866e-03,-0.000000000000000000e+00,-0.000000000000000000e+00,-0.000000000000000000e+00,-0.000000000000000000e+00,2.779310103505849838e-03,2.491420833393931389e-03,-0.000000000000000000e+00,-0.000000000000000000e+00,5.773690994828939438e-03,-0.000000000000000000e+00,6.472456152550876141e-04,-0.000000000000000000e+00,2.144965343177318573e-03,-0.000000000000000000e+00,-0.000000000000000000e+00,3.666770877316594124e-03,2.182756550610065460e-03,2.867127477657049894e-06,-0.000000000000000000e+00,3.009926294907927513e-03,-0.000000000000000000e+00,-0.000000000000000000e+00,3.072241321206092834e-03,-0.000000000000000000e+00,4.121801350265741348e-03,-0.000000000000000000e+00,-0.000000000000000000e+00,4.682752769440412521e-03,-0.000000000000000000e+00,-0.000000000000000000e+00,2.588741248473525047e-03,3.342585638165473938e-03,-0.000000000000000000e+00,1.456045429222285748e-03,-0.000000000000000000e+00,-0.000000000000000000e+00,-0.000000000000000000e+00,1.518289907835423946e-03,1.279755379073321819e-03,-0.000000000000000000e+00,-0.000000000000000000e+00,-0.000000000000000000e+00,-0.000000000000000000e+00,-0.000000000000000000e+00,1.473604468628764153e-03,-0.000000000000000000e+00,-0.000000000000000000e+00,2.865852089598774910e-03,7.616635877639055252e-03,-0.000000000000000000e+00,-0.000000000000000000e+00,-0.000000000000000000e+00,-0.000000000000000000e+00,1.336040557362139225e-03,-0.000000000000000000e+00,-0.000000000000000000e+00,-0.000000000000000000e+00,-0.000000000000000000e+00,-0.000000000000000000e+00,-0.000000000000000000e+00,-0.000000000000000000e+00,-0.000000000000000000e+00,6.701582577079534531e-03
4.940144717693328857e-03,6.311277858912944794e-03,-0.000000000000000000e+00,-0.000000000000000000e+00,7.179954089224338531e-03,5.563877057284116745e-03,-0.000000000000000000e+00,6.051553878933191299e-03,-0.000000000000000000e+00,-0.000000000000000000e+00,7.797449361532926559e-04,-0.000000000000000000e+00,6.015835795551538467e-03,-0.000000000000000000e+00,-0.000000000000000000e+00,3.870073007419705391e-03,1.379826455377042294e-03,6.929740775376558304e-03,-0.000000000000000000e+00,-0.000000000000000000e+00,2.565833972766995430e-03,4.893757402896881104e-03,-0.000000000000000000e+00,-0.000000000000000000e+00,-0.000000000000000000e+00,4.223871976137161255e-03,-0.000000000000000000e+00,-0.000000000000000000e+00,-0.000000000000000000e+00,7.229681592434644699e-03,-0.000000000000000000e+00,5.862624384462833405e-03,2.548806369304656982e-03,3.070081584155559540e-03,3.850315930321812630e-03,5.273181945085525513e-03,3.563794889487326145e-04,-0.000000000000000000e+00,-0.000000000000000000e+00,2.858933759853243828e-03,7.007498294115066528e-03,-0.000000000000000000e+00,-0.000000000000000000e+00,-0.000000000000000000e+00,2.005441114306449890e-03,4.464197903871536255e-03,3.033332526683807373e-03,6.078754086047410965e-03,3.238115925341844559e-03,-0.000000000000000000e+00,3.792473813518881798e-03,-0.000000000000000000e+00,-0.000000000000000000e+00,-0.000000000000000000e+00,-0.000000000000000000e+00,6.868181750178337097e-03,9.822733773034997284e-06,-0.000000000000000000e+00,-0.000000000000000000e+00,1.060809707269072533e-03,1.282407669350504875e-03,-0.000000000000000000e+00,-0.000000000000000000e+00,-0.000000000000000000e+00
7.076221983879804611e-03,2.094104653224349022e-03,-0.000000000000000000e+00,6.741410121321678162e-03,-0.000000000000000000e+00,1.979541266337037086e-03,-0.000000000000000000e+00,3.342535579577088356e-03,7.386263459920883179e-03,5.196069367229938507e-03,1.488250913098454475e-03,2.888362156227231026e-03,5.200293846428394318e-03,3.596652997657656670e-03,2.798184519633650780e-03,-0.000000000000000000e+00,4.884672816842794418e-03,-0.000000000000000000e+00,-0.000000000000000000e+00,-0.000000000000000000e+00,4.123891238123178482e-03,4.600426182150840759e-03,-0.000000000000000000e+00,1.138134484790498391e-05,-0.000000000000000000e+00,2.589398762211203575e-03,-0.000000000000000000e+00,1.353815547190606594e-03,2.208209189120680094e-04,1.108841737732291222e-03,5.999242421239614487e-03,2.554320963099598885e-03,-0.000000000000000000e+00,1.978594111278653145e-03,-0.000000000000000000e+00,1.758923172019422054e-03,7.340895244851708412e-04,5.647280486300587654e-04,-0.000000000000000000e+00,-0.000000000000000000e+00,-0.000000000000000000e+00,3.508517285808920860e-03,3.275090362876653671e-03,-0.000000000000000000e+00,-0.000000000000000000e+00,2.207465702667832375e-03,4.904984030872583389e-03,4.329731687903404236e-03,-0.000000000000000000e+00,-0.000000000000000000e+00,3.855511313304305077e-03,4.341554362326860428e-03,-0.000000000000000000e+00,-0.000000000000000000e+00,3.511159738991409540e-04,6.033687168383039534e-05,-0.000000000000000000e+00,3.601139178499579430e-03,-0.000000000000000000e+00,-0.000000000000000000e+00,6.060239858925342560e-03,6.082483567297458649e-03,-0.000000000000000000e+00,-0.000000000000000000e+00
-0.000000000000000000e+00,4.222689021844416857e-04,-0.000000000000000000e+00,-0.000000000000000000e+00,4.392395727336406708e-03,7.265432737767696381e-03,7.668967591598629951e-04,-0.000000000000000000e+00,-0.000000000000000000e+00,4.299126565456390381e-03,4.864861257374286652e-03,9.420454734936356544e-04,7.268955814652144909e-04,-0.000000000000000000e+00,-0.000000000000000000e+00,-0.000000000000000000e+00,-0.000000000000000000e+00,6.379809230566024780e-03,5.030079279094934464e-03,-0.000000000000000000e+00,1.579255331307649612e-03,7.014161441475152969e-03,6.742064375430345535e-03,7.300367578864097595e-03,-0.000000000000000000e+00,4.083430860191583633e-03,-0.000000000000000000e+00,3.890462685376405716e-04,-0.000000000000000000e+00,-0.000000000000000000e+00,1.090848702006042004e-03,-0.000000000000000000e+00,-0.000000000000000000e+00,-0.000000000000000000e+00,1.837279414758086205e-03,5.197273567318916321e-03,-0.000000000000000000e+00,2.637028228491544724e-04,-0.000000000000000000e+00,-0.000000000000000000e+00,3.757560160011053085e-03,5.796199664473533630e-03,-0.000000000000000000e+00,-0.000000000000000000e+00,-0.000000000000000000e+00,2.124007092788815498e-03,-0.000000000000000000e+00,-0.000000000000000000e+00,-0.000000000000000000e+00,3.369339508935809135e-03,2.229127567261457443e-04,3.609230043366551399e-03,4.994829650968313217e-04,-0.000000000000000000e+00,6.728627718985080719e-03,4.253844264894723892e-03,-0.000000000000000000e+00,-0.000000000000000000e+00,4.450760316103696823e-03,6.908030249178409576e-03,-0.000000000000000000e+00,2.015400445088744164e-03,-0.000000000000000000e+00,-0.000000000000000000e+00
-0.000000000000000000e+00,-0.000000000000000000e+00,3.214246593415737152e-03,6.795722292736172676e-04,-0.000000000000000000e+00,1.633151900023221970e-03,3.616984002292156219e-03,2.880946267396211624e-03,-0.000000000000000000e+00,-0.000000000000000000e+00,1.731360796838998795e-03,5.581101402640342712e-03,-0.000000000000000000e+00,-0.000000000000000000e+00,-0.000000000000000000e+00,-0.000000000000000000e+00,4.729772917926311493e-03,-0.000000000000000000e+00,-0.000000000000000000e+00,-0.000000000000000000e+00,2.936167176812887192e-03,1.889483392005786300e-04,6.605145055800676346e-03,4.989716224372386932e-03,-0.000000000000000000e+00,-0.000000000000000000e+00,5.419011693447828293e-03,-0.000000000000000000e+00,-0.000000000000000000e+00,-0.000000000000000000e+00,2.521086717024445534e-03,1.916963490657508373e-03,-0.000000000000000000e+00,-0.000000000000000000e+00,3.774819197133183479e-03,1.028517610393464565e-03,-0.000000000000000000e+00,-0.000000000000000000e+00,-0.000000000000000000e+00,-0.000000000000000000e+00,-0.000000000000000000e+00,1.518435194157063961e-03,8.128664921969175339e-04,-0.000000000000000000e+00,3.280259901657700539e-03,-0.000000000000000000e+00,4.627417307347059250e-03,1.477190293371677399e-03,1.124475849792361259e-03,3.299428150057792664e-03,-0.000000000000000000e+00,-0.000000000000000000e+00,-0.000000000000000000e+00,7.458926178514957428e-03,-0.000000000000000000e+00,-0.000000000000000000e+00,-0.000000000000000000e+00,3.517555538564920425e-03,-0.000000000000000000e+00,-0.000000000000000000e+00,-0.000000000000000000e+00,-0.000000000000000000e+00,5.439626052975654602e-03,5.606886465102434158e-03
8.830070146359503269e-04,5.832703318446874619e-04,-0.000000000000000000e+00,-0.000000000000000000e+00,2.921554725617170334e-03,1.417085150023922324e-04,-0.000000000000000000e+00,3.594089299440383911e-03,-0.000000000000000000e+00,-0.000000000000000000e+00,6.064482498914003372e-03,2.097416203469038010e-03,2.971706911921501160e-03,-0.000000000000000000e+00,-0.000000000000000000e+00,-0.000000000000000000e+00,-0.000000000000000000e+00,6.499612703919410706e-03,-0.000000000000000000e+00,2.090120688080787659e-03,-0.000000000000000000e+00,6.244937423616647720e-03,-0.000000000000000000e+00,-0.000000000000000000e+00,6.850039935670793056e-04,-0.000000000000000000e+00,-0.000000000000000000e+00,4.693014081567525864e-03,-0.000000000000000000e+00,-0.000000000000000000e+00,1.843918114900588989e-03,4.910173593088984489e-04,-0.000000000000000000e+00,1.914595137350261211e-03,7.533438038080930710e-03,-0.000000000000000000e+00,-0.000000000000000000e+00,1.328619197010993958e-03,-0.000000000000000000e+00,2.952070906758308411e-03,6.576965097337961197e-03,6.999602541327476501e-03,-0.000000000000000000e+00,2.467217622324824333e-03,3.016792936250567436e-03,-0.000000000000000000e+00,6.479834672063589096e-03,4.138044547289609909e-03,9.582111488271038979e-06,-0.000000000000000000e+00,1.717972685582935810e-03,3.623480675742030144e-03,-0.000000000000000000e+00,5.759139894507825375e-04,5.843661725521087646e-03,4.407948814332485199e-03,-0.000000000000000000e+00,5.373171996325254440e-03,5.500921979546546936e-03,2.045490546151995659e-03,5.550099536776542664e-03,7.349865976721048355e-03,1.926422737597022206e-05,7.612572982907295227e-03
-0.000000000000000000e+00,1.695124199613928795e-03,5.013848654925823212e-03,2.036778721958398819e-03,-0.000000000000000000e+00,-0.000000000000000000e+00,2.546435920521616936e-03,3.186516929417848587e-03,-0.000000000000000000e+00,1.356895081698894501e-03,-0.000000000000000000e+00,5.587054416537284851e-03,-0.000000000000000000e+00,-0.000000000000000000e+00,3.034242661669850349e-03,-0.000000000000000000e+00,8.327671675942838192e-04,-0.000000000000000000e+00,5.258146207779645920e-03,3.132939105853438377e-03,3.646958852186799049e-03,7.602130994200706482e-03,2.183343749493360519e-03,-0.000000000000000000e+00,8.228620863519608974e-04,-0.000000000000000000e+00,2.028569811955094337e-03,-0.000000000000000000e+00,-0.000000000000000000e+00,-0.000000000000000000e+00,8.361236541531980038e-04,7.242822088301181793e-03,5.475433077663183212e-03,9.643747471272945404e-04,3.107227850705385208e-03,7.315222173929214478e-03,2.044594613835215569e-03,1.324155833572149277e-03,-0.000000000000000000e+00,-0.000000000000000000e+00,-0.000000000000000000e+00,2.600572537630796432e-03,2.594945486634969711e-03,5.354611668735742569e-03,1.704851048998534679e-03,-0.000000000000000000e+00,2.079215628327801824e-04,4.701773636043071747e-03,-0.000000000000000000e+00,-0.000000000000000000e+00,1.252199755981564522e-03,-0.000000000000000000e+00,-0.000000000000000000e+00,-0.000000000000000000e+00,-0.000000000000000000e+00,-0.000000000000000000e+00,-0.000000000000000000e+00,2.333632670342922211e-03,-0.000000000000000000e+00,-0.000000000000000000e+00,1.323967240750789642e-03,3.603584831580519676e-03,-0.000000000000000000e+00,-0.000000000000000000e+00
2.910331590101122856e-03,-0.000000000000000000e+00,6.989130750298500061e-03,-0.000000000000000000e+00,1.786900102160871029e-03,-0.000000000000000000e+00,-0.000000000000000000e+00,-0.000000000000000000e+00,-0.000000000000000000e+00,-0.000000000000000000e+00,3.781546372920274734e-03,-0.000000000000000000e+00,2.785835415124893188e-03,2.300251740962266922e-03,-0.000000000000000000e+00,-0.000000000000000000e+00,5.454946309328079224e-03,-0.000000000000000000e+00,1.374450977891683578e-03,-0.000000000000000000e+00,3.960959613323211670e-03,-0.000000000000000000e+00,-0.000000000000000000e+00,-0.000000000000000000e+00,2.680312318261712790e-04,-0.000000000000000000e+00,-0.000000000000000000e+00,1.522965729236602783e-03,-0.000000000000000000e+00,-0.000000000000000000e+00,3.386419732123613358e-03,-0.000000000000000000e+00,-0.000000000000000000e+00,1.799731864593923092e-03,-0.000000000000000000e+00,1.491644885390996933e-03,5.676638800650835037e-03,2.779249101877212524e-03,-0.000000000000000000e+00,-0.000000000000000000e+00,1.471326570026576519e-03,-0.000000000000000000e+00,4.989749751985073090e-03,6.028187461197376251e-03,-0.000000000000000000e+00,6.960975937545299530e-03,-0.000000000000000000e+00,1.560640521347522736e-03,2.802606439217925072e-03,-0.000000000000000000e+00,-0.000000000000000000e+00,6.642106745857745409e-05,1.396310981363058090e-04,-0.000000000000000000e+00,-0.000000000000000000e+00,8.488947059959173203e-04,7.164790295064449310e-03,2.873261400964111090e-04,2.896785968914628029e-03,-0.000000000000000000e+00,-0.000000000000000000e+00,-0.000000000000000000e+00,-0.000000000000000000e+00,5.863751284778118134e-03
-0.000000000000000000e+00,3.195451572537422180e-03,-0.000000000000000000e+00,5.864081904292106628e-04,-0.000000000000000000e+00,1.250626868568360806e-03,-0.000000000000000000e+00,3.341547911986708641e-03,-0.000000000000000000e+00,4.968082648701965809e-04,6.843363400548696518e-03,6.904508452862501144e-03,-0.000000000000000000e+00,-0.000000000000000000e+00,-0.000000000000000000e+00,-0.000000000000000000e+00,-0.000000000000000000e+00,6.340112071484327316e-03,-0.000000000000000000e+00,-0.000000000000000000e+00,-0.000000000000000000e+00,2.456373069435358047e-03,-0.000000000000000000e+00,6.748941726982593536e-03,-0.000000000000000000e+00,-0.000000000000000000e+00,-0.000000000000000000e+00,2.885313238948583603e-03,5.063944961875677109e-03,4.072926472872495651e-03,-0.000000000000000000e+00,6.237355060875415802e-03,-0.000000000000000000e+00,-0.000000000000000000e+00,5.152734462171792984e-03,-0.000000000000000000e+00,6.825155578553676605e-04,3.439829684793949127e-03,5.624278448522090912e-03,5.808934103697538376e-03,-0.000000000000000000e+00,-0.000000000000000000e+00,4.584748297929763794e-03,-0.000000000000000000e+00,6.930786184966564178e-03,-0.000000000000000000e+00,4.115804098546504974e-03,5.516794975847005844e-03,-0.000000000000000000e+00,-0.000000000000000000e+00,-0.000000000000000000e+00,5.159863736480474472e-03,-0.000000000000000000e+00,3.189965616911649704e-03,5.179915577173233032e-03,-0.000000000000000000e+00,2.319875406101346016e-03,7.011655252426862717e-03,-0.000000000000000000e+00,-0.000000000000000000e+00,7.422948256134986877e-03,6.492955144494771957e-03,3.185398411005735397e-03,6.067554932087659836e-03
6.119795609265565872e-03,4.990250337868928909e-03,6.006826646625995636e-03,4.606205504387617111e-03,-0.000000000000000000e+00,1.341378316283226013e-03,2.543095964938402176e-03,1.388905569911003113e-03,4.484727047383785248e-03,6.785397417843341827e-03,6.925506834676298240e-09,9.295490031036024448e-07,2.027547685429453850e-03,-0.000000000000000000e+00,3.972716163843870163e-03,-0.000000000000000000e+00,-0.000000000000000000e+00,6.927946582436561584e-03,7.018568925559520721e-03,2.423831801934284158e-06,4.971601068973541260e-03,7.203084416687488556e-03,1.822537305997684598e-04,4.665617365390062332e-03,5.926395300775766373e-03,5.508553702384233475e-03,3.201114945113658905e-03,-0.000000000000000000e+00,7.030387874692678452e-03,1.009049825370311737e-03,-0.000000000000000000e+00,1.039310632222623099e-06,6.505898199975490570e-03,3.371873754076659679e-05,2.254943596199154854e-03,4.892090335488319397e-03,4.312563221901655197e-03,2.141175791621208191e-03,-0.000000000000000000e+00,1.398813212290406227e-03,2.985709114000201225e-03,2.153436980734113604e-05,8.825074182823300362e-04,-0.000000000000000000e+00,-0.000000000000000000e+00,3.016854170709848404e-04,2.344579115742817521e-04,-0.000000000000000000e+00,4.578770138323307037e-03,-0.000000000000000000e+00,9.090804378502070904e-04,4.428069572895765305e-03,1.337273133685812354e-04,1.745352521538734436e-03,1.734786637825891376e-04,1.565219485200941563e-03,-0.000000000000000000e+00,2.959049073979258537e-03,-0.000000000000000000e+00,8.210715837776660919e-03,5.880320095457136631e-04,9.661807562224566936e-04,3.109292127192020416e-03,3.314365632832050323e-03
5.789365619421005249e-03,-0.000000000000000000e+00,1.411697641015052795e-02,3.520440077409148216e-03,5.200948100537061691e-03,3.450404852628707886e-03,2.485448727384209633e-03,9.963775984942913055e-03,6.103106308728456497e-03,4.745990969240665436e-03,1.496409396395392832e-07,2.007795410463586450e-05,-0.000000000000000000e+00,-0.000000000000000000e+00,9.104943501370144077e-07,-0.000000000000000000e+00,-0.000000000000000000e+00,1.423028483986854553e-02,1.409649939887458459e-05,5.031952634453773499e-03,1.550651388242840767e-03,5.352837964892387390e-03,3.543064231052994728e-04,4.530724138021469116e-03,4.025327200452011311e-07,2.126104300259612501e-05,-0.000000000000000000e+00,-0.000000000000000000e+00,5.908717401325702667e-03,3.002961864694952965e-03,3.606092650443315506e-04,1.245033786290150601e-06,3.363705240190029144e-03,8.180198346963152289e-05,5.820970982313156128e-03,1.945481699294759892e-06,1.572631765156984329e-03,4.218800459057092667e-03,3.081850009039044380e-04,-0.000000000000000000e+00,-0.000000000000000000e+00,4.399559111334383488e-05,1.930184662342071533e-03,6.876310362713411450e-05,-0.000000000000000000e+00,4.993014968931674957e-03,4.889280535280704498e-04,-0.000000000000000000e+00,8.569110650569200516e-05,2.185128163546323776e-03,-0.000000000000000000e+00,1.590251177549362183e-02,1.719717402011156082e-03,4.346951300249202177e-06,-0.000000000000000000e+00,7.377303700195625424e-05,-0.000000000000000000e+00,-0.000000000000000000e+00,-0.000000000000000000e+00,6.021674256771802902e-03,1.228693756274878979e-03,2.094759140163660049e-03,6.603490095585584641e-03,9.722684626467525959e-04
-0.000000000000000000e+00,1.219893601955845952e-05,-0.000000000000000000e+00,4.450016655027866364e-03,3.661633934825658798e-03,7.029582280665636063e-03,-0.000000000000000000e+00,8.008510340005159378e-04,7.260835729539394379e-03,-0.000000000000000000e+00,1.955029787495732307e-03,7.370942737907171249e-03,-0.000000000000000000e+00,-0.000000000000000000e+00,1.839597985053842422e-06,1.263897720491513610e-04,1.131715020164847374e-03,-0.000000000000000000e+00,3.453080542385578156e-03,4.169926512986421585e-03,2.950825029984116554e-03,5.424738628789782524e-05,1.117560314014554024e-03,-0.000000000000000000e+00,1.965686351468320936e-05,3.422031877562403679e-03,-0.000000000000000000e+00,5.540773738175630569e-03,-0.000000000000000000e+00,1.023620716296136379e-03,3.332296386361122131e-03,1.026857760734856129e-03,4.617123864591121674e-03,2.230351310572586954e-05,6.925270427018404007e-04,3.382967634024680592e-06,5.489189177751541138e-03,3.457431739661842585e-05,1.487601366534363478e-06,7.464392547262832522e-05,-0.000000000000000000e+00,6.426860578358173370e-03,4.559130407869815826e-03,3.934045322239398956e-03,1.062490773620083928e-04,7.480204571038484573e-03,-0.000000000000000000e+00,4.491368308663368225e-03,1.608240185305476189e-03,-0.000000000000000000e+00,8.530883496860042214e-05,-0.000000000000000000e+00,2.880041254684329033e-03,6.257713306695222855e-03,2.108241198584437370e-03,1.330553914158372208e-05,7.762713939882814884e-04,3.873282548738643527e-05,2.257453706988599151e-05,3.296179464086890221e-03,-0.000000000000000000e+00,4.283656366169452667e-03,8.004386327229440212e-04,-0.000000000000000000e+00
-0.000000000000000000e+00,5.104131996631622314e-03,-0.000000000000000000e+00,-0.000000000000000000e+00,5.147008225321769714e-03,-0.000000000000000000e+00,-0.000000000000000000e+00,-0.000000000000000000e+00,-0.000000000000000000e+00,5.996305495500564575e-03,5.379443988204002380e-03,1.894576030281314161e-06,-0.000000000000000000e+00,6.801152136176824570e-03,7.664991841238588677e-08,1.738562248647212982e-03,6.339516289699531626e-08,1.991369063034653664e-03,2.759025897830724716e-03,7.563077379018068314e-03,9.361777415506367106e-07,1.183775486424565315e-03,-0.000000000000000000e+00,-0.000000000000000000e+00,8.190585845113673713e-07,1.094351542718641213e-08,-0.000000000000000000e+00,3.175518708303570747e-03,-0.000000000000000000e+00,4.394020885229110718e-03,3.983619157224893570e-03,-0.000000000000000000e+00,9.522548793938767631e-08,5.648007150739431381e-03,1.059566372418885294e-07,4.714435897767543793e-03,-0.000000000000000000e+00,1.440622781956335530e-06,5.713649094104766846e-03,4.664836917072534561e-03,8.405120461247861385e-04,2.229079143489798298e-09,1.839499077505024616e-07,6.999182980507612228e-03,4.427432941156439483e-06,3.626425052061676979e-03,-0.000000000000000000e+00,4.237666871631518006e-06,1.738563762046396732e-03,6.128864362835884094e-03,6.344994995743036270e-03,-0.000000000000000000e+00,6.096875295042991638e-03,7.106832228600978851e-03,3.291440894827246666e-03,8.329150732606649399e-04,-0.000000000000000000e+00,1.334207365289330482e-03,9.406110166310099885e-07,1.760402694344520569e-03,-0.000000000000000000e+00,6.042967084795236588e-03,3.798585152253508568e-03,-0.000000000000000000e+00
-0.000000000000000000e+00,-0.000000000000000000e+00,3.636022564023733139e-03,2.697931136935949326e-03,-0.000000000000000000e+00,-0.000000000000000000e+00,-0.000000000000000000e+00,-0.000000000000000000e+00,-0.000000000000000000e+00,-0.000000000000000000e+00,-0.000000000000000000e+00,-0.000000000000000000e+00,-0.000000000000000000e+00,1.621123868972063065e-03,7.220259401947259903e-03,-0.000000000000000000e+00,6.925553083419799805e-03,7.488356437534093857e-03,-0.000000000000000000e+00,-0.000000000000000000e+00,-0.000000000000000000e+00,3.063640091568231583e-03,-0.000000000000000000e+00,5.213928874582052231e-03,-0.000000000000000000e+00,-0.000000000000000000e+00,-0.000000000000000000e+00,-0.000000000000000000e+00,-0.000000000000000000e+00,6.508911494165658951e-03,-0.000000000000000000e+00,6.944929249584674835e-03,-0.000000000000000000e+00,5.019062198698520660e-03,6.339718820527195930e-04,7.171557750552892685e-03,5.181658081710338593e-03,2.169153303839266300e-04,7.147452794015407562e-03,6.593583617359399796e-03,3.442659217398613691e-04,-0.000000000000000000e+00,-0.000000000000000000e+00,1.242981641553342342e-03,5.166385322809219360e-03,7.100014481693506241e-04,5.495620425790548325e-03,-0.000000000000000000e+00,3.107761265709996223e-03,2.072814386337995529e-03,1.975350460270419717e-04,-0.000000000000000000e+00,4.951641429215669632e-03,4.120837431401014328e-03,-0.000000000000000000e+00,-0.000000000000000000e+00,-0.000000000000000000e+00,-0.000000000000000000e+00,-0.000000000000000000e+00,1.779399928636848927e-03,1.006692647933959961e-03,-0.000000000000000000e+00,-0.000000000000000000e+00,-0.000000000000000000e+00
4.171338863670825958e-03,3.152489895001053810e-03,5.653075641021132469e-04,2.223238581791520119e-03,1.391899422742426395e-03,-0.000000000000000000e+00,-0.000000000000000000e+00,-0.000000000000000000e+00,-0.000000000000000000e+00,3.991344012320041656e-03,5.570629145950078964e-03,4.992610774934291840e-04,-0.000000000000000000e+00,8.717213640920817852e-04,2.837164560332894325e-03,-0.000000000000000000e+00,-0.000000000000000000e+00,-0.000000000000000000e+00,-0.000000000000000000e+00,-0.000000000000000000e+00,3.556468058377504349e-03,3.142454894259572029e-03,-0.000000000000000000e+00,4.808397032320499420e-03,4.815136548131704330e-03,6.183693185448646545e-03,-0.000000000000000000e+00,3.631444647908210754e-03,2.415211638435721397e-03,5.359984468668699265e-03,2.685559913516044617e-03,4.223009105771780014e-03,1.620448427274823189e-03,4.093784838914871216e-03,6.523458287119865417e-03,-0.000000000000000000e+00,-0.000000000000000000e+00,2.194783184677362442e-03,4.868993069976568222e-03,-0.000000000000000000e+00,7.396592758595943451e-03,-0.000000000000000000e+00,1.953933387994766235e-03,-0.000000000000000000e+00,7.283851504325866699e-03,-0.000000000000000000e+00,4.024404101073741913e-03,-0.000000000000000000e+00,4.560209810733795166e-03,1.181448344141244888e-03,-0.000000000000000000e+00,4.153568297624588013e-03,2.964741084724664688e-03,4.339972510933876038e-03,6.976238451898097992e-03,-0.000000000000000000e+00,-0.000000000000000000e+00,-0.000000000000000000e+00,-0.000000000000000000e+00,2.946490421891212463e-03,7.050558924674987793e-03,-0.000000000000000000e+00,7.220409810543060303e-03,-0.000000000000000000e+00
4.930916242301464081e-03,1.887698308564722538e-03,3.341878764331340790e-03,-0.000000000000000000e+00,-0.000000000000000000e+00,-0.000000000000000000e+00,6.254774518311023712e-03,1.922655152156949043e-03,-0.000000000000000000e+00,4.310649819672107697e-03,5.523778498172760010e-03,3.964614123106002808e-03,3.788237925618886948e-03,-0.000000000000000000e+00,-0.000000000000000000e+00,-0.000000000000000000e+00,9.032391244545578957e-04,4.161940421909093857e-03,-0.000000000000000000e+00,-0.000000000000000000e+00,-0.000000000000000000e+00,2.457792637869715691e-03,-0.000000000000000000e+00,-0.000000000000000000e+00,-0.000000000000000000e+00,-0.000000000000000000e+00,-0.000000000000000000e+00,6.918184459209442139e-03,-0.000000000000000000e+00,-0.000000000000000000e+00,-0.000000000000000000e+00,3.881699871271848679e-03,-0.000000000000000000e+00,-0.000000000000000000e+00,-0.000000000000000000e+00,-0.000000000000000000e+00,-0.000000000000000000e+00,-0.000000000000000000e+00,-0.000000000000000000e+00,6.452181842178106308e-03,-0.000000000000000000e+00,3.810856651398353279e-05,-0.000000000000000000e+00,-0.000000000000000000e+00,6.588814314454793930e-03,-0.000000000000000000e+00,-0.000000000000000000e+00,2.886378671973943710e-03,4.284267197363078594e-04,2.968186745420098305e-03,-0.000000000000000000e+00,6.289219018071889877e-04,2.010168827837333083e-05,-0.000000000000000000e+00,5.370880011469125748e-03,3.224869215046055615e-05,-0.000000000000000000e+00,-0.000000000000000000e+00,5.160795990377664566e-03,7.214963901787996292e-03,4.706330655608326197e-04,-0.000000000000000000e+00,1.792275579646229744e-04,4.038578830659389496e-03
5.952828098088502884e-03,-0.000000000000000000e+00,-0.000000000000000000e+00,-0.000000000000000000e+00,-0.000000000000000000e+00,2.125205704942345619e-03,1.134637743234634399e-03,8.191438973881304264e-04,-0.000000000000000000e+00,6.334820296615362167e-03,1.934487256221473217e-03,8.156299736583605409e-05,-0.000000000000000000e+00,-0.000000000000000000e+00,-0.000000000000000000e+00,2.780735492706298828e-03,5.697893793694674969e-04,-0.000000000000000000e+00,-0.000000000000000000e+00,-0.000000000000000000e+00,-0.000000000000000000e+00,1.580359181389212608e-03,2.647418761625885963e-03,4.615148995071649551e-03,6.671859417110681534e-03,-0.000000000000000000e+00,-0.000000000000000000e+00,-0.000000000000000000e+00,-0.000000000000000000e+00,-0.000000000000000000e+00,6.939294282346963882e-03,-0.000000000000000000e+00,-0.000000000000000000e+00,3.006368177011609077e-03,4.243182949721813202e-03,-0.000000000000000000e+00,-0.000000000000000000e+00,3.675786312669515610e-03,5.444122012704610825e-03,1.630976446904242039e-03,-0.000000000000000000e+00,-0.000000000000000000e+00,4.742895253002643585e-03,6.594688165932893753e-03,-0.000000000000000000e+00,1.683534821495413780e-03,6.357559934258460999e-03,-0.000000000000000000e+00,-0.000000000000000000e+00,1.060528098605573177e-03,-0.000000000000000000e+00,-0.000000000000000000e+00,-0.000000000000000000e+00,-0.000000000000000000e+00,6.936225108802318573e-03,-0.000000000000000000e+00,-0.000000000000000000e+00,4.032598342746496201e-03,2.772033680230379105e-03,4.356616642326116562e-03,-0.000000000000000000e+00,6.963476771488785744e-04,-0.000000000000000000e+00,-0.000000000000000000e+00
6.385640590451657772e-04,3.195178229361772537e-03,7.222940679639577866e-03,-0.000000000000000000e+00,-0.000000000000000000e+00,-0.000000000000000000e+00,-0.000000000000000000e+00,-0.000000000000000000e+00,-0.000000000000000000e+00,-0.000000000000000000e+00,-0.000000000000000000e+00,4.380746744573116302e-03,-0.000000000000000000e+00,3.445768728852272034e-03,4.935109987854957581e-03,5.747525952756404877e-03,3.094300394877791405e-03,-0.000000000000000000e+00,3.248316934332251549e-03,4.801628645509481430e-03,5.406198557466268539e-03,6.920153973624110222e-04,-0.000000000000000000e+00,6.379307247698307037e-03,5.866478895768523216e-04,-0.000000000000000000e+00,5.815565236844122410e-04,-0.000000000000000000e+00,-0.000000000000000000e+00,-0.000000000000000000e+00,6.675139535218477249e-03,-0.000000000000000000e+00,-0.000000000000000000e+00,3.812547656707465649e-04,6.560407113283872604e-03,-0.000000000000000000e+00,7.553086616098880768e-03,6.194690242409706116e-03,6.239552050828933716e-03,-0.000000000000000000e+00,-0.000000000000000000e+00,7.986638229340314865e-04,-0.000000000000000000e+00,-0.000000000000000000e+00,-0.000000000000000000e+00,-0.000000000000000000e+00,-0.000000000000000000e+00,5.056702066212892532e-03,-0.000000000000000000e+00,3.504734253510832787e-03,-0.000000000000000000e+00,5.500286817550659180e-03,-0.000000000000000000e+00,6.499292067019268870e-05,2.504141302779316902e-03,6.157627329230308533e-03,5.556831136345863342e-03,-0.000000000000000000e+00,4.747280851006507874e-03,-0.000000000000000000e+00,-0.000000000000000000e+00,1.709353877231478691e-03,6.021114066243171692e-03,7.486311253160238266e-03
-0.000000000000000000e+00,-0.000000000000000000e+00,5.412722937762737274e-03,4.734942689538002014e-03,-0.000000000000000000e+00,-0.000000000000000000e+00,-0.000000000000000000e+00,-0.000000000000000000e+00,4.313169047236442566e-03,-0.000000000000000000e+00,-0.000000000000000000e+00,4.472411237657070160e-03,-0.000000000000000000e+00,-0.000000000000000000e+00,-0.000000000000000000e+00,-0.000000000000000000e+00,-0.000000000000000000e+00,2.452046144753694534e-03,2.098553959513083100e-04,6.278198212385177612e-03,5.224766675382852554e-03,9.636789327487349510e-04,-0.000000000000000000e+00,-0.000000000000000000e+00,7.226807996630668640e-03,-0.000000000000000000e+00,-0.000000000000000000e+00,-0.000000000000000000e+00,-0.000000000000000000e+00,5.726625211536884308e-03,-0.000000000000000000e+00,-0.000000000000000000e+00,-0.000000000000000000e+00,-0.000000000000000000e+00,-0.000000000000000000e+00,1.825114712119102478e-03,-0.000000000000000000e+00,-0.000000000000000000e+00,-0.000000000000000000e+00,-0.000000000000000000e+00,2.557186235208064318e-04,-0.000000000000000000e+00,-0.000000000000000000e+00,6.798642687499523163e-03,-0.000000000000000000e+00,-0.000000000000000000e+00,-0.000000000000000000e+00,6.786932237446308136e-03,-0.000000000000000000e+00,-0.000000000000000000e+00,-0.000000000000000000e+00,-0.000000000000000000e+00,-0.000000000000000000e+00,4.385582171380519867e-03,-0.000000000000000000e+00,-0.000000000000000000e+00,-0.000000000000000000e+00,-0.000000000000000000e+00,-0.000000000000000000e+00,1.315954257734119892e-03,7.116957101970911026e-03,-0.000000000000000000e+00,-0.000000000000000000e+00,-0.000000000000000000e+00
-0.000000000000000000e+00,-0.000000000000000000e+00,-0.000000000000000000e+00,3.309577004984021187e-04,-0.000000000000000000e+00,7.127624470740556717e-03,4.608756396919488907e-03,3.130490658804774284e-03,-0.000000000000000000e+00,-0.000000000000000000e+00,-0.000000000000000000e+00,7.924303645268082619e-04,-0.000000000000000000e+00,1.900683622807264328e-03,2.462561009451746941e-03,-0.000000000000000000e+00,3.807656757999211550e-04,3.422908717766404152e-03,-0.000000000000000000e+00,-0.000000000000000000e+00,7.028840947896242142e-03,7.533657364547252655e-03,1.577678602188825607e-03,1.350728212855756283e-03,4.854155238717794418e-03,2.087032771669328213e-04,6.270620040595531464e-03,4.210973158478736877e-03,-0.000000000000000000e+00,-0.000000000000000000e+00,-0.000000000000000000e+00,5.785485263913869858e-03,-0.000000000000000000e+00,-0.000000000000000000e+00,-0.000000000000000000e+00,5.132763646543025970e-03,-0.000000000000000000e+00,-0.000000000000000000e+00,-0.000000000000000000e+00,6.693931296467781067e-03,1.073660096153616905e-03,6.929526105523109436e-03,-0.000000000000000000e+00,-0.000000000000000000e+00,-0.000000000000000000e+00,-0.000000000000000000e+00,4.922572989016771317e-03,4.837259184569120407e-03,3.677545348182320595e-03,4.166835453361272812e-03,3.735800273716449738e-03,-0.000000000000000000e+00,5.852897651493549347e-03,2.548605436459183693e-03,-0.000000000000000000e+00,-0.000000000000000000e+00,4.697393160313367844e-03,6.491655367426574230e-04,-0.000000000000000000e+00,-0.000000000000000000e+00,-0.000000000000000000e+00,4.447915591299533844e-03,1.832328387536108494e-03,1.737000886350870132e-03
5.069372244179248810e-03,-0.000000000000000000e+00,1.618378330022096634e-03,4.689160268753767014e-03,-0.000000000000000000e+00,1.453480799682438374e-03,5.999999586492776871e-03,-0.000000000000000000e+00,6.029585842043161392e-03,-0.000000000000000000e+00,-0.000000000000000000e+00,-0.000000000000000000e+00,3.703308990225195885e-03,4.110425245016813278e-03,-0.000000000000000000e+00,2.221505856141448021e-03,-0.000000000000000000e+00,1.808870816603302956e-03,-0.000000000000000000e+00,5.974583793431520462e-03,4.224093630909919739e-03,2.525428077206015587e-03,6.334905046969652176e-03,1.603773911483585835e-03,3.079171990975737572e-03,-0.000000000000000000e+00,-0.000000000000000000e+00,-0.000000000000000000e+00,5.917973350733518600e-03,-0.000000000000000000e+00,-0.000000000000000000e+00,1.766241737641394138e-03,-0.000000000000000000e+00,-0.000000000000000000e+00,2.227403223514556885e-03,-0.000000000000000000e+00,-0.000000000000000000e+00,3.866201732307672501e-04,3.139782929793000221e-03,3.924382384866476059e-03,-0.000000000000000000e+00,7.289391010999679565e-03,-0.000000000000000000e+00,8.350051939487457275e-04,-0.000000000000000000e+00,-0.000000000000000000e+00,-0.000000000000000000e+00,-0.000000000000000000e+00,1.009149244055151939e-03,1.248111511813476682e-04,-0.000000000000000000e+00,-0.000000000000000000e+00,-0.000000000000000000e+00,-0.000000000000000000e+00,1.369300764054059982e-03,6.170358043164014816e-03,1.309455488808453083e-03,-0.000000000000000000e+00,6.565470714122056961e-03,-0.000000000000000000e+00,-0.000000000000000000e+00,1.836977899074554443e-03,4.015341866761445999e-03,6.324912887066602707e-03
-0.000000000000000000e+00,-0.000000000000000000e+00,2.515091327950358391e-03,5.938850808888673782e-04,-0.000000000000000000e+00,-0.000000000000000000e+00,3.186746733263134956e-03,-0.000000000000000000e+00,-0.000000000000000000e+00,-0.000000000000000000e+00,-0.000000000000000000e+00,-0.000000000000000000e+00,-0.000000000000000000e+00,3.220223821699619293e-03,-0.000000000000000000e+00,2.985211322084069252e-04,1.213668612763285637e-03,-0.000000000000000000e+00,3.419588087126612663e-03,-0.000000000000000000e+00,-0.000000000000000000e+00,-0.000000000000000000e+00,5.680254194885492325e-03,6.579746492207050323e-03,3.394277067855000496e-03,-0.000000000000000000e+00,-0.000000000000000000e+00,6.187925580888986588e-03,6.513630505651235580e-03,-0.000000000000000000e+00,4.124349914491176605e-03,3.342274110764265060e-03,-0.000000000000000000e+00,7.303102407604455948e-03,2.162588993087410927e-03,-0.000000000000000000e+00,8.475313661620020866e-04,3.367566270753741264e-03,-0.000000000000000000e+00,-0.000000000000000000e+00,-0.000000000000000000e+00,7.607802283018827438e-03,2.872127573937177658e-03,-0.000000000000000000e+00,-0.000000000000000000e+00,-0.000000000000000000e+00,-0.000000000000000000e+00,-0.000000000000000000e+00,-0.000000000000000000e+00,-0.000000000000000000e+00,3.679924178868532181e-03,-0.000000000000000000e+00,-0.000000000000000000e+00,-0.000000000000000000e+00,1.229394809342920780e-03,-0.000000000000000000e+00,1.503678155131638050e-03,2.806882606819272041e-03,3.714158199727535248e-03,6.058162078261375427e-03,4.823952913284301758e-03,-0.000000000000000000e+00,-0.000000000000000000e+00,5.988394375890493393e-03
5.456334445625543594e-03,-0.000000000000000000e+00,3.121073532383888960e-04,1.941830501891672611e-03,-0.000000000000000000e+00,7.572489557787775993e-04,4.252338316291570663e-03,5.338012240827083588e-03,-0.000000000000000000e+00,-0.000000000000000000e+00,6.545762065798044205e-03,-0.000000000000000000e+00,6.961882114410400391e-03,-0.000000000000000000e+00,4.650693852454423904e-03,-0.000000000000000000e+00,2.951953327283263206e-03,6.236745510250329971e-03,-0.000000000000000000e+00,4.682304803282022476e-03,7.630356587469577789e-03,3.578719624783843756e-04,2.459600218571722507e-04,4.526083357632160187e-03,-0.000000000000000000e+00,6.574729457497596741e-03,1.433669240213930607e-04,2.585466951131820679e-03,-0.000000000000000000e+00,-0.000000000000000000e+00,-0.000000000000000000e+00,2.964233281090855598e-03,7.062477059662342072e-03,-0.000000000000000000e+00,1.558985444717109203e-03,5.924906581640243530e-03,1.964079216122627258e-03,-0.000000000000000000e+00,-0.000000000000000000e+00,4.544313531368970871e-03,-0.000000000000000000e+00,-0.000000000000000000e+00,-0.000000000000000000e+00,7.218944840133190155e-03,3.252344438806176186e-03,-0.000000000000000000e+00,-0.000000000000000000e+00,1.628835103474557400e-03,6.760778371244668961e-03,-0.000000000000000000e+00,-0.000000000000000000e+00,5.664671305567026138e-03,2.518634777516126633e-03,-0.000000000000000000e+00,7.716945838183164597e-04,6.915775127708911896e-03,-0.000000000000000000e+00,5.030360072851181030e-03,3.411221550777554512e-03,-0.000000000000000000e+00,3.480335231870412827e-03,-0.000000000000000000e+00,2.227930817753076553e-03,4.446588922291994095e-03
4.040658473968505859e-03,6.158991716802120209e-03,-0.000000000000000000e+00,4.005355294793844223e-03,2.994683338329195976e-03,4.891676828265190125e-03,-0.000000000000000000e+00,-0.000000000000000000e+00,-0.000000000000000000e+00,-0.000000000000000000e+00,-0.000000000000000000e+00,4.276819527149200439e-03,-0.000000000000000000e+00,5.279907491058111191e-03,-0.000000000000000000e+00,-0.000000000000000000e+00,-0.000000000000000000e+00,-0.000000000000000000e+00,2.657432924024760723e-04,1.501880935393273830e-03,7.499782368540763855e-03,-0.000000000000000000e+00,-0.000000000000000000e+00,-0.000000000000000000e+00,6.734313443303108215e-03,4.719648975878953934e-03,5.004804581403732300e-03,2.115141833201050758e-03,3.769696224480867386e-03,2.814177423715591431e-04,1.156058977358043194e-03,1.470172428525984287e-03,-0.000000000000000000e+00,-0.000000000000000000e+00,-0.000000000000000000e+00,5.248348228633403778e-03,3.397388616576790810e-03,2.537034684792160988e-03,-0.000000000000000000e+00,2.821148606017231941e-03,-0.000000000000000000e+00,5.820055957883596420e-03,-0.000000000000000000e+00,-0.000000000000000000e+00,2.027446404099464417e-03,1.113526988774538040e-03,-0.000000000000000000e+00,1.714141573756933212e-03,4.291225224733352661e-03,-0.000000000000000000e+00,5.684755742549896240e-03,4.319607978686690331e-04,4.347555339336395264e-03,1.020098337903618813e-03,3.035238711163401604e-03,4.469125997275114059e-05,6.240724585950374603e-03,3.329030005261301994e-03,1.121424487791955471e-03,1.619159360416233540e-03,-0.000000000000000000e+00,-0.000000000000000000e+00,-0.000000000000000000e+00,-0.000000000000000000e+00
6.614680169150233269e-04,-0.000000000000000000e+00,1.259371289052069187e-03,-0.000000000000000000e+00,-0.000000000000000000e+00,-0.000000000000000000e+00,5.444325041025876999e-03,3.645729040727019310e-03,1.694364909781143069e-04,-0.000000000000000000e+00,3.348190570250153542e-03,-0.000000000000000000e+00,5.316825583577156067e-03,-0.000000000000000000e+00,3.139730077236890793e-03,-0.000000000000000000e+00,-0.000000000000000000e+00,-0.000000000000000000e+00,-0.000000000000000000e+00,6.624711211770772934e-03,-0.000000000000000000e+00,2.222321229055523872e-03,5.999938119202852249e-03,-0.000000000000000000e+00,2.556573599576950073e-03,6.230339407920837402e-03,-0.000000000000000000e+00,4.204057157039642334e-03,-0.000000000000000000e+00,-0.000000000000000000e+00,7.525777909904718399e-03,7.614076603204011917e-03,5.929318722337484360e-03,-0.000000000000000000e+00,-0.000000000000000000e+00,-0.000000000000000000e+00,-0.000000000000000000e+00,-0.000000000000000000e+00,-0.000000000000000000e+00,1.781250117346644402e-03,7.845476502552628517e-04,2.947824308648705482e-03,-0.000000000000000000e+00,6.503429729491472244e-03,-0.000000000000000000e+00,-0.000000000000000000e+00,1.974161714315414429e-03,6.755106733180582523e-04,1.179038546979427338e-03,-0.000000000000000000e+00,-0.000000000000000000e+00,3.038105322048068047e-03,3.981446847319602966e-03,4.849251825362443924e-03,4.718265030533075333e-03,-0.000000000000000000e+00,7.465535309165716171e-03,3.794304560869932175e-03,-0.000000000000000000e+00,-0.000000000000000000e+00,-0.000000000000000000e+00,6.144853308796882629e-03,1.705812988802790642e-03,7.051102584227919579e-04
7.457620929926633835e-03,-0.000000000000000000e+00,-0.000000000000000000e+00,7.294771727174520493e-03,3.468328854069113731e-03,5.305692553520202637e-03,5.568609572947025299e-03,3.797972807660698891e-03,5.522544495761394501e-03,5.520517472177743912e-03,3.824894316494464874e-03,3.972566686570644379e-03,4.462823737412691116e-03,-0.000000000000000000e+00,3.510763053782284260e-04,-0.000000000000000000e+00,3.302867058664560318e-03,6.084368564188480377e-03,-0.000000000000000000e+00,5.839798133820295334e-03,-0.000000000000000000e+00,7.234110496938228607e-03,-0.000000000000000000e+00,-0.000000000000000000e+00,-0.000000000000000000e+00,-0.000000000000000000e+00,-0.000000000000000000e+00,-0.000000000000000000e+00,1.027110498398542404e-03,-0.000000000000000000e+00,7.011520210653543472e-03,-0.000000000000000000e+00,-0.000000000000000000e+00,-0.000000000000000000e+00,-0.000000000000000000e+00,-0.000000000000000000e+00,2.535278443247079849e-03,5.912809632718563080e-03,7.291274610906839371e-03,5.010100547224283218e-03,6.965768523514270782e-03,8.542549330741167068e-04,2.951170783489942551e-03,5.229701055213809013e-04,-0.000000000000000000e+00,-0.000000000000000000e+00,-0.000000000000000000e+00,2.307721413671970367e-03,9.715647320263087749e-04,-0.000000000000000000e+00,1.001198615995235741e-04,1.175789278931915760e-03,3.066881792619824409e-03,8.223871118389070034e-04,4.917959216982126236e-03,4.833394661545753479e-03,2.942887600511312485e-03,6.026925984770059586e-03,2.983692102134227753e-03,-0.000000000000000000e+00,1.461346633732318878e-03,3.862697863951325417e-03,-0.000000000000000000e+00,-0.000000000000000000e+00
-0.000000000000000000e+00,-0.000000000000000000e+00,4.885977599769830704e-03,-0.000000000000000000e+00,3.596880473196506500e-03,-0.000000000000000000e+00,3.534561488777399063e-03,-0.000000000000000000e+00,2.789822639897465706e-03,-0.000000000000000000e+00,3.052141517400741577e-03,4.997978452593088150e-03,2.867282368242740631e-03,-0.000000000000000000e+00,1.638826506678014994e-04,7.327329367399215698e-03,6.729835644364356995e-03,5.528298206627368927e-03,-0.000000000000000000e+00,2.392718670307658613e-05,-0.000000000000000000e+00,7.510433439165353775e-03,-0.000000000000000000e+00,-0.000000000000000000e+00,-0.000000000000000000e+00,-0.000000000000000000e+00,5.821858067065477371e-04,-0.000000000000000000e+00,5.795745179057121277e-03,2.993339672684669495e-03,-0.000000000000000000e+00,3.812876995652914047e-03,3.145121969282627106e-03,-0.000000000000000000e+00,-0.000000000000000000e+00,1.008736435323953629e-03,5.962528288364410400e-03,5.314045585691928864e-03,6.603083573281764984e-03,2.968302927911281586e-03,4.227597732096910477e-03,2.666107844561338425e-03,1.948589109815657139e-03,7.431275676935911179e-03,1.122363028116524220e-03,7.082578260451555252e-03,5.824647378176450729e-03,3.718627383932471275e-03,-0.000000000000000000e+00,-0.000000000000000000e+00,6.484829355031251907e-03,5.558169446885585785e-03,-0.000000000000000000e+00,9.986831573769450188e-04,-0.000000000000000000e+00,-0.000000000000000000e+00,-0.000000000000000000e+00,-0.000000000000000000e+00,3.753132419660687447e-03,-0.000000000000000000e+00,4.678254481405019760e-03,2.768813399598002434e-03,6.783233955502510071e-03,7.341540884226560593e-03
-0.000000000000000000e+00,4.482925869524478912e-04,4.823156632483005524e-03,5.404294934123754501e-03,-0.000000000000000000e+00,-0.000000000000000000e+00,-0.000000000000000000e+00,3.669950412586331367e-03,-0.000000000000000000e+00,-0.000000000000000000e+00,6.351694930344820023e-03,6.004623603075742722e-03,-0.000000000000000000e+00,1.407794887199997902e-03,-0.000000000000000000e+00,4.485786426812410355e-03,2.335912315174937248e-03,-0.000000000000000000e+00,4.931460600346326828e-03,-0.000000000000000000e+00,7.938930066302418709e-04,4.038786515593528748e-03,1.707533607259392738e-03,3.116620937362313271e-03,6.669295486062765121e-03,1.434209058061242104e-03,5.553212482482194901e-03,3.626031801104545593e-03,5.636674351990222931e-03,9.154572617262601852e-04,-0.000000000000000000e+00,-0.000000000000000000e+00,-0.000000000000000000e+00,-0.000000000000000000e+00,-0.000000000000000000e+00,-0.000000000000000000e+00,5.686608143150806427e-03,1.627008168725296855e-05,-0.000000000000000000e+00,-0.000000000000000000e+00,-0.000000000000000000e+00,-0.000000000000000000e+00,7.294793031178414822e-04,-0.000000000000000000e+00,7.126743905246257782e-03,-0.000000000000000000e+00,4.651122726500034332e-03,2.486823592334985733e-03,7.340436801314353943e-03,-0.000000000000000000e+00,1.647610450163483620e-03,-0.000000000000000000e+00,3.925720695406198502e-03,-0.000000000000000000e+00,-0.000000000000000000e+00,-0.000000000000000000e+00,-0.000000000000000000e+00,-0.000000000000000000e+00,6.012353114783763885e-03,3.662811825051903725e-03,3.732173703610897064e-03,3.256107913330197334e-03,-0.000000000000000000e+00,2.537880558520555496e-03
-0.000000000000000000e+00,-0.000000000000000000e+00,-0.000000000000000000e+00,-0.000000000000000000e+00,-0.000000000000000000e+00,-0.000000000000000000e+00,-0.000000000000000000e+00,-0.000000000000000000e+00,-0.000000000000000000e+00,-0.000000000000000000e+00,1.927906298078596592e-03,-0.000000000000000000e+00,-0.000000000000000000e+00,-0.000000000000000000e+00,-0.000000000000000000e+00,-0.000000000000000000e+00,-0.000000000000000000e+00,9.562610066495835781e-04,-0.000000000000000000e+00,-0.000000000000000000e+00,-0.000000000000000000e+00,-0.000000000000000000e+00,2.368568442761898041e-03,7.341922260820865631e-03,-0.000000000000000000e+00,6.361726205796003342e-03,-0.000000000000000000e+00,-0.000000000000000000e+00,3.793430005316622555e-05,1.400353619828820229e-03,5.900453776121139526e-03,4.811333958059549332e-03,-0.000000000000000000e+00,4.613335710018873215e-03,-0.000000000000000000e+00,-0.000000000000000000e+00,-0.000000000000000000e+00,5.519969854503870010e-03,5.366394761949777603e-03,-0.000000000000000000e+00,-0.000000000000000000e+00,2.811958082020282745e-03,-0.000000000000000000e+00,5.527042783796787262e-03,-0.000000000000000000e+00,-0.000000000000000000e+00,3.221885068342089653e-03,-0.000000000000000000e+00,-0.000000000000000000e+00,-0.000000000000000000e+00,6.087902002036571503e-03,3.311438485980033875e-03,-0.000000000000000000e+00,-0.000000000000000000e+00,7.364264223724603653e-03,1.951358746737241745e-03,-0.000000000000000000e+00,-0.000000000000000000e+00,-0.000000000000000000e+00,-0.000000000000000000e+00,-0.000000000000000000e+00,-0.000000000000000000e+00,-0.000000000000000000e+00,5.489188712090253830e-03
6.711683701723814011e-03,5.334734916687011719e-03,2.363217528909444809e-03,6.513480911962687969e-06,-0.000000000000000000e+00,2.100624376907944679e-03,-0.000000000000000000e+00,1.898615621030330658e-03,5.039447452872991562e-03,1.899808557936921716e-05,-0.000000000000000000e+00,-0.000000000000000000e+00,-0.000000000000000000e+00,1.693141449266022391e-08,4.060829989612102509e-03,3.341122530400753021e-03,-0.000000000000000000e+00,7.457251660525798798e-03,1.142438850365579128e-03,-0.000000000000000000e+00,4.866339731961488724e-03,9.214290912495926023e-06,7.140622008591890335e-03,2.588862344055087306e-06,-0.000000000000000000e+00,5.235112737864255905e-03,-0.000000000000000000e+00,-0.000000000000000000e+00,3.543972736224532127e-03,1.042051124386489391e-03,7.494078949093818665e-03,1.399225555360317230e-03,3.171015530824661255e-03,6.830186583101749420e-03,1.358281133434502408e-05,5.244012456387281418e-03,7.941403964650817215e-06,2.500310438335873187e-05,-0.000000000000000000e+00,5.151171353645622730e-04,-0.000000000000000000e+00,2.177314134314656258e-03,2.771799918264150620e-04,-0.000000000000000000e+00,4.920336417853832245e-03,1.450024029736596276e-07,9.897602240016567521e-07,5.783083543065004051e-05,6.670513655990362167e-03,6.151416442889967584e-08,7.190680548774253111e-07,2.835866995155811310e-03,1.543101272545754910e-03,-0.000000000000000000e+00,7.305001839995384216e-03,3.003983874805271626e-05,8.842043541790189920e-09,-0.000000000000000000e+00,7.213608361780643463e-03,1.951650847331620753e-05,1.133754722104640678e-05,3.843203885480761528e-03,1.480874023400247097e-03,1.018938564811833203e-05
6.333286873996257782e-03,3.666465170681476593e-03,2.729993313550949097e-03,4.910544492304325104e-03,3.458554390817880630e-03,5.239492747932672501e-03,4.079031896253582090e-06,3.839608325506560504e-05,4.605164751410484314e-03,2.955893869511783123e-04,-0.000000000000000000e+00,-0.000000000000000000e+00,2.503640949726104736e-03,3.173385746777057648e-03,4.529056139290332794e-03,5.786087058368138969e-05,5.120320711284875870e-03,5.222734995186328888e-03,4.044400062412023544e-03,-0.000000000000000000e+00,5.973274141979345586e-08,4.871982149779796600e-03,2.489620586857199669e-03,7.312174420803785324e-03,-0.000000000000000000e+00,5.855964496731758118e-03,5.281937554002524848e-09,-0.000000000000000000e+00,4.280176479369401932e-03,4.416786599904298782e-03,-0.000000000000000000e+00,6.819439931859960780e-06,7.241915227496065199e-07,5.695827770978212357e-03,4.214601591229438782e-03,4.718439187854528427e-03,1.833278220146894455e-03,2.466270001605153084e-03,5.080324131995439529e-03,-0.000000000000000000e+00,2.886159578338265419e-03,1.361304384772665799e-06,2.264620998175814748e-04,-0.000000000000000000e+00,6.447149906307458878e-03,4.549125675112009048e-03,2.143839607015252113e-03,-0.000000000000000000e+00,4.892280048807151616e-05,-0.000000000000000000e+00,3.218586090952157974e-03,9.069484076462686062e-04,-0.000000000000000000e+00,-0.000000000000000000e+00,3.588106878282815160e-08,3.871048975270241499e-04,2.597359838318880065e-08,-0.000000000000000000e+00,-0.000000000000000000e+00,1.308343722485005856e-03,1.956249616341665387e-04,5.895768708796822466e-07,8.305494557134807110e-04,-0.000000000000000000e+00
2.144220090372073173e-08,2.611551620066165924e-02,1.033494025468826294e-01,1.108064968138933182e-02,3.883265890181064606e-05,2.121349982917308807e-02,3.906592726707458496e-03,1.064533367753028870e-02,1.150396045090928965e-08,3.757653757929801941e-02,-0.000000000000000000e+00,-0.000000000000000000e+00,2.897433470934629440e-03,-0.000000000000000000e+00,-0.000000000000000000e+00,4.691460169851779938e-03,-0.000000000000000000e+00,1.147843301296234131e-01,3.246605920139700174e-04,2.101907057294738479e-06,1.216563032357953489e-05,4.966868832707405090e-02,3.481442481279373169e-02,-0.000000000000000000e+00,-0.000000000000000000e+00,2.040459366980940104e-04,-0.000000000000000000e+00,-0.000000000000000000e+00,2.549826353788375854e-02,1.017136685550212860e-02,-0.000000000000000000e+00,4.722443409264087677e-03,7.612883928231894970e-05,8.408776484429836273e-03,5.031060799956321716e-02,6.156758870929479599e-03,3.700059147959677830e-09,6.493676453828811646e-02,4.819719586521387100e-03,6.783939170418307185e-05,-0.000000000000000000e+00,3.304817015305161476e-03,3.398862853646278381e-02,-0.000000000000000000e+00,4.538393579423427582e-03,5.055795213593228254e-07,7.419610023498535156e-02,-0.000000000000000000e+00,8.071341551840305328e-03,-0.000000000000000000e+00,-0.000000000000000000e+00,9.152740240097045898e-02,2.652306499428824793e-11,-0.000000000000000000e+00,3.951940685510635376e-03,9.200656786561012268e-03,6.331579704976775247e-11,5.939397495239973068e-03,-0.000000000000000000e+00,8.316300064325332642e-02,1.387735083699226379e-02,-0.000000000000000000e+00,8.939787745475769043e-02,-0.000000000000000000e+00
3.653432031569536775e-06,4.790778085589408875e-02,1.349514871835708618e-01,1.091760769486427307e-02,3.470748924883082509e-05,4.093526676297187805e-02,9.621346544008702040e-05,6.205468904227018356e-03,3.853412810713052750e-03,5.950139462947845459e-02,-0.000000000000000000e+00,3.434126265347003937e-03,6.037468556314706802e-03,-0.000000000000000000e+00,-0.000000000000000000e+00,1.074571721255779266e-02,-0.000000000000000000e+00,1.590544134378433228e-01,6.011368241161108017e-04,6.718708667904138565e-03,3.928927253582514822e-05,8.210993558168411255e-02,5.769263207912445068e-02,-0.000000000000000000e+00,-0.000000000000000000e+00,7.564913015812635422e-03,-0.000000000000000000e+00,-0.000000000000000000e+00,4.596560448408126831e-02,1.528035290539264679e-02,-0.000000000000000000e+00,6.244349642656743526e-04,6.172120338305830956e-04,2.851297613233327866e-03,7.352457195520401001e-02,-0.000000000000000000e+00,5.768042989075183868e-03,9.677435457706451416e-02,1.020916533889248967e-05,7.069793355185538530e-05,-0.000000000000000000e+00,1.176987192593514919e-03,5.747936666011810303e-02,-0.000000000000000000e+00,9.521845728158950806e-03,8.184333069038984831e-07,1.079984605312347412e-01,-0.000000000000000000e+00,1.403871644288301468e-02,-0.000000000000000000e+00,-0.000000000000000000e+00,1.260718107223510742e-01,3.863065736368298531e-03,-0.000000000000000000e+00,4.140495788305997849e-03,1.547599211335182190e-02,9.496678998743846023e-10,6.898041814565658569e-03,-0.000000000000000000e+00,1.153702586889266968e-01,2.489460445940494537e-02,-0.000000000000000000e+00,1.294736713171005249e-01,-0.000000000000000000e+00
8.814570610411465168e-04,4.181002452969551086e-02,1.114838942885398865e-01,9.410712867975234985e-03,5.285649676807224751e-04,3.652324900031089783e-02,7.215225923573598266e-05,9.018891490995883942e-03,6.887607742100954056e-04,6.206387653946876526e-02,-0.000000000000000000e+00,-0.000000000000000000e+00,7.358609082075417973e-07,1.079753128578886390e-04,-0.000000000000000000e+00,1.586809940636157990e-02,-0.000000000000000000e+00,1.297916769981384277e-01,6.960505061215371825e-08,-0.000000000000000000e+00,6.408778426703065634e-05,7.864993065595626831e-02,1.917400211095809937e-02,-0.000000000000000000e+00,-0.000000000000000000e+00,1.913047046400606632e-03,-0.000000000000000000e+00,-0.000000000000000000e+00,3.813586011528968811e-02,3.745819209143519402e-03,-0.000000000000000000e+00,4.519395879469811916e-04,9.028959088027477264e-03,2.573818899691104889e-03,6.937807798385620117e-02,-0.000000000000000000e+00,1.423578336834907532e-02,8.577302098274230957e-02,1.449655314900155645e-06,9.389870683662593365e-04,-0.000000000000000000e+00,2.485447097569704056e-03,5.467043071985244751e-02,-0.000000000000000000e+00,1.587764942087233067e-03,1.108765061985650391e-07,2.548006176948547363e-02,-0.000000000000000000e+00,2.846647985279560089e-03,-0.000000000000000000e+00,-0.000000000000000000e+00,1.075934693217277527e-01,2.097803644574014470e-06,-0.000000000000000000e+00,2.974855084492133983e-10,8.430860005319118500e-03,3.514035729068609726e-09,1.344524789601564407e-02,-0.000000000000000000e+00,1.059863865375518799e-01,2.028503641486167908e-02,-0.000000000000000000e+00,1.130517199635505676e-01,-0.000000000000000000e+00
1.922149294841801748e-06,1.166008226573467255e-02,6.887239217758178711e-02,7.315519265830516815e-03,4.494716413319110870e-04,2.064266428351402283e-02,7.937044756545219570e-06,5.593050736933946609e-03,1.845290884375572205e-03,3.784808889031410217e-02,-0.000000000000000000e+00,-0.000000000000000000e+00,9.915938135236501694e-04,8.985185413621366024e-04,-0.000000000000000000e+00,-0.000000000000000000e+00,-0.000000000000000000e+00,1.017591506242752075e-01,-0.000000000000000000e+00,-0.000000000000000000e+00,3.771049159695394337e-05,3.086264431476593018e-02,3.192324936389923096e-02,6.278657820075750351e-03,-0.000000000000000000e+00,7.528367568738758564e-04,-0.000000000000000000e+00,-0.000000000000000000e+00,2.282257005572319031e-02,7.574059069156646729e-03,2.224719963805910083e-07,1.901450450532138348e-04,1.449821051210165024e-03,2.772365114651620388e-04,3.614979609847068787e-02,-0.000000000000000000e+00,8.782223798334598541e-03,4.011109471321105957e-02,2.872884579119272530e-07,-0.000000000000000000e+00,-0.000000000000000000e+00,2.190009225159883499e-03,1.876160688698291779e-02,-0.000000000000000000e+00,1.752682379446923733e-03,1.729259151034057140e-03,2.739660814404487610e-02,-0.000000000000000000e+00,7.564011029899120331e-03,1.271600049221888185e-04,-0.000000000000000000e+00,7.120662927627563477e-02,1.216130499415157828e-06,-0.000000000000000000e+00,-0.000000000000000000e+00,8.011851459741592407e-03,-0.000000000000000000e+00,-0.000000000000000000e+00,-0.000000000000000000e+00,5.893224105238914490e-02,1.052686851471662521e-02,7.604435086250305176e-03,5.965125188231468201e-02,-0.000000000000000000e+00
1.996411709114909172e-03,-0.000000000000000000e+00,3.985760733485221863e-02,7.494563236832618713e-03,-0.000000000000000000e+00,2.558689191937446594e-02,-0.000000000000000000e+00,1.923642680048942566e-02,6.591206416487693787e-03,5.106845870614051819e-02,-0.000000000000000000e+00,-0.000000000000000000e+00,1.265319315280066803e-05,-0.000000000000000000e+00,1.050385530106723309e-03,-0.000000000000000000e+00,-0.000000000000000000e+00,1.235396489500999451e-01,-0.000000000000000000e+00,2.127971034497022629e-03,4.449408152140676975e-04,1.445650402456521988e-02,5.026432871818542480e-02,1.911772787570953369e-02,-0.000000000000000000e+00,5.885322578251361847e-03,-0.000000000000000000e+00,-0.000000000000000000e+00,2.701724506914615631e-02,2.260321751236915588e-02,3.474589448160259053e-06,1.373109537183836437e-08,6.390571361407637596e-04,3.803594445344060659e-04,5.155376344919204712e-02,-0.000000000000000000e+00,9.217154234647750854e-03,3.626633808016777039e-02,-0.000000000000000000e+00,-0.000000000000000000e+00,-0.000000000000000000e+00,3.389657067600637674e-04,1.922342181205749512e-02,-0.000000000000000000e+00,-0.000000000000000000e+00,8.682948537170886993e-03,4.207441955804824829e-02,-0.000000000000000000e+00,2.441004849970340729e-03,3.560826007742434740e-04,-0.000000000000000000e+00,8.739582449197769165e-02,-0.000000000000000000e+00,-0.000000000000000000e+00,4.422293044626712799e-03,9.329603984951972961e-03,4.388254183140816167e-06,-0.000000000000000000e+00,-0.000000000000000000e+00,6.944694370031356812e-02,1.081707887351512909e-02,2.487199567258358002e-02,6.164970248937606812e-02,8.588173077441751957e-04
1.096260311896912754e-04,-0.000000000000000000e+00,2.837722189724445343e-02,-0.000000000000000000e+00,1.873938925564289093e-02,3.144354745745658875e-02,1.805734448134899139e-02,9.090230014408007264e-05,7.318365646824531723e-08,2.684672735631465912e-02,-0.000000000000000000e+00,2.335467189550399780e-02,1.978528127074241638e-02,-0.000000000000000000e+00,-0.000000000000000000e+00,-0.000000000000000000e+00,-0.000000000000000000e+00,1.022900268435478210e-01,1.675506209721788764e-04,6.134480237960815430e-03,8.701313287019729614e-03,5.057464540004730225e-02,4.045965895056724548e-02,6.534605199703946710e-05,-0.000000000000000000e+00,1.804320956580340862e-03,1.575808040797710419e-02,-0.000000000000000000e+00,1.456907391548156738e-02,3.530568210408091545e-04,5.275643779896199703e-04,1.087098941206932068e-02,-0.000000000000000000e+00,4.303381778299808502e-03,5.784175824373960495e-03,5.950365215539932251e-03,5.766608566045761108e-02,2.398107200860977173e-02,-0.000000000000000000e+00,-0.000000000000000000e+00,-0.000000000000000000e+00,3.030734136700630188e-03,1.150610297918319702e-02,3.828665649052709341e-04,-0.000000000000000000e+00,1.067340417648665607e-04,2.450885251164436340e-02,-0.000000000000000000e+00,6.022554356604814529e-03,1.364725059829652309e-03,-0.000000000000000000e+00,7.218979299068450928e-02,2.174555324018001556e-02,5.539851845242083073e-04,1.762837055139243603e-03,3.716944530606269836e-02,2.183149035772657953e-06,-0.000000000000000000e+00,-0.000000000000000000e+00,3.457731753587722778e-02,6.192989181727170944e-03,1.945435360539704561e-04,7.339588552713394165e-02,1.247754877198303802e-08
3.133897844236344099e-04,4.456291440874338150e-03,1.041130051016807556e-01,3.357483772560954094e-03,3.158868988975882530e-03,6.101582944393157959e-02,2.392406202852725983e-02,3.763001877814531326e-04,2.364361171203199774e-05,3.618146479129791260e-02,-0.000000000000000000e+00,2.391480095684528351e-02,1.898548193275928497e-02,-0.000000000000000000e+00,-0.000000000000000000e+00,-0.000000000000000000e+00,-0.000000000000000000e+00,2.707869410514831543e-01,3.076136345043778419e-04,3.261967562139034271e-03,2.623925916850566864e-03,8.641873300075531006e-02,4.706318303942680359e-02,4.382074791919876589e-07,1.936531134560937062e-06,-0.000000000000000000e+00,9.220390580594539642e-03,-0.000000000000000000e+00,4.103995114564895630e-02,1.013741642236709595e-02,8.995447053905536450e-09,7.606524042785167694e-03,3.778688982129096985e-02,-0.000000000000000000e+00,5.917759984731674194e-02,1.101823709905147552e-02,7.624073326587677002e-02,7.311763614416122437e-02,-0.000000000000000000e+00,-0.000000000000000000e+00,-0.000000000000000000e+00,8.430663001490756869e-05,3.218843415379524231e-02,-0.000000000000000000e+00,1.399382308591157198e-04,8.467658335575833917e-05,3.010715357959270477e-02,-0.000000000000000000e+00,3.947447985410690308e-03,1.122896210290491581e-03,-0.000000000000000000e+00,1.840906292200088501e-01,2.187375910580158234e-02,9.568490204401314259e-04,1.808674656786024570e-03,9.149681031703948975e-02,-0.000000000000000000e+00,-0.000000000000000000e+00,-0.000000000000000000e+00,1.355147361755371094e-01,2.109220065176486969e-02,3.788965055719017982e-03,1.503225266933441162e-01,6.647363903766745352e-08
6.903979228809475899e-04,1.159372646361589432e-02,8.160499855875968933e-04,1.084535382688045502e-02,1.075543742626905441e-02,5.696581304073333740e-02,1.075603440403938293e-02,2.098309993743896484e-02,2.450580359436571598e-04,4.020184278488159180e-02,6.034970738255651668e-06,1.655470347031950951e-03,3.161239204928278923e-03,-0.000000000000000000e+00,-0.000000000000000000e+00,-0.000000000000000000e+00,-0.000000000000000000e+00,2.284410446882247925e-01,-0.000000000000000000e+00,7.270154310390353203e-04,6.537885637953877449e-04,7.530844956636428833e-02,1.984230428934097290e-02,3.954980343223724049e-07,1.772655232343822718e-04,1.808942470233887434e-04,5.548379849642515182e-03,-0.000000000000000000e+00,1.968213357031345367e-02,5.334867164492607117e-03,-0.000000000000000000e+00,2.378777367994189262e-03,1.814377144910395145e-03,6.630473071709275246e-04,7.288865745067596436e-02,1.657935907132923603e-03,1.882172562181949615e-02,5.848685652017593384e-02,-0.000000000000000000e+00,-0.000000000000000000e+00,-0.000000000000000000e+00,-0.000000000000000000e+00,3.754036501049995422e-02,-0.000000000000000000e+00,9.019633755087852478e-03,2.681113546714186668e-04,5.811840668320655823e-02,-0.000000000000000000e+00,3.213221905753016472e-03,-0.000000000000000000e+00,4.700671518698129603e-10,1.499704271554946899e-01,1.078134682029485703e-02,2.045811619609594345e-03,8.839073707349598408e-04,5.942779779434204102e-02,-0.000000000000000000e+00,1.933486782945692539e-04,-0.000000000000000000e+00,1.240436583757400513e-01,1.533621270209550858e-02,4.344508342910557985e-04,1.309702098369598389e-01,3.150700678133944166e-08
1.358244626317173243e-04,-0.000000000000000000e+00,8.726404048502445221e-04,3.276855917647480965e-03,-0.000000000000000000e+00,2.369409194216132164e-03,8.099416845652740449e-06,2.882367465645074844e-03,4.081115592271089554e-03,7.701921276748180389e-03,1.353294402360916138e-02,6.386746466159820557e-02,-0.000000000000000000e+00,4.226800519973039627e-03,4.791900981217622757e-03,3.246124833822250366e-02,-0.000000000000000000e+00,2.487362176179885864e-02,8.088450878858566284e-03,4.830148071050643921e-02,-0.000000000000000000e+00,6.222949596121907234e-04,1.038883230648934841e-03,4.506123717874288559e-03,1.606190018355846405e-02,-0.000000000000000000e+00,8.597648702561855316e-03,6.789499311707913876e-04,1.650279946625232697e-02,6.019525695592164993e-03,6.181216798722743988e-03,2.430003508925437927e-02,-0.000000000000000000e+00,4.426757339388132095e-03,3.475260687991976738e-03,-0.000000000000000000e+00,2.344693930353969336e-04,3.580956906080245972e-02,2.224688977003097534e-02,4.291101545095443726e-02,1.855902723036706448e-03,2.300330437719821930e-02,9.944493649527430534e-04,1.235884707421064377e-02,8.837222307920455933e-02,2.447591396048665047e-03,5.259006470441818237e-02,2.080501057207584381e-02,-0.000000000000000000e+00,2.591574797406792641e-03,3.071626286654804971e-09,3.286225954070687294e-03,-0.000000000000000000e+00,3.408357501029968262e-02,-0.000000000000000000e+00,2.532632090151309967e-03,2.138454467058181763e-03,6.228313595056533813e-02,8.726262487471103668e-03,1.560077071189880371e-02,1.302875927649438381e-03,3.556121373549103737e-03,6.009039655327796936e-02,2.411659849599345762e-08
-0.000000000000000000e+00,1.420456246705725789e-04,5.946905002929270267e-05,-0.000000000000000000e+00,6.389975547790527344e-02,4.502218216657638550e-03,3.597361966967582703e-02,1.934666419401764870e-03,6.527092307806015015e-03,2.684724284335970879e-03,-0.000000000000000000e+00,1.663091480731964111e-01,2.070072852075099945e-02,3.329093669890426099e-05,-0.000000000000000000e+00,1.125918254256248474e-01,-0.000000000000000000e+00,1.524488627910614014e-01,3.265267238020896912e-02,9.462317824363708496e-02,4.574719071388244629e-02,1.230670586228370667e-01,7.495317840948700905e-04,2.061719669654848985e-06,1.405199244618415833e-02,3.412386868149042130e-03,4.018870741128921509e-02,2.588946954347193241e-04,4.270347580313682556e-02,1.305304700508713722e-03,-0.000000000000000000e+00,6.320884567685425282e-04,3.257519751787185669e-02,4.954962991178035736e-03,5.023112054914236069e-03,2.096607722342014313e-02,4.074394702911376953e-02,9.236773848533630371e-02,2.626281417906284332e-02,5.111136287450790405e-02,-0.000000000000000000e+00,3.155415132641792297e-02,1.896443031728267670e-02,1.437819446437060833e-04,9.332366287708282471e-02,1.381735046379617415e-06,1.330111082643270493e-02,-0.000000000000000000e+00,2.831257693469524384e-02,1.598248258233070374e-03,1.502735831309109926e-04,7.295109331607818604e-02,2.315540052950382233e-02,7.585514103993773460e-04,1.963452249765396118e-02,6.605293601751327515e-02,1.691049504870534292e-07,4.769814386963844299e-02,1.550289016449823976e-05,8.826950937509536743e-02,2.060658204072751687e-07,2.832271547958953306e-06,1.104630008339881897e-01,5.209236633163527586e-07
1.782198751243413426e-06,6.764872372150421143e-02,8.246683282777667046e-04,-0.000000000000000000e+00,1.667935252189636230e-01,7.461734861135482788e-02,6.572673469781875610e-02,2.358291996642947197e-03,1.532771624624729156e-03,2.573984675109386444e-03,-0.000000000000000000e+00,1.034487038850784302e-02,5.339093506336212158e-02,1.884218545455951244e-05,-0.000000000000000000e+00,2.197685390710830688e-01,-0.000000000000000000e+00,1.338327080011367798e-01,-0.000000000000000000e+00,1.328268945217132568e-01,1.002513766288757324e-01,2.571980357170104980e-01,1.719270460307598114e-02,3.987271702499128878e-05,3.717498108744621277e-02,9.800437692319974303e-05,8.711853623390197754e-02,1.499843299388885498e-01,3.904814366251230240e-03,1.560465179295533744e-08,6.954948422732698532e-11,1.585281104780733585e-03,7.107719779014587402e-02,9.187752380967140198e-03,4.133785550948232412e-04,4.980863258242607117e-02,7.978940755128860474e-02,1.841587829403579235e-03,1.894806191558018327e-04,2.324974350631237030e-02,-0.000000000000000000e+00,1.973075233399868011e-02,2.332110330462455750e-02,1.932346611283719540e-03,2.448297105729579926e-02,3.530221147229894996e-05,3.889783844351768494e-02,-0.000000000000000000e+00,3.371269255876541138e-02,3.169888397678732872e-03,1.559506781632080674e-04,1.274654120206832886e-01,6.094891205430030823e-02,9.907018466037698090e-06,5.907243117690086365e-02,1.262042224407196045e-01,3.274480377513100393e-06,4.031607822980731726e-04,3.408933844184502959e-05,2.454523295164108276e-01,-0.000000000000000000e+00,5.458883242681622505e-05,1.340784132480621338e-01,6.647655936831142753e-06
6.625073183386120945e-07,5.430014804005622864e-03,5.569488927721977234e-02,1.823996193706989288e-02,6.574990600347518921e-02,7.077766954898834229e-02,4.062941297888755798e-02,4.333165939897298813e-03,1.175986137241125107e-03,1.339083258062601089e-02,-0.000000000000000000e+00,4.948888439685106277e-03,4.416960850358009338e-02,-0.000000000000000000e+00,-0.000000000000000000e+00,1.958598755300045013e-02,-0.000000000000000000e+00,1.886907070875167847e-01,-0.000000000000000000e+00,2.217152342200279236e-02,5.294331908226013184e-02,1.389317512512207031e-01,6.461185216903686523e-02,1.185016226372681558e-04,3.822893777396529913e-04,4.730173168354667723e-05,5.680153146386146545e-02,5.296966992318630219e-03,1.484419219195842743e-02,4.525126371390797431e-07,2.016934397275349511e-09,7.509863935410976410e-04,5.926544591784477234e-02,-0.000000000000000000e+00,2.341308863833546638e-03,3.237766027450561523e-02,9.807428717613220215e-02,1.395534491166472435e-05,-0.000000000000000000e+00,2.240473259007558227e-05,-0.000000000000000000e+00,-0.000000000000000000e+00,1.155559718608856201e-02,-0.000000000000000000e+00,-0.000000000000000000e+00,1.101439338526688516e-04,3.588976338505744934e-02,-0.000000000000000000e+00,9.314974769949913025e-03,2.119072247296571732e-03,-0.000000000000000000e+00,1.482526361942291260e-01,4.396943002939224243e-02,-0.000000000000000000e+00,4.026478156447410583e-02,1.613405942916870117e-01,3.904774075635941699e-06,-0.000000000000000000e+00,-0.000000000000000000e+00,1.390236020088195801e-01,-0.000000000000000000e+00,1.036759000271558762e-03,1.151655241847038269e-01,9.234095159627031535e-06
4.658528603613376617e-03,-0.000000000000000000e+00,6.073428317904472351e-02,4.390152916312217712e-02,-0.000000000000000000e+00,4.142729938030242920e-02,4.771645646542310715e-03,6.118890270590782166e-02,1.786796748638153076e-02,7.644509896636009216e-03,-0.000000000000000000e+00,-0.000000000000000000e+00,-0.000000000000000000e+00,-0.000000000000000000e+00,-0.000000000000000000e+00,-0.000000000000000000e+00,-0.000000000000000000e+00,1.319127976894378662e-01,-0.000000000000000000e+00,-0.000000000000000000e+00,-0.000000000000000000e+00,3.412204750929959118e-05,5.198764055967330933e-02,5.038695409893989563e-02,-0.000000000000000000e+00,4.978776996722444892e-05,-0.000000000000000000e+00,-0.000000000000000000e+00,2.207243442535400391e-02,3.343204036355018616e-02,-0.000000000000000000e+00,2.141451550414785743e-04,6.540537924593081698e-06,-0.000000000000000000e+00,5.383786931633949280e-02,-0.000000000000000000e+00,2.871639840304851532e-02,2.676244825124740601e-02,4.738551506306976080e-04,-0.000000000000000000e+00,-0.000000000000000000e+00,-0.000000000000000000e+00,1.671949517913162708e-03,-0.000000000000000000e+00,-0.000000000000000000e+00,2.471308596432209015e-02,5.327772349119186401e-03,-0.000000000000000000e+00,-0.000000000000000000e+00,1.511671114712953568e-02,-0.000000000000000000e+00,8.715178817510604858e-02,-0.000000000000000000e+00,-0.000000000000000000e+00,1.268070423975586891e-03,8.088593930006027222e-02,4.487859841901808977e-04,3.829245542874559760e-08,-0.000000000000000000e+00,6.674019247293472290e-02,1.547506731003522873e-02,5.000235140323638916e-02,3.323755040764808655e-02,3.977665305137634277e-02
-0.000000000000000000e+00,-0.000000000000000000e+00,4.498742148280143738e-02,4.510059952735900879e-02,-0.000000000000000000e+00,2.969302423298358917e-02,4.028688708785921335e-04,9.409678727388381958e-02,2.058159373700618744e-02,5.116951651871204376e-03,-0.000000000000000000e+00,-0.000000000000000000e+00,-0.000000000000000000e+00,9.384238808252121089e-08,-0.000000000000000000e+00,-0.000000000000000000e+00,-0.000000000000000000e+00,2.016925364732742310e-01,-0.000000000000000000e+00,-0.000000000000000000e+00,-0.000000000000000000e+00,2.036204189062118530e-02,3.015820495784282684e-02,5.449767038226127625e-02,-0.000000000000000000e+00,2.601540414616465569e-03,-0.000000000000000000e+00,-0.000000000000000000e+00,1.500744745135307312e-02,2.576876245439052582e-02,-0.000000000000000000e+00,5.240289028733968735e-03,3.163018845953047276e-05,-0.000000000000000000e+00,5.065138638019561768e-02,1.035100780427455902e-03,1.822534762322902679e-02,6.715979427099227905e-02,5.551383364945650101e-03,-0.000000000000000000e+00,-0.000000000000000000e+00,-0.000000000000000000e+00,1.267255720449611545e-04,-0.000000000000000000e+00,-0.000000000000000000e+00,2.905097790062427521e-02,8.822620846331119537e-03,-0.000000000000000000e+00,-0.000000000000000000e+00,-0.000000000000000000e+00,5.323071964085102081e-03,1.356758028268814087e-01,-0.000000000000000000e+00,-0.000000000000000000e+00,3.351723717059940100e-04,1.319736689329147339e-01,-0.000000000000000000e+00,9.132317586590943392e-07,-0.000000000000000000e+00,1.202898770570755005e-01,1.964409835636615753e-02,7.199660688638687134e-02,2.317803353071212769e-02,2.198411524295806885e-02
2.612709249660838395e-05,1.775822420313488692e-05,4.446107149124145508e-02,4.224861413240432739e-02,-0.000000000000000000e+00,1.545672118663787842e-02,3.024812758667394519e-05,6.008929759263992310e-02,7.476149592548608780e-03,7.042584940791130066e-03,-0.000000000000000000e+00,-0.000000000000000000e+00,1.613481572348973714e-06,1.071305089084262363e-08,-0.000000000000000000e+00,-0.000000000000000000e+00,-0.000000000000000000e+00,1.538852155208587646e-01,-0.000000000000000000e+00,-0.000000000000000000e+00,-0.000000000000000000e+00,2.535827271640300751e-02,2.269476652145385742e-02,4.048125818371772766e-02,-0.000000000000000000e+00,2.514436164346989244e-05,-0.000000000000000000e+00,-0.000000000000000000e+00,9.683657437562942505e-03,1.525047235190868378e-02,-0.000000000000000000e+00,-0.000000000000000000e+00,2.107692649587988853e-03,-0.000000000000000000e+00,3.269448503851890564e-02,-0.000000000000000000e+00,7.870628498494625092e-03,5.687144771218299866e-02,1.975421328097581863e-03,-0.000000000000000000e+00,-0.000000000000000000e+00,2.646158216521143913e-03,8.027141302591189742e-05,-0.000000000000000000e+00,-0.000000000000000000e+00,1.806627027690410614e-02,7.158584892749786377e-03,-0.000000000000000000e+00,-0.000000000000000000e+00,-0.000000000000000000e+00,-0.000000000000000000e+00,1.022798642516136169e-01,-0.000000000000000000e+00,-0.000000000000000000e+00,2.931994618847966194e-03,8.818903565406799316e-02,-0.000000000000000000e+00,4.677339049408146820e-08,-0.000000000000000000e+00,9.209083020687103271e-02,1.304373797029256821e-02,4.773482307791709900e-02,1.808647066354751587e-02,1.289840415120124817e-02
3.721725428476929665e-03,5.609416402876377106e-03,1.106669679284095764e-01,4.009786620736122131e-02,-0.000000000000000000e+00,2.087816782295703888e-02,1.287446793867275119e-04,2.586968056857585907e-02,3.373987274244427681e-03,2.949007088318467140e-03,-0.000000000000000000e+00,-0.000000000000000000e+00,2.436811337247490883e-05,2.170308377458241011e-09,-0.000000000000000000e+00,-0.000000000000000000e+00,-0.000000000000000000e+00,1.122218891978263855e-01,-0.000000000000000000e+00,-0.000000000000000000e+00,-0.000000000000000000e+00,2.869209460914134979e-02,7.255482673645019531e-02,2.479841234162449837e-03,-0.000000000000000000e+00,3.188865375705063343e-04,-0.000000000000000000e+00,-0.000000000000000000e+00,8.754372596740722656e-03,2.302419580519199371e-02,-0.000000000000000000e+00,1.507101464085280895e-03,1.214891672134399414e-02,2.300088526681065559e-04,5.154792219400405884e-02,-0.000000000000000000e+00,3.525099545598209261e-09,4.266072064638137817e-02,1.436134043615311384e-04,-0.000000000000000000e+00,-0.000000000000000000e+00,-0.000000000000000000e+00,4.144286795053631067e-04,-0.000000000000000000e+00,-0.000000000000000000e+00,4.475848283618688583e-03,1.666012802161276340e-03,-0.000000000000000000e+00,1.208676956593990326e-02,-0.000000000000000000e+00,-0.000000000000000000e+00,8.693570643663406372e-02,6.416367250494658947e-05,-0.000000000000000000e+00,1.002549473196268082e-02,7.399989664554595947e-02,-0.000000000000000000e+00,2.826960221469221324e-09,-0.000000000000000000e+00,6.514136493206024170e-02,1.226521655917167664e-02,1.084766350686550140e-02,5.661980435252189636e-02,8.817715570330619812e-04
1.432990189641714096e-03,2.388730458915233612e-02,8.387847989797592163e-02,1.006506290286779404e-02,-0.000000000000000000e+00,1.192163303494453430e-02,4.511603619903326035e-03,1.109987962990999222e-02,6.171738496050238609e-04,5.014920607209205627e-03,-0.000000000000000000e+00,-0.000000000000000000e+00,2.463570330291986465e-03,3.833812297671101987e-05,-0.000000000000000000e+00,6.314882542937994003e-03,-0.000000000000000000e+00,9.599012136459350586e-02,-0.000000000000000000e+00,-0.000000000000000000e+00,-0.000000000000000000e+00,4.267087206244468689e-02,5.217606946825981140e-02,-0.000000000000000000e+00,-0.000000000000000000e+00,5.901434458792209625e-03,-0.000000000000000000e+00,-0.000000000000000000e+00,1.653928682208061218e-02,9.723351337015628815e-03,-0.000000000000000000e+00,1.827686792239546776e-03,2.316524740308523178e-03,7.955774199217557907e-04,4.132570326328277588e-02,5.668466110364533961e-05,-0.000000000000000000e+00,5.803807079792022705e-02,3.166418056935071945e-03,-0.000000000000000000e+00,-0.000000000000000000e+00,4.013114143162965775e-03,3.014243440702557564e-03,-0.000000000000000000e+00,-0.000000000000000000e+00,2.321510692127048969e-05,1.304880250245332718e-03,-0.000000000000000000e+00,1.015968434512615204e-02,-0.000000000000000000e+00,-0.000000000000000000e+00,7.292285561561584473e-02,2.050024457275867462e-03,-0.000000000000000000e+00,9.841356659308075905e-04,6.173593923449516296e-02,-0.000000000000000000e+00,-0.000000000000000000e+00,-0.000000000000000000e+00,7.095912098884582520e-02,1.190836541354656219e-02,-0.000000000000000000e+00,7.141306251287460327e-02,-0.000000000000000000e+00
6.134765688329935074e-03,5.055640824139118195e-03,1.337905135005712509e-02,7.300700992345809937e-03,-0.000000000000000000e+00,7.410828489810228348e-03,-0.000000000000000000e+00,4.395789001137018204e-03,5.341317504644393921e-03,3.866287181153893471e-03,-0.000000000000000000e+00,3.026260295882821083e-03,2.458778226355207153e-06,2.590527765278238803e-05,8.903947309590876102e-04,6.395454518496990204e-03,-0.000000000000000000e+00,3.203562647104263306e-02,6.059552077203989029e-03,2.877057762816548347e-03,4.819793161004781723e-03,1.427321042865514755e-02,9.781045839190483093e-03,-0.000000000000000000e+00,-0.000000000000000000e+00,6.375606608344241977e-05,-0.000000000000000000e+00,-0.000000000000000000e+00,1.101599354296922684e-02,1.312988344579935074e-03,-0.000000000000000000e+00,3.381471149623394012e-03,5.766556132584810257e-03,2.681485842913389206e-03,8.867441676557064056e-03,1.668546974542550743e-05,3.770188413909636438e-05,1.775375753641128540e-02,4.039073246531188488e-04,-0.000000000000000000e+00,-0.000000000000000000e+00,-0.000000000000000000e+00,2.817344618961215019e-03,-0.000000000000000000e+00,1.630687911529093981e-04,5.433531669041258283e-07,1.369922305457293987e-03,-0.000000000000000000e+00,6.068610236980021000e-04,-0.000000000000000000e+00,7.301787380129098892e-03,2.086032554507255554e-02,-0.000000000000000000e+00,-0.000000000000000000e+00,-0.000000000000000000e+00,1.057015359401702881e-02,-0.000000000000000000e+00,-0.000000000000000000e+00,-0.000000000000000000e+00,1.668603718280792236e-02,3.171899355947971344e-03,-0.000000000000000000e+00,1.873532123863697052e-02,-0.000000000000000000e+00
6.698322016745805740e-03,-0.000000000000000000e+00,6.616559810936450958e-03,-0.000000000000000000e+00,8.360790088772773743e-04,4.477700684219598770e-03,-0.000000000000000000e+00,-0.000000000000000000e+00,-0.000000000000000000e+00,7.299001328647136688e-03,2.045539906248450279e-03,-0.000000000000000000e+00,4.602712113410234451e-03,7.454779464751482010e-03,3.454084740951657295e-03,7.142808288335800171e-03,3.500315069686621428e-04,-0.000000000000000000e+00,6.933887489140033722e-03,-0.000000000000000000e+00,-0.000000000000000000e+00,2.345404820516705513e-03,-0.000000000000000000e+00,1.965689240023493767e-03,-0.000000000000000000e+00,5.293364170938730240e-03,-0.000000000000000000e+00,-0.000000000000000000e+00,-0.000000000000000000e+00,-0.000000000000000000e+00,-0.000000000000000000e+00,-0.000000000000000000e+00,-0.000000000000000000e+00,7.143476977944374084e-03,-0.000000000000000000e+00,5.206373520195484161e-03,1.732953824102878571e-03,-0.000000000000000000e+00,2.409381791949272156e-03,3.950026351958513260e-03,-0.000000000000000000e+00,2.678155899047851562e-03,-0.000000000000000000e+00,-0.000000000000000000e+00,-0.000000000000000000e+00,3.488286398351192474e-03,2.652774797752499580e-03,-0.000000000000000000e+00,-0.000000000000000000e+00,-0.000000000000000000e+00,1.211856375448405743e-03,1.548621570691466331e-03,2.351589064346626401e-04,3.747284063138067722e-04,-0.000000000000000000e+00,-0.000000000000000000e+00,-0.000000000000000000e+00,-0.000000000000000000e+00,-0.000000000000000000e+00,-0.000000000000000000e+00,-0.000000000000000000e+00,3.609679872170090675e-03,-0.000000000000000000e+00,-0.000000000000000000e+00
6.260019727051258087e-03,2.695391653105616570e-03,-0.000000000000000000e+00,1.384271308779716492e-03,7.449739146977663040e-03,3.108757780864834785e-03,-0.000000000000000000e+00,6.510893348604440689e-03,-0.000000000000000000e+00,-0.000000000000000000e+00,-0.000000000000000000e+00,5.659034010022878647e-03,-0.000000000000000000e+00,-0.000000000000000000e+00,2.407797612249851227e-03,-0.000000000000000000e+00,2.142569428542628884e-05,3.250016598030924797e-03,-0.000000000000000000e+00,-0.000000000000000000e+00,-0.000000000000000000e+00,-0.000000000000000000e+00,-0.000000000000000000e+00,-0.000000000000000000e+00,5.591321270912885666e-03,2.544628456234931946e-03,4.701804369688034058e-03,7.069709827192127705e-04,-0.000000000000000000e+00,-0.000000000000000000e+00,-0.000000000000000000e+00,1.019043033011257648e-03,-0.000000000000000000e+00,-0.000000000000000000e+00,2.622107975184917450e-03,8.309437544085085392e-04,-0.000000000000000000e+00,2.045459405053406954e-04,4.783299227710813284e-04,4.552899394184350967e-03,-0.000000000000000000e+00,2.455875277519226074e-03,1.209928537718951702e-03,-0.000000000000000000e+00,-0.000000000000000000e+00,3.193972632288932800e-03,-0.000000000000000000e+00,-0.000000000000000000e+00,5.157404579222202301e-03,5.597852170467376709e-03,-0.000000000000000000e+00,-0.000000000000000000e+00,7.301313336938619614e-03,5.018980242311954498e-03,-0.000000000000000000e+00,5.611898377537727356e-03,-0.000000000000000000e+00,-0.000000000000000000e+00,-0.000000000000000000e+00,-0.000000000000000000e+00,-0.000000000000000000e+00,6.795343942940235138e-03,-0.000000000000000000e+00,4.932633019052445889e-04
-0.000000000000000000e+00,3.058515489101409912e-03,1.374675193801522255e-03,2.532082144170999527e-03,-0.000000000000000000e+00,-0.000000000000000000e+00,-0.000000000000000000e+00,-0.000000000000000000e+00,-0.000000000000000000e+00,4.973726347088813782e-03,-0.000000000000000000e+00,-0.000000000000000000e+00,9.633222362026572227e-04,-0.000000000000000000e+00,1.188672613352537155e-03,3.332172054797410965e-03,7.053928449749946594e-03,5.923417862504720688e-03,-0.000000000000000000e+00,-0.000000000000000000e+00,-0.000000000000000000e+00,-0.000000000000000000e+00,6.547830533236265182e-03,2.906290465034544468e-04,-0.000000000000000000e+00,-0.000000000000000000e+00,-0.000000000000000000e+00,-0.000000000000000000e+00,3.262132871896028519e-03,1.138346618972718716e-03,6.439402699470520020e-03,-0.000000000000000000e+00,-0.000000000000000000e+00,1.465563662350177765e-03,-0.000000000000000000e+00,-0.000000000000000000e+00,6.073194672353565693e-04,2.392491092905402184e-03,-0.000000000000000000e+00,-0.000000000000000000e+00,-0.000000000000000000e+00,-0.000000000000000000e+00,-0.000000000000000000e+00,5.949188023805618286e-03,-0.000000000000000000e+00,2.910773968324065208e-03,-0.000000000000000000e+00,1.400879584252834320e-03,4.486407153308391571e-03,6.129121407866477966e-03,5.852947477251291275e-03,5.104145500808954239e-03,-0.000000000000000000e+00,-0.000000000000000000e+00,2.759092603810131550e-04,5.234417971223592758e-03,2.489597769454121590e-03,-0.000000000000000000e+00,4.139315336942672729e-03,-0.000000000000000000e+00,-0.000000000000000000e+00,-0.000000000000000000e+00,-0.000000000000000000e+00,4.245630465447902679e-03
-0.000000000000000000e+00,-0.000000000000000000e+00,6.816576234996318817e-03,2.624921267852187157e-03,3.295141970738768578e-03,-0.000000000000000000e+00,5.746341776102781296e-03,1.927697303472086787e-04,4.078508820384740829e-03,3.388580400496721268e-03,1.617041532881557941e-03,3.845924045890569687e-03,-0.000000000000000000e+00,-0.000000000000000000e+00,2.047011861577630043e-03,1.014718320220708847e-03,-0.000000000000000000e+00,6.943982560187578201e-03,-0.000000000000000000e+00,3.876604605466127396e-03,-0.000000000000000000e+00,4.524770774878561497e-04,-0.000000000000000000e+00,-0.000000000000000000e+00,-0.000000000000000000e+00,-0.000000000000000000e+00,-0.000000000000000000e+00,-0.000000000000000000e+00,1.192244701087474823e-03,-0.000000000000000000e+00,1.227478962391614914e-03,4.575944039970636368e-03,2.734570298343896866e-03,-0.000000000000000000e+00,2.013202538364566863e-05,7.461690256604924798e-05,6.480102892965078354e-03,-0.000000000000000000e+00,-0.000000000000000000e+00,-0.000000000000000000e+00,1.620957511477172375e-03,-0.000000000000000000e+00,-0.000000000000000000e+00,4.852687008678913116e-03,-0.000000000000000000e+00,-0.000000000000000000e+00,4.131184890866279602e-03,-0.000000000000000000e+00,-0.000000000000000000e+00,-0.000000000000000000e+00,-0.000000000000000000e+00,1.744249253533780575e-03,-0.000000000000000000e+00,-0.000000000000000000e+00,5.330251529812812805e-03,5.706815049052238464e-03,-0.000000000000000000e+00,-0.000000000000000000e+00,5.900837015360593796e-03,3.244202584028244019e-03,-0.000000000000000000e+00,4.657459445297718048e-03,2.628494286909699440e-03,1.551024266518652439e-03
-0.000000000000000000e+00,2.592987613752484322e-03,-0.000000000000000000e+00,3.661809954792261124e-03,2.989497268572449684e-03,2.654110547155141830e-03,1.433727331459522247e-03,-0.000000000000000000e+00,1.329235965386033058e-03,-0.000000000000000000e+00,3.905428806319832802e-03,-0.000000000000000000e+00,-0.000000000000000000e+00,-0.000000000000000000e+00,-0.000000000000000000e+00,5.818758159875869751e-03,-0.000000000000000000e+00,5.061482544988393784e-03,4.880858177784830332e-04,-0.000000000000000000e+00,-0.000000000000000000e+00,-0.000000000000000000e+00,6.085719724069349468e-05,6.854038219898939133e-03,-0.000000000000000000e+00,5.956603679805994034e-03,-0.000000000000000000e+00,3.139683743938803673e-03,2.411529421806335449e-03,6.974041461944580078e-04,2.803849754855036736e-03,-0.000000000000000000e+00,6.725795567035675049e-03,-0.000000000000000000e+00,4.375536460429430008e-03,-0.000000000000000000e+00,4.562109708786010742e-03,6.721708923578262329e-04,-0.000000000000000000e+00,1.511643291451036930e-03,2.981927245855331421e-03,2.053067786619067192e-03,-0.000000000000000000e+00,9.658107301220297813e-04,5.529886577278375626e-03,1.945696421898901463e-03,4.769562277942895889e-03,2.158481860533356667e-03,4.925254266709089279e-03,1.456608413718640804e-03,2.484211872797459364e-04,2.949230140075087547e-03,-0.000000000000000000e+00,-0.000000000000000000e+00,-0.000000000000000000e+00,-0.000000000000000000e+00,-0.000000000000000000e+00,-0.000000000000000000e+00,5.754393059760332108e-03,1.323794014751911163e-03,3.325779922306537628e-03,-0.000000000000000000e+00,2.847837517037987709e-03,4.997089039534330368e-03
5.556657444685697556e-03,1.238948898389935493e-03,5.342609714716672897e-03,6.942897569388151169e-03,3.626805497333407402e-03,3.834174480289220810e-03,-0.000000000000000000e+00,-0.000000000000000000e+00,5.879062227904796600e-03,-0.000000000000000000e+00,-0.000000000000000000e+00,5.128971301019191742e-03,-0.000000000000000000e+00,5.204829853028059006e-03,4.590069875121116638e-03,-0.000000000000000000e+00,-0.000000000000000000e+00,6.799166090786457062e-03,-0.000000000000000000e+00,-0.000000000000000000e+00,4.191652871668338776e-03,-0.000000000000000000e+00,-0.000000000000000000e+00,6.499920040369033813e-03,-0.000000000000000000e+00,-0.000000000000000000e+00,-0.000000000000000000e+00,6.986195687204599380e-03,6.652637850493192673e-03,-0.000000000000000000e+00,3.526164684444665909e-03,-0.000000000000000000e+00,-0.000000000000000000e+00,-0.000000000000000000e+00,-0.000000000000000000e+00,5.066227167844772339e-03,-0.000000000000000000e+00,-0.000000000000000000e+00,-0.000000000000000000e+00,2.667929802555590868e-04,6.519647780805826187e-03,4.600480664521455765e-03,3.146464703604578972e-03,8.817366906441748142e-04,1.089153578504920006e-03,-0.000000000000000000e+00,3.558746306225657463e-03,-0.000000000000000000e+00,4.251414444297552109e-03,-0.000000000000000000e+00,-0.000000000000000000e+00,7.130339741706848145e-03,-0.000000000000000000e+00,7.567293476313352585e-03,-0.000000000000000000e+00,3.657182911410927773e-03,7.628208026289939880e-03,-0.000000000000000000e+00,7.289281114935874939e-03,-0.000000000000000000e+00,5.741009488701820374e-03,-0.000000000000000000e+00,-0.000000000000000000e+00,-0.000000000000000000e+00
-0.000000000000000000e+00,5.604356061667203903e-03,3.022269652319664601e-07,1.850946500780992210e-05,-0.000000000000000000e+00,2.831557821991737001e-06,1.148379280557776383e-09,5.396908149123191833e-03,-0.000000000000000000e+00,5.774935289082350209e-06,-0.000000000000000000e+00,2.327259164303541183e-03,-0.000000000000000000e+00,7.056924489212690332e-10,3.143862355500459671e-03,5.269044544547796249e-03,7.086061872541904449e-03,1.862951758084818721e-04,-0.000000000000000000e+00,-0.000000000000000000e+00,-0.000000000000000000e+00,4.020275810034945607e-06,1.301063821301795542e-05,7.385538083326537162e-07,1.394081045873463154e-03,5.802555009722709656e-03,6.085987202823162079e-03,-0.000000000000000000e+00,2.961608115583658218e-03,2.445008021823014133e-06,7.596056442707777023e-03,-0.000000000000000000e+00,1.770519286736771392e-10,4.663179628551006317e-03,1.101549332815920934e-05,-0.000000000000000000e+00,2.718048635870218277e-03,4.080329556018114090e-03,6.440972909331321716e-03,2.933178097009658813e-03,1.553618465550243855e-03,2.085028681904077530e-03,2.221189904958009720e-03,-0.000000000000000000e+00,4.023674875497817993e-03,8.239577482527238317e-07,5.000671990273986012e-06,-0.000000000000000000e+00,4.929759539663791656e-03,6.413686787709593773e-04,-0.000000000000000000e+00,1.168867765954928473e-05,-0.000000000000000000e+00,7.342027500271797180e-03,1.258264425985089474e-08,1.477991008869139478e-05,2.897486556321382523e-03,-0.000000000000000000e+00,-0.000000000000000000e+00,1.338023343123495579e-03,2.365957945585250854e-03,3.225638531148433685e-03,4.827543161809444427e-03,7.382596842944622040e-03
6.789179053157567978e-03,-0.000000000000000000e+00,1.922905939863994718e-04,2.945306478068232536e-03,1.727924868464469910e-02,4.257586318999528885e-03,8.341360837221145630e-03,1.654260086070280522e-05,1.162960597866913304e-05,2.847951836884021759e-03,3.546698251739144325e-03,9.576155804097652435e-03,1.137732993811368942e-02,-0.000000000000000000e+00,-0.000000000000000000e+00,4.306487273424863815e-03,-0.000000000000000000e+00,1.558977924287319183e-02,1.074678264558315277e-03,1.865847781300544739e-02,1.652663573622703552e-03,1.339137926697731018e-02,1.608335599303245544e-02,-0.000000000000000000e+00,1.584276105859316885e-05,7.610475644469261169e-03,1.006274297833442688e-02,-0.000000000000000000e+00,4.135624971240758896e-03,-0.000000000000000000e+00,5.724588409066200256e-03,-0.000000000000000000e+00,7.492995820939540863e-03,6.672421004623174667e-04,-0.000000000000000000e+00,4.252817481756210327e-03,1.694710552692413330e-02,9.701997441879939288e-06,-0.000000000000000000e+00,3.654025262221693993e-03,-0.000000000000000000e+00,4.172323679085820913e-04,2.528674667701125145e-03,-0.000000000000000000e+00,6.476373411715030670e-03,1.056512974173529074e-05,3.209548071026802063e-03,-0.000000000000000000e+00,4.002955276519060135e-03,5.115393083542585373e-03,6.692098453640937805e-03,1.159773766994476318e-02,6.471877451986074448e-03,-0.000000000000000000e+00,6.587888114154338837e-03,1.486669294536113739e-02,-0.000000000000000000e+00,-0.000000000000000000e+00,-0.000000000000000000e+00,5.531457718461751938e-03,-0.000000000000000000e+00,1.811958645703271031e-05,5.003666039556264877e-03,-0.000000000000000000e+00
4.586236085742712021e-03,-0.000000000000000000e+00,9.888055734336376190e-03,1.033066492527723312e-02,3.935243003070354462e-03,9.283427149057388306e-03,1.703507383354008198e-03,8.192206732928752899e-03,7.029456838836267707e-08,8.041083812713623047e-03,-0.000000000000000000e+00,7.599931559525430202e-04,8.397376164793968201e-03,1.458160579204559326e-03,-0.000000000000000000e+00,-0.000000000000000000e+00,-0.000000000000000000e+00,2.608420513570308685e-02,5.544329062104225159e-03,9.455057792365550995e-03,1.643674186198040843e-04,4.476977512240409851e-03,1.007066201418638229e-02,7.277023512870073318e-03,3.200412947990116663e-06,-0.000000000000000000e+00,1.291428576223552227e-03,-0.000000000000000000e+00,7.131856866180896759e-03,1.671532401815056801e-03,6.663542706519365311e-03,3.174107056111097336e-03,1.171729061752557755e-02,-0.000000000000000000e+00,8.769213221967220306e-03,5.858835298568010330e-03,5.174636375159025192e-03,3.474409459158778191e-03,-0.000000000000000000e+00,-0.000000000000000000e+00,-0.000000000000000000e+00,1.216852033394388855e-04,5.497009959071874619e-03,-0.000000000000000000e+00,4.316515754908323288e-03,4.399858880788087845e-03,6.080792751163244247e-03,-0.000000000000000000e+00,1.265493570826947689e-03,5.743234069086611271e-04,6.945287896087393165e-05,2.097904868423938751e-02,2.199487295001745224e-03,-0.000000000000000000e+00,2.017269609495997429e-03,8.234633132815361023e-03,2.029806841164827347e-03,-0.000000000000000000e+00,-0.000000000000000000e+00,7.020018994808197021e-03,5.180188454687595367e-03,5.463417153805494308e-03,6.982793100178241730e-03,6.202044211534030183e-09
